{"problem": ["1_exp_tets.json"], "config": [{"bar_only": true, "stiffness": true, "collision": false, "teleops": false, "partial_ordering": false, "chosen_bars": null}], "write_time": ["2020-12-23 14:31:31.368016"], "parameters": [{"trans_tol": 0.005, "rot_tol": Infinity, "joint_resolution": [0.01, 0.01079, 0.00725, 0.012249, 0.009173, 0.037541, 0.01313], "joint_weight": [10.0, 0.38197097020626436, 0.38197097020626436, 0.38197097020626436, 0.15915457091927682, 0.15915457091927682, 0.12732365673542145], "joint_jump_threshold": 1.0471975511965976, "enable_self_collisions": true, "pos_step_size": 0.01, "ori_step_size": 0.17453292519943295, "retreat_distance": 0.07}], "plan": [[{"element": 1, "tag": "place_approach", "path": [[1.4092121124267578, -1.6837375164031982, 0.3510502576828003, -2.3828870345511453, 0.19416514237179727, -0.501738848327229], [1.446572184562683, -1.6505600214004517, 0.3808385133743286, -2.4867037304287467, 0.10215704201181422, -0.6540394983234455], [1.4770841598510742, -1.606086254119873, 0.4074932336807251, -2.602685701579741, 0.027249058881711117, -0.8141825041472961], [1.4990425109863281, -1.552157998085022, 0.4294842779636383, -2.729093840849184, -0.027754381771086082, -0.9818701825439208], [1.5111415386199951, -1.4910589456558228, 0.44550102949142456, -2.863134116254392, -0.06046828240598609, -1.155446438141878], [1.5125387907028198, -1.4254101514816284, 0.45451241731643677, -3.000982424192472, -0.06931991641845572, -1.332055712216716], [1.5028924942016602, -1.3580448627471924, 0.45581620931625366, -3.138216816991326, -0.05386127492004598, -1.5081717857862371]], "attachments": [{"parent_name": "", "parent_link_name": "link7", "grasp_pose": [[-1.1920928955078125e-07, -0.07155096530914307, 0.3705000579357147], [0.5000001192092896, 0.5, 0.5, -0.5]], "child_name": "body42"}]}, {"element": 1, "tag": "place_retreat", "path": [[1.5028924942016602, -1.3580448627471924, 0.45581620931625366, -3.138216816991326, -0.05386127492004598, -1.5081717857862371], [1.5033634901046753, -1.3580743074417114, 0.46455347537994385, -3.138216816991326, -0.05386127492004598, -1.5081717857862371], [1.50383460521698, -1.35810387134552, 0.47329071164131165, -3.138216816991326, -0.05386127492004598, -1.5081717857862371], [1.5043057203292847, -1.358133316040039, 0.48202797770500183, -3.138216816991326, -0.05386127492004598, -1.5081717857862371], [1.5047767162322998, -1.3581628799438477, 0.490765243768692, -3.138216816991326, -0.05386127492004598, -1.5081717857862371], [1.505247712135315, -1.3581923246383667, 0.4995025098323822, -3.138216816991326, -0.05386127492004598, -1.5081717857862371], [1.5057188272476196, -1.3582217693328857, 0.50823974609375, -3.138216816991326, -0.05386127492004598, -1.5081717857862371], [1.5061899423599243, -1.3582513332366943, 0.5169770121574402, -3.138216816991326, -0.05386127492004598, -1.5081717857862371], [1.5066609382629395, -1.3582807779312134, 0.5257142782211304, -3.1382168195443945, -0.05386127763452876, -1.5081717858504249]], "attachments": []}], [{"element": 0, "tag": "place_approach", "path": [[1.4342411756515503, -1.447135329246521, 0.3960276246070862, -2.8932108119991535, -0.81120190043406, -0.42271993267094604], [1.377625823020935, -1.4310270547866821, 0.42762160301208496, -2.9546545712436045, -0.6432716516123859, -0.4118675791415867], [1.3188177347183228, -1.4112247228622437, 0.449053555727005, -3.011990690529603, -0.4761137960021094, -0.3905689032889656], [1.2596553564071655, -1.3883849382400513, 0.45988476276397705, -3.0691965189468164, -0.31025845675286, -0.3607146621286374], [1.2019882202148438, -1.363264560699463, 0.4600255489349365, -3.1292003472767735, -0.1462974973253308, -0.3224906039215876], [1.147617220878601, -1.3366951942443848, 0.44973766803741455, 3.0884297047969764, 0.015011954066582935, -0.2749539158105106]], "attachments": [{"parent_name": "", "parent_link_name": "link7", "grasp_pose": [[5.960464477539063e-08, 0.19270062446594238, 0.37050002813339233], [0.5, 0.4999999403953552, 0.5000000596046448, -0.4999999403953552]], "child_name": "body41"}]}, {"element": 0, "tag": "place_retreat", "path": [[1.147617220878601, -1.3366951942443848, 0.44973766803741455, 3.0884297047969764, 0.015011954066582935, -0.2749539158105106], [1.1474671363830566, -1.336163878440857, 0.4597223997116089, 3.0884297047969764, 0.015011954066582935, -0.2749539158105106], [1.1473169326782227, -1.335632562637329, 0.4697071313858032, 3.0884297047969764, 0.015011954066582935, -0.2749539158105106], [1.1471668481826782, -1.3351012468338013, 0.47969189286231995, 3.0884297047969764, 0.015011954066582935, -0.2749539158105106], [1.1470167636871338, -1.3345699310302734, 0.48967665433883667, 3.0884297047969764, 0.015011954066582935, -0.2749539158105106], [1.1468666791915894, -1.3340386152267456, 0.499661386013031, 3.0884297047969764, 0.015011954066582935, -0.2749539158105106], [1.1467164754867554, -1.3335072994232178, 0.5096461176872253, 3.0884297047969764, 0.015011954066582935, -0.2749539158105106], [1.146566390991211, -1.33297598361969, 0.5196309089660645, 3.08842970809243, 0.015011952341923778, -0.27495388634953866]], "attachments": []}], [{"element": 2, "tag": "place_approach", "path": [[1.440721869468689, -1.4030953645706177, 0.4924842417240143, -2.8185586465645174, 0.1882597762520055, 0.2296594537860529], [1.4739973545074463, -1.3892385959625244, 0.49346721172332764, -2.8818703405640225, 0.16768888315417052, 0.3268670104229852], [1.5084409713745117, -1.3785637617111206, 0.49207186698913574, -2.9426390686900366, 0.1412221059390941, 0.4222143337295036], [1.543662190437317, -1.371261477470398, 0.48840346932411194, -3.0003783485835824, 0.10921915521548503, 0.5154236257301811], [1.5792604684829712, -1.367483139038086, 0.4825936555862427, -3.0547041272174615, 0.07208489409449734, 0.6063386806426945], [1.6148312091827393, -1.36733877658844, 0.4747990071773529, -3.105326977302182, 0.03025072894367647, 0.6949239707431621]], "attachments": [{"parent_name": "", "parent_link_name": "link7", "grasp_pose": [[-2.384185791015625e-07, 0.26676616072654724, 0.3704999089241028], [-0.5000000596046448, -0.5000000596046448, -0.5000000596046448, 0.5]], "child_name": "body43"}]}, {"element": 2, "tag": "place_retreat", "path": [[1.6148312091827393, -1.36733877658844, 0.4747990071773529, -3.105326977302182, 0.03025072894367647, 0.6949239707431621], [1.614528775215149, -1.3677011728286743, 0.48478785157203674, -3.105326977302182, 0.03025072894367647, 0.6949239707431621], [1.614226222038269, -1.3680635690689087, 0.4947766959667206, -3.105326977302182, 0.03025072894367647, 0.6949239707431621], [1.6139237880706787, -1.368425965309143, 0.5047655701637268, -3.105326977302182, 0.03025072894367647, 0.6949239707431621], [1.6136213541030884, -1.368788480758667, 0.5147544145584106, -3.105326977302182, 0.03025072894367647, 0.6949239707431621], [1.613318920135498, -1.3691508769989014, 0.5247432589530945, -3.105326977302182, 0.03025072894367647, 0.6949239707431621], [1.6130163669586182, -1.3695132732391357, 0.5347321033477783, -3.105326977302182, 0.03025072894367647, 0.6949239707431621], [1.6127139329910278, -1.3698756694793701, 0.5447210073471069, -3.1053269793549516, 0.030250728263779017, 0.6949239301522239]], "attachments": []}], [{"element": 4, "tag": "place_approach", "path": [[1.201969861984253, -1.1263418197631836, 0.2081039547920227, 1.437982014615732, 0.13764506523289205, -2.9252730955164052], [1.1735411882400513, -1.1115903854370117, 0.24873031675815582, 1.551065666995993, 0.20049771014550632, -2.9875639052915406], [1.14768648147583, -1.1025655269622803, 0.2913275361061096, 1.6695199963334362, 0.25583867569274016, -3.05763105861497], [1.1248434782028198, -1.0992670059204102, 0.33512312173843384, 1.7934689527511007, 0.3025219412055144, -3.1350706135633746], [1.1053944826126099, -1.101591944694519, 0.3793222904205322, 1.922591751192157, 0.3394358661387864, 3.0640856275600563], [1.0896607637405396, -1.1093337535858154, 0.4231231212615967, 2.0560649062789733, 0.3655879482539803, 2.97470537069407], [1.077894926071167, -1.1221873760223389, 0.465731143951416, 2.19257438557882, 0.3802061287824291, 2.8816710401110286]], "attachments": [{"parent_name": "", "parent_link_name": "link7", "grasp_pose": [[-1.4901161193847656e-07, -0.05854368209838867, 0.37049996852874756], [-0.4999999701976776, -0.5000000596046448, -0.5000000596046448, 0.5]], "child_name": "body45"}]}, {"element": 4, "tag": "place_retreat", "path": [[1.077894926071167, -1.1221873760223389, 0.465731143951416, 2.19257438557882, 0.3802061287824291, 2.8816710401110286], [1.0746476650238037, -1.1155829429626465, 0.47046390175819397, 2.19257438557882, 0.3802061287824291, 2.8816710401110286], [1.07140052318573, -1.1089783906936646, 0.47519662976264954, 2.19257438557882, 0.3802061287824291, 2.8816710401110286], [1.0681532621383667, -1.1023739576339722, 0.4799293875694275, 2.19257438557882, 0.3802061287824291, 2.8816710401110286], [1.0649060010910034, -1.0957694053649902, 0.48466214537620544, 2.19257438557882, 0.3802061287824291, 2.8816710401110286], [1.0616587400436401, -1.0891649723052979, 0.489394873380661, 2.19257438557882, 0.3802061287824291, 2.8816710401110286], [1.0584114789962769, -1.0825605392456055, 0.49412763118743896, 2.19257438557882, 0.3802061287824291, 2.8816710401110286], [1.0551643371582031, -1.0759559869766235, 0.49886035919189453, 2.19257438557882, 0.3802061287824291, 2.8816710401110286], [1.0519170761108398, -1.0693515539169312, 0.5035930871963501, 2.19257438557882, 0.3802061287824291, 2.8816710401110286]], "attachments": []}], [{"element": 3, "tag": "place_approach", "path": [[1.4093294143676758, -1.9661307334899902, 0.5924290418624878, -2.7385908301615878, -0.2668166590809259, -0.28335944955992], [1.3907986879348755, -1.998435378074646, 0.5623701810836792, -2.607702997077158, -0.22412152421729686, -0.20930309865865318], [1.36944580078125, -2.0249288082122803, 0.5281014442443848, -2.481594809923876, -0.17257243328889196, -0.1422145868002514], [1.3458055257797241, -2.0449604988098145, 0.49030160903930664, -2.3602311663262867, -0.11330086681153571, -0.08269883325207386], [1.3204572200775146, -2.058006525039673, 0.4497191905975342, -2.2432049424980467, -0.04744662982755865, -0.031088055969930146], [1.29401433467865, -2.063680648803711, 0.4071574807167053, -2.1298122319612984, 0.023882369647423258, 0.012449095161037909], [1.2671115398406982, -2.0617423057556152, 0.36345863342285156, -2.019116666474397, 0.09962962413023779, 0.0478047440648618]], "attachments": [{"parent_name": "", "parent_link_name": "link7", "grasp_pose": [[-1.1920928955078125e-07, -0.1340126395225525, 0.37049996852874756], [-0.4999999403953552, -0.4999999403953552, -0.5000000596046448, 0.5]], "child_name": "body44"}]}, {"element": 3, "tag": "place_retreat", "path": [[1.2671115398406982, -2.0617423057556152, 0.36345863342285156, -2.019116666474397, 0.09962962413023779, 0.0478047440648618], [1.2661168575286865, -2.070709228515625, 0.3677716851234436, -2.019116666474397, 0.09962962413023779, 0.0478047440648618], [1.2651222944259644, -2.079676389694214, 0.37208470702171326, -2.019116666474397, 0.09962962413023779, 0.0478047440648618], [1.2641276121139526, -2.0886435508728027, 0.3763977289199829, -2.019116666474397, 0.09962962413023779, 0.0478047440648618], [1.263132929801941, -2.0976104736328125, 0.38071078062057495, -2.019116666474397, 0.09962962413023779, 0.0478047440648618], [1.2621382474899292, -2.1065776348114014, 0.3850237727165222, -2.019116666474397, 0.09962962413023779, 0.0478047440648618], [1.261143684387207, -2.1155447959899902, 0.38933682441711426, -2.019116666474397, 0.09962962413023779, 0.0478047440648618], [1.2601490020751953, -2.12451171875, 0.3936498761177063, -2.0191167046858625, 0.09962963536990865, 0.04780475621693041]], "attachments": []}], [{"element": 5, "tag": "place_approach", "path": [[1.8473542928695679, -1.1456652879714966, 0.35579854249954224, 2.354409403130751, -0.45500697638773324, -2.302754151904206], [1.877435564994812, -1.1843425035476685, 0.3596513867378235, 2.4977000083636844, -0.5895984773005066, -2.2856716289026555], [1.9032024145126343, -1.2259175777435303, 0.3549978733062744, 2.659446118920099, -0.7203980428717269, -2.2414526478544743]], "attachments": [{"parent_name": "", "parent_link_name": "link7", "grasp_pose": [[-5.960464477539062e-07, -0.2902980446815491, 0.370499849319458], [-0.4999999403953552, -0.5000001788139343, -0.5000000596046448, 0.5000000596046448]], "child_name": "body46"}]}, {"element": 5, "tag": "place_retreat", "path": [[1.9032024145126343, -1.2259175777435303, 0.3549978733062744, 2.659446118920099, -0.7203980428717269, -2.2414526478544743], [1.9089746475219727, -1.2228684425354004, 0.36082422733306885, 2.659446118920099, -0.7203980428717269, -2.2414526478544743], [1.914746880531311, -1.219819188117981, 0.3666505813598633, 2.659446118920099, -0.7203980428717269, -2.2414526478544743], [1.9205191135406494, -1.216770052909851, 0.3724769353866577, 2.659446118920099, -0.7203980428717269, -2.2414526478544743], [1.9262913465499878, -1.2137209177017212, 0.37830328941345215, 2.659446118920099, -0.7203980428717269, -2.2414526478544743], [1.9320635795593262, -1.2106716632843018, 0.3841296434402466, 2.659446118920099, -0.7203980428717269, -2.2414526478544743], [1.9378358125686646, -1.2076225280761719, 0.389955997467041, 2.659446118920099, -0.7203980428717269, -2.2414526478544743], [1.943608045578003, -1.2045732736587524, 0.39578235149383545, 2.659446118920099, -0.7203980428717269, -2.2414526478544743], [1.9493802785873413, -1.2015241384506226, 0.40160855650901794, 2.659446010677467, -0.7203981071285985, -2.241452697114755]], "attachments": []}]], "element_from_index": {"0": {"axis_endpoints": [[1.1366201171875001, -1.297771728515625, 0.07643508911132812], [1.27436328125, -1.785306640625, 0.10444920349121094]], "radius": 0.0127, "goal_pose": {"index": 0, "value": [[1.20549169921875, -1.5415391845703126, 0.09044214630126954], [0.41470254918113436, 0.5481020844953923, -0.43826752867056684, 0.5792473340357023]]}}, "1": {"axis_endpoints": [[1.14940185546875, -1.3359111328125, 0.10390870666503907], [1.673876953125, -1.368751220703125, 0.075521484375]], "radius": 0.0127, "goal_pose": {"index": 1, "value": [[1.411639404296875, -1.3523311767578123, 0.08971509552001954], [0.022693690749917613, 0.7255723849057643, -0.021500882057234834, 0.6874353953158576]]}}, "2": {"axis_endpoints": [[1.636494140625, -1.3413818359375, 0.10548332214355469], [1.2741015625, -1.775604248046875, 0.07875587463378907]], "radius": 0.0127, "goal_pose": {"index": 2, "value": [[1.4552978515625, -1.5584930419921874, 0.09211959838867187], [0.6554003765657727, 0.30667976721384976, -0.6251595746432355, 0.29252926863989426]]}}, "3": {"axis_endpoints": [[1.32292333984375, -1.55858056640625, 0.56341162109375], [1.2977475585937501, -1.78554833984375, 0.0857244873046875]], "radius": 0.0127, "goal_pose": {"index": 3, "value": [[1.31033544921875, -1.672064453125, 0.32456805419921875], [0.726622007671484, 0.6504798654175803, -0.16475290832880915, 0.14748858210379323]]}}, "4": {"axis_endpoints": [[1.2977939453125, -1.569435546875, 0.5557482299804688], [1.16093310546875, -1.291076904296875, 0.07339999389648438]], "radius": 0.0127, "goal_pose": {"index": 4, "value": [[1.229363525390625, -1.4302562255859375, 0.3145741119384766], [0.8144679635428891, -0.5071391581301347, -0.23927792934619552, -0.14898954050923993]]}}, "5": {"axis_endpoints": [[1.29983935546875, -1.5446435546875001, 0.5631434936523437], [1.67590234375, -1.34598876953125, 0.08660888671875]], "radius": 0.0127, "goal_pose": {"index": 5, "value": [[1.4878708496093749, -1.445316162109375, 0.32487619018554686], [-0.22481795311572014, 0.9069131557970235, 0.08573496699438053, 0.345853916030474]]}}}, "conmech_model": {"model_name": "1_exp_tets.json", "unit": "meter", "generate_time": "2020-12-23 14:31:31.392014", "node_num": 27, "element_num": 33, "nodes": [{"point": [1.1366201171875001, -1.297771728515625, 0.07643508911132812], "node_ind": 0, "is_grounded": false}, {"point": [1.27436328125, -1.785306640625, 0.10444920349121094], "node_ind": 1, "is_grounded": false}, {"point": [1.14940185546875, -1.3359111328125, 0.10390870666503907], "node_ind": 2, "is_grounded": false}, {"point": [1.673876953125, -1.368751220703125, 0.075521484375], "node_ind": 3, "is_grounded": false}, {"point": [1.636494140625, -1.3413818359375, 0.10548332214355469], "node_ind": 4, "is_grounded": false}, {"point": [1.2741015625, -1.775604248046875, 0.07875587463378907], "node_ind": 5, "is_grounded": false}, {"point": [1.32292333984375, -1.55858056640625, 0.56341162109375], "node_ind": 6, "is_grounded": false}, {"point": [1.2977475585937501, -1.78554833984375, 0.0857244873046875], "node_ind": 7, "is_grounded": false}, {"point": [1.2977939453125, -1.569435546875, 0.5557482299804688], "node_ind": 8, "is_grounded": false}, {"point": [1.16093310546875, -1.291076904296875, 0.07339999389648438], "node_ind": 9, "is_grounded": false}, {"point": [1.29983935546875, -1.5446435546875001, 0.5631434936523437], "node_ind": 10, "is_grounded": false}, {"point": [1.67590234375, -1.34598876953125, 0.08660888671875], "node_ind": 11, "is_grounded": false}, {"point": [1.14792236328125, -1.337775634765625, 0.07873373413085938], "node_ind": 12, "is_grounded": false}, {"point": [1.1366201171875001, -1.297771728515625, 0.06373508911132812], "node_ind": 13, "is_grounded": false}, {"point": [1.613486328125, -1.364969970703125, 0.07879010009765625], "node_ind": 14, "is_grounded": false}, {"point": [1.61468505859375, -1.36751416015625, 0.10387481689453125], "node_ind": 15, "is_grounded": false}, {"point": [1.673876953125, -1.368751220703125, 0.062821484375], "node_ind": 16, "is_grounded": false}, {"point": [1.271427734375, -1.77491748046875, 0.10385223388671876], "node_ind": 17, "is_grounded": false}, {"point": [1.2741015625, -1.775604248046875, 0.06605587463378906], "node_ind": 18, "is_grounded": false}, {"point": [1.2985029296875, -1.77873876953125, 0.10005635070800782], "node_ind": 19, "is_grounded": false}, {"point": [1.2791176757812501, -1.7695939941406251, 0.07912580871582031], "node_ind": 20, "is_grounded": false}, {"point": [1.3223164062500001, -1.56405126953125, 0.5518975830078126], "node_ind": 21, "is_grounded": false}, {"point": [1.1727290039062501, -1.315068115234375, 0.11497257995605469], "node_ind": 22, "is_grounded": false}, {"point": [1.17067919921875, -1.337243408203125, 0.10275704956054688], "node_ind": 23, "is_grounded": false}, {"point": [1.2965234375, -1.5668505859375, 0.5512689208984375], "node_ind": 24, "is_grounded": false}, {"point": [1.6547944335937501, -1.357138916015625, 0.11335609436035156], "node_ind": 25, "is_grounded": false}, {"point": [1.30517138671875, -1.541826904296875, 0.5563867797851563], "node_ind": 26, "is_grounded": false}], "elements": [{"end_node_inds": [12, 2], "elem_ind": 0, "elem_tag": "connector0", "bending_stiff": true}, {"end_node_inds": [0, 13], "elem_ind": 1, "elem_tag": "connector1", "bending_stiff": true}, {"end_node_inds": [14, 15], "elem_ind": 2, "elem_tag": "connector2", "bending_stiff": true}, {"end_node_inds": [3, 16], "elem_ind": 3, "elem_tag": "connector3", "bending_stiff": true}, {"end_node_inds": [5, 17], "elem_ind": 4, "elem_tag": "connector4", "bending_stiff": true}, {"end_node_inds": [5, 18], "elem_ind": 5, "elem_tag": "connector5", "bending_stiff": true}, {"end_node_inds": [19, 1], "elem_ind": 6, "elem_tag": "connector6", "bending_stiff": true}, {"end_node_inds": [7, 20], "elem_ind": 7, "elem_tag": "connector7", "bending_stiff": true}, {"end_node_inds": [21, 8], "elem_ind": 8, "elem_tag": "connector8", "bending_stiff": true}, {"end_node_inds": [9, 0], "elem_ind": 9, "elem_tag": "connector9", "bending_stiff": true}, {"end_node_inds": [22, 23], "elem_ind": 10, "elem_tag": "connector10", "bending_stiff": true}, {"end_node_inds": [24, 10], "elem_ind": 11, "elem_tag": "connector11", "bending_stiff": true}, {"end_node_inds": [11, 3], "elem_ind": 12, "elem_tag": "connector12", "bending_stiff": true}, {"end_node_inds": [25, 4], "elem_ind": 13, "elem_tag": "connector13", "bending_stiff": true}, {"end_node_inds": [26, 6], "elem_ind": 14, "elem_tag": "connector14", "bending_stiff": true}, {"end_node_inds": [1, 17], "elem_ind": 15, "elem_tag": "bar0", "bending_stiff": true}, {"end_node_inds": [17, 12], "elem_ind": 16, "elem_tag": "bar0", "bending_stiff": true}, {"end_node_inds": [12, 0], "elem_ind": 17, "elem_tag": "bar0", "bending_stiff": true}, {"end_node_inds": [2, 23], "elem_ind": 18, "elem_tag": "bar1", "bending_stiff": true}, {"end_node_inds": [23, 14], "elem_ind": 19, "elem_tag": "bar1", "bending_stiff": true}, {"end_node_inds": [14, 3], "elem_ind": 20, "elem_tag": "bar1", "bending_stiff": true}, {"end_node_inds": [5, 20], "elem_ind": 21, "elem_tag": "bar2", "bending_stiff": true}, {"end_node_inds": [20, 15], "elem_ind": 22, "elem_tag": "bar2", "bending_stiff": true}, {"end_node_inds": [15, 4], "elem_ind": 23, "elem_tag": "bar2", "bending_stiff": true}, {"end_node_inds": [7, 19], "elem_ind": 24, "elem_tag": "bar3", "bending_stiff": true}, {"end_node_inds": [19, 21], "elem_ind": 25, "elem_tag": "bar3", "bending_stiff": true}, {"end_node_inds": [21, 6], "elem_ind": 26, "elem_tag": "bar3", "bending_stiff": true}, {"end_node_inds": [8, 24], "elem_ind": 27, "elem_tag": "bar4", "bending_stiff": true}, {"end_node_inds": [24, 22], "elem_ind": 28, "elem_tag": "bar4", "bending_stiff": true}, {"end_node_inds": [22, 9], "elem_ind": 29, "elem_tag": "bar4", "bending_stiff": true}, {"end_node_inds": [10, 26], "elem_ind": 30, "elem_tag": "bar5", "bending_stiff": true}, {"end_node_inds": [26, 25], "elem_ind": 31, "elem_tag": "bar5", "bending_stiff": true}, {"end_node_inds": [25, 11], "elem_ind": 32, "elem_tag": "bar5", "bending_stiff": true}], "supports": [{"condition": [1, 1, 1, 1, 1, 1], "node_ind": 0}, {"condition": [1, 1, 1, 1, 1, 1], "node_ind": 13}, {"condition": [1, 1, 1, 1, 1, 1], "node_ind": 3}, {"condition": [1, 1, 1, 1, 1, 1], "node_ind": 16}, {"condition": [1, 1, 1, 1, 1, 1], "node_ind": 5}, {"condition": [1, 1, 1, 1, 1, 1], "node_ind": 18}], "joints": [], "materials": [{"E": 10500000.0, "G12": 3600000.0, "G3": 3600000.0, "mu": 0.45833333333333326, "fy": 13000.0, "density": 6, "elem_tags": ["bar4", "bar0", "bar5", "bar1", "bar2", "bar3"], "family": "Wood", "name": "Wood", "type_name": "ISO"}, {"E": 1050000.0, "G12": 360000.0, "G3": 360000.0, "mu": 0.45833333333333326, "fy": 13000.0, "density": 6, "elem_tags": ["connector6", "connector8", "connector0", "connector9", "connector14", "connector3", "connector10", "connector4", "connector12", "connector5", "connector1", "connector2", "connector11", "connector7", "connector13"], "family": "Connector", "name": "Glue", "type_name": "ISO"}], "cross_secs": [{"A": 0.0005067074790974977, "Jx": 4.08634246518177e-08, "Iy": 2.043171232590885e-08, "Iz": 2.043171232590885e-08, "elem_tags": ["connector6", "connector8", "connector0", "connector9", "bar0", "connector12", "connector5", "connector1", "connector2", "bar1", "connector7", "connector13", "bar4", "connector14", "connector3", "connector10", "bar5", "connector4", "connector11", "bar2", "bar3"], "family": "Circular", "name": "solid_circle"}], "fem_element_from_bar_id": {"0": [0, 1, 4, 6, 9, 15, 16, 17], "1": [0, 2, 3, 10, 12, 18, 19, 20], "-1": [1, 3, 5], "2": [2, 4, 5, 7, 13, 21, 22, 23], "3": [6, 7, 8, 14, 24, 25, 26], "4": [8, 9, 10, 11, 27, 28, 29], "5": [32, 11, 12, 13, 14, 30, 31]}}, "stiffness_history": [[true, 0.00017016856460986795], [true, 9.114202786853464e-07], [true, 9.6546990200107e-07], [true, 0.00013556795362701862], [true, 3.921647677477703e-05], [true, 1.258100841470625e-06]], "fem_element_from_bar_id": {"0": [0, 1, 4, 6, 9, 15, 16, 17], "1": [0, 2, 3, 10, 12, 18, 19, 20], "-1": [1, 3, 5], "2": [2, 4, 5, 7, 13, 21, 22, 23], "3": [6, 7, 8, 14, 24, 25, 26], "4": [8, 9, 10, 11, 27, 28, 29], "5": [32, 11, 12, 13, 14, 30, 31]}, "planning_data": {"num_evaluated": 6, "min_remaining": 0, "max_backtrack": 0, "stiffness_failures": 0, "place_failures": 0, "transit_failures": 0, "transfer_failures": 0}}