{"problem": ["1_exp_tets.json"], "config": [{"bar_only": true, "stiffness": true, "collision": false, "teleops": false, "partial_ordering": false, "chosen_bars": null}], "write_time": ["2020-12-23 14:31:18.163153"], "parameters": [{"trans_tol": 0.005, "rot_tol": Infinity, "joint_resolution": [0.01, 0.01079, 0.00725, 0.012249, 0.009173, 0.037541, 0.01313], "joint_weight": [10.0, 0.38197097020626436, 0.38197097020626436, 0.38197097020626436, 0.15915457091927682, 0.15915457091927682, 0.12732365673542145], "joint_jump_threshold": 1.0471975511965976, "enable_self_collisions": true, "pos_step_size": 0.01, "ori_step_size": 0.17453292519943295, "retreat_distance": 0.07}], "plan": [[{"element": 1, "tag": "place_approach", "path": [[1.0691685676574707, -1.4947047233581543, 0.23084810376167297, 2.9452550965065347, 0.793231357972484, -2.2458619187714515], [1.0739154815673828, -1.4528261423110962, 0.2745779752731323, 2.930215997959432, 0.6456322030637954, -2.1083091566579237], [1.0879825353622437, -1.4161062240600586, 0.3188377916812897, 2.9396152368825232, 0.4978130878464264, -1.9857931234102755], [1.110585331916809, -1.3857022523880005, 0.36208704113960266, 2.9675224819454056, 0.3519772319705195, -1.869712832017374], [1.1406135559082031, -1.3625307083129883, 0.40282368659973145, 3.0113261269735716, 0.21004317414943344, -1.7542776446286243], [1.1766752004623413, -1.3472336530685425, 0.4396410286426544, 3.0703196030128024, 0.07399973020257224, -1.6350339607599518], [1.2171483039855957, -1.3401529788970947, 0.47128212451934814, -3.138216816991326, -0.05386127492004598, -1.5081717857862371]], "attachments": [{"parent_name": "", "parent_link_name": "link7", "grasp_pose": [[0.0, 0.2151702642440796, 0.3705000579357147], [0.5000001192092896, 0.5, 0.5, -0.5]], "child_name": "body42"}]}, {"element": 1, "tag": "place_retreat", "path": [[1.2171483039855957, -1.3401529788970947, 0.47128212451934814, -3.138216816991326, -0.05386127492004598, -1.5081717857862371], [1.2176192998886108, -1.3401824235916138, 0.48001939058303833, -3.138216816991326, -0.05386127492004598, -1.5081717857862371], [1.2180904150009155, -1.3402119874954224, 0.4887566566467285, -3.138216816991326, -0.05386127492004598, -1.5081717857862371], [1.2185615301132202, -1.3402414321899414, 0.4974939227104187, -3.138216816991326, -0.05386127492004598, -1.5081717857862371], [1.2190325260162354, -1.34027099609375, 0.5062311887741089, -3.138216816991326, -0.05386127492004598, -1.5081717857862371], [1.2195035219192505, -1.340300440788269, 0.5149684548377991, -3.138216816991326, -0.05386127492004598, -1.5081717857862371], [1.2199746370315552, -1.340329885482788, 0.5237057209014893, -3.138216816991326, -0.05386127492004598, -1.5081717857862371], [1.2204457521438599, -1.3403594493865967, 0.5324429273605347, -3.138216816991326, -0.05386127492004598, -1.5081717857862371], [1.220916748046875, -1.3403888940811157, 0.5411802530288696, -3.1382168195443945, -0.05386127763452876, -1.5081717858504249]], "attachments": []}], [{"element": 0, "tag": "place_approach", "path": [[1.409525752067566, -1.5808870792388916, 0.45786604285240173, -2.72913203183937, -0.5305707471375036, 0.17751970313806084], [1.3738903999328613, -1.5431463718414307, 0.4711594879627228, -2.8321065387160895, -0.45561614709511583, 0.07640235874559675], [1.335010051727295, -1.506727933883667, 0.478957861661911, -2.922970371295406, -0.37240405839299767, -0.012509799712179257], [1.2935435771942139, -1.472106695175171, 0.48105037212371826, -3.003188876100074, -0.28255101848216124, -0.09065754656737977], [1.250191330909729, -1.4397273063659668, 0.4773211181163788, -3.0742950038493913, -0.18736933118765012, -0.15954304126834631], [1.2056858539581299, -1.4099969863891602, 0.4677502512931824, -3.137725533447463, -0.0879056962948438, -0.22056608124704744], [1.1607788801193237, -1.3832800388336182, 0.45241445302963257, 3.0884297047969764, 0.015011954066582935, -0.2749539158105106]], "attachments": [{"parent_name": "", "parent_link_name": "link7", "grasp_pose": [[0.0, 0.14421820640563965, 0.37049999833106995], [0.5, 0.4999999403953552, 0.5000000596046448, -0.4999999403953552]], "child_name": "body41"}]}, {"element": 0, "tag": "place_retreat", "path": [[1.1607788801193237, -1.3832800388336182, 0.45241445302963257, 3.0884297047969764, 0.015011954066582935, -0.2749539158105106], [1.1606475114822388, -1.3828151226043701, 0.461151123046875, 3.0884297047969764, 0.015011954066582935, -0.2749539158105106], [1.1605161428451538, -1.382350206375122, 0.46988776326179504, 3.0884297047969764, 0.015011954066582935, -0.2749539158105106], [1.1603847742080688, -1.381885290145874, 0.4786244034767151, 3.0884297047969764, 0.015011954066582935, -0.2749539158105106], [1.1602535247802734, -1.3814204931259155, 0.4873610734939575, 3.0884297047969764, 0.015011954066582935, -0.2749539158105106], [1.1601221561431885, -1.3809555768966675, 0.49609774351119995, 3.0884297047969764, 0.015011954066582935, -0.2749539158105106], [1.1599907875061035, -1.3804906606674194, 0.5048344135284424, 3.0884297047969764, 0.015011954066582935, -0.2749539158105106], [1.1598594188690186, -1.3800257444381714, 0.51357102394104, 3.0884297047969764, 0.015011954066582935, -0.2749539158105106], [1.1597280502319336, -1.3795608282089233, 0.5223076939582825, 3.08842970809243, 0.015011952341923778, -0.27495388634953866]], "attachments": []}], [{"element": 2, "tag": "place_approach", "path": [[1.1228044033050537, -1.3984079360961914, 0.2530151605606079, 2.5181614368943257, 0.6041519272812492, 1.948740197391139], [1.1340571641921997, -1.461400032043457, 0.30920612812042236, 2.7218780766268984, 0.5619404559977632, 1.642100186540105], [1.1669940948486328, -1.5231025218963623, 0.36070409417152405, 2.8950857170218867, 0.47228896518429525, 1.3620387129407594], [1.2198636531829834, -1.5790964365005493, 0.4042026400566101, 3.028070792525271, 0.34653652039388483, 1.1147466439396057], [1.2895612716674805, -1.625349998474121, 0.43693816661834717, 3.121126963860732, 0.19605856206399905, 0.8955374875493913], [1.3718397617340088, -1.6584935188293457, 0.4568776786327362, -3.105326977302182, 0.03025072894367647, 0.6949239707431621]], "attachments": [{"parent_name": "", "parent_link_name": "link7", "grasp_pose": [[-2.384185791015625e-07, -0.11288771033287048, 0.3704998791217804], [-0.5000000596046448, -0.5000000596046448, -0.5000000596046448, 0.5]], "child_name": "body43"}]}, {"element": 2, "tag": "place_retreat", "path": [[1.3718397617340088, -1.6584935188293457, 0.4568776786327362, -3.105326977302182, 0.03025072894367647, 0.6949239707431621], [1.3715373277664185, -1.65885591506958, 0.46686652302742004, -3.105326977302182, 0.03025072894367647, 0.6949239707431621], [1.3712347745895386, -1.6592183113098145, 0.47685539722442627, -3.105326977302182, 0.03025072894367647, 0.6949239707431621], [1.3709323406219482, -1.6595807075500488, 0.4868442416191101, -3.105326977302182, 0.03025072894367647, 0.6949239707431621], [1.370629906654358, -1.6599432229995728, 0.49683308601379395, -3.105326977302182, 0.03025072894367647, 0.6949239707431621], [1.3703274726867676, -1.6603056192398071, 0.5068219304084778, -3.105326977302182, 0.03025072894367647, 0.6949239707431621], [1.3700249195098877, -1.6606680154800415, 0.5168107748031616, -3.105326977302182, 0.03025072894367647, 0.6949239707431621], [1.3697224855422974, -1.6610304117202759, 0.526799738407135, -3.1053269793549516, 0.030250728263779017, 0.6949239301522239]], "attachments": []}], [{"element": 4, "tag": "place_approach", "path": [[1.306929111480713, -1.590066909790039, 0.7382927536964417, -3.010117125147333, 0.3625143953292912, 1.8258908836340855], [1.2568119764328003, -1.5414901971817017, 0.7549771070480347, 3.0738154248609013, 0.45048388671982037, 2.0200395306373737], [1.213952660560608, -1.4823416471481323, 0.7619962692260742, 2.8521688173292343, 0.4991762378550694, 2.2368012421670107], [1.180837869644165, -1.4153772592544556, 0.7589253783226013, 2.6207032880503305, 0.5031482329015715, 2.4634591892230526], [1.1594266891479492, -1.3437753915786743, 0.7458863258361816, 2.3962597329979483, 0.4619153498259216, 2.6830407115405888], [1.1510450839996338, -1.2709661722183228, 0.7235395908355713, 2.19257438557882, 0.3802061287824291, 2.8816710401110286]], "attachments": [{"parent_name": "", "parent_link_name": "link7", "grasp_pose": [[-1.7881393432617188e-07, 0.24797093868255615, 0.3705000877380371], [-0.4999999701976776, -0.5000000596046448, -0.5000000596046448, 0.5]], "child_name": "body45"}]}, {"element": 4, "tag": "place_retreat", "path": [[1.1510450839996338, -1.2709661722183228, 0.7235395908355713, 2.19257438557882, 0.3802061287824291, 2.8816710401110286], [1.1477978229522705, -1.2643617391586304, 0.7282723188400269, 2.19257438557882, 0.3802061287824291, 2.8816710401110286], [1.1445506811141968, -1.2577571868896484, 0.7330050468444824, 2.19257438557882, 0.3802061287824291, 2.8816710401110286], [1.1413034200668335, -1.251152753829956, 0.737737774848938, 2.19257438557882, 0.3802061287824291, 2.8816710401110286], [1.1380561590194702, -1.2445483207702637, 0.7424705028533936, 2.19257438557882, 0.3802061287824291, 2.8816710401110286], [1.134808897972107, -1.2379437685012817, 0.7472033500671387, 2.19257438557882, 0.3802061287824291, 2.8816710401110286], [1.1315616369247437, -1.2313393354415894, 0.7519360780715942, 2.19257438557882, 0.3802061287824291, 2.8816710401110286], [1.12831449508667, -1.2247347831726074, 0.7566688060760498, 2.19257438557882, 0.3802061287824291, 2.8816710401110286], [1.1250672340393066, -1.218130350112915, 0.7614015340805054, 2.19257438557882, 0.3802061287824291, 2.8816710401110286]], "attachments": []}], [{"element": 3, "tag": "place_approach", "path": [[1.3234505653381348, -2.0893051624298096, 0.5397540330886841, -2.4351022731069167, -0.42856529092408624, 0.5198866125775801], [1.306241512298584, -2.098525047302246, 0.5073803663253784, -2.388475836036615, -0.3425892419457479, 0.4626374854616405], [1.2914382219314575, -2.1056087017059326, 0.4722706079483032, -2.3380517082312555, -0.25928755118999436, 0.40279594241098676], [1.279331922531128, -2.1104283332824707, 0.4348295331001282, -2.283571558109403, -0.17909608252231568, 0.3398502487017159], [1.270174264907837, -2.1128902435302734, 0.39549535512924194, -2.224737253552446, -0.10251191246219243, 0.2733114522041771], [1.2641730308532715, -2.1129353046417236, 0.3547351360321045, -2.1612371972597586, -0.03009763926059445, 0.2027185815683036], [1.261488914489746, -2.1105408668518066, 0.31303656101226807, -2.0927761672536893, 0.03751570184289181, 0.12766058977103673], [1.2622334957122803, -2.105719804763794, 0.270901620388031, -2.019116666474397, 0.09962962413023779, 0.0478047440648618]], "attachments": [{"parent_name": "", "parent_link_name": "link7", "grasp_pose": [[-1.1920928955078125e-07, -0.23660221695899963, 0.37049996852874756], [-0.4999999403953552, -0.4999999403953552, -0.5000000596046448, 0.5]], "child_name": "body44"}]}, {"element": 3, "tag": "place_retreat", "path": [[1.2622334957122803, -2.105719804763794, 0.270901620388031, -2.019116666474397, 0.09962962413023779, 0.0478047440648618], [1.2612388134002686, -2.1146867275238037, 0.27521467208862305, -2.019116666474397, 0.09962962413023779, 0.0478047440648618], [1.2602442502975464, -2.1236538887023926, 0.2795276939868927, -2.019116666474397, 0.09962962413023779, 0.0478047440648618], [1.2592495679855347, -2.1326210498809814, 0.28384071588516235, -2.019116666474397, 0.09962962413023779, 0.0478047440648618], [1.258254885673523, -2.141587972640991, 0.2881537675857544, -2.019116666474397, 0.09962962413023779, 0.0478047440648618], [1.2572602033615112, -2.15055513381958, 0.29246675968170166, -2.019116666474397, 0.09962962413023779, 0.0478047440648618], [1.256265640258789, -2.159522294998169, 0.2967798113822937, -2.019116666474397, 0.09962962413023779, 0.0478047440648618], [1.2552709579467773, -2.1684892177581787, 0.30109286308288574, -2.0191167046858625, 0.09962963536990865, 0.04780475621693041]], "attachments": []}], [{"element": 5, "tag": "place_approach", "path": [[1.6417381763458252, -1.1622862815856934, 0.6475093960762024, 3.0077086389862027, 0.0970064609197526, -2.6299144926098723], [1.7011374235153198, -1.1489317417144775, 0.6129022836685181, 2.930255408751974, -0.028780013176294115, -2.5483286184277056], [1.7564210891723633, -1.1454042196273804, 0.5707179307937622, 2.8624504778376814, -0.1601436978393713, -2.4758027637592432], [1.8058199882507324, -1.151710033416748, 0.5222412943840027, 2.802602386570712, -0.29584028989750427, -2.410427246367755], [1.8477306365966797, -1.16758131980896, 0.4689332842826843, 2.749389646967797, -0.4349158176403467, -2.3505526561870846], [1.8807579278945923, -1.192482352256775, 0.4123895764350891, 2.701856677738048, -0.5766300827544056, -2.2947053501047465], [1.90375554561615, -1.2256253957748413, 0.3542969524860382, 2.659446118920099, -0.7203980428717269, -2.2414526478544743]], "attachments": [{"parent_name": "", "parent_link_name": "link7", "grasp_pose": [[-7.152557373046875e-07, -0.2912375330924988, 0.370499849319458], [-0.4999999403953552, -0.5000001788139343, -0.5000000596046448, 0.5000000596046448]], "child_name": "body46"}]}, {"element": 5, "tag": "place_retreat", "path": [[1.90375554561615, -1.2256253957748413, 0.3542969524860382, 2.659446118920099, -0.7203980428717269, -2.2414526478544743], [1.9095277786254883, -1.2225762605667114, 0.36012330651283264, 2.659446118920099, -0.7203980428717269, -2.2414526478544743], [1.9153000116348267, -1.219527006149292, 0.3659496605396271, 2.659446118920099, -0.7203980428717269, -2.2414526478544743], [1.921072244644165, -1.216477870941162, 0.3717760145664215, 2.659446118920099, -0.7203980428717269, -2.2414526478544743], [1.9268444776535034, -1.2134286165237427, 0.37760233879089355, 2.659446118920099, -0.7203980428717269, -2.2414526478544743], [1.9326167106628418, -1.2103794813156128, 0.383428692817688, 2.659446118920099, -0.7203980428717269, -2.2414526478544743], [1.9383889436721802, -1.207330346107483, 0.3892550468444824, 2.659446118920099, -0.7203980428717269, -2.2414526478544743], [1.9441611766815186, -1.2042810916900635, 0.39508140087127686, 2.659446118920099, -0.7203980428717269, -2.2414526478544743], [1.949933409690857, -1.2012319564819336, 0.40090763568878174, 2.659446010677467, -0.7203981071285985, -2.241452697114755]], "attachments": []}]], "element_from_index": {"0": {"axis_endpoints": [[1.1366201171875001, -1.297771728515625, 0.07643508911132812], [1.27436328125, -1.785306640625, 0.10444920349121094]], "radius": 0.0127, "goal_pose": {"index": 0, "value": [[1.20549169921875, -1.5415391845703126, 0.09044214630126954], [0.41470254918113436, 0.5481020844953923, -0.43826752867056684, 0.5792473340357023]]}}, "1": {"axis_endpoints": [[1.14940185546875, -1.3359111328125, 0.10390870666503907], [1.673876953125, -1.368751220703125, 0.075521484375]], "radius": 0.0127, "goal_pose": {"index": 1, "value": [[1.411639404296875, -1.3523311767578123, 0.08971509552001954], [0.022693690749917613, 0.7255723849057643, -0.021500882057234834, 0.6874353953158576]]}}, "2": {"axis_endpoints": [[1.636494140625, -1.3413818359375, 0.10548332214355469], [1.2741015625, -1.775604248046875, 0.07875587463378907]], "radius": 0.0127, "goal_pose": {"index": 2, "value": [[1.4552978515625, -1.5584930419921874, 0.09211959838867187], [0.6554003765657727, 0.30667976721384976, -0.6251595746432355, 0.29252926863989426]]}}, "3": {"axis_endpoints": [[1.32292333984375, -1.55858056640625, 0.56341162109375], [1.2977475585937501, -1.78554833984375, 0.0857244873046875]], "radius": 0.0127, "goal_pose": {"index": 3, "value": [[1.31033544921875, -1.672064453125, 0.32456805419921875], [0.726622007671484, 0.6504798654175803, -0.16475290832880915, 0.14748858210379323]]}}, "4": {"axis_endpoints": [[1.2977939453125, -1.569435546875, 0.5557482299804688], [1.16093310546875, -1.291076904296875, 0.07339999389648438]], "radius": 0.0127, "goal_pose": {"index": 4, "value": [[1.229363525390625, -1.4302562255859375, 0.3145741119384766], [0.8144679635428891, -0.5071391581301347, -0.23927792934619552, -0.14898954050923993]]}}, "5": {"axis_endpoints": [[1.29983935546875, -1.5446435546875001, 0.5631434936523437], [1.67590234375, -1.34598876953125, 0.08660888671875]], "radius": 0.0127, "goal_pose": {"index": 5, "value": [[1.4878708496093749, -1.445316162109375, 0.32487619018554686], [-0.22481795311572014, 0.9069131557970235, 0.08573496699438053, 0.345853916030474]]}}}, "conmech_model": {"model_name": "1_exp_tets.json", "unit": "meter", "generate_time": "2020-12-23 14:31:18.195158", "node_num": 27, "element_num": 33, "nodes": [{"point": [1.1366201171875001, -1.297771728515625, 0.07643508911132812], "node_ind": 0, "is_grounded": false}, {"point": [1.27436328125, -1.785306640625, 0.10444920349121094], "node_ind": 1, "is_grounded": false}, {"point": [1.14940185546875, -1.3359111328125, 0.10390870666503907], "node_ind": 2, "is_grounded": false}, {"point": [1.673876953125, -1.368751220703125, 0.075521484375], "node_ind": 3, "is_grounded": false}, {"point": [1.636494140625, -1.3413818359375, 0.10548332214355469], "node_ind": 4, "is_grounded": false}, {"point": [1.2741015625, -1.775604248046875, 0.07875587463378907], "node_ind": 5, "is_grounded": false}, {"point": [1.32292333984375, -1.55858056640625, 0.56341162109375], "node_ind": 6, "is_grounded": false}, {"point": [1.2977475585937501, -1.78554833984375, 0.0857244873046875], "node_ind": 7, "is_grounded": false}, {"point": [1.2977939453125, -1.569435546875, 0.5557482299804688], "node_ind": 8, "is_grounded": false}, {"point": [1.16093310546875, -1.291076904296875, 0.07339999389648438], "node_ind": 9, "is_grounded": false}, {"point": [1.29983935546875, -1.5446435546875001, 0.5631434936523437], "node_ind": 10, "is_grounded": false}, {"point": [1.67590234375, -1.34598876953125, 0.08660888671875], "node_ind": 11, "is_grounded": false}, {"point": [1.14792236328125, -1.337775634765625, 0.07873373413085938], "node_ind": 12, "is_grounded": false}, {"point": [1.1366201171875001, -1.297771728515625, 0.06373508911132812], "node_ind": 13, "is_grounded": false}, {"point": [1.613486328125, -1.364969970703125, 0.07879010009765625], "node_ind": 14, "is_grounded": false}, {"point": [1.61468505859375, -1.36751416015625, 0.10387481689453125], "node_ind": 15, "is_grounded": false}, {"point": [1.673876953125, -1.368751220703125, 0.062821484375], "node_ind": 16, "is_grounded": false}, {"point": [1.271427734375, -1.77491748046875, 0.10385223388671876], "node_ind": 17, "is_grounded": false}, {"point": [1.2741015625, -1.775604248046875, 0.06605587463378906], "node_ind": 18, "is_grounded": false}, {"point": [1.2985029296875, -1.77873876953125, 0.10005635070800782], "node_ind": 19, "is_grounded": false}, {"point": [1.2791176757812501, -1.7695939941406251, 0.07912580871582031], "node_ind": 20, "is_grounded": false}, {"point": [1.3223164062500001, -1.56405126953125, 0.5518975830078126], "node_ind": 21, "is_grounded": false}, {"point": [1.1727290039062501, -1.315068115234375, 0.11497257995605469], "node_ind": 22, "is_grounded": false}, {"point": [1.17067919921875, -1.337243408203125, 0.10275704956054688], "node_ind": 23, "is_grounded": false}, {"point": [1.2965234375, -1.5668505859375, 0.5512689208984375], "node_ind": 24, "is_grounded": false}, {"point": [1.6547944335937501, -1.357138916015625, 0.11335609436035156], "node_ind": 25, "is_grounded": false}, {"point": [1.30517138671875, -1.541826904296875, 0.5563867797851563], "node_ind": 26, "is_grounded": false}], "elements": [{"end_node_inds": [12, 2], "elem_ind": 0, "elem_tag": "connector0", "bending_stiff": true}, {"end_node_inds": [0, 13], "elem_ind": 1, "elem_tag": "connector1", "bending_stiff": true}, {"end_node_inds": [14, 15], "elem_ind": 2, "elem_tag": "connector2", "bending_stiff": true}, {"end_node_inds": [3, 16], "elem_ind": 3, "elem_tag": "connector3", "bending_stiff": true}, {"end_node_inds": [5, 17], "elem_ind": 4, "elem_tag": "connector4", "bending_stiff": true}, {"end_node_inds": [5, 18], "elem_ind": 5, "elem_tag": "connector5", "bending_stiff": true}, {"end_node_inds": [19, 1], "elem_ind": 6, "elem_tag": "connector6", "bending_stiff": true}, {"end_node_inds": [7, 20], "elem_ind": 7, "elem_tag": "connector7", "bending_stiff": true}, {"end_node_inds": [21, 8], "elem_ind": 8, "elem_tag": "connector8", "bending_stiff": true}, {"end_node_inds": [9, 0], "elem_ind": 9, "elem_tag": "connector9", "bending_stiff": true}, {"end_node_inds": [22, 23], "elem_ind": 10, "elem_tag": "connector10", "bending_stiff": true}, {"end_node_inds": [24, 10], "elem_ind": 11, "elem_tag": "connector11", "bending_stiff": true}, {"end_node_inds": [11, 3], "elem_ind": 12, "elem_tag": "connector12", "bending_stiff": true}, {"end_node_inds": [25, 4], "elem_ind": 13, "elem_tag": "connector13", "bending_stiff": true}, {"end_node_inds": [26, 6], "elem_ind": 14, "elem_tag": "connector14", "bending_stiff": true}, {"end_node_inds": [1, 17], "elem_ind": 15, "elem_tag": "bar0", "bending_stiff": true}, {"end_node_inds": [17, 12], "elem_ind": 16, "elem_tag": "bar0", "bending_stiff": true}, {"end_node_inds": [12, 0], "elem_ind": 17, "elem_tag": "bar0", "bending_stiff": true}, {"end_node_inds": [2, 23], "elem_ind": 18, "elem_tag": "bar1", "bending_stiff": true}, {"end_node_inds": [23, 14], "elem_ind": 19, "elem_tag": "bar1", "bending_stiff": true}, {"end_node_inds": [14, 3], "elem_ind": 20, "elem_tag": "bar1", "bending_stiff": true}, {"end_node_inds": [5, 20], "elem_ind": 21, "elem_tag": "bar2", "bending_stiff": true}, {"end_node_inds": [20, 15], "elem_ind": 22, "elem_tag": "bar2", "bending_stiff": true}, {"end_node_inds": [15, 4], "elem_ind": 23, "elem_tag": "bar2", "bending_stiff": true}, {"end_node_inds": [7, 19], "elem_ind": 24, "elem_tag": "bar3", "bending_stiff": true}, {"end_node_inds": [19, 21], "elem_ind": 25, "elem_tag": "bar3", "bending_stiff": true}, {"end_node_inds": [21, 6], "elem_ind": 26, "elem_tag": "bar3", "bending_stiff": true}, {"end_node_inds": [8, 24], "elem_ind": 27, "elem_tag": "bar4", "bending_stiff": true}, {"end_node_inds": [24, 22], "elem_ind": 28, "elem_tag": "bar4", "bending_stiff": true}, {"end_node_inds": [22, 9], "elem_ind": 29, "elem_tag": "bar4", "bending_stiff": true}, {"end_node_inds": [10, 26], "elem_ind": 30, "elem_tag": "bar5", "bending_stiff": true}, {"end_node_inds": [26, 25], "elem_ind": 31, "elem_tag": "bar5", "bending_stiff": true}, {"end_node_inds": [25, 11], "elem_ind": 32, "elem_tag": "bar5", "bending_stiff": true}], "supports": [{"condition": [1, 1, 1, 1, 1, 1], "node_ind": 0}, {"condition": [1, 1, 1, 1, 1, 1], "node_ind": 13}, {"condition": [1, 1, 1, 1, 1, 1], "node_ind": 3}, {"condition": [1, 1, 1, 1, 1, 1], "node_ind": 16}, {"condition": [1, 1, 1, 1, 1, 1], "node_ind": 5}, {"condition": [1, 1, 1, 1, 1, 1], "node_ind": 18}], "joints": [], "materials": [{"E": 10500000.0, "G12": 3600000.0, "G3": 3600000.0, "mu": 0.45833333333333326, "fy": 13000.0, "density": 6, "elem_tags": ["bar0", "bar4", "bar3", "bar5", "bar1", "bar2"], "family": "Wood", "name": "Wood", "type_name": "ISO"}, {"E": 1050000.0, "G12": 360000.0, "G3": 360000.0, "mu": 0.45833333333333326, "fy": 13000.0, "density": 6, "elem_tags": ["connector8", "connector2", "connector1", "connector4", "connector10", "connector6", "connector11", "connector5", "connector0", "connector7", "connector13", "connector14", "connector12", "connector3", "connector9"], "family": "Connector", "name": "Glue", "type_name": "ISO"}], "cross_secs": [{"A": 0.0005067074790974977, "Jx": 4.08634246518177e-08, "Iy": 2.043171232590885e-08, "Iz": 2.043171232590885e-08, "elem_tags": ["connector8", "bar0", "bar4", "bar5", "connector7", "connector14", "connector5", "connector9", "connector2", "connector1", "connector4", "connector10", "bar3", "connector6", "connector11", "connector13", "connector0", "bar1", "connector12", "connector3", "bar2"], "family": "Circular", "name": "solid_circle"}], "fem_element_from_bar_id": {"0": [0, 1, 4, 6, 9, 15, 16, 17], "1": [0, 2, 3, 10, 12, 18, 19, 20], "-1": [1, 3, 5], "2": [2, 4, 5, 7, 13, 21, 22, 23], "3": [6, 7, 8, 14, 24, 25, 26], "4": [8, 9, 10, 11, 27, 28, 29], "5": [32, 11, 12, 13, 14, 30, 31]}}, "stiffness_history": [[true, 0.00017016856460986795], [true, 9.114202786853464e-07], [true, 9.6546990200107e-07], [true, 0.00013556795362701862], [true, 3.921647677477703e-05], [true, 1.258100841470625e-06]], "fem_element_from_bar_id": {"0": [0, 1, 4, 6, 9, 15, 16, 17], "1": [0, 2, 3, 10, 12, 18, 19, 20], "-1": [1, 3, 5], "2": [2, 4, 5, 7, 13, 21, 22, 23], "3": [6, 7, 8, 14, 24, 25, 26], "4": [8, 9, 10, 11, 27, 28, 29], "5": [32, 11, 12, 13, 14, 30, 31]}, "planning_data": {"num_evaluated": 6, "min_remaining": 0, "max_backtrack": 0, "stiffness_failures": 0, "place_failures": 0, "transit_failures": 0, "transfer_failures": 0}}