{"problem": ["IT_arch.json"], "config": [{"bar_only": false, "stiffness": false, "collision": false, "teleops": false, "partial_ordering": false, "chosen_bars": [32, 33, 41, 24, 26, 31]}], "write_time": ["2020-12-29 17:49:29.572328"], "parameters": [{"trans_tol": 0.01, "rot_tol": Infinity, "joint_resolution": [0.05, 0.05395, 0.036250000000000004, 0.061244999999999994, 0.045865, 0.18770499999999998, 0.06565], "joint_weight": [10.0, 0.38197097020626436, 0.38197097020626436, 0.38197097020626436, 0.15915457091927682, 0.15915457091927682, 0.12732365673542145], "joint_jump_threshold": 1.0471975511965976, "enable_self_collisions": true, "pos_step_size": 0.01, "ori_step_size": 0.17453292519943295, "retreat_distance": 0.07}], "plan": [[{"element": 41, "tag": "place_approach", "path": [[1.0000462754659236, 0.3095851975699442, 0.369275744720253, 0.4469899637688669, -0.7932771883197236, 1.5070399465909639, -2.806430033008244], [1.0000462754659236, 0.30484914989006245, 0.3840089613934064, 0.4291849163868735, -0.7730841344124737, 1.5416110934304417, -2.7482082258839835], [1.0000462754659236, 0.29951507293060936, 0.39814528655174275, 0.41149620377628804, -0.7514858015531821, 1.5749495833076228, -2.689842367610841], [1.0000462754659236, 0.29362284132755423, 0.4115695286562552, 0.39407456862993373, -0.7285483008617338, 1.6069186203708097, -2.6312033891743534], [1.0000462754659236, 0.28721734222185663, 0.4242368362867944, 0.3769961241243957, -0.7043161209944988, 1.6374281814436018, -2.572171492215661], [1.0000462754659236, 0.2803434890170669, 0.43610616572409416, 0.36033503458838023, -0.678830514986806, 1.6663859540695554, -2.512641662145725], [1.0000462754659236, 0.27304594009984734, 0.44713981043016704, 0.34416368890293386, -0.6521328770632915, 1.693697590396583, -2.452524821665674], [1.0000462754659236, 0.26536601173118507, 0.45727812493147657, 0.32858179115809594, -0.6242746090265071, 1.7192464534050207, -2.391754680898494], [1.0000462754659236, 0.2573523784612669, 0.46654460550872995, 0.3135924375205441, -0.5952884608929343, 1.7429798569546924, -2.330264550129667], [1.0000462754659236, 0.24904499967099203, 0.47488377773832124, 0.29929211592259647, -0.5652393993156426, 1.7647781157496043, -2.2680244455378484], [1.0000462754659236, 0.24048598286691614, 0.48227115977832524, 0.28574151072797555, -0.5341945341649657, 1.784545656861139, -2.205017865573515], [1.0000462754659236, 0.23171662755553699, 0.48868581702711306, 0.2729973302076992, -0.5022330630215306, 1.8021896408357307, -2.1412486059952265], [1.0000462754659236, 0.22277755031640126, 0.4941093779315327, 0.26111270796992014, -0.4694479203616233, 1.8176209941452819, -2.076741435680195], [1.0000462754659236, 0.21370841771253202, 0.49852725464274705, 0.2501361109474999, -0.43594599170203036, 1.8307573525033536, -2.011540910930019], [1.0000462754659236, 0.20454092547148037, 0.5019090085166213, 0.2401296222068696, -0.401866855190424, 1.8415110759030098, -1.9457426001526257], [1.0000462754659236, 0.19532832795611532, 0.5042879252390903, 0.23109119451286633, -0.36731232304956646, 1.849845319215448, -1.879368805626404]], "attachments": [{"parent_name": "ECL_robot1_with_track", "parent_link_name": "eef_tcp_frame", "grasp_pose": [[2.6226043701171875e-06, -0.06156712770462036, 0.0], [-0.4999995827674866, -0.4999988079071045, -0.5000004768371582, 0.5000011324882507]], "child_name": "body138"}], "link_path": {"eef_tcp_frame": [[[1.378708004951477, -0.9364981651306152, 0.4441346228122711], [0.8598833084106445, 0.15357524156570435, -0.21070560812950134, 0.43888309597969055]], [[1.3776192665100098, -0.93648761510849, 0.44789087772369385], [0.8619489669799805, 0.11610611528158188, -0.21480876207351685, 0.44432029128074646]], [[1.3765013217926025, -0.9361709356307983, 0.45154982805252075], [0.8627553582191467, 0.07845518738031387, -0.2186158448457718, 0.44911590218544006]], [[1.3753266334533691, -0.9355734586715698, 0.4551104009151459], [0.8623058199882507, 0.040690090507268906, -0.22210483253002167, 0.45325765013694763]], [[1.3741167783737183, -0.9346949458122253, 0.45856431126594543], [0.8606008887290955, 0.0028658213559538126, -0.22527070343494415, 0.456739604473114]], [[1.3728936910629272, -0.9335364699363708, 0.4619038701057434], [0.8576432466506958, -0.03496260195970535, -0.22810867428779602, 0.459556519985199]], [[1.3716788291931152, -0.9321006536483765, 0.4651221036911011], [0.8534370064735413, -0.07273995131254196, -0.2306145429611206, 0.4617045521736145]], [[1.3704743385314941, -0.9304052591323853, 0.4682154953479767], [0.8479922413825989, -0.11040562391281128, -0.23277907073497772, 0.4631778299808502]], [[1.3693431615829468, -0.9284288287162781, 0.4711730480194092], [0.8413092494010925, -0.14791667461395264, -0.23461118340492249, 0.46397972106933594]], [[1.3682855367660522, -0.9261928796768188, 0.47399282455444336], [0.8334013819694519, -0.18521226942539215, -0.23610185086727142, 0.46410614252090454]], [[1.3673220872879028, -0.9237064719200134, 0.4766709506511688], [0.8242803812026978, -0.2222381979227066, -0.23724883794784546, 0.46355706453323364]], [[1.3664731979370117, -0.9209800362586975, 0.4792042076587677], [0.8139593601226807, -0.2589404582977295, -0.2380504161119461, 0.46233323216438293]], [[1.3657586574554443, -0.9180253744125366, 0.4815904498100281], [0.8024535179138184, -0.2952655553817749, -0.23850533366203308, 0.4604365825653076]], [[1.3651971817016602, -0.9148557186126709, 0.48382821679115295], [0.7897794842720032, -0.33116093277931213, -0.23861314356327057, 0.4578697979450226]], [[1.3647980690002441, -0.9115062952041626, 0.48592448234558105], [0.7759628295898438, -0.3665631413459778, -0.23837213218212128, 0.4546338617801666]], [[1.3646000623703003, -0.9079502820968628, 0.48786449432373047], [0.7610095143318176, -0.40144267678260803, -0.23778635263442993, 0.45073944330215454]]]}}, {"element": 41, "tag": "place_retreat", "path": [[1.0000462754659236, 0.19533602343106835, 0.5043014640863265, 0.231079685790023, -0.3672948064653401, 1.8498531215096512, -1.8793369157773574], [1.0000462754659236, 0.19704795181977297, 0.5074778671606928, 0.22236101076045808, -0.36637760220103716, 1.8554730326479403, -1.8801498927963223], [1.0000462754659236, 0.19873984036614117, 0.5107082335933871, 0.21356833628040972, -0.3654925816214457, 1.8611189002732158, -1.8809944206595817], [1.0000462754659236, 0.20041833444277377, 0.513978127240259, 0.20472751462932967, -0.3646289497180345, 1.8667722126130037, -1.88184216710544], [1.0000462754659236, 0.20208358980476063, 0.5172875765553869, 0.19583809481572312, -0.3637866782502703, 1.8724332856042039, -1.8826934402158928], [1.0000462754659236, 0.20373575347319667, 0.5206367279411565, 0.18689945398340033, -0.3629657463502758, 1.8781025483590983, -1.8835485868301194], [1.0000462754659236, 0.2053749704268193, 0.524025743012695, 0.1779109466515577, -0.36216614260240754, 1.883780437901783, -1.8844079574440136], [1.0000462754659236, 0.20700138366801105, 0.527454798319009, 0.1688719048446874, -0.3613878652520281, 1.8894673988359592, -1.885271906429371], [1.0000462754659236, 0.208615137654102, 0.5309241031220343, 0.15978163006768062, -0.3606309374828464, 1.8951639182689144, -1.8861407932179923]], "attachments": [], "link_path": {"eef_tcp_frame": [[[1.3646044731140137, -0.9079302549362183, 0.48785704374313354], [0.7610026001930237, -0.40145343542099, -0.23778662085533142, 0.4507412314414978]], [[1.3709144592285156, -0.9035897850990295, 0.4920524060726166], [0.7610012292861938, -0.40146195888519287, -0.23778048157691956, 0.45073938369750977]], [[1.3772469758987427, -0.8992578387260437, 0.4962571859359741], [0.7610012888908386, -0.40146195888519287, -0.23778025805950165, 0.4507392346858978]], [[1.3835794925689697, -0.8949259519577026, 0.500461995601654], [0.7610014081001282, -0.40146204829216003, -0.2377801239490509, 0.45073917508125305]], [[1.3899121284484863, -0.8905940055847168, 0.504666805267334], [0.761001467704773, -0.40146204829216003, -0.23777994513511658, 0.4507390260696411]], [[1.3962445259094238, -0.886262059211731, 0.5088716149330139], [0.7610015869140625, -0.4014621078968048, -0.23777976632118225, 0.45073893666267395]], [[1.4025770425796509, -0.8819301724433899, 0.5130763649940491], [0.761001706123352, -0.4014621376991272, -0.23777958750724792, 0.4507388472557068]], [[1.4089094400405884, -0.8775982856750488, 0.517281174659729], [0.7610018253326416, -0.40146222710609436, -0.2377794086933136, 0.45073872804641724]], [[1.4152418375015259, -0.873266339302063, 0.5214859247207642], [0.7610018849372864, -0.40146222710609436, -0.2377791851758957, 0.4507386088371277]]]}}], [{"element": 33, "tag": "place_approach", "path": [[0.7273801780803132, -0.37773123504842987, 0.13104580988752043, 0.3101948338528475, 0.36736273259186203, 1.5691508660824751, -2.770647013266713], [0.7273801780803132, -0.37589309045397457, 0.10970252448606665, 0.3253909141629561, 0.36134799219407565, 1.5340829676014751, -2.7080020976616797], [0.7273801780803132, -0.3729054870168928, 0.08855945619609686, 0.3404461946117709, 0.35308520733196475, 1.4990720080727185, -2.6440503913524984], [0.7273801780803132, -0.3687494634095037, 0.06780541627282398, 0.3551945731233162, 0.34245789834120516, 1.4643430934347232, -2.5785977944058796], [0.7273801780803132, -0.3634086604543697, 0.047562671227258414, 0.36956891735190994, 0.32935457835274595, 1.4300583659840849, -2.5114548973009225], [0.7273801780803132, -0.35687519408003976, 0.02795677124917236, 0.3835037377654514, 0.3136629761986357, 1.396396730086955, -2.442436978989609], [0.7273801780803132, -0.3491298031914922, 0.009094632354825577, 0.3969579647970957, 0.29525958620599496, 1.3635313436026018, -2.3713256202628306], [0.7273801780803132, -0.3402215555842988, -0.00884924251176286, 0.409822470861067, 0.2740697386670938, 1.3317286454302046, -2.298031908210789], [0.7273801780803132, -0.3301600757805955, -0.025765669699557212, 0.42206241038570663, 0.2500038318757209, 1.3012008392425662, -2.2223847242594665], [0.7273801780803132, -0.31898513518998683, -0.041523612607957186, 0.43362011957386065, 0.2230094925969183, 1.2722040552299596, -2.1442748543956505], [0.7273801780803132, -0.3067191514041918, -0.056003716749614144, 0.4444463612793263, 0.1930376058430363, 1.2450002648095047, -2.063563775107624], [0.7273801780803132, -0.2934887359723011, -0.06906248316055724, 0.4544763172411811, 0.1601810160552423, 1.2198965440667247, -1.980350649762634], [0.7273801780803132, -0.2793552995224669, -0.0805919353739038, 0.46366813867430595, 0.12450925986101719, 1.1971728778289015, -1.8946238112395946], [0.7273801780803132, -0.264384775528654, -0.09048671685358646, 0.47197791130208183, 0.08614571455092837, 1.17711331047973, -1.8064163490013854], [0.7273801780803132, -0.2487600830577508, -0.09864068693089911, 0.4793607727286789, 0.045411699561266554, 1.1600034454010009, -1.716057550256879], [0.7273801780803132, -0.23258267733693216, -0.10497367103995217, 0.4857806936126408, 0.0025992800590668016, 1.1460901551581548, -1.6237538793105724]], "attachments": [{"parent_name": "ECL_robot1_with_track", "parent_link_name": "eef_tcp_frame", "grasp_pose": [[2.205371856689453e-06, -0.06431937217712402, -5.960464477539063e-08], [-0.49999940395355225, -0.49999886751174927, -0.5000004768371582, 0.5000011324882507]], "child_name": "body137"}], "link_path": {"eef_tcp_frame": [[[1.313773274421692, -1.0533427000045776, 0.7691076993942261], [0.8784103989601135, -0.3881998062133789, -0.21374110877513885, -0.17891567945480347]], [[1.3109732866287231, -1.0527700185775757, 0.7700560092926025], [0.86982661485672, -0.4183214604854584, -0.19959571957588196, -0.16902808845043182]], [[1.308281660079956, -1.0519763231277466, 0.770858883857727], [0.8601313829421997, -0.44791552424430847, -0.18516962230205536, -0.15892697870731354]], [[1.3057647943496704, -1.0510096549987793, 0.7715423703193665], [0.8493354916572571, -0.476936012506485, -0.17050635814666748, -0.14862322807312012]], [[1.3034332990646362, -1.0498863458633423, 0.7721005082130432], [0.8374526500701904, -0.5053454041481018, -0.15562498569488525, -0.13813020288944244]], [[1.301296591758728, -1.0486233234405518, 0.7725282907485962], [0.8244983553886414, -0.5331071615219116, -0.14054465293884277, -0.12746164202690125]], [[1.2993546724319458, -1.0472134351730347, 0.7728158235549927], [0.810485303401947, -0.5601953268051147, -0.12527596950531006, -0.11662226170301437]], [[1.2976337671279907, -1.0457199811935425, 0.7729713916778564], [0.7954379916191101, -0.5865577459335327, -0.109856016933918, -0.10564139485359192]], [[1.296129584312439, -1.044140100479126, 0.7729852795600891], [0.7793731093406677, -0.6121686697006226, -0.09429626911878586, -0.09452663362026215]], [[1.2948476076126099, -1.0424931049346924, 0.7728554606437683], [0.7623114585876465, -0.636995255947113, -0.0786169245839119, -0.08329246938228607]], [[1.2937939167022705, -1.0407713651657104, 0.7725808620452881], [0.7442681193351746, -0.6610161662101746, -0.06282949447631836, -0.07193759083747864]], [[1.2929693460464478, -1.0390424728393555, 0.7721607089042664], [0.7252780199050903, -0.6841818690299988, -0.04697010666131973, -0.06050371006131172]], [[1.2923756837844849, -1.0373039245605469, 0.7715947031974792], [-0.705360472202301, 0.7064716219902039, 0.03105205111205578, 0.048992861062288284]], [[1.2920191287994385, -1.0355472564697266, 0.7708844542503357], [-0.6845320463180542, 0.7278662919998169, 0.015084910206496716, 0.03740315139293671]], [[1.2918899059295654, -1.033841609954834, 0.7700294852256775], [-0.662834644317627, 0.7483214139938354, -0.0008921996923163533, 0.02577914297580719]], [[1.2919901609420776, -1.0321826934814453, 0.7690329551696777], [-0.6402888894081116, 0.7678191661834717, -0.016867714002728462, 0.014121361076831818]]]}}, {"element": 33, "tag": "place_retreat", "path": [[0.7273801780803132, -0.23255250950176445, -0.10497503705038491, 0.48578256443746043, 0.002561782370452407, 1.1460883544022722, -1.623688585969988], [0.7273801780803132, -0.2325189371447876, -0.107392326959507, 0.48097974399934174, 0.0024938002767096617, 1.1532753507181106, -1.6235787248751024], [0.7273801780803132, -0.23253310991949797, -0.10971313824945453, 0.4760775754164301, 0.002485274712533985, 1.1604977248220445, -1.623572269344468], [0.7273801780803132, -0.2325483686935845, -0.1119706918381805, 0.47112561487984184, 0.002478265435081409, 1.1677069970426375, -1.6235682898125177], [0.7273801780803132, -0.2325636604463386, -0.11416561706982811, 0.46612457316982525, 0.002471471145535175, 1.1749027203435665, -1.6235645151623013], [0.7273801780803132, -0.23257896189612012, -0.11629814868369395, 0.46107458566145443, 0.0024648600716036424, 1.1820849897328538, -1.623560891617778], [0.7273801780803132, -0.23259427253957907, -0.11836851861594458, 0.4559757751109258, 0.0024584283976727592, 1.1892539142066503, -1.6235574142866362], [0.7273801780803132, -0.23260959236723902, -0.12037696027199515, 0.45082825806233334, 0.0024521730016541007, 1.1964096104849031, -1.623554079404361], [0.7273801780803132, -0.23262492190669776, -0.12232370707119479, 0.4456321436314805, 0.0024460925180231864, 1.203552205298006, -1.6235508995251415]], "attachments": [], "link_path": {"eef_tcp_frame": [[[1.2919944524765015, -1.0321602821350098, 0.7690321803092957], [-0.6402810215950012, 0.7678256630897522, -0.016877897083759308, 0.0141087481752038]], [[1.2915992736816406, -1.032049298286438, 0.7777493000030518], [-0.640268087387085, 0.7678360342979431, -0.01690678671002388, 0.014097643084824085]], [[1.2912201881408691, -1.0319790840148926, 0.786490261554718], [-0.6402678489685059, 0.7678362131118774, -0.016907384619116783, 0.014097354374825954]], [[1.2908413410186768, -1.0319098234176636, 0.7952314615249634], [-0.6402677893638611, 0.7678362727165222, -0.016907500103116035, 0.014097420498728752]], [[1.2904624938964844, -1.0318405628204346, 0.8039726614952087], [-0.6402677893638611, 0.7678362727165222, -0.016907602548599243, 0.014097494073212147]], [[1.290083646774292, -1.0317714214324951, 0.8127138614654541], [-0.6402677893638611, 0.7678362727165222, -0.01690770871937275, 0.014097573235630989]], [[1.28970468044281, -1.0317021608352661, 0.8214550614356995], [-0.6402677893638611, 0.7678362727165222, -0.016907816752791405, 0.014097652398049831]], [[1.2893258333206177, -1.031632900238037, 0.8301962018013], [-0.6402677893638611, 0.7678362727165222, -0.016907930374145508, 0.014097736217081547]], [[1.2889469861984253, -1.031563639640808, 0.8389373421669006], [-0.6402677893638611, 0.7678362727165222, -0.016908040270209312, 0.014097819104790688]]]}}], [{"element": 32, "tag": "place_approach", "path": [[1.2175913408502632, 0.2370795076102274, -0.07113626193375946, 0.4506920758497972, 2.272819932328474, -1.4035117493564582, -0.641963761242436], [1.2175913408502632, 0.2058275741713763, -0.08500751376460457, 0.4387969126992732, 2.3602496803233257, -1.3855399189997224, -0.5682073914329678], [1.2175913408502632, 0.1722933699961222, -0.10276086631727777, 0.4333135193528169, 2.4475673711358374, -1.3609263846509567, -0.49657957691238136], [1.2175913408502632, 0.1366996521243126, -0.12414404050643119, 0.43433786978250966, 2.534961379874351, -1.3299132676297023, -0.4276276663411041], [1.2175913408502632, 0.09934556064281574, -0.14892948360255207, 0.4419934660770494, 2.622587509137506, -1.2927558863968551, -0.36173592440470664], [1.2175913408502632, 0.060567986485663895, -0.17677535059589264, 0.4561464942306208, 2.710733183387916, -1.2499176335939777, -0.29935605121525766], [1.2175913408502632, 0.02076432896339528, -0.2073778296069157, 0.47664376765259464, 2.7997375713712693, -1.2018826374373328, -0.24087091395823418]], "attachments": [{"parent_name": "ECL_robot1_with_track", "parent_link_name": "eef_tcp_frame", "grasp_pose": [[-6.556510925292969e-06, -0.061693429946899414, -5.960464477539063e-08], [0.49999892711639404, 0.5000007152557373, 0.5000011324882507, -0.49999934434890747]], "child_name": "body136"}], "link_path": {"eef_tcp_frame": [[[1.354440689086914, -1.2818603515625, 0.9487099051475525], [0.7679377198219299, 0.486650288105011, -0.1756264716386795, 0.37762221693992615]], [[1.3441325426101685, -1.294402837753296, 0.9467058181762695], [0.814957320690155, 0.44164445996284485, -0.14271245896816254, 0.34702736139297485]], [[1.3329161405563354, -1.3066350221633911, 0.9435816407203674], [0.8568771481513977, 0.39385613799095154, -0.10889321565628052, 0.3142947554588318]], [[1.3209432363510132, -1.3183892965316772, 0.9393823146820068], [0.8934361934661865, 0.34360814094543457, -0.07439679652452469, 0.2795897126197815]], [[1.3083220720291138, -1.3294894695281982, 0.9340818524360657], [0.9244043827056885, 0.2912111282348633, -0.039424244314432144, 0.2431425005197525]], [[1.2952382564544678, -1.3397620916366577, 0.9277471303939819], [0.9495905041694641, 0.23699094355106354, -0.004213264677673578, 0.20517170429229736]], [[1.2818403244018555, -1.3490667343139648, 0.9204229712486267], [0.9688358306884766, 0.1812853366136551, 0.031023848801851273, 0.1659223586320877]]]}}, {"element": 32, "tag": "place_retreat", "path": [[1.2175913408502632, 0.020752528769428298, -0.20740156284268016, 0.4766745871906135, 2.799743650734364, -1.2018508064216658, -0.24088694721812762], [1.2175913408502632, 0.023290405129947837, -0.20973036598468056, 0.47121574803427585, 2.800529870150376, -1.2099446046487403, -0.24121835309845688], [1.2175913408502632, 0.025856923805956358, -0.21190902231651287, 0.4655989802766288, 2.801283259959932, -1.2181202136443712, -0.24150233222144293], [1.2175913408502632, 0.02842855535926348, -0.21400566842374516, 0.45991793470486514, 2.80200815136914, -1.2262833256969092, -0.24176250876497707], [1.2175913408502632, 0.03100493175066343, -0.21602142487279305, 0.45417382957142016, 2.802705193324169, -1.2344329483296594, -0.24199996350926908], [1.2175913408502632, 0.033586024403643826, -0.2179566361054866, 0.44836684934590526, 2.803374873792156, -1.2425691363893865, -0.24221533561457592], [1.2175913408502632, 0.03617181040230951, -0.21981164014047316, 0.44249715735489326, 2.8040176608411116, -1.2506919703556916, -0.24240924431374647], [1.2175913408502632, 0.03876226667147235, -0.22158677666069035, 0.4365649062775393, 2.8046340069928215, -1.2588015445284153, -0.24258229826926134]], "attachments": [], "link_path": {"eef_tcp_frame": [[[1.2818242311477661, -1.3490774631500244, 0.9204085469245911], [0.9688351154327393, 0.18128958344459534, 0.031034093350172043, 0.16592028737068176]], [[1.2805743217468262, -1.345999836921692, 0.9297912120819092], [0.9688325524330139, 0.18129858374595642, 0.031065236777067184, 0.16591942310333252]], [[1.2793701887130737, -1.3428982496261597, 0.9392205476760864], [0.9688325524330139, 0.1812988668680191, 0.03106573037803173, 0.16591916978359222]], [[1.2781667709350586, -1.3397964239120483, 0.9486503601074219], [0.9688324928283691, 0.18129906058311462, 0.031065888702869415, 0.1659189909696579]], [[1.276963233947754, -1.3366944789886475, 0.9580801129341125], [0.9688324928283691, 0.18129920959472656, 0.03106604889035225, 0.16591884195804596]], [[1.2757598161697388, -1.3335925340652466, 0.9675098657608032], [0.9688324928283691, 0.1812993586063385, 0.031066207215189934, 0.16591867804527283]], [[1.274556279182434, -1.3304905891418457, 0.9769396185874939], [0.9688324928283691, 0.18129949271678925, 0.031066376715898514, 0.16591854393482208]], [[1.2733527421951294, -1.3273886442184448, 0.9863693118095398], [0.9688324928283691, 0.18129962682724, 0.031066544353961945, 0.16591842472553253]]]}}], [{"element": 31, "tag": "place_approach", "path": [[2.5969332243796397, 1.115162285666112, 0.5610934490922583, 0.03878190932226563, 1.1916394261972318, -1.5171920057179933, 1.233662890710577], [2.5969332243796397, 1.1217295772376383, 0.5124998517264938, 0.06800546689711978, 1.26661783018073, -1.3944079854615372, 1.110249675459575], [2.5969332243796397, 1.1248552362350883, 0.4689897658285272, 0.0831073626642322, 1.3616223076536835, -1.278523879256518, 0.965813633490806], [2.5969332243796397, 1.1242266178781937, 0.43258738573062666, 0.08369129826232431, 1.4807433042568043, -1.1758824451732444, 0.7968792992272844], [2.5969332243796397, 1.1197563092468912, 0.40528099243176496, 0.0694997151671413, 1.6263513894078467, -1.0942476932449696, 0.601496742266643], [2.5969332243796397, 1.1115799905818913, 0.3887181279431981, 0.040748991208990934, 1.7961163529916417, -1.0419365593687526, 0.3822725807991759], [2.5969332243796397, 1.1000689204827958, 0.3841689397140807, -0.002221123497816805, 1.9810496072363966, -1.0259448476555857, 0.14821498625284688]], "attachments": [{"parent_name": "ECL_robot1_with_track", "parent_link_name": "eef_tcp_frame", "grasp_pose": [[-6.735324859619141e-06, 0.08340668678283691, -1.1920928955078125e-07], [0.4999992847442627, 0.5000010132789612, 0.5000008940696716, -0.49999910593032837]], "child_name": "body141"}], "link_path": {"eef_tcp_frame": [[[1.3158323764801025, -0.9773455858230591, 0.9879571199417114], [0.5551630258560181, 0.23317314684391022, 0.6646724343299866, 0.4423063397407532]], [[1.307543158531189, -0.9773752689361572, 0.9745679497718811], [0.5780539512634277, 0.3011355400085449, 0.620719313621521, 0.4357505738735199]], [[1.298701524734497, -0.9781792759895325, 0.9633617401123047], [0.5968536734580994, 0.36696383357048035, 0.5723039507865906, 0.4261121451854706]], [[1.289624810218811, -0.9796791672706604, 0.9543921947479248], [0.6113967299461365, 0.4301747679710388, 0.5198220014572144, 0.41343551874160767]], [[1.2806625366210938, -0.9816682934761047, 0.9477302432060242], [0.6215860843658447, 0.4903206527233124, 0.4636363387107849, 0.39781612157821655]], [[1.272145390510559, -0.9839755892753601, 0.9433395862579346], [0.62734055519104, 0.5469661951065063, 0.40417149662971497, 0.3793642520904541]], [[1.2644152641296387, -0.9863477945327759, 0.9411885142326355], [0.628634512424469, 0.5997194051742554, 0.3418143391609192, 0.35821533203125]]]}}, {"element": 31, "tag": "place_retreat", "path": [[2.5969332243796397, 1.1000630967812173, 0.38423464911226257, -0.0023850724169595223, 1.9812127357813984, -1.026016733354219, 0.1480133656484278], [2.5969332243796397, 1.1038101605240125, 0.3805033653010507, -0.0009979851424039264, 1.9830449796121454, -1.030128314131918, 0.1471431320116768], [2.5969332243796397, 1.1075782168446038, 0.37678150144540856, 0.0003541170156813133, 1.9848913034958453, -1.0342847426706476, 0.14625452868722708], [2.5969332243796397, 1.1113587452723144, 0.3730914856758127, 0.0016535211066822232, 1.9867338215953614, -1.0384646470963013, 0.14536088318694082], [2.5969332243796397, 1.1151518043124296, 0.3694336129131157, 0.0029007125322563975, 1.988571030127073, -1.0426678374970544, 0.14446393339712715], [2.5969332243796397, 1.118957360114496, 0.3658080173251155, 0.0040959005496021255, 1.990402378629855, -1.0468941724530108, 0.1435642379584562], [2.5969332243796397, 1.1227753656353452, 0.36221487330463925, 0.0052391679088114925, 1.992227474298587, -1.0511435491365049, 0.14266215833527898], [2.5969332243796397, 1.1266118288644424, 0.35865975675737105, 0.006301760814093399, 1.9940864642898966, -1.0554511133565854, 0.14171338851368187], [2.5969332243796397, 1.1304483252014454, 0.35512978334812406, 0.007362684080775364, 1.9958643717623605, -1.0597146552887098, 0.14084356203541826]], "attachments": [], "link_path": {"eef_tcp_frame": [[[1.2644453048706055, -0.986290693283081, 0.941245973110199], [0.6286477446556091, 0.5997368097305298, 0.3417655825614929, 0.35820966958999634]], [[1.2569515705108643, -0.985920250415802, 0.9456943869590759], [0.6286444664001465, 0.5997357964515686, 0.34177541732788086, 0.3582075834274292]], [[1.2494317293167114, -0.9855685234069824, 0.9501537680625916], [0.6286440491676331, 0.599735677242279, 0.3417767286300659, 0.35820725560188293]], [[1.2419120073318481, -0.9852168560028076, 0.9546136260032654], [0.6286436915397644, 0.5997358560562134, 0.34177759289741516, 0.35820674896240234]], [[1.2343922853469849, -0.9848650693893433, 0.959073543548584], [0.6286433339118958, 0.5997360348701477, 0.3417784571647644, 0.35820624232292175]], [[1.2268725633621216, -0.9845132231712341, 0.9635335206985474], [0.6286429762840271, 0.5997362732887268, 0.3417792022228241, 0.35820573568344116]], [[1.2193529605865479, -0.984161376953125, 0.9679935574531555], [0.6286426782608032, 0.5997365117073059, 0.3417799770832062, 0.35820522904396057]], [[1.211822748184204, -0.9838053584098816, 0.9724716544151306], [0.6286473274230957, 0.5997389554977417, 0.3417653739452362, 0.3582068085670471]], [[1.204314947128296, -0.9834550023078918, 0.9769161939620972], [0.6286425590515137, 0.5997377634048462, 0.3417792320251465, 0.3582040071487427]]]}}], [{"element": 26, "tag": "place_approach", "path": [[3.091145138780413, 0.7432365539959607, 0.6843304678483159, -0.48573932825536875, -2.245642613686479, -1.8463366551332765, 0.15584644582356383], [3.091145138780413, 0.7518122498124044, 0.6742695369260109, -0.5100203436743135, -2.357142613844133, -1.809459234789843, 0.11006312649076996], [3.091145138780413, 0.7630245073803235, 0.6591558179484283, -0.5240857055939034, -2.466840945024127, -1.7650383257915834, 0.0659881951586895], [3.091145138780413, 0.7767582781045906, 0.6390651008588601, -0.5274487902063355, -2.5746744740070384, -1.7125796402987434, 0.02483660711990431], [3.091145138780413, 0.7928762827736223, 0.6141164537813917, -0.5197370071160312, -2.6807373895519935, -1.6517672084648536, -0.012051878918649247], [3.091145138780413, 0.8112181055841245, 0.5847278804638595, -0.5011358769724703, -2.7854152404864516, -1.582768049682067, -0.04316471156813956], [3.091145138780413, 0.831590911828795, 0.5515683332967175, -0.47230021372543396, -2.8895031152759634, -1.50623898746169, -0.06691487522723696]], "attachments": [{"parent_name": "ECL_robot1_with_track", "parent_link_name": "eef_tcp_frame", "grasp_pose": [[-6.884336471557617e-06, -0.1511174440383911, 0.0], [0.4999990463256836, 0.5000009536743164, 0.5000008940696716, -0.4999992251396179]], "child_name": "body140"}], "link_path": {"eef_tcp_frame": [[[1.180923342704773, -1.4899860620498657, 0.9934590458869934], [0.8337733149528503, 0.2695819139480591, -0.3787443935871124, -0.2978261709213257]], [[1.199385404586792, -1.494715690612793, 0.9917783141136169], [0.8546726703643799, 0.2990501821041107, -0.32757332921028137, -0.26981356739997864]], [[1.2167383432388306, -1.4989631175994873, 0.9922292828559875], [0.8715514540672302, 0.3271028995513916, -0.2748425006866455, -0.24054820835590363]], [[1.2327688932418823, -1.5026735067367554, 0.9946925044059753], [0.8843252062797546, 0.35361620783805847, -0.22082480788230896, -0.21014504134655]], [[1.2471858263015747, -1.5058914422988892, 0.998952329158783], [0.8929353952407837, 0.37846362590789795, -0.1657678484916687, -0.1787533313035965]], [[1.2597450017929077, -1.5086561441421509, 1.0047680139541626], [0.8973417282104492, 0.4015282690525055, -0.1099284216761589, -0.14652210474014282]], [[1.2702398300170898, -1.5110138654708862, 1.0118705034255981], [0.8975233435630798, 0.42270150780677795, -0.05356735736131668, -0.11360382288694382]]]}}, {"element": 26, "tag": "place_retreat", "path": [[3.091145138780413, 0.831589290482931, 0.5514175099661852, -0.47203905441032523, -2.8894920264612187, -1.5060594881051967, -0.06694948941273811], [3.091145138780413, 0.8305140950956893, 0.5519231620521823, -0.4793347327976561, -2.8896022855359083, -1.5128111873201875, -0.0662999095714917], [3.091145138780413, 0.8294411910181845, 0.5527034951485982, -0.48708908989119704, -2.889715502890801, -1.519838690149117, -0.06559644419931336], [3.091145138780413, 0.8283682102684252, 0.5535391225394088, -0.494922378284146, -2.8898154235523528, -1.5268806192593947, -0.06488926469018512], [3.091145138780413, 0.8272953414663408, 0.5544487481334545, -0.5028671721401324, -2.889903128461034, -1.5339587170892863, -0.06417395316286971], [3.091145138780413, 0.8262225904833151, 0.5554340295056721, -0.5109265295577571, -2.8899784690590797, -1.5410744760920507, -0.06344998325667726], [3.091145138780413, 0.825149959472442, 0.5564963440974663, -0.5191030343674535, -2.8900412615192557, -1.5482290356048851, -0.06271688791650383], [3.091145138780413, 0.8240776975636019, 0.5576610521671383, -0.5274409410170587, -2.8900926367335122, -1.5554513624062234, -0.06196885086797151], [3.091145138780413, 0.8230053295900082, 0.5588836141704525, -0.5358631210336274, -2.890129763203008, -1.5626891197433004, -0.06121564618262126]], "attachments": [], "link_path": {"eef_tcp_frame": [[[1.2701749801635742, -1.511083960533142, 1.0118162631988525], [0.8975240588188171, 0.4226994812488556, -0.05353502556681633, -0.11362148076295853]], [[1.2717751264572144, -1.512560486793518, 1.0202221870422363], [0.897524893283844, 0.4226967990398407, -0.05349467322230339, -0.11364346742630005]], [[1.273462176322937, -1.5139429569244385, 1.028700828552246], [0.8975248336791992, 0.422696977853775, -0.053497690707445145, -0.11364181339740753]], [[1.2751413583755493, -1.515333652496338, 1.0371730327606201], [0.897524893283844, 0.42269694805145264, -0.053496863692998886, -0.11364224553108215]], [[1.276820421218872, -1.5167248249053955, 1.045644998550415], [0.8975248336791992, 0.4226968586444855, -0.053495898842811584, -0.11364274471998215]], [[1.2784992456436157, -1.5181159973144531, 1.0541167259216309], [0.8975249528884888, 0.4226967990398407, -0.05349487066268921, -0.11364330351352692]], [[1.2801779508590698, -1.5195074081420898, 1.0625883340835571], [0.8975249528884888, 0.42269670963287354, -0.05349377542734146, -0.11364387720823288]], [[1.2818663120269775, -1.5208885669708252, 1.0710684061050415], [0.897524893283844, 0.42269694805145264, -0.05349737033247948, -0.11364191770553589]], [[1.2835452556610107, -1.5222796201705933, 1.0795402526855469], [0.897524893283844, 0.4226968288421631, -0.053496409207582474, -0.11364240944385529]]]}}], [{"element": 24, "tag": "place_approach", "path": [[2.0908119575922157, 0.5155530517324362, -0.22876302221347403, 0.1927846378969156, -0.1039475444755099, 0.6735115306028708, 2.1005941352096125], [2.0908119575922157, 0.5455413103942064, -0.2018923179116469, 0.15607430240151815, -0.24747248887380677, 0.7816866697647662, 2.253516813646398], [2.0908119575922157, 0.5737186121470433, -0.1704208271709532, 0.1181788401832768, -0.3554004421247948, 0.8986386460618342, 2.371960240244177], [2.0908119575922157, 0.5970841155875418, -0.13520014078637274, 0.07920870204869704, -0.4332359201715893, 1.0192195925721348, 2.460878086535043], [2.0908119575922157, 0.6158813521329324, -0.09716649688140067, 0.03991374244091778, -0.49087214459837136, 1.1404678113095026, 2.5302388336051007], [2.0908119575922157, 0.6303460344038385, -0.057117732762334915, 0.0009072212349449182, -0.5345217270227911, 1.260839735959803, 2.586309664592343]], "attachments": [{"parent_name": "ECL_robot1_with_track", "parent_link_name": "eef_tcp_frame", "grasp_pose": [[4.5299530029296875e-06, -0.236985445022583, 4.76837158203125e-07], [0.5000012516975403, 0.5000001192092896, 0.49999871850013733, -0.4999999403953552]], "child_name": "body139"}], "link_path": {"eef_tcp_frame": [[[1.4053038358688354, -1.3320674896240234, 1.4829084873199463], [0.6198999881744385, 0.6415876746177673, 0.42161259055137634, 0.16227202117443085]], [[1.40557062625885, -1.3396892547607422, 1.4723299741744995], [0.6544389724731445, 0.6297557950019836, 0.37687474489212036, 0.18188638985157013]], [[1.404350757598877, -1.3471521139144897, 1.4613935947418213], [0.6869068145751953, 0.6149634122848511, 0.3306333124637604, 0.2016446590423584]], [[1.4024405479431152, -1.355896234512329, 1.4505469799041748], [0.7166536450386047, 0.5980265736579895, 0.28319379687309265, 0.22039321064949036]], [[1.399621844291687, -1.3655954599380493, 1.4398466348648071], [0.7436635494232178, 0.5788978934288025, 0.23470601439476013, 0.23823270201683044]], [[1.3957738876342773, -1.375977635383606, 1.4294042587280273], [0.7678830027580261, 0.557573139667511, 0.1853221207857132, 0.25519320368766785]]]}}, {"element": 24, "tag": "place_retreat", "path": [[2.0908119575922157, 0.6303511865116982, -0.05709405270297387, 0.000869622390515376, -0.5345209767095218, 1.2608728349438367, 2.5863077799703174], [2.0908119575922157, 0.6338986989813211, -0.05883966252807028, -0.003820569987612383, -0.5346668849838104, 1.2681976634546577, 2.586070748322034], [2.0908119575922157, 0.6374627219543785, -0.06049820591467878, -0.008621077634583568, -0.534830471147276, 1.2755660688730897, 2.5858284091840433], [2.0908119575922157, 0.6410474172744307, -0.06206604141200142, -0.013535932939446032, -0.5350176343091807, 1.28298335753927, 2.5855877674533643], [2.0908119575922157, 0.6446477501394201, -0.06359170241629207, -0.018485456638751833, -0.5352384531371194, 1.2903832574859588, 2.585364150439073], [2.0908119575922157, 0.6482663938047881, -0.06505169997951218, -0.02350794113529329, -0.5354883998029909, 1.297797412749502, 2.585150046697089], [2.0908119575922157, 0.6519033552308685, -0.06644539725459482, -0.028604341878327787, -0.535767290990192, 1.3052262880146839, 2.584944752333045], [2.0908119575922157, 0.6555586639649048, -0.06777254358986397, -0.03377496981907952, -0.5360751067760391, 1.312669848962048, 2.5847477235241434]], "attachments": [], "link_path": {"eef_tcp_frame": [[[1.3957816362380981, -1.375964879989624, 1.4294203519821167], [0.7678860425949097, 0.5575716495513916, 0.18531350791454315, 0.25519371032714844]], [[1.390079379081726, -1.3741201162338257, 1.437412977218628], [0.7678840160369873, 0.5575701594352722, 0.1853223741054535, 0.25519657135009766]], [[1.3843872547149658, -1.3722679615020752, 1.4454221725463867], [0.767883837223053, 0.5575701594352722, 0.18532304465770721, 0.2551967203617096]], [[1.378704309463501, -1.370404601097107, 1.4534492492675781], [0.7678864598274231, 0.5575698614120483, 0.18531453609466553, 0.25519588589668274]], [[1.3730127811431885, -1.3685520887374878, 1.4614595174789429], [0.7678864002227783, 0.5575699210166931, 0.18531468510627747, 0.25519582629203796]], [[1.3673210144042969, -1.3666995763778687, 1.4694695472717285], [0.767886221408844, 0.5575698614120483, 0.18531501293182373, 0.25519582629203796]], [[1.3616292476654053, -1.364847183227539, 1.4774794578552246], [0.7678861618041992, 0.5575698614120483, 0.18531534075737, 0.25519585609436035]], [[1.3559373617172241, -1.3629947900772095, 1.4854893684387207], [0.7678860425949097, 0.5575699210166931, 0.18531569838523865, 0.25519588589668274]]]}}]], "element_from_index": {"32": {"axis_endpoints": [[1.1406494140625, -0.985142333984375, 0.7826475219726563], [1.38088427734375, -1.60456494140625, 1.0170768432617188]], "radius": 0.013000000000000001, "goal_pose": {"index": 32, "value": [[1.2607668457031251, -1.2948536376953124, 0.8998621826171875], [0.32633470493438144, 0.47658307893151275, -0.461203467667483, 0.6735470218500255]]}}, "33": {"axis_endpoints": [[1.56631005859375, -1.0822369384765624, 0.7813079223632813], [1.1441035156250001, -1.005103515625, 0.7624116821289063]], "radius": 0.013000000000000001, "goal_pose": {"index": 33, "value": [[1.355206787109375, -1.0436702270507814, 0.7718598022460939], [0.7195435160152356, -0.06518767377919638, -0.6885610594970722, -0.0623807910494778]]}}, "41": {"axis_endpoints": [[1.5482729492187501, -0.782288818359375, 0.08180535888671875], [1.22978857421875, -1.0001356201171876, 0.7859266967773437]], "radius": 0.013000000000000001, "goal_pose": {"index": 41, "value": [[1.38903076171875, -0.8912122192382813, 0.4338660278320312], [-0.23696355085786802, -0.07329028646353924, 0.9254946168291699, -0.28624556537202633]]}}, "24": {"axis_endpoints": [[0.98128466796875, -1.2409981689453125, 1.1037373046875], [1.4492646484375, -1.3933494873046874, 1.4714644775390626]], "radius": 0.013000000000000001, "goal_pose": {"index": 24, "value": [[1.215274658203125, -1.317173828125, 1.2876008911132812], [0.07021240956712708, 0.44248625938425956, -0.1401079521214087, 0.8829755883099197]]}}, "26": {"axis_endpoints": [[0.8911513671875, -1.198014892578125, 1.1382901611328125], [1.4234736328125, -1.6378094482421874, 0.9606000366210937]], "radius": 0.013000000000000001, "goal_pose": {"index": 26, "value": [[1.1573125, -1.4179121704101563, 1.049445098876953], [0.2674710025078833, 0.7436852446366755, -0.20735523108199364, 0.5765373603419375]]}}, "31": {"axis_endpoints": [[1.15756884765625, -0.9812197265625, 0.7607012939453125], [1.45630859375, -0.9952882080078125, 1.265369873046875]], "radius": 0.013000000000000001, "goal_pose": {"index": 31, "value": [[1.306938720703125, -0.9882539672851562, 1.0130355834960938], [0.006218262090320299, 0.26423198713791574, -0.02269019442901268, 0.9641721554092392]]}}}, "conmech_model": {"model_name": "IT_arch.json", "unit": "meter", "generate_time": "2020-12-29 17:49:30.511327", "node_num": 250, "element_num": 328, "nodes": [{"point": [0.9582998046875, -2.32279833984375, 0.1683092041015625], "node_ind": 0, "is_grounded": false}, {"point": [1.27440576171875, -1.613822265625, 0.14242208862304687], "node_ind": 1, "is_grounded": false}, {"point": [0.9222802734375, -2.32839404296875, 0.14121218872070312], "node_ind": 2, "is_grounded": false}, {"point": [1.75074951171875, -2.23435400390625, 0.16831033325195313], "node_ind": 3, "is_grounded": false}, {"point": [1.7514150390625, -2.2327607421875, 0.14242556762695313], "node_ind": 4, "is_grounded": false}, {"point": [1.2577392578125, -1.5897374267578126, 0.16931134033203124], "node_ind": 5, "is_grounded": false}, {"point": [1.303619140625, -1.9994818115234376, 0.656013916015625], "node_ind": 6, "is_grounded": false}, {"point": [1.248392578125, -1.6133466796875, 0.15288027954101563], "node_ind": 7, "is_grounded": false}, {"point": [1.331244140625, -1.94661328125, 0.7397482299804687], "node_ind": 8, "is_grounded": false}, {"point": [0.92006689453125, -2.3054365234375, 0.12921023559570313], "node_ind": 9, "is_grounded": false}, {"point": [1.22892041015625, -1.9095235595703126, 0.763937255859375], "node_ind": 10, "is_grounded": false}, {"point": [1.71538525390625, -2.22654052734375, 0.13547616577148439], "node_ind": 11, "is_grounded": false}, {"point": [1.687740234375, -1.74957958984375, 0.6911923828125001], "node_ind": 12, "is_grounded": false}, {"point": [1.22242822265625, -1.970106689453125, 0.7454647827148437], "node_ind": 13, "is_grounded": false}, {"point": [1.6631357421875, -1.735925048828125, 0.70534423828125], "node_ind": 14, "is_grounded": false}, {"point": [1.2307690429687501, -1.60165625, 0.16987083435058595], "node_ind": 15, "is_grounded": false}, {"point": [1.67680029296875, -1.697768798828125, 0.7141800537109375], "node_ind": 16, "is_grounded": false}, {"point": [1.68591357421875, -2.194854736328125, 0.14584614562988282], "node_ind": 17, "is_grounded": false}, {"point": [1.07767626953125, -1.51419482421875, 0.5874692993164062], "node_ind": 18, "is_grounded": false}, {"point": [1.26166943359375, -2.088197998046875, 0.8216695556640625], "node_ind": 19, "is_grounded": false}, {"point": [1.12220556640625, -1.5691859130859376, 0.6178607177734375], "node_ind": 20, "is_grounded": false}, {"point": [1.2251552734375, -1.6279456787109374, 0.15602938842773437], "node_ind": 21, "is_grounded": false}, {"point": [1.07786376953125, -1.52396533203125, 0.5633756713867187], "node_ind": 22, "is_grounded": false}, {"point": [1.76883837890625, -1.8123841552734374, 0.6857042236328125], "node_ind": 23, "is_grounded": false}, {"point": [1.41651025390625, -1.5180640869140625, 0.9159285888671875], "node_ind": 24, "is_grounded": false}, {"point": [1.76983349609375, -1.7914530029296876, 0.6623258666992188], "node_ind": 25, "is_grounded": false}, {"point": [1.412794921875, -1.5393118896484375, 0.9383862915039063], "node_ind": 26, "is_grounded": false}, {"point": [1.15914013671875, -1.563032958984375, 0.4613415832519531], "node_ind": 27, "is_grounded": false}, {"point": [1.43924609375, -1.5356131591796875, 0.9300379028320312], "node_ind": 28, "is_grounded": false}, {"point": [1.1941284179687501, -2.104892822265625, 0.7144328002929687], "node_ind": 29, "is_grounded": false}, {"point": [1.504880859375, -2.0129501953125, 1.1567314453125], "node_ind": 30, "is_grounded": false}, {"point": [1.21617138671875, -2.10945654296875, 0.701422607421875], "node_ind": 31, "is_grounded": false}, {"point": [1.4913193359375, -1.9911630859375, 1.16214892578125], "node_ind": 32, "is_grounded": false}, {"point": [1.78837451171875, -1.781878173828125, 0.6778356323242187], "node_ind": 33, "is_grounded": false}, {"point": [1.4722177734375, -2.01070166015625, 1.152493408203125], "node_ind": 34, "is_grounded": false}, {"point": [1.4616269531250001, -1.530241943359375, 0.9130397338867188], "node_ind": 35, "is_grounded": false}, {"point": [1.043455078125, -1.7433009033203126, 1.0911082763671875], "node_ind": 36, "is_grounded": false}, {"point": [1.4572934570312501, -1.592677734375, 0.9157542114257813], "node_ind": 37, "is_grounded": false}, {"point": [1.03612646484375, -1.7186575927734375, 1.09498046875], "node_ind": 38, "is_grounded": false}, {"point": [1.2612768554687501, -1.574658935546875, 0.6046651611328125], "node_ind": 39, "is_grounded": false}, {"point": [0.9940732421875, -1.6590643310546875, 1.0977061767578125], "node_ind": 40, "is_grounded": false}, {"point": [1.5095678710937501, -1.988241943359375, 1.0988692626953125], "node_ind": 41, "is_grounded": false}, {"point": [1.38338720703125, -1.421421630859375, 1.3705650634765625], "node_ind": 42, "is_grounded": false}, {"point": [1.4394609375, -1.6237685546875, 0.9394691772460938], "node_ind": 43, "is_grounded": false}, {"point": [1.46572802734375, -1.39102490234375, 1.4514757080078124], "node_ind": 44, "is_grounded": false}, {"point": [1.0143154296875, -1.70287158203125, 1.043411376953125], "node_ind": 45, "is_grounded": false}, {"point": [1.4050791015625, -1.3626309814453126, 1.4069378662109375], "node_ind": 46, "is_grounded": false}, {"point": [1.445970703125, -1.9295421142578126, 1.0776459960937501], "node_ind": 47, "is_grounded": false}, {"point": [0.98128466796875, -1.2409981689453125, 1.1037373046875], "node_ind": 48, "is_grounded": false}, {"point": [1.4492646484375, -1.3933494873046874, 1.4714644775390626], "node_ind": 49, "is_grounded": false}, {"point": [0.98142041015625, -1.19474755859375, 1.147153564453125], "node_ind": 50, "is_grounded": false}, {"point": [0.99858251953125, -1.70671240234375, 1.0637513427734375], "node_ind": 51, "is_grounded": false}, {"point": [0.8911513671875, -1.198014892578125, 1.1382901611328125], "node_ind": 52, "is_grounded": false}, {"point": [1.4234736328125, -1.6378094482421874, 0.9606000366210937], "node_ind": 53, "is_grounded": false}, {"point": [1.494525390625, -1.0175218505859376, 1.2395306396484376], "node_ind": 54, "is_grounded": false}, {"point": [1.3813359375, -1.3793046875000001, 1.3889438476562501], "node_ind": 55, "is_grounded": false}, {"point": [1.48220458984375, -1.0126268310546875, 1.26320361328125], "node_ind": 56, "is_grounded": false}, {"point": [0.9021533203125001, -1.2209637451171875, 1.0979459228515625], "node_ind": 57, "is_grounded": false}, {"point": [1.4740302734375, -0.9752393798828125, 1.247919677734375], "node_ind": 58, "is_grounded": false}, {"point": [1.39956005859375, -1.6273514404296876, 0.9928646850585938], "node_ind": 59, "is_grounded": false}, {"point": [1.19227197265625, -1.006076416015625, 0.7981351318359375], "node_ind": 60, "is_grounded": false}, {"point": [0.8769580078125, -1.20721728515625, 1.11854541015625], "node_ind": 61, "is_grounded": false}, {"point": [1.15756884765625, -0.9812197265625, 0.7607012939453125], "node_ind": 62, "is_grounded": false}, {"point": [1.45630859375, -0.9952882080078125, 1.265369873046875], "node_ind": 63, "is_grounded": false}, {"point": [1.1406494140625, -0.985142333984375, 0.7826475219726563], "node_ind": 64, "is_grounded": false}, {"point": [1.38088427734375, -1.60456494140625, 1.0170768432617188], "node_ind": 65, "is_grounded": false}, {"point": [1.56631005859375, -1.0822369384765624, 0.7813079223632813], "node_ind": 66, "is_grounded": false}, {"point": [1.1441035156250001, -1.005103515625, 0.7624116821289063], "node_ind": 67, "is_grounded": false}, {"point": [1.56923486328125, -1.116515380859375, 0.7563009643554688], "node_ind": 68, "is_grounded": false}, {"point": [1.449880859375, -0.969465576171875, 1.240208740234375], "node_ind": 69, "is_grounded": false}, {"point": [1.56723291015625, -1.0316129150390625, 0.7235535888671876], "node_ind": 70, "is_grounded": false}, {"point": [1.3760478515625, -1.5658400878906251, 1.0293875732421875], "node_ind": 71, "is_grounded": false}, {"point": [1.4636181640625001, -0.6650869140625, 0.7262258911132813], "node_ind": 72, "is_grounded": false}, {"point": [1.59383837890625, -1.1090093994140626, 0.7600883178710938], "node_ind": 73, "is_grounded": false}, {"point": [1.48463916015625, -0.63002392578125, 0.7483737182617187], "node_ind": 74, "is_grounded": false}, {"point": [1.1927768554687501, -1.109603759765625, 0.8029375610351562], "node_ind": 75, "is_grounded": false}, {"point": [1.49357958984375, -0.63650390625, 0.69696142578125], "node_ind": 76, "is_grounded": false}, {"point": [1.437765625, -1.0101968994140624, 1.1947423095703125], "node_ind": 77, "is_grounded": false}, {"point": [1.52093505859375, -0.84326708984375, 0.1726052703857422], "node_ind": 78, "is_grounded": false}, {"point": [1.46292919921875, -0.61762353515625, 0.7412384643554688], "node_ind": 79, "is_grounded": false}, {"point": [1.5472363281250001, -0.806971435546875, 0.07369999694824218], "node_ind": 80, "is_grounded": false}, {"point": [1.54345947265625, -1.0291754150390626, 0.7508418579101562], "node_ind": 81, "is_grounded": false}, {"point": [1.5482729492187501, -0.782288818359375, 0.08180535888671875], "node_ind": 82, "is_grounded": false}, {"point": [1.22978857421875, -1.0001356201171876, 0.7859266967773437], "node_ind": 83, "is_grounded": false}, {"point": [0.95930419921875, -2.32419140625, 0.14242320251464843], "node_ind": 84, "is_grounded": false}, {"point": [1.27440576171875, -1.613822265625, 0.12942208862304688], "node_ind": 85, "is_grounded": false}, {"point": [0.9222802734375, -2.32839404296875, 0.12821218872070314], "node_ind": 86, "is_grounded": false}, {"point": [1.27607666015625, -1.6136219482421876, 0.16831268310546876], "node_ind": 87, "is_grounded": false}, {"point": [1.7514150390625, -2.2327607421875, 0.12942556762695312], "node_ind": 88, "is_grounded": false}, {"point": [1.2701313476562501, -1.623408447265625, 0.1427720947265625], "node_ind": 89, "is_grounded": false}, {"point": [1.24913623046875, -1.6185450439453126, 0.1596536865234375], "node_ind": 90, "is_grounded": false}, {"point": [1.26864697265625, -1.6039445800781251, 0.16871731567382814], "node_ind": 91, "is_grounded": false}, {"point": [1.28130029296875, -1.9901979980468751, 0.6655887451171875], "node_ind": 92, "is_grounded": false}, {"point": [1.248392578125, -1.6133466796875, 0.13988027954101562], "node_ind": 93, "is_grounded": false}, {"point": [0.95156298828125, -2.277950439453125, 0.17597756958007812], "node_ind": 94, "is_grounded": false}, {"point": [0.9737412109375, -2.2881650390625, 0.1670446319580078], "node_ind": 95, "is_grounded": false}, {"point": [1.29745849609375, -1.97609716796875, 0.6895814208984375], "node_ind": 96, "is_grounded": false}, {"point": [1.29614892578125, -1.95333447265625, 0.67708544921875], "node_ind": 97, "is_grounded": false}, {"point": [0.92006689453125, -2.3054365234375, 0.11621023559570312], "node_ind": 98, "is_grounded": false}, {"point": [1.70120361328125, -2.217298828125, 0.1537972106933594], "node_ind": 99, "is_grounded": false}, {"point": [1.70332666015625, -2.239737060546875, 0.16675921630859375], "node_ind": 100, "is_grounded": false}, {"point": [1.73520751953125, -2.211649658203125, 0.14330824279785156], "node_ind": 101, "is_grounded": false}, {"point": [1.3215576171875, -1.9698928222656251, 0.6442598876953125], "node_ind": 102, "is_grounded": false}, {"point": [1.3013916015625, -1.983906005859375, 0.6357188110351563], "node_ind": 103, "is_grounded": false}, {"point": [1.71538525390625, -2.22654052734375, 0.12247616577148437], "node_ind": 104, "is_grounded": false}, {"point": [1.31984033203125, -1.9239399414062501, 0.73410302734375], "node_ind": 105, "is_grounded": false}, {"point": [1.27050927734375, -1.9473195800781251, 0.7398568115234375], "node_ind": 106, "is_grounded": false}, {"point": [1.26038134765625, -1.930025634765625, 0.72329345703125], "node_ind": 107, "is_grounded": false}, {"point": [1.6717626953125, -1.75715185546875, 0.6930559692382813], "node_ind": 108, "is_grounded": false}, {"point": [1.2393525390625, -1.6043217773437501, 0.1805009765625], "node_ind": 109, "is_grounded": false}, {"point": [1.23666748046875, -1.603488037109375, 0.1771758728027344], "node_ind": 110, "is_grounded": false}, {"point": [1.249451171875, -1.6207490234375, 0.1625255126953125], "node_ind": 111, "is_grounded": false}, {"point": [1.6584814453125, -1.7344796142578125, 0.69957958984375], "node_ind": 112, "is_grounded": false}, {"point": [1.6772216796875001, -1.7207664794921875, 0.6878860473632813], "node_ind": 113, "is_grounded": false}, {"point": [1.2307690429687501, -1.60165625, 0.15687083435058594], "node_ind": 114, "is_grounded": false}, {"point": [1.68573095703125, -2.184888671875, 0.15724073791503906], "node_ind": 115, "is_grounded": false}, {"point": [1.7036865234375, -2.1705927734375, 0.14502490234375], "node_ind": 116, "is_grounded": false}, {"point": [1.69485400390625, -2.21316064453125, 0.16200054931640626], "node_ind": 117, "is_grounded": false}, {"point": [1.67742236328125, -1.7316982421875, 0.6753873291015625], "node_ind": 118, "is_grounded": false}, {"point": [1.20794482421875, -1.920593505859375, 0.7532848510742187], "node_ind": 119, "is_grounded": false}, {"point": [1.22081591796875, -1.960748046875, 0.76966845703125], "node_ind": 120, "is_grounded": false}, {"point": [1.09830078125, -1.578537109375, 0.6137217407226563], "node_ind": 121, "is_grounded": false}, {"point": [1.2492016601562501, -1.6190042724609375, 0.1602520751953125], "node_ind": 122, "is_grounded": false}, {"point": [1.22182275390625, -1.6260435791015626, 0.17097940063476563], "node_ind": 123, "is_grounded": false}, {"point": [1.13165283203125, -1.5745782470703125, 0.575478759765625], "node_ind": 124, "is_grounded": false}, {"point": [1.1417822265625, -1.5506455078125, 0.574691650390625], "node_ind": 125, "is_grounded": false}, {"point": [1.2251552734375, -1.6279456787109374, 0.14302938842773438], "node_ind": 126, "is_grounded": false}, {"point": [1.6126953125, -1.7472086181640625, 0.6580609741210938], "node_ind": 127, "is_grounded": false}, {"point": [1.62302734375, -1.7234696044921876, 0.6556709594726563], "node_ind": 128, "is_grounded": false}, {"point": [1.66749462890625, -1.7700822753906251, 0.6677625122070313], "node_ind": 129, "is_grounded": false}, {"point": [1.6777949218750001, -1.752031494140625, 0.6521397705078125], "node_ind": 130, "is_grounded": false}, {"point": [1.67392431640625, -1.717241943359375, 0.7311659545898438], "node_ind": 131, "is_grounded": false}, {"point": [1.75542529296875, -1.780304443359375, 0.6726675415039063], "node_ind": 132, "is_grounded": false}, {"point": [1.74469091796875, -1.8023046875, 0.68142919921875], "node_ind": 133, "is_grounded": false}, {"point": [1.40475830078125, -1.5400634765625, 0.9232713012695313], "node_ind": 134, "is_grounded": false}, {"point": [1.1564980468750001, -1.5887586669921876, 0.46402569580078123], "node_ind": 135, "is_grounded": false}, {"point": [1.22237060546875, -1.5571197509765626, 0.5802584228515625], "node_ind": 136, "is_grounded": false}, {"point": [1.2116879882812501, -1.57982470703125, 0.587067626953125], "node_ind": 137, "is_grounded": false}, {"point": [1.4353818359375001, -1.5445880126953124, 0.9266387939453126], "node_ind": 138, "is_grounded": false}, {"point": [1.25137158203125, -1.9719471435546876, 0.7647837524414063], "node_ind": 139, "is_grounded": false}, {"point": [1.24327880859375, -1.960224853515625, 0.7430328369140625], "node_ind": 140, "is_grounded": false}, {"point": [1.2464423828125, -1.9833947753906251, 0.7604481201171875], "node_ind": 141, "is_grounded": false}, {"point": [1.22766015625, -1.9820988769531251, 0.7783798828125], "node_ind": 142, "is_grounded": false}, {"point": [1.4372978515625001, -1.54013818359375, 0.9283240966796875], "node_ind": 143, "is_grounded": false}, {"point": [1.43021484375, -1.52866845703125, 0.9060916748046876], "node_ind": 144, "is_grounded": false}, {"point": [1.283482421875, -2.086956787109375, 0.8075750122070313], "node_ind": 145, "is_grounded": false}, {"point": [1.49301513671875, -1.989968505859375, 1.1593843994140625], "node_ind": 146, "is_grounded": false}, {"point": [1.7754111328125, -1.7910113525390625, 0.6989711303710938], "node_ind": 147, "is_grounded": false}, {"point": [1.4719648437500001, -1.9992470703125, 1.1467846679687501], "node_ind": 148, "is_grounded": false}, {"point": [1.44329150390625, -1.53878662109375, 0.896705810546875], "node_ind": 149, "is_grounded": false}, {"point": [1.46186279296875, -1.54093115234375, 0.9183670654296875], "node_ind": 150, "is_grounded": false}, {"point": [1.49415625, -2.0165350341796877, 1.1398184814453125], "node_ind": 151, "is_grounded": false}, {"point": [1.4281372070312501, -1.6032895507812501, 0.9281084594726563], "node_ind": 152, "is_grounded": false}, {"point": [1.41553076171875, -1.59069189453125, 0.909177734375], "node_ind": 153, "is_grounded": false}, {"point": [1.46275146484375, -1.581242431640625, 0.9384575805664063], "node_ind": 154, "is_grounded": false}, {"point": [1.25361669921875, -1.5973260498046875, 0.5944906005859375], "node_ind": 155, "is_grounded": false}, {"point": [1.2539833984375, -1.57932373046875, 0.6205487060546875], "node_ind": 156, "is_grounded": false}, {"point": [1.24553759765625, -1.5549532470703125, 0.6238276977539062], "node_ind": 157, "is_grounded": false}, {"point": [1.04010595703125, -1.7161124267578125, 1.086314453125], "node_ind": 158, "is_grounded": false}, {"point": [1.052630859375, -1.6964573974609376, 1.0978382568359375], "node_ind": 159, "is_grounded": false}, {"point": [1.52104052734375, -1.9702236328125, 1.113692138671875], "node_ind": 160, "is_grounded": false}, {"point": [1.463677734375, -1.95893798828125, 1.0987657470703125], "node_ind": 161, "is_grounded": false}, {"point": [1.470828125, -1.94766162109375, 1.1210753173828125], "node_ind": 162, "is_grounded": false}, {"point": [1.0884492187500001, -1.7193297119140625, 1.097919189453125], "node_ind": 163, "is_grounded": false}, {"point": [1.08219921875, -1.7291993408203126, 1.07469140625], "node_ind": 164, "is_grounded": false}, {"point": [1.43769287109375, -1.6173885498046876, 0.9530617065429687], "node_ind": 165, "is_grounded": false}, {"point": [1.4635078125, -1.6155711669921875, 0.9555665283203125], "node_ind": 166, "is_grounded": false}, {"point": [1.42741796875, -1.6035513916015625, 0.9284132690429687], "node_ind": 167, "is_grounded": false}, {"point": [1.38881005859375, -1.44416162109375, 1.381944091796875], "node_ind": 168, "is_grounded": false}, {"point": [1.0360595703125, -1.6878502197265626, 1.0630673828125001], "node_ind": 169, "is_grounded": false}, {"point": [1.0506162109375001, -1.7093903808593751, 1.0634256591796876], "node_ind": 170, "is_grounded": false}, {"point": [1.052107421875, -1.67676416015625, 1.0775740966796876], "node_ind": 171, "is_grounded": false}, {"point": [1.04329345703125, -1.690494873046875, 1.0978172607421874], "node_ind": 172, "is_grounded": false}, {"point": [1.399689453125, -1.4366458740234376, 1.3917788085937501], "node_ind": 173, "is_grounded": false}, {"point": [1.4095078125, -1.424028076171875, 1.3712752685546876], "node_ind": 174, "is_grounded": false}, {"point": [1.443791015625, -1.899325927734375, 1.095197265625], "node_ind": 175, "is_grounded": false}, {"point": [1.46973681640625, -1.89815380859375, 1.0964013671875], "node_ind": 176, "is_grounded": false}, {"point": [1.43773193359375, -1.942369873046875, 1.0987071533203125], "node_ind": 177, "is_grounded": false}, {"point": [1.40938671875, -1.4223533935546875, 1.372248046875], "node_ind": 178, "is_grounded": false}, {"point": [1.38361181640625, -1.4222320556640626, 1.36883837890625], "node_ind": 179, "is_grounded": false}, {"point": [1.38840380859375, -1.3735361328125, 1.4236414794921874], "node_ind": 180, "is_grounded": false}, {"point": [0.9999404296875, -1.2470716552734376, 1.1183966064453126], "node_ind": 181, "is_grounded": false}, {"point": [0.98330029296875, -1.250825927734375, 1.13801806640625], "node_ind": 182, "is_grounded": false}, {"point": [0.9968427734375, -1.6548172607421876, 1.072205322265625], "node_ind": 183, "is_grounded": false}, {"point": [0.9840927734375, -1.2744678955078126, 1.1341666259765626], "node_ind": 184, "is_grounded": false}, {"point": [0.97893408203125, -1.2705391845703125, 1.10898828125], "node_ind": 185, "is_grounded": false}, {"point": [1.3972861328125001, -1.616173828125, 0.9693414306640625], "node_ind": 186, "is_grounded": false}, {"point": [1.3877319335937501, -1.6179957275390626, 0.9452291259765625], "node_ind": 187, "is_grounded": false}, {"point": [1.43771337890625, -1.61746337890625, 0.9529022216796875], "node_ind": 188, "is_grounded": false}, {"point": [0.9676171875, -1.261189208984375, 1.112765869140625], "node_ind": 189, "is_grounded": false}, {"point": [1.3823183593750001, -1.376165283203125, 1.387647216796875], "node_ind": 190, "is_grounded": false}, {"point": [1.40631982421875, -1.379834716796875, 1.396945068359375], "node_ind": 191, "is_grounded": false}, {"point": [1.369572265625, -1.3674056396484375, 1.4088443603515626], "node_ind": 192, "is_grounded": false}, {"point": [1.49237060546875, -1.024409423828125, 1.242375244140625], "node_ind": 193, "is_grounded": false}, {"point": [0.98701953125, -1.1904825439453126, 1.1221243896484374], "node_ind": 194, "is_grounded": false}, {"point": [0.9255166015625, -1.2125723876953125, 1.1046021728515625], "node_ind": 195, "is_grounded": false}, {"point": [0.923279296875, -1.224558349609375, 1.1275657958984375], "node_ind": 196, "is_grounded": false}, {"point": [1.4665151367187501, -1.018261962890625, 1.2587337646484376], "node_ind": 197, "is_grounded": false}, {"point": [1.47014697265625, -1.0092451171875, 1.2346192626953125], "node_ind": 198, "is_grounded": false}, {"point": [1.4046386718750001, -1.5828822021484374, 1.010257568359375], "node_ind": 199, "is_grounded": false}, {"point": [1.42952490234375, -1.5879140625000001, 1.0158564453125], "node_ind": 200, "is_grounded": false}, {"point": [1.3993242187500001, -1.61785791015625, 0.9686610717773437], "node_ind": 201, "is_grounded": false}, {"point": [1.4697968750000001, -1.012308349609375, 1.233421142578125], "node_ind": 202, "is_grounded": false}, {"point": [0.89227197265625, -1.1974482421875001, 1.1029837646484375], "node_ind": 203, "is_grounded": false}, {"point": [1.18327197265625, -0.98243017578125, 0.8041221313476563], "node_ind": 204, "is_grounded": false}, {"point": [1.4664619140625, -1.0182811279296875, 1.2587186279296876], "node_ind": 205, "is_grounded": false}, {"point": [1.44977685546875, -0.9949805908203125, 1.2543355712890625], "node_ind": 206, "is_grounded": false}, {"point": [1.4720712890625, -0.99239306640625, 1.2412104492187501], "node_ind": 207, "is_grounded": false}, {"point": [1.16284326171875, -0.9814681396484375, 0.769612060546875], "node_ind": 208, "is_grounded": false}, {"point": [1.3652802734375, -1.56433154296875, 1.0018499145507813], "node_ind": 209, "is_grounded": false}, {"point": [1.3495224609375, -1.57671240234375, 0.9852850952148438], "node_ind": 210, "is_grounded": false}, {"point": [1.40251025390625, -1.6015167236328125, 1.0029691772460938], "node_ind": 211, "is_grounded": false}, {"point": [1.1587529296875, -1.0318204345703126, 0.8003134765625001], "node_ind": 212, "is_grounded": false}, {"point": [1.170892578125, -1.0197144775390625, 0.8198600463867187], "node_ind": 213, "is_grounded": false}, {"point": [1.1528203125, -1.006696044921875, 0.7628018188476563], "node_ind": 214, "is_grounded": false}, {"point": [1.1447392578125, -0.9956878662109375, 0.7866386108398438], "node_ind": 215, "is_grounded": false}, {"point": [1.56150390625, -1.1069906005859376, 0.787644775390625], "node_ind": 216, "is_grounded": false}, {"point": [1.45100634765625, -0.970852294921875, 1.235645263671875], "node_ind": 217, "is_grounded": false}, {"point": [1.4416127929687501, -0.99459619140625, 1.2405438232421875], "node_ind": 218, "is_grounded": false}, {"point": [1.5648886718750001, -1.11116064453125, 0.7739223022460938], "node_ind": 219, "is_grounded": false}, {"point": [1.54038330078125, -1.1066378173828124, 0.7665037841796876], "node_ind": 220, "is_grounded": false}, {"point": [1.383759765625, -1.5442913818359376, 1.0170513916015624], "node_ind": 221, "is_grounded": false}, {"point": [1.40844482421875, -1.549552001953125, 1.0232937622070313], "node_ind": 222, "is_grounded": false}, {"point": [1.370109375, -1.576781982421875, 1.00656201171875], "node_ind": 223, "is_grounded": false}, {"point": [1.545875, -1.0912930908203125, 0.75771923828125], "node_ind": 224, "is_grounded": false}, {"point": [1.5471513671875001, -1.07873681640625, 0.7804505004882812], "node_ind": 225, "is_grounded": false}, {"point": [1.5753095703125, -1.0458447265625, 0.7552700805664063], "node_ind": 226, "is_grounded": false}, {"point": [1.5599814453125, -1.05187548828125, 0.7351535034179688], "node_ind": 227, "is_grounded": false}, {"point": [1.46469384765625, -0.66279736328125, 0.7521025390625], "node_ind": 228, "is_grounded": false}, {"point": [1.186326171875, -1.1029154052734376, 0.8272203369140625], "node_ind": 229, "is_grounded": false}, {"point": [1.24687646484375, -1.0207083740234375, 0.7928235473632813], "node_ind": 230, "is_grounded": false}, {"point": [1.2474326171875, -1.0239808349609376, 0.7670363159179687], "node_ind": 231, "is_grounded": false}, {"point": [1.4675615234375001, -0.6580852050781251, 0.75156640625], "node_ind": 232, "is_grounded": false}, {"point": [1.4883349609375, -0.671618408203125, 0.7437360229492188], "node_ind": 233, "is_grounded": false}, {"point": [1.420740234375, -0.9936131591796875, 1.205282958984375], "node_ind": 234, "is_grounded": false}, {"point": [1.44045458984375, -0.9921951904296875, 1.1707628173828126], "node_ind": 235, "is_grounded": false}, {"point": [1.4657138671875, -0.9889731445312501, 1.176013916015625], "node_ind": 236, "is_grounded": false}, {"point": [1.4893056640625, -0.66511767578125, 0.7350767822265625], "node_ind": 237, "is_grounded": false}, {"point": [1.46583203125, -0.672634765625, 0.7268016357421875], "node_ind": 238, "is_grounded": false}, {"point": [1.46772412109375, -0.63627587890625, 0.6942334594726562], "node_ind": 239, "is_grounded": false}, {"point": [1.5466772460937501, -0.8398430175781251, 0.1738724822998047], "node_ind": 240, "is_grounded": false}, {"point": [1.54359326171875, -1.0212891845703125, 0.7268095092773438], "node_ind": 241, "is_grounded": false}, {"point": [1.56823046875, -1.0217117919921874, 0.7534292602539062], "node_ind": 242, "is_grounded": false}, {"point": [1.5472363281250001, -0.806971435546875, 0.06069999694824219], "node_ind": 243, "is_grounded": false}, {"point": [1.2345063476562501, -0.9969085693359375, 0.7754963989257813], "node_ind": 244, "is_grounded": false}, {"point": [1.23053662109375, -1.0208941650390626, 0.7662800903320313], "node_ind": 245, "is_grounded": false}, {"point": [1.251697265625, -1.0127867431640625, 0.7919222412109376], "node_ind": 246, "is_grounded": false}, {"point": [1.4949970703125, -0.81872998046875, 0.19959042358398438], "node_ind": 247, "is_grounded": false}, {"point": [1.51749658203125, -0.829890625, 0.2063143310546875], "node_ind": 248, "is_grounded": false}, {"point": [1.5482729492187501, -0.782288818359375, 0.06880535888671875], "node_ind": 249, "is_grounded": false}], "elements": [{"end_node_inds": [0, 84], "elem_ind": 0, "elem_tag": "connector0", "bending_stiff": true}, {"end_node_inds": [1, 85], "elem_ind": 1, "elem_tag": "connector1", "bending_stiff": true}, {"end_node_inds": [3, 4], "elem_ind": 2, "elem_tag": "connector2", "bending_stiff": true}, {"end_node_inds": [2, 86], "elem_ind": 3, "elem_tag": "connector3", "bending_stiff": true}, {"end_node_inds": [87, 1], "elem_ind": 4, "elem_tag": "connector4", "bending_stiff": true}, {"end_node_inds": [4, 88], "elem_ind": 5, "elem_tag": "connector5", "bending_stiff": true}, {"end_node_inds": [7, 89], "elem_ind": 6, "elem_tag": "connector6", "bending_stiff": true}, {"end_node_inds": [90, 91], "elem_ind": 7, "elem_tag": "connector7", "bending_stiff": true}, {"end_node_inds": [6, 92], "elem_ind": 8, "elem_tag": "connector8", "bending_stiff": true}, {"end_node_inds": [7, 93], "elem_ind": 9, "elem_tag": "connector9", "bending_stiff": true}, {"end_node_inds": [94, 95], "elem_ind": 10, "elem_tag": "connector10", "bending_stiff": true}, {"end_node_inds": [9, 2], "elem_ind": 11, "elem_tag": "connector11", "bending_stiff": true}, {"end_node_inds": [96, 97], "elem_ind": 12, "elem_tag": "connector12", "bending_stiff": true}, {"end_node_inds": [9, 98], "elem_ind": 13, "elem_tag": "connector13", "bending_stiff": true}, {"end_node_inds": [99, 100], "elem_ind": 14, "elem_tag": "connector14", "bending_stiff": true}, {"end_node_inds": [11, 101], "elem_ind": 15, "elem_tag": "connector15", "bending_stiff": true}, {"end_node_inds": [102, 103], "elem_ind": 16, "elem_tag": "connector16", "bending_stiff": true}, {"end_node_inds": [11, 104], "elem_ind": 17, "elem_tag": "connector17", "bending_stiff": true}, {"end_node_inds": [105, 8], "elem_ind": 18, "elem_tag": "connector18", "bending_stiff": true}, {"end_node_inds": [106, 107], "elem_ind": 19, "elem_tag": "connector19", "bending_stiff": true}, {"end_node_inds": [108, 14], "elem_ind": 20, "elem_tag": "connector20", "bending_stiff": true}, {"end_node_inds": [109, 5], "elem_ind": 21, "elem_tag": "connector21", "bending_stiff": true}, {"end_node_inds": [110, 111], "elem_ind": 22, "elem_tag": "connector22", "bending_stiff": true}, {"end_node_inds": [112, 113], "elem_ind": 23, "elem_tag": "connector23", "bending_stiff": true}, {"end_node_inds": [15, 114], "elem_ind": 24, "elem_tag": "connector24", "bending_stiff": true}, {"end_node_inds": [115, 116], "elem_ind": 25, "elem_tag": "connector25", "bending_stiff": true}, {"end_node_inds": [17, 117], "elem_ind": 26, "elem_tag": "connector26", "bending_stiff": true}, {"end_node_inds": [118, 12], "elem_ind": 27, "elem_tag": "connector27", "bending_stiff": true}, {"end_node_inds": [119, 10], "elem_ind": 28, "elem_tag": "connector28", "bending_stiff": true}, {"end_node_inds": [120, 13], "elem_ind": 29, "elem_tag": "connector29", "bending_stiff": true}, {"end_node_inds": [121, 20], "elem_ind": 30, "elem_tag": "connector30", "bending_stiff": true}, {"end_node_inds": [21, 122], "elem_ind": 31, "elem_tag": "connector31", "bending_stiff": true}, {"end_node_inds": [123, 15], "elem_ind": 32, "elem_tag": "connector32", "bending_stiff": true}, {"end_node_inds": [124, 125], "elem_ind": 33, "elem_tag": "connector33", "bending_stiff": true}, {"end_node_inds": [21, 126], "elem_ind": 34, "elem_tag": "connector34", "bending_stiff": true}, {"end_node_inds": [127, 128], "elem_ind": 35, "elem_tag": "connector35", "bending_stiff": true}, {"end_node_inds": [129, 130], "elem_ind": 36, "elem_tag": "connector36", "bending_stiff": true}, {"end_node_inds": [22, 18], "elem_ind": 37, "elem_tag": "connector37", "bending_stiff": true}, {"end_node_inds": [131, 16], "elem_ind": 38, "elem_tag": "connector38", "bending_stiff": true}, {"end_node_inds": [132, 133], "elem_ind": 39, "elem_tag": "connector39", "bending_stiff": true}, {"end_node_inds": [24, 134], "elem_ind": 40, "elem_tag": "connector40", "bending_stiff": true}, {"end_node_inds": [27, 135], "elem_ind": 41, "elem_tag": "connector41", "bending_stiff": true}, {"end_node_inds": [136, 137], "elem_ind": 42, "elem_tag": "connector42", "bending_stiff": true}, {"end_node_inds": [26, 138], "elem_ind": 43, "elem_tag": "connector43", "bending_stiff": true}, {"end_node_inds": [139, 140], "elem_ind": 44, "elem_tag": "connector44", "bending_stiff": true}, {"end_node_inds": [141, 142], "elem_ind": 45, "elem_tag": "connector45", "bending_stiff": true}, {"end_node_inds": [143, 144], "elem_ind": 46, "elem_tag": "connector46", "bending_stiff": true}, {"end_node_inds": [145, 19], "elem_ind": 47, "elem_tag": "connector47", "bending_stiff": true}, {"end_node_inds": [31, 29], "elem_ind": 48, "elem_tag": "connector48", "bending_stiff": true}, {"end_node_inds": [30, 146], "elem_ind": 49, "elem_tag": "connector49", "bending_stiff": true}, {"end_node_inds": [147, 23], "elem_ind": 50, "elem_tag": "connector50", "bending_stiff": true}, {"end_node_inds": [33, 25], "elem_ind": 51, "elem_tag": "connector51", "bending_stiff": true}, {"end_node_inds": [32, 148], "elem_ind": 52, "elem_tag": "connector52", "bending_stiff": true}, {"end_node_inds": [35, 149], "elem_ind": 53, "elem_tag": "connector53", "bending_stiff": true}, {"end_node_inds": [150, 28], "elem_ind": 54, "elem_tag": "connector54", "bending_stiff": true}, {"end_node_inds": [34, 151], "elem_ind": 55, "elem_tag": "connector55", "bending_stiff": true}, {"end_node_inds": [152, 153], "elem_ind": 56, "elem_tag": "connector56", "bending_stiff": true}, {"end_node_inds": [37, 154], "elem_ind": 57, "elem_tag": "connector57", "bending_stiff": true}, {"end_node_inds": [36, 38], "elem_ind": 58, "elem_tag": "connector58", "bending_stiff": true}, {"end_node_inds": [39, 155], "elem_ind": 59, "elem_tag": "connector59", "bending_stiff": true}, {"end_node_inds": [156, 157], "elem_ind": 60, "elem_tag": "connector60", "bending_stiff": true}, {"end_node_inds": [158, 159], "elem_ind": 61, "elem_tag": "connector61", "bending_stiff": true}, {"end_node_inds": [41, 160], "elem_ind": 62, "elem_tag": "connector62", "bending_stiff": true}, {"end_node_inds": [161, 162], "elem_ind": 63, "elem_tag": "connector63", "bending_stiff": true}, {"end_node_inds": [163, 164], "elem_ind": 64, "elem_tag": "connector64", "bending_stiff": true}, {"end_node_inds": [165, 166], "elem_ind": 65, "elem_tag": "connector65", "bending_stiff": true}, {"end_node_inds": [43, 167], "elem_ind": 66, "elem_tag": "connector66", "bending_stiff": true}, {"end_node_inds": [42, 168], "elem_ind": 67, "elem_tag": "connector67", "bending_stiff": true}, {"end_node_inds": [169, 170], "elem_ind": 68, "elem_tag": "connector68", "bending_stiff": true}, {"end_node_inds": [171, 172], "elem_ind": 69, "elem_tag": "connector69", "bending_stiff": true}, {"end_node_inds": [173, 174], "elem_ind": 70, "elem_tag": "connector70", "bending_stiff": true}, {"end_node_inds": [175, 176], "elem_ind": 71, "elem_tag": "connector71", "bending_stiff": true}, {"end_node_inds": [47, 177], "elem_ind": 72, "elem_tag": "connector72", "bending_stiff": true}, {"end_node_inds": [178, 179], "elem_ind": 73, "elem_tag": "connector73", "bending_stiff": true}, {"end_node_inds": [49, 44], "elem_ind": 74, "elem_tag": "connector74", "bending_stiff": true}, {"end_node_inds": [180, 46], "elem_ind": 75, "elem_tag": "connector75", "bending_stiff": true}, {"end_node_inds": [181, 182], "elem_ind": 76, "elem_tag": "connector76", "bending_stiff": true}, {"end_node_inds": [183, 40], "elem_ind": 77, "elem_tag": "connector77", "bending_stiff": true}, {"end_node_inds": [51, 45], "elem_ind": 78, "elem_tag": "connector78", "bending_stiff": true}, {"end_node_inds": [184, 185], "elem_ind": 79, "elem_tag": "connector79", "bending_stiff": true}, {"end_node_inds": [186, 187], "elem_ind": 80, "elem_tag": "connector80", "bending_stiff": true}, {"end_node_inds": [53, 188], "elem_ind": 81, "elem_tag": "connector81", "bending_stiff": true}, {"end_node_inds": [189, 48], "elem_ind": 82, "elem_tag": "connector82", "bending_stiff": true}, {"end_node_inds": [190, 191], "elem_ind": 83, "elem_tag": "connector83", "bending_stiff": true}, {"end_node_inds": [55, 192], "elem_ind": 84, "elem_tag": "connector84", "bending_stiff": true}, {"end_node_inds": [193, 56], "elem_ind": 85, "elem_tag": "connector85", "bending_stiff": true}, {"end_node_inds": [194, 50], "elem_ind": 86, "elem_tag": "connector86", "bending_stiff": true}, {"end_node_inds": [195, 196], "elem_ind": 87, "elem_tag": "connector87", "bending_stiff": true}, {"end_node_inds": [197, 198], "elem_ind": 88, "elem_tag": "connector88", "bending_stiff": true}, {"end_node_inds": [199, 200], "elem_ind": 89, "elem_tag": "connector89", "bending_stiff": true}, {"end_node_inds": [59, 201], "elem_ind": 90, "elem_tag": "connector90", "bending_stiff": true}, {"end_node_inds": [202, 54], "elem_ind": 91, "elem_tag": "connector91", "bending_stiff": true}, {"end_node_inds": [61, 52], "elem_ind": 92, "elem_tag": "connector92", "bending_stiff": true}, {"end_node_inds": [203, 57], "elem_ind": 93, "elem_tag": "connector93", "bending_stiff": true}, {"end_node_inds": [60, 204], "elem_ind": 94, "elem_tag": "connector94", "bending_stiff": true}, {"end_node_inds": [63, 205], "elem_ind": 95, "elem_tag": "connector95", "bending_stiff": true}, {"end_node_inds": [206, 207], "elem_ind": 96, "elem_tag": "connector96", "bending_stiff": true}, {"end_node_inds": [208, 64], "elem_ind": 97, "elem_tag": "connector97", "bending_stiff": true}, {"end_node_inds": [209, 210], "elem_ind": 98, "elem_tag": "connector98", "bending_stiff": true}, {"end_node_inds": [65, 211], "elem_ind": 99, "elem_tag": "connector99", "bending_stiff": true}, {"end_node_inds": [212, 213], "elem_ind": 100, "elem_tag": "connector100", "bending_stiff": true}, {"end_node_inds": [214, 62], "elem_ind": 101, "elem_tag": "connector101", "bending_stiff": true}, {"end_node_inds": [67, 215], "elem_ind": 102, "elem_tag": "connector102", "bending_stiff": true}, {"end_node_inds": [66, 216], "elem_ind": 103, "elem_tag": "connector103", "bending_stiff": true}, {"end_node_inds": [69, 58], "elem_ind": 104, "elem_tag": "connector104", "bending_stiff": true}, {"end_node_inds": [217, 218], "elem_ind": 105, "elem_tag": "connector105", "bending_stiff": true}, {"end_node_inds": [219, 220], "elem_ind": 106, "elem_tag": "connector106", "bending_stiff": true}, {"end_node_inds": [221, 222], "elem_ind": 107, "elem_tag": "connector107", "bending_stiff": true}, {"end_node_inds": [71, 223], "elem_ind": 108, "elem_tag": "connector108", "bending_stiff": true}, {"end_node_inds": [224, 225], "elem_ind": 109, "elem_tag": "connector109", "bending_stiff": true}, {"end_node_inds": [73, 68], "elem_ind": 110, "elem_tag": "connector110", "bending_stiff": true}, {"end_node_inds": [226, 227], "elem_ind": 111, "elem_tag": "connector111", "bending_stiff": true}, {"end_node_inds": [72, 228], "elem_ind": 112, "elem_tag": "connector112", "bending_stiff": true}, {"end_node_inds": [75, 229], "elem_ind": 113, "elem_tag": "connector113", "bending_stiff": true}, {"end_node_inds": [230, 231], "elem_ind": 114, "elem_tag": "connector114", "bending_stiff": true}, {"end_node_inds": [232, 233], "elem_ind": 115, "elem_tag": "connector115", "bending_stiff": true}, {"end_node_inds": [77, 234], "elem_ind": 116, "elem_tag": "connector116", "bending_stiff": true}, {"end_node_inds": [235, 236], "elem_ind": 117, "elem_tag": "connector117", "bending_stiff": true}, {"end_node_inds": [237, 238], "elem_ind": 118, "elem_tag": "connector118", "bending_stiff": true}, {"end_node_inds": [79, 74], "elem_ind": 119, "elem_tag": "connector119", "bending_stiff": true}, {"end_node_inds": [239, 76], "elem_ind": 120, "elem_tag": "connector120", "bending_stiff": true}, {"end_node_inds": [78, 240], "elem_ind": 121, "elem_tag": "connector121", "bending_stiff": true}, {"end_node_inds": [241, 70], "elem_ind": 122, "elem_tag": "connector122", "bending_stiff": true}, {"end_node_inds": [81, 242], "elem_ind": 123, "elem_tag": "connector123", "bending_stiff": true}, {"end_node_inds": [80, 82], "elem_ind": 124, "elem_tag": "connector124", "bending_stiff": true}, {"end_node_inds": [80, 243], "elem_ind": 125, "elem_tag": "connector125", "bending_stiff": true}, {"end_node_inds": [244, 245], "elem_ind": 126, "elem_tag": "connector126", "bending_stiff": true}, {"end_node_inds": [83, 246], "elem_ind": 127, "elem_tag": "connector127", "bending_stiff": true}, {"end_node_inds": [247, 248], "elem_ind": 128, "elem_tag": "connector128", "bending_stiff": true}, {"end_node_inds": [82, 249], "elem_ind": 129, "elem_tag": "connector129", "bending_stiff": true}, {"end_node_inds": [0, 95], "elem_ind": 130, "elem_tag": "bar0", "bending_stiff": true}, {"end_node_inds": [95, 89], "elem_ind": 131, "elem_tag": "bar0", "bending_stiff": true}, {"end_node_inds": [89, 1], "elem_ind": 132, "elem_tag": "bar0", "bending_stiff": true}, {"end_node_inds": [3, 100], "elem_ind": 133, "elem_tag": "bar1", "bending_stiff": true}, {"end_node_inds": [100, 84], "elem_ind": 134, "elem_tag": "bar1", "bending_stiff": true}, {"end_node_inds": [84, 2], "elem_ind": 135, "elem_tag": "bar1", "bending_stiff": true}, {"end_node_inds": [4, 101], "elem_ind": 136, "elem_tag": "bar2", "bending_stiff": true}, {"end_node_inds": [101, 116], "elem_ind": 137, "elem_tag": "bar2", "bending_stiff": true}, {"end_node_inds": [116, 87], "elem_ind": 138, "elem_tag": "bar2", "bending_stiff": true}, {"end_node_inds": [87, 91], "elem_ind": 139, "elem_tag": "bar2", "bending_stiff": true}, {"end_node_inds": [91, 5], "elem_ind": 140, "elem_tag": "bar2", "bending_stiff": true}, {"end_node_inds": [6, 103], "elem_ind": 141, "elem_tag": "bar3", "bending_stiff": true}, {"end_node_inds": [103, 111], "elem_ind": 142, "elem_tag": "bar3", "bending_stiff": true}, {"end_node_inds": [111, 122], "elem_ind": 143, "elem_tag": "bar3", "bending_stiff": true}, {"end_node_inds": [122, 90], "elem_ind": 144, "elem_tag": "bar3", "bending_stiff": true}, {"end_node_inds": [90, 7], "elem_ind": 145, "elem_tag": "bar3", "bending_stiff": true}, {"end_node_inds": [9, 94], "elem_ind": 146, "elem_tag": "bar4", "bending_stiff": true}, {"end_node_inds": [94, 92], "elem_ind": 147, "elem_tag": "bar4", "bending_stiff": true}, {"end_node_inds": [92, 96], "elem_ind": 148, "elem_tag": "bar4", "bending_stiff": true}, {"end_node_inds": [96, 8], "elem_ind": 149, "elem_tag": "bar4", "bending_stiff": true}, {"end_node_inds": [11, 99], "elem_ind": 150, "elem_tag": "bar5", "bending_stiff": true}, {"end_node_inds": [99, 117], "elem_ind": 151, "elem_tag": "bar5", "bending_stiff": true}, {"end_node_inds": [117, 102], "elem_ind": 152, "elem_tag": "bar5", "bending_stiff": true}, {"end_node_inds": [102, 97], "elem_ind": 153, "elem_tag": "bar5", "bending_stiff": true}, {"end_node_inds": [97, 107], "elem_ind": 154, "elem_tag": "bar5", "bending_stiff": true}, {"end_node_inds": [107, 10], "elem_ind": 155, "elem_tag": "bar5", "bending_stiff": true}, {"end_node_inds": [12, 108], "elem_ind": 156, "elem_tag": "bar6", "bending_stiff": true}, {"end_node_inds": [108, 105], "elem_ind": 157, "elem_tag": "bar6", "bending_stiff": true}, {"end_node_inds": [105, 106], "elem_ind": 158, "elem_tag": "bar6", "bending_stiff": true}, {"end_node_inds": [106, 140], "elem_ind": 159, "elem_tag": "bar6", "bending_stiff": true}, {"end_node_inds": [140, 13], "elem_ind": 160, "elem_tag": "bar6", "bending_stiff": true}, {"end_node_inds": [14, 112], "elem_ind": 161, "elem_tag": "bar7", "bending_stiff": true}, {"end_node_inds": [112, 128], "elem_ind": 162, "elem_tag": "bar7", "bending_stiff": true}, {"end_node_inds": [128, 109], "elem_ind": 163, "elem_tag": "bar7", "bending_stiff": true}, {"end_node_inds": [109, 110], "elem_ind": 164, "elem_tag": "bar7", "bending_stiff": true}, {"end_node_inds": [110, 15], "elem_ind": 165, "elem_tag": "bar7", "bending_stiff": true}, {"end_node_inds": [17, 115], "elem_ind": 166, "elem_tag": "bar8", "bending_stiff": true}, {"end_node_inds": [115, 130], "elem_ind": 167, "elem_tag": "bar8", "bending_stiff": true}, {"end_node_inds": [130, 118], "elem_ind": 168, "elem_tag": "bar8", "bending_stiff": true}, {"end_node_inds": [118, 113], "elem_ind": 169, "elem_tag": "bar8", "bending_stiff": true}, {"end_node_inds": [113, 16], "elem_ind": 170, "elem_tag": "bar8", "bending_stiff": true}, {"end_node_inds": [18, 121], "elem_ind": 171, "elem_tag": "bar9", "bending_stiff": true}, {"end_node_inds": [121, 119], "elem_ind": 172, "elem_tag": "bar9", "bending_stiff": true}, {"end_node_inds": [119, 120], "elem_ind": 173, "elem_tag": "bar9", "bending_stiff": true}, {"end_node_inds": [120, 142], "elem_ind": 174, "elem_tag": "bar9", "bending_stiff": true}, {"end_node_inds": [142, 19], "elem_ind": 175, "elem_tag": "bar9", "bending_stiff": true}, {"end_node_inds": [20, 124], "elem_ind": 176, "elem_tag": "bar10", "bending_stiff": true}, {"end_node_inds": [124, 135], "elem_ind": 177, "elem_tag": "bar10", "bending_stiff": true}, {"end_node_inds": [135, 123], "elem_ind": 178, "elem_tag": "bar10", "bending_stiff": true}, {"end_node_inds": [123, 21], "elem_ind": 179, "elem_tag": "bar10", "bending_stiff": true}, {"end_node_inds": [22, 125], "elem_ind": 180, "elem_tag": "bar11", "bending_stiff": true}, {"end_node_inds": [125, 137], "elem_ind": 181, "elem_tag": "bar11", "bending_stiff": true}, {"end_node_inds": [137, 155], "elem_ind": 182, "elem_tag": "bar11", "bending_stiff": true}, {"end_node_inds": [155, 127], "elem_ind": 183, "elem_tag": "bar11", "bending_stiff": true}, {"end_node_inds": [127, 129], "elem_ind": 184, "elem_tag": "bar11", "bending_stiff": true}, {"end_node_inds": [129, 133], "elem_ind": 185, "elem_tag": "bar11", "bending_stiff": true}, {"end_node_inds": [133, 23], "elem_ind": 186, "elem_tag": "bar11", "bending_stiff": true}, {"end_node_inds": [24, 144], "elem_ind": 187, "elem_tag": "bar12", "bending_stiff": true}, {"end_node_inds": [144, 149], "elem_ind": 188, "elem_tag": "bar12", "bending_stiff": true}, {"end_node_inds": [149, 131], "elem_ind": 189, "elem_tag": "bar12", "bending_stiff": true}, {"end_node_inds": [131, 132], "elem_ind": 190, "elem_tag": "bar12", "bending_stiff": true}, {"end_node_inds": [132, 25], "elem_ind": 191, "elem_tag": "bar12", "bending_stiff": true}, {"end_node_inds": [27, 136], "elem_ind": 192, "elem_tag": "bar13", "bending_stiff": true}, {"end_node_inds": [136, 157], "elem_ind": 193, "elem_tag": "bar13", "bending_stiff": true}, {"end_node_inds": [157, 134], "elem_ind": 194, "elem_tag": "bar13", "bending_stiff": true}, {"end_node_inds": [134, 26], "elem_ind": 195, "elem_tag": "bar13", "bending_stiff": true}, {"end_node_inds": [29, 141], "elem_ind": 196, "elem_tag": "bar14", "bending_stiff": true}, {"end_node_inds": [141, 139], "elem_ind": 197, "elem_tag": "bar14", "bending_stiff": true}, {"end_node_inds": [139, 153], "elem_ind": 198, "elem_tag": "bar14", "bending_stiff": true}, {"end_node_inds": [153, 138], "elem_ind": 199, "elem_tag": "bar14", "bending_stiff": true}, {"end_node_inds": [138, 143], "elem_ind": 200, "elem_tag": "bar14", "bending_stiff": true}, {"end_node_inds": [143, 28], "elem_ind": 201, "elem_tag": "bar14", "bending_stiff": true}, {"end_node_inds": [31, 145], "elem_ind": 202, "elem_tag": "bar15", "bending_stiff": true}, {"end_node_inds": [145, 151], "elem_ind": 203, "elem_tag": "bar15", "bending_stiff": true}, {"end_node_inds": [151, 30], "elem_ind": 204, "elem_tag": "bar15", "bending_stiff": true}, {"end_node_inds": [33, 147], "elem_ind": 205, "elem_tag": "bar16", "bending_stiff": true}, {"end_node_inds": [147, 160], "elem_ind": 206, "elem_tag": "bar16", "bending_stiff": true}, {"end_node_inds": [160, 146], "elem_ind": 207, "elem_tag": "bar16", "bending_stiff": true}, {"end_node_inds": [146, 32], "elem_ind": 208, "elem_tag": "bar16", "bending_stiff": true}, {"end_node_inds": [34, 148], "elem_ind": 209, "elem_tag": "bar17", "bending_stiff": true}, {"end_node_inds": [148, 162], "elem_ind": 210, "elem_tag": "bar17", "bending_stiff": true}, {"end_node_inds": [162, 176], "elem_ind": 211, "elem_tag": "bar17", "bending_stiff": true}, {"end_node_inds": [176, 166], "elem_ind": 212, "elem_tag": "bar17", "bending_stiff": true}, {"end_node_inds": [166, 154], "elem_ind": 213, "elem_tag": "bar17", "bending_stiff": true}, {"end_node_inds": [154, 150], "elem_ind": 214, "elem_tag": "bar17", "bending_stiff": true}, {"end_node_inds": [150, 35], "elem_ind": 215, "elem_tag": "bar17", "bending_stiff": true}, {"end_node_inds": [37, 152], "elem_ind": 216, "elem_tag": "bar18", "bending_stiff": true}, {"end_node_inds": [152, 167], "elem_ind": 217, "elem_tag": "bar18", "bending_stiff": true}, {"end_node_inds": [167, 187], "elem_ind": 218, "elem_tag": "bar18", "bending_stiff": true}, {"end_node_inds": [187, 164], "elem_ind": 219, "elem_tag": "bar18", "bending_stiff": true}, {"end_node_inds": [164, 36], "elem_ind": 220, "elem_tag": "bar18", "bending_stiff": true}, {"end_node_inds": [38, 158], "elem_ind": 221, "elem_tag": "bar19", "bending_stiff": true}, {"end_node_inds": [158, 170], "elem_ind": 222, "elem_tag": "bar19", "bending_stiff": true}, {"end_node_inds": [170, 156], "elem_ind": 223, "elem_tag": "bar19", "bending_stiff": true}, {"end_node_inds": [156, 39], "elem_ind": 224, "elem_tag": "bar19", "bending_stiff": true}, {"end_node_inds": [41, 161], "elem_ind": 225, "elem_tag": "bar20", "bending_stiff": true}, {"end_node_inds": [161, 177], "elem_ind": 226, "elem_tag": "bar20", "bending_stiff": true}, {"end_node_inds": [177, 163], "elem_ind": 227, "elem_tag": "bar20", "bending_stiff": true}, {"end_node_inds": [163, 159], "elem_ind": 228, "elem_tag": "bar20", "bending_stiff": true}, {"end_node_inds": [159, 172], "elem_ind": 229, "elem_tag": "bar20", "bending_stiff": true}, {"end_node_inds": [172, 40], "elem_ind": 230, "elem_tag": "bar20", "bending_stiff": true}, {"end_node_inds": [43, 188], "elem_ind": 231, "elem_tag": "bar21", "bending_stiff": true}, {"end_node_inds": [188, 165], "elem_ind": 232, "elem_tag": "bar21", "bending_stiff": true}, {"end_node_inds": [165, 200], "elem_ind": 233, "elem_tag": "bar21", "bending_stiff": true}, {"end_node_inds": [200, 179], "elem_ind": 234, "elem_tag": "bar21", "bending_stiff": true}, {"end_node_inds": [179, 42], "elem_ind": 235, "elem_tag": "bar21", "bending_stiff": true}, {"end_node_inds": [44, 173], "elem_ind": 236, "elem_tag": "bar22", "bending_stiff": true}, {"end_node_inds": [173, 168], "elem_ind": 237, "elem_tag": "bar22", "bending_stiff": true}, {"end_node_inds": [168, 171], "elem_ind": 238, "elem_tag": "bar22", "bending_stiff": true}, {"end_node_inds": [171, 169], "elem_ind": 239, "elem_tag": "bar22", "bending_stiff": true}, {"end_node_inds": [169, 45], "elem_ind": 240, "elem_tag": "bar22", "bending_stiff": true}, {"end_node_inds": [47, 175], "elem_ind": 241, "elem_tag": "bar23", "bending_stiff": true}, {"end_node_inds": [175, 174], "elem_ind": 242, "elem_tag": "bar23", "bending_stiff": true}, {"end_node_inds": [174, 178], "elem_ind": 243, "elem_tag": "bar23", "bending_stiff": true}, {"end_node_inds": [178, 191], "elem_ind": 244, "elem_tag": "bar23", "bending_stiff": true}, {"end_node_inds": [191, 46], "elem_ind": 245, "elem_tag": "bar23", "bending_stiff": true}, {"end_node_inds": [49, 180], "elem_ind": 246, "elem_tag": "bar24", "bending_stiff": true}, {"end_node_inds": [180, 192], "elem_ind": 247, "elem_tag": "bar24", "bending_stiff": true}, {"end_node_inds": [192, 181], "elem_ind": 248, "elem_tag": "bar24", "bending_stiff": true}, {"end_node_inds": [181, 48], "elem_ind": 249, "elem_tag": "bar24", "bending_stiff": true}, {"end_node_inds": [51, 183], "elem_ind": 250, "elem_tag": "bar25", "bending_stiff": true}, {"end_node_inds": [183, 184], "elem_ind": 251, "elem_tag": "bar25", "bending_stiff": true}, {"end_node_inds": [184, 182], "elem_ind": 252, "elem_tag": "bar25", "bending_stiff": true}, {"end_node_inds": [182, 50], "elem_ind": 253, "elem_tag": "bar25", "bending_stiff": true}, {"end_node_inds": [53, 201], "elem_ind": 254, "elem_tag": "bar26", "bending_stiff": true}, {"end_node_inds": [201, 186], "elem_ind": 255, "elem_tag": "bar26", "bending_stiff": true}, {"end_node_inds": [186, 210], "elem_ind": 256, "elem_tag": "bar26", "bending_stiff": true}, {"end_node_inds": [210, 185], "elem_ind": 257, "elem_tag": "bar26", "bending_stiff": true}, {"end_node_inds": [185, 189], "elem_ind": 258, "elem_tag": "bar26", "bending_stiff": true}, {"end_node_inds": [189, 196], "elem_ind": 259, "elem_tag": "bar26", "bending_stiff": true}, {"end_node_inds": [196, 52], "elem_ind": 260, "elem_tag": "bar26", "bending_stiff": true}, {"end_node_inds": [55, 190], "elem_ind": 261, "elem_tag": "bar27", "bending_stiff": true}, {"end_node_inds": [190, 193], "elem_ind": 262, "elem_tag": "bar27", "bending_stiff": true}, {"end_node_inds": [193, 54], "elem_ind": 263, "elem_tag": "bar27", "bending_stiff": true}, {"end_node_inds": [56, 197], "elem_ind": 264, "elem_tag": "bar28", "bending_stiff": true}, {"end_node_inds": [197, 205], "elem_ind": 265, "elem_tag": "bar28", "bending_stiff": true}, {"end_node_inds": [205, 194], "elem_ind": 266, "elem_tag": "bar28", "bending_stiff": true}, {"end_node_inds": [194, 195], "elem_ind": 267, "elem_tag": "bar28", "bending_stiff": true}, {"end_node_inds": [195, 57], "elem_ind": 268, "elem_tag": "bar28", "bending_stiff": true}, {"end_node_inds": [59, 211], "elem_ind": 269, "elem_tag": "bar29", "bending_stiff": true}, {"end_node_inds": [211, 199], "elem_ind": 270, "elem_tag": "bar29", "bending_stiff": true}, {"end_node_inds": [199, 222], "elem_ind": 271, "elem_tag": "bar29", "bending_stiff": true}, {"end_node_inds": [222, 202], "elem_ind": 272, "elem_tag": "bar29", "bending_stiff": true}, {"end_node_inds": [202, 198], "elem_ind": 273, "elem_tag": "bar29", "bending_stiff": true}, {"end_node_inds": [198, 207], "elem_ind": 274, "elem_tag": "bar29", "bending_stiff": true}, {"end_node_inds": [207, 58], "elem_ind": 275, "elem_tag": "bar29", "bending_stiff": true}, {"end_node_inds": [61, 203], "elem_ind": 276, "elem_tag": "bar30", "bending_stiff": true}, {"end_node_inds": [203, 213], "elem_ind": 277, "elem_tag": "bar30", "bending_stiff": true}, {"end_node_inds": [213, 60], "elem_ind": 278, "elem_tag": "bar30", "bending_stiff": true}, {"end_node_inds": [63, 206], "elem_ind": 279, "elem_tag": "bar31", "bending_stiff": true}, {"end_node_inds": [206, 218], "elem_ind": 280, "elem_tag": "bar31", "bending_stiff": true}, {"end_node_inds": [218, 234], "elem_ind": 281, "elem_tag": "bar31", "bending_stiff": true}, {"end_node_inds": [234, 204], "elem_ind": 282, "elem_tag": "bar31", "bending_stiff": true}, {"end_node_inds": [204, 208], "elem_ind": 283, "elem_tag": "bar31", "bending_stiff": true}, {"end_node_inds": [208, 62], "elem_ind": 284, "elem_tag": "bar31", "bending_stiff": true}, {"end_node_inds": [64, 215], "elem_ind": 285, "elem_tag": "bar32", "bending_stiff": true}, {"end_node_inds": [215, 212], "elem_ind": 286, "elem_tag": "bar32", "bending_stiff": true}, {"end_node_inds": [212, 229], "elem_ind": 287, "elem_tag": "bar32", "bending_stiff": true}, {"end_node_inds": [229, 209], "elem_ind": 288, "elem_tag": "bar32", "bending_stiff": true}, {"end_node_inds": [209, 223], "elem_ind": 289, "elem_tag": "bar32", "bending_stiff": true}, {"end_node_inds": [223, 65], "elem_ind": 290, "elem_tag": "bar32", "bending_stiff": true}, {"end_node_inds": [66, 225], "elem_ind": 291, "elem_tag": "bar33", "bending_stiff": true}, {"end_node_inds": [225, 231], "elem_ind": 292, "elem_tag": "bar33", "bending_stiff": true}, {"end_node_inds": [231, 245], "elem_ind": 293, "elem_tag": "bar33", "bending_stiff": true}, {"end_node_inds": [245, 214], "elem_ind": 294, "elem_tag": "bar33", "bending_stiff": true}, {"end_node_inds": [214, 67], "elem_ind": 295, "elem_tag": "bar33", "bending_stiff": true}, {"end_node_inds": [68, 219], "elem_ind": 296, "elem_tag": "bar34", "bending_stiff": true}, {"end_node_inds": [219, 216], "elem_ind": 297, "elem_tag": "bar34", "bending_stiff": true}, {"end_node_inds": [216, 236], "elem_ind": 298, "elem_tag": "bar34", "bending_stiff": true}, {"end_node_inds": [236, 217], "elem_ind": 299, "elem_tag": "bar34", "bending_stiff": true}, {"end_node_inds": [217, 69], "elem_ind": 300, "elem_tag": "bar34", "bending_stiff": true}, {"end_node_inds": [71, 221], "elem_ind": 301, "elem_tag": "bar35", "bending_stiff": true}, {"end_node_inds": [221, 220], "elem_ind": 302, "elem_tag": "bar35", "bending_stiff": true}, {"end_node_inds": [220, 224], "elem_ind": 303, "elem_tag": "bar35", "bending_stiff": true}, {"end_node_inds": [224, 227], "elem_ind": 304, "elem_tag": "bar35", "bending_stiff": true}, {"end_node_inds": [227, 70], "elem_ind": 305, "elem_tag": "bar35", "bending_stiff": true}, {"end_node_inds": [73, 226], "elem_ind": 306, "elem_tag": "bar36", "bending_stiff": true}, {"end_node_inds": [226, 242], "elem_ind": 307, "elem_tag": "bar36", "bending_stiff": true}, {"end_node_inds": [242, 238], "elem_ind": 308, "elem_tag": "bar36", "bending_stiff": true}, {"end_node_inds": [238, 72], "elem_ind": 309, "elem_tag": "bar36", "bending_stiff": true}, {"end_node_inds": [75, 230], "elem_ind": 310, "elem_tag": "bar37", "bending_stiff": true}, {"end_node_inds": [230, 246], "elem_ind": 311, "elem_tag": "bar37", "bending_stiff": true}, {"end_node_inds": [246, 228], "elem_ind": 312, "elem_tag": "bar37", "bending_stiff": true}, {"end_node_inds": [228, 232], "elem_ind": 313, "elem_tag": "bar37", "bending_stiff": true}, {"end_node_inds": [232, 74], "elem_ind": 314, "elem_tag": "bar37", "bending_stiff": true}, {"end_node_inds": [77, 235], "elem_ind": 315, "elem_tag": "bar38", "bending_stiff": true}, {"end_node_inds": [235, 233], "elem_ind": 316, "elem_tag": "bar38", "bending_stiff": true}, {"end_node_inds": [233, 237], "elem_ind": 317, "elem_tag": "bar38", "bending_stiff": true}, {"end_node_inds": [237, 76], "elem_ind": 318, "elem_tag": "bar38", "bending_stiff": true}, {"end_node_inds": [78, 248], "elem_ind": 319, "elem_tag": "bar39", "bending_stiff": true}, {"end_node_inds": [248, 239], "elem_ind": 320, "elem_tag": "bar39", "bending_stiff": true}, {"end_node_inds": [239, 79], "elem_ind": 321, "elem_tag": "bar39", "bending_stiff": true}, {"end_node_inds": [81, 241], "elem_ind": 322, "elem_tag": "bar40", "bending_stiff": true}, {"end_node_inds": [241, 240], "elem_ind": 323, "elem_tag": "bar40", "bending_stiff": true}, {"end_node_inds": [240, 80], "elem_ind": 324, "elem_tag": "bar40", "bending_stiff": true}, {"end_node_inds": [83, 244], "elem_ind": 325, "elem_tag": "bar41", "bending_stiff": true}, {"end_node_inds": [244, 247], "elem_ind": 326, "elem_tag": "bar41", "bending_stiff": true}, {"end_node_inds": [247, 82], "elem_ind": 327, "elem_tag": "bar41", "bending_stiff": true}], "supports": [{"condition": [1, 1, 1, 1, 1, 1], "node_ind": 1}, {"condition": [1, 1, 1, 1, 1, 1], "node_ind": 85}, {"condition": [1, 1, 1, 1, 1, 1], "node_ind": 2}, {"condition": [1, 1, 1, 1, 1, 1], "node_ind": 86}, {"condition": [1, 1, 1, 1, 1, 1], "node_ind": 4}, {"condition": [1, 1, 1, 1, 1, 1], "node_ind": 88}, {"condition": [1, 1, 1, 1, 1, 1], "node_ind": 7}, {"condition": [1, 1, 1, 1, 1, 1], "node_ind": 93}, {"condition": [1, 1, 1, 1, 1, 1], "node_ind": 9}, {"condition": [1, 1, 1, 1, 1, 1], "node_ind": 98}, {"condition": [1, 1, 1, 1, 1, 1], "node_ind": 11}, {"condition": [1, 1, 1, 1, 1, 1], "node_ind": 104}, {"condition": [1, 1, 1, 1, 1, 1], "node_ind": 15}, {"condition": [1, 1, 1, 1, 1, 1], "node_ind": 114}, {"condition": [1, 1, 1, 1, 1, 1], "node_ind": 21}, {"condition": [1, 1, 1, 1, 1, 1], "node_ind": 126}, {"condition": [1, 1, 1, 1, 1, 1], "node_ind": 80}, {"condition": [1, 1, 1, 1, 1, 1], "node_ind": 243}, {"condition": [1, 1, 1, 1, 1, 1], "node_ind": 82}, {"condition": [1, 1, 1, 1, 1, 1], "node_ind": 249}], "joints": [], "materials": [{"E": 10500000.0, "G12": 3600000.0, "G3": 3600000.0, "mu": 0.45833333333333326, "fy": 13000.0, "density": 6, "elem_tags": ["bar13", "bar37", "bar12", "bar0", "bar35", "bar28", "bar8", "bar30", "bar22", "bar40", "bar3", "bar34", "bar25", "bar31", "bar16", "bar4", "bar41", "bar27", "bar24", "bar15", "bar6", "bar19", "bar36", "bar5", "bar9", "bar10", "bar21", "bar11", "bar38", "bar33", "bar29", "bar2", "bar17", "bar7", "bar20", "bar39", "bar1", "bar32", "bar14", "bar26", "bar18", "bar23"], "family": "Wood", "name": "Wood", "type_name": "ISO"}, {"E": 1050000.0, "G12": 360000.0, "G3": 360000.0, "mu": 0.45833333333333326, "fy": 13000.0, "density": 6, "elem_tags": ["connector74", "connector98", "connector103", "connector79", "connector9", "connector14", "connector55", "connector84", "connector121", "connector90", "connector92", "connector61", "connector100", "connector11", "connector39", "connector129", "connector50", "connector124", "connector63", "connector68", "connector122", "connector32", "connector22", "connector28", "connector24", "connector49", "connector65", "connector45", "connector4", "connector37", "connector31", "connector126", "connector17", "connector13", "connector94", "connector110", "connector18", "connector46", "connector54", "connector12", "connector123", "connector86", "connector67", "connector116", "connector106", "connector20", "connector109", "connector113", "connector21", "connector76", "connector26", "connector40", "connector56", "connector89", "connector5", "connector42", "connector44", "connector60", "connector101", "connector23", "connector58", "connector33", "connector99", "connector41", "connector27", "connector104", "connector95", "connector43", "connector38", "connector96", "connector81", "connector91", "connector117", "connector82", "connector72", "connector35", "connector128", "connector30", "connector2", "connector29", "connector112", "connector59", "connector47", "connector19", "connector7", "connector78", "connector80", "connector87", "connector120", "connector83", "connector75", "connector108", "connector6", "connector66", "connector85", "connector119", "connector0", "connector48", "connector118", "connector53", "connector93", "connector52", "connector125", "connector10", "connector16", "connector51", "connector115", "connector107", "connector69", "connector1", "connector111", "connector97", "connector36", "connector102", "connector105", "connector88", 