{"problem": ["IT_hydra.json"], "config": [{"bar_only": false, "stiffness": true, "collision": true, "teleops": false, "partial_ordering": false, "chosen_bars": null}], "write_time": ["2020-12-29 18:55:04.578410"], "parameters": [{"trans_tol": 0.005, "rot_tol": Infinity, "joint_resolution": [0.05, 0.05395, 0.036250000000000004, 0.061244999999999994, 0.045865, 0.18770499999999998, 0.06565], "joint_weight": [10.0, 0.38197097020626436, 0.38197097020626436, 0.38197097020626436, 0.15915457091927682, 0.15915457091927682, 0.12732365673542145], "joint_jump_threshold": 1.0471975511965976, "enable_self_collisions": true, "pos_step_size": 0.01, "ori_step_size": 0.17453292519943295, "retreat_distance": 0.07}], "plan": [[{"element": 1, "tag": "transfer", "path": [[0.0, 0.0, 0.0, 0.0, 0.0, 0.0, 0.0], [0.0716653301843515, 0.007796529995674052, 0.01330340885304587, 0.010098686878362385, 0.006653171396201312, 0.029847430562849962, -0.08502494948370196], [0.10749799527652726, 0.011694794993511077, 0.019955113279568802, 0.015148030317543576, 0.009979757094301968, 0.04477114584427494, -0.12753742422555292], [0.143330660368703, 0.015593059991348104, 0.02660681770609174, 0.020197373756724767, 0.013306342792402625, 0.059694861125699925, -0.17004989896740388], [0.17916332546087876, 0.01949132498918513, 0.033258522132614675, 0.02524671719590596, 0.016632928490503282, 0.07461857640712491, -0.21256237370925485], [0.21499599055305452, 0.023389589987022154, 0.03991022655913761, 0.030296060635087153, 0.019959514188603936, 0.0895422916885499, -0.25507484845110584], [0.25082865564523027, 0.02728785498485918, 0.04656193098566055, 0.035345404074268345, 0.023286099886704593, 0.10446600696997488, -0.29758732319295683], [0.286661320737406, 0.031186119982696207, 0.053213635412183484, 0.040394747513449535, 0.02661268558480525, 0.11938972225139986, -0.3400997979348078], [0.3224939858295818, 0.035084384980533234, 0.05986533983870642, 0.045444090952630724, 0.029939271282905904, 0.13431343753282485, -0.3826122726766588], [0.35832665092175753, 0.03898264997837026, 0.06651704426522935, 0.05049343439181191, 0.03326585698100656, 0.14923715281424982, -0.4251247474185098], [0.3941593160139333, 0.04288091497620729, 0.07316874869175229, 0.0555427778309931, 0.03659244267910721, 0.1641608680956748, -0.4676372221603608], [0.42999198110610903, 0.046779179974044315, 0.07982045311827522, 0.06059212127017429, 0.039919028377207864, 0.17908458337709976, -0.5101496969022118], [0.4658246461982848, 0.05067744497188134, 0.08647215754479816, 0.06564146470935549, 0.04324561407530852, 0.19400829865852473, -0.5526621716440627], [0.5016573112904605, 0.05457570996971837, 0.0931238619713211, 0.07069080814853668, 0.04657219977340917, 0.2089320139399497, -0.5951746463859137], [0.5374899763826363, 0.058473974967555395, 0.09977556639784403, 0.07574015158771787, 0.049898785471509825, 0.22385572922137467, -0.6376871211277646], [0.573322641474812, 0.06237223996539242, 0.10642727082436697, 0.08078949502689906, 0.05322537116961048, 0.23877944450279964, -0.6801995958696155], [0.6091553065669878, 0.06627050496322945, 0.1130789752508899, 0.08583883846608024, 0.05655195686771113, 0.25370315978422464, -0.7227120706114665], [0.6449879716591636, 0.07016876996106647, 0.11973067967741284, 0.09088818190526143, 0.059878542565811786, 0.26862687506564964, -0.7652245453533174], [0.6808206367513393, 0.07406703495890349, 0.12638238410393576, 0.09593752534444262, 0.06320512826391245, 0.28355059034707464, -0.8077370200951683], [0.7166533018435151, 0.07796529995674051, 0.1330340885304587, 0.10098686878362381, 0.0665317139620131, 0.29847430562849964, -0.8502494948370193], [0.7524859669356908, 0.08186356495457753, 0.13968579295698164, 0.106036212222805, 0.06985829966011375, 0.31339802090992464, -0.8927619695788702], [0.7883186320278666, 0.08576182995241455, 0.14633749738350457, 0.11108555566198619, 0.07318488535821441, 0.32832173619134963, -0.9352744443207212], [0.8241512971200423, 0.08966009495025157, 0.1529892018100275, 0.11613489910116738, 0.07651147105631506, 0.34324545147277463, -0.9777869190625721], [0.8599839622122181, 0.09355835994808859, 0.15964090623655044, 0.12118424254034857, 0.07983805675441571, 0.35816916675419963, -1.0202993938044231], [0.8958166273043938, 0.09745662494592561, 0.16629261066307338, 0.12623358597952977, 0.08316464245251637, 0.37309288203562463, -1.0628118685462742], [0.9316492923965696, 0.10135488994376263, 0.17294431508959632, 0.13128292941871098, 0.08649122815061702, 0.3880165973170496, -1.1053243432881252], [0.9674819574887453, 0.10525315494159965, 0.17959601951611925, 0.13633227285789218, 0.08981781384871768, 0.4029403125984746, -1.1478368180299763], [1.003314622580921, 0.10915141993943667, 0.1862477239426422, 0.14138161629707338, 0.09314439954681833, 0.4178640278798996, -1.1903492927718273], [1.0391472876730967, 0.11304968493727369, 0.19289942836916513, 0.14643095973625458, 0.09647098524491898, 0.4327877431613246, -1.2328617675136784], [1.0749799527652724, 0.1169479499351107, 0.19955113279568806, 0.1514803031754358, 0.09979757094301964, 0.4477114584427496, -1.2753742422555294], [1.110812617857448, 0.12084621493294773, 0.206202837222211, 0.156529646614617, 0.10312415664112029, 0.4626351737241746, -1.3178867169973805], [1.1466452829496236, 0.12474447993078475, 0.21285454164873394, 0.1615789900537982, 0.10645074233922094, 0.4775588890055996, -1.3603991917392315], [1.1824779480417995, 0.12864274492862177, 0.21950624607525687, 0.1666283334929794, 0.1097773280373216, 0.4924826042870246, -1.4029116664810826], [1.2183106131339754, 0.13254100992645879, 0.2261579505017798, 0.1716776769321606, 0.11310391373542225, 0.5074063195684496, -1.4454241412229336], [1.254143278226151, 0.1364392749242958, 0.23280965492830274, 0.1767270203713418, 0.1164304994335229, 0.5223300348498746, -1.4879366159647847], [1.2899759433183267, 0.14033753992213283, 0.23946135935482568, 0.18177636381052298, 0.11975708513162356, 0.5372537501312996, -1.5304490907066357], [1.3258086084105023, 0.14423580491996985, 0.24611306378134862, 0.18682570724970415, 0.12308367082972421, 0.5521774654127246, -1.5729615654484868], [1.3616412735026782, 0.14813406991780687, 0.2527647682078715, 0.19187505068888536, 0.12641025652782487, 0.5671011806941496, -1.6154740401903378], [1.397473938594854, 0.15203233491564389, 0.25941647263439443, 0.19692439412806656, 0.12973684222592552, 0.5820248959755746, -1.6579865149321888], [1.4333066036870297, 0.1559305999134809, 0.26606817706091734, 0.20197373756724774, 0.13306342792402617, 0.5969486112569996, -1.70049898967404], [1.4691392687792055, 0.15982886491131792, 0.27271988148744025, 0.20702308100642894, 0.13639001362212683, 0.6118723265384246, -1.743011464415891], [1.5049719338713814, 0.16372712990915494, 0.27937158591396316, 0.21207242444561014, 0.13971659932022748, 0.6267960418198496, -1.785523939157742], [1.540804598963557, 0.16762539490699196, 0.2860232903404861, 0.21712176788479132, 0.14304318501832813, 0.6417197571012746, -1.828036413899593], [1.5766372640557327, 0.17152365990482898, 0.29267499476700903, 0.2221711113239725, 0.1463697707164288, 0.6566434723826996, -1.8705488886414439], [1.6124699291479085, 0.175421924902666, 0.29932669919353194, 0.2272204547631537, 0.14969635641452944, 0.6715671876641246, -1.913061363383295], [1.6483025942400844, 0.17932018990050302, 0.3059784036200549, 0.2322697982023349, 0.1530229421126301, 0.6864909029455496, -1.955573838125146], [1.68413525933226, 0.18321845489834004, 0.31263010804657787, 0.23731914164151607, 0.15634952781073075, 0.7014146182269746, -1.998086312866997], [1.7199679244244357, 0.18711671989617706, 0.3192818124731008, 0.24236848508069725, 0.1596761135088314, 0.7163383335083996, -2.040598787608848], [1.7558005895166116, 0.19101498489401408, 0.3259335168996237, 0.24741782851987845, 0.16300269920693206, 0.7312620487898246, -2.083111262350699], [1.7916332546087874, 0.1949132498918511, 0.33258522132614665, 0.25246717195905966, 0.1663292849050327, 0.7461857640712496, -2.12562373709255], [1.827465919700963, 0.19881151488968812, 0.3392369257526696, 0.25751651539824083, 0.16965587060313336, 0.7611094793526746, -2.168136211834401], [1.8632985847931387, 0.20270977988752514, 0.3458886301791925, 0.262565858837422, 0.17298245630123402, 0.7760331946340996, -2.2106486865762522], [1.8991312498853146, 0.20660804488536216, 0.35254033460571543, 0.2676152022766032, 0.17630904199933467, 0.7909569099155246, -2.2531611613181033], [1.9349639149774904, 0.21050630988319918, 0.3591920390322384, 0.27266454571578436, 0.17963562769743532, 0.8058806251969496, -2.2956736360599543], [1.970796580069666, 0.2144045748810362, 0.36584374345876136, 0.27771388915496553, 0.18296221339553598, 0.8208043404783746, -2.3381861108018054], [2.0066292451618417, 0.21830283987887325, 0.37249544788528427, 0.2827632325941467, 0.18628879909363663, 0.8357280557597996, -2.3806985855436564], [2.0424619102540174, 0.2222011048767103, 0.3791471523118072, 0.2878125760333279, 0.18961538479173728, 0.8506517710412246, -2.4232110602855075], [2.078294575346193, 0.22609936987454732, 0.38579885673833014, 0.29286191947250906, 0.19294197048983794, 0.8655754863226496, -2.4657235350273585], [2.1141272404383686, 0.22999763487238434, 0.3924505611648531, 0.29791126291169023, 0.1962685561879386, 0.8804992016040746, -2.5082360097692096], [2.1499599055305443, 0.23389589987022139, 0.399102265591376, 0.3029606063508714, 0.19959514188603925, 0.8954229168854996, -2.5507484845110606], [2.18579257062272, 0.23779416486805843, 0.4057539700178989, 0.3080099497900526, 0.2029217275841399, 0.9103466321669245, -2.5932609592529117], [2.2216252357148956, 0.24169242986589545, 0.4124056744444219, 0.31305929322923376, 0.20624831328224055, 0.9252703474483495, -2.6357734339947627], [2.257457900807071, 0.24559069486373247, 0.41905737887094485, 0.31810863666841493, 0.2095748989803412, 0.9401940627297745, -2.6782859087366138], [2.293290565899247, 0.24948895986156952, 0.42570908329746776, 0.3231579801075961, 0.21290148467844186, 0.9551177780111993, -2.7207983834784644], [2.3291232309914225, 0.25338722485940657, 0.43236078772399067, 0.3282073235467773, 0.2162280703765425, 0.9700414932926242, -2.763310858220315], [2.364955896083598, 0.2572854898572436, 0.43901249215051363, 0.3332566669859585, 0.21955465607464317, 0.9849652085740492, -2.805823332962166], [2.4007885611757738, 0.2611837548550806, 0.4456641965770366, 0.33830601042513975, 0.22288124177274382, 0.9998889238554742, -2.848335807704017], [2.43662122626795, 0.2650820198529176, 0.4523159010035595, 0.3433553538643209, 0.22620782747084447, 1.0148126391368992, -2.8908482824458677], [2.472453891360126, 0.26898028485075465, 0.4589676054300824, 0.3484046973035021, 0.22953441316894513, 1.0297363544183242, -2.9333607571877183], [2.5082865564523016, 0.27287854984859167, 0.4656193098566054, 0.35345404074268333, 0.2328609988670458, 1.0446600696997492, -2.9758732319295693], [2.5441192215444772, 0.2767768148464287, 0.47227101428312834, 0.35850338418186456, 0.2361875845651465, 1.0595837849811742, -3.0183857066714204], [2.5799518866366533, 0.2806750798442657, 0.47892271870965125, 0.36355272762104573, 0.23951417026324714, 1.0745075002625992, -3.060898181413271], [2.6157845517288294, 0.2845733448421027, 0.48557442313617416, 0.3686020710602269, 0.2428407559613478, 1.0894312155440242, -3.1034106561551216], [2.651617216821005, 0.2884716098399398, 0.4922261275626971, 0.37365141449940814, 0.24616734165944848, 1.104354930825449, -3.1459231308969726], [2.6874498819131807, 0.2923698748377769, 0.4988778319892201, 0.37870075793858937, 0.24949392735754916, 1.1192786461068738, -3.1884356056388237], [2.7232825470053568, 0.2962681398356139, 0.505529536415743, 0.38375010137777055, 0.25282051305564984, 1.1342023613882988, -3.2309480803806743], [2.759115212097533, 0.3001664048334509, 0.5121812408422659, 0.3887994448169517, 0.2561470987537505, 1.1491260766697238, -3.273460555122525], [2.7949478771897085, 0.304064669831288, 0.5188329452687889, 0.39384878825613295, 0.25947368445185115, 1.1640497919511485, -3.315973029864376]], "attachments": [{"parent_name": "ECL_robot1_with_track", "parent_link_name": "eef_tcp_frame", "grasp_pose": [[6.139278411865234e-06, -0.16225242614746094, -2.384185791015625e-07], [-0.5000004768371582, -0.4999988079071045, -0.4999995231628418, 0.5000011920928955]], "child_name": "body299"}], "link_path": {"eef_tcp_frame": [[[1.9515000581741333, 0.0, 1.7650134563446045], [0.0, 0.7070939540863037, 0.0, 0.7071195840835571]], [[1.969037413597107, -0.05621308088302612, 1.70822274684906], [-0.031324341893196106, 0.7249913811683655, -0.024203551933169365, 0.6876194477081299]], [[1.9769598245620728, -0.08415114134550095, 1.679748296737671], [-0.04760656878352165, 0.7332183122634888, -0.035727594047784805, 0.6773832440376282]], [[1.9843169450759888, -0.11198543012142181, 1.651236891746521], [-0.06427927315235138, 0.7409428954124451, -0.046852920204401016, 0.6668407320976257]], [[1.9911082983016968, -0.13972239196300507, 1.6227003335952759], [-0.08132456988096237, 0.7481502890586853, -0.05756993219256401, 0.6560055613517761]], [[1.9973338842391968, -0.16736850142478943, 1.594150424003601], [-0.09872398525476456, 0.7548257112503052, -0.06786946952342987, 0.6448919177055359]], [[2.0029938220977783, -0.19493019580841064, 1.5655988454818726], [-0.11645854264497757, 0.7609557509422302, -0.07774286717176437, 0.633513867855072]], [[2.0080888271331787, -0.22241397202014923, 1.5370573997497559], [-0.13450878858566284, 0.7665274143218994, -0.08718191832304001, 0.6218861937522888]], [[2.012619972229004, -0.24982629716396332, 1.5085376501083374], [-0.1528547704219818, 0.7715284824371338, -0.09617895632982254, 0.6100236773490906]], [[2.016587972640991, -0.27717360854148865, 1.4800512790679932], [-0.1714760661125183, 0.7759472727775574, -0.10472669452428818, 0.5979415774345398]], [[2.0199949741363525, -0.30446240305900574, 1.4516096115112305], [-0.1903519332408905, 0.7797732949256897, -0.11281851679086685, 0.5856550335884094]], [[2.0228426456451416, -0.33169904351234436, 1.4232244491577148], [-0.20946109294891357, 0.782996416091919, -0.12044818699359894, 0.5731797814369202]], [[2.0251331329345703, -0.35888999700546265, 1.3949068784713745], [-0.22878199815750122, 0.7856072783470154, -0.12761004269123077, 0.5605316162109375]], [[2.026869297027588, -0.3860416114330292, 1.366668462753296], [-0.24829278886318207, 0.7875977754592896, -0.13429902493953705, 0.5477263927459717]], [[2.0280537605285645, -0.41316020488739014, 1.3385201692581177], [-0.2679712474346161, 0.7889602184295654, -0.1405104547739029, 0.5347802042961121]], [[2.0286900997161865, -0.44025206565856934, 1.3104733228683472], [-0.28779497742652893, 0.789688229560852, -0.14624032378196716, 0.5217093825340271]], [[2.0287814140319824, -0.4673234820365906, 1.282538890838623], [-0.30774110555648804, 0.7897748947143555, -0.15148502588272095, 0.5085304379463196]], [[2.028331995010376, -0.4943806231021881, 1.2547277212142944], [-0.32778695225715637, 0.789216160774231, -0.15624168515205383, 0.49525973200798035]], [[2.027345657348633, -0.5214295983314514, 1.227050542831421], [-0.34790927171707153, 0.7880072593688965, -0.1605079025030136, 0.48191389441490173]], [[2.025827169418335, -0.5484764575958252, 1.199518084526062], [-0.3680848181247711, 0.7861449718475342, -0.1642817258834839, 0.4685095548629761]], [[2.0237810611724854, -0.5755273103713989, 1.1721409559249878], [-0.3882903754711151, 0.7836266756057739, -0.16756200790405273, 0.4550635516643524]], [[2.021212339401245, -0.6025879383087158, 1.1449294090270996], [-0.40850234031677246, 0.7804508209228516, -0.17034783959388733, 0.4415925443172455]], [[2.0181267261505127, -0.6296642422676086, 1.1178938150405884], [-0.428697407245636, 0.7766165137290955, -0.17263919115066528, 0.4281133711338043]], [[2.0145297050476074, -0.6567620038986206, 1.0910440683364868], [-0.44885197281837463, 0.7721238136291504, -0.1744363158941269, 0.4146428406238556]], [[2.0104269981384277, -0.6838868856430054, 1.0643903017044067], [-0.4689425826072693, 0.7669736742973328, -0.17574027180671692, 0.40119776129722595]], [[2.0058252811431885, -0.711044430732727, 1.0379421710968018], [-0.4889458417892456, 0.7611678242683411, -0.17655245959758759, 0.38779473304748535]], [[2.000730514526367, -0.7382401823997498, 1.0117093324661255], [-0.5088382959365845, 0.754709005355835, -0.176875039935112, 0.3744505047798157]], [[1.995149850845337, -0.7654793858528137, 0.9857011437416077], [-0.5285966992378235, 0.7476006150245667, -0.1767105758190155, 0.36118173599243164]], [[1.989090085029602, -0.7927674651145935, 0.9599269032478333], [-0.5481980443000793, 0.7398470640182495, -0.1760622262954712, 0.3480047583580017]], [[1.9825586080551147, -0.820109486579895, 0.9343956112861633], [-0.5676193237304688, 0.7314534783363342, -0.1749338060617447, 0.3349361717700958]], [[1.9755629301071167, -0.8475104570388794, 0.9091162085533142], [-0.5868378281593323, 0.7224259972572327, -0.17332947254180908, 0.32199206948280334]], [[1.9681107997894287, -0.8749753832817078, 0.8840972781181335], [-0.6058310866355896, 0.7127714157104492, -0.17125411331653595, 0.30918869376182556]], [[1.9602102041244507, -0.9025089740753174, 0.8593473434448242], [-0.6245768070220947, 0.7024974226951599, -0.16871312260627747, 0.2965419292449951]], [[1.9518693685531616, -0.9301159381866455, 0.8348745703697205], [-0.6430530548095703, 0.6916124820709229, -0.16571229696273804, 0.2840675711631775]], [[1.9430967569351196, -0.9578008651733398, 0.8106871247291565], [-0.6612383127212524, 0.680125892162323, -0.16225813329219818, 0.27178117632865906]], [[1.9339009523391724, -0.9855680465698242, 0.7867927551269531], [0.679111123085022, -0.6680478453636169, 0.15835748612880707, -0.2596980333328247]], [[1.9242908954620361, -1.013421893119812, 0.7631990909576416], [0.6966508626937866, -0.6553890109062195, 0.154017835855484, -0.24783329665660858]], [[1.9142757654190063, -1.0413663387298584, 0.7399135231971741], [0.7138369679450989, -0.6421610116958618, 0.14924712479114532, -0.23620183765888214]], [[1.9038645029067993, -1.0694055557250977, 0.7169431447982788], [0.7306492924690247, -0.6283763647079468, 0.1440538465976715, -0.22481822967529297]], [[1.8930668830871582, -1.0975433588027954, 0.6942948698997498], [0.7470684051513672, -0.6140479445457458, 0.1384468972682953, -0.21369674801826477]], [[1.8818923234939575, -1.1257833242416382, 0.6719754338264465], [0.7630752325057983, -0.5991896986961365, 0.13243567943572998, -0.20285144448280334]], [[1.87035071849823, -1.1541290283203125, 0.6499912142753601], [0.7786511778831482, -0.58381587266922, 0.1260300725698471, -0.19229590892791748]], [[1.8584519624710083, -1.1825839281082153, 0.6283484697341919], [0.7937783598899841, -0.5679417848587036, 0.1192404106259346, -0.18204355239868164]], [[1.8462060689926147, -1.211151123046875, 0.6070530414581299], [0.8084391355514526, -0.5515830516815186, 0.11207745224237442, -0.17210730910301208]], [[1.8336235284805298, -1.2398338317871094, 0.5861107110977173], [0.8226168155670166, -0.5347561836242676, 0.10455244034528732, -0.16249984502792358]], [[1.8207144737243652, -1.2686350345611572, 0.5655268430709839], [0.8362951874732971, -0.5174780488014221, 0.09667699038982391, -0.15323342382907867]], [[1.8074895143508911, -1.2975572347640991, 0.5453066825866699], [0.8494584560394287, -0.4997663199901581, 0.08846312761306763, -0.14431986212730408]], [[1.7939592599868774, -1.3266032934188843, 0.525455117225647], [0.8620918393135071, -0.48163914680480957, 0.07992330193519592, -0.13577063381671906]], [[1.7801344394683838, -1.3557754755020142, 0.5059767961502075], [0.8741810321807861, -0.4631151258945465, 0.07107032835483551, -0.12759678065776825]], [[1.7660259008407593, -1.3850761651992798, 0.48687610030174255], [0.8857124447822571, -0.4442134201526642, 0.06191740185022354, -0.11980888247489929]], [[1.7516446113586426, -1.4145073890686035, 0.46815717220306396], [0.8966732025146484, -0.4249536395072937, 0.05247803404927254, -0.11241710186004639]], [[1.7370015382766724, -1.4440711736679077, 0.44982388615608215], [0.9070512056350708, -0.40535596013069153, 0.04276610538363457, -0.10543113946914673]], [[1.7221076488494873, -1.473769187927246, 0.43187981843948364], [0.9168350100517273, -0.3854408264160156, 0.03279583156108856, -0.0988602414727211]], [[1.7069742679595947, -1.503603219985962, 0.41432830691337585], [0.9260140657424927, -0.36522915959358215, 0.02258170209825039, -0.09271314740180969]], [[1.6916124820709229, -1.5335745811462402, 0.39717239141464233], [0.9345784187316895, -0.3447422683238983, 0.01213852595537901, -0.08699814975261688]], [[1.676033616065979, -1.5636847019195557, 0.38041481375694275], [0.942518949508667, -0.3240016996860504, 0.0014813690213486552, -0.08172298967838287]], [[1.6602489948272705, -1.5939345359802246, 0.36405813694000244], [0.9498276114463806, -0.30302947759628296, -0.009374428540468216, -0.07689497619867325]], [[1.6442699432373047, -1.6243252754211426, 0.3481045663356781], [0.9564966559410095, -0.28184768557548523, -0.020413294434547424, -0.07252082973718643]], [[1.6281076669692993, -1.6548575162887573, 0.3325560390949249], [0.962519645690918, -0.2604788839817047, -0.03161942958831787, -0.06860678642988205]], [[1.6117736101150513, -1.6855319738388062, 0.3174142837524414], [0.9678906798362732, -0.2389456331729889, -0.04297682270407677, -0.06515854597091675]], [[1.5952792167663574, -1.7163491249084473, 0.302680641412735], [0.9726047515869141, -0.2172708511352539, -0.0544692724943161, -0.062181271612644196]], [[1.578635811805725, -1.7473093271255493, 0.28835633397102356], [0.9766576886177063, -0.19547751545906067, -0.06608040630817413, -0.05967957526445389]], [[1.561854600906372, -1.7784126996994019, 0.2744421362876892], [0.980046272277832, -0.1735887974500656, -0.07779372483491898, -0.05765754356980324]], [[1.5449471473693848, -1.8096592426300049, 0.26093870401382446], [0.9827679395675659, -0.15162791311740875, -0.08959253132343292, -0.0561186708509922]], [[1.5279245376586914, -1.8410488367080688, 0.24784629046916962], [0.9848212003707886, -0.1296180933713913, -0.1014600619673729, -0.05506591871380806]], [[1.5107982158660889, -1.8725812435150146, 0.23516499996185303], [0.9862051606178284, -0.10758272558450699, -0.11337944865226746, -0.054501697421073914]], [[1.4935791492462158, -1.9042558670043945, 0.2228945940732956], [0.9869199991226196, -0.085545115172863, -0.1253337264060974, -0.054427821189165115]], [[1.4762787818908691, -1.9360722303390503, 0.21103456616401672], [0.9869666695594788, -0.06352851539850235, -0.1373058706521988, -0.05484555661678314]], [[1.458907961845398, -1.9680296182632446, 0.19958417117595673], [0.986346960067749, -0.04155619069933891, -0.14927881956100464, -0.05575559288263321]], [[1.44147789478302, -2.000127077102661, 0.18854239583015442], [0.9850634336471558, -0.01965123414993286, -0.1612354964017868, -0.057158052921295166]], [[1.4239994287490845, -2.0323634147644043, 0.17790794372558594], [0.983119547367096, 0.0021633508149534464, -0.17315879464149475, -0.05905246362090111]], [[1.4064834117889404, -2.0647377967834473, 0.16767928004264832], [0.9805198311805725, 0.02386472001671791, -0.18503165245056152, -0.06143782660365105]], [[1.388940691947937, -2.0972487926483154, 0.1578545868396759], [0.9772692322731018, 0.045430220663547516, -0.19683703780174255, -0.06431253999471664]], [[1.3713817596435547, -2.129894971847534, 0.14843182265758514], [0.9733737707138062, 0.06683742254972458, -0.20855791866779327, -0.06767440587282181]], [[1.353817343711853, -2.16267466545105, 0.13940869271755219], [0.9688402414321899, 0.08806415647268295, -0.22017742693424225, -0.07152073085308075]], [[1.336257815361023, -2.1955864429473877, 0.1307826191186905], [0.9636762142181396, 0.1090884804725647, -0.23167869448661804, -0.07584817707538605]], [[1.3187133073806763, -2.228628158569336, 0.12255079299211502], [0.957889974117279, 0.1298888623714447, -0.24304501712322235, -0.08065290004014969]], [[1.3011943101882935, -2.261798143386841, 0.11471018940210342], [0.9514907002449036, 0.15044395625591278, -0.25425979495048523, -0.08593043684959412]]]}}, {"element": 1, "tag": "place_approach", "path": [[2.7949478771897085, 0.304064669831288, 0.5188329452687889, 0.39384878825613295, 0.25947368445185115, 1.1640497919511485, -3.315973029864376], [2.7949478771897085, 0.31925932580265803, 0.4765836682378701, 0.42117112987429783, 0.20551031414995394, 1.0870950702011732, -3.244674310049149], [2.7949478771897085, 0.3370129638283294, 0.43624194260981647, 0.4493883035035491, 0.14180546594673257, 1.012105126972586, -3.1631641780585844], [2.7949478771897085, 0.35724840481382825, 0.3984479434230897, 0.47807229888533787, 0.0661676316011579, 0.9404702221070133, -3.0691064522607716], [2.7949478771897085, 0.3799362088635164, 0.36377653337897, 0.506922137700058, -0.024004244596068754, 0.8739019966276396, -2.959658722089007], [2.7949478771897085, 0.4048646864908064, 0.33290770302707184, 0.5355289398133497, -0.13096604466866169, 0.8147599213753939, -2.832475729512964], [2.7949478771897085, 0.4318399389347108, 0.3064854875489749, 0.5635539246694202, -0.2563239506968918, 0.7658915778981323, -2.6857526160500504]], "attachments": [{"parent_name": "ECL_robot1_with_track", "parent_link_name": "eef_tcp_frame", "grasp_pose": [[6.139278411865234e-06, -0.16225242614746094, -2.384185791015625e-07], [-0.5000004768371582, -0.4999988079071045, -0.4999995231628418, 0.5000011920928955]], "child_name": "body299"}], "link_path": {"eef_tcp_frame": [[[1.3011943101882935, -2.261798143386841, 0.11471018940210342], [0.9514907002449036, 0.15044395625591278, -0.25425979495048523, -0.08593043684959412]], [[1.3105298280715942, -2.2655487060546875, 0.1263190656900406], [0.9655612111091614, 0.14014776051044464, -0.21178503334522247, -0.05654430761933327]], [[1.3186523914337158, -2.2687292098999023, 0.1380307674407959], [0.9767671823501587, 0.1294359266757965, -0.16865047812461853, -0.027004171162843704]], [[1.325646162033081, -2.2713112831115723, 0.14971810579299927], [0.9850664734840393, 0.11834877729415894, -0.12502352893352509, 0.0025919333565980196]], [[1.3314950466156006, -2.2732484340667725, 0.16124515235424042], [0.9904409646987915, 0.1068912148475647, -0.08101021498441696, 0.03222370147705078]], [[1.336279273033142, -2.2745521068573, 0.17247726023197174], [0.9928679466247559, 0.09511950612068176, -0.03676993399858475, 0.06175413355231285]], [[1.3400185108184814, -2.2752139568328857, 0.1832703799009323], [0.9923412799835205, 0.08305760473012924, 0.007585972081869841, 0.09111904352903366]]]}}, {"element": 1, "tag": "place_retreat", "path": [[2.7949478771897085, 0.4318600498519429, 0.3064856997471494, 0.5635664717101334, -0.2563802508570179, 0.7658789120077996, -2.685674806326879], [2.7949478771897085, 0.4331597510310153, 0.30026069668326794, 0.5617172397445203, -0.25439682997847063, 0.7738614993935876, -2.687167070210019], [2.7949478771897085, 0.4343687852994517, 0.29411783516197776, 0.5597034865710853, -0.25219600287621036, 0.7819547115008226, -2.6889768782821513], [2.7949478771897085, 0.43557042226160375, 0.2880456334446717, 0.5576092860244252, -0.25002794657384375, 0.7900623473682691, -2.690764561424524], [2.7949478771897085, 0.43677092832327236, 0.2820443829823491, 0.5554392313980224, -0.2479089391024509, 0.7981790966197043, -2.6925071083028], [2.7949478771897085, 0.4379707251875274, 0.2761145688178649, 0.5531938036465794, -0.24583890556981766, 0.8063038731692775, -2.6942041139276194], [2.7949478771897085, 0.43916983247314406, 0.27025666030520323, 0.5508732282778496, -0.24381670636667235, 0.8144358715245498, -2.6958566692363295], [2.7949478771897085, 0.4403682391099554, 0.26447110417405717, 0.5484777206485739, -0.24184114860396166, 0.8225743149000998, -2.6974659465930397]], "attachments": [], "link_path": {"eef_tcp_frame": [[[1.3400092124938965, -2.2752060890197754, 0.18326117098331451], [0.9923403263092041, 0.08305084705352783, 0.007598003372550011, 0.09113442897796631]], [[1.3396474123001099, -2.2733819484710693, 0.19303631782531738], [0.9923360347747803, 0.08301927894353867, 0.0076675815507769585, 0.09120374172925949]], [[1.3393418788909912, -2.271583318710327, 0.20286677777767181], [0.9923359155654907, 0.08301761746406555, 0.007670393213629723, 0.09120689332485199]], [[1.3390395641326904, -2.269787073135376, 0.21270036697387695], [0.9923360347747803, 0.08301820605993271, 0.007669124752283096, 0.09120509773492813]], [[1.3387374877929688, -2.267991065979004, 0.22253407537937164], [0.9923362135887146, 0.08301892876625061, 0.007667680270969868, 0.09120307117700577]], [[1.3384352922439575, -2.266195297241211, 0.23236772418022156], [0.9923363327980042, 0.08301961421966553, 0.007666312158107758, 0.09120111912488937]], [[1.3381330966949463, -2.264399290084839, 0.2422012984752655], [0.9923364520072937, 0.08302028477191925, 0.007665031589567661, 0.09119928628206253]], [[1.337830901145935, -2.262603282928467, 0.2520348131656647], [0.9923365712165833, 0.08302092552185059, 0.007663834374397993, 0.09119754284620285]]]}}, {"element": null, "tag": "transit", "path": [[2.7949478771897085, 0.4403682391099554, 0.26447110417405717, 0.5484777206485739, -0.24184114860396166, 0.8225743149000998, -2.6974659465930397], [2.7464244765440537, 0.4327229571809631, 0.2598795919488131, 0.538955537998425, -0.23764251755180954, 0.8082935108219731, -2.650634940575799], [2.736719796414923, 0.4311939007951647, 0.2589612895037643, 0.5370511014683952, -0.23680279134137913, 0.8054373500063478, -2.641268739372351], [2.727015116285792, 0.42966484440936625, 0.2580429870587155, 0.5351466649383654, -0.23596306513094872, 0.8025811891907224, -2.631902538168903], [2.717310436156661, 0.4281357880235678, 0.25712468461366667, 0.5332422284083357, -0.2351233389205183, 0.7997250283750971, -2.622536336965455], [2.70760575602753, 0.4266067316377693, 0.25620638216861785, 0.5313377918783059, -0.23428361271008785, 0.7968688675594717, -2.6131701357620067], [2.697901075898399, 0.4250776752519709, 0.25528807972356904, 0.5294333553482761, -0.23344388649965744, 0.7940127067438464, -2.6038039345585586], [2.688196395769268, 0.42354861886617245, 0.2543697772785202, 0.5275289188182464, -0.23260416028922704, 0.791156545928221, -2.594437733355111], [2.678491715640137, 0.422019562480374, 0.2534514748334714, 0.5256244822882166, -0.2317644340787966, 0.7883003851125957, -2.585071532151663], [2.668787035511006, 0.4204905060945755, 0.2525331723884226, 0.5237200457581868, -0.23092470786836616, 0.7854442242969704, -2.5757053309482147], [2.659082355381875, 0.4189614497087771, 0.2516148699433738, 0.521815609228157, -0.23008498165793576, 0.782588063481345, -2.5663391297447666], [2.6493776752527443, 0.41743239332297866, 0.250696567498325, 0.5199111726981271, -0.22924525544750535, 0.7797319026657197, -2.5569729285413185], [2.6396729951236133, 0.4159033369371802, 0.2497782650532762, 0.5180067361680974, -0.2284055292370749, 0.7768757418500943, -2.547606727337871], [2.6299683149944824, 0.4143742805513817, 0.24885996260822738, 0.5161022996380676, -0.22756580302664448, 0.774019581034469, -2.5382405261344227], [2.6202636348653514, 0.4128452241655833, 0.24794166016317856, 0.5141978631080378, -0.22672607681621407, 0.7711634202188437, -2.5288743249309746], [2.6105589547362205, 0.41131616777978486, 0.24702335771812978, 0.5122934265780081, -0.22588635060578366, 0.7683072594032183, -2.5195081237275265], [2.6008542746070895, 0.4097871113939864, 0.24610505527308096, 0.5103889900479783, -0.22504662439535322, 0.765451098587593, -2.5101419225240784], [2.5911495944779586, 0.4082580550081879, 0.24518675282803215, 0.5084845535179485, -0.2242068981849228, 0.7625949377719676, -2.5007757213206303], [2.5814449143488276, 0.4067289986223895, 0.24426845038298334, 0.5065801169879187, -0.22336717197449238, 0.7597387769563423, -2.491409520117182], [2.5717402342196967, 0.40519994223659106, 0.24335014793793452, 0.5046756804578889, -0.22252744576406197, 0.756882616140717, -2.4820433189137345], [2.5620355540905657, 0.4036708858507926, 0.24243184549288574, 0.5027712439278592, -0.22168771955363153, 0.7540264553250916, -2.4726771177102864], [2.5523308739614348, 0.4021418294649941, 0.24151354304783693, 0.5008668073978294, -0.2208479933432011, 0.7511702945094663, -2.4633109165068383], [2.542626193832304, 0.4006127730791956, 0.2405952406027881, 0.49896237086779965, -0.2200082671327707, 0.7483141336938409, -2.45394471530339], [2.532921513703173, 0.39908371669339715, 0.23967693815773933, 0.4970579343377699, -0.21916854092234028, 0.7454579728782156, -2.444578514099942], [2.523216833574042, 0.39755466030759873, 0.23875863571269051, 0.49515349780774015, -0.21832881471190985, 0.7426018120625902, -2.4352123128964944], [2.513512153444911, 0.39602560392180025, 0.2378403332676417, 0.4932490612777104, -0.2174890885014794, 0.7397456512469649, -2.4258461116930463], [2.50380747331578, 0.3944965475360018, 0.2369220308225929, 0.49134462474768065, -0.216649362291049, 0.7368894904313396, -2.416479910489598], [2.494102793186649, 0.39296749115020335, 0.23600372837754408, 0.4894401882176509, -0.2158096360806186, 0.7340333296157142, -2.40711370928615], [2.484398113057518, 0.3914384347644049, 0.23508542593249526, 0.4875357516876211, -0.21496990987018816, 0.7311771688000889, -2.397747508082702], [2.474693432928387, 0.3899093783786064, 0.23416712348744645, 0.48563131515759134, -0.21413018365975772, 0.7283210079844635, -2.388381306879254], [2.464988752799256, 0.388380321992808, 0.23324882104239764, 0.4837268786275616, -0.21329045744932731, 0.7254648471688382, -2.3790151056758058], [2.4552840726701253, 0.38685126560700955, 0.23233051859734882, 0.4818224420975318, -0.2124507312388969, 0.7226086863532128, -2.3696489044723577], [2.4455793925409943, 0.3853222092212111, 0.2314122161523, 0.479918005567502, -0.21161100502846647, 0.7197525255375875, -2.3602827032689095], [2.4358747124118634, 0.3837931528354126, 0.2304939137072512, 0.4780135690374723, -0.21077127881803603, 0.7168963647219622, -2.3509165020654614], [2.4261700322827324, 0.3822640964496142, 0.22957561126220238, 0.4761091325074425, -0.20993155260760563, 0.7140402039063368, -2.3415503008620133], [2.4164653521536015, 0.38073504006381576, 0.22865730881715357, 0.47420469597741277, -0.20909182639717522, 0.7111840430907115, -2.3321840996585657], [2.4067606720244705, 0.3792059836780173, 0.22773900637210479, 0.47230025944738296, -0.20825210018674478, 0.7083278822750861, -2.3228178984551175], [2.3970559918953396, 0.3776769272922188, 0.22682070392705597, 0.4703958229173532, -0.20741237397631435, 0.7054717214594608, -2.3134516972516694], [2.3873513117662086, 0.3761478709064203, 0.22590240148200716, 0.46849138638732346, -0.20657264776588394, 0.7026155606438355, -2.3040854960482213], [2.3776466316370777, 0.37461881452062185, 0.22498409903695837, 0.46658694985729365, -0.20573292155545353, 0.6997593998282101, -2.294719294844773], [2.3679419515079467, 0.3730897581348234, 0.22406579659190956, 0.4646825133272639, -0.2048931953450231, 0.6969032390125848, -2.2853530936413256], [2.358237271378816, 0.37156070174902495, 0.22314749414686075, 0.46277807679723415, -0.20405346913459266, 0.6940470781969594, -2.2759868924378774], [2.348532591249685, 0.37003164536322647, 0.22222919170181193, 0.4608736402672044, -0.20321374292416225, 0.6911909173813341, -2.2666206912344293], [2.338827911120554, 0.36850258897742805, 0.22131088925676312, 0.45896920373717465, -0.20237401671373184, 0.6883347565657087, -2.257254490030981], [2.329123230991423, 0.36697353259162957, 0.2203925868117143, 0.45706476720714484, -0.2015342905033014, 0.6854785957500834, -2.247888288827533], [2.319418550862292, 0.3654444762058311, 0.2194742843666655, 0.4551603306771151, -0.20069456429287097, 0.6826224349344581, -2.238522087624085], [2.309713870733161, 0.36391541982003267, 0.21855598192161668, 0.45325589414708534, -0.19985483808244056, 0.6797662741188327, -2.229155886420637], [2.30000919060403, 0.36238636343423425, 0.21763767947656787, 0.45135145761705553, -0.19901511187201015, 0.6769101133032074, -2.219789685217189], [2.290304510474899, 0.36085730704843577, 0.21671937703151906, 0.4494470210870258, -0.19817538566157972, 0.674053952487582, -2.2104234840137407], [2.280599830345768, 0.3593282506626373, 0.21580107458647024, 0.447542584556996, -0.19733565945114928, 0.6711977916719567, -2.2010572828102926], [2.2708951502166372, 0.3577991942768388, 0.21488277214142143, 0.4456381480269663, -0.19649593324071887, 0.6683416308563314, -2.1916910816068444], [2.2611904700875063, 0.35627013789104034, 0.21396446969637262, 0.4437337114969365, -0.19565620703028846, 0.665485470040706, -2.182324880403397], [2.2514857899583753, 0.3547410815052419, 0.21304616725132383, 0.4418292749669067, -0.19481648081985803, 0.6626293092250807, -2.1729586791999487], [2.2417811098292444, 0.35321202511944344, 0.21212786480627502, 0.43992483843687696, -0.1939767546094276, 0.6597731484094553, -2.1635924779965006], [2.2320764297001134, 0.35168296873364496, 0.2112095623612262, 0.4380204019068472, -0.19313702839899718, 0.65691698759383, -2.1542262767930525], [2.2223717495709825, 0.35015391234784654, 0.21029125991617742, 0.4361159653768174, -0.19229730218856678, 0.6540608267782047, -2.1448600755896043], [2.2126670694418515, 0.34862485596204806, 0.2093729574711286, 0.43421152884678765, -0.19145757597813634, 0.6512046659625793, -2.1354938743861567], [2.2029623893127206, 0.3470957995762496, 0.2084546550260798, 0.4323070923167579, -0.1906178497677059, 0.648348505146954, -2.1261276731827086], [2.1932577091835896, 0.34556674319045116, 0.20753635258103098, 0.43040265578672815, -0.1897781235572755, 0.6454923443313286, -2.1167614719792605], [2.1835530290544587, 0.34403768680465274, 0.20661805013598217, 0.4284982192566984, -0.1889383973468451, 0.6426361835157033, -2.1073952707758123], [2.1738483489253277, 0.34250863041885427, 0.20569974769093335, 0.4265937827266686, -0.18809867113641465, 0.6397800227000779, -2.0980290695723642], [2.135029628408804, 0.33639240487566047, 0.2020265379107381, 0.41897603660654953, -0.18473976629469296, 0.6283553794375766, -2.060564264758572], [2.09621090789228, 0.33027617933246667, 0.19835332813054288, 0.41135829048643047, -0.18138086145297128, 0.6169307361750752, -2.02309945994478], [2.0573921873757564, 0.3241599537892728, 0.19468011835034765, 0.4037405443663114, -0.1780219566112496, 0.6055060929125738, -1.9856346551309876], [2.0185734668592326, 0.31804372824607896, 0.1910069085701524, 0.39612279824619234, -0.1746630517695279, 0.5940814496500725, -1.9481698503171954], [1.9797547463427088, 0.31192750270288516, 0.18733369878995715, 0.3885050521260733, -0.1713041469278062, 0.5826568063875711, -1.9107050455034031], [1.940936025826185, 0.3058112771596913, 0.18366048900976192, 0.3808873060059542, -0.16794524208608452, 0.5712321631250697, -1.873240240689611], [1.9021173053096612, 0.29969505161649745, 0.1799872792295667, 0.37326955988583516, -0.16458633724436283, 0.5598075198625684, -1.8357754358758187], [1.8632985847931374, 0.29357882607330366, 0.17631406944937145, 0.3656518137657161, -0.16122743240264115, 0.548382876600067, -1.7983106310620265], [1.8244798642766136, 0.28746260053010986, 0.1726408596691762, 0.35803406764559703, -0.15786852756091946, 0.5369582333375656, -1.7608458262482343], [1.7856611437600898, 0.281346374986916, 0.16896764988898097, 0.35041632152547797, -0.15450962271919777, 0.5255335900750643, -1.723381021434442], [1.746842423243566, 0.27523014944372215, 0.16529444010878575, 0.3427985754053589, -0.15115071787747608, 0.5141089468125629, -1.6859162166206498], [1.7080237027270422, 0.26911392390052835, 0.1616212303285905, 0.33518082928523985, -0.1477918130357544, 0.5026843035500616, -1.6484514118068576], [1.6692049822105184, 0.26299769835733455, 0.15794802054839524, 0.3275630831651208, -0.1444329081940327, 0.49125966028756013, -1.6109866069930654], [1.6303862616939946, 0.2568814728141407, 0.15427481076820002, 0.3199453370450017, -0.14107400335231102, 0.4798350170250587, -1.5735218021792732], [1.591567541177471, 0.25076524727094684, 0.1506016009880048, 0.31232759092488266, -0.13771509851058933, 0.4684103737625573, -1.536056997365481], [1.5527488206609474, 0.24464902172775302, 0.14692839120780954, 0.3047098448047636, -0.13435619366886764, 0.45698573050005586, -1.4985921925516887], [1.5139301001444236, 0.2385327961845592, 0.1432551814276143, 0.2970920986846445, -0.13099728882714595, 0.44556108723755444, -1.4611273877378965], [1.4751113796279, 0.23241657064136537, 0.13958197164741906, 0.2894743525645254, -0.12763838398542426, 0.434136443975053, -1.4236625829241043], [1.4362926591113765, 0.22630034509817154, 0.13590876186722384, 0.28185660644440635, -0.12427947914370258, 0.42271180071255166, -1.386197778110312], [1.3974739385948527, 0.22018411955497771, 0.13223555208702858, 0.27423886032428724, -0.12092057430198089, 0.41128715745005023, -1.3487329732965199], [1.358655218078329, 0.2140678940117839, 0.12856234230683333, 0.2666211142041681, -0.1175616694602592, 0.3998625141875488, -1.3112681684827276], [1.3198364975618053, 0.20795166846859006, 0.1248891325266381, 0.25900336808404906, -0.11420276461853751, 0.38843787092504745, -1.2738033636689354], [1.2810177770452817, 0.20183544292539624, 0.12121592274644286, 0.25138562196393, -0.11084385977681582, 0.377013227662546, -1.2363385588551432], [1.242199056528758, 0.1957192173822024, 0.11754271296624762, 0.2437678758438109, -0.10748495493509413, 0.3655885844000446, -1.198873754041351], [1.2033803360122342, 0.18960299183900858, 0.11386950318605238, 0.23615012972369182, -0.10412605009337245, 0.35416394113754324, -1.1614089492275588], [1.1645616154957106, 0.18348676629581476, 0.11019629340585714, 0.22853238360357273, -0.10076714525165076, 0.34273929787504187, -1.1239441444137666], [1.125742894979187, 0.17737054075262093, 0.1065230836256619, 0.22091463748345364, -0.09740824040992907, 0.33131465461254045, -1.0864793395999743], [1.0869241744626632, 0.1712543152094271, 0.10284987384546666, 0.21329689136333455, -0.09404933556820738, 0.319890011350039, -1.0490145347861821], [1.0481054539461394, 0.16513808966623328, 0.09917666406527142, 0.20567914524321546, -0.0906904307264857, 0.30846536808753766, -1.01154972997239], [1.0092867334296158, 0.15902186412303945, 0.09550345428507619, 0.19806139912309637, -0.087331525884764, 0.2970407248250363, -0.9740849251585977], [0.9704680129130921, 0.15290563857984563, 0.09183024450488095, 0.19044365300297728, -0.08397262104304232, 0.2856160815625349, -0.9366201203448055], [0.9316492923965685, 0.1467894130366518, 0.08815703472468571, 0.18282590688285819, -0.08061371620132063, 0.27419143830003345, -0.8991553155310132], [0.8928305718800448, 0.14067318749345797, 0.08448382494449047, 0.1752081607627391, -0.07725481135959894, 0.2627667950375321, -0.861690510717221], [0.8540118513635211, 0.13455696195026415, 0.08081061516429523, 0.16759041464262, -0.07389590651787725, 0.25134215177503066, -0.8242257059034288], [0.8151931308469974, 0.12844073640707032, 0.0771374053841, 0.15997266852250092, -0.07053700167615556, 0.23991750851252927, -0.7867609010896366], [0.7763744103304737, 0.1223245108638765, 0.07346419560390476, 0.15235492240238183, -0.06717809683443388, 0.22849286525002788, -0.7492960962758444], [0.73755568981395, 0.11620828532068267, 0.06979098582370952, 0.14473717628226274, -0.06381919199271219, 0.21706822198752648, -0.7118312914620522], [0.6987369692974263, 0.11009205977748884, 0.06611777604351428, 0.13711943016214365, -0.06046028715099049, 0.2056435787250251, -0.6743664866482599], [0.6599182487809027, 0.10397583423429502, 0.06244456626331904, 0.12950168404202456, -0.0571013823092688, 0.1942189354625237, -0.6369016818344677], [0.621099528264379, 0.09785960869110119, 0.0587713564831238, 0.12188393792190547, -0.0537424774675471, 0.1827942922000223, -0.5994368770206755], [0.5822808077478553, 0.09174338314790736, 0.05509814670292856, 0.11426619180178638, -0.05038357262582541, 0.1713696489375209, -0.5619720722068833], [0.5434620872313316, 0.08562715760471354, 0.051424936922733325, 0.10664844568166729, -0.04702466778410371, 0.1599450056750195, -0.5245072673930911], [0.5046433667148079, 0.07951093206151971, 0.047751727142538086, 0.0990306995615482, -0.043665762942382016, 0.14852036241251812, -0.48704246257929884], [0.46582464619828423, 0.07339470651832589, 0.04407851736234285, 0.0914129534414291, -0.04030685810066032, 0.13709571915001673, -0.4495776577655066], [0.42700592568176055, 0.06727848097513206, 0.04040530758214761, 0.08379520732131002, -0.036947953258938626, 0.12567107588751533, -0.4121128529517144], [0.38818720516523686, 0.061162255431938234, 0.03673209780195237, 0.07617746120119093, -0.03358904841721693, 0.11424643262501394, -0.3746480481379222], [0.3493684846487132, 0.05504602988874441, 0.03305888802175713, 0.06855971508107184, -0.030230143575495236, 0.10282178936251254, -0.33718324332412997], [0.3105497641321895, 0.04892980434555058, 0.029385678241561894, 0.06094196896095275, -0.026871238733773544, 0.09139714610001115, -0.29971843851033775], [0.2717310436156658, 0.042813578802356755, 0.025712468461366655, 0.05332422284083366, -0.023512333892051852, 0.07997250283750976, -0.26225363369654553], [0.23291232309914212, 0.036697353259162936, 0.02203925868117142, 0.04570647672071457, -0.02015342905033016, 0.06854785957500836, -0.2247888288827533], [0.19409360258261843, 0.030581127715969113, 0.018366048900976185, 0.03808873060059547, -0.01679452420860847, 0.05712321631250697, -0.1873240240689611], [0.15527488206609474, 0.02446490217277529, 0.014692839120780949, 0.030470984480476377, -0.013435619366886776, 0.045698573050005575, -0.14985921925516887], [0.11645616154957106, 0.018348676629581468, 0.011019629340585712, 0.022853238360357284, -0.010076714525165082, 0.03427392978750418, -0.11239441444137666], [0.07763744103304737, 0.012232451086387645, 0.007346419560390475, 0.01523549224023819, -0.006717809683443389, 0.022849286525002788, -0.07492960962758444], [0.038818720516523686, 0.006116225543193823, 0.0036732097801952376, 0.007617746120119095, -0.0033589048417216943, 0.011424643262501394, -0.03746480481379222], [0.0, 0.0, 0.0, 0.0, 0.0, 0.0, 0.0]], "attachments": [], "link_path": {"eef_tcp_frame": [[[1.337830901145935, -2.262603282928467, 0.2520348131656647], [0.9923365712165833, 0.08302092552185059, 0.007663834374397993, 0.09119754284620285]], [[1.3591142892837524, -2.2134063243865967, 0.26657208800315857], [0.9947935342788696, 0.05448734760284424, 0.02139495685696602, 0.083421990275383]], [[1.3633639812469482, -2.203613042831421, 0.26954442262649536], [0.995162308216095, 0.048772118985652924, 0.024106116965413094, 0.08180593699216843]], [[1.367611050605774, -2.193835496902466, 0.27253836393356323], [0.9954901337623596, 0.04305480793118477, 0.026805266737937927, 0.08016975969076157]], [[1.37185537815094, -2.1840734481811523, 0.2755538821220398], [0.9957770109176636, 0.03733571618795395, 0.02949226088821888, 0.07851352542638779]], [[1.3760968446731567, -2.1743268966674805, 0.27859097719192505], [0.9960229992866516, 0.03161519020795822, 0.0321669764816761, 0.07683732360601425]], [[1.3803352117538452, -2.16459584236145, 0.2816496193408966], [0.9962279796600342, 0.025893526151776314, 0.03482925519347191, 0.07514122873544693]], [[1.3845703601837158, -2.1548805236816406, 0.2847297787666321], [0.9963920712471008, 0.020171059295535088, 0.0374789759516716, 0.07342532277107239]], [[1.3888022899627686, -2.1451809406280518, 0.28783145546913147], [0.9965152144432068, 0.01444811001420021, 0.04011599346995354, 0.07168969511985779]], [[1.3930306434631348, -2.1354970932006836, 0.2909546494483948], [0.996597409248352, 0.008724995888769627, 0.04274017736315727, 0.0699344202876091]], [[1.397255301475525, -2.125828981399536, 0.29409927129745483], [0.9966385960578918, 0.0030020384583622217, 0.04535140097141266, 0.06815958768129349]], [[1.4014763832092285, -2.1161766052246094, 0.2972653806209564], [0.9966388940811157, -0.002720440737903118, 0.04794950783252716, 0.06636527925729752]], [[1.4056934118270874, -2.1065399646759033, 0.30045291781425476], [0.9965983033180237, -0.008442121557891369, 0.050534386187791824, 0.06455159187316895]], [[1.4099065065383911, -2.096919298171997, 0.30366188287734985], [0.9965167045593262, -0.014162681996822357, 0.05310588330030441, 0.06271860748529434]], [[1.414115309715271, -2.0873146057128906, 0.3068922162055969], [0.9963942766189575, -0.019881805405020714, 0.05566387623548508, 0.060866404324769974]], [[1.418319821357727, -2.077725648880005, 0.31014394760131836], [0.996230959892273, -0.025599170476198196, 0.058208245784044266, 0.05899509787559509]], [[1.4225199222564697, -2.068152666091919, 0.313416987657547], [0.9960267543792725, -0.03131444379687309, 0.06073882058262825, 0.05710473656654358]], [[1.42671537399292, -2.058595657348633, 0.3167113661766052], [0.995781660079956, -0.037027329206466675, 0.06325551867485046, 0.05519545078277588]], [[1.430906057357788, -2.0490543842315674, 0.32002705335617065], [0.9954958558082581, -0.04273748770356178, 0.06575817614793777, 0.05326731875538826]], [[1.4350918531417847, -2.039529323577881, 0.3233640193939209], [0.9951691627502441, -0.048444606363773346, 0.06824667006731033, 0.051320429891347885]], [[1.4392725229263306, -2.0300204753875732, 0.32672223448753357], [0.9948018193244934, -0.05414837598800659, 0.07072088122367859, 0.04935488477349281]], [[1.4434480667114258, -2.0205273628234863, 0.3301016688346863], [0.9943937063217163, -0.05984846130013466, 0.0731806829571724, 0.047370776534080505]], [[1.4476183652877808, -2.0110507011413574, 0.33350229263305664], [0.9939448833465576, -0.06554454565048218, 0.07562591880559921, 0.04536819830536842]], [[1.4517830610275269, -2.001589775085449, 0.33692407608032227], [0.9934554100036621, -0.07123631983995438, 0.07805649191141129, 0.04334724694490433]], [[1.455942153930664, -1.992145299911499, 0.34036701917648315], [0.9929252862930298, -0.07692345976829529, 0.08047225326299667, 0.04130801558494568]], [[1.4600955247879028, -1.9827167987823486, 0.3438310921192169], [0.9923546314239502, -0.08260565251111984, 0.08287309855222702, 0.039250608533620834]], [[1.464242935180664, -1.9733045101165771, 0.3473162353038788], [0.9917435050010681, -0.08828257769346237, 0.08525888621807098, 0.03717513009905815]], [[1.4683843851089478, -1.9639084339141846, 0.35082241892814636], [0.9910918474197388, -0.0939539223909378, 0.08762949705123901, 0.03508166968822479]], [[1.4725195169448853, -1.954528570175171, 0.35434964299201965], [0.9903997778892517, -0.09961934387683868, 0.08998480439186096, 0.032970331609249115]], [[1.4766484498977661, -1.9451649188995361, 0.3578978478908539], [0.9896673560142517, -0.10527857393026352, 0.09232468158006668, 0.030841220170259476]], [[1.4807708263397217, -1.9358174800872803, 0.36146703362464905], [0.9888945817947388, -0.11093126237392426, 0.09464901685714722, 0.028694434091448784]], [[1.4848865270614624, -1.9264863729476929, 0.36505717039108276], [0.9880815744400024, -0.11657709628343582, 0.09695769101381302, 0.026530079543590546]], [[1.4889954328536987, -1.9171714782714844, 0.36866816878318787], [0.9872283339500427, -0.12221578508615494, 0.09925056248903275, 0.024348262697458267]], [[1.4930974245071411, -1.9078730344772339, 0.37230005860328674], [0.9863349795341492, -0.12784700095653534, 0.10152752697467804, 0.022149085998535156]], [[1.4971923828125, -1.8985908031463623, 0.3759527802467346], [0.9854016304016113, -0.13347038626670837, 0.10378845781087875, 0.01993265375494957]], [[1.5012801885604858, -1.8893249034881592, 0.3796263039112091], [0.9844282269477844, -0.13908569514751434, 0.10603323578834534, 0.017699075862765312]], [[1.50536048412323, -1.8800753355026245, 0.38332056999206543], [0.983414888381958, -0.14469259977340698, 0.10826172679662704, 0.015448453836143017]], [[1.509433388710022, -1.8708420991897583, 0.3870355784893036], [0.9823616743087769, -0.15029077231884003, 0.11047384142875671, 0.013180907815694809]], [[1.5134986639022827, -1.86162531375885, 0.3907712996006012], [0.9812687635421753, -0.1558798998594284, 0.1126694530248642, 0.010896537452936172]], [[1.517556071281433, -1.8524248600006104, 0.3945276737213135], [0.9801360964775085, -0.16145968437194824, 0.11484843492507935, 0.008595455437898636]], [[1.5216054916381836, -1.843240737915039, 0.39830464124679565], [0.9789638519287109, -0.16702981293201447, 0.1170106753706932, 0.00627777399495244]], [[1.5256469249725342, -1.8340731859207153, 0.40210220217704773], [0.9777520298957825, -0.172589972615242, 0.11915605515241623, 0.003943602554500103]], [[1.5296800136566162, -1.8249218463897705, 0.4059202969074249], [0.9765007495880127, -0.1781398504972458, 0.12128448486328125, 0.0015930554363876581]], [[1.5337047576904297, -1.8157870769500732, 0.40975892543792725], [0.9752101898193359, -0.18367914855480194, 0.12339581549167633, -0.0007737555424682796]], [[1.537721037864685, -1.8066686391830444, 0.4136179983615875], [0.9738802909851074, -0.18920758366584778, 0.1254899650812149, -0.00315671693533659]], [[1.5417286157608032, -1.7975666522979736, 0.4174974858760834], [0.9725112915039062, -0.19472479820251465, 0.12756681442260742, -0.005555710755288601]], [[1.5457273721694946, -1.7884811162948608, 0.4213973879814148], [0.9711031317710876, -0.20023052394390106, 0.12962621450424194, -0.007970624603331089]], [[1.5497170686721802, -1.7794119119644165, 0.4253176152706146], [0.9696560502052307, -0.20572443306446075, 0.1316681057214737, -0.010401340201497078]], [[1.5536977052688599, -1.7703592777252197, 0.4292581379413605], [0.9681700468063354, -0.21120621263980865, 0.13369233906269073, -0.012847739271819592]], [[1.5576691627502441, -1.7613229751586914, 0.43321892619132996], [0.9666453003883362, -0.21667562425136566, 0.1356988400220871, -0.015309708192944527]], [[1.5616310834884644, -1.7523032426834106, 0.4371999204158783], [0.9650818705558777, -0.22213232517242432, 0.13768750429153442, -0.01778712496161461]], [[1.56558358669281, -1.7432998418807983, 0.4412010908126831], [0.9634798765182495, -0.22757595777511597, 0.1396581530570984, -0.02027987129986286]], [[1.5695263147354126, -1.7343130111694336, 0.445222407579422], [0.961839497089386, -0.2330063432455063, 0.1416107714176178, -0.022787827998399734]], [[1.5734591484069824, -1.7253425121307373, 0.4492637813091278], [0.9601607322692871, -0.23842307925224304, 0.14354519546031952, -0.025310872122645378]], [[1.5773820877075195, -1.7163885831832886, 0.45332521200180054], [0.9584437608718872, -0.24382592737674713, 0.14546136558055878, -0.02784888632595539]], [[1.5812948942184448, -1.7074509859085083, 0.457406610250473], [0.956688642501831, -0.2492145150899887, 0.14735910296440125, -0.03040173463523388]], [[1.5851973295211792, -1.698529839515686, 0.46150797605514526], [0.954895555973053, -0.25458863377571106, 0.14923836290836334, -0.032969314604997635]], [[1.5890893936157227, -1.6896251440048218, 0.4656292200088501], [0.9530646800994873, -0.2599479854106903, 0.1510990709066391, -0.035551492124795914]], [[1.592970848083496, -1.6807368993759155, 0.4697703421115875], [0.951196014881134, -0.2652921974658966, 0.1529410481452942, -0.03814813494682312]], [[1.5968416929244995, -1.6718651056289673, 0.4739312529563904], [0.9492897391319275, -0.27062103152275085, 0.15476422011852264, -0.04075912758708]], [[1.6007015705108643, -1.663009762763977, 0.4781118929386139], [0.9473459720611572, -0.27593421936035156, 0.1565685123205185, -0.04338435083627701]], [[1.6160295009613037, -1.6277523040771484, 0.49503105878829956], [0.9391989707946777, -0.29702427983283997, 0.16359473764896393, -0.054024890065193176]], [[1.6311720609664917, -1.5927568674087524, 0.512262225151062], [0.9304633140563965, -0.31784048676490784, 0.1703108251094818, -0.06488274037837982]], [[1.6461197137832642, -1.5580227375030518, 0.5298019051551819], [0.9211483597755432, -0.3383645713329315, 0.17671076953411102, -0.07594948261976242]], [[1.6608633995056152, -1.5235490798950195, 0.5476466417312622], [0.9112643599510193, -0.3585788905620575, 0.18278880417346954, -0.08721665292978287]], [[1.67539381980896, -1.4893345832824707, 0.5657927393913269], [0.9008216261863708, -0.3784658908843994, 0.18853937089443207, -0.098675437271595]], [[1.6897016763687134, -1.4553778171539307, 0.5842362642288208], [0.8898314833641052, -0.3980084955692291, 0.1939571499824524, -0.11031703650951385]], [[1.7037781476974487, -1.4216772317886353, 0.6029733419418335], [0.8783053755760193, -0.4171900451183319, 0.1990370750427246, -0.12213245034217834]], [[1.7176138162612915, -1.3882309198379517, 0.6219998002052307], [0.8662557601928711, -0.43599405884742737, 0.20377430319786072, -0.13411252200603485]], [[1.7311999797821045, -1.3550370931625366, 0.6413114070892334], [0.8536952137947083, -0.4544048607349396, 0.2081642746925354, -0.1462479829788208]], [[1.7445276975631714, -1.3220934867858887, 0.6609036922454834], [0.8406369090080261, -0.4724067449569702, 0.21220257878303528, -0.1585294008255005]], [[1.7575879096984863, -1.2893974781036377, 0.6807721853256226], [0.8270946741104126, -0.48998481035232544, 0.215885192155838, -0.17094728350639343]], [[1.7703720331192017, -1.2569466829299927, 0.7009122371673584], [0.8130826354026794, -0.5071243643760681, 0.2192082554101944, -0.18349198997020721]], [[1.7828713655471802, -1.2247382402420044, 0.7213190197944641], [0.7986154556274414, -0.5238114595413208, 0.2221681922674179, -0.1961537003517151]], [[1.7950773239135742, -1.192768931388855, 0.7419875860214233], [0.7837080955505371, -0.5400323867797852, 0.2247617244720459, -0.20892272889614105]], [[1.8069814443588257, -1.1610357761383057, 0.7629128694534302], [0.7683762907981873, -0.5557742714881897, 0.22698582708835602, -0.22178903222084045]], [[1.818575382232666, -1.12953519821167, 0.7840897440910339], [0.7526357769966125, -0.5710242390632629, 0.22883765399456024, -0.23474256694316864]], [[1.8298509120941162, -1.0982636213302612, 0.8055129051208496], [0.736503005027771, -0.585770308971405, 0.23031476140022278, -0.24777330458164215]], [[1.8407998085021973, -1.0672173500061035, 0.8271768093109131], [0.7199944853782654, -0.6000012159347534, 0.23141486942768097, -0.2608710825443268]], [[1.8514142036437988, -1.0363922119140625, 0.8490760326385498], [0.703127384185791, -0.6137056946754456, 0.23213604092597961, -0.2740256190299988]], [[1.8616862297058105, -1.0057841539382935, 0.8712048530578613], [0.6859190464019775, -0.6268736124038696, 0.23247669637203217, -0.28722670674324036]], [[1.871608018875122, -0.975388765335083, 0.8935574889183044], [0.668387234210968, -0.6394950151443481, 0.23243527114391327, -0.30046388506889343]], [[1.8811720609664917, -0.9452015161514282, 0.9161280393600464], [-0.6505497694015503, 0.65156090259552, -0.23201069235801697, 0.31372690200805664]], [[1.8903710842132568, -0.9152176380157471, 0.9389104843139648], [-0.6324249505996704, 0.6630624532699585, -0.2312021255493164, 0.3270052969455719]], [[1.8991976976394653, -0.8854323029518127, 0.9618987441062927], [-0.6140314340591431, 0.6739916801452637, -0.230009064078331, 0.3402886688709259]], [[1.9076447486877441, -0.8558403253555298, 0.9850866198539734], [-0.5953879356384277, 0.6843413710594177, -0.22843113541603088, 0.35356655716896057]], [[1.9157053232192993, -0.8264365196228027, 1.008467674255371], [-0.576513409614563, 0.6941046118736267, -0.22646841406822205, 0.3668285310268402]], [[1.9233726263046265, -0.797215461730957, 1.0320355892181396], [-0.5574269890785217, 0.7032753825187683, -0.2241211235523224, 0.38006407022476196]], [[1.9306402206420898, -0.7681716084480286, 1.0557838678359985], [-0.538148045539856, 0.7118480205535889, -0.22138987481594086, 0.39326274394989014]], [[1.9375015497207642, -0.7392991781234741, 1.0797057151794434], [-0.5186961889266968, 0.7198178172111511, -0.21827544271945953, 0.40641412138938904]], [[1.9439504146575928, -0.7105922698974609, 1.1037946939468384], [-0.49909093976020813, 0.7271804809570312, -0.2147790491580963, 0.4195077419281006]], [[1.9499807357788086, -0.6820449233055115, 1.1280437707901], [-0.4793521463871002, 0.733932375907898, -0.21090207993984222, 0.4325333833694458]], [[1.9555867910385132, -0.6536508798599243, 1.1524461507797241], [-0.4594995081424713, 0.7400707602500916, -0.20664620399475098, 0.4454804062843323]], [[1.960762858390808, -0.6254038214683533, 1.1769949197769165], [-0.4395531713962555, 0.7455931305885315, -0.20201343297958374, 0.45833882689476013]], [[1.9655036926269531, -0.5972973108291626, 1.2016830444335938], [-0.4195328950881958, 0.7504981160163879, -0.197005957365036, 0.4710980951786041]], [[1.969803810119629, -0.5693247318267822, 1.2265032529830933], [-0.39945873618125916, 0.7547845840454102, -0.19162635505199432, 0.483748197555542]], [[1.9736583232879639, -0.5414793491363525, 1.2514485120773315], [-0.3793507516384125, 0.758452296257019, -0.18587742745876312, 0.49627891182899475]], [[1.977062463760376, -0.5137543082237244, 1.2765114307403564], [-0.35922881960868835, 0.7615016102790833, -0.17976222932338715, 0.5086801648139954]], [[1.9800115823745728, -0.486142635345459, 1.301684856414795], [-0.33911290764808655, 0.7639334797859192, -0.17328417301177979, 0.5209420919418335]], [[1.98250150680542, -0.4586372971534729, 1.3269611597061157], [-0.3190229833126068, 0.7657498121261597, -0.16644681990146637, 0.5330545902252197]], [[1.9845279455184937, -0.4312310516834259, 1.3523330688476562], [-0.2989787459373474, 0.7669525742530823, -0.1592540591955185, 0.54500812292099]], [[1.9860870838165283, -0.403916597366333, 1.3777930736541748], [-0.27899983525276184, 0.7675447463989258, -0.15171006321907043, 0.5567928552627563]], [[1.9871753454208374, -0.37668657302856445, 1.4033334255218506], [-0.25910595059394836, 0.767530083656311, -0.14381925761699677, 0.5683992505073547]], [[1.9877891540527344, -0.34953346848487854, 1.4289467334747314], [-0.2393164336681366, 0.7669128179550171, -0.13558629155158997, 0.5798178315162659]], [[1.9879255294799805, -0.3224497139453888, 1.454625129699707], [-0.21965062618255615, 0.7656978368759155, -0.1270161271095276, 0.59103924036026]], [[1.9875813722610474, -0.2954276204109192, 1.4803611040115356], [-0.200127512216568, 0.7638905048370361, -0.1181139200925827, 0.6020542979240417]], [[1.9867541790008545, -0.2684594988822937, 1.506146788597107], [-0.18076597154140472, 0.7614970803260803, -0.10888516157865524, 0.6128538846969604]], [[1.9854413270950317, -0.24153752624988556, 1.5319744348526], [-0.16158470511436462, 0.7585242390632629, -0.0993354544043541, 0.6234291195869446]], [[1.9836407899856567, -0.21465380489826202, 1.5578361749649048], [-0.14260199666023254, 0.754979133605957, -0.0894707515835762, 0.6337713599205017]], [[1.9813506603240967, -0.18780043721199036, 1.5837242603302002], [-0.12383607774972916, 0.7508701086044312, -0.07929723709821701, 0.6438717246055603]], [[1.9785690307617188, -0.16096940636634827, 1.6096307039260864], [-0.10530465096235275, 0.7462050914764404, -0.06882122159004211, 0.6537220478057861]], [[1.9752947092056274, -0.13415269553661346, 1.6355477571487427], [-0.08702535182237625, 0.7409935593605042, -0.058049410581588745, 0.6633139252662659]], [[1.9715265035629272, -0.10734222084283829, 1.6614673137664795], [-0.06901535391807556, 0.7352451682090759, -0.04698862507939339, 0.6726391911506653]], [[1.9672634601593018, -0.08052986860275269, 1.6873817443847656], [-0.05129150673747063, 0.7289700508117676, -0.035645898431539536, 0.6816900372505188]], [[1.9625048637390137, -0.05370749905705452, 1.713282823562622], [-0.03387032076716423, 0.7221787571907043, -0.024028534069657326, 0.6904587149620056]], [[1.9572504758834839, -0.026866938918828964, 1.7391626834869385], [-0.01676790788769722, 0.7148828506469727, -0.012144003994762897, 0.698937714099884]], [[1.9515000581741333, 0.0, 1.7650134563446045], [0.0, 0.7070939540863037, 0.0, 0.7071195840835571]]]}}], [{"element": 0, "tag": "transfer", "path": [[0.0, 0.0, 0.0, 0.0, 0.0, 0.0, 0.0], [0.0923584880421951, 0.015809931045975476, 0.022723630605016497, 0.005376232056196731, -0.004530829458160907, 0.044426952497211826, 0.0027313252066282472], [0.13853773206329265, 0.023714896568963216, 0.03408544590752475, 0.008064348084295098, -0.006796244187241361, 0.06664042874581774, 0.004096987809942371], [0.1847169760843902, 0.03161986209195095, 0.045447261210032994, 0.010752464112393464, -0.009061658916321816, 0.08885390499442365, 0.0054626504132564944], [0.23089622010548774, 0.03952482761493869, 0.056809076512541246, 0.01344058014049183, -0.01132707364540227, 0.11106738124302956, 0.006828313016570618], [0.2770754641265853, 0.047429793137926425, 0.0681708918150495, 0.016128696168590195, -0.013592488374482722, 0.13328085749163548, 0.008193975619884742], [0.32325470814768287, 0.05533475866091416, 0.07953270711755775, 0.01881681219668856, -0.015857903103563175, 0.1554943337402414, 0.009559638223198864], [0.3694339521687804, 0.0632397241839019, 0.090894522420066, 0.021504928224786925, -0.018123317832643628, 0.17770780998884733, 0.010925300826512989], [0.41561319618987796, 0.07114468970688964, 0.10225633772257425, 0.02419304425288529, -0.02038873256172408, 0.19992128623745326, 0.012290963429827113], [0.46179244021097554, 0.07904965522987738, 0.1136181530250825, 0.026881160280983654, -0.022654147290804533, 0.22213476248605918, 0.013656626033141238], [0.5079716842320731, 0.08695462075286511, 0.12497996832759076, 0.02956927630908202, -0.024919562019884985, 0.2443482387346651, 0.015022288636455362], [0.5541509282531706, 0.09485958627585285, 0.136341783630099, 0.032257392337180384, -0.027184976748965438, 0.266561714983271, 0.016387951239769487], [0.6003301722742681, 0.10276455179884059, 0.14770359893260723, 0.03494550836527875, -0.02945039147804589, 0.28877519123187695, 0.01775361384308361], [0.6465094162953656, 0.11066951732182832, 0.15906541423511547, 0.03763362439337712, -0.03171580620712634, 0.31098866748048287, 0.019119276446397736], [0.6926886603164631, 0.11857448284481606, 0.1704272295376237, 0.04032174042147549, -0.0339812209362068, 0.3332021437290888, 0.02048493904971186], [0.7388679043375607, 0.12647944836780378, 0.18178904484013195, 0.043009856449573856, -0.036246635665287255, 0.3554156199776947, 0.021850601653025985], [0.7850471483586582, 0.13438441389079153, 0.19315086014264018, 0.045697972477672225, -0.03851205039436771, 0.37762909622630064, 0.02321626425634011], [0.8312263923797557, 0.14228937941377928, 0.20451267544514842, 0.04838608850577059, -0.04077746512344817, 0.39984257247490657, 0.024581926859654234], [0.8774056364008532, 0.15019434493676703, 0.21587449074765666, 0.05107420453386896, -0.04304287985252862, 0.4220560487235125, 0.025947589462968358], [0.9235848804219507, 0.15809931045975478, 0.2272363060501649, 0.05376232056196733, -0.04530829458160908, 0.4442695249721184, 0.027313252066282483], [0.9697641244430483, 0.16600427598274253, 0.23859812135267314, 0.0564504365900657, -0.047573709310689535, 0.46648300122072434, 0.028678914669596607], [1.015943368464146, 0.17390924150573028, 0.2499599366551814, 0.059138552618164066, -0.04983912403976999, 0.48869647746933026, 0.03004457727291073], [1.0621226124852434, 0.18181420702871803, 0.26132175195768964, 0.061826668646262434, -0.05210453876885045, 0.5109099537179361, 0.031410239876224856], [1.108301856506341, 0.18971917255170578, 0.2726835672601979, 0.0645147846743608, -0.054369953497930903, 0.533123429966542, 0.03277590247953898], [1.1544811005274385, 0.1976241380746935, 0.2840453825627061, 0.06720290070245916, -0.05663536822701136, 0.555336906215148, 0.034141565082853105], [1.200660344548536, 0.20552910359768123, 0.29540719786521435, 0.06989101673055752, -0.058900782956091816, 0.5775503824637539, 0.03550722768616723], [1.2468395885696335, 0.21343406912066898, 0.3067690131677226, 0.07257913275865588, -0.06116619768517227, 0.5997638587123598, 0.036872890289481354], [1.293018832590731, 0.2213390346436567, 0.31813082847023083, 0.07526724878675424, -0.06343161241425273, 0.6219773349609657, 0.03823855289279548], [1.3391980766118285, 0.22924400016664442, 0.32949264377273907, 0.0779553648148526, -0.06569702714333318, 0.6441908112095717, 0.0396042154961096], [1.385377320632926, 0.23714896568963217, 0.3408544590752473, 0.08064348084295096, -0.06796244187241364, 0.6664042874581776, 0.04096987809942373], [1.4315565646540236, 0.24505393121261992, 0.35221627437775554, 0.08333159687104932, -0.0702278566014941, 0.6886177637067835, 0.04233554070273785], [1.477735808675121, 0.2529588967356077, 0.3635780896802638, 0.08601971289914769, -0.07249327133057455, 0.7108312399553894, 0.043701203306051976], [1.5239150526962186, 0.2608638622585954, 0.374939904982772, 0.08870782892724605, -0.07475868605965501, 0.7330447162039954, 0.0450668659093661], [1.5700942967173162, 0.2687688277815832, 0.38630172028528026, 0.09139594495534441, -0.07702410078873546, 0.7552581924526013, 0.046432528512680225], [1.6162735407384137, 0.2766737933045709, 0.3976635355877885, 0.09408406098344277, -0.07928951551781592, 0.7774716687012072, 0.04779819111599435], [1.6624527847595112, 0.2845787588275587, 0.40902535089029673, 0.09677217701154113, -0.08155493024689638, 0.7996851449498131, 0.049163853719308474], [1.7086320287806087, 0.2924837243505464, 0.420387166192805, 0.09946029303963949, -0.08382034497597683, 0.821898621198419, 0.0505295163226226], [1.7548112728017062, 0.3003886898735342, 0.4317489814953132, 0.10214840906773787, -0.08608575970505729, 0.844112097447025, 0.05189517892593672], [1.8009905168228038, 0.3082936553965219, 0.44311079679782145, 0.10483652509583624, -0.08835117443413774, 0.8663255736956309, 0.05326084152925085], [1.8471697608439013, 0.3161986209195097, 0.4544726121003297, 0.1075246411239346, -0.0906165891632182, 0.8885390499442368, 0.05462650413256497], [1.8933490048649988, 0.3241035864424974, 0.465834427402838, 0.11021275715203296, -0.09288200389229866, 0.9107525261928427, 0.0559921667358791], [1.9395282488860963, 0.3320085519654852, 0.4771962427053462, 0.11290087318013134, -0.09514741862137911, 0.9329660024414487, 0.05735782933919322], [1.9857074929071938, 0.33991351748847287, 0.48855805800785446, 0.11558898920822971, -0.09741283335045955, 0.9551794786900546, 0.058723491942507346], [2.0318867369282914, 0.3478184830114606, 0.49991987331036275, 0.11827710523632808, -0.09967824807954001, 0.9773929549386605, 0.06008915454582147], [2.078065980949389, 0.35572344853444837, 0.511281688612871, 0.12096522126442644, -0.10194366280862047, 0.9996064311872664, 0.06145481714913559], [2.1242452249704864, 0.36362841405743607, 0.5226435039153793, 0.12365333729252481, -0.10420907753770091, 1.0218199074358723, 0.06282047975244971], [2.1357900359757607, 0.365604655438183, 0.5254839577410063, 0.1243253662995494, -0.10477543121997102, 1.0273732764980237, 0.06316189540327824], [2.147334846981035, 0.3675808968189299, 0.5283244115666333, 0.124997395306574, -0.10534178490224112, 1.032926645560175, 0.06350331105410677], [2.1588796579863097, 0.36955713819967684, 0.5311648653922605, 0.1256694243135986, -0.10590813858451123, 1.0384800146223268, 0.0638447267049353], [2.170424468991584, 0.37153337958042376, 0.5340053192178875, 0.1263414533206232, -0.10647449226678135, 1.0440333836844782, 0.06418614235576384], [2.181969279996858, 0.3735096209611707, 0.5368457730435146, 0.12701348232764778, -0.10704084594905147, 1.0495867527466296, 0.06452755800659236], [2.1935140910021325, 0.3754858623419176, 0.5396862268691416, 0.12768551133467237, -0.10760719963132158, 1.055140121808781, 0.06486897365742089], [2.2050589020074067, 0.37746210372266453, 0.5425266806947686, 0.12835754034169697, -0.10817355331359169, 1.0606934908709325, 0.06521038930824943], [2.2166037130126814, 0.3794383451034115, 0.5453671345203958, 0.12902956934872156, -0.10873990699586181, 1.066246859933084, 0.06555180495907796], [2.2281485240179557, 0.38141458648415844, 0.5482075883460228, 0.12970159835574616, -0.10930626067813193, 1.0718002289952355, 0.06589322060990649], [2.23969333502323, 0.38339082786490536, 0.5510480421716498, 0.13037362736277075, -0.10987261436040203, 1.077353598057387, 0.06623463626073502], [2.2512381460285047, 0.38536706924565234, 0.553888495997277, 0.13104565636979534, -0.11043896804267214, 1.0829069671195386, 0.06657605191156354], [2.262782957033779, 0.38734331062639926, 0.556728949822904, 0.13171768537681994, -0.11100532172494226, 1.08846033618169, 0.06691746756239209], [2.2743277680390532, 0.3893195520071462, 0.559569403648531, 0.13238971438384453, -0.11157167540721237, 1.0940137052438414, 0.06725888321322061], [2.285872579044328, 0.3912957933878931, 0.5624098574741581, 0.13306174339086912, -0.11213802908948248, 1.0995670743059929, 0.06760029886404914], [2.2974173900496027, 0.39327203476864003, 0.5652503112997851, 0.13373377239789372, -0.1127043827717526, 1.1051204433681443, 0.06794171451487768], [2.308962201054877, 0.39524827614938696, 0.5680907651254122, 0.1344058014049183, -0.1132707364540227, 1.110673812430296, 0.06828313016570621], [2.320507012060151, 0.3972245175301339, 0.5709312189510393, 0.1350778304119429, -0.11383709013629281, 1.1162271814924474, 0.06862454581653474], [2.332051823065426, 0.3992007589108808, 0.5737716727766663, 0.1357498594189675, -0.11440344381856292, 1.1217805505545988, 0.06896596146736327], [2.3435966340707006, 0.40117700029162773, 0.5766121266022934, 0.1364218884259921, -0.11496979750083303, 1.1273339196167504, 0.06930737711819179], [2.355141445075975, 0.40315324167237465, 0.5794525804279205, 0.1370939174330167, -0.11553615118310315, 1.1328872886789019, 0.06964879276902033], [2.366686256081249, 0.4051294830531216, 0.5822930342535475, 0.13776594644004128, -0.11610250486537327, 1.1384406577410533, 0.06999020841984886], [2.3782310670865234, 0.4071057244338685, 0.5851334880791746, 0.13843797544706588, -0.11666885854764338, 1.1439940268032047, 0.07033162407067739], [2.3897758780917977, 0.4090819658146154, 0.5879739419048018, 0.13911000445409044, -0.11723521222991348, 1.1495473958653561, 0.07067303972150592], [2.4013206890970724, 0.4110582071953624, 0.5908143957304288, 0.13978203346111504, -0.1178015659121836, 1.1551007649275078, 0.07101445537233445], [2.4128655001023467, 0.4130344485761093, 0.5936548495560559, 0.14045406246813963, -0.11836791959445372, 1.1606541339896592, 0.07135587102316297], [2.424410311107621, 0.41501068995685625, 0.596495303381683, 0.14112609147516422, -0.11893427327672383, 1.1662075030518106, 0.0716972866739915], [2.4359551221128957, 0.41698693133760323, 0.5993357572073101, 0.14179812048218882, -0.11950062695899394, 1.1717608721139623, 0.07203870232482003], [2.44749993311817, 0.41896317271835015, 0.6021762110329372, 0.14247014948921338, -0.12006698064126406, 1.1773142411761137, 0.07238011797564856], [2.459044744123444, 0.4209394140990971, 0.6050166648585642, 0.14314217849623798, -0.12063333432353417, 1.1828676102382651, 0.07272153362647708], [2.470589555128719, 0.422915655479844, 0.6078571186841912, 0.14381420750326257, -0.12119968800580427, 1.1884209793004166, 0.07306294927730561], [2.4821343661339936, 0.4248918968605909, 0.6106975725098183, 0.14448623651028716, -0.1217660416880744, 1.193974348362568, 0.07340436492813415], [2.493679177139268, 0.42686813824133785, 0.6135380263354454, 0.14515826551731176, -0.1223323953703445, 1.1995277174247194, 0.07374578057896268]], "attachments": [{"parent_name": "ECL_robot1_with_track", "parent_link_name": "eef_tcp_frame", "grasp_pose": [[-6.794929504394531e-06, 0.06333279609680176, 1.1920928955078125e-07], [-0.4999995827674866, 0.5000011920928955, -0.5000005960464478, -0.4999990463256836]], "child_name": "body298"}], "link_path": {"eef_tcp_frame": [[[1.9515000581741333, 0.0, 1.7650134563446045], [0.0, 0.7070939540863037, 0.0, 0.7071195840835571]], [[1.9792215824127197, -0.0611661933362484, 1.6923214197158813], [-0.006377216428518295, 0.7322381138801575, 0.004698550328612328, 0.681002676486969]], [[1.991519808769226, -0.09152893722057343, 1.6557811498641968], [-0.009675697423517704, 0.7444296479225159, 0.00685188127681613, 0.667595624923706]], [[2.0027754306793213, -0.12177493423223495, 1.6191482543945312], [-0.013044087216258049, 0.756361722946167, 0.008870546706020832, 0.6539635062217712]], [[2.012988805770874, -0.1519266963005066, 1.58245050907135], [-0.01647981069982052, 0.7680297493934631, 0.010751633904874325, 0.6401118636131287]], [[2.022162675857544, -0.1820066124200821, 1.5457154512405396], [-0.01998024620115757, 0.7794297933578491, 0.012492325156927109, 0.6260462403297424]], [[2.030299663543701, -0.2120368480682373, 1.5089704990386963], [-0.023542730137705803, 0.7905579209327698, 0.01408989354968071, 0.611772358417511]], [[2.037404775619507, -0.24203939735889435, 1.472243070602417], [-0.027164535596966743, 0.8014098405838013, 0.015541715547442436, 0.5972962379455566]], [[2.0434834957122803, -0.27203598618507385, 1.4355601072311401], [-0.030842890962958336, 0.8119819164276123, 0.016845256090164185, 0.5826235413551331]], [[2.0485432147979736, -0.302047997713089, 1.3989484310150146], [-0.034574996680021286, 0.8222704529762268, 0.017998090013861656, 0.5677604675292969]], [[2.0525920391082764, -0.33209651708602905, 1.3624347448349], [-0.038357991725206375, 0.8322718143463135, 0.018997889012098312, 0.5527129173278809]], [[2.0556390285491943, -0.3622022867202759, 1.326045036315918], [-0.04218897596001625, 0.8419821858406067, 0.019842419773340225, 0.5374872088432312]], [[2.057694911956787, -0.3923855721950531, 1.28980553150177], [-0.046065013855695724, 0.8513981699943542, 0.02052956447005272, 0.5220896601676941]], [[2.0587713718414307, -0.4226662516593933, 1.25374174118042], [-0.04998314753174782, 0.8605170249938965, 0.021057315170764923, 0.5065262913703918]], [[2.0588812828063965, -0.4530637264251709, 1.2178786993026733], [-0.05394032597541809, 0.869334876537323, 0.02142374962568283, 0.49080386757850647]], [[2.0580384731292725, -0.4835968017578125, 1.1822413206100464], [-0.05793353170156479, 0.8778489828109741, 0.02162708342075348, 0.4749285876750946]], [[2.056257486343384, -0.5142838358879089, 1.1468538045883179], [-0.061959680169820786, 0.8860563635826111, 0.021665621548891068, 0.4589071273803711]], [[2.0535547733306885, -0.5451425313949585, 1.1117401123046875], [-0.06601564586162567, 0.8939541578292847, 0.0215377788990736, 0.4427459239959717]], [[2.0499470233917236, -0.5761900544166565, 1.0769236087799072], [-0.07009831070899963, 0.9015397429466248, 0.021242093294858932, 0.4264518618583679]], [[2.0454518795013428, -0.6074429154396057, 1.0424270629882812], [-0.0742044746875763, 0.9088103771209717, 0.020777208730578423, 0.41003134846687317]], [[2.040088176727295, -0.6389169692993164, 1.0082727670669556], [-0.07833095639944077, 0.9157636761665344, 0.020141886547207832, 0.39349138736724854]], [[2.0338759422302246, -0.6706273555755615, 0.9744822978973389], [-0.08247454464435577, 0.922397255897522, 0.019335001707077026, 0.3768387734889984]], [[2.0268354415893555, -0.7025884389877319, 0.9410768151283264], [-0.08663199096918106, 0.9287088513374329, 0.018355542793869972, 0.3600802719593048]], [[2.0189878940582275, -0.7348140478134155, 0.908076822757721], [-0.09080000221729279, 0.9346964955329895, 0.01720261573791504, 0.34322282671928406]], [[2.010355234146118, -0.767316997051239, 0.8755021095275879], [-0.09497534483671188, 0.9403581023216248, 0.015875447541475296, 0.3262734115123749]], [[2.0009605884552, -0.8001095652580261, 0.8433717489242554], [-0.09915468841791153, 0.9456918239593506, 0.014373375102877617, 0.3092390298843384]], [[1.9908274412155151, -0.8332030773162842, 0.811704158782959], [-0.10333473235368729, 0.9506959319114685, 0.012695864774286747, 0.2921266257762909]], [[1.9799796342849731, -0.8666081428527832, 0.7805171608924866], [-0.10751212388277054, 0.9553688764572144, 0.010842490009963512, 0.2749433219432831]], [[1.9684419631958008, -0.9003344774246216, 0.7498277425765991], [-0.11168356239795685, 0.9597092270851135, 0.008812949061393738, 0.2576961815357208]], [[1.9562397003173828, -0.9343909621238708, 0.7196520566940308], [-0.11584565788507462, 0.9637156128883362, 0.00660706264898181, 0.2403922826051712]], [[1.9433984756469727, -0.9687857031822205, 0.6900056600570679], [-0.11999507993459702, 0.9673867225646973, 0.004224766045808792, 0.22303874790668488]], [[1.9299447536468506, -1.0035258531570435, 0.6609032154083252], [-0.12412846833467484, 0.9707216024398804, 0.0016661199042573571, 0.20564277470111847]], [[1.9159048795700073, -1.038617730140686, 0.6323586702346802], [-0.12824243307113647, 0.9737192392349243, -0.0010687013855203986, 0.18821147084236145]], [[1.901305913925171, -1.0740668773651123, 0.6043850183486938], [-0.13233362138271332, 0.9763789176940918, -0.003979395609349012, 0.17075203359127045]], [[1.8861751556396484, -1.1098778247833252, 0.5769945979118347], [-0.13639868795871735, 0.9786997437477112, -0.007065547164529562, 0.1532716006040573]], [[1.8705401420593262, -1.1460542678833008, 0.5501988530158997], [-0.14043428003787994, 0.9806814789772034, -0.01032661646604538, 0.13577741384506226]], [[1.8544285297393799, -1.1825990676879883, 0.5240082740783691], [-0.14443697035312653, 0.982323408126831, -0.013761939480900764, 0.11827659606933594]], [[1.8378684520721436, -1.21951425075531, 0.4984326660633087], [-0.14840348064899445, 0.9836254119873047, -0.017370741814374924, 0.10077637434005737]], [[1.8208876848220825, -1.2568007707595825, 0.47348085045814514], [-0.15233038365840912, 0.9845871329307556, -0.021152116358280182, 0.08328386396169662]], [[1.8035144805908203, -1.2944588661193848, 0.4491608142852783], [-0.1562144011259079, 0.9852088093757629, -0.025105055421590805, 0.06580629199743271]], [[1.785776972770691, -1.3324878215789795, 0.4254796802997589], [-0.16005221009254456, 0.9854903221130371, -0.02922840788960457, 0.04835078865289688]], [[1.7677031755447388, -1.3708864450454712, 0.40244370698928833], [-0.16384045779705048, 0.9854320883750916, -0.03352092206478119, 0.03092448227107525]], [[1.7493213415145874, -1.4096519947052002, 0.3800581991672516], [-0.1675759106874466, 0.9850343465805054, -0.03798123076558113, 0.013534505851566792]], [[1.7306591272354126, -1.4487817287445068, 0.3583276569843292], [-0.17125524580478668, 0.9842975735664368, -0.042607832700014114, -0.003812055569142103]], [[1.7117443084716797, -1.4882713556289673, 0.337255597114563], [-0.17487521469593048, 0.9832224249839783, -0.047399114817380905, -0.021108126267790794]], [[1.6926045417785645, -1.5281161069869995, 0.31684473156929016], [-0.1784326285123825, 0.9818097949028015, -0.052353378385305405, -0.03834667429327965]], [[1.687787652015686, -1.5381321907043457, 0.3118455708026886], [-0.17931179702281952, 0.9814040064811707, -0.05361718311905861, -0.04264649376273155]], [[1.6829588413238525, -1.5481700897216797, 0.30688783526420593], [-0.18018680810928345, 0.9809771180152893, -0.05489103123545647, -0.046942174434661865]], [[1.6781184673309326, -1.5582295656204224, 0.3019716143608093], [-0.1810576468706131, 0.9805293083190918, -0.05617489293217659, -0.05123360455036163]], [[1.6732670068740845, -1.5683107376098633, 0.297096848487854], [-0.18192419409751892, 0.9800603985786438, -0.05746873468160629, -0.0555206723511219]], [[1.6684049367904663, -1.5784132480621338, 0.29226359724998474], [-0.18278641998767853, 0.9795705676078796, -0.05877252668142319, -0.059803273528814316]], [[1.6635326147079468, -1.5885372161865234, 0.28747186064720154], [-0.18364429473876953, 0.9790597558021545, -0.06008623540401459, -0.06408128887414932]], [[1.6586503982543945, -1.5986822843551636, 0.282721608877182], [-0.18449774384498596, 0.9785279631614685, -0.06140981614589691, -0.06835461407899857]], [[1.6537587642669678, -1.6088485717773438, 0.27801287174224854], [-0.18534676730632782, 0.9779753684997559, -0.06274326890707016, -0.07262317091226578]], [[1.6488581895828247, -1.6190359592437744, 0.27334561944007874], [-0.18619124591350555, 0.9774017333984375, -0.06408652663230896, -0.07688679546117783]], [[1.6439489126205444, -1.6292442083358765, 0.268719881772995], [-0.18703114986419678, 0.9768072366714478, -0.06543956696987152, -0.08114541321992874]], [[1.6390315294265747, -1.6394731998443604, 0.26413559913635254], [-0.18786649405956268, 0.9761919379234314, -0.06680236011743546, -0.08539892733097076]], [[1.6341062784194946, -1.6497228145599365, 0.25959280133247375], [-0.18869714438915253, 0.9755557179450989, -0.06817487627267838, -0.08964719623327255]], [[1.629173755645752, -1.659993052482605, 0.25509142875671387], [-0.1895231306552887, 0.9748986959457397, -0.0695570856332779, -0.09389014542102814]], [[1.6242343187332153, -1.6702836751937866, 0.2506314814090729], [-0.19034434854984283, 0.974220871925354, -0.07094893604516983, -0.09812766313552856]], [[1.6192882061004639, -1.680594563484192, 0.24621295928955078], [-0.19116073846817017, 0.9735222458839417, -0.0723503902554512, -0.10235960781574249]], [[1.6143360137939453, -1.6909255981445312, 0.2418357878923416], [-0.19197231531143188, 0.9728028178215027, -0.07376142591238022, -0.10658590495586395]], [[1.6093779802322388, -1.7012766599655151, 0.23749995231628418], [-0.19277893006801605, 0.9720627069473267, -0.0751819983124733, -0.1108064353466034]], [[1.6044145822525024, -1.711647629737854, 0.2332054227590561], [-0.19358064234256744, 0.9713018536567688, -0.07661207765340805, -0.11502110958099365]], [[1.5994462966918945, -1.7220382690429688, 0.22895215451717377], [-0.1943773627281189, 0.9705203175544739, -0.0780516043305397, -0.11922980844974518]], [[1.5944734811782837, -1.7324485778808594, 0.22474011778831482], [-0.19516901671886444, 0.9697180390357971, -0.07950057834386826, -0.12343241274356842]], [[1.5894964933395386, -1.7428781986236572, 0.22056925296783447], [-0.19595563411712646, 0.9688951969146729, -0.08095894008874893, -0.1276288628578186]], [[1.5845155715942383, -1.7533272504806519, 0.21643951535224915], [-0.19673703610897064, 0.9680517315864563, -0.08242664486169815, -0.1318189799785614]], [[1.5795314311981201, -1.7637953758239746, 0.21235084533691406], [-0.19751329720020294, 0.9671876430511475, -0.08390367031097412, -0.13600271940231323]], [[1.5745441913604736, -1.774282455444336, 0.20830319821834564], [-0.1982843428850174, 0.9663030505180359, -0.08538996428251266, -0.14017996191978455]], [[1.569554328918457, -1.7847883701324463, 0.2042965143918991], [-0.19905005395412445, 0.9653977751731873, -0.0868854820728302, -0.1443505585193634]], [[1.5645623207092285, -1.7953130006790161, 0.2003307342529297], [-0.1998104751110077, 0.9644721150398254, -0.08839019387960434, -0.1485144942998886]], [[1.5595682859420776, -1.8058561086654663, 0.1964057832956314], [-0.20056550204753876, 0.9635258913040161, -0.0899040549993515, -0.15267156064510345]], [[1.5545729398727417, -1.8164174556732178, 0.1925216019153595], [-0.20131513476371765, 0.9625592827796936, -0.0914270356297493, -0.15682175755500793]], [[1.5495764017105103, -1.82699716091156, 0.1886781007051468], [-0.20205926895141602, 0.9615721702575684, -0.09295908361673355, -0.16096489131450653]], [[1.5445791482925415, -1.837594747543335, 0.1848752200603485], [-0.20279791951179504, 0.9605646729469299, -0.09450016170740128, -0.16510093212127686]], [[1.539581537246704, -1.848210334777832, 0.1811128854751587], [-0.203530952334404, 0.9595367908477783, -0.0960502028465271, -0.169229656457901]], [[1.5345839262008667, -1.858843445777893, 0.17739100754261017], [-0.20425842702388763, 0.9584885835647583, -0.09760920703411102, -0.17335109412670135]]]}}, {"element": 0, "tag": "place_approach", "path": [[2.493679177139268, 0.42686813824133785, 0.6135380263354454, 0.14515826551731176, -0.1223323953703445, 1.1995277174247194, 0.07374578057896268], [2.493679177139268, 0.4376076408766465, 0.5717585492136618, 0.19411710656500433, -0.1853040325072306, 1.0919124936111524, -0.0359984989367107], [2.493679177139268, 0.44465739387861625, 0.5281548171140784, 0.24793232511723903, -0.24170771189408946, 0.9752241919052237, -0.14526930348329956], [2.493679177139268, 0.4473350942740765, 0.48413683547855124, 0.30466362590721635, -0.290432635420403, 0.8509492673797038, -0.25697892721917415], [2.493679177139268, 0.44500371172931646, 0.4410581814497019, 0.3625849050876796, -0.3287751434235187, 0.7202706142593878, -0.37566114141982604], [2.493679177139268, 0.4370512621567327, 0.4004918377469788, 0.4196681565173162, -0.34997755434609806, 0.5847824789345727, -0.5099123561271324]], "attachments": [{"parent_name": "ECL_robot1_with_track", "parent_link_name": "eef_tcp_frame", "grasp_pose": [[-6.794929504394531e-06, 0.06333279609680176, 1.1920928955078125e-07], [-0.4999995827674866, 0.5000011920928955, -0.5000005960464478, -0.4999990463256836]], "child_name": "body298"}], "link_path": {"eef_tcp_frame": [[[1.5345839262008667, -1.858843445777893, 0.17739100754261017], [-0.20425842702388763, 0.9584885835647583, -0.09760920703411102, -0.17335109412670135]], [[1.5451006889343262, -1.862043857574463, 0.18166683614253998], [-0.28362199664115906, 0.9453243017196655, -0.10205742716789246, -0.12451858073472977]], [[1.5545198917388916, -1.8639293909072876, 0.18675075471401215], [-0.36046677827835083, 0.9237726330757141, -0.10559738427400589, -0.07454492896795273]], [[1.5626529455184937, -1.8646820783615112, 0.19261352717876434], [-0.4341050386428833, 0.8940194249153137, -0.10821320116519928, -0.02391335368156433]], [[1.5692036151885986, -1.864582896232605, 0.1991460770368576], [-0.5038706660270691, 0.8563317060470581, -0.1099228784441948, 0.026967698708176613]], [[1.5740621089935303, -1.8639039993286133, 0.20627166330814362], [-0.5691507458686829, 0.811043381690979, -0.11069650202989578, 0.07760442048311234]]]}}, {"element": 0, "tag": "place_retreat", "path": [[2.493679177139268, 0.43697478695519326, 0.4004922928360679, 0.4196050646543583, -0.3496214802964429, 0.5848365651211467, -0.510341243792089], [2.493679177139268, 0.43814022474582764, 0.3933284649520303, 0.42013608795020907, -0.346429703116475, 0.5913450134475982, -0.5131398002299083], [2.493679177139268, 0.439337841792175, 0.3862053699819828, 0.4206166737723439, -0.3434307703820035, 0.5978720028484563, -0.5157213825553255], [2.493679177139268, 0.44052577165311474, 0.3791247489048022, 0.4210103961195278, -0.3404298899945948, 0.6044490867375898, -0.5183206046919013], [2.493679177139268, 0.4417148942265364, 0.37208612916593403, 0.42132899079748404, -0.3374788405745473, 0.6110641956645185, -0.5208752947409869], [2.493679177139268, 0.44290676374111276, 0.3650901582646651, 0.42157375258686874, -0.33458376436545845, 0.6177154451590166, -0.5233778268623945], [2.493679177139268, 0.4441015869220444, 0.3581375208902743, 0.4217448267303239, -0.3317446488254773, 0.6244019503713757, -0.5258280104128151], [2.493679177139268, 0.445299389613379, 0.3512289040239254, 0.4218422108237146, -0.32896067355509806, 0.6311229599141479, -0.528226601800747]], "attachments": [], "link_path": {"eef_tcp_frame": [[[1.5741019248962402, -1.863933801651001, 0.20631299912929535], [-0.5691794157028198, 0.8110358715057373, -0.11061584204435349, 0.07758688926696777]], [[1.571593999862671, -1.8630322217941284, 0.21595768630504608], [-0.5691863298416138, 0.811034083366394, -0.11059597879648209, 0.07758364081382751]], [[1.5690710544586182, -1.8621188402175903, 0.2255866825580597], [-0.569182276725769, 0.8110350966453552, -0.11060690879821777, 0.07758684456348419]], [[1.5665558576583862, -1.8612096309661865, 0.2352234125137329], [-0.5691829919815063, 0.8110350966453552, -0.11060440540313721, 0.07758618146181107]], [[1.5640414953231812, -1.86030113697052, 0.24486097693443298], [-0.5691841840744019, 0.8110347986221313, -0.11060021817684174, 0.0775851458311081]], [[1.5615272521972656, -1.8593926429748535, 0.25449854135513306], [-0.5691855549812317, 0.811034619808197, -0.11059602349996567, 0.0775841474533081]], [[1.5590128898620605, -1.8584842681884766, 0.26413601636886597], [-0.5691867470741272, 0.8110343217849731, -0.11059197038412094, 0.0775832086801529]], [[1.5564982891082764, -1.85757577419281, 0.2737734019756317], [-0.5691880583763123, 0.811034083366394, -0.11058811098337173, 0.07758232206106186]]]}}, {"element": null, "tag": "transit", "path": [[2.493679177139268, 0.445299389613379, 0.3512289040239254, 0.4218422108237146, -0.32896067355509806, 0.6311229599141479, -0.528226601800747], [2.435955122112896, 0.43499153337232854, 0.3430986053196679, 0.4120773448324249, -0.32134584314873005, 0.6165136321383575, -0.5159991341664705], [2.424410311107622, 0.43292996212411844, 0.3414725455788164, 0.410124371634167, -0.31982287706745643, 0.6135917665831995, -0.5135536406396152], [2.412865500102347, 0.43086839087590834, 0.3398464858379649, 0.40817139843590905, -0.3182999109861828, 0.6106699010280414, -0.5111081471127599], [2.401320689097073, 0.4288068196276983, 0.3382204260971134, 0.4062184252376511, -0.31677694490490926, 0.6077480354728833, -0.5086626535859046], [2.3897758780917986, 0.4267452483794882, 0.3365943663562619, 0.4042654520393932, -0.31525397882363565, 0.6048261699177252, -0.5062171600590493], [2.3782310670865243, 0.4246836771312781, 0.3349683066154104, 0.40231247884113525, -0.31373101274236204, 0.6019043043625671, -0.503771666532194], [2.36668625608125, 0.42262210588306803, 0.3333422468745589, 0.4003595056428773, -0.3122080466610885, 0.598982438807409, -0.5013261730053387], [2.3551414450759753, 0.42056053463485793, 0.3317161871337074, 0.3984065324446194, -0.31068508057981487, 0.5960605732522509, -0.4988806794784833], [2.343596634070701, 0.4184989633866478, 0.33009012739285587, 0.39645355924636144, -0.30916211449854125, 0.5931387076970929, -0.496435185951628], [2.332051823065427, 0.4164373921384377, 0.32846406765200437, 0.3945005860481035, -0.30763914841726764, 0.5902168421419348, -0.4939896924247727], [2.320507012060152, 0.4143758208902276, 0.32683800791115286, 0.3925476128498456, -0.306116182335994, 0.5872949765867768, -0.49154419889791734], [2.308962201054878, 0.41231424964201757, 0.32521194817030136, 0.39059463965158764, -0.30459321625472047, 0.5843731110316186, -0.48909870537106204], [2.2974173900496035, 0.41025267839380747, 0.32358588842944985, 0.3886416664533297, -0.30307025017344685, 0.5814512454764605, -0.48665321184420673], [2.2858725790443293, 0.40819110714559736, 0.32195982868859835, 0.38668869325507177, -0.30154728409217324, 0.5785293799213025, -0.48420771831735143], [2.274327768039055, 0.4061295358973873, 0.32033376894774684, 0.38473572005681383, -0.3000243180108997, 0.5756075143661443, -0.48176222479049613], [2.2627829570337803, 0.4040679646491772, 0.31870770920689534, 0.3827827468585559, -0.29850135192962607, 0.5726856488109863, -0.47931673126364077], [2.251238146028506, 0.4020063934009671, 0.31708164946604384, 0.38082977366029797, -0.29697838584835246, 0.5697637832558282, -0.47687123773678547], [2.2396933350232318, 0.399944822152757, 0.31545558972519233, 0.37887680046204003, -0.29545541976707884, 0.5668419177006702, -0.47442574420993017], [2.228148524017957, 0.3978832509045469, 0.3138295299843408, 0.3769238272637821, -0.29393245368580523, 0.5639200521455121, -0.4719802506830748], [2.2166037130126828, 0.39582167965633686, 0.3122034702434893, 0.37497085406552416, -0.29240948760453167, 0.5609981865903539, -0.4695347571562195], [2.2050589020074085, 0.39376010840812675, 0.3105774105026378, 0.3730178808672662, -0.29088652152325806, 0.5580763210351959, -0.4670892636293642], [2.1935140910021342, 0.39169853715991665, 0.3089513507617863, 0.3710649076690083, -0.28936355544198444, 0.5551544554800378, -0.4646437701025089], [2.18196927999686, 0.3896369659117066, 0.3073252910209348, 0.36911193447075036, -0.2878405893607109, 0.5522325899248797, -0.4621982765756536], [2.1704244689915853, 0.3875753946634965, 0.3056992312800833, 0.3671589612724924, -0.28631762327943727, 0.5493107243697216, -0.45975278304879824], [2.158879657986311, 0.3855138234152864, 0.3040731715392318, 0.3652059880742345, -0.28479465719816366, 0.5463888588145636, -0.45730728952194294], [2.1473348469810367, 0.3834522521670763, 0.3024471117983803, 0.36325301487597655, -0.28327169111689005, 0.5434669932594055, -0.45486179599508764], [2.135790035975762, 0.3813906809188662, 0.3008210520575288, 0.3613000416777186, -0.28174872503561643, 0.5405451277042475, -0.4524163024682323], [2.1242452249704877, 0.37932910967065614, 0.2991949923166773, 0.3593470684794607, -0.2802257589543429, 0.5376232621490893, -0.449970808941377], [2.1127004139652135, 0.37726753842244604, 0.2975689325758258, 0.35739409528120275, -0.27870279287306926, 0.5347013965939312, -0.4475253154145217], [2.101155602959939, 0.37520596717423593, 0.2959428728349743, 0.3554411220829448, -0.27717982679179565, 0.5317795310387732, -0.44507982188766637], [2.089610791954665, 0.3731443959260259, 0.2943168130941228, 0.3534881488846869, -0.2756568607105221, 0.528857665483615, -0.44263432836081107], [2.07806598094939, 0.3710828246778158, 0.29269075335327127, 0.35153517568642895, -0.2741338946292485, 0.525935799928457, -0.4401888348339557], [2.066521169944116, 0.3690212534296057, 0.29106469361241977, 0.349582202488171, -0.27261092854797486, 0.5230139343732989, -0.4377433413071004], [2.0549763589388417, 0.3669596821813956, 0.28943863387156826, 0.3476292292899131, -0.27108796246670125, 0.5200920688181409, -0.4352978477802451], [2.043431547933567, 0.36489811093318547, 0.28781257413071676, 0.34567625609165514, -0.26956499638542764, 0.5171702032629828, -0.43285235425338975], [2.0318867369282927, 0.3628365396849754, 0.28618651438986525, 0.3437232828933972, -0.2680420303041541, 0.5142483377078246, -0.43040686072653445], [1.9857074929071952, 0.35459025469213507, 0.27968227542645924, 0.33591139010036547, -0.2619501659790597, 0.5025608754871923, -0.42062488661911324], [1.9395282488860976, 0.3463439696992947, 0.2731780364630532, 0.32809949730733373, -0.2558583016539653, 0.4908734132665599, -0.410842912511692], [1.8933490048650001, 0.33809768470645435, 0.2666737974996472, 0.320287604514302, -0.24976643732887088, 0.47918595104592754, -0.4010609384042708], [1.8471697608439026, 0.329851399713614, 0.2601695585362412, 0.31247571172127026, -0.24367457300377648, 0.46749848882529516, -0.39127896429684955], [1.800990516822805, 0.32160511472077363, 0.25366531957283517, 0.3046638189282385, -0.2375827086786821, 0.4558110266046628, -0.3814969901894283], [1.7548112728017076, 0.3133588297279333, 0.24716108060942915, 0.2968519261352068, -0.2314908443535877, 0.4441235643840304, -0.3717150160820071], [1.70863202878061, 0.3051125447350929, 0.24065684164602313, 0.28904003334217504, -0.2253989800284933, 0.432436102163398, -0.3619330419745858], [1.6624527847595125, 0.29686625974225256, 0.23415260268261712, 0.2812281405491433, -0.21930711570339886, 0.4207486399427656, -0.35215106786716455], [1.616273540738415, 0.2886199747494122, 0.2276483637192111, 0.27341624775611156, -0.21321525137830444, 0.40906117772213324, -0.34236909375974334], [1.5700942967173175, 0.28037368975657184, 0.22114412475580508, 0.2656043549630798, -0.20712338705321004, 0.39737371550150086, -0.3325871196523221], [1.52391505269622, 0.2721274047637315, 0.21463988579239904, 0.2577924621700481, -0.2010315227281156, 0.3856862532808685, -0.32280514554490086], [1.4777358086751224, 0.2638811197708911, 0.208135646828993, 0.24998056937701632, -0.1949396584030212, 0.3739987910602361, -0.3130231714374796], [1.431556564654025, 0.25563483477805077, 0.20163140786558698, 0.24216867658398455, -0.1888477940779268, 0.3623113288396037, -0.3032411973300584], [1.3853773206329274, 0.2473885497852104, 0.19512716890218096, 0.2343567837909528, -0.1827559297528324, 0.3506238666189713, -0.2934592232226372], [1.3391980766118299, 0.23914226479237005, 0.1886229299387749, 0.22654489099792102, -0.17666406542773797, 0.33893640439833894, -0.2836772491152159], [1.2930188325907324, 0.2308959797995297, 0.18211869097536887, 0.21873299820488926, -0.17057220110264354, 0.32724894217770656, -0.27389527500779465], [1.2468395885696348, 0.22264969480668934, 0.17561445201196285, 0.2109211054118575, -0.16448033677754914, 0.3155614799570742, -0.26411330090037344], [1.2006603445485373, 0.21440340981384898, 0.16911021304855683, 0.20310921261882572, -0.15838847245245474, 0.3038740177364418, -0.25433132679295223], [1.1544811005274398, 0.20615712482100862, 0.1626059740851508, 0.19529731982579396, -0.15229660812736032, 0.2921865555158094, -0.244549352685531], [1.1083018565063423, 