{"problem": ["SP_arch.json"], "config": [{"bar_only": true, "stiffness": true, "collision": false, "teleops": false, "partial_ordering": true, "chosen_bars": null}], "write_time": ["2021-01-05 22:03:29.394714"], "parameters": [{"trans_tol": 0.005, "rot_tol": Infinity, "joint_resolution": [0.05, 0.05395, 0.036250000000000004, 0.061244999999999994, 0.045865, 0.18770499999999998, 0.06565], "joint_weight": [10.0, 0.38197097020626436, 0.38197097020626436, 0.38197097020626436, 0.15915457091927682, 0.15915457091927682, 0.12732365673542145], "joint_jump_threshold": 1.0471975511965976, "enable_self_collisions": true, "pos_step_size": 0.01, "ori_step_size": 0.17453292519943295, "retreat_distance": 0.07}], "plan": [[{"element": 36, "tag": "place_approach", "path": [[1.2169530391693115, -0.44253504276275635, 0.43677330017089844, 2.5650835960909313, 0.9568578366727896, -1.956893121409839], [1.2768566608428955, -0.4623270034790039, 0.47880035638809204, 2.6520152434155726, 0.8198662873072109, -1.9393969867889258], [1.3387792110443115, -0.491372674703598, 0.5102454423904419, 2.7315733360889087, 0.6842588026141605, -1.908753134419153], [1.4007786512374878, -0.5286402702331543, 0.5301113128662109, 2.8086854881469328, 0.5508115636876343, -1.868383500671688], [1.4609107971191406, -0.5728602409362793, 0.537735104560852, 2.8864158816999876, 0.42030390686161756, -1.8196179355764532], [1.5172853469848633, -0.6225619316101074, 0.5328083038330078, 2.967032352791542, 0.29361084794746906, -1.7627234298845833], [1.5681208372116089, -0.676116406917572, 0.5153851509094238, 3.0524629012085103, 0.17176947555648459, -1.6973373341584659], [1.6117957830429077, -0.7317833304405212, 0.485880970954895, -3.138683457549358, 0.05603934276558723, -1.622689206299736]], "attachments": [{"parent_name": "", "parent_link_name": "link7", "grasp_pose": [[-1.1920928955078125e-07, -0.32263708114624023, 0.37049996852874756], [0.5, 0.5, 0.5, -0.5]], "child_name": "body313"}]}, {"element": 36, "tag": "place_retreat", "path": [[1.6117957830429077, -0.7317833304405212, 0.485880970954895, -3.138683457549358, 0.05603934276558723, -1.622689206299736], [1.6113057136535645, -0.7318087220191956, 0.49461719393730164, -3.138683457549358, 0.05603934276558723, -1.622689206299736], [1.6108156442642212, -0.7318341732025146, 0.5033534169197083, -3.138683457549358, 0.05603934276558723, -1.622689206299736], [1.610325574874878, -0.731859564781189, 0.5120896100997925, -3.138683457549358, 0.05603934276558723, -1.622689206299736], [1.6098353862762451, -0.7318850159645081, 0.5208258628845215, -3.138683457549358, 0.05603934276558723, -1.622689206299736], [1.6093453168869019, -0.7319104075431824, 0.5295621156692505, -3.138683457549358, 0.05603934276558723, -1.622689206299736], [1.6088552474975586, -0.7319357991218567, 0.5382983088493347, -3.138683457549358, 0.05603934276558723, -1.622689206299736], [1.6083651781082153, -0.7319612503051758, 0.5470345616340637, -3.138683457549358, 0.05603934276558723, -1.622689206299736], [1.607875108718872, -0.7319866418838501, 0.555770754814148, -3.138683457549358, 0.05603934276558723, -1.622689206299736]], "attachments": []}], [{"element": 1, "tag": "place_approach", "path": [[1.5560972690582275, -2.4218990802764893, 0.6849814057350159, 2.9330399939623732, 0.284221756758936, 0.48142481263302456], [1.584923267364502, -2.439060926437378, 0.690434992313385, 2.9995347936651386, 0.21998098017678774, 0.43348037471187384], [1.615114688873291, -2.4558329582214355, 0.6929277181625366, 3.0620260356785107, 0.15288311983444813, 0.39054348248162146], [1.646441102027893, -2.472008466720581, 0.6923972368240356, 3.1210706868816342, 0.08334820880171934, 0.35223542164896277], [1.6786611080169678, -2.487387180328369, 0.6888091564178467, -3.1059697479632917, 0.01174004419227401, 0.31822100682783866]], "attachments": [{"parent_name": "", "parent_link_name": "link7", "grasp_pose": [[0.0, -0.015591025352478027, 0.37049999833106995], [0.4999999701976776, 0.5, 0.5000000596046448, -0.5]], "child_name": "body278"}]}, {"element": 1, "tag": "place_retreat", "path": [[1.6786611080169678, -2.487387180328369, 0.6888091564178467, -3.1059697479632917, 0.01174004419227401, 0.31822100682783866], [1.678558349609375, -2.487698793411255, 0.6975530385971069, -3.1059697479632917, 0.01174004419227401, 0.31822100682783866], [1.6784555912017822, -2.4880104064941406, 0.7062969207763672, -3.1059697479632917, 0.01174004419227401, 0.31822100682783866], [1.678352952003479, -2.4883220195770264, 0.7150407433509827, -3.1059697479632917, 0.01174004419227401, 0.31822100682783866], [1.6782501935958862, -2.488633632659912, 0.7237845659255981, -3.1059697479632917, 0.01174004419227401, 0.31822100682783866], [1.6781474351882935, -2.488945245742798, 0.7325284481048584, -3.1059697479632917, 0.01174004419227401, 0.31822100682783866], [1.6780447959899902, -2.4892568588256836, 0.7412722706794739, -3.1059697479632917, 0.01174004419227401, 0.31822100682783866], [1.6779420375823975, -2.4895684719085693, 0.7500160932540894, -3.1059697479632917, 0.01174004419227401, 0.31822100682783866], [1.6778392791748047, -2.489880084991455, 0.7587599754333496, -3.1059697479632917, 0.01174004419227401, 0.31822100682783866]], "attachments": []}], [{"element": 0, "tag": "place_approach", "path": [[1.6619930267333984, -2.3028547763824463, 0.6673628091812134, 3.0481228640623432, -0.5756148820262975, 0.3479887150580461], [1.578071117401123, -2.305236577987671, 0.6913716197013855, 3.1289052697203896, -0.4527951879799284, 0.6295159634080292], [1.4924286603927612, -2.287820339202881, 0.7046054601669312, -3.116279490697571, -0.3157521665754535, 0.885500296501536], [1.4112221002578735, -2.251591920852661, 0.7061161994934082, -3.115851063707704, -0.174264262630771, 1.1273077576726012], [1.3402626514434814, -2.199000597000122, 0.6958675384521484, 3.1339478108483885, -0.03671990978096725, 1.365487545505317]], "attachments": [{"parent_name": "", "parent_link_name": "link7", "grasp_pose": [[-2.384185791015625e-07, -0.15525704622268677, 0.37049993872642517], [0.5000000596046448, 0.49999988079071045, 0.5000001192092896, -0.49999988079071045]], "child_name": "body277"}]}, {"element": 0, "tag": "place_retreat", "path": [[1.3402626514434814, -2.199000597000122, 0.6958675384521484, 3.1339478108483885, -0.03671990978096725, 1.365487545505317], [1.3406298160552979, -2.1989243030548096, 0.7058604955673218, 3.1339478108483885, -0.03671990978096725, 1.365487545505317], [1.3409968614578247, -2.198847770690918, 0.7158535122871399, 3.1339478108483885, -0.03671990978096725, 1.365487545505317], [1.3413640260696411, -2.1987714767456055, 0.7258464694023132, 3.1339478108483885, -0.03671990978096725, 1.365487545505317], [1.341731071472168, -2.198694944381714, 0.7358394265174866, 3.1339478108483885, -0.03671990978096725, 1.365487545505317], [1.3420982360839844, -2.1986186504364014, 0.7458323836326599, 3.1339478108483885, -0.03671990978096725, 1.365487545505317], [1.3424652814865112, -2.1985421180725098, 0.755825400352478, 3.1339478108483885, -0.03671990978096725, 1.365487545505317], [1.3428324460983276, -2.1984658241271973, 0.7658182382583618, 3.1339478107007435, -0.03671991032142415, 1.3654876207322786]], "attachments": []}], [{"element": 2, "tag": "place_approach", "path": [[1.5641552209854126, -2.798269510269165, 0.47924163937568665, -2.5670755876714306, -0.18054044621379872, 2.341507710773227], [1.5600558519363403, -2.792797565460205, 0.4949432611465454, -2.6025855863786087, -0.16756354038259597, 2.342190555139427], [1.5558648109436035, -2.7868316173553467, 0.510376513004303, -2.63802998231962, -0.15461850073102107, 2.3433377822429917], [1.5515882968902588, -2.7803807258605957, 0.5255226492881775, -2.6734210089214505, -0.1417217438374176, 2.344945409279692], [1.5472335815429688, -2.7734551429748535, 0.5403639078140259, -2.70877105078952, -0.1288893261674725, 2.34700926327514], [1.54280686378479, -2.7660653591156006, 0.554882824420929, -2.7440919424579024, -0.11613700106198632, 2.3495255033782407], [1.5383155345916748, -2.7582225799560547, 0.5690621733665466, -2.7793955661027425, -0.1034810041980427, 2.352488982016282], [1.533766508102417, -2.749939203262329, 0.5828854441642761, -2.8146932166998737, -0.09093678347000571, 2.355895811725838], [1.5291670560836792, -2.741227149963379, 0.5963364839553833, -2.8499961819669615, -0.07852001621277852, 2.359740850146151], [1.5245237350463867, -2.732100248336792, 0.6093999147415161, -2.885315220318734, -0.0662462178764227, 2.3640192719633677], [1.519844651222229, -2.722571611404419, 0.6220606565475464, -2.9206604345892178, -0.05413095367162619, 2.368725880074446], [1.5151365995407104, -2.712656021118164, 0.634304404258728, -2.956041777738987, -0.04218928583731435, 2.3738553319524196], [1.5104068517684937, -2.7023677825927734, 0.6461173295974731, -2.991468884099707, -0.030436348732125116, 2.379401914575511], [1.5056630373001099, -2.691723346710205, 0.6574862599372864, -3.026950239661565, -0.018887372037371036, 2.3853600202371195], [1.5009124279022217, -2.6807379722595215, 0.6683984994888306, -3.062494514120766, -0.007557146089266451, 2.391723016476966], [1.4961624145507812, -2.669428586959839, 0.6788423657417297, -3.0981093207156163, 0.003539557324389027, 2.398484382537934], [1.4914205074310303, -2.6578118801116943, 0.6888066530227661, -3.133801769945586, 0.014388330675311704, 2.4056374388621604], [1.486694097518921, -2.645905017852783, 0.6982807517051697, 3.1136068839716304, 0.02497445705452522, 2.413174533695548]], "attachments": [{"parent_name": "", "parent_link_name": "link7", "grasp_pose": [[-1.1920928955078125e-07, 0.2092583179473877, 0.3705001473426819], [-0.4999999403953552, -0.5000000596046448, -0.5, 0.5]], "child_name": "body279"}]}, {"element": 2, "tag": "place_retreat", "path": [[1.486694097518921, -2.645905017852783, 0.6982807517051697, 3.1136068839716304, 0.02497445705452522, 2.413174533695548], [1.4864755868911743, -2.645660161972046, 0.7070245742797852, 3.1136068839716304, 0.02497445705452522, 2.413174533695548], [1.4862570762634277, -2.6454155445098877, 0.7157684564590454, 3.1136068839716304, 0.02497445705452522, 2.413174533695548], [1.4860385656356812, -2.6451706886291504, 0.7245123386383057, 3.1136068839716304, 0.02497445705452522, 2.413174533695548], [1.4858200550079346, -2.644926071166992, 0.7332561016082764, 3.1136068839716304, 0.02497445705452522, 2.413174533695548], [1.485601544380188, -2.644681215286255, 0.7419999837875366, 3.1136068839716304, 0.02497445705452522, 2.413174533695548], [1.4853830337524414, -2.6444363594055176, 0.7507438659667969, 3.1136068839716304, 0.02497445705452522, 2.413174533695548], [1.4851645231246948, -2.6441917419433594, 0.7594876885414124, 3.1136068839716304, 0.02497445705452522, 2.413174533695548], [1.4849460124969482, -2.643946886062622, 0.7682314515113831, 3.1136068826113634, 0.024974458169287603, 2.413174491237622]], "attachments": []}], [{"element": 37, "tag": "place_approach", "path": [[0.8143097162246704, -0.5175809860229492, 0.6249898076057434, 2.8641279458051287, 0.9083100696059626, -1.4759951472970763], [0.8062862753868103, -0.5687591433525085, 0.639149010181427, -3.135199505069011, 0.9095135064114156, -1.801322838986373], [0.8088997602462769, -0.6194172501564026, 0.6518265008926392, -2.873427762281508, 0.8564027025363784, -2.1049521275265524], [0.8217955827713013, -0.6674380898475647, 0.6627935171127319, -2.6633681417184523, 0.7596690675048244, -2.3580972941188443], [0.844204843044281, -0.710810661315918, 0.671890139579773, -2.5074683656258676, 0.6328824819081024, -2.559248663174314], [0.8749747276306152, -0.7477113008499146, 0.6790322661399841, -2.395501620034117, 0.48677682184603027, -2.719753491194259], [0.9126158952713013, -0.776577353477478, 0.6842139363288879, -2.3164564980427587, 0.3284672439258041, -2.852043655350907]], "attachments": [{"parent_name": "", "parent_link_name": "link7", "grasp_pose": [[-1.1920928955078125e-07, -0.10883641242980957, 0.37049996852874756], [0.5000000596046448, 0.5, 0.5000000596046448, -0.5]], "child_name": "body314"}]}, {"element": 37, "tag": "place_retreat", "path": [[0.9126158952713013, -0.776577353477478, 0.6842139363288879, -2.3164564980427587, 0.3284672439258041, -2.852043655350907], [0.9093899726867676, -0.7835310101509094, 0.6906358003616333, -2.3164564980427587, 0.3284672439258041, -2.852043655350907], [0.9061640501022339, -0.7904846668243408, 0.6970576643943787, -2.3164564980427587, 0.3284672439258041, -2.852043655350907], [0.9029381275177002, -0.7974383234977722, 0.703479528427124, -2.3164564980427587, 0.3284672439258041, -2.852043655350907], [0.8997122049331665, -0.8043919205665588, 0.7099013328552246, -2.3164564980427587, 0.3284672439258041, -2.852043655350907], [0.8964862823486328, -0.8113455772399902, 0.71632319688797, -2.3164564980427587, 0.3284672439258041, -2.852043655350907], [0.8932603597640991, -0.8182992339134216, 0.7227450609207153, -2.3164564980427587, 0.3284672439258041, -2.852043655350907], [0.8900344371795654, -0.825252890586853, 0.7291669249534607, -2.316456497011359, 0.3284672304585808, -2.8520436495288837]], "attachments": []}], [{"element": 35, "tag": "place_approach", "path": [[1.059388279914856, -0.6013487577438354, 0.6155945062637329, -2.9206963380036006, 0.5052711839035374, -1.4575167337999972], [1.1152697801589966, -0.59366375207901, 0.6644116640090942, -2.9426899547904206, 0.34299401883135683, -1.3764665779533054], [1.1787968873977661, -0.5884480476379395, 0.7043492197990417, -2.950385118434965, 0.1796565875669161, -1.3025024119077058], [1.248216152191162, -0.5858542919158936, 0.7341964244842529, -2.945919298136157, 0.016210793813957975, -1.230971416318373], [1.32158625125885, -0.5859515070915222, 0.7530640363693237, -2.929661213600347, -0.14649025509386548, -1.1579405784876946], [1.3968409299850464, -0.5887234210968018, 0.7604122161865234, -2.90042637342115, -0.3075024795788101, -1.079370169978719], [1.4718536138534546, -0.594068169593811, 0.7560676336288452, -2.8552417757980093, -0.4655792901864664, -0.9903113304002575]], "attachments": [{"parent_name": "", "parent_link_name": "link7", "grasp_pose": [[-3.129243850708008e-07, 0.13322532176971436, 0.37049973011016846], [-0.5000001788139343, -0.5000002384185791, -0.5, 0.5]], "child_name": "body312"}]}, {"element": 35, "tag": "place_retreat", "path": [[1.4718536138534546, -0.594068169593811, 0.7560676336288452, -2.8552417757980093, -0.4655792901864664, -0.9903113304002575], [1.475781798362732, -0.596276581287384, 0.7635679244995117, -2.8552417757980093, -0.4655792901864664, -0.9903113304002575], [1.4797101020812988, -0.598484992980957, 0.7710682153701782, -2.8552417757980093, -0.4655792901864664, -0.9903113304002575], [1.4836382865905762, -0.60069340467453, 0.7785685062408447, -2.8552417757980093, -0.4655792901864664, -0.9903113304002575], [1.4875664710998535, -0.602901816368103, 0.7860687971115112, -2.8552417757980093, -0.4655792901864664, -0.9903113304002575], [1.4914947748184204, -0.605110228061676, 0.7935690879821777, -2.8552417757980093, -0.4655792901864664, -0.9903113304002575], [1.4954229593276978, -0.607318639755249, 0.8010693788528442, -2.8552417757980093, -0.4655792901864664, -0.9903113304002575], [1.4993512630462646, -0.609527051448822, 0.8085696697235107, -2.8552417757980093, -0.4655792901864664, -0.9903113304002575], [1.503279447555542, -0.611735463142395, 0.8160699605941772, -2.8552417936001175, -0.46557929100105216, -0.9903113879690815]], "attachments": []}], [{"element": 38, "tag": "place_approach", "path": [[0.7793660163879395, -1.033827781677246, 0.6760129332542419, -3.1359274832526016, 0.8915585050281759, -0.6581490550280783], [0.7782272100448608, -0.9461507797241211, 0.7150951027870178, 2.8461016649744417, 0.8280257551964548, -0.5124893267594411], [0.7874870300292969, -0.8550023436546326, 0.7366620302200317, 2.5819442336375813, 0.7405513257500923, -0.40856484020050704], [0.8063933253288269, -0.7648419141769409, 0.739982545375824, 2.3501518294721855, 0.6377468001448157, -0.34396221994676046], [0.8337193131446838, -0.6800804138183594, 0.725222110748291, 2.142194497650586, 0.5265701861586659, -0.31253458828719144]], "attachments": [{"parent_name": "", "parent_link_name": "link7", "grasp_pose": [[-1.1920928955078125e-07, -0.19869673252105713, 0.3705001473426819], [0.5, 0.5000000596046448, 0.4999999403953552, -0.4999999403953552]], "child_name": "body315"}]}, {"element": 38, "tag": "place_retreat", "path": [[0.8337193131446838, -0.6800804138183594, 0.725222110748291, 2.142194497650586, 0.5265701861586659, -0.31253458828719144], [0.8293218016624451, -0.6737173795700073, 0.7293131351470947, 2.142194497650586, 0.5265701861586659, -0.31253458828719144], [0.8249242901802063, -0.6673543453216553, 0.733404278755188, 2.142194497650586, 0.5265701861586659, -0.31253458828719144], [0.8205267786979675, -0.6609914302825928, 0.7374953031539917, 2.142194497650586, 0.5265701861586659, -0.31253458828719144], [0.8161292672157288, -0.6546283960342407, 0.7415863275527954, 2.142194497650586, 0.5265701861586659, -0.31253458828719144], [0.8117318153381348, -0.6482653617858887, 0.7456773519515991, 2.142194497650586, 0.5265701861586659, -0.31253458828719144], [0.8073343634605408, -0.6419023275375366, 0.7497684955596924, 2.142194497650586, 0.5265701861586659, -0.31253458828719144], [0.802936851978302, -0.6355394124984741, 0.7538595199584961, 2.142194497650586, 0.5265701861586659, -0.31253458828719144], [0.7985393404960632, -0.6291763782501221, 0.7579505443572998, 2.1421944196153517, 0.5265702475755211, -0.3125345013762031]], "attachments": []}], [{"element": 32, "tag": "place_approach", "path": [[1.4347765445709229, -0.9754663705825806, 0.8173816800117493, -1.55342575452625, 0.7578074481310365, -3.129647895605131], [1.401501178741455, -0.9426174163818359, 0.8270594477653503, -1.5818348547371994, 0.8645784564340578, -3.10995259925492], [1.3719240427017212, -0.9073397517204285, 0.8365652561187744, -1.61821025831537, 0.9708589566795024, -3.0819551622183563], [1.3462800979614258, -0.8700443506240845, 0.84581458568573, -1.667752879626509, 1.0763217929549873, -3.040519803804496], [1.3247573375701904, -0.8311653137207031, 0.8547261357307434, -1.741015251958237, 1.1802938266044591, -2.975152979104132], [1.3074954748153687, -0.7911559343338013, 0.8632223010063171, -1.8626023688262965, 1.2811553022517652, -2.861302198568292]], "attachments": [{"parent_name": "", "parent_link_name": "link7", "grasp_pose": [[-2.384185791015625e-07, -0.304146409034729, 0.37050002813339233], [0.5000000596046448, 0.5000000596046448, 0.4999999403953552, -0.4999999403953552]], "child_name": "body309"}]}, {"element": 32, "tag": "place_retreat", "path": [[1.3074954748153687, -0.7911559343338013, 0.8632223010063171, -1.8626023688262965, 1.2811553022517652, -2.861302198568292], [1.299109935760498, -0.7935493588447571, 0.8639412522315979, -1.8626023688262965, 1.2811553022517652, -2.861302198568292], [1.2907243967056274, -0.7959427833557129, 0.8646602034568787, -1.8626023688262965, 1.2811553022517652, -2.861302198568292], [1.2823388576507568, -0.7983362078666687, 0.8653790950775146, -1.8626023688262965, 1.2811553022517652, -2.861302198568292], [1.2739533185958862, -0.8007296323776245, 0.8660980463027954, -1.8626023688262965, 1.2811553022517652, -2.861302198568292], [1.2655677795410156, -0.8031230568885803, 0.8668169975280762, -1.8626023688262965, 1.2811553022517652, -2.861302198568292], [1.257182240486145, -0.8055164813995361, 0.8675358891487122, -1.8626023688262965, 1.2811553022517652, -2.861302198568292], [1.2487967014312744, -0.8079099059104919, 0.8682548403739929, -1.8626023688262965, 1.2811553022517652, -2.861302198568292], [1.2404111623764038, -0.8103033304214478, 0.8689737915992737, -1.8626024237787397, 1.2811552613130175, -2.86130211367216]], "attachments": []}], [{"element": 30, "tag": "place_approach", "path": [[1.2814702987670898, -0.7784213423728943, 0.42733705043792725, 3.0261589188837448, 1.0684694183317436, -0.27785260549655283], [1.317143440246582, -0.7514262199401855, 0.4718874990940094, 2.917214731602603, 0.9140230518852306, -0.21694259639578425], [1.3591660261154175, -0.7246013879776001, 0.5098072290420532, 2.838578900315356, 0.7571800854191004, -0.18896921096312067], [1.4064710140228271, -0.6986981630325317, 0.5402737855911255, 2.774647276553137, 0.5994089250209511, -0.17926487325326818], [1.45784330368042, -0.6744420528411865, 0.5626747608184814, 2.7179495047198436, 0.44147047277926693, -0.18152140573056935], [1.5119519233703613, -0.6525117754936218, 0.5766252279281616, 2.664185632759408, 0.2838791689296061, -0.19292783161696542], [1.5673894882202148, -0.6335206627845764, 0.5819791555404663, 2.610358586154741, 0.127086535968653, -0.2124525550929464]], "attachments": [{"parent_name": "", "parent_link_name": "link7", "grasp_pose": [[0.0, 0.22302138805389404, 0.37049993872642517], [0.5, 0.5000000596046448, 0.5, -0.5000000596046448]], "child_name": "body307"}]}, {"element": 30, "tag": "place_retreat", "path": [[1.5673894882202148, -0.6335206627845764, 0.5819791555404663, 2.610358586154741, 0.127086535968653, -0.2124525550929464], [1.566280484199524, -0.6291236877441406, 0.589462399482727, 2.610358586154741, 0.127086535968653, -0.2124525550929464], [1.565171480178833, -0.6247267127037048, 0.5969456434249878, 2.610358586154741, 0.127086535968653, -0.2124525550929464], [1.564062476158142, -0.620329737663269, 0.6044288873672485, 2.610358586154741, 0.127086535968653, -0.2124525550929464], [1.5629533529281616, -0.6159327030181885, 0.6119121313095093, 2.610358586154741, 0.127086535968653, -0.2124525550929464], [1.5618443489074707, -0.6115357279777527, 0.61939537525177, 2.610358586154741, 0.127086535968653, -0.2124525550929464], [1.5607353448867798, -0.6071387529373169, 0.6268786787986755, 2.610358586154741, 0.127086535968653, -0.2124525550929464], [1.5596263408660889, -0.6027417778968811, 0.634361982345581, 2.610358586154741, 0.127086535968653, -0.2124525550929464], [1.558517336845398, -0.5983448624610901, 0.6418451070785522, 2.61035861129923, 0.12708653051284272, -0.21245255819819878]], "attachments": []}], [{"element": 31, "tag": "place_approach", "path": [[1.6120870113372803, -0.5090643763542175, 0.5450505018234253, 2.4641557160134444, -0.6507302754851724, 0.22018138215159638], [1.6271694898605347, -0.535491943359375, 0.5560329556465149, 2.541320531711842, -0.637707981013686, 0.37061337796408284], [1.638624906539917, -0.5632530450820923, 0.568791389465332, 2.614272857706695, -0.6156877990470857, 0.5174858561853436], [1.6462161540985107, -0.591992974281311, 0.58303302526474, 2.6813060998396385, -0.5853918288968379, 0.659452746291723], [1.6497639417648315, -0.6213425397872925, 0.5984433889389038, 2.74123952208153, -0.5477199818660328, 0.795706219333433], [1.6491482257843018, -0.6509237885475159, 0.6146905422210693, 2.7933978829340465, -0.5036651664437749, 0.9259638786251749]], "attachments": [{"parent_name": "", "parent_link_name": "link7", "grasp_pose": [[-2.384185791015625e-07, 0.20044982433319092, 0.37050002813339233], [-0.5000001192092896, -0.5000000596046448, -0.5000000596046448, 0.5]], "child_name": "body308"}]}, {"element": 31, "tag": "place_retreat", "path": [[1.6491482257843018, -0.6509237885475159, 0.6146905422210693, 2.7933978829340465, -0.5036651664437749, 0.9259638786251749], [1.6533713340759277, -0.6483089923858643, 0.6218940615653992, 2.7933978829340465, -0.5036651664437749, 0.9259638786251749], [1.6575944423675537, -0.6456942558288574, 0.629097580909729, 2.7933978829340465, -0.5036651664437749, 0.9259638786251749], [1.6618175506591797, -0.6430794596672058, 0.6363011598587036, 2.7933978829340465, -0.5036651664437749, 0.9259638786251749], [1.6660406589508057, -0.6404646635055542, 0.6435046792030334, 2.7933978829340465, -0.5036651664437749, 0.9259638786251749], [1.670263648033142, -0.6378499269485474, 0.6507081985473633, 2.7933978829340465, -0.5036651664437749, 0.9259638786251749], [1.674486756324768, -0.6352351307868958, 0.6579117774963379, 2.7933978829340465, -0.5036651664437749, 0.9259638786251749], [1.678709864616394, -0.6326203942298889, 0.6651152968406677, 2.7933978829340465, -0.5036651664437749, 0.9259638786251749], [1.68293297290802, -0.6300055384635925, 0.6723188161849976, 2.7933978235429757, -0.5036651895330339, 0.9259638585827837]], "attachments": []}], [{"element": 7, "tag": "place_approach", "path": [[0.993424117565155, -1.8800570964813232, 0.8212204575538635, -2.819489213164241, 0.9076478192624757, 0.43178144480614566], [1.0201128721237183, -1.9110844135284424, 0.8483073115348816, -2.770791765693398, 0.8045197698266707, 0.41668883104179677], [1.0498394966125488, -1.9415621757507324, 0.8716799020767212, -2.728630395513158, 0.7010510945689632, 0.4095632563703803], [1.082214593887329, -1.971220850944519, 0.8910971879959106, -2.6905508912629807, 0.5974574013857311, 0.4082479011527082], [1.1168160438537598, -1.9998016357421875, 0.9063663482666016, -2.6549501389021435, 0.4938949544005859, 0.4114846845854334], [1.1531949043273926, -2.0270578861236572, 0.9173440933227539, -2.6206918935182704, 0.39049243215781093, 0.4185438385853824], [1.1908810138702393, -2.052760124206543, 0.9239398241043091, -2.5869009912201326, 0.2873661023081822, 0.42903286209390445]], "attachments": [{"parent_name": "", "parent_link_name": "link7", "grasp_pose": [[-2.384185791015625e-07, 0.17891597747802734, 0.3705000877380371], [-0.49999988079071045, -0.5000000596046448, -0.5, 0.5]], "child_name": "body284"}]}, {"element": 7, "tag": "place_retreat", "path": [[1.1908810138702393, -2.052760124206543, 0.9239398241043091, -2.5869009912201326, 0.2873661023081822, 0.42903286209390445], [1.1884009838104248, -2.0571794509887695, 0.9310728311538696, -2.5869009912201326, 0.2873661023081822, 0.42903286209390445], [1.1859210729599, -2.061599016189575, 0.9382058382034302, -2.5869009912201326, 0.2873661023081822, 0.42903286209390445], [1.1834410429000854, -2.066018581390381, 0.9453389644622803, -2.5869009912201326, 0.2873661023081822, 0.42903286209390445], [1.180961012840271, -2.0704381465911865, 0.9524719715118408, -2.5869009912201326, 0.2873661023081822, 0.42903286209390445], [1.178481101989746, -2.074857473373413, 0.9596049785614014, -2.5869009912201326, 0.2873661023081822, 0.42903286209390445], [1.1760010719299316, -2.0792770385742188, 0.9667381048202515, -2.5869009912201326, 0.2873661023081822, 0.42903286209390445], [1.1735211610794067, -2.0836966037750244, 0.973871111869812, -2.5869009912201326, 0.2873661023081822, 0.42903286209390445], [1.1710411310195923, -2.088115930557251, 0.9810041189193726, -2.5869010469916938, 0.28736607853046287, 0.42903287770121135]], "attachments": []}], [{"element": 6, "tag": "place_approach", "path": [[1.8143001794815063, -2.188809633255005, 0.5900956392288208, -2.1828598719834105, -0.7403775385068366, 0.22903479930991144], [1.8199005126953125, -2.1842474937438965, 0.620837926864624, -2.297181014170836, -0.7134664115043564, 0.06979043790654835], [1.821678876876831, -2.179253101348877, 0.6518757939338684, -2.4015528343714716, -0.6737156570274324, -0.08020020306307989], [1.819608449935913, -2.1740286350250244, 0.6827844977378845, -2.494001256529223, -0.6228210177863183, -0.21928115855459074], [1.8137202262878418, -2.168779134750366, 0.7131412029266357, -2.5738921940654387, -0.5625775708726477, -0.3471614792305201], [1.8041019439697266, -2.163710117340088, 0.7425308227539062, -2.6415227604944245, -0.4946884458685945, -0.4645170687926806], [1.7908967733383179, -2.159024953842163, 0.7705532908439636, -2.697698581162819, -0.4206686719583569, -0.572578279232939], [1.7743016481399536, -2.1549203395843506, 0.7968282699584961, -2.7434082075557753, -0.3418165584134568, -0.672817767069693]], "attachments": [{"parent_name": "", "parent_link_name": "link7", "grasp_pose": [[-2.384185791015625e-07, -0.11367714405059814, 0.3705000877380371], [0.5000001788139343, 0.5000000596046448, 0.5000000596046448, -0.4999999403953552]], "child_name": "body283"}]}, {"element": 6, "tag": "place_retreat", "path": [[1.7743016481399536, -2.1549203395843506, 0.7968282699584961, -2.7434082075557753, -0.3418165584134568, -0.672817767069693], [1.777653694152832, -2.1585733890533447, 0.8055126667022705, -2.7434082075557753, -0.3418165584134568, -0.672817767069693], [1.781005620956421, -2.162226676940918, 0.8141970634460449, -2.7434082075557753, -0.3418165584134568, -0.672817767069693], [1.7843576669692993, -2.165879726409912, 0.8228814601898193, -2.7434082075557753, -0.3418165584134568, -0.672817767069693], [1.7877095937728882, -2.1695327758789062, 0.8315658569335938, -2.7434082075557753, -0.3418165584134568, -0.672817767069693], [1.7910616397857666, -2.1731858253479004, 0.8402502536773682, -2.7434082075557753, -0.3418165584134568, -0.672817767069693], [1.7944135665893555, -2.1768391132354736, 0.8489346504211426, -2.7434082075557753, -0.3418165584134568, -0.672817767069693], [1.7977656126022339, -2.1804921627044678, 0.8576191663742065, -2.7434081700230486, -0.34181656284959433, -0.6728177146759342]], "attachments": []}], [{"element": 25, "tag": "place_approach", "path": [[1.7102116346359253, -1.5078561305999756, 0.5687800645828247, -2.2451674975221825, -0.35864824617015717, 2.632894073145593], [1.7458834648132324, -1.464025855064392, 0.6552164554595947, -2.4422666297328615, -0.36020794074371504, 2.4458965681012685], [1.7659839391708374, -1.4063856601715088, 0.7390545606613159, -2.635201614682112, -0.32772280833221107, 2.2631735451037636], [1.7695133686065674, -1.337507963180542, 0.8166444301605225, -2.81614806045558, -0.2637690879714575, 2.0928039996311965], [1.756260871887207, -1.2604994773864746, 0.8846328258514404, -2.9805695900880385, -0.17273850408871552, 1.9396162078358377], [1.7268145084381104, -1.1788545846939087, 0.9401236176490784, -3.1273710951683436, -0.05963033443031836, 1.8050681215442657]], "attachments": [{"parent_name": "", "parent_link_name": "link7", "grasp_pose": [[-1.1920928955078125e-07, 0.2506779432296753, 0.3704999089241028], [0.4999999403953552, 0.5, 0.5, -0.5]], "child_name": "body302"}]}, {"element": 25, "tag": "place_retreat", "path": [[1.7268145084381104, -1.1788545846939087, 0.9401236176490784, -3.1273710951683436, -0.05963033443031836, 1.8050681215442657], [1.7274104356765747, -1.1789965629577637, 0.950104832649231, -3.1273710951683436, -0.05963033443031836, 1.8050681215442657], [1.728006362915039, -1.1791385412216187, 0.9600860476493835, -3.1273710951683436, -0.05963033443031836, 1.8050681215442657], [1.7286022901535034, -1.1792805194854736, 0.9700672626495361, -3.1273710951683436, -0.05963033443031836, 1.8050681215442657], [1.7291983366012573, -1.179422378540039, 0.9800484776496887, -3.1273710951683436, -0.05963033443031836, 1.8050681215442657], [1.7297942638397217, -1.179564356803894, 0.9900296926498413, -3.1273710951683436, -0.05963033443031836, 1.8050681215442657], [1.730390191078186, -1.179706335067749, 1.0000109672546387, -3.1273710951683436, -0.05963033443031836, 1.8050681215442657], [1.7309861183166504, -1.179848313331604, 1.0099921226501465, -3.127371097479022, -0.05963033735341307, 1.8050681214961528]], "attachments": []}], [{"element": 3, "tag": "place_approach", "path": [[1.304918646812439, -2.7506699562072754, 0.8198621273040771, -1.9780747534252696, 0.7218312024915937, 1.6369315443714472], [1.294156789779663, -2.736603260040283, 0.8543350696563721, -2.063911378475452, 0.7437303985455952, 1.6423367336248176], [1.2835582494735718, -2.7192721366882324, 0.8872828483581543, -2.151678768637942, 0.7651992379880391, 1.6504352840920309], [1.2732017040252686, -2.698817253112793, 0.9184443354606628, -2.241531171649553, 0.7860599447983728, 1.6613347619770347], [1.263163447380066, -2.675401449203491, 0.9475706219673157, -2.3336054147597394, 0.8061278224062859, 1.6751226135880735], [1.2535183429718018, -2.649209976196289, 0.9744279980659485, -2.428014013563499, 0.8252106303463501, 1.691859307418426], [1.244337558746338, -2.6204466819763184, 0.9987990856170654, -2.524834541546543, 0.8431113228301829, 1.7115682879102838], [1.235689401626587, -2.5893361568450928, 1.020484209060669, -2.6240972485354814, 0.8596302150241895, 1.7342241774016245], [1.2276378870010376, -2.5561182498931885, 1.0393038988113403, -2.7257746824712457, 0.8745684596860014, 1.7597416255969447], [1.220242977142334, -2.5210487842559814, 1.0550986528396606, -2.8297693342030654, 0.8877330979705363, 1.787964549628212], [1.2135603427886963, -2.4843971729278564, 1.067731499671936, -2.935905344306788, 0.8989419291772919, 1.818656709996162], [1.2076398134231567, -2.446443796157837, 1.0770881175994873, -3.043925879158604, 0.9080301979829424, 1.8515010440618298], [1.2025254964828491, -2.4074788093566895, 1.0830779075622559, 3.1296943615422173, 0.9148579547761669, 1.8860956606276233], [1.198256492614746, -2.367799758911133, 1.0856348276138306, 3.018996284090344, 0.9193147932796838, 1.9219676861372712], [1.1948649883270264, -2.327709436416626, 1.0847176313400269, 2.9076342815534044, 0.9213267529274748, 1.9585856043470653], [1.1923775672912598, -2.287513256072998, 1.080310583114624, 2.7961120020638623, 0.9208598877887857, 1.9953830284853589]], "attachments": [{"parent_name": "", "parent_link_name": "link7", "grasp_pose": [[-3.5762786865234375e-07, 0.3322570323944092, 0.370499849319458], [-0.4999999403953552, -0.5000000596046448, -0.4999999403953552, 0.5000000596046448]], "child_name": "body280"}]}, {"element": 3, "tag": "place_retreat", "path": [[1.1923775672912598, -2.287513256072998, 1.080310583114624, 2.7961120020638623, 0.9208598877887857, 1.9953830284853589], [1.1844162940979004, -2.28546404838562, 1.086004376411438, 2.7961120020638623, 0.9208598877887857, 1.9953830284853589], [1.1764551401138306, -2.283414602279663, 1.091698169708252, 2.7961120020638623, 0.9208598877887857, 1.9953830284853589], [1.1684938669204712, -2.281365394592285, 1.097391963005066, 2.7961120020638623, 0.9208598877887857, 1.9953830284853589], [1.1605327129364014, -2.2793161869049072, 1.1030858755111694, 2.7961120020638623, 0.9208598877887857, 1.9953830284853589], [1.152571439743042, -2.2772669792175293, 1.1087796688079834, 2.7961120020638623, 0.9208598877887857, 1.9953830284853589], [1.1446102857589722, -2.2752175331115723, 1.1144734621047974, 2.7961120020638623, 0.9208598877887857, 1.9953830284853589], [1.1366488933563232, -2.2731683254241943, 1.1201672554016113, 2.7961120020638623, 0.9208598877887857, 1.9953830284853589]], "attachments": []}], [{"element": 4, "tag": "place_approach", "path": [[1.7623255252838135, -2.0971648693084717, 1.0778274536132812, 2.1765764589760987, 0.05323432364692672, 2.744559007117568], [1.7673577070236206, -2.0992369651794434, 1.0753751993179321, 2.164806285384961, -0.005022595071843807, 2.806862100266335], [1.7720800638198853, -2.101689338684082, 1.0730457305908203, 2.156667258163969, -0.06389654229482122, 2.868600730864798], [1.776459813117981, -2.1044933795928955, 1.0708370208740234, 2.1521571105195867, -0.12315971946137315, 2.930198508905274], [1.7804667949676514, -2.1076178550720215, 1.0687453746795654, 2.1513214718821314, -0.182587159639066, 2.9920903993613224], [1.7840735912322998, -2.111029624938965, 1.0667672157287598, 2.1542605390441234, -0.24195061826174424, 3.0547290839141237], [1.7872556447982788, -2.1146931648254395, 1.0648975372314453, 2.1611312043467144, -0.301014034183118, 3.1185914752202533], [1.7899914979934692, -2.1185708045959473, 1.0631303787231445, 2.1721520157605996, -0.3595260451278344, -3.098998966061687], [1.7922632694244385, -2.122623920440674, 1.0614596605300903, 2.1876062191771446, -0.4172131033974457, -3.031125058538855], [1.7940560579299927, -2.1268129348754883, 1.0598782300949097, 2.207845264689878, -0.47377159363173016, -2.960381106703254], [1.7953590154647827, -2.1310954093933105, 1.058377981185913, 2.233287496248581, -0.5288601346305916, -2.886129715677189], [1.7961643934249878, -2.135430097579956, 1.0569508075714111, 2.264415975450026, -0.5820873115093731, -2.807688204736255], [1.7964684963226318, -2.139774799346924, 1.0555874109268188, 2.301761080881531, -0.633005442077783, -2.7243418089541542], [1.7962710857391357, -2.1440868377685547, 1.0542787313461304, 2.3458760627222914, -0.6810980380100101, -2.6353672262548646], [1.7955756187438965, -2.1483240127563477, 1.0530147552490234, 2.3972865904680387, -0.7257754134292775, -2.540081111197442], [1.7943894863128662, -2.152444839477539, 1.0517853498458862, 2.4564120638222353, -0.7663735675922785, -2.437915405183775]], "attachments": [{"parent_name": "", "parent_link_name": "link7", "grasp_pose": [[-4.76837158203125e-07, 0.29198819398880005, 0.3705000877380371], [-0.5000000596046448, -0.5000001788139343, -0.5000000596046448, 0.5000000596046448]], "child_name": "body281"}]}, {"element": 4, "tag": "place_retreat", "path": [[1.7943894863128662, -2.152444839477539, 1.0517853498458862, 2.4564120638222353, -0.7663735675922785, -2.437915405183775], [1.8004579544067383, -2.148455858230591, 1.056666374206543, 2.4564120638222353, -0.7663735675922785, -2.437915405183775], [1.8065261840820312, -2.1444666385650635, 1.0615473985671997, 2.4564120638222353, -0.7663735675922785, -2.437915405183775], [1.8125946521759033, -2.140477418899536, 1.066428542137146, 2.4564120638222353, -0.7663735675922785, -2.437915405183775], [1.8186631202697754, -2.136488437652588, 1.0713095664978027, 2.4564120638222353, -0.7663735675922785, -2.437915405183775], [1.8247313499450684, -2.1324994564056396, 1.0761905908584595, 2.4564120638222353, -0.7663735675922785, -2.437915405183775], [1.8307998180389404, -2.1285102367401123, 1.0810716152191162, 2.4564120638222353, -0.7663735675922785, -2.437915405183775], [1.8368680477142334, -2.124521017074585, 1.085952639579773, 2.4564120638222353, -0.7663735675922785, -2.437915405183775], [1.8429365158081055, -2.1205320358276367, 1.0908337831497192, 2.456412035861647, -0.7663735777608214, -2.437915485881687]], "attachments": []}], [{"element": 5, "tag": "place_approach", "path": [[1.8782074451446533, -2.7250821590423584, 0.9458332061767578, 3.1165408839047584, -0.1448050041774327, -1.0621790744291355], [1.862027883529663, -2.858901023864746, 0.8724513649940491, -2.9424137033211757, -0.21950643010989077, -0.8210316988044198], [1.810840129852295, -2.9688100814819336, 0.7816323041915894, -2.704127333535895, -0.2375954698276137, -0.566463925941748], [1.7300680875778198, -3.0449156761169434, 0.6816798448562622, -2.4694158416358714, -0.19677658848473825, -0.3153204144693757], [1.6278995275497437, -3.0804812908172607, 0.5817497968673706, -2.254298322994325, -0.10207627254039389, -0.08280414313657353]], "attachments": [{"parent_name": "", "parent_link_name": "link7", "grasp_pose": [[0.0, -0.3352482318878174, 0.370499849319458], [0.4999999701976776, 0.5000000596046448, 0.5, -0.5]], "child_name": "body282"}]}, {"element": 5, "tag": "place_retreat", "path": [[1.6278995275497437, -3.0804812908172607, 0.5817497968673706, -2.254298322994325, -0.10207627254039389, -0.08280414313657353], [1.6289185285568237, -3.0881946086883545, 0.5880320072174072, -2.254298322994325, -0.10207627254039389, -0.08280414313657353], [1.6299375295639038, -3.0959079265594482, 0.5943142771720886, -2.254298322994325, -0.10207627254039389, -0.08280414313657353], [1.6309565305709839, -3.103621244430542, 0.60059654712677, -2.254298322994325, -0.10207627254039389, -0.08280414313657353], [1.6319754123687744, -3.1113343238830566, 0.6068788170814514, -2.254298322994325, -0.10207627254039389, -0.08280414313657353], [1.6329944133758545, -3.1190476417541504, 0.613161027431488, -2.254298322994325, -0.10207627254039389, -0.08280414313657353], [1.6340134143829346, -3.126760959625244, 0.6194432973861694, -2.254298322994325, -0.10207627254039389, -0.08280414313657353], [1.6350324153900146, -3.134474277496338, 0.6257255673408508, -2.254298322994325, -0.10207627254039389, -0.08280414313657353]], "attachments": []}], [{"element": 33, "tag": "place_approach", "path": [[0.8623105883598328, -0.5739153027534485, 0.9333087801933289, 2.7577077514650217, 0.7396486024012574, 0.7533486899747778], [0.8998937606811523, -0.5901849269866943, 0.9604790210723877, 2.8732290272130547, 0.6076810640590308, 0.5717638162308479], [0.9447516202926636, -0.6028817892074585, 0.9809263944625854, 2.9515093379301183, 0.4627264784733913, 0.4224090714461688], [0.9952841401100159, -0.6113934516906738, 0.9935530424118042, 3.00186494895776, 0.3098884540437772, 0.29406721493245946], [1.0496796369552612, -0.6152632832527161, 0.9975532293319702, 3.0303250691334815, 0.1525254201962927, 0.17821460222111232], [1.1059819459915161, -0.6142081022262573, 0.9924435615539551, 3.0401615486240217, -0.006950855626230498, 0.06818658493014813]], "attachments": [{"parent_name": "", "parent_link_name": "link7", "grasp_pose": [[-1.1920928955078125e-07, 0.04268568754196167, 0.37050002813339233], [0.5, 0.5000001192092896, 0.5, -0.5]], "child_name": "body310"}]}, {"element": 33, "tag": "place_retreat", "path": [[1.1059819459915161, -0.6142081022262573, 0.9924435615539551, 3.0401615486240217, -0.006950855626230498, 0.06818658493014813], [1.106042742729187, -0.6133221387863159, 1.0011484622955322, 3.0401615486240217, -0.006950855626230498, 0.06818658493014813], [1.1061036586761475, -0.6124361753463745, 1.0098531246185303, 3.0401615486240217, -0.006950855626230498, 0.06818658493014813], [1.1061644554138184, -0.6115501523017883, 1.0185580253601074, 3.0401615486240217, -0.006950855626230498, 0.06818658493014813], [1.1062252521514893, -0.6106641888618469, 1.0272629261016846, 3.0401615486240217, -0.006950855626230498, 0.06818658493014813], [1.1062860488891602, -0.6097782254219055, 1.0359675884246826, 3.0401615486240217, -0.006950855626230498, 0.06818658493014813], [1.106346845626831, -0.6088922023773193, 1.0446724891662598, 3.0401615486240217, -0.006950855626230498, 0.06818658493014813], [1.1064077615737915, -0.6080062389373779, 1.0533772706985474, 3.0401615486240217, -0.006950855626230498, 0.06818658493014813], [1.1064685583114624, -0.6071202754974365, 1.062082052230835, 3.0401615486161364, -0.0069508553938343555, 0.06818658494191703]], "attachments": []}], [{"element": 9, "tag": "place_approach", "path": [[1.0819801092147827, -2.400599718093872, 0.17483948171138763, -1.1469576402863737, -0.28876965443395675, -0.02485932780393673], [1.1746853590011597, -2.4697484970092773, 0.2536829113960266, -1.4241079097470017, -0.5030581845900943, -0.0854836630128982], [1.2675316333770752, -2.499380588531494, 0.35646218061447144, -1.7582222553320483, -0.6908542630083881, -0.2278681877510668], [1.3504459857940674, -2.485750198364258, 0.4720577597618103, -2.1815577214295527, -0.8222285336446382, -0.4739171971558054]], "attachments": [{"parent_name": "", "parent_link_name": "link7", "grasp_pose": [[-3.5762786865234375e-07, -0.3267991542816162, 0.370499849319458], [0.5, 0.5000000596046448, 0.5000001192092896, -0.4999999403953552]], "child_name": "body286"}]}, {"element": 9, "tag": "place_retreat", "path": [[1.3504459857940674, -2.485750198364258, 0.4720577597618103, -2.1815577214295527, -0.8222285336446382, -0.4739171971558054], [1.3568568229675293, -2.490628719329834, 0.47547298669815063, -2.1815577214295527, -0.8222285336446382, -0.4739171971558054], [1.3632676601409912, -2.49550724029541, 0.47888821363449097, -2.1815577214295527, -0.8222285336446382, -0.4739171971558054], [1.3696783781051636, -2.5003857612609863, 0.4823035001754761, -2.1815577214295527, -0.8222285336446382, -0.4739171971558054], [1.3760892152786255, -2.5052642822265625, 0.4857187271118164, -2.1815577214295527, -0.8222285336446382, -0.4739171971558054], [1.3825000524520874, -2.5101430416107178, 0.48913395404815674, -2.1815577214295527, -0.8222285336446382, -0.4739171971558054], [1.3889107704162598, -2.515021562576294, 0.49254918098449707, -2.1815577214295527, -0.8222285336446382, -0.4739171971558054], [1.3953216075897217, -2.51990008354187, 0.4959644079208374, -2.1815577214295527, -0.8222285336446382, -0.4739171971558054], [1.4017324447631836, -2.5247786045074463, 0.49937963485717773, -2.1815577214295527, -0.8222285336446382, -0.4739171971558054]], "attachments": []}], [{"element": 27, "tag": "place_approach", "path": [[1.4700063467025757, -1.2078502178192139, 0.9251105189323425, -2.792404522394116, 0.5106953934197772, 0.3522452524350001], [1.535085916519165, -1.2365723848342896, 0.9455769062042236, -2.730740282804357, 0.37673999704255395, 0.22439197125985216], [1.6055116653442383, -1.2556294202804565, 0.960808277130127, -2.6896633587697094, 0.23706963033266018, 0.11063604826610621], [1.6792675256729126, -1.26430344581604, 0.9705171585083008, -2.665664979306519, 0.09396636243603887, 0.005357152364448479], [1.7542338371276855, -1.2622005939483643, 0.9745878577232361, -2.656874830264717, -0.05081174492369285, -0.09614737869404169]], "attachments": [{"parent_name": "", "parent_link_name": "link7", "grasp_pose": [[-1.1920928955078125e-07, -0.15375936031341553, 0.37049996852874756], [-0.5000000596046448, -0.5000000596046448, -0.5, 0.5]], "child_name": "body304"}]}, {"element": 27, "tag": "place_retreat", "path": [[1.7542338371276855, -1.2622005939483643, 0.9745878577232361, -2.656874830264717, -0.05081174492369285, -0.09614737869404169], [1.7547417879104614, -1.266854166984558, 0.9834244847297668, -2.656874830264717, -0.05081174492369285, -0.09614737869404169], [1.7552496194839478, -1.271507740020752, 0.9922611713409424, -2.656874830264717, -0.05081174492369285, -0.09614737869404169], [1.7557575702667236, -1.2761613130569458, 1.0010977983474731, -2.656874830264717, -0.05081174492369285, -0.09614737869404169], [1.75626540184021, -1.2808148860931396, 1.009934425354004, -2.656874830264717, -0.05081174492369285, -0.09614737869404169], [1.7567733526229858, -1.2854684591293335, 1.0187710523605347, -2.656874830264717, -0.05081174492369285, -0.09614737869404169], [1.7572811841964722, -1.2901220321655273, 1.0276076793670654, -2.656874830264717, -0.05081174492369285, -0.09614737869404169], [1.757789134979248, -1.2947756052017212, 1.0364444255828857, -2.656874830264717, -0.05081174492369285, -0.09614737869404169]], "attachments": []}], [{"element": 26, "tag": "place_approach", "path": [[1.5740821361541748, -1.6086207628250122, 0.9840844869613647, -2.844661233925427, 0.09941964773902118, 0.4136352302857195], [1.5751192569732666, -1.5933446884155273, 0.993066668510437, -2.8847652161564414, 0.08157714939715172, 0.4472350091920264], [1.5767700672149658, -1.577857255935669, 1.0014193058013916, -2.924192956315032, 0.06241862016496203, 0.48004624535988716], [1.5790231227874756, -1.5621988773345947, 1.0091197490692139, -2.9629299703564937, 0.04199601824184708, 0.5120427251693521], [1.5818649530410767, -1.546410322189331, 1.0161464214324951, -3.000968510347183, 0.02036208716907519, 0.5432033480920025], [1.5852805376052856, -1.530532717704773, 1.0224800109863281, -3.0383073111708208, -0.0024299798585128442, 0.5735129471393536], [1.5892536640167236, -1.5146076679229736, 1.0281031131744385, -3.074950960240488, -0.026327608172914515, 0.6029605851758931], [1.5937657356262207, -1.4986768960952759, 1.0330007076263428, -3.1109091871257823, -0.05127787214260306, 0.6315400482455524], [1.5987972021102905, -1.4827815294265747, 1.0371589660644531, 3.1369883794044378, -0.07722944999798848, 0.6592485020847707], [1.604326844215393, -1.466963529586792, 1.0405665636062622, 3.1023519853176578, -0.10413172557921264, 0.6860858085395082], [1.6103322505950928, -1.4512641429901123, 1.0432145595550537, 3.0683434720718883, -0.1319354444175274, 0.7120548900272313], [1.6167895793914795, -1.4357242584228516, 1.0450958013534546, 3.0349358498191625, -0.16059225962243717, 0.7371597446862902], [1.6236733198165894, -1.420384407043457, 1.0462055206298828, 3.002098586348159, -0.19005597852537737, 0.7614056729596568], [1.6309574842453003, -1.4052844047546387, 1.0465407371520996, 2.96979810131346, -0.22028127934976896, 0.7847980183284139], [1.6386146545410156, -1.3904637098312378, 1.0461010932922363, 2.937998024486092, -0.251225032278642, 0.8073436399455557], [1.646615743637085, -1.3759607076644897, 1.0448882579803467, 2.906658846195755, -0.28284530177131256, 0.8290471986877307], [1.6549321413040161, -1.3618130683898926, 1.0429058074951172, 2.8757383801626104, -0.3151017743716878, 0.8499125793559243]], "attachments": [{"parent_name": "", "parent_link_name": "link7", "grasp_pose": [[-2.384185791015625e-07, -0.09833288192749023, 0.37050044536590576], [0.4999999403953552, 0.49999985098838806, 0.5000000596046448, -0.4999999403953552]], "child_name": "body303"}]}, {"element": 26, "tag": "place_retreat", "path": [[1.6549321413040161, -1.3618130683898926, 1.0429058074951172, 2.8757383801626104, -0.3151017743716878, 0.8499125793559243], [1.6576439142227173, -1.359627366065979, 1.050932765007019, 2.8757383801626104, -0.3151017743716878, 0.8499125793559243], [1.6603556871414185, -1.3574416637420654, 1.058959722518921, 2.8757383801626104, -0.3151017743716878, 0.8499125793559243], [1.66306734085083, -1.3552558422088623, 1.0669866800308228, 2.8757383801626104, -0.3151017743716878, 0.8499125793559243], [1.6657791137695312, -1.3530701398849487, 1.075013518333435, 2.8757383801626104, -0.3151017743716878, 0.8499125793559243], [1.6684908866882324, -1.3508844375610352, 1.083040475845337, 2.8757383801626104, -0.3151017743716878, 0.8499125793559243], [1.671202540397644, -1.348698616027832, 1.0910674333572388, 2.8757383801626104, -0.3151017743716878, 0.8499125793559243], [1.6739143133163452, -1.3465129137039185, 1.0990943908691406, 2.8757383801626104, -0.3151017743716878, 0.8499125793559243], [1.6766260862350464, -1.3443272113800049, 1.107121229171753, 2.8757383801626104, -0.3151017743716878, 0.8499125793559243]], "attachments": []}], [{"element": 8, "tag": "place_approach", "path": [[1.1481437683105469, -2.191976547241211, 0.9707686901092529, -2.956169866938031, 1.025239041951789, 0.450209581007299], [1.182300329208374, -2.199479341506958, 1.0137192010879517, -2.9492868355895885, 0.87467176333942, 0.3336822283238195], [1.2237684726715088, -2.1992835998535156, 1.052499771118164, -2.9667210688757044, 0.7245392437956604, 0.23530657368595415], [1.2711347341537476, -2.191199779510498, 1.0855286121368408, -2.999728396800851, 0.5762161080915053, 0.1444356983318343], [1.322780728340149, -2.175312042236328, 1.1114240884780884, -3.044802868183991, 0.430844416100245, 0.05533275324810441], [1.3769384622573853, -2.1519761085510254, 1.1290535926818848, -3.10078695954042, 0.2896066535174325, -0.035792650589094435], [1.4317522048950195, -2.1218085289001465, 1.1375727653503418, 3.11540234499598, 0.1538769248016277, -0.1319316347918696], [1.4853439331054688, -2.0856635570526123, 1.1364541053771973, 3.0365176426818574, 0.025338714449369158, -0.23576689291147726]], "attachments": [{"parent_name": "", "parent_link_name": "link7", "grasp_pose": [[-2.384185791015625e-07, -0.05078291893005371, 0.37049978971481323], [0.5, 0.5, 0.5000001192092896, -0.5000000596046448]], "child_name": "body285"}]}, {"element": 8, "tag": "place_retreat", "path": [[1.4853439331054688, -2.0856635570526123, 1.1364541053771973, 3.0365176426818574, 0.025338714449369158, -0.23576689291147726], [1.4851222038269043, -2.0847461223602295, 1.1451530456542969, 3.0365176426818574, 0.025338714449369158, -0.23576689291147726], [1.4849005937576294, -2.0838286876678467, 1.1538519859313965, 3.0365176426818574, 0.025338714449369158, -0.23576689291147726], [1.484678864479065, -2.082911252975464, 1.162550926208496, 3.0365176426818574, 0.025338714449369158, -0.23576689291147726], [1.4844571352005005, -2.081993818283081, 1.1712498664855957, 3.0365176426818574, 0.025338714449369158, -0.23576689291147726], [1.4842355251312256, -2.0810763835906982, 1.1799488067626953, 3.0365176426818574, 0.025338714449369158, -0.23576689291147726], [1.4840137958526611, -2.0801589488983154, 1.188647747039795, 3.0365176426818574, 0.025338714449369158, -0.23576689291147726], [1.4837921857833862, -2.0792415142059326, 1.1973466873168945, 3.0365176426818574, 0.025338714449369158, -0.23576689291147726], [1.4835704565048218, -2.07832407951355, 1.2060456275939941, 3.0365176439233963, 0.025338714889628113, -0.2357669070238546]], "attachments": []}], [{"element": 12, "tag": "place_approach", "path": [[1.6350432634353638, -1.600022554397583, 0.7557961940765381, 1.1325456818336774, -0.575104266155982, -2.761645283928486], [1.5851975679397583, -1.5039851665496826, 0.8088565468788147, 1.383819725880965, -0.43061189365191405, -2.8361155852223607], [1.531978964805603, -1.4314332008361816, 0.8914570808410645, 1.6327533933744913, -0.30672674978763875, -2.9422038370184], [1.4813849925994873, -1.389823317527771, 0.9957665205001831, 1.8863837141384776, -0.21133136769928137, -3.0732124090211097]], "attachments": [{"parent_name": "", "parent_link_name": "link7", "grasp_pose": [[3.5762786865234375e-07, -0.160081148147583, 0.37049973011016846], [-0.5, -0.5000001192092896, -0.5, 0.5]], "child_name": "body289"}]}, {"element": 12, "tag": "place_retreat", "path": [[1.4813849925994873, -1.389823317527771, 0.9957665205001831, 1.8863837141384776, -0.21133136769928137, -3.0732124090211097], [1.4834825992584229, -1.3805286884307861, 0.9988012313842773, 1.8863837141384776, -0.21133136769928137, -3.0732124090211097], [1.4855802059173584, -1.3712340593338013, 1.0018359422683716, 1.8863837141384776, -0.21133136769928137, -3.0732124090211097], [1.487677812576294, -1.3619394302368164, 1.0048706531524658, 1.8863837141384776, -0.21133136769928137, -3.0732124090211097], [1.489775538444519, -1.352644681930542, 1.00790536403656, 1.8863837141384776, -0.21133136769928137, -3.0732124090211097], [1.4918731451034546, -1.3433500528335571, 1.0109400749206543, 1.8863837141384776, -0.21133136769928137, -3.0732124090211097], [1.4939707517623901, -1.3340554237365723, 1.013974666595459, 1.8863837141384776, -0.21133136769928137, -3.0732124090211097], [1.4960683584213257, -1.3247606754302979, 1.0170094966888428, 1.8863837844111384, -0.21133136716755402, -3.0732124136788905]], "attachments": []}], [{"element": 20, "tag": "place_approach", "path": [[1.5674521923065186, -1.4044526815414429, 1.3283841609954834, -2.9540128101487846, -0.5648231541329766, -0.6982167587112379], [1.5629997253417969, -1.4391734600067139, 1.3398878574371338, -2.7872101718246514, -0.4772481343688638, -0.490531145957689], [1.5499931573867798, -1.472867727279663, 1.348475694656372, -2.6502270337073974, -0.36344469300514076, -0.3100379977475679], [1.528924822807312, -1.5037035942077637, 1.3539705276489258, -2.54124021628882, -0.23032964571977593, -0.15362499353629114], [1.500639796257019, -1.5299756526947021, 1.3563323020935059, -2.4565942701435444, -0.08341698334239787, -0.015927253096108394], [1.4662997722625732, -1.5501773357391357, 1.3556571006774902, -2.392909403485273, 0.07314737914940292, 0.1088305737734629], [1.4273324012756348, -1.5630689859390259, 1.3521754741668701, -2.348051704969978, 0.23624231874538118, 0.22632485419293688]], "attachments": [{"parent_name": "", "parent_link_name": "link7", "grasp_pose": [[-1.1920928955078125e-07, 0.20446139574050903, 0.3704996109008789], [0.5, 0.5, 0.5000001192092896, -0.5]], "child_name": "body297"}]}, {"element": 20, "tag": "place_retreat", "path": [[1.4273324012756348, -1.5630689859390259, 1.3521754741668701, -2.348051704969978, 0.23624231874538118, 0.22632485419293688], [1.425284504890442, -1.5691331624984741, 1.3581416606903076, -2.348051704969978, 0.23624231874538118, 0.22632485419293688], [1.4232364892959595, -1.5751972198486328, 1.3641077280044556, -2.348051704969978, 0.23624231874538118, 0.22632485419293688], [1.4211885929107666, -1.5812612771987915, 1.370073914527893, -2.348051704969978, 0.23624231874538118, 0.22632485419293688], [1.4191405773162842, -1.5873254537582397, 1.3760401010513306, -2.348051704969978, 0.23624231874538118, 0.22632485419293688], [1.4170926809310913, -1.593389630317688, 1.382006287574768, -2.348051704969978, 0.23624231874538118, 0.22632485419293688], [1.4150447845458984, -1.5994536876678467, 1.3879724740982056, -2.348051704969978, 0.23624231874538118, 0.22632485419293688], [1.412996768951416, -1.6055177450180054, 1.3939385414123535, -2.348051704969978, 0.23624231874538118, 0.22632485419293688], [1.4109488725662231, -1.611581802368164, 1.3999046087265015, -2.3480517149377413, 0.23624231968077486, 0.22632487625944772]], "attachments": []}], [{"element": 23, "tag": "place_approach", "path": [[1.5124647617340088, -1.3127278089523315, 1.0233774185180664, 2.811673234054604, -0.4841742167224952, -0.7895379688426951], [1.442704677581787, -1.3332371711730957, 1.0623387098312378, 2.8832433150034635, -0.29981711292975144, -0.6463150193215694], [1.3633971214294434, -1.3488962650299072, 1.0850011110305786, 2.9251179303098094, -0.10832940486345032, -0.5220342070603728], [1.2786078453063965, -1.3588685989379883, 1.0898330211639404, 2.9429212321651352, 0.08667644164644307, -0.40608649261621355]], "attachments": [{"parent_name": "", "parent_link_name": "link7", "grasp_pose": [[-1.7881393432617188e-07, -0.12068867683410645, 0.37050002813339233], [-0.5000000596046448, -0.5000001192092896, -0.5, 0.5]], "child_name": "body300"}]}, {"element": 23, "tag": "place_retreat", "path": [[1.2786078453063965, -1.3588685989379883, 1.0898330211639404, 2.9429212321651352, 0.08667644164644307, -0.40608649261621355], [1.2777421474456787, -1.3569023609161377, 1.0995995998382568, 2.9429212321651352, 0.08667644164644307, -0.40608649261621355], [1.276876449584961, -1.354936122894287, 1.1093660593032837, 2.9429212321651352, 0.08667644164644307, -0.40608649261621355], [1.2760107517242432, -1.3529698848724365, 1.1191325187683105, 2.9429212321651352, 0.08667644164644307, -0.40608649261621355], [1.275145173072815, -1.3510035276412964, 1.1288989782333374, 2.9429212321651352, 0.08667644164644307, -0.40608649261621355], [1.2742794752120972, -1.3490372896194458, 1.1386655569076538, 2.9429212321651352, 0.08667644164644307, -0.40608649261621355], [1.2734137773513794, -1.3470710515975952, 1.1484320163726807, 2.9429212321651352, 0.08667644164644307, -0.40608649261621355], [1.2725480794906616, -1.3451048135757446, 1.1581984758377075, 2.9429212321651352, 0.08667644164644307, -0.40608649261621355]], "attachments": []}], [{"element": 17, "tag": "place_approach", "path": [[1.2509561777114868, -1.6234301328659058, 1.301025390625, 3.083997081669105, -0.08112181465527005, -0.5544258978447381], [1.2833787202835083, -1.6437666416168213, 1.2872400283813477, -3.122363332899006, -0.16050303583676057, -0.6806465121364959], [1.31620454788208, -1.6572788953781128, 1.268653392791748, -3.05509657391587, -0.24870553625415265, -0.8024521524867185], [1.3481965065002441, -1.6635820865631104, 1.2459293603897095, -2.997786628188713, -0.34416899187534117, -0.9211789505055763], [1.378143072128296, -1.6625099182128906, 1.219857931137085, -2.9510017550947167, -0.44542089141612756, -1.0386498589920758], [1.4048943519592285, -1.6541204452514648, 1.1913304328918457, -2.915749146232195, -0.5510486836639826, -1.1572698948494813]], "attachments": [{"parent_name": "", "parent_link_name": "link7", "grasp_pose": [[-3.5762786865234375e-07, -0.1154058575630188, 0.3705000877380371], [-0.5000000596046448, -0.5000000596046448, -0.4999999403953552, 0.5]], "child_name": "body294"}]}, {"element": 17, "tag": "place_retreat", "path": [[1.4048943519592285, -1.6541204452514648, 1.1913304328918457, -2.915749146232195, -0.5510486836639826, -1.1572698948494813], [1.4101301431655884, -1.6560282707214355, 1.1996338367462158, -2.915749146232195, -0.5510486836639826, -1.1572698948494813], [1.4153659343719482, -1.6579360961914062, 1.207937240600586, -2.915749146232195, -0.5510486836639826, -1.1572698948494813], [1.420601725578308, -1.659843921661377, 1.216240644454956, -2.915749146232195, -0.5510486836639826, -1.1572698948494813], [1.4258376359939575, -1.6617517471313477, 1.2245440483093262, -2.915749146232195, -0.5510486836639826, -1.1572698948494813], [1.4310734272003174, -1.6636595726013184, 1.2328474521636963, -2.915749146232195, -0.5510486836639826, -1.1572698948494813], [1.4363092184066772, -1.665567398071289, 1.2411508560180664, -2.915749146232195, -0.5510486836639826, -1.1572698948494813], [1.441545009613037, -1.6674752235412598, 1.249454379081726, -2.9157490984665535, -0.5510487036103933, -1.1572698072895198]], "attachments": []}], [{"element": 34, "tag": "place_approach", "path": [[1.3639951944351196, -0.9070423245429993, 1.0614066123962402, -2.5749120704106163, 0.7926180461271609, -0.9623819520315043], [1.3897839784622192, -0.8584585189819336, 1.1292600631713867, -2.7524261714405016, 0.7136023215688315, -0.9454350682054624], [1.4188722372055054, -0.7985514998435974, 1.1847965717315674, -2.9173225099528506, 0.6336371647356527, -0.9470662041535435], [1.4499880075454712, -0.7294602394104004, 1.226108431816101, -3.0737373209925516, 0.5549037270354586, -0.964019708937108], [1.4817914962768555, -0.6536343693733215, 1.2517682313919067, 3.0582955474367743, 0.4792474175947999, -0.9938592612570912], [1.5129189491271973, -0.5737513899803162, 1.260878562927246, 2.9099519890389, 0.4083038460979157, -1.03475351454861]], "attachments": [{"parent_name": "", "parent_link_name": "link7", "grasp_pose": [[-2.086162567138672e-07, -0.35092318058013916, 0.37049996852874756], [0.5000000596046448, 0.5, 0.5, -0.4999999701976776]], "child_name": "body311"}]}, {"element": 34, "tag": "place_retreat", "path": [[1.5129189491271973, -0.5737513899803162, 1.260878562927246, 2.9099519890389, 0.4083038460979157, -1.03475351454861], [1.5094447135925293, -0.5719077587127686, 1.2686947584152222, 2.9099519890389, 0.4083038460979157, -1.03475351454861], [1.5059704780578613, -0.570064127445221, 1.2765109539031982, 2.9099519890389, 0.4083038460979157, -1.03475351454861], [1.5024962425231934, -0.5682204365730286, 1.2843272686004639, 2.9099519890389, 0.4083038460979157, -1.03475351454861], [1.4990220069885254, -0.566376805305481, 1.2921433448791504, 2.9099519890389, 0.4083038460979157, -1.03475351454861], [1.4955477714538574, -0.5645331740379333, 1.299959659576416, 2.9099519890389, 0.4083038460979157, -1.03475351454861], [1.4920735359191895, -0.562689483165741, 1.307775855064392, 2.9099519890389, 0.4083038460979157, -1.03475351454861], [1.4885993003845215, -0.5608458518981934, 1.3155920505523682, 2.9099519890389, 0.4083038460979157, -1.03475351454861], [1.485125184059143, -0.5590022206306458, 1.3234082460403442, 2.9099519890389, 0.4083038460979157, -1.03475351454861]], "attachments": []}], [{"element": 29, "tag": "place_approach", "path": [[1.5657453536987305, -1.0817973613739014, 1.0600976943969727, -2.962293766120957, -0.5701856409965881, 0.2907636431861479], [1.533423662185669, -1.0899620056152344, 1.0685091018676758, -2.9388471777601963, -0.5139573446520647, 0.3448486896755749], [1.5005085468292236, -1.0964034795761108, 1.0755444765090942, -2.919509394858028, -0.4567525303021994, 0.3958574900357881], [1.4671618938446045, -1.1010994911193848, 1.0811724662780762, -2.9038600267179775, -0.3987684178268157, 0.4443356416259776], [1.433547854423523, -1.104036569595337, 1.0853688716888428, -2.891556612997781, -0.3401746242769276, 0.4907640854624907], [1.3998327255249023, -1.105210781097412, 1.0881173610687256, -2.8823251247694093, -0.28111872687133077, 0.5355705097487706], [1.3661824464797974, -1.1046278476715088, 1.0894091129302979, -2.875951897972322, -0.22173262015562642, 0.5791402171135588], [1.3327630758285522, -1.1023023128509521, 1.0892431735992432, -2.8722774470348407, -0.16213557492348454, 0.6218250612600016], [1.2997392416000366, -1.0982586145401, 1.087626338005066, -2.8711902630069153, -0.10243918313799162, 0.6639517264009578], [1.2672737836837769, -1.0925296545028687, 1.0845732688903809, -2.872623593326998, -0.042750255793532664, 0.7058312445826046], [1.2355263233184814, -1.085157871246338, 1.0801060199737549, -2.8765524766824395, 0.016826391868634678, 0.7477637004531977], [1.2046524286270142, -1.0761940479278564, 1.0742541551589966, -2.8829920161212734, 0.07618512228173166, 0.7900466132454568], [1.174803614616394, -1.0656979084014893, 1.067055106163025, -2.891997161512288, 0.1352159851688385, 0.8329805163648248], [1.146125078201294, -1.053736925125122, 1.058552622795105, -2.9036625527047426, 0.19380303274338131, 0.8768752872958631], [1.1187570095062256, -1.040386438369751, 1.0487985610961914, -2.918124819662138, 0.25181945899688135, 0.9220558316332625], [1.0928313732147217, -1.0257292985916138, 1.0378501415252686, -2.9355632833173986, 0.30912676913858816, 0.9688685015777525]], "attachments": [{"parent_name": "", "parent_link_name": "link7", "grasp_pose": [[0.0, -0.22614538669586182, 0.3704996109008789], [-0.5000001192092896, -0.5000001192092896, -0.5, 0.5]], "child_name": "body306"}]}, {"element": 29, "tag": "place_retreat", "path": [[1.0928313732147217, -1.0257292985916138, 1.0378501415252686, -2.9355632833173986, 0.30912676913858816, 0.9688685015777525], [1.0901694297790527, -1.0274344682693481, 1.0460090637207031, -2.9355632833173986, 0.30912676913858816, 0.9688685015777525], [1.0875073671340942, -1.0291396379470825, 1.0541681051254272, -2.9355632833173986, 0.30912676913858816, 0.9688685015777525], [1.0848454236984253, -1.0308449268341064, 1.0623270273208618, -2.9355632833173986, 0.30912676913858816, 0.9688685015777525], [1.0821833610534668, -1.0325500965118408, 1.070486068725586, -2.9355632833173986, 0.30912676913858816, 0.9688685015777525], [1.0795214176177979, -1.0342552661895752, 1.0786449909210205, -2.9355632833173986, 0.30912676913858816, 0.9688685015777525], [1.076859474182129, -1.0359604358673096, 1.086803913116455, -2.9355632833173986, 0.30912676913858816, 0.9688685015777525], [1.0741974115371704, -1.037665605545044, 1.0949628353118896, -2.9355632833173986, 0.30912676913858816, 0.9688685015777525], [1.0715354681015015, -1.0393707752227783, 1.1031218767166138, -2.9355632902581448, 0.30912678220878803, 0.9688685012867894]], "attachments": []}], [{"element": 11, "tag": "place_approach", "path": [[1.1502759456634521, -1.6053191423416138, 0.9989783763885498, 2.02961403089709, -0.09487384679551923, -2.2402380374898985], [1.1514214277267456, -1.63528573513031, 1.0468642711639404, 2.1650271002271855, -0.11516157014861055, -2.240513318006771], [1.1524001359939575, -1.6706441640853882, 1.0902214050292969, 2.3007801572899234, -0.13530004908861215, -2.2380229726450915], [1.1530730724334717, -1.710729956626892, 1.1283655166625977, 2.4369788870978386, -0.15491771914049207, -2.2327900081923695], [1.153306484222412, -1.7547895908355713, 1.1607105731964111, 2.573713730142951, -0.17364850636920892, -2.2248848712902216], [1.15297532081604, -1.8019952774047852, 1.1867785453796387, 2.7110526248503506, -0.19113862582573996, -2.2144272141302532], [1.151964783668518, -1.8514600992202759, 1.2062095403671265, 2.8490343100332636, -0.20705196572252327, -2.2015864059991257], [1.1501730680465698, -1.9022554159164429, 1.218767762184143, 2.9876635916155125, -0.221077910086113, -2.186583372464926]], "attachments": [{"parent_name": "", "parent_link_name": "link7", "grasp_pose": [[4.76837158203125e-07, 0.06772655248641968, 0.37050020694732666], [-0.5, -0.49999991059303284, -0.4999999701976776, 0.5]], "child_name": "body288"}]}, {"element": 11, "tag": "place_retreat", "path": [[1.1501730680465698, -1.9022554159164429, 1.218767762184143, 2.9876635916155125, -0.221077910086113, -2.186583372464926], [1.1520917415618896, -1.9009464979171753, 1.2272038459777832, 2.9876635916155125, -0.221077910086113, -2.186583372464926], [1.154010534286499, -1.8996375799179077, 1.235640048980713, 2.9876635916155125, -0.221077910086113, -2.186583372464926], [1.1559292078018188, -1.8983286619186401, 1.244076132774353, 2.9876635916155125, -0.221077910086113, -2.186583372464926], [1.1578480005264282, -1.8970197439193726, 1.2525122165679932, 2.9876635916155125, -0.221077910086113, -2.186583372464926], [1.159766674041748, -1.895710825920105, 1.2609483003616333, 2.9876635916155125, -0.221077910086113, -2.186583372464926], [1.1616853475570679, -1.8944019079208374, 1.2693843841552734, 2.9876635916155125, -0.221077910086113, -2.186583372464926], [1.1636041402816772, -1.8930929899215698, 1.2778204679489136, 2.9876635916155125, -0.221077910086113, -2.186583372464926], [1.165522813796997, -1.8917839527130127, 1.2862567901611328, 2.98766359518453, -0.221077915133865, -2.186583375475034]], "attachments": []}], [{"element": 24, "tag": "place_approach", "path": [[2.092186212539673, -1.3060194253921509, 0.9860455989837646, -2.5472502916234174, -0.5264389275855864, 1.7506325068381268], [2.108656644821167, -1.2961543798446655, 0.9591550827026367, -2.591612767969727, -0.6052525746577119, 1.7767979695179958], [2.1224653720855713, -1.2877801656723022, 0.9306566715240479, -2.636029240034815, -0.6849682340991997, 1.800037430064315], [2.1335361003875732, -1.2810463905334473, 0.9008529782295227, -2.681139539864801, -0.7654342752415408, 1.8200597870909072], [2.141820192337036, -1.2760875225067139, 0.8700602054595947, -2.727777955748819, -0.8465018753771525, 1.8363502474057247], [2.147296905517578, -1.273018479347229, 0.8386041522026062, -2.777113185748954, -0.9280161671972045, 1.8480343960588468], [2.1499745845794678, -1.2719364166259766, 0.8068178296089172, -2.8308969597865907, -1.0098017116762774, 1.85363231378394], [2.1498889923095703, -1.2729177474975586, 0.7750369310379028, -2.8919706757788117, -1.0916344141420287, 1.8505557506758659]], "attachments": [{"parent_name": "", "parent_link_name": "link7", "grasp_pose": [[-1.1920928955078125e-07, 0.31578946113586426, 0.3705000877380371], [-0.49999991059303284, -0.5000001192092896, -0.5000001788139343, 0.5]], "child_name": "body301"}]}, {"element": 24, "tag": "place_retreat", "path": [[2.1498889923095703, -1.2729177474975586, 0.7750369310379028, -2.8919706757788117, -1.0916344141420287, 1.8505557506758659], [2.157653331756592, -1.2739143371582031, 0.7789459824562073, -2.8919706757788117, -1.0916344141420287, 1.8505557506758659], [2.1654181480407715, -1.274910807609558, 0.7828549742698669, -2.8919706757788117, -1.0916344141420287, 1.8505557506758659], [2.173182487487793, -1.2759073972702026, 0.7867640256881714, -2.8919706757788117, -1.0916344141420287, 1.8505557506758659], [2.1809473037719727, -1.2769039869308472, 0.790673017501831, -2.8919706757788117, -1.0916344141420287, 1.8505557506758659], [2.1887118816375732, -1.2779005765914917, 0.7945820689201355, -2.8919706757788117, -1.0916344141420287, 1.8505557506758659], [2.196476459503174, -1.2788971662521362, 0.7984911203384399, -2.8919706757788117, -1.0916344141420287, 1.8505557506758659], [2.2042410373687744, -1.2798936367034912, 0.8024001121520996, -2.8919706757788117, -1.0916344141420287, 1.8505557506758659], [2.212005615234375, -1.2808902263641357, 0.8063092231750488, -2.891970858002383, -1.0916344300278518, 1.8505555363903903]], "attachments": []}], [{"element": 10, "tag": "place_approach", "path": [[1.4206169843673706, -2.1288390159606934, 1.1509547233581543, 2.2007338140010653, -0.25812683521089813, -0.9045997843259436], [1.411774754524231, -2.1706278324127197, 1.1927462816238403, 2.4020324559784476, -0.2179197462821731, -0.9446523571093203], [1.4060002565383911, -2.2194743156433105, 1.223273754119873, 2.603313030978058, -0.1863064335731474, -0.9917876091668938], [1.4035887718200684, -2.272686004638672, 1.2413215637207031, 2.8049151512588133, -0.16457236553303853, -1.0441582730725698], [1.4046765565872192, -2.327363967895508, 1.2462660074234009, 3.006853278757518, -0.15361578256384517, -1.0997364322123544], [1.409233808517456, -2.380539894104004, 1.2381031513214111, -3.07426117819194, -0.15389474948736825, -1.1563628184461394]], "attachments": [{"parent_name": "", "parent_link_name": "link7", "grasp_pose": [[1.1920928955078125e-07, -0.16676771640777588, 0.3705000877380371], [-0.49999988079071045, -0.49999988079071045, -0.5, 0.5]], "child_name": "body287"}]}, {"element": 10, "tag": "place_retreat", "path": [[1.409233808517456, -2.380539894104004, 1.2381031513214111, -3.07426117819194, -0.15389474948736825, -1.1563628184461394], [1.410575032234192, -2.3811216354370117, 1.2467302083969116, -3.07426117819194, -0.15389474948736825, -1.1563628184461394], [1.4119163751602173, -2.3817033767700195, 1.255357265472412, -3.07426117819194, -0.15389474948736825, -1.1563628184461394], [1.4132575988769531, -2.3822851181030273, 1.263984203338623, -3.07426117819194, -0.15389474948736825, -1.1563628184461394], [1.4145989418029785, -2.382866859436035, 1.272611141204834, -3.07426117819194, -0.15389474948736825, -1.1563628184461394], [1.4159401655197144, -2.383448600769043, 1.2812381982803345, -3.07426117819194, -0.15389474948736825, -1.1563628184461394], [1.4172813892364502, -2.384030342102051, 1.289865255355835, -3.07426117819194, -0.15389474948736825, -1.1563628184461394], [1.4186227321624756, -2.3846120834350586, 1.298492193222046, -3.07426117819194, -0.15389474948736825, -1.1563628184461394], [1.4199639558792114, -2.3851938247680664, 1.3071191310882568, -3.0742611883821254, -0.15389474503304484, -1.1563628850217762]], "attachments": []}], [{"element": 21, "tag": "place_approach", "path": [[1.1889479160308838, -1.094663143157959, 1.2382184267044067, 3.106237573319396, -0.04236206478338299, 1.1031184586601133], [1.2218555212020874, -1.063207983970642, 1.2061618566513062, 3.022641135196472, -0.1544400998748267, 1.0422602534866772], [1.2480659484863281, -1.03339421749115, 1.167772889137268, 2.9302258374281918, -0.2607707117912089, 0.9705440208564223], [1.2670037746429443, -1.0060383081436157, 1.1240254640579224, 2.8268513640425197, -0.3597448654993939, 0.8862912754659236], [1.2782551050186157, -0.9819018840789795, 1.0760120153427124, 2.7103878416534095, -0.4493348321457377, 0.7877343418603213], [1.28157639503479, -0.961675226688385, 1.0249202251434326, 2.5790676476607617, -0.5270549984154181, 0.6733973047948643]], "attachments": [{"parent_name": "", "parent_link_name": "link7", "grasp_pose": [[-2.384185791015625e-07, 0.22532013058662415, 0.37049996852874756], [0.5, 0.5, 0.5, -0.5]], "child_name": "body298"}]}, {"element": 21, "tag": "place_retreat", "path": [[1.28157639503479, -0.961675226688385, 1.0249202251434326, 2.5790676476607617, -0.5270549984154181, 0.6733973047948643], [1.2866063117980957, -0.957065761089325, 1.0322314500808716, 2.5790676476607617, -0.5270549984154181, 0.6733973047948643], [1.2916362285614014, -0.9524562954902649, 1.039542555809021, 2.5790676476607617, -0.5270549984154181, 0.6733973047948643], [1.296666145324707, -0.9478468298912048, 1.0468536615371704, 2.5790676476607617, -0.5270549984154181, 0.6733973047948643], [1.3016959428787231, -0.9432372450828552, 1.0541647672653198, 2.5790676476607617, -0.5270549984154181, 0.6733973047948643], [1.3067258596420288, -0.9386277794837952, 1.0614759922027588, 2.5790676476607617, -0.5270549984154181, 0.6733973047948643], [1.3117557764053345, -0.9340183138847351, 1.0687870979309082, 2.5790676476607617, -0.5270549984154181, 0.6733973047948643], [1.3167856931686401, -0.929408848285675, 1.0760982036590576, 2.5790676476607617, -0.5270549984154181, 0.6733973047948643]], "attachments": []}], [{"element": 22, "tag": "place_approach", "path": [[1.348667025566101, -1.0192644596099854, 1.2389552593231201, 3.043900799267699, -0.07761937326122217, -0.14718885443161492], [1.2990256547927856, -0.9797659516334534, 1.228073000907898, 2.941567485599091, 0.024330042409275915, -0.2627411533657164], [1.2474743127822876, -0.9491108059883118, 1.210017204284668, 2.8508383819047403, 0.1369347840144897, -0.36823678787731173], [1.195779800415039, -0.928103506565094, 1.1856204271316528, 2.770685739766761, 0.2580993563719993, -0.46529120920526224], [1.145713448524475, -0.9172255992889404, 1.1559268236160278, 2.700141906744119, 0.3860832550170349, -0.5557264384969691], [1.0989924669265747, -0.9166198968887329, 1.122158169746399, 2.638530815668504, 0.5194541338518495, -0.641527396547188], [1.057221531867981, -0.9260852336883545, 1.0856729745864868, 2.585710147489631, 0.6570244479940768, -0.7249633533957821], [1.021840214729309, -0.945083498954773, 1.0479196310043335, 2.542470014409668, 0.7977800406344996, -0.8089578228142508]], "attachments": [{"parent_name": "", "parent_link_name": "link7", "grasp_pose": [[-5.960464477539063e-08, 0.11586570739746094, 0.3704999089241028], [0.5, 0.5, 0.5000000596046448, -0.5000000596046448]], "child_name": "body299"}]}, {"element": 22, "tag": "place_retreat", "path": [[1.021840214729309, -0.945083498954773, 1.0479196310043335, 2.542470014409668, 0.7977800406344996, -0.8089578228142508], [1.0146821737289429, -0.941145658493042, 1.0536863803863525, 2.542470014409668, 0.7977800406344996, -0.8089578228142508], [1.007524013519287, -0.937207818031311, 1.0594531297683716, 2.542470014409668, 0.7977800406344996, -0.8089578228142508], [1.000365972518921, -0.9332699775695801, 1.0652198791503906, 2.542470014409668, 0.7977800406344996, -0.8089578228142508], [0.9932079315185547, -0.9293322563171387, 1.0709867477416992, 2.542470014409668, 0.7977800406344996, -0.8089578228142508], [0.9860498905181885, -0.9253944158554077, 1.0767533779144287, 2.542470014409668, 0.7977800406344996, -0.8089578228142508], [0.9788917303085327, -0.9214565753936768, 1.0825202465057373, 2.542470014409668, 0.7977800406344996, -0.8089578228142508], [0.9717336893081665, -0.9175187349319458, 1.0882868766784668, 2.542470014409668, 0.7977800406344996, -0.8089578228142508]], "attachments": []}], [{"element": 16, "tag": "place_approach", "path": [[0.5942701101303101, -1.9709696769714355, 1.2656786441802979, -2.538085459718719, 0.6377847847095085, -0.3004263551791279], [0.637874960899353, -1.9491972923278809, 1.3153958320617676, -2.652857147399126, 0.5046353117579179, -0.15298486051318494], [0.6886860132217407, -1.9278309345245361, 1.35641348361969, -2.738605063889761, 0.3598158701975379, -0.031748995828967015], [0.7450253963470459, -1.9074287414550781, 1.387618899345398, -2.8023283838440127, 0.20722682937780026, 0.07133870162081377], [0.8050264716148376, -1.8885164260864258, 1.4082343578338623, -2.848819563539534, 0.04944306012842906, 0.16251251381023668]], "attachments": [{"parent_name": "", "parent_link_name": "link7", "grasp_pose": [[-1.1920928955078125e-07, 0.004166960716247559, 0.370499849319458], [0.5, 0.5, 0.5000001192092896, -0.5]], "child_name": "body293"}]}, {"element": 16, "tag": "place_retreat", "path": [[0.8050264716148376, -1.8885164260864258, 1.4082343578338623, -2.848819563539534, 0.04944306012842906, 0.16251251381023668], [0.8045322299003601, -1.8913990259170532, 1.4177970886230469, -2.848819563539534, 0.04944306012842906, 0.16251251381023668], [0.8040380477905273, -1.8942815065383911, 1.4273600578308105, -2.848819563539534, 0.04944306012842906, 0.16251251381023668], [0.8035438060760498, -1.8971641063690186, 1.4369227886199951, -2.848819563539534, 0.04944306012842906, 0.16251251381023668], [0.8030495643615723, -1.900046706199646, 1.4464855194091797, -2.848819563539534, 0.04944306012842906, 0.16251251381023668], [0.8025553226470947, -1.9029293060302734, 1.4560482501983643, -2.848819563539534, 0.04944306012842906, 0.16251251381023668], [0.802061140537262, -1.9058117866516113, 1.4656109809875488, -2.848819563539534, 0.04944306012842906, 0.16251251381023668], [0.8015668988227844, -1.9086943864822388, 1.4751737117767334, -2.8488195344035474, 0.04944306608694071, 0.1625125121950963]], "attachments": []}], [{"element": 28, "tag": "place_approach", "path": [[1.7320154905319214, -0.9957643747329712, 1.5106109380722046, -2.467341531617161, -0.19654960330457374, 0.03569557612986747], [1.7217551469802856, -0.8699488639831543, 1.5059703588485718, -2.767778440223605, -0.16158056675946117, 0.08712187340580971], [1.7191393375396729, -0.7502767443656921, 1.4633883237838745, -3.068363061717343, -0.1431605384233509, 0.14649653521430203], [1.7236039638519287, -0.6484561562538147, 1.3866456747055054, 2.914084954347277, -0.1429522029247117, 0.2086396655277818], [1.7338855266571045, -0.5744324922561646, 1.282898187637329, 2.613494756246298, -0.1609747384671022, 0.26813533475353707]], "attachments": [{"parent_name": "", "parent_link_name": "link7", "grasp_pose": [[-1.1920928955078125e-07, 0.21255779266357422, 0.3705000877380371], [0.5, 0.5, 0.5, -0.5000000596046448]], "child_name": "body305"}]}, {"element": 28, "tag": "place_retreat", "path": [[1.7338855266571045, -0.5744324922561646, 1.282898187637329, 2.613494756246298, -0.1609747384671022, 0.26813533475353707], [1.7352880239486694, -0.5700803995132446, 1.2903584241867065, 2.613494756246298, -0.1609747384671022, 0.26813533475353707], [1.7366904020309448, -0.5657284259796143, 1.297818660736084, 2.613494756246298, -0.1609747384671022, 0.26813533475353707], [1.7380928993225098, -0.5613763332366943, 1.3052788972854614, 2.613494756246298, -0.1609747384671022, 0.26813533475353707], [1.7394953966140747, -0.5570242404937744, 1.3127391338348389, 2.613494756246298, -0.1609747384671022, 0.26813533475353707], [1.74089777469635, -0.552672266960144, 1.3201994895935059, 2.613494756246298, -0.1609747384671022, 0.26813533475353707], [1.742300271987915, -0.5483201742172241, 1.3276597261428833, 2.613494756246298, -0.1609747384671022, 0.26813533475353707], [1.7437026500701904, -0.5439680814743042, 1.3351199626922607, 2.613494756246298, -0.1609747384671022, 0.26813533475353707], [1.7451051473617554, -0.5396161079406738, 1.3425801992416382, 2.613494757060144, -0.160974745592735, 0.2681353328858372]], "attachments": []}], [{"element": 14, "tag": "place_approach", "path": [[1.6238727569580078, -2.4607319831848145, 1.4437942504882812, -2.5632213376987387, 0.2497282059199966, -1.2409624522368978], [1.6404236555099487, -2.46990704536438, 1.4134584665298462, -2.5760639564842416, 0.16543861601531593, -1.077505463225399], [1.6506842374801636, -2.479893207550049, 1.3802136182785034, -2.5748612644382427, 0.08022620204135036, -0.9168456613929222], [1.6542316675186157, -2.4900591373443604, 1.3450744152069092, -2.560062373446971, -0.0037021232007199314, -0.7566047935988396], [1.6508643627166748, -2.4997692108154297, 1.3091188669204712, -2.531976309392562, -0.08417389204030762, -0.5945625158539435], [1.6406093835830688, -2.5084009170532227, 1.2734516859054565, -2.4908610245344853, -0.15899202586109518, -0.4287643661291267], [1.6237205266952515, -2.5153696537017822, 1.2391680479049683, -2.4370926526706884, -0.22591341514563273, -0.2576644967787382]], "attachments": [{"parent_name": "", "parent_link_name": "link7", "grasp_pose": [[0.0, -0.2384486198425293, 0.3705000877380371], [0.4999999403953552, 0.5000000596046448, 0.4999999403953552, -0.4999999403953552]], "child_name": "body291"}]}, {"element": 14, "tag": "place_retreat", "path": [[1.6237205266952515, -2.5153696537017822, 1.2391680479049683, -2.4370926526706884, -0.22591341514563273, -0.2576644967787382], [1.6259604692459106, -2.521681547164917, 1.246593713760376, -2.4370926526706884, -0.22591341514563273, -0.2576644967787382], [1.6282004117965698, -2.527993679046631, 1.2540194988250732, -2.4370926526706884, -0.22591341514563273, -0.2576644967787382], [1.630440354347229, -2.5343055725097656, 1.2614452838897705, -2.4370926526706884, -0.22591341514563273, -0.2576644967787382], [1.6326804161071777, -2.5406174659729004, 1.2688709497451782, -2.4370926526706884, -0.22591341514563273, -0.2576644967787382], [1.634920358657837, -2.546929359436035, 1.2762967348098755, -2.4370926526706884, -0.22591341514563273, -0.2576644967787382], [1.637160301208496, -2.553241491317749, 1.2837224006652832, -2.4370926526706884, -0.22591341514563273, -0.2576644967787382], [1.6394002437591553, -2.559553384780884, 1.2911481857299805, -2.4370926526706884, -0.22591341514563273, -0.2576644967787382]], "attachments": []}], [{"element": 19, "tag": "place_approach", "path": [[0.7460061311721802, -1.3810937404632568, 1.3614883422851562, 2.733399663351871, 0.831766226097289, 0.937002083345641], [0.7646440863609314, -1.3725664615631104, 1.3919482231140137, 2.7971542233891467, 0.7008403482945706, 0.9855732146089158], [0.7881222367286682, -1.3687796592712402, 1.4218498468399048, 2.8625366898312015, 0.5724421833021129, 1.0395001064276246], [0.8159318566322327, -1.370002269744873, 1.4502170085906982, 2.9309977077629403, 0.4472283113945546, 1.098899271848863], [0.8474439382553101, -1.3763642311096191, 1.4761158227920532, 3.003809947059625, 0.3259828835742303, 1.1642703553080775], [0.8819267749786377, -1.3878517150878906, 1.4986810684204102, 3.0822047442623113, 0.20965362634535578, 1.236365861118804], [0.918566107749939, -1.4043097496032715, 1.5171406269073486, -3.1157655705852463, 0.09939049298554753, 1.31610883481056]], "attachments": [{"parent_name": "", "parent_link_name": "link7", "grasp_pose": [[-2.384185791015625e-07, -0.22746539115905762, 0.370499849319458], [0.5, 0.5, 0.5000000596046448, -0.5]], "child_name": "body296"}]}, {"element": 19, "tag": "place_retreat", "path": [[0.918566107749939, -1.4043097496032715, 1.5171406269073486, -3.1157655705852463, 0.09939049298554753, 1.31610883481056], [0.9176978468894958, -1.4045345783233643, 1.5258445739746094, -3.1157655705852463, 0.09939049298554753, 1.31610883481056], [0.9168296456336975, -1.404759407043457, 1.5345484018325806, -3.1157655705852463, 0.09939049298554753, 1.31610883481056], [0.9159613847732544, -1.4049842357635498, 1.5432523488998413, -3.1157655705852463, 0.09939049298554753, 1.31610883481056], [0.915093183517456, -1.4052090644836426, 1.551956295967102, -3.1157655705852463, 0.09939049298554753, 1.31610883481056], [0.9142249226570129, -1.405434012413025, 1.5606602430343628, -3.1157655705852463, 0.09939049298554753, 1.31610883481056], [0.9133566617965698, -1.4056588411331177, 1.5693641901016235, -3.1157655705852463, 0.09939049298554753, 1.31610883481056], [0.9124884605407715, -1.4058836698532104, 1.5780680179595947, -3.1157655705852463, 0.09939049298554753, 1.31610883481056], [0.9116201996803284, -1.4061084985733032, 1.5867719650268555, -3.1157655660158654, 0.09939048709561583, 1.3161088346595111]], "attachments": []}], [{"element": 13, "tag": "place_approach", "path": [[0.9711629152297974, -2.3629074096679688, 1.1531829833984375, -1.4906988848970546, 0.49120457743993334, 0.9921557850288519], [0.9673877954483032, -2.3445351123809814, 1.2414028644561768, -1.7128546726666802, 0.5105496718242186, 0.9957159382477565], [0.9643024802207947, -2.3088841438293457, 1.3240562677383423, -1.9374952043503952, 0.5287224822695966, 1.0041621225456636], [0.9622098803520203, -2.2576065063476562, 1.3974989652633667, -2.164614179552685, 0.544791794335537, 1.0172113796285316], [0.9613644480705261, -2.1931164264678955, 1.4585367441177368, -2.3940147574559676, 0.5579066532185214, 1.0343041738930245], [0.9619600772857666, -2.118472099304199, 1.5045801401138306, -2.625288640338537, 0.5673511295178981, 1.054602888231248], [0.9641199111938477, -2.0372276306152344, 1.53377103805542, -2.8578363814632803, 0.5725963700298331, 1.077028896688672]], "attachments": [{"parent_name": "", "parent_link_name": "link7", "grasp_pose": [[0.0, 0.10080629587173462, 0.3704996109008789], [-0.5, -0.5, -0.5000000596046448, 0.5]], "child_name": "body290"}]}, {"element": 13, "tag": "place_retreat", "path": [[0.9641199111938477, -2.0372276306152344, 1.53377103805542, -2.8578363814632803, 0.5725963700298331, 1.077028896688672], [0.9593790769577026, -2.0392866134643555, 1.5408313274383545, -2.8578363814632803, 0.5725963700298331, 1.077028896688672], [0.9546381235122681, -2.0413455963134766, 1.547891616821289, -2.8578363814632803, 0.5725963700298331, 1.077028896688672], [0.9498971700668335, -2.0434043407440186, 1.554951786994934, -2.8578363814632803, 0.5725963700298331, 1.077028896688672], [0.9451563358306885, -2.0454633235931396, 1.5620120763778687, -2.8578363814632803, 0.5725963700298331, 1.077028896688672], [0.9404155015945435, -2.0475223064422607, 1.5690723657608032, -2.8578363814632803, 0.5725963700298331, 1.077028896688672], [0.9356745481491089, -2.049581289291382, 1.5761325359344482, -2.8578363814632803, 0.5725963700298331, 1.077028896688672], [0.9309335947036743, -2.051640272140503, 1.5831928253173828, -2.8578363814632803, 0.5725963700298331, 1.077028896688672], [0.9261927604675293, -2.053699254989624, 1.5902528762817383, -2.8578363246285607, 0.5725963365532689, 1.0770287438809116]], "attachments": []}], [{"element": 15, "tag": "place_approach", "path": [[1.3210155963897705, -1.5530123710632324, 1.6523277759552002, -3.0575726451722662, -0.5356685211206026, -0.4697931460209251], [1.2444392442703247, -1.523195743560791, 1.6622531414031982, 3.11424743210532, -0.3726418729588139, -0.577562722800814], [1.1641803979873657, -1.4995253086090088, 1.6586127281188965, 3.0266093160769882, -0.20085946051797937, -0.6611655757596352], [1.0831069946289062, -1.4830752611160278, 1.6414604187011719, 2.955222681730711, -0.023280399690978323, -0.7278937737716973], [1.0041197538375854, -1.47463059425354, 1.6113879680633545, 2.8950311992649453, 0.1582587645856712, -0.7825259733939286], [0.9300357103347778, -1.474658489227295, 1.5695030689239502, 2.8424975582960057, 0.342572088290659, -0.8281588308763441]], "attachments": [{"parent_name": "", "parent_link_name": "link7", "grasp_pose": [[-3.5762786865234375e-07, 0.11791419982910156, 0.37049949169158936], [0.5, 0.5, 0.5000001192092896, -0.4999999701976776]], "child_name": "body292"}]}, {"element": 15, "tag": "place_retreat", "path": [[0.9300357103347778, -1.474658489227295, 1.5695030689239502, 2.8424975582960057, 0.342572088290659, -0.8281588308763441], [0.9270964860916138, -1.472230076789856, 1.577378749847412, 2.8424975582960057, 0.342572088290659, -0.8281588308763441], [0.9241572618484497, -1.469801664352417, 1.585254430770874, 2.8424975582960057, 0.342572088290659, -0.8281588308763441], [0.9212180376052856, -1.467373251914978, 1.593130111694336, 2.8424975582960057, 0.342572088290659, -0.8281588308763441], [0.9182788133621216, -1.464944839477539, 1.6010057926177979, 2.8424975582960057, 0.342572088290659, -0.8281588308763441], [0.9153395891189575, -1.4625163078308105, 1.6088814735412598, 2.8424975582960057, 0.342572088290659, -0.8281588308763441], [0.9124003648757935, -1.4600878953933716, 1.6167571544647217, 2.8424975582960057, 0.342572088290659, -0.8281588308763441], [0.9094611406326294, -1.4576594829559326, 1.6246328353881836, 2.8424975582960057, 0.342572088290659, -0.8281588308763441], [0.9065219163894653, -1.4552310705184937, 1.632508397102356, 2.842497575958036, 0.34257204744299236, -0.8281588371187185]], "attachments": []}], [{"element": 18, "tag": "place_approach", "path": [[1.6889721155166626, -1.242956280708313, 1.328948974609375, 1.864012090845825, -0.6074939671629478, 0.41917052017035505], [1.6621825695037842, -1.2412352561950684, 1.3913055658340454, 2.029475179941389, -0.5301599969337805, 0.44342470605614365], [1.6332134008407593, -1.24924898147583, 1.4516477584838867, 2.186018533950109, -0.4505534962444293, 0.4522402900223073], [1.6028165817260742, -1.2666875123977661, 1.5084270238876343, 2.3364539402477997, -0.3706938881843069, 0.44735183086544716], [1.5717859268188477, -1.292963981628418, 1.5601999759674072, 2.4832427925692717, -0.2923765106381444, 0.43016165294827413], [1.540934443473816, -1.327229380607605, 1.6056714057922363, 2.6284696378379047, -0.2172546923752736, 0.40177188542937814], [1.5110697746276855, -1.3683993816375732, 1.643731951713562, 2.7738458171580813, -0.14689938943461728, 0.3630740759346837]], "attachments": [{"parent_name": "", "parent_link_name": "link7", "grasp_pose": [[0.0, 0.02375185489654541, 0.37049973011016846], [0.5000001192092896, 0.5, 0.5000001192092896, -0.5000001192092896]], "child_name": "body295"}]}, {"element": 18, "tag": "place_retreat", "path": [[1.5110697746276855, -1.3683993816375732, 1.643731951713562, 2.7738458171580813, -0.14689938943461728, 0.3630740759346837], [1.5123505592346191, -1.3652875423431396, 1.6518089771270752, 2.7738458171580813, -0.14689938943461728, 0.3630740759346837], [1.5136312246322632, -1.3621755838394165, 1.6598860025405884, 2.7738458171580813, -0.14689938943461728, 0.3630740759346837], [1.5149120092391968, -1.359063744544983, 1.6679630279541016, 2.7738458171580813, -0.14689938943461728, 0.3630740759346837], [1.5161927938461304, -1.3559519052505493, 1.6760401725769043, 2.7738458171580813, -0.14689938943461728, 0.3630740759346837], [1.517473578453064, -1.3528400659561157, 1.6841171979904175, 2.7738458171580813, -0.14689938943461728, 0.3630740759346837], [1.5187543630599976, -1.3497282266616821, 1.6921942234039307, 2.7738458171580813, -0.14689938943461728, 0.3630740759346837], [1.5200350284576416, -1.346616268157959, 1.7002712488174438, 2.7738458171580813, -0.14689938943461728, 0.3630740759346837], [1.5213158130645752, -1.3435044288635254, 1.7083481550216675, 2.7738458231118455, -0.14689939197918805, 0.3630740696794673]], "attachments": []}]], "element_from_index": {"0": {"axis_endpoints": [[1.8389072265625, -2.095234130859375, 0.30599462890625], [1.11820263671875, -2.24521044921875, 0.3336180725097656]], "radius": 0.013000000000000001, "goal_pose": {"index": 0, "value": [[1.478554931640625, -2.1702222900390624, 0.3198063507080078], [-0.6900755130933242, -0.0710403160153165, 0.7164559318641313, -0.07375606704623458]]}}, "1": {"axis_endpoints": [[1.805044921875, -2.1039970703125, 0.33319644165039064], [1.57073193359375, -2.8147944335937503, 0.3051123046875]], "radius": 0.013000000000000001, "goal_pose": {"index": 1, "value": [[1.687888427734375, -2.4593957519531253, 0.31915437316894535], [0.583591008834681, 0.4221025621894172, -0.5621027951479192, 0.4065604617856303]]}}, "2": {"axis_endpoints": [[1.60857080078125, -2.7824306640625, 0.3343873291015625], [1.10480615234375, -2.218115234375, 0.3060015869140625]], "radius": 0.013000000000000001, "goal_pose": {"index": 2, "value": [[1.3566884765625, -2.5002729492187497, 0.3201944580078125], [0.6573470733973386, -0.294353306327732, -0.6331431051194029, -0.283515016515258]]}}, "3": {"axis_endpoints": [[1.5133173828125, -2.37012548828125, 0.9080829467773438], [1.09494775390625, -2.26243359375, 0.2843476257324219]], "radius": 0.013000000000000001, "goal_pose": {"index": 3, "value": [[1.304132568359375, -2.316279541015625, 0.5962152862548828], [0.9469196661459697, -0.1199180224121336, -0.2959029804239703, -0.03747318965580428]]}}, "4": {"axis_endpoints": [[1.50328076171875, -2.34380859375, 0.9059247436523438], [1.84380810546875, -2.1199592285156252, 0.2996186218261719]], "radius": 0.013000000000000001, "goal_pose": {"index": 4, "value": [[1.67354443359375, -2.2318839111328126, 0.6027716827392579], [-0.27422817530973514, 0.9163927197594598, 0.08359417385192715, 0.2793480000575752]]}}, "5": {"axis_endpoints": [[1.53127099609375, -2.3490478515625, 0.9057146606445313], [1.5938530273437501, -2.8227646484375, 0.31393780517578124]], "radius": 0.013000000000000001, "goal_pose": {"index": 5, "value": [[1.5625620117187502, -2.58590625, 0.6098262329101563], [0.6215226991798841, 0.7090313051482698, -0.21960018753140229, 0.25051926145521286]]}}, "6": {"axis_endpoints": [[1.37139453125, -1.71581640625, 0.7104258422851563], [1.795337890625, -2.1778466796875002, 0.35243768310546875]], "radius": 0.013000000000000001, "goal_pose": {"index": 6, "value": [[1.5833662109375, -1.9468315429687502, 0.5314317626953124], [0.34803401785576926, 0.7916877966685182, -0.2020642691506031, 0.45964419517051414]]}}, "7": {"axis_endpoints": [[1.37874609375, -1.71797314453125, 0.742196044921875], [1.0702841796875, -2.26767041015625, 0.29437017822265626]], "radius": 0.013000000000000001, "goal_pose": {"index": 7, "value": [[1.22451513671875, -1.99282177734375, 0.5182831115722656], [0.7668059894056021, 0.448993195613923, -0.39584273728882485, 0.2317805260149858]]}}, "8": {"axis_endpoints": [[1.38996630859375, -1.69096240234375, 0.7197224731445313], [1.57577783203125, -2.459907958984375, 0.805553466796875]], "radius": 0.013000000000000001, "goal_pose": {"index": 8, "value": [[1.4828720703125, -2.0754351806640625, 0.7626379699707031], [0.4130938044853069, 0.5248052871731907, -0.46033837698528884, 0.5848260407381585]]}}, "9": {"axis_endpoints": [[0.86496484375, -2.11630615234375, 0.961863525390625], [1.0900122070312501, -2.2875639648437502, 0.2947868347167969]], "radius": 0.013000000000000001, "goal_pose": {"index": 9, "value": [[0.9774885253906251, -2.20193505859375, 0.628325180053711], [0.3131428289573913, 0.9285918077904478, -0.0636355213996468, 0.18870438148920915]]}}, "10": {"axis_endpoints": [[0.8104384765625, -2.12082568359375, 0.972930908203125], [1.592751953125, -2.46013720703125, 0.8284208374023437]], "radius": 0.013000000000000001, "goal_pose": {"index": 10, "value": [[1.20159521484375, -2.2904814453125, 0.9006758728027344], [0.15522080086697318, 0.747963389098487, -0.13112901947771685, 0.631872179952032]]}}, "11": {"axis_endpoints": [[0.7729033203125, -2.159623046875, 0.9602207031250001], [1.472837890625, -1.682138671875, 0.7269422607421875]], "radius": 0.013000000000000001, "goal_pose": {"index": 11, "value": [[1.12287060546875, -1.920880859375, 0.8435814819335938], [-0.23456241438772915, 0.7600681089508361, 0.17870982345605366, 0.5790852635949263]]}}, "12": {"axis_endpoints": [[1.3687802734375, -1.88878125, 1.3809263916015626], [1.41716748046875, -1.674375, 0.6907989501953126]], "radius": 0.013000000000000001, "goal_pose": {"index": 12, "value": [[1.392973876953125, -1.781578125, 1.0358626708984375], [-0.6170364034999622, 0.7718073414645721, 0.09588698872530295, 0.1199382750018314]]}}, "13": {"axis_endpoints": [[1.400380859375, -1.847760986328125, 1.4227966308593751], [0.78013134765625, -2.117133056640625, 0.9277493286132813]], "radius": 0.013000000000000001, "goal_pose": {"index": 13, "value": [[1.090256103515625, -1.982447021484375, 1.1752729797363282], [0.8731775711713726, 0.18142348335936012, -0.4429192603140325, 0.0920270489143749]]}}, "14": {"axis_endpoints": [[1.36416845703125, -1.78398291015625, 1.4402078857421876], [1.5988544921875, -2.44530029296875, 0.8072886962890625]], "radius": 0.013000000000000001, "goal_pose": {"index": 14, "value": [[1.4815114746093752, -2.1146416015625, 1.1237482910156251], [0.5270970285711479, 0.7463580683398231, -0.2344098138952447, 0.3319192604310743]]}}, "15": {"axis_endpoints": [[0.88760498046875, -1.439601806640625, 1.131226806640625], [1.38501220703125, -1.8505668945312501, 1.443579345703125]], "radius": 0.013000000000000001, "goal_pose": {"index": 15, "value": [[1.13630859375, -1.6450843505859376, 1.2874030761718749], [0.1797682425406864, 0.49981794761045945, -0.28675190161334285, 0.7972695561360867]]}}, "16": {"axis_endpoints": [[0.88529638671875, -1.42034619140625, 1.166066162109375], [0.76003173828125, -2.1509443359375, 0.9393640747070313]], "radius": 0.013000000000000001, "goal_pose": {"index": 16, "value": [[0.8226640625, -1.7856452636718751, 1.0527151184082033], [0.6145880396332484, 0.5181819222759056, -0.4547263622218142, 0.3833966255286074]]}}, "17": {"axis_endpoints": [[0.7813759765625, -1.426923828125, 1.190496337890625], [1.46036865234375, -1.674334228515625, 0.7055037841796875]], "radius": 0.013000000000000001, "goal_pose": {"index": 17, "value": [[1.120872314453125, -1.5506290283203126, 0.9480000610351562], [0.15338364946762068, 0.8689658332201621, -0.08178528979767177, 0.4633389721841823]]}}, "18": {"axis_endpoints": [[1.5634111328125, -1.24122412109375, 1.1850654296875], [1.33357763671875, -1.799654541015625, 1.4366578369140626]], "radius": 0.013000000000000001, "goal_pose": {"index": 18, "value": [[1.4484943847656249, -1.5204393310546875, 1.3108616333007812], [-0.46087943300549844, -0.3087030315948042, 0.6912946384171067, -0.4630381295449321]]}}, "19": {"axis_endpoints": [[1.5533349609375, -1.239923583984375, 1.2122452392578125], [0.7954072265625001, -1.4362041015625, 1.1315697021484374]], "radius": 0.013000000000000001, "goal_pose": {"index": 19, "value": [[1.17437109375, -1.3380638427734375, 1.171907470703125], [0.736510709532609, 0.09381958743126413, -0.6645181888227647, 0.08464890124338693]]}}, "20": {"axis_endpoints": [[1.54655322265625, -1.210047119140625, 1.20853955078125], [1.39233056640625, -1.66671142578125, 