{"problem": ["SP_arch.json"], "config": [{"bar_only": false, "stiffness": true, "collision": true, "teleops": false, "partial_ordering": false, "chosen_bars": null}], "write_time": ["2020-12-22 12:15:34.112480"], "parameters": [{"trans_tol": 0.01, "rot_tol": Infinity, "joint_resolution": [0.1, 0.1079, 0.07250000000000001, 0.12248999999999999, 0.09173, 0.37540999999999997, 0.1313], "joint_weight": [10.0, 0.38197097020626436, 0.38197097020626436, 0.38197097020626436, 0.15915457091927682, 0.15915457091927682, 0.12732365673542145], "joint_jump_threshold": 1.0471975511965976, "enable_self_collisions": true, "pos_step_size": 0.002, "ori_step_size": 0.03490658503988659, "retreat_distance": 0.07}], "element_from_index": {"0": {"axis_endpoints": [[0.8610927734375, -0.9047659301757812, 0.30599462890625], [1.58179736328125, -0.7547896118164062, 0.3336180725097656]], "radius": 0.013000000000000001, "goal_pose": {"index": 0, "value": [[1.2214450683593752, -0.8297777709960937, 0.3198063507080078], [-0.07104031601531643, 0.6900755130933242, 0.07375606704623451, 0.7164559318641313]]}}, "1": {"axis_endpoints": [[0.894955078125, -0.8960028686523438, 0.33319644165039064], [1.12926806640625, -0.18520574951171875, 0.3051123046875]], "radius": 0.013000000000000001, "goal_pose": {"index": 1, "value": [[1.012111572265625, -0.5406043090820313, 0.31915437316894535], [-0.4221025347489064, 0.5835910336515959, 0.40656043063239894, 0.562102812520991]]}}, "2": {"axis_endpoints": [[1.09142919921875, -0.21756939697265626, 0.3343873291015625], [1.59519384765625, -0.7818847045898437, 0.3060015869140625]], "radius": 0.013000000000000001, "goal_pose": {"index": 2, "value": [[1.3433115234375, -0.49972705078125, 0.3201944580078125], [0.29435327164631975, 0.6573470906416881, -0.28351498183102775, 0.6331431188707403]]}}, "3": {"axis_endpoints": [[1.1866826171875, -0.6298745727539062, 0.9080829467773438], [1.60505224609375, -0.7375664672851563, 0.2843476257324219]], "radius": 0.013000000000000001, "goal_pose": {"index": 3, "value": [[1.395867431640625, -0.6837205200195313, 0.5962152862548828], [0.11991802241213365, 0.9469196661459697, -0.03747318965580429, 0.2959029804239703]]}}, "4": {"axis_endpoints": [[1.19671923828125, -0.6561913452148438, 0.9059247436523438], [0.85619189453125, -0.8800408325195312, 0.2996186218261719]], "radius": 0.013000000000000001, "goal_pose": {"index": 4, "value": [[1.02645556640625, -0.7681160888671875, 0.6027716827392579], [0.9163926747981519, 0.2742282868166047, -0.2793480245006194, 0.08359421925898862]]}}, "5": {"axis_endpoints": [[1.1687290039062501, -0.6509520874023438, 0.9057146606445313], [1.10614697265625, -0.17723529052734374, 0.31393780517578124]], "radius": 0.013000000000000001, "goal_pose": {"index": 5, "value": [[1.13743798828125, -0.4140936889648438, 0.6098262329101563], [0.7090313051482698, -0.6215226991798839, -0.25051926145521297, -0.21960018753140245]]}}, "6": {"axis_endpoints": [[1.32860546875, -1.2841835937500001, 0.7104258422851563], [0.904662109375, -0.8221535034179688, 0.35243768310546875]], "radius": 0.013000000000000001, "goal_pose": {"index": 6, "value": [[1.1166337890625, -1.0531685485839843, 0.5314317626953124], [0.7916878523140999, -0.3480339490670697, -0.45964417844540406, -0.20206420765765962]]}}, "7": {"axis_endpoints": [[1.32125390625, -1.28202685546875, 0.742196044921875], [1.6297158203125, -0.7323296508789062, 0.29437017822265626]], "radius": 0.013000000000000001, "goal_pose": {"index": 7, "value": [[1.4754848632812498, -1.007178253173828, 0.5182831115722656], [-0.4489931820666735, 0.7668060079345519, 0.23178050768577185, 0.3958427274941966]]}}, "8": {"axis_endpoints": [[1.31003369140625, -1.30903759765625, 0.7197224731445313], [1.12422216796875, -0.5400921020507813, 0.805553466796875]], "radius": 0.013000000000000001, "goal_pose": {"index": 8, "value": [[1.2171279296875, -0.9245648498535157, 0.7626379699707031], [-0.524805288564635, 0.41309379787885875, 0.5848260470196912, 0.46033837334718514]]}}, "9": {"axis_endpoints": [[1.83503515625, -0.8836937866210938, 0.961863525390625], [1.60998779296875, -0.7124360961914062, 0.2947868347167969]], "radius": 0.013000000000000001, "goal_pose": {"index": 9, "value": [[1.722511474609375, -0.79806494140625, 0.628325180053711], [0.9285918704356628, -0.31314267246049343, -0.1887043488051546, -0.06363547428219422]]}}, "10": {"axis_endpoints": [[1.8895615234375, -0.8791744995117188, 0.972930908203125], [1.1072480468750001, -0.5398629760742187, 0.8284208374023437]], "radius": 0.013000000000000001, "goal_pose": {"index": 10, "value": [[1.49840478515625, -0.7095187377929688, 0.9006758728027344], [0.7479633890984873, -0.15522080086697324, -0.631872179952032, -0.13112901947771688]]}}, "11": {"axis_endpoints": [[1.9270966796875, -0.8403771362304687, 0.9602207031250001], [1.227162109375, -1.317861328125, 0.7269422607421875]], "radius": 0.013000000000000001, "goal_pose": {"index": 11, "value": [[1.5771293945312501, -1.0791192321777343, 0.8435814819335938], [0.7600681389126854, 0.23456234932777523, -0.5790852677020208, 0.17870976811053202]]}}, "12": {"axis_endpoints": [[1.3312197265625, -1.11121875, 1.3809263916015626], [1.28283251953125, -1.325625, 0.6907989501953126]], "radius": 0.013000000000000001, "goal_pose": {"index": 12, "value": [[1.307026123046875, -1.218421875, 1.0358626708984375], [0.7718073414645724, 0.6170364034999618, -0.11993827500183146, 0.09588698872530288]]}}, "13": {"axis_endpoints": [[1.299619140625, -1.152239013671875, 1.4227966308593751], [1.91986865234375, -0.8828670043945313, 0.9277493286132813]], "radius": 0.013000000000000001, "goal_pose": {"index": 13, "value": [[1.609743896484375, -1.017553009033203, 1.1752729797363282], [-0.18142344800312474, 0.8731775824765439, 0.09202702902537721, 0.4429192566414766]]}}, "14": {"axis_endpoints": [[1.33583154296875, -1.2160170898437501, 1.4402078857421876], [1.1011455078125, -0.5546997680664063, 0.8072886962890625]], "radius": 0.013000000000000001, "goal_pose": {"index": 14, "value": [[1.218488525390625, -0.8853584289550782, 1.1237482910156251], [0.7463580827720746, -0.5270970224938191, -0.3319192486267907, -0.2344097983233002]]}}, "15": {"axis_endpoints": [[1.81239501953125, -1.5603981933593751, 1.131226806640625], [1.3149877929687501, -1.14943310546875, 1.443579345703125]], "radius": 0.013000000000000001, "goal_pose": {"index": 15, "value": [[1.56369140625, -1.3549156494140626, 1.2874030761718749], [-0.49981794761045945, 0.17976824254068652, 0.7972695561360866, 0.286751901613343]]}}, "16": {"axis_endpoints": [[1.81470361328125, -1.57965380859375, 1.166066162109375], [1.9399682617187501, -0.8490557250976563, 0.9393640747070313]], "radius": 0.013000000000000001, "goal_pose": {"index": 16, "value": [[1.8773359375, -1.214354766845703, 1.0527151184082033], [-0.518181922351063, 0.6145880483988808, 0.3833966164843214, 0.4547263579145003]]}}, "17": {"axis_endpoints": [[1.9186240234375, -1.573076171875, 1.190496337890625], [1.23963134765625, -1.325665771484375, 0.7055037841796875]], "radius": 0.013000000000000001, "goal_pose": {"index": 17, "value": [[1.579127685546875, -1.4493709716796874, 0.9480000610351562], [0.8689658332201621, -0.15338364946762068, -0.4633389721841823, -0.08178528979767176]]}}, "18": {"axis_endpoints": [[1.1365888671875, -1.75877587890625, 1.1850654296875], [1.36642236328125, -1.200345458984375, 1.4366578369140626]], "radius": 0.013000000000000001, "goal_pose": {"index": 18, "value": [[1.2515056152343749, -1.4795606689453125, 1.3108616333007812], [-0.3087030315948043, 0.4608794330054985, 0.4630381295449322, 0.6912946384171066]]}}, "19": {"axis_endpoints": [[1.1466650390625, -1.760076416015625, 1.2122452392578125], [1.9045927734375, -1.5637958984375, 1.1315697021484374]], "radius": 0.013000000000000001, "goal_pose": {"index": 19, "value": [[1.5256289062500001, -1.6619361572265625, 1.171907470703125], [-0.09381958743126412, 0.736510709532609, 0.08464890124338689, 0.6645181888227647]]}}, "20": {"axis_endpoints": [[1.15344677734375, -1.789952880859375, 1.20853955078125], [1.30766943359375, -1.3332885742187501, 0.6914384765625]], "radius": 0.013000000000000001, "goal_pose": {"index": 20, "value": [[1.23055810546875, -1.5616207275390626, 0.9499890136718749], [-0.5425594391283735, 0.7558949628177357, 0.21365451241329295, 0.2976639204285881]]}}, "21": {"axis_endpoints": [[1.51759521484375, -1.947442626953125, 0.6436861572265625], [1.9348681640625, -1.565047607421875, 1.1718502197265626]], "radius": 0.013000000000000001, "goal_pose": {"index": 21, "value": [[1.726231689453125, -1.7562451171875, 0.9077681884765625], [-0.1444719222307787, 0.3714839992883009, 0.33242218949967867, 0.8547648740372719]]}}, "22": {"axis_endpoints": [[1.55139697265625, -1.9851811523437501, 0.6104091796875], [1.1574233398437501, -1.768447021484375, 1.2474320068359375]], "radius": 0.013000000000000001, "goal_pose": {"index": 22, "value": [[1.3544101562500002, -1.8768140869140626, 0.9289205932617187], [-0.29299713527192445, 0.07527309600329371, 0.9231672632020185, 0.2371683872117438]]}}, "23": {"axis_endpoints": [[1.5739580078125, -1.98766162109375, 0.627185791015625], [1.299669921875, -1.3646572265625, 0.7769258422851563]], "radius": 0.013000000000000001, "goal_pose": {"index": 23, "value": [[1.4368139648437501, -1.6761594238281252, 0.7020558166503906], [-0.5247704190488418, 0.3423396310568825, 0.6527538259635698, 0.42583098406417336]]}}, "24": {"axis_endpoints": [[0.8494970703125, -1.7655078125, 0.5501800537109375], [1.188134765625, -1.80897119140625, 1.2339036865234376]], "radius": 0.013000000000000001, "goal_pose": {"index": 24, "value": [[1.01881591796875, -1.787239501953125, 0.8920418701171875], [0.014637796389256712, 0.22903144392524374, -0.062079203422105066, 0.9713271874671591]]}}, "25": {"axis_endpoints": [[0.8480693359375, -1.791342041015625, 0.5610322875976562], [1.629255859375, -1.977425048828125, 0.6103212280273438]], "radius": 0.013000000000000001, "goal_pose": {"index": 25, "value": [[1.23866259765625, -1.884383544921875, 0.5856767578125], [0.07992268716419908, 0.6804272045911215, -0.08497855558797791, 0.7234706824875121]]}}, "26": {"axis_endpoints": [[0.8649121093750001, -1.783397216796875, 0.5386279296875001], [1.314404296875, -1.4210952148437501, 0.7891348876953125]], "radius": 0.013000000000000001, "goal_pose": {"index": 26, "value": [[1.089658203125, -1.6022462158203126, 0.6638814086914062], [-0.1825419441474397, 0.5173515218886098, 0.2781920293615499, 0.7884383528381372]]}}, "27": {"axis_endpoints": [[1.0142060546875, -2.364871337890625, 0.8894747314453125], [0.9444453125, -1.7256962890625, 0.5488614501953125]], "radius": 0.013000000000000001, "goal_pose": {"index": 27, "value": [[0.97932568359375, -2.0452838134765625, 0.7191680908203125], [0.6378495471456327, -0.5720212394332561, -0.3839228159448512, -0.34430063642161407]]}}, "28": {"axis_endpoints": [[0.9889824218750001, -2.35460498046875, 0.8940409545898438], [1.17318603515625, -1.78299072265625, 1.2621291503906251]], "radius": 0.013000000000000001, "goal_pose": {"index": 28, "value": [[1.081084228515625, -2.0687978515625, 1.0780850524902346], [-0.28766168780868473, 0.39492854809330685, 0.5137034171191335, 0.705259522805681]]}}, "29": {"axis_endpoints": [[1.00863330078125, -2.35767333984375, 0.9159215698242188], [1.62514404296875, -1.96275634765625, 0.6322399291992188]], "radius": 0.013000000000000001, "goal_pose": {"index": 29, "value": [[1.3168886718750001, -2.16021484375, 0.7740807495117188], [-0.23184598011412647, 0.7917658246614871, 0.158809113739792, 0.5423412079090217]]}}, "30": {"axis_endpoints": [[1.11560498046875, -2.29905615234375, 0.19089839172363282], [0.9624052734375, -1.691656005859375, 0.570496337890625]], "radius": 0.013000000000000001, "goal_pose": {"index": 30, "value": [[1.039005126953125, -1.9953560791015623, 0.3806973648071289], [-0.3871590361862367, 0.301633878171519, 0.6873058585055851, 0.535476928636943]]}}, "31": {"axis_endpoints": [[1.0962880859375, -2.320944091796875, 0.20150004577636718], [1.64366259765625, -1.9820312500000001, 0.64541943359375]], "radius": 0.013000000000000001, "goal_pose": {"index": 31, "value": [[1.369975341796875, -2.1514876708984376, 0.42345973968505857], [-0.12723470990069777, 0.44719159332110214, 0.2422814278858529, 0.8515460745966783]]}}, "32": {"axis_endpoints": [[1.0944169921875, -2.293925048828125, 0.11403874969482422], [1.02851806640625, -2.312734130859375, 0.9452858276367188]], "radius": 0.013000000000000001, "goal_pose": {"index": 32, "value": [[1.0614675292968752, -2.30332958984375, 0.5296622886657715], [-0.040720322178761904, -0.00569749533085384, 0.9895154274376767, -0.13845075937474866]]}}, "33": {"axis_endpoints": [[1.57684033203125, -2.636026611328125, 0.5944314575195313], [1.6221630859375, -1.97579638671875, 0.6619465942382813]], "radius": 0.013000000000000001, "goal_pose": {"index": 33, "value": [[1.599501708984375, -2.3059114990234377, 0.6281890258789062], [-0.45743087489819084, 0.48990861438527405, 0.5064722461018651, 0.5424319387439394]]}}, "34": {"axis_endpoints": [[1.6180688476562501, -2.654958984375, 0.6006002197265625], [1.015677734375, -2.33529052734375, 0.9437575073242188]], "radius": 0.013000000000000001, "goal_pose": {"index": 34, "value": [[1.3168732910156251, -2.4951247558593748, 0.7721788635253907], [-0.5091119589317693, 0.1267158438202727, 0.8261172440714614, 0.20561713752833452]]}}, "35": {"axis_endpoints": [[1.63050634765625, -2.63213427734375, 0.6011716918945312], [0.959361328125, -2.254823486328125, 0.1385675506591797]], "radius": 0.013000000000000001, "goal_pose": {"index": 35, "value": [[1.294933837890625, -2.4434788818359374, 0.36986962127685546], [0.8419700060616453, -0.22044888839217666, -0.476373867717822, -0.1247266397156989]]}}, "36": {"axis_endpoints": [[1.81882666015625, -2.230328125, 0.07370000457763672], [0.95947216796875, -2.274892333984375, 0.1220379409790039]], "radius": 0.013000000000000001, "goal_pose": {"index": 36, "value": [[1.3891494140625, -2.2526102294921877, 0.09786897277832031], [-0.6867610402902695, -0.017794992919668025, 0.7264215851551749, -0.018822656216879625]]}}, "37": {"axis_endpoints": [[1.7931865234375, -2.2109150390625, 0.09081954193115234], [1.60136767578125, -2.62439013671875, 0.6348921508789063]], "radius": 0.013000000000000001, "goal_pose": {"index": 37, "value": [[1.6972770996093751, -2.417652587890625, 0.3628558464050293], [0.28796491066315616, 0.18385168756688364, -0.7921457720819802, 0.5057468170717567]]}}, "38": {"axis_endpoints": [[1.8206572265625, -2.253904052734375, 0.08450877380371094], [1.64513427734375, -1.99992919921875, 0.6681990966796875]], "radius": 0.013000000000000001, "goal_pose": {"index": 38, "value": [[1.7328957519531252, -2.1269166259765626, 0.3763539352416992], [-0.21330825272335854, 0.111874213842034, 0.8595171274244431, 0.450792698766704]]}}}, "conmech_model": {"model_name": "SP_arch.json", "unit": "meter", "generate_time": "2020-12-22 12:15:37.271329", "node_num": 226, "element_num": 298, "nodes": [{"point": [0.8610927734375, -0.9047659301757812, 0.30599462890625], "node_ind": 0, "is_grounded": false}, {"point": [1.58179736328125, -0.7547896118164062, 0.3336180725097656], "node_ind": 1, "is_grounded": false}, {"point": [0.894955078125, -0.8960028686523438, 0.33319644165039064], "node_ind": 2, "is_grounded": false}, {"point": [1.12926806640625, -0.18520574951171875, 0.3051123046875], "node_ind": 3, "is_grounded": false}, {"point": [1.09142919921875, -0.21756939697265626, 0.3343873291015625], "node_ind": 4, "is_grounded": false}, {"point": [1.59519384765625, -0.7818847045898437, 0.3060015869140625], "node_ind": 5, "is_grounded": false}, {"point": [1.1866826171875, -0.6298745727539062, 0.9080829467773438], "node_ind": 6, "is_grounded": false}, {"point": [1.60505224609375, -0.7375664672851563, 0.2843476257324219], "node_ind": 7, "is_grounded": false}, {"point": [1.19671923828125, -0.6561913452148438, 0.9059247436523438], "node_ind": 8, "is_grounded": false}, {"point": [0.85619189453125, -0.8800408325195312, 0.2996186218261719], "node_ind": 9, "is_grounded": false}, {"point": [1.1687290039062501, -0.6509520874023438, 0.9057146606445313], "node_ind": 10, "is_grounded": false}, {"point": [1.10614697265625, -0.17723529052734374, 0.31393780517578124], "node_ind": 11, "is_grounded": false}, {"point": [1.32860546875, -1.2841835937500001, 0.7104258422851563], "node_ind": 12, "is_grounded": false}, {"point": [0.904662109375, -0.8221535034179688, 0.35243768310546875], "node_ind": 13, "is_grounded": false}, {"point": [1.32125390625, -1.28202685546875, 0.742196044921875], "node_ind": 14, "is_grounded": false}, {"point": [1.6297158203125, -0.7323296508789062, 0.29437017822265626], "node_ind": 15, "is_grounded": false}, {"point": [1.31003369140625, -1.30903759765625, 0.7197224731445313], "node_ind": 16, "is_grounded": false}, {"point": [1.12422216796875, -0.5400921020507813, 0.805553466796875], "node_ind": 17, "is_grounded": false}, {"point": [1.83503515625, -0.8836937866210938, 0.961863525390625], "node_ind": 18, "is_grounded": false}, {"point": [1.60998779296875, -0.7124360961914062, 0.2947868347167969], "node_ind": 19, "is_grounded": false}, {"point": [1.8895615234375, -0.8791744995117188, 0.972930908203125], "node_ind": 20, "is_grounded": false}, {"point": [1.1072480468750001, -0.5398629760742187, 0.8284208374023437], "node_ind": 21, "is_grounded": false}, {"point": [1.9270966796875, -0.8403771362304687, 0.9602207031250001], "node_ind": 22, "is_grounded": false}, {"point": [1.227162109375, -1.317861328125, 0.7269422607421875], "node_ind": 23, "is_grounded": false}, {"point": [1.3312197265625, -1.11121875, 1.3809263916015626], "node_ind": 24, "is_grounded": false}, {"point": [1.28283251953125, -1.325625, 0.6907989501953126], "node_ind": 25, "is_grounded": false}, {"point": [1.299619140625, -1.152239013671875, 1.4227966308593751], "node_ind": 26, "is_grounded": false}, {"point": [1.91986865234375, -0.8828670043945313, 0.9277493286132813], "node_ind": 27, "is_grounded": false}, {"point": [1.33583154296875, -1.2160170898437501, 1.4402078857421876], "node_ind": 28, "is_grounded": false}, {"point": [1.1011455078125, -0.5546997680664063, 0.8072886962890625], "node_ind": 29, "is_grounded": false}, {"point": [1.81239501953125, -1.5603981933593751, 1.131226806640625], "node_ind": 30, "is_grounded": false}, {"point": [1.3149877929687501, -1.14943310546875, 1.443579345703125], "node_ind": 31, "is_grounded": false}, {"point": [1.81470361328125, -1.57965380859375, 1.166066162109375], "node_ind": 32, "is_grounded": false}, {"point": [1.9399682617187501, -0.8490557250976563, 0.9393640747070313], "node_ind": 33, "is_grounded": false}, {"point": [1.9186240234375, -1.573076171875, 1.190496337890625], "node_ind": 34, "is_grounded": false}, {"point": [1.23963134765625, -1.325665771484375, 0.7055037841796875], "node_ind": 35, "is_grounded": false}, {"point": [1.1365888671875, -1.75877587890625, 1.1850654296875], "node_ind": 36, "is_grounded": false}, {"point": [1.36642236328125, -1.200345458984375, 1.4366578369140626], "node_ind": 37, "is_grounded": false}, {"point": [1.1466650390625, -1.760076416015625, 1.2122452392578125], "node_ind": 38, "is_grounded": false}, {"point": [1.9045927734375, -1.5637958984375, 1.1315697021484374], "node_ind": 39, "is_grounded": false}, {"point": [1.15344677734375, -1.789952880859375, 1.20853955078125], "node_ind": 40, "is_grounded": false}, {"point": [1.30766943359375, -1.3332885742187501, 0.6914384765625], "node_ind": 41, "is_grounded": false}, {"point": [1.51759521484375, -1.947442626953125, 0.6436861572265625], "node_ind": 42, "is_grounded": false}, {"point": [1.9348681640625, -1.565047607421875, 1.1718502197265626], "node_ind": 43, "is_grounded": false}, {"point": [1.55139697265625, -1.9851811523437501, 0.6104091796875], "node_ind": 44, "is_grounded": false}, {"point": [1.1574233398437501, -1.768447021484375, 1.2474320068359375], "node_ind": 45, "is_grounded": false}, {"point": [1.5739580078125, -1.98766162109375, 0.627185791015625], "node_ind": 46, "is_grounded": false}, {"point": [1.299669921875, -1.3646572265625, 0.7769258422851563], "node_ind": 47, "is_grounded": false}, {"point": [0.8494970703125, -1.7655078125, 0.5501800537109375], "node_ind": 48, "is_grounded": false}, {"point": [1.188134765625, -1.80897119140625, 1.2339036865234376], "node_ind": 49, "is_grounded": false}, {"point": [0.8480693359375, -1.791342041015625, 0.5610322875976562], "node_ind": 50, "is_grounded": false}, {"point": [1.629255859375, -1.977425048828125, 0.6103212280273438], "node_ind": 51, "is_grounded": false}, {"point": [0.8649121093750001, -1.783397216796875, 0.5386279296875001], "node_ind": 52, "is_grounded": false}, {"point": [1.314404296875, -1.4210952148437501, 0.7891348876953125], "node_ind": 53, "is_grounded": false}, {"point": [1.0142060546875, -2.364871337890625, 0.8894747314453125], "node_ind": 54, "is_grounded": false}, {"point": [0.9444453125, -1.7256962890625, 0.5488614501953125], "node_ind": 55, "is_grounded": false}, {"point": [0.9889824218750001, -2.35460498046875, 0.8940409545898438], "node_ind": 56, "is_grounded": false}, {"point": [1.17318603515625, -1.78299072265625, 1.2621291503906251], "node_ind": 57, "is_grounded": false}, {"point": [1.00863330078125, -2.35767333984375, 0.9159215698242188], "node_ind": 58, "is_grounded": false}, {"point": [1.62514404296875, -1.96275634765625, 0.6322399291992188], "node_ind": 59, "is_grounded": false}, {"point": [1.11560498046875, -2.29905615234375, 0.19089839172363282], "node_ind": 60, "is_grounded": false}, {"point": [0.9624052734375, -1.691656005859375, 0.570496337890625], "node_ind": 61, "is_grounded": false}, {"point": [1.0962880859375, -2.320944091796875, 0.20150004577636718], "node_ind": 62, "is_grounded": false}, {"point": [1.64366259765625, -1.9820312500000001, 0.64541943359375], "node_ind": 63, "is_grounded": false}, {"point": [1.0944169921875, -2.293925048828125, 0.11403874969482422], "node_ind": 64, "is_grounded": false}, {"point": [1.02851806640625, -2.312734130859375, 0.9452858276367188], "node_ind": 65, "is_grounded": false}, {"point": [1.57684033203125, -2.636026611328125, 0.5944314575195313], "node_ind": 66, "is_grounded": false}, {"point": [1.6221630859375, -1.97579638671875, 0.6619465942382813], "node_ind": 67, "is_grounded": false}, {"point": [1.6180688476562501, -2.654958984375, 0.6006002197265625], "node_ind": 68, "is_grounded": false}, {"point": [1.015677734375, -2.33529052734375, 0.9437575073242188], "node_ind": 69, "is_grounded": false}, {"point": [1.63050634765625, -2.63213427734375, 0.6011716918945312], "node_ind": 70, "is_grounded": false}, {"point": [0.959361328125, -2.254823486328125, 0.1385675506591797], "node_ind": 71, "is_grounded": false}, {"point": [1.81882666015625, -2.230328125, 0.07370000457763672], "node_ind": 72, "is_grounded": false}, {"point": [0.95947216796875, -2.274892333984375, 0.1220379409790039], "node_ind": 73, "is_grounded": false}, {"point": [1.7931865234375, -2.2109150390625, 0.09081954193115234], "node_ind": 74, "is_grounded": false}, {"point": [1.60136767578125, -2.62439013671875, 0.6348921508789063], "node_ind": 75, "is_grounded": false}, {"point": [1.8206572265625, -2.253904052734375, 0.08450877380371094], "node_ind": 76, "is_grounded": false}, {"point": [1.64513427734375, -1.99992919921875, 0.6681990966796875], "node_ind": 77, "is_grounded": false}, {"point": [0.8962470703125001, -0.8974503784179688, 0.307342041015625], "node_ind": 78, "is_grounded": false}, {"point": [0.8610927734375, -0.9047659301757812, 0.29299462890625], "node_ind": 79, "is_grounded": false}, {"point": [1.11066455078125, -0.24164007568359375, 0.307342041015625], "node_ind": 80, "is_grounded": false}, {"point": [1.11256396484375, -0.24124481201171877, 0.33319644165039064], "node_ind": 81, "is_grounded": false}, {"point": [1.12926806640625, -0.18520574951171875, 0.2921123046875], "node_ind": 82, "is_grounded": false}, {"point": [1.571404296875, -0.7552359008789062, 0.30734207153320314], "node_ind": 83, "is_grounded": false}, {"point": [1.570796875, -0.7570787963867187, 0.33319644165039064], "node_ind": 84, "is_grounded": false}, {"point": [1.59519384765625, -0.7818847045898437, 0.29300158691406253], "node_ind": 85, "is_grounded": false}, {"point": [1.57699560546875, -0.7303444213867187, 0.32617666625976566], "node_ind": 86, "is_grounded": false}, {"point": [1.582984375, -0.7318860473632812, 0.3172476806640625], "node_ind": 87, "is_grounded": false}, {"point": [1.56470166015625, -0.7477278442382813, 0.3077197265625], "node_ind": 88, "is_grounded": false}, {"point": [1.19277197265625, -0.6314421997070313, 0.8990040893554687], "node_ind": 89, "is_grounded": false}, {"point": [0.88005908203125, -0.8643515014648437, 0.34211383056640626], "node_ind": 90, "is_grounded": false}, {"point": [0.90279052734375, -0.8722343139648437, 0.33225732421875], "node_ind": 91, "is_grounded": false}, {"point": [1.1913046875, -0.6597507934570312, 0.896283935546875], "node_ind": 92, "is_grounded": false}, {"point": [1.10942333984375, -0.20203570556640627, 0.3449190368652344], "node_ind": 93, "is_grounded": false}, {"point": [1.16792236328125, -0.6448438110351563, 0.8980841064453126], "node_ind": 94, "is_grounded": false}, {"point": [0.91760693359375, -0.8272881469726563, 0.33048147583007814], "node_ind": 95, "is_grounded": false}, {"point": [0.9228466796875, -0.8419713745117188, 0.3677929382324219], "node_ind": 96, "is_grounded": false}, {"point": [0.9024873046875, -0.8496080932617188, 0.38204705810546874], "node_ind": 97, "is_grounded": false}, {"point": [1.32915283203125, -1.26795068359375, 0.7307283935546875], "node_ind": 98, "is_grounded": false}, {"point": [1.60747998046875, -0.7719553833007813, 0.3266524047851563], "node_ind": 99, "is_grounded": false}, {"point": [1.62662109375, -0.7378445434570312, 0.29886306762695314], "node_ind": 100, "is_grounded": false}, {"point": [1.3229790039062501, -1.278952880859375, 0.7396917114257813], "node_ind": 101, "is_grounded": false}, {"point": [1.3034477539062501, -1.281783203125, 0.7227646484375], "node_ind": 102, "is_grounded": false}, {"point": [1.15984375, -0.6875048217773437, 0.7890990600585938], "node_ind": 103, "is_grounded": false}, {"point": [1.1390375976562501, -0.6941090698242187, 0.8032229614257813], "node_ind": 104, "is_grounded": false}, {"point": [1.13269189453125, -0.5751417846679687, 0.8016411743164062], "node_ind": 105, "is_grounded": false}, {"point": [1.15793798828125, -0.5692680053710938, 0.8036732788085937], "node_ind": 106, "is_grounded": false}, {"point": [1.3045400390625, -1.286302978515625, 0.7222601318359375], "node_ind": 107, "is_grounded": false}, {"point": [1.32455078125, -1.279764404296875, 0.707001708984375], "node_ind": 108, "is_grounded": false}, {"point": [1.59985400390625, -0.7362284545898438, 0.29209744262695314], "node_ind": 109, "is_grounded": false}, {"point": [1.613232421875, -0.7149052124023437, 0.3044044189453125], "node_ind": 110, "is_grounded": false}, {"point": [1.8448808593750001, -0.8597951049804687, 0.9646774291992187], "node_ind": 111, "is_grounded": false}, {"point": [1.16592041015625, -0.5653106079101563, 0.8392587890625001], "node_ind": 112, "is_grounded": false}, {"point": [1.1600673828125, -0.5853856811523438, 0.8238077392578125], "node_ind": 113, "is_grounded": false}, {"point": [1.11776123046875, -0.5444226684570312, 0.83036279296875], "node_ind": 114, "is_grounded": false}, {"point": [1.877015625, -0.8737329711914062, 0.9706134033203125], "node_ind": 115, "is_grounded": false}, {"point": [1.88309130859375, -0.8703967895507813, 0.9455543823242187], "node_ind": 116, "is_grounded": false}, {"point": [1.3055791015625, -1.2643662109375, 0.7530775756835938], "node_ind": 117, "is_grounded": false}, {"point": [1.2945283203125, -1.271905029296875, 0.7493944702148437], "node_ind": 118, "is_grounded": false}, {"point": [1.3000615234375, -1.267770263671875, 0.7243287963867188], "node_ind": 119, "is_grounded": false}, {"point": [1.844236328125, -0.8969030151367188, 0.9326045532226562], "node_ind": 120, "is_grounded": false}, {"point": [1.828525390625, -0.8787400512695313, 0.9425678710937501], "node_ind": 121, "is_grounded": false}, {"point": [1.28512353515625, -1.315475341796875, 0.723468994140625], "node_ind": 122, "is_grounded": false}, {"point": [1.28687158203125, -1.307728515625, 0.7484044189453125], "node_ind": 123, "is_grounded": false}, {"point": [1.2739599609375, -1.285936279296875, 0.7425393676757812], "node_ind": 124, "is_grounded": false}, {"point": [1.3449912109375, -1.132533935546875, 1.3865830078125], "node_ind": 125, "is_grounded": false}, {"point": [1.8843935546875001, -0.8982736206054688, 0.9560633544921875], "node_ind": 126, "is_grounded": false}, {"point": [1.89298828125, -0.8945409545898437, 0.9492035522460938], "node_ind": 127, "is_grounded": false}, {"point": [1.87969287109375, -0.8727152709960938, 0.9444216918945313], "node_ind": 128, "is_grounded": false}, {"point": [1.32205517578125, -1.1424951171875, 1.4048895263671874], "node_ind": 129, "is_grounded": false}, {"point": [1.3163291015625, -1.16106201171875, 1.3876126708984375], "node_ind": 130, "is_grounded": false}, {"point": [1.12621630859375, -0.5483449096679688, 0.80463232421875], "node_ind": 131, "is_grounded": false}, {"point": [1.1024580078125, -0.5583991088867187, 0.8108291625976562], "node_ind": 132, "is_grounded": false}, {"point": [1.3039501953125001, -1.12617919921875, 1.3542276611328126], "node_ind": 133, "is_grounded": false}, {"point": [1.3291025390625, -1.120599853515625, 1.3507308349609375], "node_ind": 134, "is_grounded": false}, {"point": [1.34525341796875, -1.174438720703125, 1.4245738525390625], "node_ind": 135, "is_grounded": false}, {"point": [1.3265859375, -1.189964111328125, 1.4152738037109376], "node_ind": 136, "is_grounded": false}, {"point": [1.80404052734375, -1.553495849609375, 1.1364730224609376], "node_ind": 137, "is_grounded": false}, {"point": [1.81980810546875, -1.5498828125, 1.156828369140625], "node_ind": 138, "is_grounded": false}, {"point": [1.9348422851562501, -0.8789518432617188, 0.9486407470703125], "node_ind": 139, "is_grounded": false}, {"point": [1.82256787109375, -1.53378564453125, 1.15183349609375], "node_ind": 140, "is_grounded": false}, {"point": [1.8346367187500001, -1.542472900390625, 1.130505615234375], "node_ind": 141, "is_grounded": false}, {"point": [1.27187744140625, -1.33741552734375, 0.7285366210937501], "node_ind": 142, "is_grounded": false}, {"point": [1.284953125, -1.31623046875, 0.7210381469726562], "node_ind": 143, "is_grounded": false}, {"point": [1.82538818359375, -1.53910302734375, 1.123899658203125], "node_ind": 144, "is_grounded": false}, {"point": [1.3584262695312501, -1.2197734375, 1.4279049072265626], "node_ind": 145, "is_grounded": false}, {"point": [1.36209765625, -1.18835595703125, 1.4139962158203125], "node_ind": 146, "is_grounded": false}, {"point": [1.14111474609375, -1.74777880859375, 1.19002001953125], "node_ind": 147, "is_grounded": false}, {"point": [1.81402490234375, -1.587250244140625, 1.1412099609375], "node_ind": 148, "is_grounded": false}, {"point": [1.86715478515625, -1.5734912109375, 1.1355546875], "node_ind": 149, "is_grounded": false}, {"point": [1.86350341796875, -1.5529912109375, 1.15112451171875], "node_ind": 150, "is_grounded": false}, {"point": [1.15412060546875, -1.758145751953125, 1.21145166015625], "node_ind": 151, "is_grounded": false}, {"point": [1.15749658203125, -1.7779602050781251, 1.194959716796875], "node_ind": 152, "is_grounded": false}, {"point": [1.29701708984375, -1.364831298828125, 0.7271557006835938], "node_ind": 153, "is_grounded": false}, {"point": [1.2926586914062501, -1.34498779296875, 0.7433802490234375], "node_ind": 154, "is_grounded": false}, {"point": [1.1607841796875, -1.768225341796875, 1.1839365234375], "node_ind": 155, "is_grounded": false}, {"point": [1.9115922851562501, -1.586377685546875, 1.14238916015625], "node_ind": 156, "is_grounded": false}, {"point": [1.52373095703125, -1.96996142578125, 0.655142578125], "node_ind": 157, "is_grounded": false}, {"point": [1.1731552734375, -1.7771015625, 1.22199462890625], "node_ind": 158, "is_grounded": false}, {"point": [1.1661787109375, -1.7550229492187501, 1.210168212890625], "node_ind": 159, "is_grounded": false}, {"point": [1.1774052734375, -1.779439697265625, 1.2151223144531251], "node_ind": 160, "is_grounded": false}, {"point": [1.15501806640625, -1.785299560546875, 1.2032703857421876], "node_ind": 161, "is_grounded": false}, {"point": [1.5462109375, -1.982328125, 0.6187950439453125], "node_ind": 162, "is_grounded": false}, {"point": [1.568494140625, -1.9752509765625001, 0.6301687011718751], "node_ind": 163, "is_grounded": false}, {"point": [1.3158720703125, -1.3534462890625, 0.7599613037109375], "node_ind": 164, "is_grounded": false}, {"point": [1.30930615234375, -1.3865449218750001, 0.7716651000976563], "node_ind": 165, "is_grounded": false}, {"point": [1.2874384765625, -1.393193603515625, 0.759271484375], "node_ind": 166, "is_grounded": false}, {"point": [1.54581884765625, -1.92374755859375, 0.642547607421875], "node_ind": 167, "is_grounded": false}, {"point": [1.5316855468750001, -1.9345302734375, 0.6615205688476563], "node_ind": 168, "is_grounded": false}, {"point": [1.17078955078125, -1.8067448730468751, 1.1988824462890626], "node_ind": 169, "is_grounded": false}, {"point": [1.1750556640625, -1.80729248046875, 1.2074959716796876], "node_ind": 170, "is_grounded": false}, {"point": [1.183865234375, -1.7829934082031251, 1.20467724609375], "node_ind": 171, "is_grounded": false}, {"point": [0.8541699218750001, -1.766107666015625, 0.5596149291992187], "node_ind": 172, "is_grounded": false}, {"point": [1.55760107421875, -1.9603564453125, 0.6058001708984375], "node_ind": 173, "is_grounded": false}, {"point": [1.56979443359375, -1.963260986328125, 0.6065694580078125], "node_ind": 174, "is_grounded": false}, {"point": [1.56647314453125, -1.970660400390625, 0.6312720336914063], "node_ind": 175, "is_grounded": false}, {"point": [0.8608310546875, -1.7943818359375001, 0.5618374633789063], "node_ind": 176, "is_grounded": false}, {"point": [1.29690966796875, -1.4351965332031251, 0.7793848876953126], "node_ind": 177, "is_grounded": false}, {"point": [1.278759765625, -1.418891845703125, 0.7883707275390626], "node_ind": 178, "is_grounded": false}, {"point": [1.3207724609375, -1.41258837890625, 0.765405517578125], "node_ind": 179, "is_grounded": false}, {"point": [0.8676884765625, -1.781159423828125, 0.5401751708984375], "node_ind": 180, "is_grounded": false}, {"point": [0.95295166015625, -1.803634765625, 0.5903944702148438], "node_ind": 181, "is_grounded": false}, {"point": [0.95145458984375, -1.815968994140625, 0.5675553588867187], "node_ind": 182, "is_grounded": false}, {"point": [0.94594580078125, -1.739441650390625, 0.556186279296875], "node_ind": 183, "is_grounded": false}, {"point": [0.9293154296875, -1.7314863281250001, 0.5745206909179688], "node_ind": 184, "is_grounded": false}, {"point": [1.013314453125, -2.356702392578125, 0.88512158203125], "node_ind": 185, "is_grounded": false}, {"point": [1.164837890625, -1.80889697265625, 1.2454468994140626], "node_ind": 186, "is_grounded": false}, {"point": [0.99266552734375, -2.343176513671875, 0.9014002075195313], "node_ind": 187, "is_grounded": false}, {"point": [1.5851865234375, -1.98835205078125, 0.6506261596679688], "node_ind": 188, "is_grounded": false}, {"point": [1.62338916015625, -1.976027587890625, 0.6099510498046875], "node_ind": 189, "is_grounded": false}, {"point": [1.016728515625, -2.352487548828125, 0.912196533203125], "node_ind": 190, "is_grounded": false}, {"point": [0.9614287109375, -1.70560205078125, 0.5924178466796876], "node_ind": 191, "is_grounded": false}, {"point": [0.96986865234375, -1.721247314453125, 0.5520031127929688], "node_ind": 192, "is_grounded": false}, {"point": [1.1081796875, -2.31358154296875, 0.21114381408691407], "node_ind": 193, "is_grounded": false}, {"point": [1.6240556640625001, -1.994171142578125, 0.6295182495117188], "node_ind": 194, "is_grounded": false}, {"point": [1.63133203125, -1.989665771484375, 0.63541943359375], "node_ind": 195, "is_grounded": false}, {"point": [1.61743017578125, -1.967697509765625, 0.6357894287109375], "node_ind": 196, "is_grounded": false}, {"point": [1.10060693359375, -2.318270263671875, 0.20500238037109375], "node_ind": 197, "is_grounded": false}, {"point": [1.08724951171875, -2.295970703125, 0.20444802856445313], "node_ind": 198, "is_grounded": false}, {"point": [1.02982958984375, -2.31235986328125, 0.928740478515625], "node_ind": 199, "is_grounded": false}, {"point": [1.0054829101562501, -2.303401611328125, 0.9270130615234375], "node_ind": 200, "is_grounded": false}, {"point": [1.03227783203125, -2.3116611328125, 0.8978598022460937], "node_ind": 201, "is_grounded": false}, {"point": [1.04650439453125, -2.3334140625, 0.8984954833984375], "node_ind": 202, "is_grounded": false}, {"point": [1.088076171875, -2.295734619140625, 0.19401852416992188], "node_ind": 203, "is_grounded": false}, {"point": [1.113486328125, -2.290656494140625, 0.19614787292480468], "node_ind": 204, "is_grounded": false}, {"point": [1.6097294921875, -1.97263037109375, 0.6393328247070312], "node_ind": 205, "is_grounded": false}, {"point": [1.621400390625, -1.9869111328125, 0.6608099975585937], "node_ind": 206, "is_grounded": false}, {"point": [1.637390625, -1.985914794921875, 0.6403326416015626], "node_ind": 207, "is_grounded": false}, {"point": [1.5883315429687501, -2.639178466796875, 0.6175401611328125], "node_ind": 208, "is_grounded": false}, {"point": [1.03930908203125, -2.347830810546875, 0.930295654296875], "node_ind": 209, "is_grounded": false}, {"point": [1.02735400390625, -2.345681396484375, 0.907307373046875], "node_ind": 210, "is_grounded": false}, {"point": [1.0807783203125, -2.3230830078125, 0.22225740051269532], "node_ind": 211, "is_grounded": false}, {"point": [1.07413916015625, -2.3193503417968753, 0.2176811981201172], "node_ind": 212, "is_grounded": false}, {"point": [1.086083984375, -2.296303466796875, 0.21914964294433595], "node_ind": 213, "is_grounded": false}, {"point": [1.59361865234375, -2.611396240234375, 0.5757457885742188], "node_ind": 214, "is_grounded": false}, {"point": [1.57845458984375, -2.612511962890625, 0.5968360595703125], "node_ind": 215, "is_grounded": false}, {"point": [1.09309765625, -2.2679628906250002, 0.11452163696289062], "node_ind": 216, "is_grounded": false}, {"point": [1.79337939453125, -2.23164794921875, 0.07513139343261718], "node_ind": 217, "is_grounded": false}, {"point": [1.81882666015625, -2.230328125, 0.06070000457763672], "node_ind": 218, "is_grounded": false}, {"point": [1.58540771484375, -2.637626953125, 0.6192058105468751], "node_ind": 219, "is_grounded": false}, {"point": [1.6122519531250001, -2.600928466796875, 0.6040200195312501], "node_ind": 220, "is_grounded": false}, {"point": [1.61161669921875, -2.621514404296875, 0.5881514282226563], "node_ind": 221, "is_grounded": false}, {"point": [1.782646484375, -2.2336350097656252, 0.12071571350097657], "node_ind": 222, "is_grounded": false}, {"point": [1.8073911132812501, -2.234708740234375, 0.12862391662597655], "node_ind": 223, "is_grounded": false}, {"point": [1.64855322265625, -2.0048759765625, 0.6568302001953125], "node_ind": 224, "is_grounded": false}, {"point": [1.62068115234375, -1.99738525390625, 0.6597388916015625], "node_ind": 225, "is_grounded": false}], "elements": [{"end_node_inds": [78, 2], "elem_ind": 0, "elem_tag": "connector0", "bending_stiff": true}, {"end_node_inds": [0, 79], "elem_ind": 1, "elem_tag": "connector1", "bending_stiff": true}, {"end_node_inds": [80, 81], "elem_ind": 2, "elem_tag": "connector2", "bending_stiff": true}, {"end_node_inds": [3, 82], "elem_ind": 3, "elem_tag": "connector3", "bending_stiff": true}, {"end_node_inds": [83, 84], "elem_ind": 4, "elem_tag": "connector4", "bending_stiff": true}, {"end_node_inds": [5, 85], "elem_ind": 5, "elem_tag": "connector5", "bending_stiff": true}, {"end_node_inds": [86, 1], "elem_ind": 6, "elem_tag": "connector6", "bending_stiff": true}, {"end_node_inds": [87, 88], "elem_ind": 7, "elem_tag": "connector7", "bending_stiff": true}, {"end_node_inds": [89, 8], "elem_ind": 8, "elem_tag": "connector8", "bending_stiff": true}, {"end_node_inds": [9, 0], "elem_ind": 9, "elem_tag": "connector9", "bending_stiff": true}, {"end_node_inds": [90, 91], "elem_ind": 10, "elem_tag": "connector10", "bending_stiff": true}, {"end_node_inds": [92, 10], "elem_ind": 11, "elem_tag": "connector11", "bending_stiff": true}, {"end_node_inds": [11, 3], "elem_ind": 12, "elem_tag": "connector12", "bending_stiff": true}, {"end_node_inds": [93, 4], "elem_ind": 13, "elem_tag": "connector13", "bending_stiff": true}, {"end_node_inds": [94, 6], "elem_ind": 14, "elem_tag": "connector14", "bending_stiff": true}, {"end_node_inds": [13, 95], "elem_ind": 15, "elem_tag": "connector15", "bending_stiff": true}, {"end_node_inds": [96, 97], "elem_ind": 16, "elem_tag": "connector16", "bending_stiff": true}, {"end_node_inds": [12, 98], "elem_ind": 17, "elem_tag": "connector17", "bending_stiff": true}, {"end_node_inds": [99, 5], "elem_ind": 18, "elem_tag": "connector18", "bending_stiff": true}, {"end_node_inds": [100, 7], "elem_ind": 19, "elem_tag": "connector19", "bending_stiff": true}, {"end_node_inds": [101, 102], "elem_ind": 20, "elem_tag": "connector20", "bending_stiff": true}, {"end_node_inds": [103, 104], "elem_ind": 21, "elem_tag": "connector21", "bending_stiff": true}, {"end_node_inds": [105, 106], "elem_ind": 22, "elem_tag": "connector22", "bending_stiff": true}, {"end_node_inds": [107, 108], "elem_ind": 23, "elem_tag": "connector23", "bending_stiff": true}, {"end_node_inds": [19, 109], "elem_ind": 24, "elem_tag": "connector24", "bending_stiff": true}, {"end_node_inds": [110, 15], "elem_ind": 25, "elem_tag": "connector25", "bending_stiff": true}, {"end_node_inds": [18, 111], "elem_ind": 26, "elem_tag": "connector26", "bending_stiff": true}, {"end_node_inds": [112, 113], "elem_ind": 27, "elem_tag": "connector27", "bending_stiff": true}, {"end_node_inds": [114, 17], "elem_ind": 28, "elem_tag": "connector28", "bending_stiff": true}, {"end_node_inds": [115, 116], "elem_ind": 29, "elem_tag": "connector29", "bending_stiff": true}, {"end_node_inds": [117, 14], "elem_ind": 30, "elem_tag": "connector30", "bending_stiff": true}, {"end_node_inds": [118, 119], "elem_ind": 31, "elem_tag": "connector31", "bending_stiff": true}, {"end_node_inds": [120, 121], "elem_ind": 32, "elem_tag": "connector32", "bending_stiff": true}, {"end_node_inds": [122, 16], "elem_ind": 33, "elem_tag": "connector33", "bending_stiff": true}, {"end_node_inds": [123, 124], "elem_ind": 34, "elem_tag": "connector34", "bending_stiff": true}, {"end_node_inds": [24, 125], "elem_ind": 35, "elem_tag": "connector35", "bending_stiff": true}, {"end_node_inds": [126, 20], "elem_ind": 36, "elem_tag": "connector36", "bending_stiff": true}, {"end_node_inds": [127, 128], "elem_ind": 37, "elem_tag": "connector37", "bending_stiff": true}, {"end_node_inds": [129, 130], "elem_ind": 38, "elem_tag": "connector38", "bending_stiff": true}, {"end_node_inds": [29, 131], "elem_ind": 39, "elem_tag": "connector39", "bending_stiff": true}, {"end_node_inds": [132, 21], "elem_ind": 40, "elem_tag": "connector40", "bending_stiff": true}, {"end_node_inds": [133, 134], "elem_ind": 41, "elem_tag": "connector41", "bending_stiff": true}, {"end_node_inds": [31, 26], "elem_ind": 42, "elem_tag": "connector42", "bending_stiff": true}, {"end_node_inds": [135, 136], "elem_ind": 43, "elem_tag": "connector43", "bending_stiff": true}, {"end_node_inds": [137, 138], "elem_ind": 44, "elem_tag": "connector44", "bending_stiff": true}, {"end_node_inds": [33, 22], "elem_ind": 45, "elem_tag": "connector45", "bending_stiff": true}, {"end_node_inds": [139, 27], "elem_ind": 46, "elem_tag": "connector46", "bending_stiff": true}, {"end_node_inds": [140, 141], "elem_ind": 47, "elem_tag": "connector47", "bending_stiff": true}, {"end_node_inds": [35, 23], "elem_ind": 48, "elem_tag": "connector48", "bending_stiff": true}, {"end_node_inds": [142, 143], "elem_ind": 49, "elem_tag": "connector49", "bending_stiff": true}, {"end_node_inds": [144, 30], "elem_ind": 50, "elem_tag": "connector50", "bending_stiff": true}, {"end_node_inds": [145, 28], "elem_ind": 51, "elem_tag": "connector51", "bending_stiff": true}, {"end_node_inds": [37, 146], "elem_ind": 52, "elem_tag": "connector52", "bending_stiff": true}, {"end_node_inds": [147, 38], "elem_ind": 53, "elem_tag": "connector53", "bending_stiff": true}, {"end_node_inds": [148, 32], "elem_ind": 54, "elem_tag": "connector54", "bending_stiff": true}, {"end_node_inds": [149, 150], "elem_ind": 55, "elem_tag": "connector55", "bending_stiff": true}, {"end_node_inds": [151, 152], "elem_ind": 56, "elem_tag": "connector56", "bending_stiff": true}, {"end_node_inds": [41, 25], "elem_ind": 57, "elem_tag": "connector57", "bending_stiff": true}, {"end_node_inds": [153, 154], "elem_ind": 58, "elem_tag": "connector58", "bending_stiff": true}, {"end_node_inds": [155, 36], "elem_ind": 59, "elem_tag": "connector59", "bending_stiff": true}, {"end_node_inds": [43, 34], "elem_ind": 60, "elem_tag": "connector60", "bending_stiff": true}, {"end_node_inds": [156, 39], "elem_ind": 61, "elem_tag": "connector61", "bending_stiff": true}, {"end_node_inds": [42, 157], "elem_ind": 62, "elem_tag": "connector62", "bending_stiff": true}, {"end_node_inds": [158, 159], "elem_ind": 63, "elem_tag": "connector63", "bending_stiff": true}, {"end_node_inds": [160, 161], "elem_ind": 64, "elem_tag": "connector64", "bending_stiff": true}, {"end_node_inds": [162, 163], "elem_ind": 65, "elem_tag": "connector65", "bending_stiff": true}, {"end_node_inds": [47, 164], "elem_ind": 66, "elem_tag": "connector66", "bending_stiff": true}, {"end_node_inds": [165, 166], "elem_ind": 67, "elem_tag": "connector67", "bending_stiff": true}, {"end_node_inds": [167, 168], "elem_ind": 68, "elem_tag": "connector68", "bending_stiff": true}, {"end_node_inds": [169, 40], "elem_ind": 69, "elem_tag": "connector69", "bending_stiff": true}, {"end_node_inds": [170, 171], "elem_ind": 70, "elem_tag": "connector70", "bending_stiff": true}, {"end_node_inds": [172, 50], "elem_ind": 71, "elem_tag": "connector71", "bending_stiff": true}, {"end_node_inds": [173, 44], "elem_ind": 72, "elem_tag": "connector72", "bending_stiff": true}, {"end_node_inds": [174, 175], "elem_ind": 73, "elem_tag": "connector73", "bending_stiff": true}, {"end_node_inds": [176, 52], "elem_ind": 74, "elem_tag": "connector74", "bending_stiff": true}, {"end_node_inds": [177, 178], "elem_ind": 75, "elem_tag": "connector75", "bending_stiff": true}, {"end_node_inds": [53, 179], "elem_ind": 76, "elem_tag": "connector76", "bending_stiff": true}, {"end_node_inds": [180, 48], "elem_ind": 77, "elem_tag": "connector77", "bending_stiff": true}, {"end_node_inds": [181, 182], "elem_ind": 78, "elem_tag": "connector78", "bending_stiff": true}, {"end_node_inds": [183, 184], "elem_ind": 79, "elem_tag": "connector79", "bending_stiff": true}, {"end_node_inds": [185, 56], "elem_ind": 80, "elem_tag": "connector80", "bending_stiff": true}, {"end_node_inds": [57, 45], "elem_ind": 81, "elem_tag": "connector81", "bending_stiff": true}, {"end_node_inds": [186, 49], "elem_ind": 82, "elem_tag": "connector82", "bending_stiff": true}, {"end_node_inds": [187, 58], "elem_ind": 83, "elem_tag": "connector83", "bending_stiff": true}, {"end_node_inds": [188, 46], "elem_ind": 84, "elem_tag": "connector84", "bending_stiff": true}, {"end_node_inds": [59, 189], "elem_ind": 85, "elem_tag": "connector85", "bending_stiff": true}, {"end_node_inds": [190, 54], "elem_ind": 86, "elem_tag": "connector86", "bending_stiff": true}, {"end_node_inds": [61, 191], "elem_ind": 87, "elem_tag": "connector87", "bending_stiff": true}, {"end_node_inds": [192, 55], "elem_ind": 88, "elem_tag": "connector88", "bending_stiff": true}, {"end_node_inds": [60, 193], "elem_ind": 89, "elem_tag": "connector89", "bending_stiff": true}, {"end_node_inds": [194, 51], "elem_ind": 90, "elem_tag": "connector90", "bending_stiff": true}, {"end_node_inds": [195, 196], "elem_ind": 91, "elem_tag": "connector91", "bending_stiff": true}, {"end_node_inds": [197, 198], "elem_ind": 92, "elem_tag": "connector92", "bending_stiff": true}, {"end_node_inds": [199, 200], "elem_ind": 93, "elem_tag": "connector93", "bending_stiff": true}, {"end_node_inds": [201, 202], "elem_ind": 94, "elem_tag": "connector94", "bending_stiff": true}, {"end_node_inds": [203, 204], "elem_ind": 95, "elem_tag": "connector95", "bending_stiff": true}, {"end_node_inds": [67, 205], "elem_ind": 96, "elem_tag": "connector96", "bending_stiff": true}, {"end_node_inds": [206, 207], "elem_ind": 97, "elem_tag": "connector97", "bending_stiff": true}, {"end_node_inds": [66, 208], "elem_ind": 98, "elem_tag": "connector98", "bending_stiff": true}, {"end_node_inds": [209, 210], "elem_ind": 99, "elem_tag": "connector99", "bending_stiff": true}, {"end_node_inds": [69, 65], "elem_ind": 100, "elem_tag": "connector100", "bending_stiff": true}, {"end_node_inds": [68, 70], "elem_ind": 101, "elem_tag": "connector101", "bending_stiff": true}, {"end_node_inds": [211, 62], "elem_ind": 102, "elem_tag": "connector102", "bending_stiff": true}, {"end_node_inds": [212, 213], "elem_ind": 103, "elem_tag": "connector103", "bending_stiff": true}, {"end_node_inds": [214, 215], "elem_ind": 104, "elem_tag": "connector104", "bending_stiff": true}, {"end_node_inds": [216, 64], "elem_ind": 105, "elem_tag": "connector105", "bending_stiff": true}, {"end_node_inds": [73, 71], "elem_ind": 106, "elem_tag": "connector106", "bending_stiff": true}, {"end_node_inds": [217, 74], "elem_ind": 107, "elem_tag": "connector107", "bending_stiff": true}, {"end_node_inds": [72, 218], "elem_ind": 108, "elem_tag": "connector108", "bending_stiff": true}, {"end_node_inds": [75, 219], "elem_ind": 109, "elem_tag": "connector109", "bending_stiff": true}, {"end_node_inds": [220, 221], "elem_ind": 110, "elem_tag": "connector110", "bending_stiff": true}, {"end_node_inds": [222, 223], "elem_ind": 111, "elem_tag": "connector111", "bending_stiff": true}, {"end_node_inds": [224, 63], "elem_ind": 112, "elem_tag": "connector112", "bending_stiff": true}, {"end_node_inds": [77, 225], "elem_ind": 113, "elem_tag": "connector113", "bending_stiff": true}, {"end_node_inds": [76, 72], "elem_ind": 114, "elem_tag": "connector114", "bending_stiff": true}, {"end_node_inds": [1, 84], "elem_ind": 115, "elem_tag": "bar0", "bending_stiff": true}, {"end_node_inds": [84, 78], "elem_ind": 116, "elem_tag": "bar0", "bending_stiff": true}, {"end_node_inds": [78, 0], "elem_ind": 117, "elem_tag": "bar0", "bending_stiff": true}, {"end_node_inds": [2, 91], "elem_ind": 118, "elem_tag": "bar1", "bending_stiff": true}, {"end_node_inds": [91, 95], "elem_ind": 119, "elem_tag": "bar1", "bending_stiff": true}, {"end_node_inds": [95, 80], "elem_ind": 120, "elem_tag": "bar1", "bending_stiff": true}, {"end_node_inds": [80, 3], "elem_ind": 121, "elem_tag": "bar1", "bending_stiff": true}, {"end_node_inds": [4, 81], "elem_ind": 122, "elem_tag": "bar2", "bending_stiff": true}, {"end_node_inds": [81, 88], "elem_ind": 123, "elem_tag": "bar2", "bending_stiff": true}, {"end_node_inds": [88, 83], "elem_ind": 124, "elem_tag": "bar2", "bending_stiff": true}, {"end_node_inds": [83, 5], "elem_ind": 125, "elem_tag": "bar2", "bending_stiff": true}, {"end_node_inds": [6, 89], "elem_ind": 126, "elem_tag": "bar3", "bending_stiff": true}, {"end_node_inds": [89, 86], "elem_ind": 127, "elem_tag": "bar3", "bending_stiff": true}, {"end_node_inds": [86, 87], "elem_ind": 128, "elem_tag": "bar3", "bending_stiff": true}, {"end_node_inds": [87, 109], "elem_ind": 129, "elem_tag": "bar3", "bending_stiff": true}, {"end_node_inds": [109, 7], "elem_ind": 130, "elem_tag": "bar3", "bending_stiff": true}, {"end_node_inds": [8, 92], "elem_ind": 131, "elem_tag": "bar4", "bending_stiff": true}, {"end_node_inds": [92, 104], "elem_ind": 132, "elem_tag": "bar4", "bending_stiff": true}, {"end_node_inds": [104, 97], "elem_ind": 133, "elem_tag": "bar4", "bending_stiff": true}, {"end_node_inds": [97, 90], "elem_ind": 134, "elem_tag": "bar4", "bending_stiff": true}, {"end_node_inds": [90, 9], "elem_ind": 135, "elem_tag": "bar4", "bending_stiff": true}, {"end_node_inds": [10, 94], "elem_ind": 136, "elem_tag": "bar5", "bending_stiff": true}, {"end_node_inds": [94, 113], "elem_ind": 137, "elem_tag": "bar5", "bending_stiff": true}, {"end_node_inds": [113, 106], "elem_ind": 138, "elem_tag": "bar5", "bending_stiff": true}, {"end_node_inds": [106, 93], "elem_ind": 139, "elem_tag": "bar5", "bending_stiff": true}, {"end_node_inds": [93, 11], "elem_ind": 140, "elem_tag": "bar5", "bending_stiff": true}, {"end_node_inds": [12, 108], "elem_ind": 141, "elem_tag": "bar6", "bending_stiff": true}, {"end_node_inds": [108, 96], "elem_ind": 142, "elem_tag": "bar6", "bending_stiff": true}, {"end_node_inds": [96, 13], "elem_ind": 143, "elem_tag": "bar6", "bending_stiff": true}, {"end_node_inds": [15, 100], "elem_ind": 144, "elem_tag": "bar7", "bending_stiff": true}, {"end_node_inds": [100, 99], "elem_ind": 145, "elem_tag": "bar7", "bending_stiff": true}, {"end_node_inds": [99, 98], "elem_ind": 146, "elem_tag": "bar7", "bending_stiff": true}, {"end_node_inds": [98, 101], "elem_ind": 147, "elem_tag": "bar7", "bending_stiff": true}, {"end_node_inds": [101, 14], "elem_ind": 148, "elem_tag": "bar7", "bending_stiff": true}, {"end_node_inds": [16, 107], "elem_ind": 149, "elem_tag": "bar8", "bending_stiff": true}, {"end_node_inds": [107, 102], "elem_ind": 150, "elem_tag": "bar8", "bending_stiff": true}, {"end_node_inds": [102, 119], "elem_ind": 151, "elem_tag": "bar8", "bending_stiff": true}, {"end_node_inds": [119, 103], "elem_ind": 152, "elem_tag": "bar8", "bending_stiff": true}, {"end_node_inds": [103, 105], "elem_ind": 153, "elem_tag": "bar8", "bending_stiff": true}, {"end_node_inds": [105, 131], "elem_ind": 154, "elem_tag": "bar8", "bending_stiff": true}, {"end_node_inds": [131, 17], "elem_ind": 155, "elem_tag": "bar8", "bending_stiff": true}, {"end_node_inds": [18, 121], "elem_ind": 156, "elem_tag": "bar9", "bending_stiff": true}, {"end_node_inds": [121, 110], "elem_ind": 157, "elem_tag": "bar9", "bending_stiff": true}, {"end_node_inds": [110, 19], "elem_ind": 158, "elem_tag": "bar9", "bending_stiff": true}, {"end_node_inds": [20, 115], "elem_ind": 159, "elem_tag": "bar10", "bending_stiff": true}, {"end_node_inds": [115, 111], "elem_ind": 160, "elem_tag": "bar10", "bending_stiff": true}, {"end_node_inds": [111, 112], "elem_ind": 161, "elem_tag": "bar10", "bending_stiff": true}, {"end_node_inds": [112, 114], "elem_ind": 162, "elem_tag": "bar10", "bending_stiff": true}, {"end_node_inds": [114, 21], "elem_ind": 163, "elem_tag": "bar10", "bending_stiff": true}, {"end_node_inds": [22, 116], "elem_ind": 164, "elem_tag": "bar11", "bending_stiff": true}, {"end_node_inds": [116, 128], "elem_ind": 165, "elem_tag": "bar11", "bending_stiff": true}, {"end_node_inds": [128, 120], "elem_ind": 166, "elem_tag": "bar11", "bending_stiff": true}, {"end_node_inds": [120, 117], "elem_ind": 167, "elem_tag": "bar11", "bending_stiff": true}, {"end_node_inds": [117, 118], "elem_ind": 168, "elem_tag": "bar11", "bending_stiff": true}, {"end_node_inds": [118, 124], "elem_ind": 169, "elem_tag": "bar11", "bending_stiff": true}, {"end_node_inds": [124, 23], "elem_ind": 170, "elem_tag": "bar11", "bending_stiff": true}, {"end_node_inds": [24, 134], "elem_ind": 171, "elem_tag": "bar12", "bending_stiff": true}, {"end_node_inds": [134, 123], "elem_ind": 172, "elem_tag": "bar12", "bending_stiff": true}, {"end_node_inds": [123, 122], "elem_ind": 173, "elem_tag": "bar12", "bending_stiff": true}, {"end_node_inds": [122, 143], "elem_ind": 174, "elem_tag": "bar12", "bending_stiff": true}, {"end_node_inds": [143, 25], "elem_ind": 175, "elem_tag": "bar12", "bending_stiff": true}, {"end_node_inds": [26, 129], "elem_ind": 176, "elem_tag": "bar13", "bending_stiff": true}, {"end_node_inds": [129, 125], "elem_ind": 177, "elem_tag": "bar13", "bending_stiff": true}, {"end_node_inds": [125, 126], "elem_ind": 178, "elem_tag": "bar13", "bending_stiff": true}, {"end_node_inds": [126, 127], "elem_ind": 179, "elem_tag": "bar13", "bending_stiff": true}, {"end_node_inds": [127, 27], "elem_ind": 180, "elem_tag": "bar13", "bending_stiff": true}, {"end_node_inds": [28, 136], "elem_ind": 181, "elem_tag": "bar14", "bending_stiff": true}, {"end_node_inds": [136, 130], "elem_ind": 182, "elem_tag": "bar14", "bending_stiff": true}, {"end_node_inds": [130, 133], "elem_ind": 183, "elem_tag": "bar14", "bending_stiff": true}, {"end_node_inds": [133, 132], "elem_ind": 184, "elem_tag": "bar14", "bending_stiff": true}, {"end_node_inds": [132, 29], "elem_ind": 185, "elem_tag": "bar14", "bending_stiff": true}, {"end_node_inds": [30, 137], "elem_ind": 186, "elem_tag": "bar15", "bending_stiff": true}, {"end_node_inds": [137, 146], "elem_ind": 187, "elem_tag": "bar15", "bending_stiff": true}, {"end_node_inds": [146, 135], "elem_ind": 188, "elem_tag": "bar15", "bending_stiff": true}, {"end_node_inds": [135, 31], "elem_ind": 189, "elem_tag": "bar15", "bending_stiff": true}, {"end_node_inds": [33, 139], "elem_ind": 190, "elem_tag": "bar16", "bending_stiff": true}, {"end_node_inds": [139, 140], "elem_ind": 191, "elem_tag": "bar16", "bending_stiff": true}, {"end_node_inds": [140, 138], "elem_ind": 192, "elem_tag": "bar16", "bending_stiff": true}, {"end_node_inds": [138, 32], "elem_ind": 193, "elem_tag": "bar16", "bending_stiff": true}, {"end_node_inds": [34, 150], "elem_ind": 194, "elem_tag": "bar17", "bending_stiff": true}, {"end_node_inds": [150, 141], "elem_ind": 195, "elem_tag": "bar17", "bending_stiff": true}, {"end_node_inds": [141, 144], "elem_ind": 196, "elem_tag": "bar17", "bending_stiff": true}, {"end_node_inds": [144, 164], "elem_ind": 197, "elem_tag": "bar17", "bending_stiff": true}, {"end_node_inds": [164, 154], "elem_ind": 198, "elem_tag": "bar17", "bending_stiff": true}, {"end_node_inds": [154, 142], "elem_ind": 199, "elem_tag": "bar17", "bending_stiff": true}, {"end_node_inds": [142, 35], "elem_ind": 200, "elem_tag": "bar17", "bending_stiff": true}, {"end_node_inds": [37, 145], "elem_ind": 201, "elem_tag": "bar18", "bending_stiff": true}, {"end_node_inds": [145, 147], "elem_ind": 202, "elem_tag": "bar18", "bending_stiff": true}, {"end_node_inds": [147, 36], "elem_ind": 203, "elem_tag": "bar18", "bending_stiff": true}, {"end_node_inds": [38, 151], "elem_ind": 204, "elem_tag": "bar19", "bending_stiff": true}, {"end_node_inds": [151, 159], "elem_ind": 205, "elem_tag": "bar19", "bending_stiff": true}, {"end_node_inds": [159, 148], "elem_ind": 206, "elem_tag": "bar19", "bending_stiff": true}, {"end_node_inds": [148, 149], "elem_ind": 207, "elem_tag": "bar19", "bending_stiff": true}, {"end_node_inds": [149, 39], "elem_ind": 208, "elem_tag": "bar19", "bending_stiff": true}, {"end_node_inds": [41, 153], "elem_ind": 209, "elem_tag": "bar20", "bending_stiff": true}, {"end_node_inds": [153, 166], "elem_ind": 210, "elem_tag": "bar20", "bending_stiff": true}, {"end_node_inds": [166, 178], "elem_ind": 211, "elem_tag": "bar20", "bending_stiff": true}, {"end_node_inds": [178, 155], "elem_ind": 212, "elem_tag": "bar20", "bending_stiff": true}, {"end_node_inds": [155, 152], "elem_ind": 213, "elem_tag": "bar20", "bending_stiff": true}, {"end_node_inds": [152, 161], "elem_ind": 214, "elem_tag": "bar20", "bending_stiff": true}, {"end_node_inds": [161, 40], "elem_ind": 215, "elem_tag": "bar20", "bending_stiff": true}, {"end_node_inds": [43, 156], "elem_ind": 216, "elem_tag": "bar21", "bending_stiff": true}, {"end_node_inds": [156, 168], "elem_ind": 217, "elem_tag": "bar21", "bending_stiff": true}, {"end_node_inds": [168, 42], "elem_ind": 218, "elem_tag": "bar21", "bending_stiff": true}, {"end_node_inds": [44, 162], "elem_ind": 219, "elem_tag": "bar22", "bending_stiff": true}, {"end_node_inds": [162, 157], "elem_ind": 220, "elem_tag": "bar22", "bending_stiff": true}, {"end_node_inds": [157, 171], "elem_ind": 221, "elem_tag": "bar22", "bending_stiff": true}, {"end_node_inds": [171, 160], "elem_ind": 222, "elem_tag": "bar22", "bending_stiff": true}, {"end_node_inds": [160, 158], "elem_ind": 223, "elem_tag": "bar22", "bending_stiff": true}, {"end_node_inds": [158, 45], "elem_ind": 224, "elem_tag": "bar22", "bending_stiff": true}, {"end_node_inds": [46, 163], "elem_ind": 225, "elem_tag": "bar23", "bending_stiff": true}, {"end_node_inds": [163, 175], "elem_ind": 226, "elem_tag": "bar23", "bending_stiff": true}, {"end_node_inds": [175, 167], "elem_ind": 227, "elem_tag": "bar23", "bending_stiff": true}, {"end_node_inds": [167, 179], "elem_ind": 228, "elem_tag": "bar23", "bending_stiff": true}, {"end_node_inds": [179, 165], "elem_ind": 229, "elem_tag": "bar23", "bending_stiff": true}, {"end_node_inds": [165, 47], "elem_ind": 230, "elem_tag": "bar23", "bending_stiff": true}, {"end_node_inds": [48, 172], "elem_ind": 231, "elem_tag": "bar24", "bending_stiff": true}, {"end_node_inds": [172, 169], "elem_ind": 232, "elem_tag": "bar24", "bending_stiff": true}, {"end_node_inds": [169, 170], "elem_ind": 233, "elem_tag": "bar24", "bending_stiff": true}, {"end_node_inds": [170, 49], "elem_ind": 234, "elem_tag": "bar24", "bending_stiff": true}, {"end_node_inds": [50, 176], "elem_ind": 235, "elem_tag": "bar25", "bending_stiff": true}, {"end_node_inds": [176, 182], "elem_ind": 236, "elem_tag": "bar25", "bending_stiff": true}, {"end_node_inds": [182, 173], "elem_ind": 237, "elem_tag": "bar25", "bending_stiff": true}, {"end_node_inds": [173, 174], "elem_ind": 238, "elem_tag": "bar25", "bending_stiff": true}, {"end_node_inds": [174, 189], "elem_ind": 239, "elem_tag": "bar25", "bending_stiff": true}, {"end_node_inds": [189, 51], "elem_ind": 240, "elem_tag": "bar25", "bending_stiff": true}, {"end_node_inds": [52, 180], "elem_ind": 241, "elem_tag": "bar26", "bending_stiff": true}, {"end_node_inds": [180, 184], "elem_ind": 242, "elem_tag": "bar26", "bending_stiff": true}, {"end_node_inds": [184, 191], "elem_ind": 243, "elem_tag": "bar26", "bending_stiff": true}, {"end_node_inds": [191, 177], "elem_ind": 244, "elem_tag": "bar26", "bending_stiff": true}, {"end_node_inds": [177, 53], "elem_ind": 245, "elem_tag": "bar26", "bending_stiff": true}, {"end_node_inds": [54, 185], "elem_ind": 246, "elem_tag": "bar27", "bending_stiff": true}, {"end_node_inds": [185, 181], "elem_ind": 247, "elem_tag": "bar27", "bending_stiff": true}, {"end_node_inds": [181, 183], "elem_ind": 248, "elem_tag": "bar27", "bending_stiff": true}, {"end_node_inds": [183, 55], "elem_ind": 249, "elem_tag": "bar27", "bending_stiff": true}, {"end_node_inds": [56, 187], "elem_ind": 250, "elem_tag": "bar28", "bending_stiff": true}, {"end_node_inds": [187, 200], "elem_ind": 251, "elem_tag": "bar28", "bending_stiff": true}, {"end_node_inds": [200, 186], "elem_ind": 252, "elem_tag": "bar28", "bending_stiff": true}, {"end_node_inds": [186, 57], "elem_ind": 253, "elem_tag": "bar28", "bending_stiff": true}, {"end_node_inds": [58, 190], "elem_ind": 254, "elem_tag": "bar29", "bending_stiff": true}, {"end_node_inds": [190, 210], "elem_ind": 255, "elem_tag": "bar29", "bending_stiff": true}, {"end_node_inds": [210, 202], "elem_ind": 256, "elem_tag": "bar29", "bending_stiff": true}, {"end_node_inds": [202, 188], "elem_ind": 257, "elem_tag": "bar29", "bending_stiff": true}, {"end_node_inds": [188, 205], "elem_ind": 258, "elem_tag": "bar29", "bending_stiff": true}, {"end_node_inds": [205, 196], "elem_ind": 259, "elem_tag": "bar29", "bending_stiff": true}, {"end_node_inds": [196, 59], "elem_ind": 260, "elem_tag": "bar29", "bending_stiff": true}, {"end_node_inds": [60, 204], "elem_ind": 261, "elem_tag": "bar30", "bending_stiff": true}, {"end_node_inds": [204, 192], "elem_ind": 262, "elem_tag": "bar30", "bending_stiff": true}, {"end_node_inds": [192, 61], "elem_ind": 263, "elem_tag": "bar30", "bending_stiff": true}, {"end_node_inds": [62, 197], "elem_ind": 264, "elem_tag": "bar31", "bending_stiff": true}, {"end_node_inds": [197, 193], "elem_ind": 265, "elem_tag": "bar31", "bending_stiff": true}, {"end_node_inds": [193, 194], "elem_ind": 266, "elem_tag": "bar31", "bending_stiff": true}, {"end_node_inds": [194, 195], "elem_ind": 267, "elem_tag": "bar31", "bending_stiff": true}, {"end_node_inds": [195, 207], "elem_ind": 268, "elem_tag": "bar31", "bending_stiff": true}, {"end_node_inds": [207, 63], "elem_ind": 269, "elem_tag": "bar31", "bending_stiff": true}, {"end_node_inds": [65, 199], "elem_ind": 270, "elem_tag": "bar32", "bending_stiff": true}, {"end_node_inds": [199, 201], "elem_ind": 271, "elem_tag": "bar32", "bending_stiff": true}, {"end_node_inds": [201, 213], "elem_ind": 272, "elem_tag": "bar32", "bending_stiff": true}, {"end_node_inds": [213, 198], "elem_ind": 273, "elem_tag": "bar32", "bending_stiff": true}, {"end_node_inds": [198, 203], "elem_ind": 274, "elem_tag": "bar32", "bending_stiff": true}, {"end_node_inds": [203, 64], "elem_ind": 275, "elem_tag": "bar32", "bending_stiff": true}, {"end_node_inds": [67, 206], "elem_ind": 276, "elem_tag": "bar33", "bending_stiff": true}, {"end_node_inds": [206, 225], "elem_ind": 277, "elem_tag": "bar33", "bending_stiff": true}, {"end_node_inds": [225, 215], "elem_ind": 278, "elem_tag": "bar33", "bending_stiff": true}, {"end_node_inds": [215, 66], "elem_ind": 279, "elem_tag": "bar33", "bending_stiff": true}, {"end_node_inds": [68, 208], "elem_ind": 280, "elem_tag": "bar34", "bending_stiff": true}, {"end_node_inds": [208, 219], "elem_ind": 281, "elem_tag": "bar34", "bending_stiff": true}, {"end_node_inds": [219, 209], "elem_ind": 282, "elem_tag": "bar34", "bending_stiff": true}, {"end_node_inds": [209, 69], "elem_ind": 283, "elem_tag": "bar34", "bending_stiff": true}, {"end_node_inds": [70, 221], "elem_ind": 284, "elem_tag": "bar35", "bending_stiff": true}, {"end_node_inds": [221, 214], "elem_ind": 285, "elem_tag": "bar35", "bending_stiff": true}, {"end_node_inds": [214, 211], "elem_ind": 286, "elem_tag": "bar35", "bending_stiff": true}, {"end_node_inds": [211, 212], "elem_ind": 287, "elem_tag": "bar35", "bending_stiff": true}, {"end_node_inds": [212, 71], "elem_ind": 288, "elem_tag": "bar35", "bending_stiff": true}, {"end_node_inds": [73, 216], "elem_ind": 289, "elem_tag": "bar36", "bending_stiff": true}, {"end_node_inds": [216, 217], "elem_ind": 290, "elem_tag": "bar36", "bending_stiff": true}, {"end_node_inds": [217, 72], "elem_ind": 291, "elem_tag": "bar36", "bending_stiff": true}, {"end_node_inds": [74, 222], "elem_ind": 292, "elem_tag": "bar37", "bending_stiff": true}, {"end_node_inds": [222, 220], "elem_ind": 293, "elem_tag": "bar37", "bending_stiff": true}, {"end_node_inds": [220, 75], "elem_ind": 294, "elem_tag": "bar37", "bending_stiff": true}, {"end_node_inds": [76, 223], "elem_ind": 295, "elem_tag": "bar38", "bending_stiff": true}, {"end_node_inds": [223, 224], "elem_ind": 296, "elem_tag": "bar38", "bending_stiff": true}, {"end_node_inds": [224, 77], "elem_ind": 297, "elem_tag": "bar38", "bending_stiff": true}], "supports": [{"condition": [1, 1, 1, 1, 1, 1], "node_ind": 0}, {"condition": [1, 1, 1, 1, 1, 1], "node_ind": 79}, {"condition": [1, 1, 1, 1, 1, 1], "node_ind": 3}, {"condition": [1, 1, 1, 1, 1, 1], "node_ind": 82}, {"condition": [1, 1, 1, 1, 1, 1], "node_ind": 5}, {"condition": [1, 1, 1, 1, 1, 1], "node_ind": 85}, {"condition": [1, 1, 1, 1, 1, 1], "node_ind": 72}, {"condition": [1, 1, 1, 1, 1, 1], "node_ind": 218}], "joints": [], "materials": [{"E": 10500000.0, "G12": 3600000.0, "G3": 3600000.0, "mu": 0.45833333333333326, "fy": 13000.0, "density": 6, "elem_tags": ["bar3", "bar28", "bar34", "bar12", "bar26", "bar21", "bar36", "bar11", "bar18", "bar27", "bar1", "bar30", "bar29", "bar2", "bar17", "bar4", "bar0", "bar37", "bar15", "bar20", "bar33", "bar10", "bar32", "bar24", "bar38", "bar5", "bar25", "bar23", "bar22", "bar35", "bar7", "bar8", "bar14", "bar16", "bar19", "bar6", "bar31", "bar9", "bar13"], "family": "Wood", "name": "Wood", "type_name": "ISO"}, {"E": 1050000.0, "G12": 360000.0, "G3": 360000.0, "mu": 0.45833333333333326, "fy": 13000.0, "density": 6, "elem_tags": ["connector33", "connector31", "connector87", "connector105", "connector54", "connector16", "connector106", "connector17", "connector98", "connector2", "connector27", "connector113", "connector80", "connector25", "connector4", "connector38", "connector93", "connector61", "connector112", "connector71", "connector81", "connector83", "connector65", "connector29", "connector35", "connector43", "connector18", "connector73", "connector13", "connector104", "connector63", "connector32", "connector3", "connector37", "connector103", "connector109", "connector11", "connector26", "connector58", "connector5", "connector46", "connector99", "connector114", "connector76", "connector22", "connector111", "connector84", "connector57", "connector110", "connector39", "connector78", "connector6", "connector91", "connector44", "connector101", "connector69", "connector30", "connector102", "connector47", "connector67", "connector108", "connector50", "connector88", "connector15", "connector64", "connector100", "connector92", "connector85", "connector23", "connector107", "connector42", "connector96", "connector95", "connector0", "connector7", "connector19", "connector9", "connector21", "connector86", "connector66", "connector20", "connector53", "connector56", "connector55", "connector45", "connector77", "connector59", "connector75", "connector24", "connector34", "connector72", "connector89", "connector97", "connector82", "connector74", "connector36", "connector41", "connector10", "connector48", "connector51", "connector62", "connector12", "connector79", "connector1", "connector90", "connector49", "connector40", "connector14", "connector28", "connector60", "connector94", "connector8", "connector70", "connector68", "connector52"], "family": "Connector", "name": "Glue", "type_name": "ISO"}], "cross_secs": [{"A": 0.0005309291584566752, "Jx": 4.486351388958906e-08, "Iy": 2.243175694479453e-08, "Iz": 2.243175694479453e-08, "elem_tags": ["bar28", "connector33", "bar12", "bar26", "connector31", "bar11", "connector87", "connector105", "connector54", "bar20", "connector16", "connector106", "bar10", "connector17", "connector98", "connector2", "connector27", "connector113", "connector80", "connector25", "bar35", "connector4", "connector38", "connector93", "bar14", "connector61", "connector112", "connector71", "connector81", "connector83", "connector65", "bar3", "bar34", "connector29", "connector35", "connector43", "connector18", "bar36", "connector73", "connector13", "connector104", "connector63", "connector32", "connector3", "bar0", "bar37", "bar15", "connector37", "connector103", "connector109", "connector11", "connector26", "connector58", "bar33", "connector5", "connector46", "connector99", "bar24", "bar38", "bar25", "connector114", "connector76", "connector22", "bar7", "connector111", "connector84", "bar16", "connector57", "connector110", "connector39", "connector78", "connector6", "connector91", "connector44", "bar21", "connector101", "bar1", "bar29", "connector69", "connector30", "bar4", "connector102", "connector47", "connector67", "connector108", "connector50", "connector88", "connector15", "connector64", "connector100", "bar5", "connector92", "connector85", "connector23", "connector107", "connector42", "connector96", "bar8", "connector95", "connector0", "connector7", "bar19", "bar6", "bar31", "bar9", "connector19", "connector9", "connector21", "connector86", "connector66", "connector20", "connector53", "bar18", "bar27", "connector56", "bar30", "connector55", "connector45", "connector77", "bar2", "bar17", "connector59", "connector75", "connector24", "connector34", "connector72", "connector89", "bar32", "connector97", "connector82", "connector74", "connector36", "bar23", "bar22", "connector41", "connector10", "connector48", "connector51", "connector62", "connector12", "connector79", "connector1", "connector90", "connector49", "connector40", "connector14", "connector28", "connector60", "connector94", "connector8", "connector70", "connector68", "connector52", "bar13"], "family": "Circular", "name": "solid_circle"}], "fem_element_from_bar_id": {"0": [0, 1, 4, 6, 9, 115, 116, 117], "1": [0, 2, 3, 10, 12, 15, 118, 119, 120, 121], "-1": [1, 3, 108, 5], "2": [2, 4, 5, 7, 13, 18, 122, 123, 124, 125], "3": [128, 129, 130, 6, 7, 8, 14, 19, 24, 126, 127], "4": [131, 132, 133, 134, 135, 8, 9, 10, 11, 16, 21], "5": [136, 137, 138, 11, 12, 13, 14, 139, 140, 22, 27], "6": [141, 142, 15, 16, 17, 143, 23], "7": [144, 17, 18, 19, 20, 145, 146, 147, 148, 25, 30], "8": [33, 153, 39, 20, 21, 22, 23, 149, 150, 154, 155, 28, 152, 151, 31], "9": [32, 24, 25, 26, 156, 157, 158], "10": [160, 161, 162, 163, 36, 40, 26, 27, 28, 29, 159], "11": [32, 34, 164, 37, 165, 166, 167, 168, 169, 170, 45, 48, 29, 30, 31], "12": [33, 34, 35, 41, 171, 172, 173, 174, 175, 49, 57], "13": [35, 36, 37, 38, 42, 46, 176, 177, 178, 179, 180], "14": [38, 39, 40, 41, 43, 51, 181, 182, 183, 184, 185], "15": [42, 43, 44, 50, 52, 186, 187, 188, 189], "16": [192, 193, 44, 45, 46, 47, 54, 190, 191], "17": [66, 194, 195, 196, 197, 198, 199, 200, 47, 48, 49, 50, 55, 58, 60], "18": [201, 202, 203, 51, 52, 53, 59], "19": [204, 205, 206, 207, 208, 53, 54, 55, 56, 61, 63], "20": [64, 67, 69, 75, 209, 210, 211, 212, 213, 214, 215, 56, 57, 58, 59], "21": [68, 216, 217, 218, 60, 61, 62], "22": [64, 65, 223, 224, 70, 72, 81, 222, 219, 220, 221, 62, 63], "23": [65, 66, 67, 68, 225, 226, 227, 228, 73, 229, 230, 76, 84], "24": [69, 70, 71, 231, 232, 233, 234, 77, 82], "25": [71, 72, 73, 74, 235, 236, 237, 78, 238, 239, 240, 85, 90], "26": [74, 75, 76, 77, 79, 241, 242, 243, 244, 245, 87], "27": [248, 78, 79, 80, 86, 246, 88, 249, 247], "28": [80, 81, 82, 83, 253, 250, 251, 252, 93], "29": [96, 256, 257, 99, 258, 259, 260, 83, 84, 85, 86, 254, 91, 94, 255], "30": [261, 262, 263, 87, 88, 89, 95], "31": [97, 102, 264, 265, 266, 267, 268, 269, 112, 89, 90, 91, 92], "32": [100, 103, 105, 270, 271, 272, 273, 274, 275, 92, 93, 94, 95], "33": [96, 97, 98, 104, 113, 276, 277, 278, 279], "34": [98, 99, 100, 101, 109, 280, 281, 282, 283], "35": [288, 101, 102, 103, 104, 106, 110, 284, 285, 286, 287], "36": [289, 290, 291, 105, 106, 107, 108, 114], "37": [292, 293, 294, 107, 109, 110, 111], "38": [295, 296, 297, 111, 112, 113, 114]}}, "stiffness_history": [[true, 0.0010642697303570614], [true, 0.0010642697303570614], [true, 0.001064269730360464], [true, 0.001064269730360464], [true, 0.0010920406725839773], [true, 0.0021209040114154717], [true, 0.0018074786174924159], [true, 0.0050563361637900005], [true, 0.006502047978098602], [true, 0.005025610829891276], [true, 0.0050256108283271575], [true, 0.005025610829891276], [true, 0.008523876981922552], [true, 0.008523876981922552], [true, 0.008523876981922552], [true, 0.008523876982259721], [true, 0.008223782062258036], [true, 0.008223782062258036], [true, 0.008330197729446974], [true, 0.009042985673452856], [true, 0.009042985673452856], [true, 0.009042985673452856], [true, 0.006921510398646278], [true, 0.006714961526730016], [true, 0.006041926422574823], [true, 0.0064237939174331595], [true, 0.005468798487051492], [true, 0.004754251112009532], [true, 0.005009148460954935], [true, 0.00497955367316496], [true, 0.004814099206299995], [true, 0.0048518173767548925], [true, 0.0031479348453570147], [true, 0.0033107929217519576], [true, 0.003303084728502454], [true, 0.0007329009770496608], [true, 0.0006992280570441055], [true, 0.0005387186818667946], [true, 0.000525900065652455]], "fem_element_from_bar_id": {"0": [0, 1, 4, 6, 9, 115, 116, 117], "1": [0, 2, 3, 10, 12, 15, 118, 119, 120, 121], "-1": [1, 3, 108, 5], "2": [2, 4, 5, 7, 13, 18, 122, 123, 124, 125], "3": [128, 129, 130, 6, 7, 8, 14, 19, 24, 126, 127], "4": [131, 132, 133, 134, 135, 8, 9, 10, 11, 16, 21], "5": [136, 137, 138, 11, 12, 13, 14, 139, 140, 22, 27], "6": [141, 142, 15, 16, 17, 143, 23], "7": [144, 17, 18, 19, 20, 145, 146, 147, 148, 25, 30], "8": [33, 153, 39, 20, 21, 22, 23, 149, 150, 154, 155, 28, 152, 151, 31], "9": [32, 24, 25, 26, 156, 157, 158], "10": [160, 161, 162, 163, 36, 40, 26, 27, 28, 29, 159], "11": [32, 34, 164, 37, 165, 166, 167, 168, 169, 170, 45, 48, 29, 30, 31], "12": [33, 34, 35, 41, 171, 172, 173, 174, 175, 49, 57], "13": [35, 36, 37, 38, 42, 46, 176, 177, 178, 179, 180], "14": [38, 39, 40, 41, 43, 51, 181, 182, 183, 184, 185], "15": [42, 43, 44, 50, 52, 186, 187, 188, 189], "16": [192, 193, 44, 45, 46, 47, 54, 190, 191], "17": [66, 194, 195, 196, 197, 198, 199, 200, 47, 48, 49, 50, 55, 58, 60], "18": [201, 202, 203, 51, 52, 53, 59], "19": [204, 205, 206, 207, 208, 53, 54, 55, 56, 61, 63], "20": [64, 67, 69, 75, 209, 210, 211, 212, 213, 214, 215, 56, 57, 58, 59], "21": [68, 216, 217, 218, 60, 61, 62], "22": [64, 65, 223, 224, 70, 72, 81, 222, 219, 220, 221, 62, 63], "23": [65, 66, 67, 68, 225, 226, 227, 228, 73, 229, 230, 76, 84], "24": [69, 70, 71, 231, 232, 233, 234, 77, 82], "25": [71, 72, 73, 74, 235, 236, 237, 78, 238, 239, 240, 85, 90], "26": [74, 75, 76, 77, 79, 241, 242, 243, 244, 245, 87], "27": [248, 78, 79, 80, 86, 246, 88, 249, 247], "28": [80, 81, 82, 83, 253, 250, 251, 252, 93], "29": [96, 256, 257, 99, 258, 259, 260, 83, 84, 85, 86, 254, 91, 94, 255], "30": [261, 262, 263, 87, 88, 89, 95], "31": [97, 102, 264, 265, 266, 267, 268, 269, 112, 89, 90, 91, 92], "32": [100, 103, 105, 270, 271, 272, 273, 274, 275, 92, 93, 94, 95], "33": [96, 97, 98, 104, 113, 276, 277, 278, 279], "34": [98, 99, 100, 101, 109, 280, 281, 282, 283], "35": [288, 101, 102, 103, 104, 106, 110, 284, 285, 286, 287], "36": [289, 290, 291, 105, 106, 107, 108, 114], "37": [292, 293, 294, 107, 109, 110, 111], "38": [295, 296, 297, 111, 112, 113, 114]}, "planning_data": {"num_evaluated": 71, "min_remaining": 0, "max_backtrack": 0, "stiffness_failures": 7, "place_failures": 24, "transit_failures": 0, "transfer_failures": 0}, "plan": [[{"element": 36, "tag": "transfer", "path": [[0.0, 0.0, 0.0, 0.0, 0.0, 0.0, 0.0], [0.1148202292919986, 0.010866576055978704, 0.023409966207704837, 0.011759170337779953, -0.1406502778346181, -0.040223666052509835, -0.04041807787946274], [0.1722303439379979, 0.016299864083968055, 0.03511494931155726, 0.01763875550666993, -0.21097541675192716, -0.06033549907876475, -0.06062711681919411], [0.2296404585839972, 0.021733152111957407, 0.046819932415409674, 0.02351834067555991, -0.28130055566923623, -0.08044733210501967, -0.08083615575892548], [0.2870505732299965, 0.02716644013994676, 0.05852491551926209, 0.029397925844449883, -0.35162569458654525, -0.10055916513127458, -0.10104519469865686], [0.3444606878759958, 0.03259972816793611, 0.0702298986231145, 0.03527751101333986, -0.4219508335038543, -0.12067099815752949, -0.12125423363838823], [0.40187080252199514, 0.03803301619592546, 0.08193488172696692, 0.04115709618222984, -0.4922759724211634, -0.1407828311837844, -0.1414632725781196], [0.45928091716799446, 0.043466304223914815, 0.09363986483081933, 0.04703668135111982, -0.5626011113384725, -0.1608946642100393, -0.16167231151785097], [0.5166910318139938, 0.04889959225190416, 0.10534484793467175, 0.052916266520009796, -0.6329262502557815, -0.18100649723629422, -0.18188135045758233], [0.5741011464599931, 0.05433288027989351, 0.11704983103852416, 0.058795851688899774, -0.7032513891730906, -0.20111833026254913, -0.2020903893973137], [0.6315112611059924, 0.059766168307882866, 0.12875481414237658, 0.06467543685778974, -0.7735765280903997, -0.22123016328880404, -0.22229942833704505], [0.6889213757519917, 0.06519945633587222, 0.140459797246229, 0.07055502202667972, -0.8439016670077087, -0.24134199631505895, -0.2425084672767764], [0.7463314903979911, 0.07063274436386158, 0.15216478035008144, 0.0764346071955697, -0.9142268059250178, -0.2614538293413139, -0.2627175062165078], [0.8037416050439904, 0.07606603239185093, 0.16386976345393386, 0.08231419236445968, -0.9845519448423269, -0.2815656623675688, -0.28292654515623916], [0.8611517196899897, 0.08149932041984029, 0.1755747465577863, 0.08819377753334966, -1.054877083759636, -0.3016774953938237, -0.3031355840959705], [0.918561834335989, 0.08693260844782964, 0.18727972966163872, 0.09407336270223964, -1.125202222676945, -0.3217893284200786, -0.3233446230357019], [0.9759719489819884, 0.092365896475819, 0.19898471276549115, 0.09995294787112961, -1.1955273615942539, -0.34190116144633353, -0.34355366197543324], [1.0333820636279876, 0.09779918450380835, 0.21068969586934358, 0.10583253304001959, -1.2658525005115628, -0.36201299447258845, -0.3637627009151646], [1.090792178273987, 0.10323247253179771, 0.22239467897319598, 0.11171211820890957, -1.3361776394288718, -0.38212482749884336, -0.38397173985489597], [1.1482022929199862, 0.10866576055978706, 0.2340996620770484, 0.11759170337779955, -1.4065027783461808, -0.40223666052509827, -0.4041807787946273], [1.2056124075659855, 0.11409904858777642, 0.24580464518090084, 0.12347128854668953, -1.4768279172634897, -0.4223484935513532, -0.4243898177343587], [1.2630225222119849, 0.11953233661576577, 0.25750962828475327, 0.1293508737155795, -1.547153056180799, -0.4424603265776081, -0.44459885667409005], [1.3204326368579842, 0.12496562464375513, 0.2692146113886057, 0.13523045888446947, -1.6174781950981079, -0.462572159603863, -0.4648078956138214], [1.3778427515039835, 0.13039891267174447, 0.2809195944924581, 0.14111004405335945, -1.6878033340154168, -0.4826839926301179, -0.48501693455355277], [1.4352528661499828, 0.1358322006997338, 0.29262457759631055, 0.14698962922224942, -1.758128472932726, -0.5027958256563728, -0.5052259734932841], [1.4926629807959821, 0.14126548872772315, 0.304329560700163, 0.1528692143911394, -1.828453611850035, -0.5229076586826278, -0.5254350124330155], [1.5500730954419815, 0.1466987767557125, 0.3160345438040154, 0.15874879956002938, -1.898778750767344, -0.5430194917088828, -0.5456440513727469], [1.6074832100879808, 0.15213206478370184, 0.32773952690786784, 0.16462838472891936, -1.969103889684653, -0.5631313247351377, -0.5658530903124782], [1.66489332473398, 0.15756535281169118, 0.33944451001172027, 0.17050796989780934, -2.0394290286019623, -0.5832431577613927, -0.5860621292522096], [1.7223034393799794, 0.16299864083968052, 0.3511494931155727, 0.17638755506669931, -2.1097541675192715, -0.6033549907876476, -0.6062711681919409], [1.7797135540259788, 0.16843192886766986, 0.3628544762194251, 0.1822671402355893, -2.1800793064365807, -0.6234668238139025, -0.6264802071316723], [1.837123668671978, 0.1738652168956592, 0.37455945932327755, 0.18814672540447927, -2.25040444535389, -0.6435786568401574, -0.6466892460714037], [1.8945337833179774, 0.17929850492364854, 0.38626444242713, 0.19402631057336925, -2.320729584271199, -0.6636904898664123, -0.666898285011135], [1.9519438979639767, 0.18473179295163789, 0.3979694255309824, 0.19990589574225923, -2.391054723188508, -0.6838023228926673, -0.6871073239508664], [2.009354012609976, 0.19016508097962725, 0.40967440863483484, 0.2057854809111492, -2.4613798621058174, -0.7039141559189221, -0.7073163628905977], [2.066764127255975, 0.19559836900761662, 0.4213793917386872, 0.21166506608003918, -2.5317050010231266, -0.724025988945177, -0.7275254018303291], [2.1241742419019745, 0.20103165703560597, 0.43308437484253964, 0.21754465124892916, -2.6020301399404357, -0.744137821971432, -0.7477344407700605], [2.181584356547974, 0.2064649450635953, 0.44478935794639207, 0.22342423641781914, -2.6723552788577445, -0.7642496549976869, -0.7679434797097918], [2.238994471193973, 0.21189823309158468, 0.45649434105024445, 0.22930382158670912, -2.7426804177750537, -0.7843614880239418, -0.7881525186495232], [2.2964045858399724, 0.21733152111957404, 0.4681993241540968, 0.2351834067555991, -2.813005556692363, -0.8044733210501966, -0.8083615575892545], [2.3538147004859717, 0.2227648091475634, 0.47990430725794925, 0.24106299192448907, -2.8833306956096716, -0.8245851540764516, -0.8285705965289859], [2.411224815131971, 0.22819809717555273, 0.4916092903618017, 0.24694257709337905, -2.9536558345269803, -0.8446969871027066, -0.8487796354687174], [2.4686349297779704, 0.2336313852035421, 0.503314273465654, 0.252822162262269, -3.0239809734442895, -0.8648088201289614, -0.8689886744084487], [2.5260450444239697, 0.23906467323153147, 0.5150192565695064, 0.258701747431159, -3.0943061123615987, -0.8849206531552163, -0.8891977133481801], [2.583455159069969, 0.2444979612595208, 0.5267242396733588, 0.26458133260004896, -3.1646312512789074, -0.9050324861814713, -0.9094067522879116], [2.640865273715968, 0.24993124928751015, 0.5384292227772112, 0.27046091776893894, -3.234956390196216, -0.9251443192077262, -0.929615791227643], [2.6982753883619672, 0.2553645373154995, 0.5501342058810637, 0.2763405029378289, -3.3052815291135254, -0.9452561522339811, -0.9498248301673744]], "attachments": [{"parent_name": "ECL_robot1_with_track", "parent_link_name": "eef_tcp_frame", "grasp_pose": [[-2.1457672119140625e-06, -0.253200888633728, -9.238719940185547e-07], [-0.5000006556510925, 0.5000011324882507, -0.49999934434890747, -0.4999988377094269]], "child_name": "body118"}], "link_path": {"eef_tcp_frame": [[[1.9515000581741333, 0.0, 1.7650134563446045], [0.0, 0.7070939540863037, 0.0, 0.7071195840835571]], [[1.9823373556137085, -0.09042644500732422, 1.72226881980896], [-0.06954655796289444, 0.7020089626312256, -0.05822072550654411, 0.7063689231872559]], [[1.9969826936721802, -0.133290097117424, 1.7002334594726562], [-0.10542141646146774, 0.6969543099403381, -0.08575041592121124, 0.7041220664978027]], [[2.011046886444092, -0.1746438443660736, 1.6775712966918945], [-0.14188125729560852, 0.6901979446411133, -0.11212874203920364, 0.700659453868866]], [[2.0244698524475098, -0.21454982459545135, 1.654150366783142], [-0.17881059646606445, 0.6817264556884766, -0.13728725910186768, 0.696008563041687]], [[2.037184000015259, -0.2530857026576996, 1.6298459768295288], [-0.2160918414592743, 0.6715325713157654, -0.1611616313457489, 0.6901994347572327]], [[2.0491158962249756, -0.29034432768821716, 1.604542851448059], [-0.25360551476478577, 0.6596142053604126, -0.18369166553020477, 0.6832647323608398]], [[2.0601866245269775, -0.32643312215805054, 1.5781359672546387], [-0.2912307381629944, 0.6459758281707764, -0.2048216462135315, 0.6752392053604126]], [[2.0703139305114746, -0.36147341132164, 1.5505328178405762], [-0.328845739364624, 0.6306276321411133, -0.224500373005867, 0.6661598682403564]], [[2.0794126987457275, -0.3955995738506317, 1.5216542482376099], [-0.3663279712200165, 0.6135855913162231, -0.24268123507499695, 0.6560658812522888]], [[2.087397575378418, -0.4289580285549164, 1.4914358854293823], [-0.4035549461841583, 0.5948721170425415, -0.25932255387306213, 0.6449979543685913]], [[2.0941834449768066, -0.4617060720920563, 1.4598287343978882], [-0.4404045343399048, 0.5745154619216919, -0.2743876874446869, 0.6329985857009888]], [[2.0996878147125244, -0.4940106272697449, 1.4268004894256592], [-0.476755291223526, 0.5525497198104858, -0.2878446877002716, 0.6201117634773254]], [[2.1038320064544678, -0.526046872138977, 1.3923355340957642], [-0.5124867558479309, 0.5290151238441467, -0.29966700077056885, 0.6063827276229858]], [[2.1065423488616943, -0.5579966306686401, 1.3564361333847046], [-0.5474804639816284, 0.5039574503898621, -0.30983299016952515, 0.5918577909469604]], [[2.107752561569214, -0.5900470018386841, 1.319122076034546], [-0.5816195011138916, 0.47742825746536255, -0.31832626461982727, 0.5765842795372009]], [[2.1074044704437256, -0.6223883628845215, 1.280430793762207], [-0.6147898435592651, 0.4494847059249878, -0.32513561844825745, 0.5606101751327515]], [[2.105449914932251, -0.6552127599716187, 1.240417242050171], [-0.646880030632019, 0.42018935084342957, -0.33025527000427246, 0.5439841151237488]], [[2.101850986480713, -0.6887122988700867, 1.1991535425186157], [-0.677781879901886, 0.3896099328994751, -0.33368438482284546, 0.5267548561096191]], [[2.0965826511383057, -0.7230768203735352, 1.1567283868789673], [-0.7073907852172852, 0.35781899094581604, -0.3354271650314331, 0.5089718103408813]], [[2.089632749557495, -0.7584925889968872, 1.113246202468872], [0.7356067299842834, -0.3248942792415619, 0.3354935944080353, -0.4906837046146393]], [[2.081003427505493, -0.7951400279998779, 1.0688259601593018], [0.7623332142829895, -0.29091769456863403, 0.33389803767204285, -0.47193968296051025]], [[2.0707108974456787, -0.8331920504570007, 1.023600459098816], [0.7874789834022522, -0.2559753954410553, 0.3306601941585541, -0.4527883529663086]], [[2.0587871074676514, -0.8728121519088745, 0.9777147769927979], [0.8109577298164368, -0.2201577126979828, 0.32580462098121643, -0.4332776665687561]], [[2.0452797412872314, -0.9141528606414795, 0.9313247799873352], [0.8326884508132935, -0.18355846405029297, 0.31936073303222656, -0.41345497965812683]], [[2.0302512645721436, -0.9573537707328796, 0.8845956921577454], [0.852595865726471, -0.1462748795747757, 0.31136244535446167, -0.3933667540550232]], [[2.0137810707092285, -1.0025403499603271, 0.8377001881599426], [0.8706105351448059, -0.10840719938278198, 0.30184850096702576, -0.373058557510376]], [[1.995962381362915, -1.0498220920562744, 0.7908169627189636], [0.8866692781448364, -0.07005823403596878, 0.2908618748188019, -0.3525746166706085]], [[1.9769045114517212, -1.099291205406189, 0.7441285848617554], [0.900715172290802, -0.03133317828178406, 0.2784498333930969, -0.33195799589157104]], [[1.9567303657531738, -1.151021957397461, 0.6978195905685425], [0.9126980304718018, 0.007660922594368458, 0.26466354727745056, -0.3112502098083496]], [[1.93557608127594, -1.2050689458847046, 0.6520748734474182], [0.922574520111084, 0.04681546986103058, 0.2495584487915039, -0.29049137234687805]], [[1.9135901927947998, -1.261466383934021, 0.6070773601531982], [0.9303078055381775, 0.08602071553468704, 0.2331932634115219, -0.2697196900844574]], [[1.8909320831298828, -1.3202279806137085, 0.5630063414573669], [0.9358685612678528, 0.12516622245311737, 0.2156304270029068, -0.24897180497646332]], [[1.867770791053772, -1.3813457489013672, 0.5200355648994446], [0.9392344355583191, 0.16414113342761993, 0.1969355195760727, -0.22828230261802673]], [[1.844283103942871, -1.4447901248931885, 0.4783312976360321], [0.9403902292251587, 0.20283471047878265, 0.17717719078063965, -0.20768384635448456]], [[1.8206522464752197, -1.5105096101760864, 0.43805068731307983], [0.9393280744552612, 0.24113669991493225, 0.15642692148685455, -0.18720708787441254]], [[1.7970657348632812, -1.5784311294555664, 0.3993401527404785], [0.936047375202179, 0.2789376378059387, 0.13475865125656128, -0.16688045859336853]], [[1.7737135887145996, -1.6484605073928833, 0.3623337745666504], [0.930554986000061, 0.31612950563430786, 0.11224877089262009, -0.14673031866550446]], [[1.750786542892456, -1.7204824686050415, 0.32715195417404175], [0.9228646755218506, 0.3526058495044708, 0.08897557854652405, -0.12678071856498718]], [[1.7284733057022095, -1.794362187385559, 0.29390019178390503], [0.9129974842071533, 0.38826224207878113, 0.06501919031143188, -0.10705339163541794]], [[1.7069593667984009, -1.8699454069137573, 0.2626679837703705], [0.9009818434715271, 0.4229969382286072, 0.04046133905649185, -0.08756788074970245]], [[1.6864241361618042, -1.9470603466033936, 0.23352792859077454], [0.8868528008460999, 0.4567108750343323, 0.015384919010102749, -0.06834136694669724]], [[1.667039394378662, -2.0255186557769775, 0.20653510093688965], [0.870652437210083, 0.4893083870410919, -0.010126140899956226, -0.04938870668411255]], [[1.6489671468734741, -2.105116844177246, 0.18172644078731537], [0.8524293303489685, 0.5206969976425171, -0.03598720207810402, -0.03072243556380272]], [[1.6323573589324951, -2.185638427734375, 0.15912047028541565], [0.8322386741638184, 0.5507887005805969, -0.062113165855407715, -0.012352806515991688]], [[1.6173462867736816, -2.2668557167053223, 0.13871723413467407], [0.8101419806480408, 0.5794994235038757, -0.08841874450445175, 0.005712191108614206]], [[1.6040551662445068, -2.3485312461853027, 0.12049833685159683], [0.7862064838409424, 0.6067498326301575, -0.1148187518119812, 0.023466812446713448]]]}}, {"element": 36, "tag": "place_approach", "path": [[2.6982753883619672, 0.2553645373154995, 0.5501342058810637, 0.2763405029378289, -3.3052815291135254, -0.9452561522339811, -0.9498248301673744], [2.6982753883619672, 0.2560321073934733, 0.550475333623194, 0.27652981412758626, -3.3014059876973314, -0.9394516873490738, -0.9610069888796615], [2.6982753883619672, 0.2565939855094623, 0.5508058265158274, 0.2767033472360788, -3.29719970866645, -0.9336912966536812, -0.9726245695923074], [2.6982753883619672, 0.2571440756742973, 0.5511355300925523, 0.27687976821659005, -3.292896111690276, -0.9279664717033531, -0.9843358804057915], [2.6982753883619672, 0.25765110800100566, 0.5514496145960692, 0.2770749509152512, -3.288418465780077, -0.9222583473633444, -0.9962529302967935], [2.6982753883619672, 0.258181388662075, 0.5517762314585339, 0.27726208708970945, -3.2839271723316723, -0.9166020519351559, -1.008140298812743], [2.6982753883619672, 0.25870322965027537, 0.552101454253985, 0.2774547798362883, -3.279344923655904, -0.9109810761960553, -1.020111597131282], [2.6982753883619672, 0.25921606249851203, 0.5524255890405436, 0.2776525596521367, -3.2746691281653595, -0.9053969641145145, -1.0321704585837144], [2.6982753883619672, 0.25971983460173287, 0.5527485391772355, 0.27785559019908235, -3.2698989562284715, -0.8998505250977776, -1.0443181522252203], [2.6982753883619672, 0.2602146242701952, 0.5530707989384098, 0.278063314258354, -3.2650331100030514, -0.8943431289057127, -1.0565562525704006], [2.6982753883619672, 0.2607003555710285, 0.5533925057258057, 0.2782755874236827, -3.2600707862856497, -0.888875812886389, -1.0688859046930255], [2.6982753883619672, 0.2611769029428383, 0.553713614632007, 0.27849253746936226, -3.2550114041169, -0.8834496607363341, -1.081308255521789], [2.6982753883619672, 0.2616445189940681, 0.5540343470314052, 0.27871393962445207, -3.249853715751927, -0.8780657768568462, -1.0938244874575414], [2.6982753883619672, 0.2621029402934498, 0.5543551109557469, 0.2789393285440572, -3.2445968572669797, -0.8727255584494051, -1.1064362903827796], [2.6982753883619672, 0.26255225171206803, 0.554675865623127, 0.2791688051546937, -3.2392400215561454, -0.8674299580509633, -1.1191444620911863], [2.6982753883619672, 0.26299252928564026, 0.5549967439357054, 0.27940224806965025, -3.233782431403487, -0.8621801923954563, -1.1319498550683507], [2.6982753883619672, 0.26342379727311577, 0.5553180634358597, 0.27963933513538547, -3.2282231651302005, -0.856977640989666, -1.1448543292485038], [2.6982753883619672, 0.26384578825795335, 0.5556400583600365, 0.27987981558498626, -3.2225613598329983, -0.8518235684926253, -1.1578585353490436], [2.6982753883619672, 0.26425865597179, 0.5559626319314278, 0.2801238141918026, -3.21679658249771, -0.8467190130400457, -1.1709637517025837], [2.6982753883619672, 0.2646625064480502, 0.5562862815599666, 0.28037076796300403, -3.21092782408915, -0.8416655635713334, -1.1841708485155857], [2.6982753883619672, 0.26502193907364024, 0.5566025765596349, 0.280630791712294, -3.204855055515739, -0.8366524667404703, -1.197618160945245], [2.6982753883619672, 0.2654055780753974, 0.5569284465579192, 0.2808840626789055, -3.1987699447782867, -0.8317042955654558, -1.2110405766979446], [2.6982753883619672, 0.2657807526795074, 0.5572557803598637, 0.2811400785424516, -3.1925812229266994, -0.8268109709842564, -1.2245653936495806], [2.6982753883619672, 0.2661468829193806, 0.5575846016117961, 0.28139873955480293, -3.186286045330927, -0.821973567832527, -1.2381955749695566], [2.6982753883619672, 0.26650378702990984, 0.5579154471028548, 0.2816594384921385, -3.1798836218216087, -0.8171938613461012, -1.2519327631315207], [2.6982753883619672, 0.2668515449104992, 0.5582481647550757, 0.28192238435485223, -3.173374000120993, -0.8124731853409611, -1.2657773669029406], [2.6982753883619672, 0.267190389404945, 0.5585831139918147, 0.28218716213706274, -3.1667564336975786, -0.8078128481669274, -1.279730181539801], [2.6982753883619672, 0.26751982125946794, 0.5589202739808697, 0.28245386531775735, -3.1600305309913987, -0.8032140927648832, -1.2937920458174703], [2.6982753883619672, 0.26784025829777913, 0.5592599852699301, 0.28272210171052664, -3.1531964439093247, -0.798678458538397, -1.3079629041645773], [2.6982753883619672, 0.26815133335812563, 0.5596024929468966, 0.2829915575842414, -3.1462533120688327, -0.7942076160787236, -1.3222443434123732], [2.6982753883619672, 0.26845354158983886, 0.5599477740538858, 0.2832623633127191, -3.139201548839576, -0.7898027067265371, -1.3366360920314306], [2.6982753883619672, 0.2687464657698073, 0.5602960544941532, 0.2835341629093222, -3.132041105554351, -0.7854650107469757, -1.3511384045488555], [2.6982753883619672, 0.2689966213854729, 0.5606418122135471, 0.28381876730123895, -3.124666879838598, -0.7811841670132939, -1.3658914028678812]], "attachments": [{"parent_name": "ECL_robot1_with_track", "parent_link_name": "eef_tcp_frame", "grasp_pose": [[-2.1457672119140625e-06, -0.253200888633728, -9.238719940185547e-07], [-0.5000006556510925, 0.5000011324882507, -0.49999934434890747, -0.4999988377094269]], "child_name": "body118"}], "link_path": {"eef_tcp_frame": [[[1.6040551662445068, -2.3485312461853027, 0.12049833685159683], [0.7862064838409424, 0.6067498326301575, -0.1148187518119812, 0.023466812446713448]], [[1.6055766344070435, -2.345097064971924, 0.11906261742115021], [0.7835641503334045, 0.6107379794120789, -0.11194369941949844, 0.022247038781642914]], [[1.6070970296859741, -2.341714859008789, 0.11766645312309265], [0.7808724045753479, 0.6147458553314209, -0.10903264582157135, 0.020919563248753548]], [[1.6085957288742065, -2.3383288383483887, 0.11628848314285278], [0.7781535387039185, 0.6187344789505005, -0.10611777752637863, 0.019587889313697815]], [[1.6100677251815796, -2.3349618911743164, 0.11493153870105743], [0.7754005789756775, 0.6227163076400757, -0.10318170487880707, 0.018221592530608177]], [[1.6115198135375977, -2.3315675258636475, 0.1135881096124649], [0.7726289629936218, 0.6266636848449707, -0.10025911033153534, 0.01688688062131405]], [[1.6129481792449951, -2.3281686305999756, 0.11226174235343933], [0.7698317766189575, 0.6305897235870361, -0.09733334928750992, 0.015552433207631111]], [[1.614352822303772, -2.324765920639038, 0.1109524741768837], [0.7670087814331055, 0.6344944834709167, -0.09440445899963379, 0.014217535965144634]], [[1.6157335042953491, -2.321359634399414, 0.10966037213802338], [0.7641600370407104, 0.6383779048919678, -0.09147244691848755, 0.012882320210337639]], [[1.6170903444290161, -2.3179500102996826, 0.10838528722524643], [0.7612855434417725, 0.6422398686408997, -0.08853747695684433, 0.011546656489372253]], [[1.618423342704773, -2.314537525177002, 0.10712724179029465], [0.7583855986595154, 0.6460803151130676, -0.0855996385216713, 0.010210666805505753]], [[1.61973237991333, -2.3111228942871094, 0.10588625818490982], [0.7554601430892944, 0.6498990058898926, -0.08265906572341919, 0.0088744992390275]], [[1.6210172176361084, -2.3077056407928467, 0.10466227680444717], [0.7525094151496887, 0.6536957621574402, -0.0797157734632492, 0.007538110949099064]], [[1.622278094291687, -2.3042867183685303, 0.10345520079135895], [0.7495333552360535, 0.6574706435203552, -0.07676998525857925, 0.006201489828526974]], [[1.6235147714614868, -2.3008663654327393, 0.10226505249738693], [0.7465322613716125, 0.6612234115600586, -0.07382170855998993, 0.004864754620939493]], [[1.6247271299362183, -2.2974445819854736, 0.10109181702136993], [0.7435060739517212, 0.6649537682533264, -0.07087104767560959, 0.0035279840230941772]], [[1.625915288925171, -2.2940220832824707, 0.099935382604599], [0.740454912185669, 0.6686619520187378, -0.06791817396879196, 