{"problem": ["SP_arch.json"], "config": [{"bar_only": false, "stiffness": false, "collision": true, "teleops": false, "partial_ordering": false, "chosen_bars": null}], "write_time": ["2020-12-28 12:23:22.202974"], "parameters": [{"trans_tol": 0.003, "rot_tol": Infinity, "joint_resolution": [0.05, 0.05395, 0.036250000000000004, 0.061244999999999994, 0.045865, 0.18770499999999998, 0.06565], "joint_weight": [10.0, 0.38197097020626436, 0.38197097020626436, 0.38197097020626436, 0.15915457091927682, 0.15915457091927682, 0.12732365673542145], "joint_jump_threshold": 1.0471975511965976, "enable_self_collisions": true, "pos_step_size": 0.01, "ori_step_size": 0.17453292519943295, "retreat_distance": 0.07}], "plan": [[{"element": 36, "tag": "transfer", "path": [[0.0, 0.0, 0.0, 0.0, 0.0, 0.0, 0.0], [0.011621138090580081, -0.038363883482410245, 0.03804194476537788, -0.018788897257006172, 0.010222497291528118, 0.042350517997038, -0.09496518919227562], [0.017431707135870122, -0.05754582522361537, 0.057062917148066813, -0.02818334588550926, 0.015333745937292177, 0.063525776995557, -0.14244778378841344], [0.023242276181160162, -0.0767277669648205, 0.07608388953075576, -0.03757779451401235, 0.020444994583056236, 0.084701035994076, -0.18993037838455126], [0.029052845226450203, -0.09590970870602562, 0.0951048619134447, -0.04697224314251544, 0.025556243228820295, 0.10587629499259499, -0.23741297298068909], [0.034863414271740244, -0.11509165044723074, 0.11412583429613363, -0.05636669177101853, 0.030667491874584354, 0.12705155399111398, -0.2848955675768269], [0.04067398331703029, -0.13427359218843588, 0.13314680667882256, -0.06576114039952162, 0.035778740520348414, 0.14822681298963297, -0.3323781621729647], [0.04648455236232033, -0.153455533929641, 0.1521677790615115, -0.0751555890280247, 0.04088998916611247, 0.16940207198815196, -0.37986075676910247], [0.052295121407610376, -0.17263747567084614, 0.17118875144420043, -0.08455003765652779, 0.04600123781187653, 0.19057733098667096, -0.42734335136524026], [0.05810569045290041, -0.19181941741205127, 0.19020972382688936, -0.09394448628503087, 0.05111248645764059, 0.21175258998518995, -0.47482594596137806], [0.06391625949819045, -0.2110013591532564, 0.2092306962095783, -0.10333893491353395, 0.05622373510340465, 0.23292784898370894, -0.5223085405575159], [0.06972682854348049, -0.23018330089446154, 0.22825166859226723, -0.11273338354203703, 0.06133498374916871, 0.25410310798222796, -0.5697911351536536], [0.07553739758877052, -0.24936524263566667, 0.24727264097495616, -0.12212783217054012, 0.06644623239493277, 0.275278366980747, -0.6172737297497914], [0.08134796663406056, -0.2685471843768718, 0.2662936133576451, -0.1315222807990432, 0.07155748104069683, 0.296453625979266, -0.6647563243459292], [0.0871585356793506, -0.28772912611807694, 0.2853145857403341, -0.1409167294275463, 0.07666872968646088, 0.317628884977785, -0.712238918942067], [0.09296910472464064, -0.30691106785928207, 0.30433555812302304, -0.15031117805604938, 0.08177997833222495, 0.33880414397630404, -0.7597215135382048], [0.09877967376993067, -0.3260930096004872, 0.323356530505712, -0.15970562668455246, 0.08689122697798901, 0.35997940297482306, -0.8072041081343426], [0.10459024281522071, -0.34527495134169234, 0.34237750288840096, -0.16910007531305554, 0.09200247562375306, 0.3811546619733421, -0.8546867027304804], [0.11040081186051075, -0.36445689308289747, 0.3613984752710899, -0.17849452394155862, 0.09711372426951712, 0.4023299209718611, -0.9021692973266182], [0.11621138090580078, -0.3836388348241026, 0.3804194476537789, -0.1878889725700617, 0.10222497291528118, 0.4235051799703801, -0.949651891922756], [0.12202194995109082, -0.40282077656530774, 0.39944042003646785, -0.1972834211985648, 0.10733622156104525, 0.4446804389688991, -0.9971344865188938], [0.12783251899638087, -0.42200271830651287, 0.4184613924191568, -0.20667786982706787, 0.1124474702068093, 0.4658556979674181, -1.0446170811150317], [0.1336430880416709, -0.441184660047718, 0.43748236480184577, -0.21607231845557096, 0.11755871885257335, 0.4870309569659371, -1.0920996757111696], [0.13945365708696095, -0.46036660178892314, 0.45650333718453473, -0.22546676708407404, 0.12266996749833742, 0.5082062159644561, -1.1395822703073075], [0.14526422613225098, -0.47954854353012827, 0.4755243095672237, -0.23486121571257712, 0.12778121614410148, 0.5293814749629752, -1.1870648649034454], [0.15107479517754102, -0.4987304852713334, 0.4945452819499126, -0.2442556643410802, 0.13289246478986555, 0.5505567339614942, -1.2345474594995833], [0.15688536422283106, -0.5179124270125385, 0.5135662543326015, -0.2536501129695833, 0.13800371343562962, 0.5717319929600132, -1.2820300540957212], [0.1626959332681211, -0.5370943687537436, 0.5325872267152905, -0.26304456159808637, 0.14311496208139368, 0.5929072519585322, -1.3295126486918591], [0.16850650231341113, -0.5562763104949487, 0.5516081990979794, -0.27243901022658945, 0.14822621072715775, 0.6140825109570512, -1.3769952432879968], [0.17431707135870117, -0.5754582522361539, 0.5706291714806684, -0.28183345885509253, 0.1533374593729218, 0.6352577699555703, -1.4244778378841347], [0.1801276404039912, -0.594640193977359, 0.5896501438633573, -0.2912279074835956, 0.15844870801868588, 0.6564330289540893, -1.4719604324802726], [0.18593820944928124, -0.6138221357185641, 0.6086711162460463, -0.3006223561120987, 0.16355995666444995, 0.6776082879526083, -1.5194430270764103], [0.19174877849457128, -0.6330040774597693, 0.6276920886287353, -0.3100168047406018, 0.168671205310214, 0.6987835469511273, -1.5669256216725482], [0.19755934753986132, -0.6521860192009744, 0.6467130610114242, -0.31941125336910486, 0.17378245395597808, 0.7199588059496463, -1.6144082162686861], [0.20336991658515136, -0.6713679609421795, 0.6657340333941132, -0.32880570199760795, 0.17889370260174214, 0.7411340649481654, -1.6618908108648238], [0.2091804856304414, -0.6905499026833847, 0.6847550057768022, -0.33820015062611103, 0.1840049512475062, 0.7623093239466844, -1.7093734054609615], [0.21499105467573143, -0.7097318444245898, 0.7037759781594911, -0.3475945992546141, 0.18911619989327028, 0.7834845829452034, -1.7568560000570992], [0.22080162372102147, -0.7289137861657949, 0.7227969505421801, -0.3569890478831172, 0.19422744853903434, 0.8046598419437224, -1.804338594653237], [0.2266121927663115, -0.7480957279070001, 0.741817922924869, -0.3663834965116203, 0.1993386971847984, 0.8258351009422414, -1.851821189249375], [0.23242276181160154, -0.7672776696482052, 0.760838895307558, -0.37577794514012336, 0.20444994583056247, 0.8470103599407605, -1.8993037838455127], [0.23823333085689158, -0.7864596113894103, 0.779859867690247, -0.38517239376862644, 0.2095611944763265, 0.8681856189392795, -1.9467863784416506], [0.24404389990218162, -0.8056415531306155, 0.7988808400729359, -0.3945668423971295, 0.21467244312209055, 0.8893608779377984, -1.9942689730377885], [0.24985446894747165, -0.8248234948718206, 0.8179018124556248, -0.4039612910256326, 0.21978369176785462, 0.9105361369363174, -2.041751567633926], [0.2556650379927617, -0.8440054366130257, 0.8369227848383136, -0.4133557396541357, 0.22489494041361868, 0.9317113959348364, -2.089234162230064], [0.2614756070380517, -0.8631873783542309, 0.8559437572210026, -0.4227501882826388, 0.23000618905938272, 0.9528866549333553, -2.1367167568262015], [0.26728617608334176, -0.882369320095436, 0.8749647296036915, -0.43214463691114186, 0.23511743770514676, 0.9740619139318742, -2.1841993514223392], [0.2730967451286318, -0.9015512618366411, 0.8939857019863804, -0.44153908553964494, 0.24022868635091083, 0.9952371729303933, -2.231681946018477], [0.27890731417392184, -0.9207332035778463, 0.9130066743690692, -0.4509335341681481, 0.2453399349966749, 1.0164124319289123, -2.2791645406146146], [0.2847178832192119, -0.9399151453190514, 0.9320276467517582, -0.46032798279665116, 0.25045118364243896, 1.0375876909274313, -2.3266471352107523], [0.29052845226450197, -0.9590970870602564, 0.9510486191344472, -0.46972243142515424, 0.255562432288203, 1.0587629499259503, -2.3741297298068904], [0.296339021309792, -0.9782790288014616, 0.970069591517136, -0.4791168800536574, 0.2606736809339671, 1.0799382089244693, -2.421612324403028], [0.30214959035508204, -0.9974609705426667, 0.9890905638998249, -0.4885113286821605, 0.2657849295797311, 1.1011134679229881, -2.4690949189991658], [0.30796015940037214, -1.0166429122838718, 1.0081115362825137, -0.4979057773106636, 0.27089617822549517, 1.1222887269215072, -2.516577513595304], [0.31377072844566223, -1.0358248540250767, 1.0271325086652028, -0.5073002259391667, 0.27600742687125923, 1.1434639859200262, -2.564060108191442], [0.31958129749095227, -1.0550067957662819, 1.0461534810478916, -0.5166946745676698, 0.28111867551702324, 1.164639244918545, -2.6115427027875797]], "attachments": [{"parent_name": "ECL_robot1_with_track", "parent_link_name": "eef_tcp_frame", "grasp_pose": [[5.7220458984375e-06, -0.143593430519104, -3.2782554626464844e-07], [-0.5000002980232239, -0.4999988079071045, -0.4999997019767761, 0.5000012516975403]], "child_name": "body158"}], "link_path": {"eef_tcp_frame": [[[1.9515000581741333, 0.0, 1.7650134563446045], [0.0, 0.7070939540863037, 0.0, 0.7071195840835571]], [[1.9938615560531616, -0.08793216198682785, 1.7085998058319092], [-0.017044175416231155, 0.728335440158844, -0.041983820497989655, 0.6837208867073059]], [[2.0130085945129395, -0.13290733098983765, 1.6798166036605835], [-0.02603904902935028, 0.7385371327400208, -0.061767663806676865, 0.6708722710609436]], [[2.030771017074585, -0.17848873138427734, 1.6506718397140503], [-0.03533749654889107, 0.7484465837478638, -0.08070318400859833, 0.6573172807693481]], [[2.0471303462982178, -0.22462572157382965, 1.6211825609207153], [-0.044930439442396164, 0.7580544948577881, -0.09876114875078201, 0.6431025862693787]], [[2.0620694160461426, -0.27126720547676086, 1.591366171836853], [-0.054808538407087326, 0.7673517465591431, -0.11591469496488571, 0.6282763481140137]], [[2.0755741596221924, -0.3183616101741791, 1.5612398386001587], [-0.06496220827102661, 0.7763299345970154, -0.13213954865932465, 0.6128875017166138]], [[2.087632179260254, -0.3658571243286133, 1.5308209657669067], [-0.07538154721260071, 0.7849803566932678, -0.14741386473178864, 0.5969865322113037]], [[2.098233222961426, -0.41370174288749695, 1.5001269578933716], [-0.08605640381574631, 0.7932946681976318, -0.1617184281349182, 0.5806246399879456]], [[2.1073691844940186, -0.4618432819843292, 1.469175100326538], [-0.09697651118040085, 0.8012657165527344, -0.17503675818443298, 0.5638536214828491]], [[2.115034341812134, -0.5102295875549316, 1.4379827976226807], [-0.10813124477863312, 0.8088856339454651, -0.1873549371957779, 0.5467262864112854]], [[2.121225118637085, -0.5588085651397705, 1.4065674543380737], [-0.11950987577438354, 0.8161478042602539, -0.19866186380386353, 0.5292956233024597]], [[2.1259398460388184, -0.6075282692909241, 1.3749464750289917], [-0.13110126554965973, 0.8230447173118591, -0.20894894003868103, 0.5116155743598938]], [[2.129178762435913, -0.6563370823860168, 1.3431370258331299], [-0.14289426803588867, 0.829569935798645, -0.21821047365665436, 0.49373990297317505]], [[2.1309449672698975, -0.7051836252212524, 1.3111563920974731], [-0.15487752854824066, 0.8357179164886475, -0.2264435887336731, 0.47572240233421326]], [[2.1312427520751953, -0.7540171146392822, 1.2790217399597168], [-0.16703945398330688, 0.8414825797080994, -0.23364797234535217, 0.4576171934604645]], [[2.1300785541534424, -0.8027870655059814, 1.2467501163482666], [-0.17936833202838898, 0.846858561038971, -0.2398262321949005, 0.4394780695438385]], [[2.1274614334106445, -0.8514437675476074, 1.2143584489822388], [-0.19185227155685425, 0.8518408536911011, -0.24498358368873596, 0.42135849595069885]], [[2.1234018802642822, -0.89993816614151, 1.18186354637146], [-0.20447921752929688, 0.8564246892929077, -0.24912793934345245, 0.4033116102218628]], [[2.1179118156433105, -0.9482218623161316, 1.1492820978164673], [-0.21723705530166626, 0.8606059551239014, -0.25227004289627075, 0.38538989424705505]], [[2.1110057830810547, -0.996247410774231, 1.1166305541992188], [-0.23011349141597748, 0.8643804788589478, -0.2544231414794922, 0.3676452040672302]], [[2.1026997566223145, -1.0439682006835938, 1.083925485610962], [-0.24309614300727844, 0.8677449226379395, -0.25560319423675537, 0.35012856125831604]], [[2.0930116176605225, -1.0913386344909668, 1.0511828660964966], [-0.2561725378036499, 0.8706960678100586, -0.2558286488056183, 0.33288994431495667]], [[2.081960439682007, -1.1383140087127686, 1.018418788909912], [-0.26933011412620544, 0.8732311129570007, -0.25512057542800903, 0.31597834825515747]], [[2.0695674419403076, -1.184851050376892, 0.985649049282074], [-0.2825561463832855, 0.8753476142883301, -0.2535023093223572, 0.299441397190094]], [[2.0558550357818604, -1.2309072017669678, 0.9528891444206238], [-0.29583805799484253, 0.8770436644554138, -0.25099977850914, 0.2833256125450134]], [[2.0408475399017334, -1.2764415740966797, 0.9201544523239136], [-0.30916306376457214, 0.8783175349235535, -0.2476411908864975, 0.26767590641975403]], [[2.0245699882507324, -1.3214141130447388, 0.8874600529670715], [-0.32251834869384766, 0.8791680335998535, -0.24345692992210388, 0.2525355815887451]], [[2.007049322128296, -1.3657864332199097, 0.8548207879066467], [-0.33589115738868713, 0.8795943856239319, -0.23847956955432892, 0.23794639110565186]], [[1.9883137941360474, -1.409521222114563, 0.8222511410713196], [-0.34926852583885193, 0.8795959949493408, -0.23274363577365875, 0.223948135972023]], [[1.968392252922058, -1.452582836151123, 0.7897655367851257], [-0.36263778805732727, 0.8791728615760803, -0.2262859344482422, 0.21057887375354767]], [[1.9473154544830322, -1.4949368238449097, 0.7573778033256531], [-0.3759860694408417, 0.8783254623413086, -0.21914492547512054, 0.19787468016147614]], [[1.925114631652832, -1.5365504026412964, 0.7251017689704895], [-0.3893005847930908, 0.8770542740821838, -0.2113608568906784, 0.18586941063404083]], [[1.9018222093582153, -1.5773921012878418, 0.6929507851600647], [-0.4025685489177704, 0.8753606081008911, -0.20297564566135406, 0.17459484934806824]], [[1.877471685409546, -1.6174322366714478, 0.6609379053115845], [-0.41577717661857605, 0.8732457756996155, -0.19403281807899475, 0.16408050060272217]], [[1.8520969152450562, -1.6566423177719116, 0.629075825214386], [-0.4289139211177826, 0.8707117438316345, -0.18457737565040588, 0.1543535739183426]], [[1.8257330656051636, -1.694995641708374, 0.5973770618438721], [-0.4419662356376648, 0.8677608370780945, -0.17465555667877197, 0.14543886482715607]], [[1.7984155416488647, -1.7324670553207397, 0.5658535957336426], [-0.4549214243888855, 0.8643956184387207, -0.16431479156017303, 0.13735871016979218]], [[1.770180583000183, -1.7690329551696777, 0.5345171093940735], [-0.46776726841926575, 0.860619068145752, -0.1536036878824234, 0.13013288378715515]], [[1.7410649061203003, -1.8046714067459106, 0.5033789873123169], [-0.4804913103580475, 0.85643470287323, -0.14257168769836426, 0.12377867847681046]], [[1.7111055850982666, -1.8393619060516357, 0.4724501967430115], [-0.49308136105537415, 0.8518461585044861, -0.13126903772354126, 0.11831068992614746]], [[1.6803401708602905, -1.873085618019104, 0.44174137711524963], [-0.505525529384613, 0.8468575477600098, -0.11974682658910751, 0.1137409508228302]], [[1.6488065719604492, -1.9058254957199097, 0.41126272082328796], [-0.51781165599823, 0.8414735198020935, -0.1080564633011818, 0.11007869243621826]], [[1.6165428161621094, -1.937565803527832, 0.3810240626335144], [-0.5299280881881714, 0.8356987833976746, -0.09624993801116943, 0.1073305532336235]], [[1.5835870504379272, -1.968292474746704, 0.35103490948677063], [-0.5418630838394165, 0.8295385241508484, -0.08437937498092651, 0.10550034791231155]], [[1.5499775409698486, -1.9979928731918335, 0.3213042616844177], [-0.5536051988601685, 0.8229984641075134, -0.07249713689088821, 0.10458926111459732]], [[1.5157525539398193, -2.026656150817871, 0.2918408215045929], [-0.565143346786499, 0.8160843253135681, -0.060655511915683746, 0.10459563136100769]], [[1.4809505939483643, -2.0542726516723633, 0.26265284419059753], [-0.5764662027359009, 0.8088023662567139, -0.048906661570072174, 0.10551508516073227]], [[1.4456095695495605, -2.0808346271514893, 0.233748197555542], [-0.5875630378723145, 0.8011592030525208, -0.03730245307087898, 0.10734057426452637]], [[1.4097676277160645, -2.106335401535034, 0.2051342874765396], [-0.5984231233596802, 0.7931617498397827, -0.025894327089190483, 0.11006230115890503]], [[1.373462438583374, -2.130769729614258, 0.17681820690631866], [-0.6090359091758728, 0.7848170399665833, -0.014733155257999897, 0.11366777122020721]], [[1.3367314338684082, -2.1541342735290527, 0.14880655705928802], [-0.6193912625312805, 0.7761327624320984, -0.0038691179361194372, 0.11814184486865997]], [[1.2996116876602173, -2.1764261722564697, 0.12110556662082672], [-0.6294791102409363, 0.7671165466308594, 0.006648443639278412, 0.12346675246953964]], [[1.2621400356292725, -2.1976449489593506, 0.09372104704380035], [-0.6392896771430969, 0.7577766180038452, 0.016771165654063225, 0.1296221762895584]], [[1.2243525981903076, -2.2177906036376953, 0.0666583999991417], [-0.6488136649131775, 0.7481213808059692, 0.02645176276564598, 0.1365852802991867]]]}}, {"element": 36, "tag": "place_approach", "path": [[0.31958129749095227, -1.0550067957662819, 1.0461534810478916, -0.5166946745676698, 0.28111867551702324, 1.164639244918545, -2.6115427027875797], [0.31958129749095227, -1.0513076214216979, 1.0454367632259804, -0.519229201957158, 0.26172266582703957, 1.1615159343210046, -2.610474277309732], [0.31958129749095227, -1.04756796999623, 1.0448397372828626, -0.5218740036002725, 0.24223145591011008, 1.1585350277363362, -2.6092807771271826], [0.31958129749095227, -1.0438050486127954, 1.0442520392274517, -0.5244174684745688, 0.22271331629387614, 1.1555487519508134, -2.60806399069471], [0.31958129749095227, -1.0400268345617711, 1.0436374250034353, -0.526790210584724, 0.20319183724733078, 1.152508556882666, -2.6068576389469214], [0.31958129749095227, -1.0362216919860259, 1.0430307937503114, -0.5290603462093153, 0.18362229649777553, 1.1494603287696656, -2.6055971276104084], [0.31958129749095227, -1.0324100800383043, 1.0424032408978054, -0.5311672821400609, 0.1640649019301828, 1.1463637368068764, -2.6043652147106653], [0.31958129749095227, -1.0285677727101068, 1.0417799064491267, -0.5331650629373837, 0.14443746092663576, 1.1432530617974368, -2.6030480436024668], [0.31958129749095227, -1.024734182244607, 1.0411459783170012, -0.5350149509611374, 0.12485761810368416, 1.1401065187650667, -2.6018022021887797], [0.31958129749095227, -1.0208601152978374, 1.0405089401978125, -0.5367433420703903, 0.10516640567522055, 1.1369355260960428, -2.6004170038570527], [0.31958129749095227, -1.0169710366238907, 1.0398647906567364, -0.5383351744923699, 0.08543781890721694, 1.1337329587953635, -2.5989888348569004], [0.31958129749095227, -1.013040976205039, 1.039194975322621, -0.539759265636808, 0.06558607916082032, 1.1304744993295148, -2.5974044953254767], [0.31958129749095227, -1.0091258359291764, 1.0385197355114968, -0.5410441037446275, 0.04577721433337343, 1.1271864023078126, -2.595880813771145], [0.31958129749095227, -1.0051850941807439, 1.0378107906108227, -0.5421426564584315, 0.025880464334611688, 1.1238317948802317, -2.5942438626135855], [0.31958129749095227, -1.0012413040785002, 1.0370808671650587, -0.5430756107756063, 0.005958411995499962, 1.1204275390926504, -2.592576081818353], [0.31958129749095227, -0.9972975321189744, 1.036356982356036, -0.5438923726843894, -0.013986895671580018, 1.1170093742383547, -2.590879228980574], [0.31958129749095227, -0.9933421338607207, 1.0355994861629252, -0.5445203690189571, -0.03399716984531517, 1.1135257471285025, -2.589096813888578], [0.31958129749095227, -0.9893830768441326, 1.0348270209682484, -0.5449932199323664, -0.05405519018646161, 1.110001872067476, -2.5872507047182767]], "attachments": [{"parent_name": "ECL_robot1_with_track", "parent_link_name": "eef_tcp_frame", "grasp_pose": [[5.7220458984375e-06, -0.143593430519104, -3.2782554626464844e-07], [-0.5000002980232239, -0.4999988079071045, -0.4999997019767761, 0.5000012516975403]], "child_name": "body158"}], "link_path": {"eef_tcp_frame": [[[1.2243525981903076, -2.2177906036376953, 0.0666583999991417], [-0.6488136649131775, 0.7481213808059692, 0.02645176276564598, 0.1365852802991867]], [[1.2252423763275146, -2.2203454971313477, 0.06873132288455963], [-0.6539381146430969, 0.7452822327613831, 0.026011772453784943, 0.12744714319705963]], [[1.2262293100357056, -2.2229607105255127, 0.07084817439317703], [-0.6589769721031189, 0.7423638105392456, 0.02561035007238388, 0.11827711760997772]], [[1.2272632122039795, -2.2255725860595703, 0.07299692183732986], [-0.6639379858970642, 0.7393573522567749, 0.02521100826561451, 0.1090938150882721]], [[1.2283263206481934, -2.2281618118286133, 0.07517371326684952], [-0.6688241958618164, 0.736259400844574, 0.024801945313811302, 0.0999058187007904]], [[1.2294416427612305, -2.230743646621704, 0.07738276571035385], [-0.6736279129981995, 0.7330784797668457, 0.02439768984913826, 0.09069831669330597]], [[1.230583667755127, -2.233307123184204, 0.07961779832839966], [-0.67835932970047, 0.7298024296760559, 0.023982811719179153, 0.08149775117635727]], [[1.2317819595336914, -2.2358570098876953, 0.08188457787036896], [-0.6830035448074341, 0.7264484763145447, 0.0235744621604681, 0.07227084040641785]], [[1.2330013513565063, -2.2383980751037598, 0.08417555689811707], [-0.6875810027122498, 0.7229925394058228, 0.02315361797809601, 0.06307199597358704]], [[1.2342841625213623, -2.240914821624756, 0.08649763464927673], [-0.6920639872550964, 0.7194667458534241, 0.022742319852113724, 0.053831011056900024]], [[1.2356101274490356, -2.243412971496582, 0.08884596079587936], [-0.6964649558067322, 0.7158563733100891, 0.022329580038785934, 0.044583357870578766]], [[1.2369933128356934, -2.2458693981170654, 0.09122035652399063], [-0.7007679343223572, 0.7121785879135132, 0.021920690312981606, 0.03529065474867821]], [[1.2383990287780762, -2.2483177185058594, 0.09361724555492401], [-0.7050032019615173, 0.7083999514579773, 0.021500946953892708, 0.02603231370449066]], [[1.2398492097854614, -2.250723123550415, 0.09603682160377502], [0.7091463804244995, -0.704547107219696, -0.021078316494822502, -0.0167490653693676]], [[1.2413320541381836, -2.2531015872955322, 0.09847794473171234], [0.7132096290588379, -0.7006067633628845, -0.020648565143346786, -0.007472604978829622]], [[1.2428556680679321, -2.2554686069488525, 0.10094159841537476], [0.7171931862831116, -0.6965786814689636, -0.020217863842844963, 0.0017925325082615018]], [[1.2444154024124146, -2.2577948570251465, 0.10342483967542648], [0.7210894823074341, -0.6924710869789124, -0.019780751317739487, 0.011065062135457993]], [[1.246012806892395, -2.2600929737091064, 0.10592787712812424], [0.7249016165733337, -0.6882805824279785, -0.019339675083756447, 0.02033388428390026]]]}}, {"element": 36, "tag": "place_retreat", "path": [[0.31958129749095227, -0.9893816418074377, 1.0348082098876008, -0.5449588099732579, -0.054060349740288005, 1.1099771467114186, -2.587243618157269], [0.31958129749095227, -0.9891710639378177, 1.0309071545856625, -0.546291637561406, -0.05392322973744497, 1.1151246183502845, -2.5873429821398974], [0.31958129749095227, -0.9889625419944938, 1.0272416713830115, -0.548047026017591, -0.05377434017856171, 1.1205474295245348, -2.587462307451153], [0.31958129749095227, -0.9887540580555175, 1.0236279674326412, -0.5498898272066998, -0.05362699767589544, 1.1260039496264813, -2.587581923243852], [0.31958129749095227, -0.9885456244838764, 1.0200699394590123, -0.5518268090638574, -0.053481053890028316, 1.1314987606615314, -2.587702090857874], [0.31958129749095227, -0.9883372417858355, 1.0165683001063854, -0.5538589422288768, -0.05333651838617086, 1.137032258170608, -2.587822827949847], [0.31958129749095227, -0.988128909988557, 1.0131235110626058, -0.5559867440314072, -0.0531934115678336, 1.1426045062376815, -2.5879441355877857], [0.31958129749095227, -0.9879206688598777, 1.0097592137655298, -0.5582527899036585, -0.053050848587939646, 1.14824554987043, -2.588067512507633]], "attachments": [], "link_path": {"eef_tcp_frame": [[[1.2460068464279175, -2.2600817680358887, 0.10592677444219589], [0.7249009013175964, -0.6882814168930054, -0.01933557540178299, 0.020336948335170746]], [[1.2465013265609741, -2.2599499225616455, 0.11590096354484558], [0.724900484085083, -0.6882826089859009, -0.01929290220141411, 0.020350048318505287]], [[1.2470612525939941, -2.259920597076416, 0.12588492035865784], [0.724900484085083, -0.6882826089859009, -0.01929282583296299, 0.020350048318505287]], [[1.2476197481155396, -2.2598891258239746, 0.1358686089515686], [0.724900484085083, -0.6882826089859009, -0.019291820004582405, 0.02035028673708439]], [[1.2481780052185059, -2.259857416152954, 0.1458522528409958], [0.7249005436897278, -0.6882826089859009, -0.01929072104394436, 0.02035054937005043]], [[1.2487363815307617, -2.2598257064819336, 0.1558358520269394], [0.7249006032943726, -0.6882825493812561, -0.019289586693048477, 0.02035081759095192]], [[1.2492945194244385, -2.259793758392334, 0.1658194214105606], [0.7249006032943726, -0.6882826089859009, -0.019288433715701103, 0.020351093262434006]], [[1.249861240386963, -2.259774684906006, 0.17580464482307434], [0.7249006032943726, -0.6882824897766113, -0.01929265819489956, 0.020350031554698944]]]}}, {"element": null, "tag": "transit", "path": [[0.31958129749095227, -0.9879206688598777, 1.0097592137655298, -0.5582527899036585, -0.053050848587939646, 1.14824554987043, -2.588067512507633], [0.3121835822712543, -0.9650521348584916, 0.9863851578913276, -0.5453302716188515, -0.05182281968544104, 1.1216657917715775, -2.528158542310697], [0.3107040392273147, -0.9604784280582144, 0.9817103467164873, -0.5427457679618901, -0.05157721390494133, 1.116349840151807, -2.51617674827131], [0.3092244961833751, -0.9559047212579372, 0.9770355355416469, -0.5401612643049287, -0.05133160812444161, 1.1110338885320366, -2.504194954231923], [0.30774495313943556, -0.95133101445766, 0.9723607243668064, -0.5375767606479673, -0.05108600234394189, 1.105717936912266, -2.4922131601925357], [0.30626541009549596, -0.9467573076573828, 0.967685913191966, -0.5349922569910059, -0.050840396563442164, 1.1004019852924956, -2.4802313661531485], [0.30478586705155636, -0.9421836008571055, 0.9630111020171256, -0.5324077533340446, -0.05059479078294245, 1.095086033672725, -2.4682495721137614], [0.3033063240076168, -0.9376098940568283, 0.9583362908422852, -0.5298232496770832, -0.05034918500244273, 1.0897700820529546, -2.4562677780743742], [0.3018267809636772, -0.9330361872565511, 0.9536614796674447, -0.5272387460201218, -0.05010357922194301, 1.084454130433184, -2.444285984034987], [0.3003472379197376, -0.9284624804562739, 0.9489866684926043, -0.5246542423631604, -0.049857973441443285, 1.0791381788134136, -2.4323041899956], [0.298867694875798, -0.9238887736559966, 0.9443118573177639, -0.522069738706199, -0.04961236766094357, 1.073822227193643, -2.420322395956213], [0.2973881518318584, -0.9193150668557195, 0.9396370461429235, -0.5194852350492376, -0.04936676188044385, 1.0685062755738726, -2.4083406019168256], [0.29590860878791886, -0.9147413600554423, 0.9349622349680831, -0.5169007313922762, -0.04912115609994413, 1.063190323954102, -2.3963588078774385], [0.29442906574397926, -0.910167653255165, 0.9302874237932426, -0.5143162277353148, -0.048875550319444405, 1.0578743723343316, -2.3843770138380513], [0.29294952270003966, -0.9055939464548878, 0.9256126126184022, -0.5117317240783534, -0.04862994453894469, 1.052558420714561, -2.372395219798664], [0.2914699796561001, -0.9010202396546105, 0.9209378014435619, -0.509147220421392, -0.04838433875844497, 1.0472424690947906, -2.360413425759277], [0.2899904366121605, -0.8964465328543334, 0.9162629902687214, -0.5065627167644307, -0.04813873297794525, 1.04192651747502, -2.34843163171989], [0.2885108935682209, -0.8918728260540562, 0.9115881790938809, -0.5039782131074693, -0.047893127197445526, 1.0366105658552496, -2.3364498376805027], [0.2870313505242813, -0.8872991192537789, 0.9069133679190405, -0.5013937094505079, -0.04764752141694581, 1.031294614235479, -2.3244680436411156], [0.2855518074803417, -0.8827254124535018, 0.9022385567442002, -0.4988092057935465, -0.04740191563644609, 1.0259786626157086, -2.3124862496017284], [0.28407226443640216, -0.8781517056532245, 0.8975637455693597, -0.49622470213658515, -0.04715630985594637, 1.020662710995938, -2.3005044555623413], [0.28259272139246255, -0.8735779988529473, 0.8928889343945192, -0.49364019847962376, -0.046910704075446646, 1.0153467593761676, -2.288522661522954], [0.28111317834852295, -0.86900429205267, 0.8882141232196789, -0.49105569482266237, -0.04666509829494693, 1.010030807756397, -2.276540867483567], [0.2796336353045834, -0.8644305852523928, 0.8835393120448385, -0.48847119116570104, -0.046419492514447214, 1.0047148561366266, -2.26455907344418], [0.2781540922606438, -0.8598568784521157, 0.878864500869998, -0.48588668750873965, -0.04617388673394749, 0.9993989045168561, -2.2525772794047927], [0.2766745492167042, -0.8552831716518384, 0.8741896896951575, -0.48330218385177826, -0.04592828095344777, 0.9940829528970856, -2.2405954853654055], [0.2751950061727646, -0.8507094648515612, 0.8695148785203172, -0.48071768019481687, -0.045682675172948044, 0.9887670012773151, -2.2286136913260184], [0.273715463128825, -0.846135758051284, 0.8648400673454768, -0.4781331765378555, -0.04543706939244832, 0.9834510496575446, -2.2166318972866312], [0.27223592008488545, -0.8415620512510068, 0.8601652561706363, -0.47554867288089414, -0.045191463611948604, 0.9781350980377741, -2.204650103247244], [0.27075637704094585, -0.8369883444507296, 0.8554904449957959, -0.47296416922393275, -0.04494585783144889, 0.9728191464180036, -2.192668309207857], [0.26927683399700625, -0.8324146376504523, 0.8508156338209555, -0.47037966556697136, -0.044700252050949164, 0.9675031947982331, -2.18068651516847], [0.2677972909530667, -0.8278409308501751, 0.8461408226461151, -0.46779516191001, -0.04445464627044944, 0.9621872431784626, -2.1687047211290826], [0.2663177479091271, -0.8232672240498979, 0.8414660114712746, -0.46521065825304864, -0.044209040489949725, 0.9568712915586921, -2.1567229270896955], [0.2603995757333687, -0.8049723968487891, 0.822766766771913, -0.45487264362520313, -0.043226617367950845, 0.9356074850796101, -2.108795750932147], [0.2544814035576103, -0.7866775696476802, 0.8040675220725513, -0.44453462899735763, -0.042244194245951966, 0.9143436786005281, -2.0608685747745983], [0.2485632313818519, -0.7683827424465713, 0.7853682773731896, -0.4341966143695121, -0.04126177112395309, 0.8930798721214461, -2.0129413986170497], [0.24264505920609353, -0.7500879152454625, 0.7666690326738279, -0.4238585997416666, -0.0402793480019542, 0.8718160656423641, -1.9650142224595009], [0.23672688703033515, -0.7317930880443536, 0.7479697879744662, -0.4135205851138211, -0.039296924879955314, 0.850552259163282, -1.917087046301952], [0.23080871485457677, -0.7134982608432447, 0.7292705432751045, -0.4031825704859756, -0.038314501757956435, 0.8292884526841999, -1.8691598701444032], [0.2248905426788184, -0.6952034336421359, 0.7105712985757429, -0.3928445558581301, -0.037332078635957555, 0.8080246462051179, -1.8212326939868544], [0.21897237050306, -0.676908606441027, 0.6918720538763812, -0.3825065412302846, -0.03634965551395867, 0.7867608397260358, -1.7733055178293056], [0.21305419832730163, -0.6586137792399182, 0.6731728091770195, -0.3721685266024391, -0.03536723239195978, 0.7654970332469537, -1.7253783416717567], [0.20713602615154325, -0.6403189520388093, 0.6544735644776578, -0.3618305119745936, -0.0343848092699609, 0.7442332267678717, -1.677451165514208], [0.20121785397578487, -0.6220241248377004, 0.6357743197782961, -0.3514924973467481, -0.033402386147962024, 0.7229694202887897, -1.629523989356659], [0.1952996818000265, -0.6037292976365916, 0.6170750750789344, -0.3411544827189026, -0.03241996302596314, 0.7017056138097076, -1.5815968131991103], [0.1893815096242681, -0.5854344704354827, 0.5983758303795728, -0.330816468091057, -0.03143753990396425, 0.6804418073306255, -1.5336696370415615], [0.18346333744850973, -0.5671396432343738, 0.5796765856802111, -0.32047845346321147, -0.03045511678196537, 0.6591780008515435, -1.4857424608840126], [0.17754516527275135, -0.548844816033265, 0.5609773409808494, -0.31014043883536596, -0.029472693659966485, 0.6379141943724616, -1.4378152847264638], [0.17162699309699297, -0.5305499888321561, 0.5422780962814877, -0.29980242420752046, -0.028490270537967603, 0.6166503878933794, -1.389888108568915], [0.1657088209212346, -0.5122551616310472, 0.523578851582126, -0.2894644095796749, -0.02750784741596872, 0.5953865814142973, -1.3419609324113662], [0.15979064874547622, -0.4939603344299384, 0.5048796068827643, -0.27912639495182934, -0.026525424293969837, 0.5741227749352154, -1.2940337562538173], [0.15387247656971784, -0.4756655072288296, 0.4861803621834027, -0.26878838032398383, -0.025543001171970954, 0.5528589684561334, -1.2461065800962685], [0.14795430439395946, -0.4573706800277208, 0.4674811174840411, -0.25845036569613833, -0.02456057804997207, 0.5315951619770513, -1.1981794039387197], [0.14203613221820108, -0.439075852826612, 0.44878187278467946, -0.2481123510682928, -0.02357815492797319, 0.5103313554979692, -1.1502522277811709], [0.1361179600424427, -0.4207810256255032, 0.43008262808531783, -0.23777433644044726, -0.022595731805974306, 0.4890675490188871, -1.102325051623622], [0.13019978786668432, -0.40248619842439437, 0.4113833833859562, -0.22743632181260173, -0.021613308683975423, 0.46780374253980506, -1.0543978754660732], [0.12428161569092594, -0.38419137122328556, 0.3926841386865946, -0.2170983071847562, -0.02063088556197654, 0.446539936060723, -1.0064706993085244], [0.11836344351516756, -0.36589654402217675, 0.37398489398723295, -0.20676029255691067, -0.019648462439977657, 0.42527612958164096, -0.9585435231509756], [0.11244527133940918, -0.3476017168210679, 0.3552856492878713, -0.19642227792906514, -0.018666039317978774, 0.4040123231025589, -0.9106163469934268], [0.1065270991636508, -0.3293068896199591, 0.3365864045885097, -0.1860842633012196, -0.01768361619597989, 0.38274851662347686, -0.8626891708358779], [0.10060892698789242, -0.31101206241885027, 0.31788715988914806, -0.17574624867337407, -0.01670119307398101, 0.3614847101443948, -0.8147619946783291], [0.09469075481213404, -0.2927172352177414, 0.29918791518978644, -0.16540823404552854, -0.015718769951982126, 0.34022090366531277, -0.7668348185207803], [0.08877258263637566, -0.27442240801663254, 0.2804886704904248, -0.155070219417683, -0.014736346829983243, 0.3189570971862307, -0.7189076423632315], [0.08285441046061728, -0.2561275808155237, 0.2617894257910632, -0.14473220478983748, -0.01375392370798436, 0.2976932907071487, -0.6709804662056827], [0.0769362382848589, -0.2378327536144149, 0.24309018109170152, -0.13439419016199194, -0.012771500585985477, 0.2764294842280666, -0.623053290048134], [0.07101806610910052, -0.21953792641330605, 0.22439093639233987, -0.12405617553414641, -0.011789077463986594, 0.2551656777489846, -0.5751261138905852], [0.06509989393334215, -0.2012430992121972, 0.2056916916929782, -0.11371816090630088, -0.010806654341987711, 0.23390187126990253, -0.5271989377330364], [0.059181721757583766, -0.18294827201108838, 0.18699244699361656, -0.10338014627845535, -0.009824231219988828, 0.21263806479082048, -0.4792717615754876], [0.05326354958182539, -0.16465344480997954, 0.1682932022942549, -0.09304213165060982, -0.008841808097989946, 0.19137425831173843, -0.43134458541793885], [0.04734537740606701, -0.1463586176088707, 0.14959395759489325, -0.08270411702276428, -0.007859384975991063, 0.17011045183265638, -0.3834174092603901], [0.04142720523030863, -0.12806379040776186, 0.1308947128955316, -0.07236610239491875, -0.00687696185399218, 0.14884664535357434, -0.3354902331028413], [0.035509033054550256, -0.10976896320665303, 0.11219546819616993, -0.06202808776707322, -0.005894538731993297, 0.1275828388744923, -0.28756305694529255], [0.02959086087879188, -0.09147413600554419, 0.09349622349680828, -0.05169007313922769, -0.004912115609994414, 0.10631903239541024, -0.23963588078774378], [0.023672688703033504, -0.07317930880443535, 0.07479697879744662, -0.04135205851138215, -0.003929692487995531, 0.08505522591632819, -0.19170870463019501], [0.017754516527275128, -0.05488448160332651, 0.05609773409808497, -0.03101404388353661, -0.0029472693659966485, 0.06379141943724614, -0.14378152847264625], [0.011836344351516752, -0.036589654402217675, 0.03739848939872331, -0.020676029255691074, -0.0019648462439977657, 0.042527612958164096, -0.09585435231509751], [0.005918172175758376, -0.018294827201108838, 0.018699244699361656, -0.010338014627845537, -0.0009824231219988828, 0.021263806479082048, -0.047927176157548754], [0.0, 0.0, 0.0, 0.0, 0.0, 0.0, 0.0]], "attachments": [], "link_path": {"eef_tcp_frame": [[[1.249861240386963, -2.259774684906006, 0.17580464482307434], [0.7249006032943726, -0.6882824897766113, -0.01929265819489956, 0.020350031554698944]], [[1.2996786832809448, -2.2301242351531982, 0.20986108481884003], [0.7120586633682251, -0.7017187476158142, -9.786713781068102e-05, 0.023732775822281837]], [[1.309556007385254, -2.2239794731140137, 0.21672146022319794], [0.7094305753707886, -0.7043488621711731, 0.003770070616155863, 0.024223117157816887]], [[1.3194029331207275, -2.217763662338257, 0.2235979586839676], [-0.7067828178405762, 0.70695960521698, -0.007645768113434315, -0.02465110830962658]], [[1.329219102859497, -2.2114765644073486, 0.23049046099185944], [-0.7041156888008118, 0.7095507979393005, -0.011528410017490387, -0.025016658008098602]], [[1.3390038013458252, -2.2051186561584473, 0.2373988777399063], [-0.7014292478561401, 0.7121223211288452, -0.015417172573506832, -0.025319673120975494]], [[1.3487563133239746, -2.1986896991729736, 0.24432307481765747], [-0.6987236738204956, 0.7146740555763245, -0.019311247393488884, -0.025560077279806137]], [[1.358476161956787, -2.192190170288086, 0.25126296281814575], [-0.695999026298523, 0.717205822467804, -0.02320980280637741, -0.02573779597878456]], [[1.3681625127792358, -2.185620069503784, 0.2582184076309204], [-0.6932556629180908, 0.7197174429893494, -0.027112023904919624, -0.025852780789136887]], [[1.3778148889541626, -2.1789798736572266, 0.2651892900466919], [-0.6904934644699097, 0.7222089171409607, -0.031017079949378967, -0.025904972106218338]], [[1.3874324560165405, -2.172269344329834, 0.27217555046081543], [-0.6877127289772034, 0.7246799468994141, -0.03492416813969612, -0.025894340127706528]], [[1.397014856338501, -2.1654887199401855, 0.2791770100593567], [-0.6849136352539062, 0.7271304726600647, -0.038832444697618484, -0.025820855051279068]], [[1.406561255455017, -2.1586382389068604, 0.2861935794353485], [-0.6820962429046631, 0.7295603156089783, -0.04274110123515129, -0.025684498250484467]], [[1.4160711765289307, -2.1517183780670166, 0.29322513937950134], [-0.6792607307434082, 0.73196941614151, -0.046649303287267685, -0.025485262274742126]], [[1.4255439043045044, -2.144728899002075, 0.30027157068252563], [-0.6764073371887207, 0.7343575358390808, -0.0505562387406826, -0.025223154574632645]], [[1.434978723526001, -2.1376700401306152, 0.30733275413513184], [-0.6735360622406006, 0.7367246747016907, -0.05446106567978859, -0.02489817887544632]], [[1.4443751573562622, -2.130542516708374, 0.314408540725708], [-0.6706472039222717, 0.7390705943107605, -0.05836298316717148, -0.024510366842150688]], [[1.4537324905395508, -2.1233458518981934, 0.321498841047287], [-0.6677408814430237, 0.7413951754570007, -0.062261153012514114, -0.02405974268913269]], [[1.463050127029419, -2.1160807609558105, 0.32860350608825684], [-0.6648171544075012, 0.7436983585357666, -0.06615476310253143, -0.023546356707811356]], [[1.4723273515701294, -2.1087472438812256, 0.3357224464416504], [-0.6618764400482178, 0.7459798455238342, -0.07004299014806747, -0.022970261052250862]], [[1.481563687324524, -2.1013455390930176, 0.3428554832935333], [-0.658918559551239, 0.7482397556304932, -0.07392499595880508, -0.022331509739160538]], [[1.4907585382461548, -2.0938761234283447, 0.3500025272369385], [-0.6559438705444336, 0.7504777312278748, -0.07779998332262039, -0.021630194038152695]], [[1.4999110698699951, -2.086338758468628, 0.3571634292602539], [-0.6529526114463806, 0.7526938915252686, -0.08166711777448654, -0.020866386592388153]], [[1.5090208053588867, -2.0787341594696045, 0.36433807015419006], [-0.6499446034431458, 0.7548878788948059, -0.08552558720111847, -0.020040184259414673]], [[1.5180871486663818, -2.0710625648498535, 0.3715263307094574], [-0.6469205021858215, 0.7570596933364868, -0.08937457948923111, -0.01915168948471546]], [[1.5271093845367432, -2.063323736190796, 0.3787280321121216], [-0.6438801884651184, 0.7592090964317322, -0.0932132750749588, -0.018201015889644623]], [[1.536086916923523, -2.055518388748169, 0.38594308495521545], [-0.6408236026763916, 0.7613361477851868, -0.0970408245921135, -0.017188284546136856]], [[1.5450191497802734, -2.0476467609405518, 0.3931713402271271], [-0.6377513408660889, 0.7634406685829163, -0.1008564755320549, -0.016113635152578354]], [[1.5539054870605469, -2.0397090911865234, 0.4004126787185669], [-0.6346633434295654, 0.7655224204063416, -0.10465937107801437, -0.014977212995290756]], [[1.562745451927185, -2.031705617904663, 0.4076669216156006], [-0.6315598487854004, 0.7675814628601074, -0.10844872891902924, -0.013779167085886002]], [[1.5715380907058716, -2.02363657951355, 0.4149339497089386], [-0.6284409165382385, 0.76961749792099, -0.11222372204065323, -0.012519663199782372]], [[1.5802831649780273, -2.015502452850342, 0.422213613986969], [-0.6253068447113037, 0.771630585193634, -0.11598354578018188, -0.011198882013559341]], [[1.588979721069336, -2.007303237915039, 0.4295057952404022], [-0.6221578121185303, 0.7736204862594604, -0.11972740292549133, -0.009816997684538364]], [[1.623270869255066, -1.9738643169403076, 0.45879676938056946], [-0.6094147562980652, 0.7813466191291809, -0.13452716171741486, -0.0036824916023761034]], [[1.656740665435791, -1.9394129514694214, 0.48827624320983887], [-0.5964453220367432, 0.7886937856674194, -0.14900778234004974, 0.003412283258512616]], [[1.6893513202667236, -1.903971552848816, 0.5179346799850464], [-0.5832608342170715, 0.7956556081771851, -0.16311904788017273, 0.011450862511992455]], [[1.721065640449524, -1.8675639629364014, 0.5477621555328369], [-0.5698727369308472, 0.8022257089614868, -0.17681163549423218, 0.02041427046060562]], [[1.7518473863601685, -1.830215573310852, 0.5777486562728882], [-0.5562926530838013, 0.8083981275558472, -0.19003722071647644, 0.03028113767504692]], [[1.781660795211792, -1.791953206062317, 0.6078836917877197], [-0.5425323247909546, 0.814167320728302, -0.20274843275547028, 0.041027702391147614]], [[1.8104712963104248, -1.7528051137924194, 0.6381565928459167], [-0.5286040306091309, 0.8195281624794006, -0.21489930152893066, 0.052627939730882645]], [[1.838244915008545, -1.712801218032837, 0.6685564517974854], [-0.5145195722579956, 0.8244758248329163, -0.22644491493701935, 0.06505347788333893]], [[1.8649488687515259, -1.671972393989563, 0.6990720629692078], [-0.5002914667129517, 0.8290056586265564, -0.237341970205307, 0.07827384769916534]], [[1.890551209449768, -1.6303514242172241, 0.7296920418739319], [-0.48593205213546753, 0.8331137299537659, -0.24754862487316132, 0.09225641191005707]], [[1.915021300315857, -1.5879720449447632, 0.7604047060012817], [-0.4714539349079132, 0.8367961049079895, -0.2570246160030365, 0.10696647316217422]], [[1.9383294582366943, -1.544869303703308, 0.791198194026947], [-0.456869512796402, 0.8400495648384094, -0.2657313942909241, 0.12236738204956055]], [[1.9604474306106567, -1.501079797744751, 0.8220602869987488], [-0.4421917498111725, 0.8428711295127869, -0.273632287979126, 0.13842061161994934]], [[1.9813480377197266, -1.4566409587860107, 0.8529787063598633], [-0.4274332821369171, 0.8452578186988831, -0.280692458152771, 0.15508583188056946]], [[2.0010054111480713, -1.4115917682647705, 0.8839408755302429], [-0.4126071631908417, 0.8472078442573547, -0.28687912225723267, 0.17232106626033783]], [[2.019395589828491, -1.3659720420837402, 0.9149340987205505], [-0.3977262079715729, 0.84871906042099, -0.2921614348888397, 0.1900826096534729]], [[2.0364952087402344, -1.3198227882385254, 0.9459454417228699], [-0.3828034996986389, 0.8497902154922485, -0.29651087522506714, 0.20832544565200806]], [[2.05228328704834, -1.2731859683990479, 0.9769616723060608], [-0.3678519129753113, 0.8504198789596558, -0.29990097880363464, 0.22700287401676178]], [[2.066739320755005, -1.2261046171188354, 1.007969617843628], [-0.3528846800327301, 0.850607693195343, -0.3023076057434082, 0.24606724083423615]], [[2.079845428466797, -1.1786224842071533, 1.038955807685852], [-0.33791473507881165, 0.8503531217575073, -0.3037089407444, 0.2654694616794586]], [[2.0915849208831787, -1.1307843923568726, 1.0699067115783691], [-0.32295525074005127, 0.8496562838554382, -0.30408570170402527, 0.28515949845314026]], [[2.101942777633667, -1.082635760307312, 1.1008082628250122], [-0.30801922082901, 0.8485177755355835, -0.303420752286911, 0.30508628487586975]], [[2.110905408859253, -1.0342228412628174, 1.1316468715667725], [-0.29311978816986084, 0.8469381332397461, -0.30169981718063354, 0.32519808411598206]], [[2.1184613704681396, -0.9855923652648926, 1.162408471107483], [-0.27826985716819763, 0.8449188470840454, -0.29891082644462585, 0.3454422354698181]], [[2.124601125717163, -0.9367917776107788, 1.193078875541687], [-0.2634824514389038, 0.8424614667892456, -0.2950444221496582, 0.36576560139656067]], [[2.1293163299560547, -0.8878690600395203, 1.2236437797546387], [-0.24877052009105682, 0.8395678997039795, -0.2900938093662262, 0.3861146569252014]], [[2.132601261138916, -0.838872492313385, 1.2540889978408813], [-0.2341468632221222, 0.8362406492233276, -0.28405481576919556, 0.4064353108406067]], [[2.134451150894165, -0.7898508310317993, 1.2844001054763794], [-0.219624325633049, 0.8324823975563049, -0.2769258916378021, 0.4266735315322876]], [[2.13486385345459, -0.7408530712127686, 1.314562439918518], [-0.20521555840969086, 0.8282963037490845, -0.2687080502510071, 0.44677501916885376]], [[2.1338391304016113, -0.6919283866882324, 1.3445615768432617], [-0.19093315303325653, 0.8236858248710632, -0.2594049572944641, 0.46668541431427]], [[2.131377935409546, -0.6431260704994202, 1.3743829727172852], [-0.17678959667682648, 0.8186548948287964, -0.24902303516864777, 0.48635080456733704]], [[2.12748384475708, -0.5944955348968506, 1.4040119647979736], [-0.16279730200767517, 0.813207745552063, -0.23757115006446838, 0.5057174563407898]], [[2.122162103652954, -0.5460861921310425, 1.4334337711334229], [-0.14896844327449799, 0.8073490858078003, -0.22506088018417358, 0.5247319340705872]], [[2.115419864654541, -0.49794721603393555, 1.462633728981018], [-0.13531513512134552, 0.8010836839675903, -0.21150633692741394, 0.5433413982391357]], [[2.107266426086426, -0.4501276910305023, 1.491597294807434], [-0.12184932827949524, 0.7944170236587524, -0.19692422449588776, 0.5614937543869019]], [[2.097712993621826, -0.40267640352249146, 1.5203096866607666], [-0.1085827648639679, 0.7873546481132507, -0.1813337206840515, 0.5791377425193787]], [[2.0867722034454346, -0.35564181208610535, 1.5487562417984009], [-0.09552706032991409, 0.7799026966094971, -0.16475655138492584, 0.5962228178977966]], [[2.0744590759277344, -0.3090718984603882, 1.5769222974777222], [-0.0826936587691307, 0.7720675468444824, -0.1472168266773224, 0.6126995086669922]], [[2.060790777206421, -0.26301419734954834, 1.6047933101654053], [-0.07009375840425491, 0.7638557553291321, -0.128741055727005, 0.628519594669342]], [[2.045786142349243, -0.21751561760902405, 1.6323546171188354], [-0.05773841589689255, 0.7552745938301086, -0.10935809463262558, 0.6436360478401184]], [[2.0294651985168457, -0.17262238264083862, 1.6595919132232666], [-0.045638397336006165, 0.7463312149047852, -0.08909904956817627, 0.6580032110214233]], [[2.0118510723114014, -0.12838000059127808, 1.6864906549453735], [-0.03380432352423668, 0.7370333075523376, -0.06799726188182831, 0.6715769171714783]], [[1.9929677248001099, -0.08483313769102097, 1.7130366563796997], [-0.022246524691581726, 0.7273889183998108, -0.04608815163373947, 0.684314489364624]], [[1.972841501235962, -0.04202554002404213, 1.739215612411499], [-0.010975128971040249, 0.7174063324928284, -0.023409243673086166, 0.6961750984191895]], [[1.9515000581741333, 0.0, 1.7650134563446045], [0.0, 0.7070939540863037, 0.0, 0.7071195840835571]]]}}], [{"element": 1, "tag": "transfer", "path": [[0.0, 0.0, 0.0, 0.0, 0.0, 0.0, 0.0], [0.0071617955156546695, -0.05200895164648407, 0.0378203248323435, 0.044959741224925784, 0.021888657077020757, 0.15744132356320995, 0.03418026891052463], [0.010742693273482004, -0.07801342746972612, 0.05673048724851526, 0.06743961183738867, 0.032832985615531135, 0.23616198534481492, 0.05127040336578695], [0.014323591031309339, -0.10401790329296814, 0.07564064966468702, 0.08991948244985157, 0.04377731415404151, 0.3148826471264199, 0.06836053782104926], [0.017904488789136672, -0.13002237911621017, 0.09455081208085878, 0.11239935306231445, 0.05472164269255189, 0.39360330890802486, 0.08545067227631156], [0.021485386546964007, -0.1560268549394522, 0.11346097449703053, 0.13487922367477734, 0.06566597123106227, 0.47232397068962984, 0.10254080673157387], [0.025066284304791343, -0.18203133076269423, 0.1323711369132023, 0.15735909428724024, 0.07661029976957265, 0.5510446324712348, 0.11963094118683618], [0.028647182062618678, -0.20803580658593626, 0.15128129932937404, 0.17983896489970314, 0.08755462830808303, 0.6297652942528398, 0.13672107564209848], [0.03222807982044601, -0.2340402824091783, 0.17019146174554578, 0.20231883551216603, 0.0984989568465934, 0.7084859560344448, 0.1538112100973608], [0.035808977578273345, -0.26004475823242035, 0.18910162416171752, 0.22479870612462893, 0.10944328538510378, 0.7872066178160497, 0.1709013445526231], [0.03938987533610068, -0.2860492340556624, 0.20801178657788927, 0.24727857673709183, 0.12038761392361416, 0.8659272795976547, 0.1879914790078854], [0.042970773093928015, -0.31205370987890446, 0.22692194899406104, 0.26975844734955473, 0.13133194246212454, 0.9446479413792597, 0.20508161346314774], [0.04655167085175535, -0.3380581857021465, 0.2458321114102328, 0.2922383179620176, 0.14227627100063492, 1.0233686031608646, 0.22217174791841005], [0.050132568609582685, -0.3640626615253886, 0.2647422738264046, 0.3147181885744805, 0.1532205995391453, 1.1020892649424696, 0.23926188237367235], [0.05371346636741002, -0.39006713734863063, 0.28365243624257636, 0.33719805918694334, 0.16416492807765568, 1.1808099267240746, 0.25635201682893466], [0.057294364125237356, -0.41607161317187263, 0.3025625986587481, 0.3596779297994062, 0.17510925661616605, 1.2595305885056796, 0.27344215128419697], [0.06087526188306469, -0.44207608899511464, 0.32147276107491984, 0.3821578004118691, 0.18605358515467643, 1.3382512502872845, 0.2905322857394593], [0.06445615964089202, -0.4680805648183567, 0.3403829234910916, 0.404637671024332, 0.1969979136931868, 1.4169719120688895, 0.3076224201947216], [0.06803705739871935, -0.49408504064159875, 0.3592930859072634, 0.42711754163679494, 0.2079422422316972, 1.4956925738504945, 0.32471255464998394], [0.07161795515654669, -0.5200895164648408, 0.3782032483234351, 0.4495974122492578, 0.21888657077020757, 1.5744132356320995, 0.34180268910524625], [0.07519885291437403, -0.5460939922880828, 0.3971134107396068, 0.4720772828617207, 0.22983089930871795, 1.6531338974137044, 0.35889282356050856], [0.07877975067220136, -0.5720984681113248, 0.4160235731557786, 0.4945571534741836, 0.24077522784722832, 1.7318545591953094, 0.3759829580157709]], "attachments": [{"parent_name": "ECL_robot1_with_track", "parent_link_name": "eef_tcp_frame", "grasp_pose": [[-7.033348083496094e-06, 0.0723886787891388, -5.960464477539063e-08], [0.4999989867210388, 0.5000007748603821, 0.500001072883606, -0.49999934434890747]], "child_name": "body123"}], "link_path": {"eef_tcp_frame": [[[1.9515000581741333, 0.0, 1.7650134563446045], [0.0, 0.7070939540863037, 0.0, 0.7071195840835571]], [[1.9859119653701782, -0.10880344361066818, 1.538288950920105], [0.04132889583706856, 0.78562992811203, 0.002519213128834963, 0.6173096299171448]], [[1.98726487159729, -0.16219733655452728, 1.426320195198059], [0.06403196603059769, 0.8198248744010925, 0.004631137941032648, 0.5690040588378906]], [[1.9784759283065796, -0.2139778733253479, 1.316541075706482], [0.08781134337186813, 0.8504189848899841, 0.007341811899095774, 0.5186739563941956]], [[1.9600341320037842, -0.26350560784339905, 1.2098522186279297], [0.1124417632818222, 0.8772745132446289, 0.01066976971924305, 0.4665108919143677]], [[1.9325519800186157, -0.3102104663848877, 1.107103943824768], [0.1376892626285553, 0.9002748131752014, 0.014629949815571308, 0.41271400451660156]], [[1.896752119064331, -0.35360345244407654, 1.0090845823287964], [0.16331297159194946, 0.9193264245986938, 0.019233474507927895, 0.3574884235858917]], [[1.8534530401229858, -0.39328643679618835, 0.916510283946991], [0.1890668272972107, 0.9343587756156921, 0.024487586691975594, 0.30104464292526245]], [[1.8035519123077393, -0.4289599061012268, 0.8300157785415649], [0.21470148861408234, 0.9453250765800476, 0.030395567417144775, 0.24359790980815887]], [[1.7480074167251587, -0.46042850613594055, 0.7501458525657654], [0.2399660050868988, 0.9522024393081665, 0.03695664927363396, 0.18536736071109772]], [[1.6878204345703125, -0.4876042306423187, 0.6773491501808167], [0.26460978388786316, 0.9549920558929443, 0.04416597634553909, 0.12657493352890015]], [[1.6240148544311523, -0.5105071067810059, 0.6119723320007324], [0.2883843779563904, 0.9537191390991211, 0.05201461911201477, 0.06744463741779327]], [[1.557618498802185, -0.5292634963989258, 0.5542564392089844], [0.3110453486442566, 0.9484326839447021, 0.06048954278230667, 0.008201676420867443]], [[1.4896429777145386, -0.5441018342971802, 0.5043346881866455], [0.33235403895378113, 0.9392052888870239, 0.06957362592220306, -0.05092849209904671]], [[1.4210656881332397, -0.5553460717201233, 0.46223166584968567], [0.3520796000957489, 0.9261325001716614, 0.07924577593803406, -0.10972100496292114]], [[1.3528118133544922, -0.5634069442749023, 0.4278644025325775], [0.37000027298927307, 0.9093321561813354, 0.0894809141755104, -0.1679525077342987]], [[1.2857381105422974, -0.568771243095398, 0.4010447859764099], [0.385905385017395, 0.8889437317848206, 0.10025015473365784, -0.22540201246738434]], [[1.2206182479858398, -0.5719888806343079, 0.38148367404937744], [0.3995968699455261, 0.8651272058486938, 0.11152083426713943, -0.28185173869132996]], [[1.158130168914795, -0.5736592411994934, 0.3687964081764221], [0.4108908176422119, 0.8380621671676636, 0.12325678765773773, -0.33708810806274414]], [[1.0988459587097168, -0.5744155645370483, 0.3625097870826721], [0.4196186363697052, 0.8079464435577393, 0.13541828095912933, -0.39090222120285034]], [[1.0432231426239014, -0.5749086737632751, 0.36207014322280884], [0.4256289303302765, 0.774994969367981, 0.1479625403881073, -0.44309136271476746]], [[0.9916002750396729, -0.5757905840873718, 0.3668527901172638], [0.42878809571266174, 0.7394379377365112, 0.16084353625774384, -0.4934588670730591]]]}}, {"element": 1, "tag": "place_approach", "path": [[0.07877975067220136, -0.5720984681113248, 0.4160235731557786, 0.4945571534741836, 0.24077522784722832, 1.7318545591953094, 0.3759829580157709], [0.07877975067220136, -0.5477392030833415, 0.3460049253629209, 0.5261755769576724, 0.16917501937072055, 1.6018726807289336, 0.2836313927319208], [0.07877975067220136, -0.525420580484951, 0.2684224863182852, 0.5711367403127201, 0.10774834788237442, 1.4601771221206052, 0.19938330907566384], [0.07877975067220136, -0.5058839420772434, 0.18484455992865384, 0.6279974762710643, 0.054871664759666254, 1.3080160628432291, 0.12064895037273352], [0.07877975067220136, -0.4901125141134252, 0.09704498624529105, 0.6951090493679504, 0.009706611778912116, 1.1462459815109216, 0.044326402949687434], [0.07877975067220136, -0.4793758158476251, 0.007246472846046527, 0.7704840655558476, -0.027160832921232027, 0.9754115372814612, -0.033740758018098414], [0.07877975067220136, -0.47536080394274666, -0.08187416007086466, 0.8520410965652779, -0.05208599289417642, 0.7954814534600426, -0.12050537597534967]], "attachments": [{"parent_name": "ECL_robot1_with_track", "parent_link_name": "eef_tcp_frame", "grasp_pose": [[-7.033348083496094e-06, 0.0723886787891388, -5.960464477539063e-08], [0.4999989867210388, 0.5000007748603821, 0.500001072883606, -0.49999934434890747]], "child_name": "body123"}], "link_path": {"eef_tcp_frame": [[[0.9916002750396729, -0.5757905840873718, 0.3668527901172638], [0.42878809571266174, 0.7394379377365112, 0.16084353625774384, -0.4934588670730591]], [[0.9888020753860474, -0.5823002457618713, 0.35610681772232056], [0.39359021186828613, 0.8062506318092346, 0.13371022045612335, -0.42091354727745056]], [[0.9872928261756897, -0.5887411236763, 0.34647852182388306], [0.35378745198249817, 0.8636332750320435, 0.10501420497894287, -0.3434297740459442]], [[0.9868979454040527, -0.5948836207389832, 0.3381552994251251], [0.3098446726799011, 0.9109074473381042, 0.0750885009765625, -0.2619268298149109]], [[0.9873256087303162, -0.600482702255249, 0.3312510848045349], [0.2622760534286499, 0.9475221633911133, 0.04428096115589142, -0.17734751105308533]], [[0.9883188009262085, -0.605334997177124, 0.32583311200141907], [0.2116451859474182, 0.973042368888855, 0.012937351129949093, -0.09070613980293274]], [[0.9895024299621582, -0.6092441082000732, 0.32186397910118103], [0.15854430198669434, 0.9871724247932434, -0.018583621829748154, -0.002995861228555441]]]}}, {"element": 1, "tag": "place_retreat", "path": [[0.07877975067220136, -0.47539490128214806, -0.08187821518632943, 0.8520435170206537, -0.0520330825487229, 0.7954788232841897, -0.12059177598441206], [0.07877975067220136, -0.47517771120788743, -0.088124390092578, 0.8493350168909108, -0.0514764778460641, 0.8044035134231269, -0.12112636416050807], [0.07877975067220136, -0.4748953817061359, -0.09429910474030605, 0.8465454420316848, -0.05102890960053219, 0.8133665712563879, -0.12148865443000458], [0.07877975067220136, -0.47460745223492057, -0.10038204160311946, 0.8436909167335951, -0.05060260812729024, 0.8223034523544904, -0.12182437603804631], [0.07877975067220136, -0.4743189626527259, -0.1063732803124259, 0.8407718835119742, -0.0501893987647339, 0.8312133754220165, -0.12214663974091614], [0.07877975067220136, -0.47403034959713597, -0.11227277990693245, 0.8377887831015676, -0.04978820689116849, 0.8400958311561126, -0.12245694217925515], [0.07877975067220136, -0.4737416528270679, -0.1180805130216659, 0.8347420706704334, -0.04939857898373996, 0.8489503286168307, -0.1227557701679665], [0.07877975067220136, -0.4734528785880455, -0.12379648331689755, 0.8316322045390236, -0.04902012804800201, 0.8577764065805493, -0.12304351160721727], [0.07877975067220136, -0.4731640298201702, -0.12942072622272247, 0.828459644858411, -0.04865248848249723, 0.8665736340254722, -0.12332052035557116]], "attachments": [], "link_path": {"eef_tcp_frame": [[[0.9894915819168091, -0.6092600226402283, 0.32186460494995117], [0.15853674709796906, 0.9871739745140076, -0.018565956503152847, -0.0029893789906054735]], [[0.9895808696746826, -0.6089879870414734, 0.3305734395980835], [0.15852098166942596, 0.9871771931648254, -0.01853230781853199, -0.0029664309695363045]], [[0.9896812438964844, -0.6086795926094055, 0.33931857347488403], [0.1585194170475006, 0.9871775507926941, -0.018528424203395844, -0.0029653552919626236]], [[0.9897831082344055, -0.608368456363678, 0.34806352853775024], [0.15851907432079315, 0.9871776103973389, -0.01852746494114399, -0.0029652065131813288]], [[0.989885151386261, -0.6080570816993713, 0.35680845379829407], [0.15851886570453644, 0.9871776700019836, -0.018526801839470863, -0.0029651338700205088]], [[0.9899871349334717, -0.6077456474304199, 0.3655533492565155], [0.15851864218711853, 0.9871777296066284, -0.018526194617152214, -0.0029650693759322166]], [[0.9900891780853271, -0.6074341535568237, 0.37429818511009216], [0.1585184633731842, 0.9871777892112732, -0.018525633960962296, -0.0029650090727955103]], [[0.9901911616325378, -0.6071226596832275, 0.38304299116134644], [0.15851826965808868, 0.987177848815918, -0.018525106832385063, -0.002964950166642666]], [[0.9902932047843933, -0.6068111062049866, 0.3917877674102783], [0.15851809084415436, 0.987177848815918, -0.018524611368775368, -0.0029648933559656143]]]}}, {"element": null, "tag": "transit", "path": [[0.07877975067220136, -0.4731640298201702, -0.12942072622272247, 0.828459644858411, -0.04865248848249723, 0.8665736340254722, -0.12332052035557116], [0.07330893465329849, -0.440305416638214, -0.12043317579058896, 0.7709277250765768, -0.04527384344899048, 0.80639490944037, -0.11475659533087872], [0.07221477144951792, -0.4337336940018227, -0.11863566570416226, 0.75942134112021, -0.04459811444228912, 0.7943591645233495, -0.11304381032594023], [0.07112060824573735, -0.42716197136543144, -0.11683815561773556, 0.7479149571638432, -0.04392238543558777, 0.7823234196063291, -0.11133102532100174], [0.07002644504195676, -0.4205902487290402, -0.11504064553130885, 0.7364085732074763, -0.04324665642888642, 0.7702876746893086, -0.10961824031606325], [0.0689322818381762, -0.414018526092649, -0.11324313544488215, 0.7249021892511095, -0.04257092742218507, 0.7582519297722882, -0.10790545531112476], [0.06783811863439562, -0.4074468034562577, -0.11144562535845545, 0.7133958052947427, -0.04189519841548372, 0.7462161848552678, -0.10619267030618627], [0.06674395543061504, -0.40087508081986645, -0.10964811527202875, 0.7018894213383758, -0.041219469408782364, 0.7341804399382472, -0.10447988530124779], [0.06564979222683447, -0.3943033581834752, -0.10785060518560205, 0.690383037382009, -0.040543740402081016, 0.7221446950212268, -0.1027671002963093], [0.0645556290230539, -0.387731635547084, -0.10605309509917535, 0.6788766534256422, -0.03986801139537967, 0.7101089501042064, -0.10105431529137081], [0.06346146581927332, -0.38115991291069273, -0.10425558501274865, 0.6673702694692754, -0.03919228238867832, 0.698073205187186, -0.09934153028643232], [0.062367302615492747, -0.37458819027430146, -0.10245807492632195, 0.6558638855129085, -0.03851655338197697, 0.6860374602701655, -0.09762874528149383], [0.06127313941171217, -0.36801646763791024, -0.10066056483989524, 0.6443575015565417, -0.03784082437527562, 0.674001715353145, -0.09591596027655534], [0.0601789762079316, -0.36144474500151896, -0.09886305475346854, 0.6328511176001749, -0.03716509536857427, 0.6619659704361246, -0.09420317527161685], [0.05908481300415102, -0.3548730223651277, -0.09706554466704184, 0.621344733643808, -0.03648936636187292, 0.6499302255191042, -0.09249039026667837], [0.05799064980037044, -0.34830129972873647, -0.09526803458061514, 0.6098383496874412, -0.03581363735517157, 0.6378944806020836, -0.09077760526173988], [0.05689648659658987, -0.3417295770923452, -0.09347052449418844, 0.5983319657310744, -0.03513790834847022, 0.6258587356850632, -0.08906482025680139], [0.05251983378146757, -0.3154426865467802, -0.08628048414848163, 0.5523064299056071, -0.032434992321664816, 0.5777157560169814, -0.08221368023704743], [0.048143180966345275, -0.2891557960012152, -0.07909044380277483, 0.5062808940801398, -0.029732076294859414, 0.5295727763488997, -0.07536254021729348], [0.04376652815122298, -0.26286890545565017, -0.07190040345706802, 0.4602553582546725, -0.027029160268054013, 0.48142979668081787, -0.06851140019753953], [0.03938987533610068, -0.23658201491008515, -0.06471036311136122, 0.41422982242920525, -0.02432624424124861, 0.4332868170127361, -0.06166026017778557], [0.03501322252097838, -0.21029512436452014, -0.057520322765654414, 0.368204286603738, -0.02162332821444321, 0.3851438373446543, -0.05480912015803162], [0.030636569705856084, -0.18400823381895512, -0.05033028241994761, 0.32217875077827074, -0.01892041218763781, 0.3370008576765725, -0.047957980138277664], [0.026259916890733787, -0.1577213432733901, -0.04314024207424081, 0.2761532149528035, -0.016217496160832408, 0.2888578780084907, -0.04110684011852371], [0.02188326407561149, -0.13143445272782509, -0.03595020172853401, 0.23012767912733623, -0.013514580134027007, 0.24071489834040893, -0.034255700098769756], [0.01750661126048919, -0.10514756218226007, -0.02876016138282721, 0.18410214330186897, -0.010811664107221605, 0.19257191867232715, -0.027404560079015806], [0.013129958445366893, -0.07886067163669505, -0.02157012103712041, 0.1380766074764017, -0.008108748080416204, 0.14442893900424536, -0.020553420059261855], [0.008753305630244596, -0.052573781091130034, -0.014380080691413607, 0.09205107165093449, -0.005405832053610803, 0.09628595933616357, -0.013702280039507905], [0.004376652815122298, -0.026286890545565017, -0.0071900403457068034, 0.04602553582546724, -0.0027029160268054013, 0.04814297966808179, -0.006851140019753952], [0.0, 0.0, 0.0, 0.0, 0.0, 0.0, 0.0]], "attachments": [], "link_path": {"eef_tcp_frame": [[[0.9902932047843933, -0.6068111062049866, 0.3917877674102783], [0.15851809084415436, 0.987177848815918, -0.018524611368775368, -0.0029648933559656143]], [[1.0952956676483154, -0.6076155304908752, 0.44971349835395813], [0.1472359299659729, 0.9873120784759521, -0.03214132413268089, 0.05003463476896286]], [[1.116131067276001, -0.6068667769432068, 0.4621848165988922], [0.14492709934711456, 0.9869731664657593, -0.03459950536489487, 0.06068713217973709]], [[1.1368910074234009, -0.605813205242157, 0.4749479591846466], [0.1426028162240982, 0.986512303352356, -0.03696832060813904, 0.07135296612977982]], [[1.1575669050216675, -0.6044543385505676, 0.4880010783672333], [0.14026397466659546, 0.9859293103218079, -0.03924739360809326, 0.08203031867742538]], [[1.178149938583374, -0.6027899980545044, 0.5013422966003418], [0.13791145384311676, 0.9852243065834045, -0.041436392813920975, 0.09271741658449173]], [[1.1986315250396729, -0.6008202433586121, 0.5149696469306946], [0.13554613292217255, 0.9843971729278564, -0.04353497922420502, 0.1034124344587326]], [[1.2190027236938477, -0.5985451936721802, 0.5288809537887573], [0.13316889107227325, 0.9834480881690979, -0.04554286226630211, 0.11411352455615997]], [[1.2392550706863403, -0.5959652662277222, 0.5430739521980286], [0.13078062236309052, 0.9823768734931946, -0.04745976999402046, 0.12481892108917236]], [[1.2593796253204346, -0.593080997467041, 0.5575463175773621], [0.12838217616081238, 0.9811837077140808, -0.04928542673587799, 0.13552673161029816]], [[1.2793678045272827, -0.589893102645874, 0.5722955465316772], [0.12597446143627167, 0.9798687696456909, -0.05101964250206947, 0.14623518288135529]], [[1.2992109060287476, -0.5864025354385376, 0.587319016456604], [0.12355837970972061, 0.9784319996833801, -0.052662193775177, 0.1569424569606781]], [[1.318900465965271, -0.5826104283332825, 0.602614164352417], [0.12113479524850845, 0.976873517036438, -0.05421290546655655, 0.16764669120311737]], [[1.3384277820587158, -0.5785180330276489, 0.6181780099868774], [0.11870457977056503, 0.9751936197280884, -0.05567162483930588, 0.17834602296352386]], [[1.3577842712402344, -0.5741267800331116, 0.6340076923370361], [0.11626865714788437, 0.9733923673629761, -0.05703822895884514, 0.1890387088060379]], [[1.3769614696502686, -0.5694384574890137, 0.6501002311706543], [0.11382788419723511, 0.9714698195457458, -0.058312609791755676, 0.19972284138202667]], [[1.3959509134292603, -0.5644548535346985, 0.6664524078369141], [0.11138316243886948, 0.9694263339042664, -0.059494685381650925, 0.2103966325521469]], [[1.4698646068572998, -0.5416109561920166, 0.7343910336494446], [0.10158241540193558, 0.9600467085838318, -0.06329921633005142, 0.25295156240463257]], [[1.5401161909103394, -0.5142377018928528, 0.8062052130699158], [0.09178910404443741, 0.948750913143158, -0.06562688946723938, 0.2951943278312683]], [[1.606201410293579, -0.48253926634788513, 0.8816438913345337], [0.08205938339233398, 0.9355593919754028, -0.06648436933755875, 0.337008535861969]], [[1.6676422357559204, -0.4467635452747345, 0.9604316353797913], [0.07244893163442612, 0.9204975962638855, -0.06588450819253922, 0.3782784938812256]], [[1.7239922285079956, -0.40719953179359436, 1.0422700643539429], [0.06301263719797134, 0.9035951495170593, -0.06384635716676712, 0.4188900291919708]], [[1.7748405933380127, -0.3641747832298279, 1.1268396377563477], [0.05380454286932945, 0.8848862051963806, -0.06039505451917648, 0.4587307274341583]], [[1.8198164701461792, -0.3180520236492157, 1.2138019800186157], [0.0448775552213192, 0.864409327507019, -0.05556171387434006, 0.4976900815963745]], [[1.8585929870605469, -0.26922544836997986, 1.302801489830017], [0.03628332540392876, 0.842207133769989, -0.04938333109021187, 0.5356603860855103]], [[1.8908904790878296, -0.21811673045158386, 1.3934677839279175], [0.02807203121483326, 0.8183265328407288, -0.04190259799361229, 0.5725364685058594]], [[1.916479468345642, -0.1651705801486969, 1.4854182004928589], [0.02029225416481495, 0.7928181886672974, -0.03316773474216461, 0.6082167029380798]], [[1.935183048248291, -0.11085003614425659, 1.5782601833343506], [0.012990778312087059, 0.7657371759414673, -0.023232372477650642, 0.6426027417182922]], [[1.9468787908554077, -0.055631574243307114, 1.6715935468673706], [0.006212445441633463, 0.7371415495872498, -0.01215523574501276, 0.6756004691123962]], [[1.9515000581741333, 0.0, 1.7650134563446045], [0.0, 0.7070939540863037, 0.0, 0.7071195840835571]]]}}], [{"element": 0, "tag": "transfer", "path": [[0.0, 0.0, 0.0, 0.0, 0.0, 0.0, 0.0], [0.05646855545644651, 0.01649885526991391, 0.022375359310980534, 0.017633361339464526, -0.007434516820817902, 0.08630560713462435, 0.09095800250631465], [0.08470283318466976, 0.024748282904870866, 0.0335630389664708, 0.02645004200919679, -0.011151775231226853, 0.12945841070193653, 0.136437003759472], [0.112937110912893, 0.03299771053982782, 0.04475071862196107, 0.03526672267892905, -0.014869033641635804, 0.1726112142692487, 0.1819160050126293], [0.14117138864111625, 0.04124713817478477, 0.05593839827745133, 0.044083403348661315, -0.018586292052044755, 0.21576401783656088, 0.22739500626578663], [0.1694056663693395, 0.049496565809741724, 0.0671260779329416, 0.05290008401839358, -0.022303550462453706, 0.25891682140387307, 0.272874007518944], [0.19763994409756278, 0.057745993444698676, 0.07831375758843187, 0.06171676468812584, -0.026020808872862657, 0.3020696249711852, 0.3183530087721013], [0.22587422182578604, 0.06599542107965563, 0.08950143724392214, 0.0705334453578581, -0.029738067283271608, 0.3452224285384974, 0.36383201002525867], [0.25410849955400927, 0.07424484871461258, 0.1006891168994124, 0.07935012602759037, -0.03345532569368056, 0.38837523210580954, 0.409311011278416], [0.2823427772822325, 0.08249427634956953, 0.11187679655490267, 0.08816680669732263, -0.03717258410408951, 0.4315280356731217, 0.45479001253157336], [0.31057705501045574, 0.09074370398452648, 0.12306447621039293, 0.0969834873670549, -0.04088984251449846, 0.47468083924043386, 0.5002690137847307], [0.33881133273867897, 0.09899313161948343, 0.1342521558658832, 0.10580016803678716, -0.04460710092490741, 0.517833642807746, 0.545748015037888], [0.3670456104669022, 0.10724255925444039, 0.1454398355213735, 0.11461684870651942, -0.04832435933531636, 0.5609864463750582, 0.5912270162910452], [0.39527988819512544, 0.11549198688939734, 0.15662751517686377, 0.12343352937625168, -0.05204161774572531, 0.6041392499423704, 0.6367060175442025], [0.4235141659233487, 0.12374141452435429, 0.16781519483235405, 0.13225021004598395, -0.055758876156134264, 0.6472920535096827, 0.6821850187973598], [0.4517484436515719, 0.13199084215931126, 0.17900287448784433, 0.1410668907157162, -0.059476134566543215, 0.6904448570769949, 0.7276640200505171], [0.47998272137979514, 0.1402402697942682, 0.1901905541433346, 0.14988357138544847, -0.06319339297695217, 0.7335976606443071, 0.7731430213036744], [0.5082169991080184, 0.14848969742922516, 0.20137823379882486, 0.15870025205518073, -0.06691065138736113, 0.7767504642116193, 0.8186220225568317], [0.5364512768362417, 0.1567391250641821, 0.21256591345431514, 0.167516932724913, -0.07062790979777009, 0.8199032677789315, 0.864101023809989], [0.564685554564465, 0.16498855269913906, 0.2237535931098054, 0.17633361339464526, -0.07434516820817903, 0.8630560713462437, 0.9095800250631463], [0.5929198322926883, 0.17323798033409601, 0.23494127276529564, 0.18515029406437752, -0.07806242661858798, 0.906208874913556, 0.9550590263163036], [0.6211541100209116, 0.18148740796905297, 0.24612895242078592, 0.1939669747341098, -0.08177968502899693, 0.9493616784808682, 1.0005380275694609], [0.6493883877491349, 0.18973683560400992, 0.2573166320762762, 0.20278365540384205, -0.08549694343940589, 0.9925144820481804, 1.0460170288226183], [0.6776226654773582, 0.19798626323896687, 0.2685043117317665, 0.2116003360735743, -0.08921420184981484, 1.0356672856154925, 1.0914960300757757], [0.7058569432055815, 0.20623569087392382, 0.27969199138725676, 0.22041701674330658, -0.09293146026022378, 1.0788200891828046, 1.136975031328933], [0.7129155126376373, 0.20829804778266306, 0.2824889113011293, 0.22262118691073965, -0.09386077486282601, 1.0896082900746327, 1.1483447816422223], [0.7199740820696932, 0.2103604046914023, 0.2852858312150019, 0.22482535707817272, -0.09479008946542826, 1.1003964909664607, 1.1597145319555118], [0.7270326515017489, 0.21242276160014154, 0.2880827511288745, 0.22702952724560577, -0.0957194040680305, 1.1111846918582886, 1.1710842822688012], [0.7340912209338047, 0.21448511850888077, 0.29087967104274703, 0.22923369741303884, -0.09664871867063274, 1.1219728927501167, 1.1824540325820905], [0.7411497903658606, 0.21654747541762, 0.2936765909566196, 0.2314378675804719, -0.09757803327323497, 1.1327610936419448, 1.1938237828953797], [0.7482083597979164, 0.21860983232635925, 0.2964735108704922, 0.23364203774790498, -0.09850734787583722, 1.1435492945337729, 1.2051935332086692], [0.7552669292299723, 0.2206721892350985, 0.29927043078436477, 0.23584620791533806, -0.09943666247843946, 1.154337495425601, 1.2165632835219586], [0.762325498662028, 0.22273454614383772, 0.3020673506982373, 0.2380503780827711, -0.1003659770810417, 1.1651256963174288, 1.2279330338352479], [0.7693840680940839, 0.22479690305257696, 0.30486427061210986, 0.24025454825020418, -0.10129529168364393, 1.1759138972092569, 1.2393027841485371], [0.7764426375261397, 0.2268592599613162, 0.30766119052598245, 0.24245871841763725, -0.10222460628624616, 1.186702098101085, 1.2506725344618266], [0.7835012069581955, 0.22892161687005544, 0.31045811043985505, 0.2446628885850703, -0.1031539208888484, 1.1974902989929128, 1.262042284775116], [0.7905597763902513, 0.23098397377879468, 0.3132550303537276, 0.24686705875250337, -0.10408323549145064, 1.208278499884741, 1.2734120350884053], [0.7976183458223072, 0.23304633068753391, 0.31605195026760013, 0.24907122891993644, -0.10501255009405287, 1.219066700776569, 1.2847817854016945], [0.804676915254363, 0.23510868759627315, 0.31884887018147273, 0.2512753990873695, -0.1059418646966551, 1.229854901668397, 1.296151535714984], [0.8117354846864189, 0.2371710445050124, 0.32164579009534533, 0.2534795692548026, -0.10687117929925735, 1.2406431025602251, 1.3075212860282734], [0.8187940541184746, 0.23923340141375163, 0.32444271000921787, 0.25568373942223566, -0.10780049390185958, 1.251431303452053, 1.3188910363415627], [0.8258526235505304, 0.24129575832249087, 0.3272396299230904, 0.25788790958966873, -0.10872980850446182, 1.262219504343881, 1.330260786654852], [0.8329111929825862, 0.2433581152312301, 0.330036549836963, 0.2600920797571018, -0.10965912310706406, 1.2730077052357092, 1.3416305369681414], [0.839969762414642, 0.24542047213996934, 0.3328334697508356, 0.2622962499245349, -0.11058843770966631, 1.283795906127537, 1.3530002872814308], [0.8470283318466978, 0.24748282904870858, 0.33563038966470815, 0.26450042009196795, -0.11151775231226854, 1.294584107019365, 1.36437003759472], [0.8540869012787535, 0.24954518595744782, 0.3384273095785807, 0.266704590259401, -0.11244706691487077, 1.3053723079111932, 1.3757397879080093], [0.8611454707108094, 0.2516075428661871, 0.3412242294924533, 0.2689087604268341, -0.11337638151747302, 1.3161605088030213, 1.3871095382212988], [0.8682040401428652, 0.2536698997749263, 0.3440211494063259, 0.27111293059426717, -0.11430569612007527, 1.3269487096948493, 1.3984792885345882], [0.875262609574921, 0.25573225668366556, 0.34681806932019843, 0.27331710076170024, -0.1152350107226775, 1.3377369105866772, 1.4098490388478775], [0.8823211790069768, 0.2577946135924048, 0.34961498923407097, 0.2755212709291333, -0.11616432532527973, 1.3485251114785053, 1.4212187891611667], [0.8893797484390327, 0.25985697050114404, 0.35241190914794357, 0.2777254410965664, -0.11709363992788197, 1.3593133123703334, 1.4325885394744562], [0.8964383178710884, 0.2619193274098833, 0.35520882906181617, 0.2799296112639994, -0.1180229545304842, 1.3701015132621612, 1.4439582897877457], [0.9034968873031443, 0.2639816843186225, 0.3580057489756887, 0.2821337814314325, -0.11895226913308644, 1.3808897141539893, 1.455328040101035], [0.9105554567352001, 0.26604404122736175, 0.36080266888956125, 0.28433795159886555, -0.11988158373568868, 1.3916779150458174, 1.4666977904143241], [0.917614026167256, 0.268106398136101, 0.36359958880343385, 0.2865421217662986, -0.12081089833829091, 1.4024661159376455, 1.4780675407276134], [0.9246725955993118, 0.2701687550448402, 0.36639650871730645, 0.2887462919337317, -0.12174021294089316, 1.4132543168294736, 1.4894372910409026], [0.9317311650313675, 0.27223111195357946, 0.369193428631179, 0.2909504621011647, -0.12266952754349539, 1.4240425177213014, 1.500807041354192], [0.9387897344634233, 0.2742934688623187, 0.37199034854505153, 0.2931546322685978, -0.12359884214609762, 1.4348307186131295, 1.5121767916674815], [0.9458483038954791, 0.27635582577105794, 0.37478726845892407, 0.29535880243603085, -0.12452815674869987, 1.4456189195049576, 1.5235465419807708], [0.952906873327535, 0.2784181826797972, 0.3775841883727966, 0.2975629726034639, -0.1254574713513021, 1.4564071203967857, 1.53491629229406], [0.9599654427595907, 0.2804805395885364, 0.3803811082866692, 0.299767142770897, -0.12638678595390435, 1.4671953212886137, 1.5462860426073495], [0.9670240121916465, 0.28254289649727565, 0.38317802820054175, 0.30197131293833007, -0.12731610055650658, 1.4779835221804418, 1.557655792920639], [0.9740825816237023, 0.2846052534060149, 0.3859749481144143, 0.30417548310576314, -0.1282454151591088, 1.48877172307227, 1.5690255432339282], [0.9811411510557582, 0.28666761031475413, 0.3887718680282869, 0.3063796532731962, -0.12917472976171107, 1.499559923964098, 1.5803952935472174], [0.9881997204878139, 0.28872996722349337, 0.39156878794215944, 0.3085838234406293, -0.1301040443643133, 1.510348124855926, 1.5917650438605069], [0.9952582899198696, 0.2907923241322326, 0.394365707856032, 0.31078799360806236, -0.13103335896691554, 1.5211363257477541, 1.6031347941737961], [1.0023168593519254, 0.29285468104097184, 0.3971626277699046, 0.31299216377549544, -0.13196267356951777, 1.5319245266395822, 1.6145045444870854], [1.0093754287839811, 0.2949170379497111, 0.3999595476837772, 0.31519633394292845, -0.13289198817212, 1.54271272753141, 1.6258742948003748], [1.016433998216037, 0.2969793948584503, 0.4027564675976497, 0.3174005041103615, -0.13382130277472226, 1.5535009284232382, 1.637244045113664], [1.0234925676480928, 0.29904175176718956, 0.40555338751152226, 0.3196046742777946, -0.1347506173773245, 1.5642891293150663, 1.6486137954269533], [1.0305511370801486, 0.3011041086759288, 0.40835030742539485, 0.32180884444522767, -0.13567993197992673, 1.5750773302068943, 1.6599835457402425], [1.0376097065122045, 0.30316646558466803, 0.41114722733926745, 0.32401301461266074, -0.136609246582529, 1.5858655310987224, 1.6713532960535318], [1.0446682759442603, 0.30522882249340727, 0.41394414725314, 0.32621718478009376, -0.13753856118513122, 1.5966537319905503, 1.6827230463668212], [1.051726845376316, 0.3072911794021465, 0.41674106716701254, 0.32842135494752683, -0.13846787578773345, 1.6074419328823784, 1.6940927966801107], [1.0587854148083717, 0.30935353631088575, 0.4195379870808851, 0.3306255251149599, -0.13939719039033568, 1.6182301337742064, 1.7054625469934], [1.0658439842404275, 0.311415893219625, 0.4223349069947576, 0.332829695282393, -0.14032650499293792, 1.6290183346660345, 1.7168322973066892], [1.0729025536724834, 0.3134782501283642, 0.4251318269086302, 0.33503386544982605, -0.14125581959554018, 1.6398065355578626, 1.7282020476199786], [1.0799611231045394, 0.31554060703710346, 0.42792874682250276, 0.3372380356172591, -0.1421851341981424, 1.6505947364496907, 1.739571797933268], [1.0870196925365951, 0.3176029639458427, 0.4307256667363753, 0.3394422057846922, -0.14311444880074464, 1.6613829373415188, 1.7509415482465573], [1.0940782619686509, 0.31966532085458194, 0.4335225866502479, 0.34164637595212527, -0.14404376340334688, 1.6721711382333468, 1.7623112985598466], [1.1011368314007068, 0.3217276777633212, 0.43631950656412044, 0.34385054611955834, -0.1449730780059491, 1.682959339125175, 1.773681048873136], [1.1081954008327626, 0.3237900346720604, 0.439116426477993, 0.3460547162869914, -0.14590239260855134, 1.693747540017003, 1.7850507991864253], [1.1152539702648183, 0.32585239158079965, 0.4419133463918656, 0.3482588864544245, -0.14683170721115357, 1.704535740908831, 1.7964205494997145], [1.1223125396968743, 0.3279147484895389, 0.4447102663057382, 0.3504630566218575, -0.14776102181375583, 1.715323941800659, 1.807790299813004], [1.12937110912893, 0.3299771053982781, 0.4475071862196107, 0.3526672267892906, -0.14869033641635807, 1.726112142692487, 1.8191600501262932], [1.1364296785609858, 0.33203946230701736, 0.45030410613348326, 0.35487139695672365, -0.1496196510189603, 1.736900343584315, 1.8305298004395825], [1.1434882479930415, 0.3341018192157566, 0.45310102604735586, 0.3570755671241567, -0.15054896562156253, 1.7476885444761432, 1.8418995507528717], [1.1505468174250972, 0.3361641761244959, 0.45589794596122846, 0.3592797372915898, -0.15147828022416476, 1.7584767453679713, 1.853269301066161], [1.1576053868571532, 0.33822653303323513, 0.458694865875101, 0.3614839074590228, -0.15240759482676702, 1.7692649462597991, 1.8646390513794504], [1.1646639562892092, 0.34028888994197437, 0.46149178578897354, 0.3636880776264559, -0.15333690942936926, 1.7800531471516272, 1.8760088016927399], [1.171722525721265, 0.3423512468507136, 0.4642887057028461, 0.36589224779388896, -0.1542662240319715, 1.7908413480434553, 1.887378552006029], [1.1787810951533206, 0.34441360375945285, 0.4670856256167186, 0.36809641796132203, -0.15519553863457372, 1.8016295489352834, 1.8987483023193183], [1.1858396645853766, 0.3464759606681921, 0.4698825455305912, 0.3703005881287551, -0.15612485323717595, 1.8124177498271115, 1.9101180526326078]], "attachments": [{"parent_name": "ECL_robot1_with_track", "parent_link_name": "eef_tcp_frame", "grasp_pose": [[1.7881393432617188e-06, 0.11534029245376587, -4.470348358154297e-07], [0.5000011920928955, 0.500000536441803, 0.4999989867210388, -0.4999992847442627]], "child_name": "body122"}], "link_path": {"eef_tcp_frame": [[[1.9515000581741333, 0.0, 1.7650134563446045], [0.0, 0.7070939540863037, 0.0, 0.7071195840835571]], [[1.9776920080184937, -0.024159828200936317, 1.650080680847168], [0.025362009182572365, 0.7498846054077148, 0.03281683474779129, 0.6602672934532166]], [[1.9868181943893433, -0.03625025972723961, 1.5926488637924194], [0.039224885404109955, 0.7698115706443787, 0.047222234308719635, 0.6353124380111694]], [[1.9933228492736816, -0.04842955991625786, 1.535422921180725], [0.05381288006901741, 0.7887028455734253, 0.06021614372730255, 0.6094473004341125]], [[1.9972360134124756, -0.06075721234083176, 1.4785382747650146], [0.06907643377780914, 0.8065201640129089, 0.07174760103225708, 0.5827573537826538]], [[1.9985969066619873, -0.07329076528549194, 1.4221282005310059], [0.08496416360139847, 0.8232267498970032, 0.08177071064710617, 0.5553311109542847]], [[1.997453212738037, -0.08608552813529968, 1.3663233518600464], [0.10142292827367783, 0.8387888073921204, 0.09024486690759659, 0.5272596478462219]], [[1.9938613176345825, -0.09919422119855881, 1.3112517595291138], [0.11839809268712997, 0.8531755208969116, 0.09713486582040787, 0.4986363649368286]], [[1.9878857135772705, -0.11266671121120453, 1.2570375204086304], [0.13583360612392426, 0.8663590550422668, 0.10241106152534485, 0.4695564806461334]], [[1.979598879814148, -0.12654969096183777, 1.2038012742996216], [0.15367208421230316, 0.8783140778541565, 0.10604941099882126, 0.4401167929172516]], [[1.9690804481506348, -0.14088645577430725, 1.1516587734222412], [0.17185503244400024, 0.8890185952186584, 0.10803165286779404, 0.4104155898094177]], [[1.9564176797866821, -0.1557166427373886, 1.1007213592529297], [0.19032303988933563, 0.898453414440155, 0.10834529995918274, 0.3805519640445709]], [[1.941704273223877, -0.1710759550333023, 1.0510947704315186], [0.2090158760547638, 0.906602680683136, 0.1069837212562561, 0.3506257236003876]], [[1.9250402450561523, -0.18699602782726288, 1.0028795003890991], [0.2278725802898407, 0.9134534597396851, 0.10394614934921265, 0.3207367956638336]], [[1.906531572341919, -0.20350423455238342, 0.9561697244644165], [0.2468317747116089, 0.9189960360527039, 0.09923774749040604, 0.2909851372241974]], [[1.8862892389297485, -0.22062347829341888, 0.9110535383224487], [0.2658316493034363, 0.9232237935066223, 0.09286946058273315, 0.26147013902664185]], [[1.8644293546676636, -0.23837213218212128, 0.8676123023033142], [0.28481027483940125, 0.9261335134506226, 0.08485813438892365, 0.2322906255722046]], [[1.8410720825195312, -0.25676387548446655, 0.8259204030036926], [0.30370572209358215, 0.9277249574661255, 0.07522642612457275, 0.20354412496089935]], [[1.8163412809371948, -0.275807648897171, 0.7860450744628906], [0.32245609164237976, 0.9280012249946594, 0.0640026330947876, 0.17532679438591003]], [[1.790364146232605, -0.29550760984420776, 0.7480462193489075], [0.3409999907016754, 0.9269684553146362, 0.051220741122961044, 0.14773298799991608]], [[1.7632700204849243, -0.31586310267448425, 0.7119758725166321], [0.3592762053012848, 0.9246359467506409, 0.03692017123103142, 0.12085490673780441]], [[1.7351906299591064, -0.33686861395835876, 0.6778785586357117], [0.377224326133728, 0.921016275882721, 0.021145761013031006, 0.09478239715099335]], [[1.706258773803711, -0.35851389169692993, 0.645790696144104], [0.39478468894958496, 0.9161249995231628, 0.003947579301893711, 0.06960250437259674]], [[1.6766082048416138, -0.3807840049266815, 0.6157407164573669], [0.41189855337142944, 0.9099806547164917, -0.014619270339608192, 0.04539920389652252]], [[1.6463725566864014, -0.4036593437194824, 0.5877488851547241], [0.4285081624984741, 0.9026049971580505, -0.034494798630476, 0.022253185510635376]], [[1.6387377977371216, -0.4094700217247009, 0.5810741186141968], [0.4325751066207886, 0.9005714654922485, -0.03966068476438522, 0.01664099097251892]], [[1.6310770511627197, -0.4153166115283966, 0.5745289325714111], [0.43660619854927063, 0.8984628915786743, -0.04490329697728157, 0.011100877076387405]], [[1.623392105102539, -0.42119869589805603, 0.5681133270263672], [0.4406004250049591, 0.8962796926498413, -0.05022154748439789, 0.00563399214297533]], [[1.615685224533081, -0.427115797996521, 0.5618274211883545], [0.4445571005344391, 0.8940224051475525, -0.05561436340212822, 0.00024147525255102664]], [[1.6079583168029785, -0.4330675005912781, 0.5556711554527283], [0.4484751522541046, 0.8916913270950317, -0.06108062341809273, -0.0050755576230585575]], [[1.600213646888733, -0.4390532374382019, 0.5496445894241333], [0.45235398411750793, 0.889286994934082, -0.06661922484636307, -0.010316000320017338]], [[1.5924530029296875, -0.44507259130477905, 0.54374760389328], [0.45619261264801025, 0.8868098258972168, -0.07222902029752731, -0.015478767454624176]], [[1.5846785306930542, -0.45112496614456177, 0.5379801988601685], [0.4599902331829071, 0.884260356426239, -0.07790885865688324, -0.0205627903342247]], [[1.576892375946045, -0.45720988512039185, 0.5323421955108643], [0.46374595165252686, 0.8816390633583069, -0.08365755528211594, -0.025567010045051575]], [[1.5690964460372925, -0.4633267819881439, 0.5268334746360779], [0.4674590826034546, 0.8789464235305786, -0.08947395533323288, -0.030490398406982422]], [[1.5612926483154297, -0.4694750905036926, 0.5214537978172302], [0.4711286425590515, 0.8761829137802124, -0.09535682201385498, -0.035331930965185165]], [[1.553483247756958, -0.4756542146205902, 0.5162031054496765], [0.4747540354728699, 0.873349130153656, -0.10130497068166733, -0.040090613067150116]], [[1.5456700325012207, -0.4818635880947113, 0.5110810399055481], [0.4783342480659485, 0.8704455494880676, -0.10731714218854904, -0.04476545378565788]], [[1.5378551483154297, -0.48810258507728577, 0.5060873031616211], [0.48186856508255005, 0.8674727082252502, -0.11339211463928223, -0.049355488270521164]], [[1.5300403833389282, -0.49437054991722107, 0.5012217164039612], [0.4853562116622925, 0.8644312620162964, -0.1195286214351654, -0.05385977402329445]], [[1.5222277641296387, -0.5006669163703918, 0.49648386240005493], [0.48879650235176086, 0.8613215684890747, -0.1257254034280777, -0.05827739089727402]], [[1.5144193172454834, -0.5069909691810608, 0.4918733835220337], [0.4921884834766388, 0.8581444025039673, -0.13198116421699524, -0.06260741502046585]], [[1.5066168308258057, -0.5133420825004578, 0.4873899221420288], [0.49553149938583374, 0.8549001812934875, -0.13829459249973297, -0.06684897094964981]], [[1.4988224506378174, -0.5197196006774902, 0.48303303122520447], [0.4988247752189636, 0.8515896201133728, -0.14466437697410583, -0.07100116461515427]], [[1.4910378456115723, -0.5261227488517761, 0.47880223393440247], [0.5020675659179688, 0.848213255405426, -0.15108920633792877, -0.07506315410137177]], [[1.4832650423049927, -0.5325508713722229, 0.474697083234787], [0.5052590370178223, 0.8447717428207397, -0.15756773948669434, -0.07903411239385605]], [[1.4755058288574219, -0.5390032529830933, 0.47071701288223267], [0.5083985328674316, 0.8412656188011169, -0.1640985906124115, -0.08291321247816086]], [[1.4677622318267822, -0.5454791188240051, 0.4668615460395813], [0.5114855170249939, 0.8376956582069397, -0.1706804782152176, -0.08669969439506531]], [[1.460035800933838, -0.5519777536392212, 0.46313005685806274], [0.5145188570022583, 0.8340622782707214, -0.1773119419813156, -0.09039273858070374]], [[1.4523286819458008, -0.5584984421730042, 0.45952194929122925], [0.5174981355667114, 0.830366313457489, -0.18399164080619812, -0.09399161487817764]], [[1.4446425437927246, -0.5650404095649719, 0.45603662729263306], [0.5204225778579712, 0.8266084790229797, -0.1907181590795517, -0.09749558568000793]], [[1.4369791746139526, -0.5716028213500977, 0.4526733458042145], [0.5232915878295898, 0.8227891325950623, -0.1974901258945465, -0.1009039655327797]], [[1.4293403625488281, -0.578184962272644, 0.44943147897720337], [0.5261043906211853, 0.818909227848053, -0.20430609583854675, -0.10421602427959442]], [[1.4217278957366943, -0.5847859382629395, 0.44631028175354004], [0.5288601517677307, 0.8149693012237549, -0.21116460859775543, -0.1074310839176178]], [[1.4141435623168945, -0.5914050340652466, 0.4433090090751648], [0.5315585136413574, 0.81097012758255, -0.21806426346302032, -0.11054854094982147]], [[1.4065889120101929, -0.5980413556098938, 0.44042688608169556], [0.5341986417770386, 0.8069124221801758, -0.2250036597251892, -0.11356775462627411]], [[1.3990657329559326, -0.6046941876411438, 0.43766310811042786], [0.5367797613143921, 0.8027968406677246, -0.23198118805885315, -0.11648806184530258]], [[1.391575813293457, -0.6113625168800354, 0.43501681089401245], [0.5393016338348389, 0.7986240386962891, -0.23899556696414948, -0.1193089559674263]], [[1.3841205835342407, -0.6180456876754761, 0.4324871301651001], [0.541763186454773, 0.794394850730896, -0.24604520201683044, -0.12202981859445572]], [[1.3767019510269165, -0.6247426867485046, 0.43007323145866394], [0.5441641211509705, 0.7901099920272827, -0.25312864780426025, -0.12465012073516846]], [[1.3693212270736694, -0.631452739238739, 0.4277741312980652], [0.5465036630630493, 0.785770058631897, -0.2602444589138031, -0.12716934084892273]], [[1.3619803190231323, -0.6381749510765076, 0.4255889356136322], [0.548781156539917, 0.7813760638237, -0.26739099621772766, -0.12958696484565735]], [[1.3546806573867798, -0.6449084281921387, 0.4235166609287262], [0.5509960651397705, 0.7769286036491394, -0.2745668590068817, -0.1319025456905365]], [[1.3474236726760864, -0.6516522765159607, 0.421556293964386], [0.5531480312347412, 0.7724283933639526, -0.28177058696746826, -0.13411562144756317]], [[1.3402111530303955, -0.658405601978302, 0.419706791639328], [0.5552361607551575, 0.7678763270378113, -0.28900057077407837, -0.13622573018074036]], [[1.333044409751892, -0.6651675701141357, 0.41796717047691345], [0.5572600960731506, 0.7632731199264526, -0.29625529050827026, -0.13823248445987701]], [[1.3259248733520508, -0.6719372272491455, 0.4163362979888916], [0.5592191219329834, 0.7586195468902588, -0.3035332262516022, -0.1401354819536209]], [[1.3188542127609253, -0.6787136197090149, 0.4148130714893341], [0.5611128807067871, 0.7539164423942566, -0.3108328580856323, -0.14193440973758698]], [[1.3118337392807007, -0.6854958534240723, 0.413396418094635], [0.5629405975341797, 0.7491645812988281, -0.31815263628959656, -0.14362883567810059]], [[1.3048648834228516, -0.692283034324646, 0.4120851457118988], [0.564702033996582, 0.7443647384643555, -0.3254909813404083, -0.14521852135658264]], [[1.297948956489563, -0.6990742087364197, 0.41087809205055237], [0.5663964748382568, 0.7395177483558655, -0.33284637331962585, -0.1467031091451645]], [[1.2910873889923096, -0.7058684825897217, 0.4097740650177002], [0.5680235028266907, 0.7346245050430298, -0.3402172327041626, -0.14808231592178345]], [[1.2842814922332764, -0.7126648426055908, 0.408771812915802], [0.5695825815200806, 0.7296857833862305, -0.3476020395755768, -0.1493559628725052]], [[1.2775324583053589, -0.7194623947143555, 0.4078701436519623], [0.5710732936859131, 0.7247024178504944, -0.3549991250038147, -0.15052373707294464]], [[1.2708418369293213, -0.726260244846344, 0.40706774592399597], [0.5724951028823853, 0.7196751236915588, -0.36240705847740173, -0.15158551931381226]], [[1.26421058177948, -0.7330573201179504, 0.4063633680343628], [0.5738475322723389, 0.7146049737930298, -0.3698241710662842, -0.15254101157188416]], [[1.2576401233673096, -0.739852786064148, 0.4057556390762329], [0.5751303434371948, 0.7094926238059998, -0.37724897265434265, -0.15339019894599915]], [[1.251131534576416, -0.7466456294059753, 0.40524330735206604], [0.5763428211212158, 0.7043390870094299, -0.38467976450920105, -0.15413278341293335]], [[1.2446860074996948, -0.7534348964691162, 0.4048249423503876], [0.577484667301178, 0.6991450786590576, -0.39211505651474, -0.15476877987384796]], [[1.238304615020752, -0.7602196335792542, 0.40449920296669006], [0.5785554647445679, 0.693911612033844, -0.39955323934555054, -0.15529803931713104]], [[1.2319886684417725, -0.7669988870620728, 0.4042646884918213], [0.5795547962188721, 0.6886394023895264, -0.40699273347854614, -0.15572047233581543]], [[1.2257391214370728, -0.7737717628479004, 0.40411999821662903], [0.5804823040962219, 0.6833294630050659, -0.41443201899528503, -0.1560361385345459]], [[1.2195569276809692, -0.7805371880531311, 0.4040636420249939], [0.581337571144104, 0.6779826283454895, -0.42186930775642395, -0.15624484419822693]], [[1.213443398475647, -0.7872942686080933, 0.40409421920776367], [0.5821202397346497, 0.672599732875824, -0.42930325865745544, -0.15634675323963165]], [[1.2073991298675537, -0.7940421104431152, 0.40421023964881897], [0.5828299522399902, 0.6671817898750305, -0.4367322027683258, -0.1563417911529541]], [[1.2014254331588745, -0.8007796406745911, 0.4044102132320404], [0.5834662914276123, 0.6617296934127808, -0.4441544711589813, -0.15623007714748383]], [[1.1955231428146362, -0.8075059056282043, 0.4046926200389862], [0.5840290188789368, 0.6562440991401672, -0.4515685439109802, -0.15601159632205963]], [[1.1896930932998657, -0.8142200708389282, 0.4050559103488922], [0.5845177173614502, 0.6507261991500854, -0.45897287130355835, -0.15568651258945465]], [[1.1839361190795898, -0.8209211230278015, 0.40549856424331665], [0.584932267665863, 0.6451767683029175, -0.46636584401130676, -0.15525493025779724]], [[1.1782532930374146, -0.827608048915863, 0.406019002199173], [0.5852722525596619, 0.6395967602729797, -0.4737458825111389, -0.15471696853637695]], [[1.1726452112197876, -0.8342799544334412, 0.40661564469337463], [0.5855371952056885, 0.6339870691299438, -0.4811113774776459, -0.1540728360414505]], [[1.1671127080917358, -0.8409359455108643, 0.4072869122028351], [0.5857270956039429, 0.6283485889434814, -0.48846080899238586, -0.15332268178462982]], [[1.1616564989089966, -0.8475750088691711, 0.4080311954021454], [0.5858415365219116, 0.6226823925971985, -0.49579256772994995, -0.15246671438217163]]]}}, {"element": 0, "tag": "place_approach", "path": [[1.1858396645853766, 0.3464759606681921, 0.4698825455305912, 0.3703005881287551, -0.15612485323717595, 1.8124177498271115, 1.9101180526326078], [1.1858396645853766, 0.3444874795901165, 0.33206888626004233, 0.4669751808819999, -0.1431592151090231, 1.5715572685337398, 1.873592827407984], [1.1858396645853766, 0.3355110193331087, 0.1923621432051304, 0.580793267215339, -0.12155362631086683, 1.3158358886509696, 1.8295058377384308], [1.1858396645853766, 0.31859952781332235, 0.058408815093750455, 0.706237587621508, -0.08332103144116777, 1.0442415987752276, 1.7674006277914447], [1.1858396645853766, 0.29301469489845133, -0.05902046520701362, 0.8370829024578481, -0.005008519153865152, 0.7554145931715913, 1.6622816161865153]], "attachments": [{"parent_name": "ECL_robot1_with_track", "parent_link_name": "eef_tcp_frame", "grasp_pose": [[1.7881393432617188e-06, 0.11534029245376587, -4.470348358154297e-07], [0.5000011920928955, 0.500000536441803, 0.4999989867210388, -0.4999992847442627]], "child_name": "body122"}], "link_path": {"eef_tcp_frame": [[[1.1616564989089966, -0.8475750088691711, 0.4080311954021454], [0.5858415365219116, 0.6226823925971985, -0.49579256772994995, -0.15246671438217163]], [[1.1396757364273071, -0.8535525798797607, 0.3926517367362976], [0.6159103512763977, 0.6822929382324219, -0.3770054280757904, -0.11400740593671799]], [[1.122761607170105, -0.8571539521217346, 0.37083107233047485], [0.6336360573768616, 0.7282284498214722, -0.250644713640213, -0.07325292378664017]], [[1.1121610403060913, -0.8573073148727417, 0.3443783223628998], [0.6386598944664001, 0.7595594525337219, -0.1192522868514061, -0.031013714149594307]], [[1.1085902452468872, -0.8531922101974487, 0.3154813051223755], [0.6308896541595459, 0.7756458520889282, 0.014507885091006756, 0.01189133059233427]]]}}, {"element": 0, "tag": "place_retreat", "path": [[1.1858396645853766, 0.29298425603989325, -0.059020909470789994, 0.837083280047194, -0.004955574168515944, 0.7554141678423996, 1.6621993439567089], [1.1858396645853766, 0.29293086547541747, -0.06643775503476981, 0.834364752313485, -0.004763291356209811, 0.7655212366885679, 1.661936864313837], [1.1858396645853766, 0.29295101154418807, -0.07376767132476578, 0.8315414480329497, -0.004700459074331851, 0.7756745432749063, 1.6618746159093283], [1.1858396645853766, 0.29297889391431237, -0.0809848973519092, 0.8286321752858679, -0.004652453478676621, 