{"problem": ["SP_arch.json"], "config": [{"bar_only": true, "stiffness": true, "collision": false, "teleops": false, "partial_ordering": true, "chosen_bars": null}], "write_time": ["2021-01-05 22:11:44.923857"], "parameters": [{"trans_tol": 0.005, "rot_tol": Infinity, "joint_resolution": [0.05, 0.05395, 0.036250000000000004, 0.061244999999999994, 0.045865, 0.18770499999999998, 0.06565], "joint_weight": [10.0, 0.38197097020626436, 0.38197097020626436, 0.38197097020626436, 0.15915457091927682, 0.15915457091927682, 0.12732365673542145], "joint_jump_threshold": 1.0471975511965976, "enable_self_collisions": true, "pos_step_size": 0.01, "ori_step_size": 0.17453292519943295, "retreat_distance": 0.07}], "plan": [[{"element": 36, "tag": "place_approach", "path": [[1.5494747161865234, -0.5335062742233276, 0.31869664788246155, 2.2713151290639777, -0.4859753835024509, -1.320446419965754], [1.4962329864501953, -0.560550332069397, 0.3808375597000122, 2.4870312534479786, -0.32936919210238264, -1.35119287867727], [1.4424251317977905, -0.6075932383537292, 0.42940062284469604, 2.6990271953309226, -0.18228997123443766, -1.4140289457502393], [1.3918761014938354, -0.6708914041519165, 0.46036297082901, 2.916290462283357, -0.05150207397939271, -1.5053523649173242], [1.3481608629226685, -0.7454548478126526, 0.4710516929626465, -3.138683457549358, 0.05603934276558723, -1.622689206299736]], "attachments": [{"parent_name": "", "parent_link_name": "link7", "grasp_pose": [[-1.1920928955078125e-07, -0.05823171138763428, 0.37049996852874756], [0.5, 0.5, 0.5, -0.5]], "child_name": "body313"}]}, {"element": 36, "tag": "place_retreat", "path": [[1.3481608629226685, -0.7454548478126526, 0.4710516929626465, -3.138683457549358, 0.05603934276558723, -1.622689206299736], [1.3476707935333252, -0.7454802393913269, 0.4797879457473755, -3.138683457549358, 0.05603934276558723, -1.622689206299736], [1.347180724143982, -0.745505690574646, 0.4885241687297821, -3.138683457549358, 0.05603934276558723, -1.622689206299736], [1.3466906547546387, -0.7455310821533203, 0.4972603917121887, -3.138683457549358, 0.05603934276558723, -1.622689206299736], [1.3462004661560059, -0.7455565333366394, 0.505996584892273, -3.138683457549358, 0.05603934276558723, -1.622689206299736], [1.3457103967666626, -0.7455819249153137, 0.514732837677002, -3.138683457549358, 0.05603934276558723, -1.622689206299736], [1.3452203273773193, -0.745607316493988, 0.523469090461731, -3.138683457549358, 0.05603934276558723, -1.622689206299736], [1.344730257987976, -0.7456327676773071, 0.53220534324646, -3.138683457549358, 0.05603934276558723, -1.622689206299736], [1.3442401885986328, -0.7456581592559814, 0.5409415364265442, -3.138683457549358, 0.05603934276558723, -1.622689206299736]], "attachments": []}], [{"element": 1, "tag": "place_approach", "path": [[1.5138334035873413, -2.6389191150665283, 0.6265326738357544, -2.484709657110752, 0.5079283376967562, 0.7062728494652393], [1.5493237972259521, -2.6082377433776855, 0.6495461463928223, -2.5677550574848342, 0.4243591858737897, 0.6679249062769852], [1.5834466218948364, -2.573826789855957, 0.6683909893035889, -2.6514259364446895, 0.34393018059525193, 0.6236007286731318], [1.615729570388794, -2.536240577697754, 0.6827983856201172, -2.736652442609353, 0.26725228286488917, 0.5735525234308674], [1.6457328796386719, -2.496091604232788, 0.6925804018974304, -2.8241926415933807, 0.1949767798620938, 0.5179076105452514], [1.6730595827102661, -2.454038619995117, 0.6976331472396851, -2.914652717642873, 0.12780044488227413, 0.4567394115844933], [1.6973603963851929, -2.4107747077941895, 0.6979385614395142, -3.0084851461689754, 0.06646387007793116, 0.3901279098046142], [1.7183414697647095, -2.3670151233673096, 0.6935651302337646, -3.1059697479632917, 0.01174004419227401, 0.31822100682783866]], "attachments": [{"parent_name": "", "parent_link_name": "link7", "grasp_pose": [[0.0, 0.11124169826507568, 0.37049999833106995], [0.4999999701976776, 0.5, 0.5000000596046448, -0.5]], "child_name": "body278"}]}, {"element": 1, "tag": "place_retreat", "path": [[1.7183414697647095, -2.3670151233673096, 0.6935651302337646, -3.1059697479632917, 0.01174004419227401, 0.31822100682783866], [1.7182387113571167, -2.3673267364501953, 0.7023090124130249, -3.1059697479632917, 0.01174004419227401, 0.31822100682783866], [1.7181360721588135, -2.367638349533081, 0.7110528945922852, -3.1059697479632917, 0.01174004419227401, 0.31822100682783866], [1.7180333137512207, -2.367949962615967, 0.7197967171669006, -3.1059697479632917, 0.01174004419227401, 0.31822100682783866], [1.717930555343628, -2.3682615756988525, 0.7285405397415161, -3.1059697479632917, 0.01174004419227401, 0.31822100682783866], [1.7178277969360352, -2.3685731887817383, 0.7372844219207764, -3.1059697479632917, 0.01174004419227401, 0.31822100682783866], [1.7177250385284424, -2.368884801864624, 0.7460282444953918, -3.1059697479632917, 0.01174004419227401, 0.31822100682783866], [1.7176223993301392, -2.3691964149475098, 0.7547720670700073, -3.1059697479632917, 0.01174004419227401, 0.31822100682783866], [1.7175196409225464, -2.3695080280303955, 0.7635159492492676, -3.1059697479632917, 0.01174004419227401, 0.31822100682783866]], "attachments": []}], [{"element": 0, "tag": "place_approach", "path": [[1.861616849899292, -2.2250003814697266, 0.4327123165130615, -2.8576405436585754, -0.9390094206771389, 1.5973455922320485], [1.8345696926116943, -2.2053141593933105, 0.5141226649284363, -2.9765361657010327, -0.7195070643079181, 1.490669125130673], [1.7879581451416016, -2.1831672191619873, 0.58588707447052, -3.0515545946779916, -0.4942300331872671, 1.4291782537173015], [1.7244608402252197, -2.159421682357788, 0.6437169909477234, -3.1057159790168165, -0.26620807274807773, 1.3905203239596235], [1.6476773023605347, -2.135028600692749, 0.6840848922729492, 3.1339478108483885, -0.03671990978096725, 1.365487545505317]], "attachments": [{"parent_name": "", "parent_link_name": "link7", "grasp_pose": [[-2.384185791015625e-07, 0.15896421670913696, 0.37049999833106995], [0.5000000596046448, 0.49999988079071045, 0.5000001192092896, -0.49999988079071045]], "child_name": "body277"}]}, {"element": 0, "tag": "place_retreat", "path": [[1.6476773023605347, -2.135028600692749, 0.6840848922729492, 3.1339478108483885, -0.03671990978096725, 1.365487545505317], [1.648044466972351, -2.1349523067474365, 0.6940778493881226, 3.1339478108483885, -0.03671990978096725, 1.365487545505317], [1.648411512374878, -2.134875774383545, 0.7040708065032959, 3.1339478108483885, -0.03671990978096725, 1.365487545505317], [1.6487786769866943, -2.1347994804382324, 0.7140637636184692, 3.1339478108483885, -0.03671990978096725, 1.365487545505317], [1.6491457223892212, -2.134722948074341, 0.7240567207336426, 3.1339478108483885, -0.03671990978096725, 1.365487545505317], [1.6495128870010376, -2.1346466541290283, 0.7340496778488159, 3.1339478108483885, -0.03671990978096725, 1.365487545505317], [1.6498799324035645, -2.1345701217651367, 0.7440426349639893, 3.1339478108483885, -0.03671990978096725, 1.365487545505317], [1.6502470970153809, -2.134493827819824, 0.7540355324745178, 3.1339478107007435, -0.03671991032142415, 1.3654876207322786]], "attachments": []}], [{"element": 2, "tag": "place_approach", "path": [[1.0082529783248901, -2.4863295555114746, 0.43895167112350464, 2.678438184372282, 1.0883962975294068, 3.1067596263518182], [1.0390074253082275, -2.4953372478485107, 0.496032178401947, 2.851683604859719, 0.9559285271680704, 2.9042184951156593], [1.0783015489578247, -2.5027410984039307, 0.5479211807250977, 2.956889913952792, 0.8104120342983546, 2.7683766274512323], [1.125100016593933, -2.5081417560577393, 0.5933203101158142, 3.0232914803899584, 0.6581768714956129, 2.669447741268325], [1.1781545877456665, -2.511197566986084, 0.6311158537864685, 3.0659533398034653, 0.5022236590982133, 2.591689599227925], [1.236038327217102, -2.5116326808929443, 0.6604108810424805, 3.092770670004796, 0.34413311428452215, 2.5263443103352965], [1.297187328338623, -2.509247303009033, 0.6805499792098999, 3.1079483064674873, 0.18483968945314797, 2.468066613857249], [1.3599445819854736, -2.503920555114746, 0.691138744354248, 3.1136068839716304, 0.02497445705452522, 2.413174533695548]], "attachments": [{"parent_name": "", "parent_link_name": "link7", "grasp_pose": [[0.0, 0.018795490264892578, 0.3705000877380371], [-0.4999999403953552, -0.5000000596046448, -0.5, 0.5]], "child_name": "body279"}]}, {"element": 2, "tag": "place_retreat", "path": [[1.3599445819854736, -2.503920555114746, 0.691138744354248, 3.1136068839716304, 0.02497445705452522, 2.413174533695548], [1.359726071357727, -2.503675699234009, 0.6998826265335083, 3.1136068839716304, 0.02497445705452522, 2.413174533695548], [1.3595075607299805, -2.5034310817718506, 0.7086265087127686, 3.1136068839716304, 0.02497445705452522, 2.413174533695548], [1.3592890501022339, -2.5031862258911133, 0.717370331287384, 3.1136068839716304, 0.02497445705452522, 2.413174533695548], [1.3590705394744873, -2.502941608428955, 0.7261141538619995, 3.1136068839716304, 0.02497445705452522, 2.413174533695548], [1.3588520288467407, -2.5026967525482178, 0.7348580360412598, 3.1136068839716304, 0.02497445705452522, 2.413174533695548], [1.3586335182189941, -2.5024518966674805, 0.7436018586158752, 3.1136068839716304, 0.02497445705452522, 2.413174533695548], [1.3584150075912476, -2.5022072792053223, 0.7523456811904907, 3.1136068839716304, 0.02497445705452522, 2.413174533695548], [1.358196496963501, -2.501962423324585, 0.7610894441604614, 3.1136068826113634, 0.024974458169287603, 2.413174491237622]], "attachments": []}], [{"element": 37, "tag": "place_approach", "path": [[1.1530572175979614, -1.0771141052246094, 0.5612921118736267, -1.5009821861798398, 0.22896907311445056, -2.2992345164350585], [1.142246961593628, -1.034372329711914, 0.6314653754234314, -1.6184763896319847, 0.215514317652887, -2.380214846322288], [1.1256870031356812, -0.9828476905822754, 0.6950994729995728, -1.7364732959088012, 0.21143688794352342, -2.4620956021277958], [1.1038538217544556, -0.9236011505126953, 0.7506383061408997, -1.8544324418269984, 0.2168120265194997, -2.5439092052736605], [1.0773544311523438, -0.8578851222991943, 0.7967257499694824, -1.9718177958758962, 0.23154063152932158, -2.6246918312792253], [1.0469106435775757, -0.7871109247207642, 0.8322386741638184, -2.0881582484619625, 0.25535650427917017, -2.7035229778734173], [1.0133417844772339, -0.7128152847290039, 0.8563151955604553, -2.2031014729770737, 0.28784476328307207, -2.7795580587081874], [0.9775440692901611, -0.6366214156150818, 0.8683754205703735, -2.3164564980427587, 0.3284672439258041, -2.852043655350907]], "attachments": [{"parent_name": "", "parent_link_name": "link7", "grasp_pose": [[-1.1920928955078125e-07, -0.3490837812423706, 0.3704999089241028], [0.5000000596046448, 0.5, 0.5000000596046448, -0.5]], "child_name": "body314"}]}, {"element": 37, "tag": "place_retreat", "path": [[0.9775440692901611, -0.6366214156150818, 0.8683754205703735, -2.3164564980427587, 0.3284672439258041, -2.852043655350907], [0.9747214317321777, -0.6427058577537537, 0.8739945292472839, -2.3164564980427587, 0.3284672439258041, -2.852043655350907], [0.9718986749649048, -0.6487902998924255, 0.8796136379241943, -2.3164564980427587, 0.3284672439258041, -2.852043655350907], [0.9690760374069214, -0.6548747420310974, 0.8852328062057495, -2.3164564980427587, 0.3284672439258041, -2.852043655350907], [0.9662532806396484, -0.6609591841697693, 0.8908519148826599, -2.3164564980427587, 0.3284672439258041, -2.852043655350907], [0.963430643081665, -0.6670436263084412, 0.8964710235595703, -2.3164564980427587, 0.3284672439258041, -2.852043655350907], [0.9606080055236816, -0.673128068447113, 0.9020901918411255, -2.3164564980427587, 0.3284672439258041, -2.852043655350907], [0.9577852487564087, -0.6792125105857849, 0.9077093005180359, -2.3164564980427587, 0.3284672439258041, -2.852043655350907], [0.9549626111984253, -0.6852969527244568, 0.9133284091949463, -2.316456497011359, 0.3284672304585808, -2.8520436495288837]], "attachments": []}], [{"element": 35, "tag": "place_approach", "path": [[1.6050848960876465, -0.6072515249252319, 0.657088041305542, -2.9058324036501975, -0.9300323352278503, -1.1634764558399076], [1.5867687463760376, -0.6061967611312866, 0.6752827763557434, -2.891212644808113, -0.8724487065082007, -1.1348511573702627], [1.5678573846817017, -0.6044673919677734, 0.6925080418586731, -2.8799176165647062, -0.8146405151345589, -1.1092530503423255], [1.5484232902526855, -0.6020538210868835, 0.7087297439575195, -2.8712953500215, -0.7566666159190181, -1.0859948609016066], [1.5285402536392212, -0.5989489555358887, 0.7239173650741577, -2.864869368912034, -0.6985711154943921, -1.0645619028616138], [1.5082839727401733, -0.595147967338562, 0.7380441427230835, -2.8602857093144642, -0.6403889350479086, -1.0445590300242193], [1.4877314567565918, -0.5906491279602051, 0.7510874271392822, -2.857278721649808, -0.5821477514005929, -1.0256754343199401], [1.4669607877731323, -0.5854529142379761, 0.7630284428596497, -2.855647772697596, -0.5238711285007066, -1.0076610033536864], [1.4460512399673462, -0.5795623660087585, 0.7738525867462158, -2.8552417757980093, -0.4655792901864664, -0.9903113304002575]], "attachments": [{"parent_name": "", "parent_link_name": "link7", "grasp_pose": [[-3.129243850708008e-07, 0.16775774955749512, 0.37049973011016846], [-0.5000001788139343, -0.5000002384185791, -0.5, 0.5]], "child_name": "body312"}]}, {"element": 35, "tag": "place_retreat", "path": [[1.4460512399673462, -0.5795623660087585, 0.7738525867462158, -2.8552417757980093, -0.4655792901864664, -0.9903113304002575], [1.4505406618118286, -0.5820862650871277, 0.7824243307113647, -2.8552417757980093, -0.4655792901864664, -0.9903113304002575], [1.455030083656311, -0.5846101641654968, 0.7909960746765137, -2.8552417757980093, -0.4655792901864664, -0.9903113304002575], [1.4595195055007935, -0.587134063243866, 0.7995678186416626, -2.8552417757980093, -0.4655792901864664, -0.9903113304002575], [1.4640088081359863, -0.5896579623222351, 0.8081396222114563, -2.8552417757980093, -0.4655792901864664, -0.9903113304002575], [1.4684982299804688, -0.5921818614006042, 0.81671142578125, -2.8552417757980093, -0.4655792901864664, -0.9903113304002575], [1.4729876518249512, -0.5947057604789734, 0.8252831697463989, -2.8552417757980093, -0.4655792901864664, -0.9903113304002575], [1.4774770736694336, -0.5972296595573425, 0.8338549137115479, -2.8552417936001175, -0.46557929100105216, -0.9903113879690815]], "attachments": []}], [{"element": 38, "tag": "place_approach", "path": [[0.6651042699813843, -0.5851101279258728, 0.16135433316230774, 1.495126971353605, 0.9619925140792699, 0.35528351136310987], [0.6653838753700256, -0.5727776288986206, 0.19569900631904602, 1.6546431506457666, 0.9143692526023287, 0.19254304170341094], [0.669734001159668, -0.5612010955810547, 0.23092594742774963, 1.7903562419444214, 0.8531305504151069, 0.053544935168784946], [0.6781787872314453, -0.550592303276062, 0.26661697030067444, 1.903715071863577, 0.7814427990135797, -0.0631827890222909], [0.6906924247741699, -0.5411502122879028, 0.30234837532043457, 1.9978966095963255, 0.7018933671526589, -0.16084137089572315], [0.7071989178657532, -0.5330604314804077, 0.3376958668231964, 2.0763589063048307, 0.6164520698529343, -0.2429173867210739], [0.7275732755661011, -0.5264911651611328, 0.37224021553993225, 2.142194497650586, 0.5265701861586659, -0.31253458828719144]], "attachments": [{"parent_name": "", "parent_link_name": "link7", "grasp_pose": [[-1.4901161193847656e-07, 0.20061874389648438, 0.37050002813339233], [0.5, 0.5000000596046448, 0.4999999403953552, -0.4999999403953552]], "child_name": "body315"}]}, {"element": 38, "tag": "place_retreat", "path": [[0.7275732755661011, -0.5264911651611328, 0.37224021553993225, 2.142194497650586, 0.5265701861586659, -0.31253458828719144], [0.7225475907325745, -0.519219160079956, 0.37691569328308105, 2.142194497650586, 0.5265701861586659, -0.31253458828719144], [0.7175218462944031, -0.5119471549987793, 0.38159120082855225, 2.142194497650586, 0.5265701861586659, -0.31253458828719144], [0.7124961614608765, -0.5046751499176025, 0.38626667857170105, 2.142194497650586, 0.5265701861586659, -0.31253458828719144], [0.7074704170227051, -0.49740317463874817, 0.39094215631484985, 2.142194497650586, 0.5265701861586659, -0.31253458828719144], [0.7024447321891785, -0.4901311695575714, 0.39561766386032104, 2.142194497650586, 0.5265701861586659, -0.31253458828719144], [0.6974189877510071, -0.48285916447639465, 0.40029311180114746, 2.142194497650586, 0.5265701861586659, -0.31253458828719144], [0.6923933029174805, -0.4755871593952179, 0.4049685597419739, 2.1421944196153517, 0.5265702475755211, -0.3125345013762031]], "attachments": []}], [{"element": 32, "tag": "place_approach", "path": [[1.2982735633850098, -0.5193419456481934, 0.3955421447753906, 0.11006842649462734, 0.8510955914073275, 0.5879716383226576], [1.2509241104125977, -0.5573630928993225, 0.5103766322135925, 0.11806331058359021, 1.0755163411330586, 0.8076453250684393], [1.2354443073272705, -0.6205771565437317, 0.6200277805328369, -0.04541790016250902, 1.292008268481948, 1.1862501634300988], [1.252896785736084, -0.7020471096038818, 0.7135714292526245, -0.984451791792273, 1.418775972612882, 2.33442665414747], [1.3010327816009521, -0.7930005192756653, 0.7817023992538452, -1.8626023688262965, 1.2811553022517652, -2.861302198568292]], "attachments": [{"parent_name": "", "parent_link_name": "link7", "grasp_pose": [[-2.384185791015625e-07, -0.22234994173049927, 0.370499849319458], [0.5000000596046448, 0.5000000596046448, 0.4999999403953552, -0.4999999403953552]], "child_name": "body309"}]}, {"element": 32, "tag": "place_retreat", "path": [[1.3010327816009521, -0.7930005192756653, 0.7817023992538452, -1.8626023688262965, 1.2811553022517652, -2.861302198568292], [1.2926472425460815, -0.7953939437866211, 0.782421350479126, -1.8626023688262965, 1.2811553022517652, -2.861302198568292], [1.284261703491211, -0.7977873682975769, 0.783140242099762, -1.8626023688262965, 1.2811553022517652, -2.861302198568292], [1.2758761644363403, -0.8001807928085327, 0.7838591933250427, -1.8626023688262965, 1.2811553022517652, -2.861302198568292], [1.2674906253814697, -0.8025742173194885, 0.7845781445503235, -1.8626023688262965, 1.2811553022517652, -2.861302198568292], [1.2591050863265991, -0.8049676418304443, 0.7852970957756042, -1.8626023688262965, 1.2811553022517652, -2.861302198568292], [1.2507195472717285, -0.8073610663414001, 0.786016047000885, -1.8626023688262965, 1.2811553022517652, -2.861302198568292], [1.242334008216858, -0.809754490852356, 0.786734938621521, -1.8626023688262965, 1.2811553022517652, -2.861302198568292], [1.2339484691619873, -0.8121479153633118, 0.7874538898468018, -1.8626024237787397, 1.2811552613130175, -2.86130211367216]], "attachments": []}], [{"element": 30, "tag": "place_approach", "path": [[1.7300950288772583, -0.6929587125778198, 0.46917635202407837, 2.147514606220324, -0.34364883869745166, -0.43010934943225837], [1.713849663734436, -0.6898994445800781, 0.49831241369247437, 2.223004925592035, -0.2834528040558975, -0.3840261377026001], [1.695895791053772, -0.6888853311538696, 0.5257909297943115, 2.2943913951917794, -0.22020407175160453, -0.34344389329856195], [1.6764072179794312, -0.6898461580276489, 0.551374077796936, 2.362259992463248, -0.1543759215884999, -0.30801688980596426], [1.655571699142456, -0.6926934123039246, 0.5748418569564819, 2.427203122363557, -0.08638447583022213, -0.2774321627969898], [1.6335890293121338, -0.6973212957382202, 0.5959939360618591, 2.489810297694729, -0.01659710625368568, -0.25142832212991184], [1.610670566558838, -0.7036073207855225, 0.6146514415740967, 2.5506668661555847, 0.05465876989033533, -0.2298089783226029], [1.5870357751846313, -0.7114133834838867, 0.6306586265563965, 2.610358586154741, 0.127086535968653, -0.2124525550929464]], "attachments": [{"parent_name": "", "parent_link_name": "link7", "grasp_pose": [[-1.1920928955078125e-07, 0.12909090518951416, 0.37049993872642517], [0.5, 0.5000000596046448, 0.5, -0.5000000596046448]], "child_name": "body307"}]}, {"element": 30, "tag": "place_retreat", "path": [[1.5870357751846313, -0.7114133834838867, 0.6306586265563965, 2.610358586154741, 0.127086535968653, -0.2124525550929464], [1.5859267711639404, -0.7070164084434509, 0.6381418704986572, 2.610358586154741, 0.127086535968653, -0.2124525550929464], [1.5848177671432495, -0.7026194334030151, 0.645625114440918, 2.610358586154741, 0.127086535968653, -0.2124525550929464], [1.5837087631225586, -0.6982224583625793, 0.6531083583831787, 2.610358586154741, 0.127086535968653, -0.2124525550929464], [1.5825997591018677, -0.6938254833221436, 0.6605916023254395, 2.610358586154741, 0.127086535968653, -0.2124525550929464], [1.5814906358718872, -0.689428448677063, 0.6680748462677002, 2.610358586154741, 0.127086535968653, -0.2124525550929464], [1.5803816318511963, -0.6850314736366272, 0.6755581498146057, 2.610358586154741, 0.127086535968653, -0.2124525550929464], [1.5792726278305054, -0.6806344985961914, 0.6830414533615112, 2.610358586154741, 0.127086535968653, -0.2124525550929464], [1.5781636238098145, -0.6762375831604004, 0.6905245780944824, 2.61035861129923, 0.12708653051284272, -0.21245255819819878]], "attachments": []}], [{"element": 31, "tag": "place_approach", "path": [[1.4855226278305054, -0.42350032925605774, 0.368797242641449, 2.020991619292366, 0.04817532058424799, 0.5100890241179438], [1.5025396347045898, -0.42505231499671936, 0.3848923444747925, 2.061098532968069, 0.006522088712175448, 0.5220790254192927], [1.5195226669311523, -0.4280870854854584, 0.4006699323654175, 2.1017251787956535, -0.034613622429642665, 0.5357369928096098], [1.5364060401916504, -0.4325879216194153, 0.41607093811035156, 2.1430020975856756, -0.0751559892745838, 0.5510893900857986], [1.5531247854232788, -0.4385327696800232, 0.4310374855995178, 2.18505889324943, -0.11502469160053246, 0.5681709725512603], [1.5696138143539429, -0.4458944499492645, 0.4455135464668274, 2.2280237030500003, -0.15413517732219495, 0.5870249100136694], [1.5858097076416016, -0.4546409249305725, 0.459444522857666, 2.2720234868431834, -0.1923964776699539, 0.6077002445441474], [1.6016491651535034, -0.4647352695465088, 0.4727778434753418, 2.31718347514858, -0.22971243137762645, 0.6302511756988193], [1.6170707941055298, -0.47613582015037537, 0.48546290397644043, 2.363625529657325, -0.26597975838730026, 0.6547351378844399], [1.6320143938064575, -0.4887962341308594, 0.4974517822265625, 2.4114682599437685, -0.3010885034585197, 0.6812107325862518], [1.6464214324951172, -0.5026659369468689, 0.5086983442306519, 2.460823569510062, -0.33492099156310273, 0.7097347156960961], [1.6602355241775513, -0.5176899433135986, 0.519159734249115, 2.511794102317305, -0.36735288809392613, 0.740359850248658], [1.673401951789856, -0.533809244632721, 0.5287953019142151, 2.564471132552088, -0.39825176565644416, 0.7731292278594502], [1.685868740081787, -0.5509611368179321, 0.5375675559043884, 2.618929650442656, -0.4274789421388236, 0.8080740341794246], [1.697585940361023, -0.5690789818763733, 0.5454422235488892, 2.6752231843489587, -0.4548899216693687, 0.8452064575318807], [1.7085065841674805, -0.588093101978302, 0.5523877143859863, 2.73338031907669, -0.4803358308155159, 0.884516382098471], [1.7185863256454468, -0.6079303622245789, 0.5583763122558594, 2.7933978829340465, -0.5036651664437749, 0.9259638786251749]], "attachments": [{"parent_name": "", "parent_link_name": "link7", "grasp_pose": [[-1.1920928955078125e-07, 0.29965341091156006, 0.3704999089241028], [-0.5000001192092896, -0.5000000596046448, -0.5000000596046448, 0.5]], "child_name": "body308"}]}, {"element": 31, "tag": "place_retreat", "path": [[1.7185863256454468, -0.6079303622245789, 0.5583763122558594, 2.7933978829340465, -0.5036651664437749, 0.9259638786251749], [1.7228094339370728, -0.6053155660629272, 0.565579891204834, 2.7933978829340465, -0.5036651664437749, 0.9259638786251749], [1.7270325422286987, -0.6027008295059204, 0.5727834701538086, 2.7933978829340465, -0.5036651664437749, 0.9259638786251749], [1.7312556505203247, -0.6000860333442688, 0.5799869298934937, 2.7933978829340465, -0.5036651664437749, 0.9259638786251749], [1.7354786396026611, -0.5974712371826172, 0.5871905088424683, 2.7933978829340465, -0.5036651664437749, 0.9259638786251749], [1.739701747894287, -0.5948565006256104, 0.5943940877914429, 2.7933978829340465, -0.5036651664437749, 0.9259638786251749], [1.743924856185913, -0.5922417044639587, 0.6015975475311279, 2.7933978829340465, -0.5036651664437749, 0.9259638786251749], [1.748147964477539, -0.5896269679069519, 0.6088011264801025, 2.7933978829340465, -0.5036651664437749, 0.9259638786251749], [1.752371072769165, -0.5870121121406555, 0.6160047054290771, 2.7933978235429757, -0.5036651895330339, 0.9259638585827837]], "attachments": []}], [{"element": 7, "tag": "place_approach", "path": [[0.7651412487030029, -2.197880506515503, 0.49317467212677, -2.26645827602423, 0.5236786600071495, 1.0878646201583277], [0.820915699005127, -2.3011367321014404, 0.510590672492981, -2.3571143646816384, 0.4236986996581452, 0.8697557054050716], [0.8919060230255127, -2.384903907775879, 0.5493579506874084, -2.4654076149766975, 0.3435817747110252, 0.6508185356096617], [0.9719412326812744, -2.4429235458374023, 0.606082558631897, -2.5869009912201326, 0.2873661023081822, 0.42903286209390445]], "attachments": [{"parent_name": "", "parent_link_name": "link7", "grasp_pose": [[0.0, -0.36989665031433105, 0.37050020694732666], [-0.49999988079071045, -0.5000000596046448, -0.5, 0.5]], "child_name": "body284"}]}, {"element": 7, "tag": "place_retreat", "path": [[0.9719412326812744, -2.4429235458374023, 0.606082558631897, -2.5869009912201326, 0.2873661023081822, 0.42903286209390445], [0.969106912612915, -2.447974443435669, 0.6142346262931824, -2.5869009912201326, 0.2873661023081822, 0.42903286209390445], [0.9662727117538452, -2.4530251026153564, 0.6223866939544678, -2.5869009912201326, 0.2873661023081822, 0.42903286209390445], [0.9634383916854858, -2.458076000213623, 0.6305387020111084, -2.5869009912201326, 0.2873661023081822, 0.42903286209390445], [0.960604190826416, -2.4631268978118896, 0.6386908292770386, -2.5869009912201326, 0.2873661023081822, 0.42903286209390445], [0.9577698707580566, -2.4681777954101562, 0.6468428373336792, -2.5869009912201326, 0.2873661023081822, 0.42903286209390445], [0.9549356698989868, -2.4732284545898438, 0.6549949049949646, -2.5869009912201326, 0.2873661023081822, 0.42903286209390445], [0.9521013498306274, -2.4782791137695312, 0.66314697265625, -2.5869010469916938, 0.28736607853046287, 0.42903287770121135]], "attachments": []}], [{"element": 6, "tag": "place_approach", "path": [[1.5762460231781006, -2.3876161575317383, 0.5041734576225281, -2.094412404781484, -0.08409599923668305, 0.29987871711801856], [1.6449586153030396, -2.384345531463623, 0.543621301651001, -2.195667665751923, -0.18200984706447984, 0.12688041391762422], [1.708648920059204, -2.3655481338500977, 0.5888975262641907, -2.3147865807275787, -0.2604533017004305, -0.05884608967123435], [1.7642030715942383, -2.3319952487945557, 0.6382155418395996, -2.449359855708739, -0.3152964942039842, -0.2566594656300044], [1.8088725805282593, -2.2851200103759766, 0.6896084547042847, -2.5945767778896114, -0.34307572277003434, -0.463221077873401], [1.8403972387313843, -2.226954221725464, 0.7410154342651367, -2.7434082075557753, -0.3418165584134568, -0.672817767069693]], "attachments": [{"parent_name": "", "parent_link_name": "link7", "grasp_pose": [[-1.1920928955078125e-07, -0.2262495756149292, 0.3705000877380371], [0.5000001788139343, 0.5000000596046448, 0.5000000596046448, -0.4999999403953552]], "child_name": "body283"}]}, {"element": 6, "tag": "place_retreat", "path": [[1.8403972387313843, -2.226954221725464, 0.7410154342651367, -2.7434082075557753, -0.3418165584134568, -0.672817767069693], [1.8437492847442627, -2.230607271194458, 0.7496998310089111, -2.7434082075557753, -0.3418165584134568, -0.672817767069693], [1.8471012115478516, -2.2342605590820312, 0.7583842277526855, -2.7434082075557753, -0.3418165584134568, -0.672817767069693], [1.85045325756073, -2.2379136085510254, 0.76706862449646, -2.7434082075557753, -0.3418165584134568, -0.672817767069693], [1.8538051843643188, -2.2415666580200195, 0.7757530212402344, -2.7434082075557753, -0.3418165584134568, -0.672817767069693], [1.8571572303771973, -2.2452197074890137, 0.7844374179840088, -2.7434082075557753, -0.3418165584134568, -0.672817767069693], [1.8605091571807861, -2.248872995376587, 0.7931218147277832, -2.7434082075557753, -0.3418165584134568, -0.672817767069693], [1.8638612031936646, -2.252526044845581, 0.8018063306808472, -2.7434081700230486, -0.34181656284959433, -0.6728177146759342]], "attachments": []}], [{"element": 25, "tag": "place_approach", "path": [[0.9595569372177124, -1.0360355377197266, 0.4794750213623047, 2.730333530952068, 0.9116313378543234, 1.9311947627069803], [0.9584598541259766, -1.031552791595459, 0.5139497518539429, 2.7743933971843044, 0.8532237713345022, 1.901416375630338], [0.959322452545166, -1.0277328491210938, 0.5485692024230957, 2.813246135379865, 0.7940844550716507, 1.8771635117906469], [0.9621461629867554, -1.0245860815048218, 0.583199143409729, 2.8480054901534078, 0.7343795498480606, 1.85736412024722], [0.9669243097305298, -1.0221209526062012, 0.6177054643630981, 2.879520419477727, 0.6742349737258942, 1.8412125833524033], [0.973642110824585, -1.0203421115875244, 0.6519546508789062, 2.9084481617387636, 0.6137462850104497, 1.8281015058945906], [0.9822766780853271, -1.019252061843872, 0.6858139038085938, 2.9353072548821695, 0.552989005419995, 1.817563851442083], [0.9927965998649597, -1.0188496112823486, 0.7191524505615234, 2.9605136161888743, 0.4920237661435905, 1.8092432929389966], [1.005163311958313, -1.0191315412521362, 0.7518416047096252, 2.9844072982014898, 0.430899991352935, 1.8028644215708634], [1.0193297863006592, -1.0200912952423096, 0.7837554216384888, 3.0072718142693953, 0.3696592707876156, 1.7982155817769077], [1.0352414846420288, -1.0217195749282837, 0.8147710561752319, 3.029348574938038, 0.3083380849716473, 1.7951355385488008], [1.0528367757797241, -1.0240037441253662, 0.8447696566581726, 3.0508477848043998, 0.24696801062944707, 1.793504603999612], [1.0720471143722534, -1.026929259300232, 0.8736366033554077, 3.0719571577467564, 0.1855786197643278, 1.7932377297042006], [1.0927965641021729, -1.030478596687317, 0.9012619256973267, 3.09284864551564, 0.12419717471261245, 1.7942781818347244], [1.1150031089782715, -1.0346312522888184, 0.9275407791137695, 3.11368405342036, 0.06285076993704723, 1.7965965828414305], [1.1385786533355713, -1.0393645763397217, 0.9523748755455017, 3.134620388822959, 0.0015655843334263962, 1.8001874665962667], [1.1634292602539062, -1.044653058052063, 0.9756703972816467, -3.1273710951683436, -0.05963033443031836, 1.8050681215442657]], "attachments": [{"parent_name": "", "parent_link_name": "link7", "grasp_pose": [[-1.1920928955078125e-07, -0.3295602798461914, 0.3704999089241028], [0.4999999403953552, 0.5, 0.5, -0.5]], "child_name": "body302"}]}, {"element": 25, "tag": "place_retreat", "path": [[1.1634292602539062, -1.044653058052063, 0.9756703972816467, -3.1273710951683436, -0.05963033443031836, 1.8050681215442657], [1.1640251874923706, -1.044795036315918, 0.9856516122817993, -3.1273710951683436, -0.05963033443031836, 1.8050681215442657], [1.164621114730835, -1.044937014579773, 0.9956328272819519, -3.1273710951683436, -0.05963033443031836, 1.8050681215442657], [1.1652170419692993, -1.045078992843628, 1.0056140422821045, -3.1273710951683436, -0.05963033443031836, 1.8050681215442657], [1.1658130884170532, -1.0452208518981934, 1.0155951976776123, -3.1273710951683436, -0.05963033443031836, 1.8050681215442657], [1.1664090156555176, -1.0453628301620483, 1.0255764722824097, -3.1273710951683436, -0.05963033443031836, 1.8050681215442657], [1.167004942893982, -1.0455048084259033, 1.035557746887207, -3.1273710951683436, -0.05963033443031836, 1.8050681215442657], [1.1676008701324463, -1.0456467866897583, 1.0455389022827148, -3.127371097479022, -0.05963033735341307, 1.8050681214961528]], "attachments": []}], [{"element": 3, "tag": "place_approach", "path": [[0.9423630237579346, -2.2966134548187256, 0.5327906012535095, -0.10342909158693661, 1.3724757909853489, -1.1270913063713976], [0.9399877786636353, -2.2924387454986572, 0.591253399848938, 0.08490319360559817, 1.5120349913927689, -1.3579152392396288], [0.9451925158500671, -2.286223888397217, 0.6487686038017273, 2.711270561138043, 1.4839038575538332, 2.2565803222623138], [0.9578267335891724, -2.2782633304595947, 0.704218327999115, 2.8131899263183517, 1.343605464309831, 2.1120823079260695], [0.9775785803794861, -2.268888473510742, 0.7565289735794067, 2.820716688579579, 1.2025996748461925, 2.0612859015616727], [1.003981351852417, -2.2584619522094727, 0.804695725440979, 2.811629872055847, 1.0616290633353802, 2.0259499187285024], [1.036423921585083, -2.2473692893981934, 0.8478035926818848, 2.7961120020638623, 0.9208598877887857, 1.9953830284853589]], "attachments": [{"parent_name": "", "parent_link_name": "link7", "grasp_pose": [[0.0, 0.04942739009857178, 0.37049978971481323], [-0.4999999403953552, -0.5000000596046448, -0.4999999403953552, 0.5000000596046448]], "child_name": "body280"}]}, {"element": 3, "tag": "place_retreat", "path": [[1.036423921585083, -2.2473692893981934, 0.8478035926818848, 2.7961120020638623, 0.9208598877887857, 1.9953830284853589], [1.0284626483917236, -2.2453200817108154, 0.8534973859786987, 2.7961120020638623, 0.9208598877887857, 1.9953830284853589], [1.0205014944076538, -2.2432706356048584, 0.8591911792755127, 2.7961120020638623, 0.9208598877887857, 1.9953830284853589], [1.0125402212142944, -2.2412214279174805, 0.8648849725723267, 2.7961120020638623, 0.9208598877887857, 1.9953830284853589], [1.0045790672302246, -2.2391722202301025, 0.8705788850784302, 2.7961120020638623, 0.9208598877887857, 1.9953830284853589], [0.9966177940368652, -2.2371230125427246, 0.8762726783752441, 2.7961120020638623, 0.9208598877887857, 1.9953830284853589], [0.9886566400527954, -2.2350735664367676, 0.8819664716720581, 2.7961120020638623, 0.9208598877887857, 1.9953830284853589], [0.9806952476501465, -2.2330243587493896, 0.8876602649688721, 2.7961120020638623, 0.9208598877887857, 1.9953830284853589]], "attachments": []}], [{"element": 4, "tag": "place_approach", "path": [[1.6488754749298096, -2.2221884727478027, 0.9778153896331787, 2.7608158244923535, 0.22562495184871337, 2.767629371690276], [1.6576772928237915, -2.202550172805786, 0.9780454039573669, 2.7042393634651307, 0.17135505260682488, 2.8545919650044773], [1.6682538986206055, -2.1840145587921143, 0.977400004863739, 2.653066362589474, 0.11257316879923104, 2.9376362261601465], [1.6804713010787964, -2.1667869091033936, 0.9758996963500977, 2.60719610288336, 0.049873454719239575, 3.017159639004736], [1.6941758394241333, -2.1510560512542725, 0.9735748767852783, 2.566495316689429, -0.01619677842849089, 3.093644706057684], [1.7091968059539795, -2.136993885040283, 0.970465898513794, 2.5308350453112913, -0.08513800544154097, -3.1155486140498683], [1.725347876548767, -2.1247527599334717, 0.9666218757629395, 2.500121714160619, -0.15649330787956062, -3.043453545362792], [1.742429256439209, -2.1144630908966064, 0.9621009826660156, 2.474324626968926, -0.22984247116348092, -2.9726100383069602], [1.760230302810669, -2.1062326431274414, 0.9569689631462097, 2.4535010560869237, -0.30479358714323895, -2.9023152462785147], [1.7785322666168213, -2.1001458168029785, 0.951299250125885, 2.4378262034790263, -0.3809709378896181, -2.8317898616059876], [1.7971099615097046, -2.0962600708007812, 0.9451711177825928, 2.427625875519889, -0.4580037079878279, -2.7601480297779117], [1.8157354593276978, -2.0946083068847656, 0.9386695623397827, 2.42342165314045, -0.5355093962744439, -2.6863540361102576], [1.8341797590255737, -2.0951969623565674, 0.9318834543228149, 2.4259929819815262, -0.613073060135327, -2.609156726358768], [1.8522164821624756, -2.098005771636963, 0.9249058365821838, 2.436461656175223, -0.6902194037874528, -2.5270035917918943], [1.8696236610412598, -2.1029889583587646, 0.9178315997123718, 2.4564120638222353, -0.7663735675922785, -2.437915405183775]], "attachments": [{"parent_name": "", "parent_link_name": "link7", "grasp_pose": [[-2.384185791015625e-07, 0.1305890679359436, 0.3705000877380371], [-0.5000000596046448, -0.5000001788139343, -0.5000000596046448, 0.5000000596046448]], "child_name": "body281"}]}, {"element": 4, "tag": "place_retreat", "path": [[1.8696236610412598, -2.1029889583587646, 0.9178315997123718, 2.4564120638222353, -0.7663735675922785, -2.437915405183775], [1.8756921291351318, -2.0989997386932373, 0.9227126240730286, 2.4564120638222353, -0.7663735675922785, -2.437915405183775], [1.8817603588104248, -2.095010757446289, 0.9275936484336853, 2.4564120638222353, -0.7663735675922785, -2.437915405183775], [1.8878288269042969, -2.091021776199341, 0.9324747323989868, 2.4564120638222353, -0.7663735675922785, -2.437915405183775], [1.893897294998169, -2.0870325565338135, 0.9373557567596436, 2.4564120638222353, -0.7663735675922785, -2.437915405183775], [1.899965524673462, -2.083043336868286, 0.9422367811203003, 2.4564120638222353, -0.7663735675922785, -2.437915405183775], [1.906033992767334, -2.079054355621338, 0.9471178650856018, 2.4564120638222353, -0.7663735675922785, -2.437915405183775], [1.912102222442627, -2.0750653743743896, 0.9519988894462585, 2.4564120638222353, -0.7663735675922785, -2.437915405183775], [1.918170690536499, -2.0710761547088623, 0.9568799734115601, 2.456412035861647, -0.7663735777608214, -2.437915485881687]], "attachments": []}], [{"element": 5, "tag": "place_approach", "path": [[1.8258042335510254, -2.6213572025299072, 0.8925113677978516, -2.3887051565340536, -0.878365075071596, 0.2592124174885022], [1.8013660907745361, -2.6487905979156494, 0.9153627753257751, -2.3867636782829207, -0.7655687517162185, 0.20499505803774948], [1.7728159427642822, -2.6756818294525146, 0.933644711971283, -2.3773249381934893, -0.652991536007021, 0.15551059997422245], [1.7407033443450928, -2.7016382217407227, 0.9469749927520752, -2.3621092104599897, -0.5408898061747599, 0.10843549896830171], [1.7056341171264648, -2.7262840270996094, 0.9550496339797974, -2.341989985207553, -0.42949580891125566, 0.06219186844846702], [1.6682608127593994, -2.7492618560791016, 0.9576475620269775, -2.317338349256847, -0.31904645675286375, 0.01557692092900946], [1.629272222518921, -2.770242929458618, 0.9546345472335815, -2.288184782163952, -0.20980440577771287, -0.03243349936534102], [1.5893828868865967, -2.7889275550842285, 0.9459648132324219, -2.254298322994325, -0.10207627254039389, -0.08280414313657353]], "attachments": [{"parent_name": "", "parent_link_name": "link7", "grasp_pose": [[-1.1920928955078125e-07, 0.13287532329559326, 0.3705003261566162], [0.4999999701976776, 0.5000000596046448, 0.5, -0.5]], "child_name": "body282"}]}, {"element": 5, "tag": "place_retreat", "path": [[1.5893828868865967, -2.7889275550842285, 0.9459648132324219, -2.254298322994325, -0.10207627254039389, -0.08280414313657353], [1.5904018878936768, -2.7966408729553223, 0.9522470831871033, -2.254298322994325, -0.10207627254039389, -0.08280414313657353], [1.5914208889007568, -2.804354190826416, 0.9585292935371399, -2.254298322994325, -0.10207627254039389, -0.08280414313657353], [1.592439889907837, -2.8120675086975098, 0.9648115634918213, -2.254298322994325, -0.10207627254039389, -0.08280414313657353], [1.5934587717056274, -2.8197805881500244, 0.9710938334465027, -2.254298322994325, -0.10207627254039389, -0.08280414313657353], [1.5944777727127075, -2.827493906021118, 0.9773761034011841, -2.254298322994325, -0.10207627254039389, -0.08280414313657353], [1.5954967737197876, -2.835207223892212, 0.9836583137512207, -2.254298322994325, -0.10207627254039389, -0.08280414313657353], [1.5965157747268677, -2.8429205417633057, 0.9899405837059021, -2.254298322994325, -0.10207627254039389, -0.08280414313657353]], "attachments": []}], [{"element": 33, "tag": "place_approach", "path": [[1.1322782039642334, -0.7517293691635132, 1.0795190334320068, 2.9335216103981403, -0.2798672881995791, 0.7258847577061367], [1.1280556917190552, -0.7552386522293091, 1.0759098529815674, 2.9347242709993293, -0.2612765193901465, 0.6844412637426478], [1.1240497827529907, -0.7588383555412292, 1.0722174644470215, 2.9367135243117106, -0.24274956922953703, 0.6431725751605812], [1.120265007019043, -0.7625181674957275, 1.0684434175491333, 2.9394763337905703, -0.22431767080452134, 0.6020471047741759], [1.1167054176330566, -0.7662674784660339, 1.0645886659622192, 2.942999957811165, -0.20601171084497152, 0.5610348101142619], [1.1133744716644287, -0.7700756192207336, 1.060654878616333, 2.9472718000855314, -0.18786214778916674, 0.5201059057995476], [1.1102755069732666, -0.7739316821098328, 1.0566437244415283, 2.9522794848184857, -0.1698989632435742, 0.47923217692181386], [1.1074106693267822, -0.7778247594833374, 1.0525567531585693, 2.9580111719884, -0.15215204895180645, 0.43838630004890333], [1.1047824621200562, -0.7817438244819641, 1.048396110534668, 2.9644547347370325, -0.13465099186726348, 0.39754248661882047], [1.1023920774459839, -0.7856777906417847, 1.0441639423370361, 2.97159829277949, -0.1174249413344655, 0.356675655930702], [1.1002411842346191, -0.7896155714988708, 1.0398623943328857, 2.9794298560465604, -0.10050309890626698, 0.315762609049441], [1.0983299016952515, -0.7935460209846497, 1.0354938507080078, 2.9879372856593176, -0.08391409070756649, 0.27478115093824856], [1.0966583490371704, -0.7974581122398376, 1.0310611724853516, 2.9971082335420407, -0.06768623658006695, 0.23371083391027742], [1.095226526260376, -0.8013407588005066, 1.026566505432129, 3.006929877634751, -0.05184834761927845, 0.19253280835152317], [1.0940332412719727, -0.805182933807373, 1.0220131874084473, 3.017388666467979, -0.03642796745645923, 0.15122929402382398], [1.0930768251419067, -0.8089737892150879, 1.0174038410186768, 3.028470844428684, -0.021452959700507288, 0.10978524194635056], [1.0923559665679932, -0.8127022981643677, 1.0127415657043457, 3.0401615486240217, -0.006950855626230498, 0.06818658493014813]], "attachments": [{"parent_name": "", "parent_link_name": "link7", "grasp_pose": [[-2.384185791015625e-07, -0.1573084592819214, 0.37049996852874756], [0.5, 0.5000001192092896, 0.5, -0.5]], "child_name": "body310"}]}, {"element": 33, "tag": "place_retreat", "path": [[1.0923559665679932, -0.8127022981643677, 1.0127415657043457, 3.0401615486240217, -0.006950855626230498, 0.06818658493014813], [1.092416763305664, -0.8118163347244263, 1.0214464664459229, 3.0401615486240217, -0.006950855626230498, 0.06818658493014813], [1.092477560043335, -0.8109303712844849, 1.030151128768921, 3.0401615486240217, -0.006950855626230498, 0.06818658493014813], [1.0925384759902954, -0.8100443482398987, 1.038856029510498, 3.0401615486240217, -0.006950855626230498, 0.06818658493014813], [1.0925992727279663, -0.8091583847999573, 1.0475609302520752, 3.0401615486240217, -0.006950855626230498, 0.06818658493014813], [1.0926600694656372, -0.8082724213600159, 1.0562655925750732, 3.0401615486240217, -0.006950855626230498, 0.06818658493014813], [1.0927209854125977, -0.8073863983154297, 1.0649704933166504, 3.0401615486240217, -0.006950855626230498, 0.06818658493014813], [1.0927817821502686, -0.8065004348754883, 1.073675274848938, 3.0401615486240217, -0.006950855626230498, 0.06818658493014813], [1.0928425788879395, -0.8056144714355469, 1.0823800563812256, 3.0401615486161364, -0.0069508553938343555, 0.06818658494191703]], "attachments": []}], [{"element": 9, "tag": "place_approach", "path": [[1.121483325958252, -2.482240915298462, 0.8710076212882996, -2.323084512072417, -0.31844128877372296, 0.4059680008275672], [1.142656922340393, -2.4889914989471436, 0.8437885642051697, -2.2759461497068854, -0.3810172137173072, 0.2882422868680707], [1.1648739576339722, -2.490386486053467, 0.8176325559616089, -2.2359246579892713, -0.44836028038982195, 0.17049032805506975], [1.187436580657959, -2.486456871032715, 0.7930359840393066, -2.203813010731729, -0.5195551017206266, 0.051553946447195034], [1.209639072418213, -2.4773600101470947, 0.7704578638076782, -2.180637060616967, -0.593643944320227, -0.07008107296803345], [1.2307839393615723, -2.4633772373199463, 0.7503096461296082, -2.167790892652149, -0.6695952013661052, -0.19637835419821048], [1.250199556350708, -2.44490385055542, 0.732944667339325, -2.167205893564329, -0.746248711279957, -0.32988548621796376], [1.2672547101974487, -2.42244291305542, 0.7186505198478699, -2.1815577214295527, -0.8222285336446382, -0.4739171971558054]], "attachments": [{"parent_name": "", "parent_link_name": "link7", "grasp_pose": [[-2.384185791015625e-07, -0.05896216630935669, 0.370499849319458], [0.5, 0.5000000596046448, 0.5000001192092896, -0.4999999403953552]], "child_name": "body286"}]}, {"element": 9, "tag": "place_retreat", "path": [[1.2672547101974487, -2.42244291305542, 0.7186505198478699, -2.1815577214295527, -0.8222285336446382, -0.4739171971558054], [1.273665428161621, -2.427321434020996, 0.7220657467842102, -2.1815577214295527, -0.8222285336446382, -0.4739171971558054], [1.280076265335083, -2.4321999549865723, 0.7254809737205505, -2.1815577214295527, -0.8222285336446382, -0.4739171971558054], [1.286487102508545, -2.4370784759521484, 0.7288962006568909, -2.1815577214295527, -0.8222285336446382, -0.4739171971558054], [1.2928979396820068, -2.4419569969177246, 0.7323114275932312, -2.1815577214295527, -0.8222285336446382, -0.4739171971558054], [1.2993087768554688, -2.44683575630188, 0.7357267141342163, -2.1815577214295527, -0.8222285336446382, -0.4739171971558054], [1.3057194948196411, -2.451714277267456, 0.7391419410705566, -2.1815577214295527, -0.8222285336446382, -0.4739171971558054], [1.312130331993103, -2.4565927982330322, 0.742557168006897, -2.1815577214295527, -0.8222285336446382, -0.4739171971558054], [1.318541169166565, -2.4614713191986084, 0.7459723949432373, -2.1815577214295527, -0.8222285336446382, -0.4739171971558054]], "attachments": []}], [{"element": 27, "tag": "place_approach", "path": [[1.5655680894851685, -0.7028489112854004, 0.9325460195541382, 2.4960220359142133, 0.5128533872001733, 0.48136179623960573], [1.580536961555481, -0.7951698899269104, 1.0080935955047607, 2.8295751371104636, 0.43893711762145743, 0.2662844850691713], [1.6165874004364014, -0.8966639041900635, 1.0577749013900757, 3.1268373457693883, 0.3093375538476618, 0.09568416389681203], [1.6700222492218018, -0.9981171488761902, 1.077532172203064, -2.894783189770246, 0.14106077060511488, -0.024282620998202265], [1.7354743480682373, -1.0903196334838867, 1.0661823749542236, -2.656874830264717, -0.05081174492369285, -0.09614737869404169]], "attachments": [{"parent_name": "", "parent_link_name": "link7", "grasp_pose": [[0.0, 0.04190504550933838, 0.37049996852874756], [-0.5000000596046448, -0.5000000596046448, -0.5, 0.5]], "child_name": "body304"}]}, {"element": 27, "tag": "place_retreat", "path": [[1.7354743480682373, -1.0903196334838867, 1.0661823749542236, -2.656874830264717, -0.05081174492369285, -0.09614737869404169], [1.7359822988510132, -1.0949732065200806, 1.0750190019607544, -2.656874830264717, -0.05081174492369285, -0.09614737869404169], [1.7364901304244995, -1.0996267795562744, 1.0838556289672852, -2.656874830264717, -0.05081174492369285, -0.09614737869404169], [1.7369980812072754, -1.1042803525924683, 1.0926923751831055, -2.656874830264717, -0.05081174492369285, -0.09614737869404169], [1.7375059127807617, -1.108933925628662, 1.1015288829803467, -2.656874830264717, -0.05081174492369285, -0.09614737869404169], [1.7380138635635376, -1.113587498664856, 1.110365629196167, -2.656874830264717, -0.05081174492369285, -0.09614737869404169], [1.738521695137024, -1.1182410717010498, 1.1192022562026978, -2.656874830264717, -0.05081174492369285, -0.09614737869404169], [1.7390296459197998, -1.1228946447372437, 1.1280388832092285, -2.656874830264717, -0.05081174492369285, -0.09614737869404169]], "attachments": []}], [{"element": 26, "tag": "place_approach", "path": [[1.8133912086486816, -1.1795552968978882, 0.8827817440032959, 2.4674757507906286, -0.8546680440943449, 1.2465652096163506], [1.7888044118881226, -1.195042610168457, 0.9141227006912231, 2.519575559664348, -0.7701392968906657, 1.1970471422350348], [1.7639919519424438, -1.2146384716033936, 0.9432573318481445, 2.57327238375701, -0.687529498923531, 1.1454675960053058], [1.7393790483474731, -1.2381341457366943, 0.9698323011398315, 2.6288689903206652, -0.6071444905739276, 1.0916515073304232], [1.7153874635696411, -1.265257716178894, 0.9935349225997925, 2.6866512078389304, -0.5293206470920828, 1.035399163938213], [1.692429780960083, -1.2956798076629639, 1.014098882675171, 2.7468900687754068, -0.4544285507681431, 0.9764981376425714], [1.6709010601043701, -1.3290176391601562, 1.0313081741333008, 2.8098417465924936, -0.3828744829938276, 0.9147362489410772], [1.6511740684509277, -1.364842176437378, 1.0450001955032349, 2.8757383801626104, -0.3151017743716878, 0.8499125793559243]], "attachments": [{"parent_name": "", "parent_link_name": "link7", "grasp_pose": [[-2.384185791015625e-07, -0.10359454154968262, 0.3705003261566162], [0.4999999403953552, 0.49999985098838806, 0.5000000596046448, -0.4999999403953552]], "child_name": "body303"}]}, {"element": 26, "tag": "place_retreat", "path": [[1.6511740684509277, -1.364842176437378, 1.0450001955032349, 2.8757383801626104, -0.3151017743716878, 0.8499125793559243], [1.653885841369629, -1.3626564741134644, 1.0530271530151367, 2.8757383801626104, -0.3151017743716878, 0.8499125793559243], [1.6565974950790405, -1.3604707717895508, 1.0610541105270386, 2.8757383801626104, -0.3151017743716878, 0.8499125793559243], [1.6593092679977417, -1.3582849502563477, 1.0690810680389404, 2.8757383801626104, -0.3151017743716878, 0.8499125793559243], [1.6620210409164429, -1.356099247932434, 1.0771079063415527, 2.8757383801626104, -0.3151017743716878, 0.8499125793559243], [1.664732813835144, -1.3539135456085205, 1.0851348638534546, 2.8757383801626104, -0.3151017743716878, 0.8499125793559243], [1.6674445867538452, -1.3517277240753174, 1.0931618213653564, 2.8757383801626104, -0.3151017743716878, 0.8499125793559243], [1.6701562404632568, -1.3495420217514038, 1.1011887788772583, 2.8757383801626104, -0.3151017743716878, 0.8499125793559243], [1.672868013381958, -1.3473563194274902, 1.1092156171798706, 2.8757383801626104, -0.3151017743716878, 0.8499125793559243]], "attachments": []}], [{"element": 8, "tag": "place_approach", "path": [[1.5335698127746582, -1.9627121686935425, 1.2000614404678345, 2.4445980151606532, -0.08825531763096439, -0.09983258217991242], [1.5268852710723877, -2.012467861175537, 1.201511025428772, 2.5619545484279453, -0.05940742077525696, -0.12128674654833693], [1.5217492580413818, -2.063183069229126, 1.1973154544830322, 2.679751199913281, -0.03326848212983799, -0.14594531040965047], [1.5182411670684814, -2.1141276359558105, 1.1874204874038696, 2.7980915877755486, -0.010212961353089089, -0.17349122913703874], [1.5164158344268799, -2.164567708969116, 1.171859860420227, 2.9170188061271003, 0.009421056191371822, -0.20356584175158712], [1.5163018703460693, -2.213777542114258, 1.1507543325424194, 3.0365176426818574, 0.025338714449369158, -0.23576689291147726]], "attachments": [{"parent_name": "", "parent_link_name": "link7", "grasp_pose": [[-2.384185791015625e-07, -0.18335795402526855, 0.37049973011016846], [0.5, 0.5, 0.5000001192092896, -0.5000000596046448]], "child_name": "body285"}]}, {"element": 8, "tag": "place_retreat", "path": [[1.5163018703460693, -2.213777542114258, 1.1507543325424194, 3.0365176426818574, 0.025338714449369158, -0.23576689291147726], [1.5160801410675049, -2.212860107421875, 1.159453272819519, 3.0365176426818574, 0.025338714449369158, -0.23576689291147726], [1.51585853099823, -2.211942672729492, 1.1681522130966187, 3.0365176426818574, 0.025338714449369158, -0.23576689291147726], [1.5156368017196655, -2.2110252380371094, 1.1768511533737183, 3.0365176426818574, 0.025338714449369158, -0.23576689291147726], [1.515415072441101, -2.2101078033447266, 1.1855502128601074, 3.0365176426818574, 0.025338714449369158, -0.23576689291147726], [1.5151934623718262, -2.2091903686523438, 1.194249153137207, 3.0365176426818574, 0.025338714449369158, -0.23576689291147726], [1.5149717330932617, -2.208272933959961, 1.2029480934143066, 3.0365176426818574, 0.025338714449369158, -0.23576689291147726], [1.5147501230239868, -2.207355499267578, 1.2116470336914062, 3.0365176426818574, 0.025338714449369158, -0.23576689291147726], [1.5145283937454224, -2.2064380645751953, 1.2203458547592163, 3.0365176439233963, 0.025338714889628113, -0.2357669070238546]], "attachments": []}], [{"element": 12, "tag": "place_approach", "path": [[1.741348147392273, -1.4862394332885742, 1.1759521961212158, 0.9243935144373674, -0.6362541732010422, 2.6671279031179247], [1.7009114027023315, -1.4679079055786133, 1.2348567247390747, 1.116554557334663, -0.6027628734068516, 2.7959838928357015], [1.6555285453796387, -1.4604498147964478, 1.2913272380828857, 1.2968960966601335, -0.5504138451988739, 2.9115585230543566], [1.606340765953064, -1.4638510942459106, 1.3437724113464355, 1.4632653666049644, -0.4821409968414659, 3.010914510263665], [1.5545872449874878, -1.477818489074707, 1.3907052278518677, 1.6157786528912663, -0.40102647753892023, 3.0932883538415608], [1.5015734434127808, -1.5017856359481812, 1.430780053138733, 1.7560339464224803, -0.3099287709208145, -3.123924481981119], [1.4486377239227295, -1.5349284410476685, 1.4628288745880127, 1.8863837141384776, -0.21133136769928137, -3.0732124090211097]], "attachments": [{"parent_name": "", "parent_link_name": "link7", "grasp_pose": [[3.5762786865234375e-07, 0.3300974369049072, 0.370499849319458], [-0.5, -0.5000001192092896, -0.5, 0.5]], "child_name": "body289"}]}, {"element": 12, "tag": "place_retreat", "path": [[1.4486377239227295, -1.5349284410476685, 1.4628288745880127, 1.8863837141384776, -0.21133136769928137, -3.0732124090211097], [1.450735330581665, -1.5256338119506836, 1.465863585472107, 1.8863837141384776, -0.21133136769928137, -3.0732124090211097], [1.4528329372406006, -1.5163391828536987, 1.4688982963562012, 1.8863837141384776, -0.21133136769928137, -3.0732124090211097], [1.4549305438995361, -1.5070445537567139, 1.4719330072402954, 1.8863837141384776, -0.21133136769928137, -3.0732124090211097], [1.4570282697677612, -1.4977498054504395, 1.4749675989151, 1.8863837141384776, -0.21133136769928137, -3.0732124090211097], [1.4591258764266968, -1.4884551763534546, 1.4780023097991943, 1.8863837141384776, -0.21133136769928137, -3.0732124090211097], [1.4612234830856323, -1.4791605472564697, 1.4810370206832886, 1.8863837141384776, -0.21133136769928137, -3.0732124090211097], [1.4633210897445679, -1.4698657989501953, 1.4840717315673828, 1.8863837844111384, -0.21133136716755402, -3.0732124136788905]], "attachments": []}], [{"element": 20, "tag": "place_approach", "path": [[1.410792350769043, -1.7691556215286255, 0.7825785875320435, -1.3930050444591482, 0.24226998754444312, 0.15126228553048315], [1.3988282680511475, -1.793034315109253, 0.8505007028579712, -1.5839868641533752, 0.2467447658249247, 0.16619257032691007], [1.3878189325332642, -1.8041306734085083, 0.9216587543487549, -1.775163783117491, 0.24838697619685948, 0.18173910848765215], [1.377837061882019, -1.8020702600479126, 0.9936009049415588, -1.9663537401432458, 0.2471352719806452, 0.1973249346606592], [1.368919014930725, -1.7869423627853394, 1.063847541809082, -2.1573724144027766, 0.2430359050283162, 0.2123714242595675], [1.3610633611679077, -1.7592962980270386, 1.1299786567687988, -2.348051704969978, 0.23624231874538118, 0.22632485419293688]], "attachments": [{"parent_name": "", "parent_link_name": "link7", "grasp_pose": [[-1.1920928955078125e-07, -0.09929531812667847, 0.3704996109008789], [0.5, 0.5, 0.5000001192092896, -0.5]], "child_name": "body297"}]}, {"element": 20, "tag": "place_retreat", "path": [[1.3610633611679077, -1.7592962980270386, 1.1299786567687988, -2.348051704969978, 0.23624231874538118, 0.22632485419293688], [1.3590154647827148, -1.7653604745864868, 1.1359447240829468, -2.348051704969978, 0.23624231874538118, 0.22632485419293688], [1.3569674491882324, -1.7714245319366455, 1.1419109106063843, -2.348051704969978, 0.23624231874538118, 0.22632485419293688], [1.3549195528030396, -1.7774885892868042, 1.1478770971298218, -2.348051704969978, 0.23624231874538118, 0.22632485419293688], [1.3528716564178467, -1.7835527658462524, 1.1538432836532593, -2.348051704969978, 0.23624231874538118, 0.22632485419293688], [1.3508236408233643, -1.7896169424057007, 1.1598093509674072, -2.348051704969978, 0.23624231874538118, 0.22632485419293688], [1.3487757444381714, -1.7956809997558594, 1.1657755374908447, -2.348051704969978, 0.23624231874538118, 0.22632485419293688], [1.346727728843689, -1.801745057106018, 1.1717417240142822, -2.348051704969978, 0.23624231874538118, 0.22632485419293688], [1.344679832458496, -1.8078091144561768, 1.1777076721191406, -2.3480517149377413, 0.23624231968077486, 0.22632487625944772]], "attachments": []}], [{"element": 23, "tag": "place_approach", "path": [[1.5106123685836792, -1.2660937309265137, 0.9529753923416138, 3.008895659563276, -0.604267694803852, 0.7066924729572093], [1.495203971862793, -1.2493313550949097, 0.9625742435455322, 2.9757340537779453, -0.5643641833842958, 0.6184623860532081], [1.4784626960754395, -1.233964204788208, 0.9719308614730835, 2.9475628183877616, -0.5222243816497011, 0.5339628947589952], [1.4605097770690918, -1.220088243484497, 0.9809867739677429, 2.924147950845625, -0.47823487221779776, 0.45279728731558766], [1.4414756298065186, -1.2077891826629639, 0.9896854162216187, 2.9052419982049846, -0.43274953342549405, 0.3745458946545801], [1.4214982986450195, -1.1971403360366821, 0.9979729652404785, 2.890602946582886, -0.3860933780724628, 0.2987844866611532], [1.4007222652435303, -1.1882035732269287, 1.0057982206344604, 2.8800060504539187, -0.33856505995950104, 0.22509491566440173], [1.3792985677719116, -1.1810282468795776, 1.0131139755249023, 2.873251442156421, -0.2904419878797252, 0.15307274459742737], [1.3573819398880005, -1.1756511926651, 1.0198760032653809, 2.870167794991993, -0.24198316161145242, 0.08232893476948017], [1.335132122039795, -1.172095775604248, 1.026044487953186, 2.8706136794584083, -0.19343532086804066, 0.012493020382417263], [1.3127096891403198, -1.170372724533081, 1.0315837860107422, 2.8744770730498095, -0.14503492615216787, -0.0567882538119556], [1.2902774810791016, -1.1704788208007812, 1.0364630222320557, 2.8816737205425924, -0.09701360106916039, -0.1258512952424914], [1.2679980993270874, -1.1723980903625488, 1.0406556129455566, 2.8921449086534903, -0.04959981719961088, -0.19501648707882427], [1.246032953262329, -1.176101565361023, 1.0441405773162842, 2.905853528986562, -0.003023829030729208, -0.26458795676199826], [1.2245413064956665, -1.181546926498413, 1.0469017028808594, 2.9227808560303656, 0.042481430137771566, -0.33485417997067213], [1.2036792039871216, -1.1886794567108154, 1.048927903175354, 2.9429212321651352, 0.08667644164644307, -0.40608649261621355]], "attachments": [{"parent_name": "", "parent_link_name": "link7", "grasp_pose": [[-2.384185791015625e-07, 0.0697106122970581, 0.37050002813339233], [-0.5000000596046448, -0.5000001192092896, -0.5, 0.5]], "child_name": "body300"}]}, {"element": 23, "tag": "place_retreat", "path": [[1.2036792039871216, -1.1886794567108154, 1.048927903175354, 2.9429212321651352, 0.08667644164644307, -0.40608649261621355], [1.2028135061264038, -1.1867132186889648, 1.0586943626403809, 2.9429212321651352, 0.08667644164644307, -0.40608649261621355], [1.201947808265686, -1.1847469806671143, 1.0684608221054077, 2.9429212321651352, 0.08667644164644307, -0.40608649261621355], [1.2010821104049683, -1.1827807426452637, 1.0782274007797241, 2.9429212321651352, 0.08667644164644307, -0.40608649261621355], [1.20021653175354, -1.1808143854141235, 1.087993860244751, 2.9429212321651352, 0.08667644164644307, -0.40608649261621355], [1.1993508338928223, -1.178848147392273, 1.0977603197097778, 2.9429212321651352, 0.08667644164644307, -0.40608649261621355], [1.1984851360321045, -1.1768819093704224, 1.1075267791748047, 2.9429212321651352, 0.08667644164644307, -0.40608649261621355], [1.1976194381713867, -1.1749156713485718, 1.117293357849121, 2.9429212321651352, 0.08667644164644307, -0.40608649261621355]], "attachments": []}], [{"element": 17, "tag": "place_approach", "path": [[1.0988959074020386, -1.7801601886749268, 1.5377663373947144, -2.1363917526804372, -0.5966519760564696, -0.6571399810147169], [1.0877184867858887, -1.7388142347335815, 1.541447401046753, -2.248127046650905, -0.6103911863858406, -0.7290532489042022], [1.074403166770935, -1.6973559856414795, 1.5419070720672607, -2.3615983953965682, -0.6173878360411982, -0.8029182162937478], [1.0590828657150269, -1.656111240386963, 1.5390653610229492, -2.4756777443269575, -0.617481444538325, -0.8774639590676079], [1.041908860206604, -1.6154042482376099, 1.5328714847564697, -2.5891810367558046, -0.6106696228013375, -0.9513646133425122], [1.023047685623169, -1.575554370880127, 1.5233039855957031, -2.7009768373261775, -0.5971086649414329, -1.0233460107889218], [1.0026812553405762, -1.5368738174438477, 1.5103703737258911, -2.8100857372547963, -0.5770972159300907, -1.0922840513117866], [0.9810043573379517, -1.499664068222046, 1.494107723236084, -2.915749146232195, -0.5510486836639826, -1.1572698948494813]], "attachments": [{"parent_name": "", "parent_link_name": "link7", "grasp_pose": [[-3.5762786865234375e-07, 0.4279295802116394, 0.370499849319458], [-0.5000000596046448, -0.5000000596046448, -0.4999999403953552, 0.5]], "child_name": "body294"}]}, {"element": 17, "tag": "place_retreat", "path": [[0.9810043573379517, -1.499664068222046, 1.494107723236084, -2.915749146232195, -0.5510486836639826, -1.1572698948494813], [0.9862401485443115, -1.5015718936920166, 1.502411127090454, -2.915749146232195, -0.5510486836639826, -1.1572698948494813], [0.9914759993553162, -1.5034797191619873, 1.5107145309448242, -2.915749146232195, -0.5510486836639826, -1.1572698948494813], [0.996711790561676, -1.505387544631958, 1.5190179347991943, -2.915749146232195, -0.5510486836639826, -1.1572698948494813], [1.0019476413726807, -1.5072951316833496, 1.5273213386535645, -2.915749146232195, -0.5510486836639826, -1.1572698948494813], [1.007183313369751, -1.5092029571533203, 1.5356247425079346, -2.915749146232195, -0.5510486836639826, -1.1572698948494813], [1.0124192237854004, -1.511110782623291, 1.5439281463623047, -2.915749146232195, -0.5510486836639826, -1.1572698948494813], [1.0176550149917603, -1.5130187273025513, 1.5522316694259644, -2.9157490984665535, -0.5510487036103933, -1.1572698072895198]], "attachments": []}], [{"element": 34, "tag": "place_approach", "path": [[1.3962193727493286, -0.31639373302459717, 1.12471604347229, 2.6617776957039387, -0.03874106816068222, -0.42354823912347056], [1.3469785451889038, -0.3304169476032257, 1.1217249631881714, 2.695959095900258, 0.08525638080342489, -0.562507411102429], [1.300675630569458, -0.35290443897247314, 1.1159337759017944, 2.7479007663534873, 0.20316579375474525, -0.7081494045400879], [1.2589055299758911, -0.38309550285339355, 1.1072747707366943, 2.8187803197819292, 0.31202109470215195, -0.8644029061427626], [1.2231028079986572, -0.4199558198451996, 1.0957822799682617, 2.9099519890389, 0.4083038460979157, -1.03475351454861]], "attachments": [{"parent_name": "", "parent_link_name": "link7", "grasp_pose": [[-1.341104507446289e-07, 0.016368508338928223, 0.3704999089241028], [0.5000000596046448, 0.5, 0.5, -0.4999999701976776]], "child_name": "body311"}]}, {"element": 34, "tag": "place_retreat", "path": [[1.2231028079986572, -0.4199558198451996, 1.0957822799682617, 2.9099519890389, 0.4083038460979157, -1.03475351454861], [1.2196285724639893, -0.4181121587753296, 1.1035985946655273, 2.9099519890389, 0.4083038460979157, -1.03475351454861], [1.2161543369293213, -0.416268527507782, 1.1114147901535034, 2.9099519890389, 0.4083038460979157, -1.03475351454861], [1.2126801013946533, -0.414424866437912, 1.1192309856414795, 2.9099519890389, 0.4083038460979157, -1.03475351454861], [1.2092058658599854, -0.4125812351703644, 1.1270473003387451, 2.9099519890389, 0.4083038460979157, -1.03475351454861], [1.2057316303253174, -0.4107375741004944, 1.1348633766174316, 2.9099519890389, 0.4083038460979157, -1.03475351454861], [1.2022573947906494, -0.4088939130306244, 1.1426796913146973, 2.9099519890389, 0.4083038460979157, -1.03475351454861], [1.1987831592559814, -0.4070502817630768, 1.1504958868026733, 2.9099519890389, 0.4083038460979157, -1.03475351454861], [1.195309042930603, -0.4052066206932068, 1.1583120822906494, 2.9099519890389, 0.4083038460979157, -1.03475351454861]], "attachments": []}], [{"element": 29, "tag": "place_approach", "path": [[0.9035366177558899, -0.9362345337867737, 0.8042317628860474, -1.8980420076716766, 0.8007668322728295, 1.4770209114398134], [0.9113506078720093, -0.9559611082077026, 0.8133843541145325, -1.976281018930818, 0.7527688181778885, 1.4593337384224658], [0.920211136341095, -0.9743500351905823, 0.8243119716644287, -2.0523719429054452, 0.7058849384356596, 1.437505308525675], [0.9300561547279358, -0.9911959767341614, 0.8368780612945557, -2.1269288532156794, 0.6603583430580888, 1.4120312244787037], [0.940813422203064, -1.0063107013702393, 0.8509292602539062, -2.2004447516417605, 0.6164178537953401, 1.3833020691034572], [0.9524005055427551, -1.019524097442627, 0.8662959933280945, -2.273319732895599, 0.5742814477255292, 1.3516310291695182], [0.9647268652915955, -1.030686378479004, 0.8827948570251465, -2.345874439815605, 0.5341610672379635, 1.3172736867917265], [0.9776932001113892, -1.0396697521209717, 0.9002299308776855, -2.418366403315214, 0.4962630307569505, 1.280449654448794], [0.9911942481994629, -1.0463694334030151, 0.9183961153030396, -2.490999021239305, 0.4607876970238245, 1.2413509579923705], [1.0051183700561523, -1.0507053136825562, 0.9370798468589783, -2.5639266379388923, 0.42792994585690813, 1.200155618308267], [1.0193495750427246, -1.0526223182678223, 0.9560620784759521, -2.6372605392058053, 0.3978779426584534, 1.157036108758192], [1.033769130706787, -1.052091121673584, 0.9751211404800415, -2.7110731277650566, 0.37081057582396243, 1.1121645882834181], [1.048255443572998, -1.049108624458313, 0.994033694267273, -2.7853988568829724, 0.3468960105897106, 1.065719345605975], [1.0626864433288574, -1.0436979532241821, 1.0125787258148193, -2.8602388150860176, 0.32628883644139944, 1.0178878958689912], [1.0769414901733398, -1.0359078645706177, 1.030538558959961, -2.9355632833173986, 0.30912676913858816, 0.9688685015777525]], "attachments": [{"parent_name": "", "parent_link_name": "link7", "grasp_pose": [[0.0, -0.24638277292251587, 0.3704996109008789], [-0.5000001192092896, -0.5000001192092896, -0.5, 0.5]], "child_name": "body306"}]}, {"element": 29, "tag": "place_retreat", "path": [[1.0769414901733398, -1.0359078645706177, 1.030538558959961, -2.9355632833173986, 0.30912676913858816, 0.9688685015777525], [1.074279546737671, -1.037613034248352, 1.0386974811553955, -2.9355632833173986, 0.30912676913858816, 0.9688685015777525], [1.0716174840927124, -1.0393182039260864, 1.0468565225601196, -2.9355632833173986, 0.30912676913858816, 0.9688685015777525], [1.0689555406570435, -1.0410233736038208, 1.0550154447555542, -2.9355632833173986, 0.30912676913858816, 0.9688685015777525], [1.066293478012085, -1.0427285432815552, 1.0631744861602783, -2.9355632833173986, 0.30912676913858816, 0.9688685015777525], [1.063631534576416, -1.0444337129592896, 1.071333408355713, -2.9355632833173986, 0.30912676913858816, 0.9688685015777525], [1.060969591140747, -1.046138882637024, 1.0794923305511475, -2.9355632833173986, 0.30912676913858816, 0.9688685015777525], [1.0583075284957886, -1.0478441715240479, 1.087651252746582, -2.9355632833173986, 0.30912676913858816, 0.9688685015777525], [1.0556455850601196, -1.0495493412017822, 1.0958102941513062, -2.9355632902581448, 0.30912678220878803, 0.9688685012867894]], "attachments": []}], [{"element": 11, "tag": "place_approach", "path": [[1.2390360832214355, -1.9580543041229248, 1.281510353088379, -2.6034048672720354, 0.13073250175069032, -2.3783272068110732], [1.2911827564239502, -1.8737539052963257, 1.259556531906128, -2.84149897281286, 0.029379820561002884, -2.2876065211502836], [1.3430477380752563, -1.7985094785690308, 1.210888147354126, -3.0703587131999415, -0.09012765746480846, -2.223034178911372], [1.3908480405807495, -1.7380708456039429, 1.1385542154312134, 2.9876635916155125, -0.221077910086113, -2.186583372464926]], "attachments": [{"parent_name": "", "parent_link_name": "link7", "grasp_pose": [[4.76837158203125e-07, -0.23445749282836914, 0.37050020694732666], [-0.5, -0.49999991059303284, -0.4999999701976776, 0.5]], "child_name": "body288"}]}, {"element": 11, "tag": "place_retreat", "path": [[1.3908480405807495, -1.7380708456039429, 1.1385542154312134, 2.9876635916155125, -0.221077910086113, -2.186583372464926], [1.3927667140960693, -1.7367619276046753, 1.1469902992248535, 2.9876635916155125, -0.221077910086113, -2.186583372464926], [1.3946855068206787, -1.7354530096054077, 1.1554263830184937, 2.9876635916155125, -0.221077910086113, -2.186583372464926], [1.3966041803359985, -1.7341440916061401, 1.1638624668121338, 2.9876635916155125, -0.221077910086113, -2.186583372464926], [1.398522973060608, -1.7328351736068726, 1.172298550605774, 2.9876635916155125, -0.221077910086113, -2.186583372464926], [1.4004416465759277, -1.731526255607605, 1.180734634399414, 2.9876635916155125, -0.221077910086113, -2.186583372464926], [1.4023603200912476, -1.7302173376083374, 1.1891708374023438, 2.9876635916155125, -0.221077910086113, -2.186583372464926], [1.404279112815857, -1.7289084196090698, 1.1976069211959839, 2.9876635916155125, -0.221077910086113, -2.186583372464926], [1.4061977863311768, -1.7275993824005127, 1.2060431241989136, 2.98766359518453, -0.221077915133865, -2.186583375475034]], "attachments": []}], [{"element": 24, "tag": "place_approach", "path": [[2.0864038467407227, -1.373547911643982, 0.9257546067237854, -2.0348721327681787, -0.9172470857773293, 1.7939817999892613], [2.08480167388916, -1.3564878702163696, 0.9295856356620789, -2.1644046176782985, -0.9434590820143625, 1.8200588356714789], [2.0832016468048096, -1.338584065437317, 0.9319154620170593, -2.297781292350833, -0.971486705422283, 1.8409283457287458], [2.0815515518188477, -1.3200716972351074, 0.9326351284980774, -2.4359724652213774, -1.0008818436261337, 1.8556199486410154], [2.0798001289367676, -1.3011994361877441, 0.9316737651824951, -2.5801366081229475, -1.0311251792912144, 1.863007603810054], [2.0778985023498535, -1.2822250127792358, 0.9289999604225159, -2.731628292623738, -1.061611311997493, 1.8617977060434328], [2.075801372528076, -1.2634087800979614, 0.9246224761009216, -2.8919706757788117, -1.0916344141420287, 1.8505557506758659]], "attachments": [{"parent_name": "", "parent_link_name": "link7", "grasp_pose": [[-1.1920928955078125e-07, 0.14859133958816528, 0.3705000877380371], [-0.49999991059303284, -0.5000001192092896, -0.5000001788139343, 0.5]], "child_name": "body301"}]}, {"element": 24, "tag": "place_retreat", "path": [[2.075801372528076, -1.2634087800979614, 0.9246224761009216, -2.8919706757788117, -1.0916344141420287, 1.8505557506758659], [2.0835659503936768, -1.264405369758606, 0.9285315275192261, -2.8919706757788117, -1.0916344141420287, 1.8505557506758659], [2.0913305282592773, -1.2654019594192505, 0.9324405193328857, -2.8919706757788117, -1.0916344141420287, 1.8505557506758659], [2.099095106124878, -1.2663984298706055, 0.9363495707511902, -2.8919706757788117, -1.0916344141420287, 1.8505557506758659], [2.1068596839904785, -1.26739501953125, 0.9402586221694946, -2.8919706757788117, -1.0916344141420287, 1.8505557506758659], [2.114624500274658, -1.2683916091918945, 0.9441676139831543, -2.8919706757788117, -1.0916344141420287, 1.8505557506758659], [2.1223888397216797, -1.2693880796432495, 0.9480766654014587, -2.8919706757788117, -1.0916344141420287, 1.8505557506758659], [2.1301536560058594, -1.270384669303894, 0.9519856572151184, -2.8919706757788117, -1.0916344141420287, 1.8505557506758659], [2.13791823387146, -1.2713812589645386, 0.9558947086334229, -2.891970858002383, -1.0916344300278518, 1.8505555363903903]], "attachments": []}], [{"element": 10, "tag": "place_approach", "path": [[1.6934468746185303, -2.4746267795562744, 0.9048665761947632, -2.7734307577922306, -0.8483485972238468, -1.046980755002021], [1.6805208921432495, -2.473437786102295, 0.9724744558334351, -2.854895338007387, -0.7122429064272933, -1.0958040331043737], [1.6577407121658325, -2.4688425064086914, 1.038772463798523, -2.920424462451111, -0.5739753255117369, -1.126568532602317], [1.625434160232544, -2.4608325958251953, 1.1022400856018066, -2.9764121909404624, -0.43447545375818225, -1.1450539423388453], [1.5841373205184937, -2.449474334716797, 1.161420226097107, -3.0267936769715167, -0.29431497721913125, -1.1544212543123784], [1.5345828533172607, -2.4349074363708496, 1.2149486541748047, -3.07426117819194, -0.15389474948736825, -1.1563628184461394]], "attachments": [{"parent_name": "", "parent_link_name": "link7", "grasp_pose": [[2.384185791015625e-07, -0.3053475618362427, 0.3705003261566162], [-0.49999988079071045, -0.49999988079071045, -0.5, 0.5]], "child_name": "body287"}]}, {"element": 10, "tag": "place_retreat", "path": [[1.5345828533172607, -2.4349074363708496, 1.2149486541748047, -3.07426117819194, -0.15389474948736825, -1.1563628184461394], [1.5359240770339966, -2.4354891777038574, 1.2235755920410156, -3.07426117819194, -0.15389474948736825, -1.1563628184461394], [1.537265419960022, -2.4360709190368652, 1.2322025299072266, -3.07426117819194, -0.15389474948736825, -1.1563628184461394], [1.5386066436767578, -2.436652660369873, 1.240829586982727, -3.07426117819194, -0.15389474948736825, -1.1563628184461394], [1.5399479866027832, -2.437234401702881, 1.2494566440582275, -3.07426117819194, -0.15389474948736825, -1.1563628184461394], [1.541289210319519, -2.4378161430358887, 1.2580835819244385, -3.07426117819194, -0.15389474948736825, -1.1563628184461394], [1.5426304340362549, -2.4383978843688965, 1.2667105197906494, -3.07426117819194, -0.15389474948736825, -1.1563628184461394], [1.5439717769622803, -2.4389796257019043, 1.27533757686615, -3.07426117819194, -0.15389474948736825, -1.1563628184461394], [1.5453130006790161, -2.439561367034912, 1.2839645147323608, -3.0742611883821254, -0.15389474503304484, -1.1563628850217762]], "attachments": []}], [{"element": 21, "tag": "place_approach", "path": [[0.994166910648346, -0.849946141242981, 0.9986943602561951, 1.5688357971458078, -0.1258004803522986, 0.4167635217173625], [1.0055454969406128, -0.855633020401001, 1.0169272422790527, 1.6259303895380295, -0.15601710767024612, 0.41901200015135565], [1.0167436599731445, -0.8628347516059875, 1.0348930358886719, 1.683391905937289, -0.1860567452674155, 0.4230226912249643], [1.0277165174484253, -0.8715277910232544, 1.0525060892105103, 1.7413272745070214, -0.21581853129926723, 0.42881711467374223], [1.0384196043014526, -0.881682276725769, 1.069682240486145, 1.7998428976197065, -0.2451992415578003, 0.4364181997508022], [1.0488102436065674, -0.8932621479034424, 1.0863392353057861, 1.8590435948530313, -0.2740941564794108, 0.44585000409781933], [1.0588465929031372, -0.9062256217002869, 1.1023964881896973, 1.9190307165110325, -0.30239487731864984, 0.45713560431984546], [1.068488359451294, -0.9205249547958374, 1.11777663230896, 1.9799026901710808, -0.3299903145400253, 0.47029765063963724], [1.0776969194412231, -0.9361071586608887, 1.1324042081832886, 2.0417509622591874, -0.35676716499003697, 0.48535469753087257], [1.0864354372024536, -0.9529136419296265, 1.1462079286575317, 2.104660695231123, -0.3826078673089281, 0.5023207361214725], [1.094668984413147, -0.9708811044692993, 1.1591191291809082, 2.1687060366039996, -0.4073933138632191, 0.5212019560215927], [1.1023647785186768, -0.9899409413337708, 1.171073079109192, 2.233948429736903, -0.43100099262160874, 0.5419936592347817], [1.1094924211502075, -1.0100207328796387, 1.182008981704712, 2.300435324816845, -0.4533080048399566, 0.5646797653789293], [1.1160234212875366, -1.0310431718826294, 1.1918703317642212, 2.3681951979607625, -0.4741894026089763, 0.589226865890834], [1.1219321489334106, -1.0529271364212036, 1.2006049156188965, 2.4372354720148484, -0.4935215536024091, 0.6155823050154587], [1.1271954774856567, -1.075588345527649, 1.2081654071807861, 2.507540468965514, -0.5111826847661448, 0.6436720780155698], [1.1317927837371826, -1.098939061164856, 1.214509129524231, 2.5790676476607617, -0.5270549984154181, 0.6733973047948643]], "attachments": [{"parent_name": "", "parent_link_name": "link7", "grasp_pose": [[-1.1920928955078125e-07, -0.052565574645996094, 0.37050002813339233], [0.5, 0.5, 0.5, -0.5]], "child_name": "body298"}]}, {"element": 21, "tag": "place_retreat", "path": [[1.1317927837371826, -1.098939061164856, 1.214509129524231, 2.5790676476607617, -0.5270549984154181, 0.6733973047948643], [1.1368227005004883, -1.094329595565796, 1.22182035446167, 2.5790676476607617, -0.5270549984154181, 0.6733973047948643], [1.141852617263794, -1.0897201299667358, 1.2291314601898193, 2.5790676476607617, -0.5270549984154181, 0.6733973047948643], [1.1468825340270996, -1.0851106643676758, 1.2364425659179688, 2.5790676476607617, -0.5270549984154181, 0.6733973047948643], [1.1519124507904053, -1.0805010795593262, 1.2437536716461182, 2.5790676476607617, -0.5270549984154181, 0.6733973047948643], [1.156942367553711, -1.0758916139602661, 1.2510648965835571, 2.5790676476607617, -0.5270549984154181, 0.6733973047948643], [1.161972165107727, -1.071282148361206, 1.2583760023117065, 2.5790676476607617, -0.5270549984154181, 0.6733973047948643], [1.1670020818710327, -1.066672682762146, 1.265687108039856, 2.5790676476607617, -0.5270549984154181, 0.6733973047948643]], "attachments": []}], [{"element": 22, "tag": "place_approach", "path": [[0.9901296496391296, -1.031771183013916, 1.1083189249038696, 3.018448522880958, 0.8741113440074, -1.1791025511117894], [0.9965172410011292, -1.0148968696594238, 1.1021019220352173, 2.9174718240112867, 0.8685435426525647, -1.0990850361441626], [1.0041512250900269, -0.9983782172203064, 1.0949504375457764, 2.8184470240585333, 0.8578581389122537, -1.0210820024507898], [1.0130141973495483, -0.9823160171508789, 1.0868849754333496, 2.722433622789831, 0.8422851650744911, -0.9461937791254608], [1.0230827331542969, -0.9668092131614685, 1.0779296159744263, 2.6302547523060644, 0.8221369668067637, -0.8752852634451392], [1.034328818321228, -0.9519537687301636, 1.068112850189209, 2.542470014409668, 0.7977800406344996, -0.8089578228142508]], "attachments": [{"parent_name": "", "parent_link_name": "link7", "grasp_pose": [[-5.960464477539063e-08, 0.0911487340927124, 0.37050002813339233], [0.5, 0.5, 0.5000000596046448, -0.5000000596046448]], "child_name": "body299"}]}, {"element": 22, "tag": "place_retreat", "path": [[1.034328818321228, -0.9519537687301636, 1.068112850189209, 2.542470014409668, 0.7977800406344996, -0.8089578228142508], [1.0271707773208618, -0.9480159282684326, 1.0738794803619385, 2.542470014409668, 0.7977800406344996, -0.8089578228142508], [1.020012617111206, -0.9440780878067017, 1.079646348953247, 2.542470014409668, 0.7977800406344996, -0.8089578228142508], [1.0128545761108398, -0.9401402473449707, 1.0854129791259766, 2.542470014409668, 0.7977800406344996, -0.8089578228142508], [1.0056965351104736, -0.9362025260925293, 1.0911798477172852, 2.542470014409668, 0.7977800406344996, -0.8089578228142508], [0.9985384941101074, -0.9322646856307983, 1.0969465970993042, 2.542470014409668, 0.7977800406344996, -0.8089578228142508], [0.9913803339004517, -0.9283268451690674, 1.1027133464813232, 2.542470014409668, 0.7977800406344996, -0.8089578228142508], [0.9842222929000854, -0.9243890047073364, 1.1084800958633423, 2.542470014409668, 0.7977800406344996, -0.8089578228142508]], "attachments": []}], [{"element": 16, "tag": "place_approach", "path": [[1.058631181716919, -1.984370470046997, 1.3703930377960205, 3.0973058508589197, -0.5370104507550995, -0.18640493920504236], [1.0124258995056152, -2.019123077392578, 1.376461148262024, -3.108729059919686, -0.44826953314831286, -0.10761109641958308], [0.9639728665351868, -2.050884246826172, 1.377366304397583, -3.042161686681909, -0.3547836782087342, -0.03930325226894028], [0.9139522910118103, -2.0793163776397705, 1.373064398765564, -2.984301762617412, -0.25757714554528244, 0.020417114736231316], [0.8630673289299011, -2.104128122329712, 1.3635852336883545, -2.933591968312733, -0.1574292788782557, 0.0731346192814413], [0.8120330572128296, -2.1250808238983154, 1.3490325212478638, -2.8887690683462495, -0.05493631022381056, 0.12014738725750684], [0.7615671753883362, -2.1419899463653564, 1.3295824527740479, -2.848819563539534, 0.04944306012842906, 0.16251251381023668]], "attachments": [{"parent_name": "", "parent_link_name": "link7", "grasp_pose": [[0.0, -0.26476359367370605, 0.370499849319458], [0.5, 0.5, 0.5000001192092896, -0.5]], "child_name": "body293"}]}, {"element": 16, "tag": "place_retreat", "path": [[0.7615671753883362, -2.1419899463653564, 1.3295824527740479, -2.848819563539534, 0.04944306012842906, 0.16251251381023668], [0.7610729336738586, -2.1448724269866943, 1.339145302772522, -2.848819563539534, 0.04944306012842906, 0.16251251381023668], [0.7605787515640259, -2.1477551460266113, 1.3487080335617065, -2.848819563539534, 0.04944306012842906, 0.16251251381023668], [0.7600845098495483, -2.150637626647949, 1.3582708835601807, -2.848819563539534, 0.04944306012842906, 0.16251251381023668], [0.7595902681350708, -2.153520107269287, 1.3678336143493652, -2.848819563539534, 0.04944306012842906, 0.16251251381023668], [0.7590960264205933, -2.156402587890625, 1.3773963451385498, -2.848819563539534, 0.04944306012842906, 0.16251251381023668], [0.7586018443107605, -2.159285306930542, 1.3869590759277344, -2.848819563539534, 0.04944306012842906, 0.16251251381023668], [0.758107602596283, -2.162168025970459, 1.396521806716919, -2.8488195344035474, 0.04944306608694071, 0.1625125121950963]], "attachments": []}], [{"element": 28, "tag": "place_approach", "path": [[1.7150872945785522, -0.48356083035469055, 1.0065152645111084, 1.8160742028662509, 0.16055454534574176, 0.8988845336117454], [1.7078934907913208, -0.4795418679714203, 1.0478367805480957, 1.9619008003615181, 0.14486647985717233, 0.7779275634714212], [1.7053468227386475, -0.4809069037437439, 1.0912357568740845, 2.10432063534919, 0.1121524446271188, 0.6609078058792309], [1.7077417373657227, -0.48773226141929626, 1.1354507207870483, 2.241459687543353, 0.06357499737967932, 0.5501162990250476], [1.7152212858200073, -0.49992668628692627, 1.1791951656341553, 2.3721756006802566, 0.0006883041927129297, 0.44717375939468046], [1.7277719974517822, -0.5172343254089355, 1.2211971282958984, 2.4960893280392265, -0.07475606862260142, 0.3530358813784258], [1.7452255487442017, -0.5392423868179321, 1.260237693786621, 2.613494756246298, -0.1609747384671022, 0.26813533475353707]], "attachments": [{"parent_name": "", "parent_link_name": "link7", "grasp_pose": [[-1.1920928955078125e-07, 0.2559218406677246, 0.3705000877380371], [0.5, 0.5, 0.5, -0.5000000596046448]], "child_name": "body305"}]}, {"element": 28, "tag": "place_retreat", "path": [[1.7452255487442017, -0.5392423868179321, 1.260237693786621, 2.613494756246298, -0.1609747384671022, 0.26813533475353707], [1.746828317642212, -0.5342686176300049, 1.2687636613845825, 2.613494756246298, -0.1609747384671022, 0.26813533475353707], [1.7484312057495117, -0.5292948484420776, 1.2772897481918335, 2.613494756246298, -0.1609747384671022, 0.26813533475353707], [1.750033974647522, -0.5243210792541504, 1.285815715789795, 2.613494756246298, -0.1609747384671022, 0.26813533475353707], [1.7516367435455322, -0.5193473100662231, 1.2943416833877563, 2.613494756246298, -0.1609747384671022, 0.26813533475353707], [1.7532395124435425, -0.5143735408782959, 1.3028676509857178, 2.613494756246298, -0.1609747384671022, 0.26813533475353707], [1.7548424005508423, -0.5093997716903687, 1.3113937377929688, 2.613494756246298, -0.1609747384671022, 0.26813533475353707], [1.7564451694488525, -0.5044260025024414, 1.3199197053909302, 2.613494757060144, -0.160974745592735, 0.2681353328858372]], "attachments": []}], [{"element": 14, "tag": "place_approach", "path": [[1.454895257949829, -1.953194260597229, 1.443142294883728, 2.9700510754600136, -0.44938648479158005, -0.9148048452395635], [1.4726396799087524, -1.9813324213027954, 1.4641594886779785, 3.0887470482318364, -0.4531422074113643, -0.8221925361733716], [1.4875779151916504, -2.0113794803619385, 1.4826676845550537, -3.0759334217117384, -0.44700310479660993, -0.7297908248529653], [1.4995837211608887, -2.042893886566162, 1.498518943786621, -2.9591611836662253, -0.43113528942446305, -0.6393042693815129], [1.5085692405700684, -2.0754146575927734, 1.5115994215011597, -2.84547636436724, -0.40595090681801227, -0.5522550813629538], [1.5144859552383423, -2.108469009399414, 1.5218321084976196, -2.735924750614182, -0.3720607743331471, -0.46986464380518156], [1.5173256397247314, -2.141575336456299, 1.5291764736175537, -2.631185590453764, -0.3302109235351386, -0.39300192028571457], [1.5171202421188354, -2.174252510070801, 1.5336302518844604, -2.531574895399597, -0.2812179229713342, -0.32219092639494046], [1.5139414072036743, -2.2060248851776123, 1.5352288484573364, -2.4370926526706884, -0.22591341514563273, -0.2576644967787382]], "attachments": [{"parent_name": "", "parent_link_name": "link7", "grasp_pose": [[-5.960464477539063e-08, 0.20358920097351074, 0.3705000877380371], [0.4999999403953552, 0.5000000596046448, 0.4999999403953552, -0.4999999403953552]], "child_name": "body291"}]}, {"element": 14, "tag": "place_retreat", "path": [[1.5139414072036743, -2.2060248851776123, 1.5352288484573364, -2.4370926526706884, -0.22591341514563273, -0.2576644967787382], [1.5159013271331787, -2.2115478515625, 1.5417263507843018, -2.4370926526706884, -0.22591341514563273, -0.2576644967787382], [1.5178613662719727, -2.2170708179473877, 1.5482239723205566, -2.4370926526706884, -0.22591341514563273, -0.2576644967787382], [1.519821286201477, -2.2225937843322754, 1.554721474647522, -2.4370926526706884, -0.22591341514563273, -0.2576644967787382], [1.5217812061309814, -2.228116750717163, 1.5612189769744873, -2.4370926526706884, -0.22591341514563273, -0.2576644967787382], [1.5237412452697754, -2.233639717102051, 1.5677164793014526, -2.4370926526706884, -0.22591341514563273, -0.2576644967787382], [1.5257011651992798, -2.2391626834869385, 1.574213981628418, -2.4370926526706884, -0.22591341514563273, -0.2576644967787382], [1.5276612043380737, -2.244685649871826, 1.5807116031646729, -2.4370926526706884, -0.22591341514563273, -0.2576644967787382], [1.5296211242675781, -2.250208616256714, 1.5872091054916382, -2.4370926526706884, -0.22591341514563273, -0.2576644967787382]], "attachments": []}], [{"element": 19, "tag": "place_approach", "path": [[0.8572495579719543, -1.6139929294586182, 1.2713327407836914, -2.5128138719396595, 0.775042960763601, 0.1890462658097707], [0.8554114103317261, -1.5719208717346191, 1.3190959692001343, -2.694274066714235, 0.7135142087308186, 0.4451045430765512], [0.8651034235954285, -1.52916419506073, 1.3669888973236084, -2.8407606439915356, 0.6220513657601741, 0.6688994232633781], [0.8862082958221436, -1.487227439880371, 1.4132983684539795, -2.951668728640465, 0.5088537937728421, 0.8613513055197967], [0.9181627035140991, -1.447582483291626, 1.456372857093811, -3.0313186123238056, 0.3807809312304484, 1.0285979878403888], [0.9599795937538147, -1.411612629890442, 1.494687795639038, -3.0847254873393237, 0.24300786747702485, 1.1779178352299193], [1.0102871656417847, -1.3805568218231201, 1.5269036293029785, -3.1157655705852463, 0.09939049298554753, 1.31610883481056]], "attachments": [{"parent_name": "", "parent_link_name": "link7", "grasp_pose": [[-2.384185791015625e-07, -0.1322169303894043, 0.370499849319458], [0.5, 0.5, 0.5000000596046448, -0.5]], "child_name": "body296"}]}, {"element": 19, "tag": "place_retreat", "path": [[1.0102871656417847, -1.3805568218231201, 1.5269036293029785, -3.1157655705852463, 0.09939049298554753, 1.31610883481056], [1.0094189643859863, -1.380781650543213, 1.5356075763702393, -3.1157655705852463, 0.09939049298554753, 1.31610883481056], [1.008550763130188, -1.3810064792633057, 1.5443114042282104, -3.1157655705852463, 0.09939049298554753, 1.31610883481056], [1.0076824426651, -1.3812313079833984, 1.5530153512954712, -3.1157655705852463, 0.09939049298554753, 1.31610883481056], [1.0068142414093018, -1.3814561367034912, 1.561719298362732, -3.1157655705852463, 0.09939049298554753, 1.31610883481056], [1.0059460401535034, -1.3816810846328735, 1.5704232454299927, -3.1157655705852463, 0.09939049298554753, 1.31610883481056], [1.0050777196884155, -1.3819059133529663, 1.5791271924972534, -3.1157655705852463, 0.09939049298554753, 1.31610883481056], [1.0042095184326172, -1.382130742073059, 1.5878310203552246, -3.1157655705852463, 0.09939049298554753, 1.31610883481056], [1.0033413171768188, -1.3823555707931519, 1.5965349674224854, -3.1157655660158654, 0.09939048709561583, 1.3161088346595111]], "attachments": []}], [{"element": 13, "tag": "place_approach", "path": [[0.8318482041358948, -2.255279302597046, 1.1805756092071533, -1.5284681294115734, 0.7417380315857549, 0.41234564922762446], [0.8241261839866638, -2.237525224685669, 1.2663531303405762, -1.8820153271101556, 0.7682713250510896, 0.6031537120789278], [0.8298144340515137, -2.199504852294922, 1.3464058637619019, -2.2364939000020954, 0.7448379346221459, 0.7950040759732906], [0.8485891819000244, -2.143770933151245, 1.4146994352340698, -2.5655469403731526, 0.6759325116719432, 0.9579927075969585], [0.8792234659194946, -2.0740978717803955, 1.466011643409729, -2.8578363814632803, 0.5725963700298331, 1.077028896688672]], "attachments": [{"parent_name": "", "parent_link_name": "link7", "grasp_pose": [[0.0, -0.013902723789215088, 0.370499849319458], [-0.5, -0.5, -0.5000000596046448, 0.5]], "child_name": "body290"}]}, {"element": 13, "tag": "place_retreat", "path": [[0.8792234659194946, -2.0740978717803955, 1.466011643409729, -2.8578363814632803, 0.5725963700298331, 1.077028896688672], [0.8744825124740601, -2.0761568546295166, 1.4730719327926636, -2.8578363814632803, 0.5725963700298331, 1.077028896688672], [0.869741678237915, -2.0782158374786377, 1.4801321029663086, -2.8578363814632803, 0.5725963700298331, 1.077028896688672], [0.86500084400177, -2.0802745819091797, 1.4871923923492432, -2.8578363814632803, 0.5725963700298331, 1.077028896688672], [0.8602598905563354, -2.082333564758301, 1.4942526817321777, -2.8578363814632803, 0.5725963700298331, 1.077028896688672], [0.8555189371109009, -2.084392547607422, 1.5013129711151123, -2.8578363814632803, 0.5725963700298331, 1.077028896688672], [0.8507781028747559, -2.086451530456543, 1.5083732604980469, -2.8578363814632803, 0.5725963700298331, 1.077028896688672], [0.8460372686386108, -2.088510513305664, 1.515433430671692, -2.8578363814632803, 0.5725963700298331, 1.077028896688672], [0.8412963151931763, -2.090569496154785, 1.522493600845337, -2.8578363246285607, 0.5725963365532689, 1.0770287438809116]], "attachments": []}], [{"element": 15, "tag": "place_approach", "path": [[1.362661361694336, -1.4729305505752563, 1.5432212352752686, 2.5586492890674206, -0.4196595158710807, -0.681093726502932], [1.3173795938491821, -1.4765057563781738, 1.5679008960723877, 2.594974554984255, -0.3087800033519698, -0.6896020099878369], [1.270702838897705, -1.4833060503005981, 1.5890463590621948, 2.631230404101842, -0.19826136322020135, -0.7019628459945405], [1.2231690883636475, -1.4932622909545898, 1.606431245803833, 2.668278838610761, -0.08825463212353608, -0.7181342151120416], [1.175327181816101, -1.5062614679336548, 1.619881272315979, 2.7069610696313173, 0.02106841965784936, -0.738302323833205], [1.127731204032898, -1.522148609161377, 1.6292767524719238, 2.748172992731715, 0.1295004215318628, -0.7628761713410961], [1.0809314250946045, -1.540728211402893, 1.6345552206039429, 2.7929390510372802, 0.23678133002810484, -0.7925111443323005], [1.0354670286178589, -1.5617674589157104, 1.6357100009918213, 2.8424975582960057, 0.342572088290659, -0.8281588308763441]], "attachments": [{"parent_name": "", "parent_link_name": "link7", "grasp_pose": [[-2.980232238769531e-07, -0.03403019905090332, 0.37049973011016846], [0.5, 0.5, 0.5000001192092896, -0.4999999701976776]], "child_name": "body292"}]}, {"element": 15, "tag": "place_retreat", "path": [[1.0354670286178589, -1.5617674589157104, 1.6357100009918213, 2.8424975582960057, 0.342572088290659, -0.8281588308763441], [1.0325278043746948, -1.5593390464782715, 1.6435856819152832, 2.8424975582960057, 0.342572088290659, -0.8281588308763441], [1.0295885801315308, -1.5569106340408325, 1.6514613628387451, 2.8424975582960057, 0.342572088290659, -0.8281588308763441], [1.0266493558883667, -1.5544822216033936, 1.659337043762207, 2.8424975582960057, 0.342572088290659, -0.8281588308763441], [1.0237101316452026, -1.552053689956665, 1.667212724685669, 2.8424975582960057, 0.342572088290659, -0.8281588308763441], [1.0207709074020386, -1.549625277519226, 1.6750884056091309, 2.8424975582960057, 0.342572088290659, -0.8281588308763441], [1.0178316831588745, -1.547196865081787, 1.6829640865325928, 2.8424975582960057, 0.342572088290659, -0.8281588308763441], [1.0148924589157104, -1.5447684526443481, 1.6908397674560547, 2.8424975582960057, 0.342572088290659, -0.8281588308763441], [1.0119532346725464, -1.5423400402069092, 1.698715329170227, 2.842497575958036, 0.34257204744299236, -0.8281588371187185]], "attachments": []}], [{"element": 18, "tag": "place_approach", "path": [[1.745672583580017, -1.2547543048858643, 1.2092722654342651, 2.2658206946176875, -1.111651680962261, 0.09653332363433216], [1.7423923015594482, -1.2279319763183594, 1.2907211780548096, 2.4498814060381355, -0.9286641897915617, 0.24045784846685073], [1.7230956554412842, -1.207332968711853, 1.3699886798858643, 2.5631174137886314, -0.7368582049753635, 0.31094772381264607], [1.6889852285385132, -1.1938945055007935, 1.4438433647155762, 2.6452588787088733, -0.5414114711885404, 0.3464896857798169], [1.641893982887268, -1.188248872756958, 1.5092849731445312, 2.712705825922454, -0.3443961054569556, 0.3618367284811739], [1.5842069387435913, -1.1906965970993042, 1.5636706352233887, 2.7738458171580813, -0.14689938943461728, 0.3630740759346837]], "attachments": [{"parent_name": "", "parent_link_name": "link7", "grasp_pose": [[0.0, 0.23192763328552246, 0.3704996109008789], [0.5000001192092896, 0.5, 0.5000001192092896, -0.5000001192092896]], "child_name": "body295"}]}, {"element": 18, "tag": "place_retreat", "path": [[1.5842069387435913, -1.1906965970993042, 1.5636706352233887, 2.7738458171580813, -0.14689938943461728, 0.3630740759346837], [1.585487723350525, -1.1875847578048706, 1.5717476606369019, 2.7738458171580813, -0.14689938943461728, 0.3630740759346837], [1.5867685079574585, -1.184472918510437, 1.579824686050415, 2.7738458171580813, -0.14689938943461728, 0.3630740759346837], [1.5880491733551025, -1.1813609600067139, 1.5879017114639282, 2.7738458171580813, -0.14689938943461728, 0.3630740759346837], [1.5893299579620361, -1.1782491207122803, 1.5959787368774414, 2.7738458171580813, -0.14689938943461728, 0.3630740759346837], [1.5906107425689697, -1.1751372814178467, 1.6040558815002441, 2.7738458171580813, -0.14689938943461728, 0.3630740759346837], [1.5918914079666138, -1.1720253229141235, 1.6121329069137573, 2.7738458171580813, -0.14689938943461728, 0.3630740759346837], [1.5931721925735474, -1.16891348361969, 1.6202099323272705, 2.7738458171580813, -0.14689938943461728, 0.3630740759346837], [1.594452977180481, -1.1658016443252563, 1.6282868385314941, 2.7738458231118455, -0.14689939197918805, 0.3630740696794673]], "attachments": []}]], "element_from_index": {"0": {"axis_endpoints": [[1.8389072265625, -2.095234130859375, 0.30599462890625], [1.11820263671875, -2.24521044921875, 0.3336180725097656]], "radius": 0.013000000000000001, "goal_pose": {"index": 0, "value": [[1.478554931640625, -2.1702222900390624, 0.3198063507080078], [-0.6900755130933242, -0.0710403160153165, 0.7164559318641313, -0.07375606704623458]]}}, "1": {"axis_endpoints": [[1.805044921875, -2.1039970703125, 0.33319644165039064], [1.57073193359375, -2.8147944335937503, 0.3051123046875]], "radius": 0.013000000000000001, "goal_pose": {"index": 1, "value": [[1.687888427734375, -2.4593957519531253, 0.31915437316894535], [0.583591008834681, 0.4221025621894172, -0.5621027951479192, 0.4065604617856303]]}}, "2": {"axis_endpoints": [[1.60857080078125, -2.7824306640625, 0.3343873291015625], [1.10480615234375, -2.218115234375, 0.3060015869140625]], "radius": 0.013000000000000001, "goal_pose": {"index": 2, "value": [[1.3566884765625, -2.5002729492187497, 0.3201944580078125], [0.6573470733973386, -0.294353306327732, -0.6331431051194029, -0.283515016515258]]}}, "3": {"axis_endpoints": [[1.5133173828125, -2.37012548828125, 0.9080829467773438], [1.09494775390625, -2.26243359375, 0.2843476257324219]], "radius": 0.013000000000000001, "goal_pose": {"index": 3, "value": [[1.304132568359375, -2.316279541015625, 0.5962152862548828], [0.9469196661459697, -0.1199180224121336, -0.2959029804239703, -0.03747318965580428]]}}, "4": {"axis_endpoints": [[1.50328076171875, -2.34380859375, 0.9059247436523438], [1.84380810546875, -2.1199592285156252, 0.2996186218261719]], "radius": 0.013000000000000001, "goal_pose": {"index": 4, "value": [[1.67354443359375, -2.2318839111328126, 0.6027716827392579], [-0.27422817530973514, 0.9163927197594598, 0.08359417385192715, 0.2793480000575752]]}}, "5": {"axis_endpoints": [[1.53127099609375, -2.3490478515625, 0.9057146606445313], [1.5938530273437501, -2.8227646484375, 0.31393780517578124]], "radius": 0.013000000000000001, "goal_pose": {"index": 5, "value": [[1.5625620117187502, -2.58590625, 0.6098262329101563], [0.6215226991798841, 0.7090313051482698, -0.21960018753140229, 0.25051926145521286]]}}, "6": {"axis_endpoints": [[1.37139453125, -1.71581640625, 0.7104258422851563], [1.795337890625, -2.1778466796875002, 0.35243768310546875]], "radius": 0.013000000000000001, "goal_pose": {"index": 6, "value": [[1.5833662109375, -1.9468315429687502, 0.5314317626953124], [0.34803401785576926, 0.7916877966685182, -0.2020642691506031, 0.45964419517051414]]}}, "7": {"axis_endpoints": [[1.37874609375, -1.71797314453125, 0.742196044921875], [1.0702841796875, -2.26767041015625, 0.29437017822265626]], "radius": 0.013000000000000001, "goal_pose": {"index": 7, "value": [[1.22451513671875, -1.99282177734375, 0.5182831115722656], [0.7668059894056021, 0.448993195613923, -0.39584273728882485, 0.2317805260149858]]}}, "8": {"axis_endpoints": [[1.38996630859375, -1.69096240234375, 0.7197224731445313], [1.57577783203125, -2.459907958984375, 0.805553466796875]], "radius": 0.013000000000000001, "goal_pose": {"index": 8, "value": [[1.4828720703125, -2.0754351806640625, 0.7626379699707031], [0.4130938044853069, 0.5248052871731907, -0.46033837698528884, 0.5848260407381585]]}}, "9": {"axis_endpoints": [[0.86496484375, -2.11630615234375, 0.961863525390625], [1.0900122070312501, -2.2875639648437502, 0.2947868347167969]], "radius": 0.013000000000000001, "goal_pose": {"index": 9, "value": [[0.9774885253906251, -2.20193505859375, 0.628325180053711], [0.3131428289573913, 0.9285918077904478, -0.0636355213996468, 