{"problem": ["SP_arch.json"], "config": [{"bar_only": false, "stiffness": true, "collision": true, "teleops": false, "partial_ordering": false, "chosen_bars": null}], "write_time": ["2020-12-26 21:05:39.264518"], "parameters": [{"trans_tol": 0.01, "rot_tol": Infinity, "joint_resolution": [0.05, 0.05395, 0.036250000000000004, 0.061244999999999994, 0.045865, 0.18770499999999998, 0.06565], "joint_weight": [10.0, 0.38197097020626436, 0.38197097020626436, 0.38197097020626436, 0.15915457091927682, 0.15915457091927682, 0.12732365673542145], "joint_jump_threshold": 1.0471975511965976, "enable_self_collisions": true, "pos_step_size": 0.01, "ori_step_size": 0.17453292519943295, "retreat_distance": 0.07}], "plan": [[{"element": 36, "tag": "place_approach", "path": [[1.6090904391709189, -0.25956022607491036, 0.3862509860715088, 0.5617753219389545, 2.447851243868227, -0.5664040103186179, -1.9898002706878348], [1.6090904391709189, -0.2809922869788232, 0.41104636483736184, 0.5139302949491417, 2.6027417146481406, -0.6051373714375651, -2.0121874962170603], [1.6090904391709189, -0.3060047438605908, 0.4357180183906569, 0.4688164603320988, 2.744965274807221, -0.64520312054739, -2.023153260182335], [1.6090904391709189, -0.3333530289988849, 0.45998970409000384, 0.42812014858281267, 2.8740792607194345, -0.6840908395708334, -2.0209757686792686], [1.6090904391709189, -0.36249092699362245, 0.48346925514466416, 0.39244728278927565, 2.9934765913836565, -0.7205270322216567, -2.0086758668434705], [1.6090904391709189, -0.39297411417389994, 0.5058334222874461, 0.36232759170131373, 3.1060423599824007, -0.7535456750843158, -1.9889656268109932]], "attachments": [{"parent_name": "ECL_robot1_with_track", "parent_link_name": "eef_tcp_frame", "grasp_pose": [[1.9073486328125e-06, -0.11678016185760498, -4.172325134277344e-07], [0.5000011920928955, -0.5000004768371582, 0.4999987781047821, 0.499999463558197]], "child_name": "body275"}], "link_path": {"eef_tcp_frame": [[[1.453953742980957, -2.1746509075164795, 0.11088860780000687], [0.39532631635665894, 0.898192286491394, -0.16037242114543915, 0.1060589849948883]], [[1.4678187370300293, -2.1863396167755127, 0.10852846503257751], [0.4603572487831116, 0.8737272024154663, -0.13397106528282166, 0.08199853450059891]], [[1.4802415370941162, -2.1998989582061768, 0.10586697608232498], [0.5224788784980774, 0.8440841436386108, -0.10628362745046616, 0.056934863328933716]], [[1.4907457828521729, -2.2146658897399902, 0.10211141407489777], [0.5814175605773926, 0.8092355728149414, -0.07804130017757416, 0.03163805976510048]], [[1.4992161989212036, -2.230308771133423, 0.09726142883300781], [0.6368129253387451, 0.7694099545478821, -0.049388520419597626, 0.006206657271832228]], [[1.5055766105651855, -2.246514081954956, 0.09130824357271194], [0.688307523727417, 0.7248754501342773, -0.020426981151103973, -0.019266195595264435]]]}}, {"element": 36, "tag": "place_retreat", "path": [[1.6090904391709189, -0.39300006890533856, 0.5058420519511555, 0.3623097013406072, 3.106122334990649, -0.7535647231920036, -1.98907229299957], [1.6090904391709189, -0.3929242217072541, 0.5006859528689706, 0.3611936894486473, 3.1065201825916295, -0.7598059611024056, -1.9894811105873023], [1.6090904391709189, -0.3928016694719015, 0.49558931207828855, 0.35998705165283296, 3.1067735661899905, -0.7661069883642369, -1.989697930279911], [1.6090904391709189, -0.39267523769301965, 0.49053532268817707, 0.3587240598920805, 3.10701104159613, -0.7724225273610685, -1.989895224529817], [1.6090904391709189, -0.3925485384580929, 0.4855236800344384, 0.3574055947360983, 3.1072435477298628, -0.7787512509781117, -1.9900876400227114], [1.6090904391709189, -0.39242187239472365, 0.48055468555732556, 0.35603170039926946, 3.1074720493066783, -0.7850927964987606, -1.9902764490765354], [1.6090904391709189, -0.39229526413544885, 0.4756286473854731, 0.35460242306608786, 3.10769668386989, -0.791446808830356, -1.990461813339069], [1.6090904391709189, -0.3921687158277867, 0.4707458677077872, 0.3531178126217666, 3.107917521120658, -0.7978129349700641, -1.990643803574914], [1.6090904391709189, -0.3920422278293724, 0.4659066429720766, 0.3515779204339501, 3.1081346243865213, -0.8041908261783902, -1.9908224824048544]], "attachments": [], "link_path": {"eef_tcp_frame": [[[1.5055803060531616, -2.2465319633483887, 0.09131213277578354], [0.6883001327514648, 0.7248826622962952, -0.02040298841893673, -0.01928190141916275]], [[1.506040096282959, -2.2465264797210693, 0.10003925859928131], [0.6882860064506531, 0.7248974442481995, -0.02034701220691204, -0.019289836287498474]], [[1.5065280199050903, -2.2465031147003174, 0.1087753027677536], [0.688284695148468, 0.7248987555503845, -0.020342279225587845, -0.019291166216135025]], [[1.5070174932479858, -2.2464776039123535, 0.1175113096833229], [0.6882845163345337, 0.7248989343643188, -0.020341580733656883, -0.019291169941425323]], [[1.5075069665908813, -2.2464520931243896, 0.12624730169773102], [0.6882845163345337, 0.7248989939689636, -0.02034122124314308, -0.019291043281555176]], [[1.5079965591430664, -2.246426582336426, 0.13498327136039734], [0.6882843971252441, 0.7248990535736084, -0.02034088969230652, -0.019290896132588387]], [[1.508486032485962, -2.246401071548462, 0.14371924102306366], [0.6882843971252441, 0.7248991131782532, -0.0203405749052763, -0.019290747120976448]], [[1.5089755058288574, -2.246375560760498, 0.15245521068572998], [0.6882843375205994, 0.724899172782898, -0.020340265706181526, -0.019290592521429062]], [[1.509464979171753, -2.246350049972534, 0.1611911803483963], [0.6882843375205994, 0.724899172782898, -0.02033996395766735, -0.019290432333946228]]]}}], [{"element": 1, "tag": "place_approach", "path": [[1.797619541294088, 0.7145543084225597, 0.7613067002566056, -0.07705319130901543, 3.1813884165602206, -2.0588018683998226, 0.267177474615272], [1.797619541294088, 0.7070730460666368, 0.6526808428705716, 0.023540865721357072, 3.2298563401438387, -1.8794884422361031, 0.3978513869821398], [1.797619541294088, 0.708265509416594, 0.5399701245228278, 0.13545858274468822, 3.258511344575767, -1.6875432867299318, 0.5196207018363721], [1.797619541294088, 0.7196627729376768, 0.42778616710667466, 0.2538691368874459, 3.2691781462926777, -1.485770146468628, 0.642620681808934], [1.797619541294088, 0.742976621988949, 0.32139142176172786, 0.37415511817615144, 3.2588099981885943, -1.276443073871802, 0.7782065862159572], [1.797619541294088, 0.7797840063864416, 0.2271957984127233, 0.4916351027882926, 3.2172700955921782, -1.0625704015140296, 0.9424139477409094], [1.797619541294088, 0.8309090216331464, 0.15315652344797867, 0.60131832461466, 3.1213835686184424, -0.8506234007156888, 1.1628632196222788]], "attachments": [{"parent_name": "ECL_robot1_with_track", "parent_link_name": "eef_tcp_frame", "grasp_pose": [[-1.9073486328125e-06, -0.26323267817497253, 7.748603820800781e-07], [0.4999989867210388, -0.4999995231628418, 0.5000011920928955, 0.5000005960464478]], "child_name": "body240"}], "link_path": {"eef_tcp_frame": [[[1.1669446229934692, -0.7618038058280945, 0.42403915524482727], [0.8125938773155212, 0.18286281824111938, -0.49707937240600586, 0.2432374805212021]], [[1.1286475658416748, -0.7774049639701843, 0.4279307425022125], [0.8710480332374573, 0.12759868800640106, -0.4248415231704712, 0.2109588086605072]], [[1.087149739265442, -0.7893446087837219, 0.42378777265548706], [0.9184176921844482, 0.07070492208003998, -0.34718549251556396, 0.1759887933731079]], [[1.044478416442871, -0.7969446182250977, 0.41140738129615784], [0.9540942311286926, 0.012910636141896248, -0.2651025950908661, 0.13877363502979279]], [[1.002708911895752, -0.7997472882270813, 0.39100995659828186], [0.9776198863983154, -0.04504837840795517, -0.1796436756849289, 0.09979070723056793]], [[0.9638742804527283, -0.7975521087646484, 0.36322441697120667], [0.988694429397583, -0.10242564231157303, -0.09191436320543289, 0.05953262373805046]], [[0.929806113243103, -0.7904706001281738, 0.3290315866470337], [0.9871839880943298, -0.15848350524902344, -0.0030388624873012304, 0.01847800984978676]]]}}, {"element": 1, "tag": "place_retreat", "path": [[1.797619541294088, 0.8309401002286967, 0.15315402408375947, 0.6013236502756383, 3.121322415457249, -0.85061788687022, 1.162955807362576], [1.797619541294088, 0.8311033884315634, 0.1482330128548021, 0.5987120157714783, 3.121327581621843, -0.8580994031822207, 1.1630461257526352], [1.797619541294088, 0.8312046217661907, 0.14340290329218597, 0.5959779886535013, 3.121454096168137, -0.8656623238846242, 1.1629521054922596], [1.797619541294088, 0.8313013573622209, 0.13863698773063476, 0.5931853926211846, 3.1215863189883013, -0.8732205949373267, 1.1628476721990912], [1.797619541294088, 0.8313977503804558, 0.1339346014363637, 0.5903359657686932, 3.1217161963148667, -0.8807722003291985, 1.1627450823122398], [1.797619541294088, 0.8314940887449593, 0.12929585837758073, 0.5874299620042964, 3.121843243493239, -0.8883167531511779, 1.1626451122879031], [1.797619541294088, 0.8315903915277417, 0.12472087582551498, 0.5844675973593852, 3.121967491965787, -0.8958539191773659, 1.162547750542132], [1.797619541294088, 0.8316866596821189, 0.12020975804274776, 0.581449086998794, 3.1220890056526898, -0.9033833784380441, 1.16245293459693], [1.797619541294088, 0.8317828934749425, 0.11576259679262589, 0.5783746456351353, 3.1222078474901247, -0.9109048253644659, 1.1623605829384278]], "attachments": [], "link_path": {"eef_tcp_frame": [[[0.9297898411750793, -0.7904596924781799, 0.3290293514728546], [0.9871823191642761, -0.1584935337305069, -0.003018003888428211, 0.01848933845758438]], [[0.9298399686813354, -0.7901444435119629, 0.33773788809776306], [0.9871789216995239, -0.1585150510072708, -0.002960619982331991, 0.018494857475161552]], [[0.9299396872520447, -0.789831817150116, 0.34648117423057556], [0.9871786236763, -0.158516526222229, -0.0029573587235063314, 0.01849621906876564]], [[0.930042028427124, -0.7895204424858093, 0.3552250564098358], [0.9871786236763, -0.15851658582687378, -0.0029572336934506893, 0.018496206030249596]], [[0.9301444888114929, -0.7892091870307922, 0.36396893858909607], [0.9871786236763, -0.1585165411233902, -0.002957303076982498, 0.0184960775077343]], [[0.9302470088005066, -0.7888979315757751, 0.37271279096603394], [0.9871786832809448, -0.1585165113210678, -0.002957379212602973, 0.018495945259928703]], [[0.9303495287895203, -0.7885866761207581, 0.3814566731452942], [0.9871786236763, -0.15851642191410065, -0.0029574460349977016, 0.01849580556154251]], [[0.9304519891738892, -0.7882754802703857, 0.39020049571990967], [0.9871786236763, -0.15851637721061707, -0.0029575072694569826, 0.018495671451091766]], [[0.9305545091629028, -0.7879642248153687, 0.39894434809684753], [0.9871786832809448, -0.15851634740829468, -0.0029575612861663103, 0.01849554106593132]]]}}], [{"element": 0, "tag": "place_approach", "path": [[1.460747902204703, 0.5228773749086116, 0.10484716046761046, 0.6280803283268158, -0.24618105369821905, 0.6559948350786928, 1.4776834561603662], [1.460747902204703, 0.5161002097730025, 0.11940827474627916, 0.6155529328453795, -0.21063610009331943, 0.6817016160889156, 1.5420593958829765], [1.460747902204703, 0.5083813643026561, 0.13322750191867824, 0.6044923478969388, -0.1739249681174424, 0.7052999016161904, 1.605262044468461], [1.460747902204703, 0.499662004387925, 0.14622439229751472, 0.5949658625959041, -0.13571868147207972, 0.7267960286115238, 1.66684972230645], [1.460747902204703, 0.4900669470700106, 0.15833452078013183, 0.5871060866516519, -0.09618705992600492, 0.7461326506057611, 1.727036097935888], [1.460747902204703, 0.4797542856357283, 0.16950888634400837, 0.5810236312832332, -0.05553222160725181, 0.763265056740825, 1.7860919438118739], [1.460747902204703, 0.4687894394606984, 0.17969625938565534, 0.5768191262149799, -0.01370223690092812, 0.7781432255257966, 1.8439386114531433]], "attachments": [{"parent_name": "ECL_robot1_with_track", "parent_link_name": "eef_tcp_frame", "grasp_pose": [[9.5367431640625e-07, -0.06083846092224121, 8.940696716308594e-08], [0.5000011324882507, 0.5000006556510925, 0.4999990463256836, -0.49999910593032837]], "child_name": "body239"}], "link_path": {"eef_tcp_frame": [[[1.2928942441940308, -0.8022635579109192, 0.3734385371208191], [0.37409159541130066, 0.9192235469818115, 0.030816981568932533, 0.11888597905635834]], [[1.2922883033752441, -0.8040781617164612, 0.36546534299850464], [0.42013847827911377, 0.9013255834579468, 0.028325187042355537, 0.10145736485719681]], [[1.291131615638733, -0.8061990141868591, 0.3572007417678833], [0.465075820684433, 0.8809128403663635, 0.02570163644850254, 0.08388359099626541]], [[1.2894573211669922, -0.8086557388305664, 0.3487183749675751], [0.5087328553199768, 0.8580765128135681, 0.02300889417529106, 0.06607721000909805]], [[1.2872298955917358, -0.8113933801651001, 0.3400292694568634], [0.5509880781173706, 0.832880437374115, 0.020255466923117638, 0.04808470979332924]], [[1.284412145614624, -0.8143331408500671, 0.33114585280418396], [0.5917338132858276, 0.8053871393203735, 0.017437081784009933, 0.02997704967856407]], [[1.2809919118881226, -0.8174471259117126, 0.3220851421356201], [0.630842924118042, 0.7756842970848083, 0.014582919888198376, 0.011764481663703918]]]}}, {"element": 0, "tag": "place_retreat", "path": [[1.460747902204703, 0.46881640754420734, 0.1797000329219942, 0.5768133556638514, -0.013764369851510243, 0.7781498952663254, 1.8440267971702229], [1.460747902204703, 0.46894295876607694, 0.17432385148582152, 0.5748586591609527, -0.01381880772226658, 0.7854399634794281, 1.844162536963973], [1.460747902204703, 0.4690100199146536, 0.1690215049444241, 0.5727968003546038, -0.013736116211277632, 0.7928030925155117, 1.844103475675783], [1.460747902204703, 0.46907102608295764, 0.16377698172260832, 0.570675529845163, -0.013641635081601646, 0.8001686341150517, 1.8440266246714105], [1.460747902204703, 0.46913146468183975, 0.1585899368911614, 0.5684963074619968, -0.013547907541036157, 0.8075346708052406, 1.84394982633025], [1.460747902204703, 0.4691918794367366, 0.15346063685066963, 0.5662593384026692, -0.013456114954469444, 0.8149007142268274, 1.8438747873801014], [1.460747902204703, 0.4692523224747122, 0.1483893493934011, 0.5639647913682815, -0.013366326305673833, 0.8222663273243465, 1.8438016277013234], [1.460747902204703, 0.46931279843492224, 0.14337632968299552, 0.5616128353088548, -0.013278505733130545, 0.8296310856420273, 1.843730316478133], [1.460747902204703, 0.4693733068677528, 0.13842182048555582, 0.5592036404325221, -0.013192609364684473, 0.8369945769213488, 1.8436609010570144]], "attachments": [], "link_path": {"eef_tcp_frame": [[[1.2809875011444092, -0.8174307346343994, 0.3220866322517395], [0.6308497786521912, 0.7756786346435547, 0.014572505839169025, 0.01178304199129343]], [[1.2806280851364136, -0.8174716234207153, 0.3308010995388031], [0.630866289138794, 0.7756643891334534, 0.01457072701305151, 0.0118393674492836]], [[1.2803040742874146, -0.8175353407859802, 0.3395443856716156], [0.6308680176734924, 0.7756630182266235, 0.0145691754296422, 0.011844303458929062]], [[1.279982328414917, -0.8176020979881287, 0.3482881784439087], [0.6308680772781372, 0.775662899017334, 0.014569108374416828, 0.011844679713249207]], [[1.2796608209609985, -0.817669153213501, 0.35703200101852417], [0.6308680772781372, 0.775662899017334, 0.014569217339158058, 0.011844632215797901]], [[1.27933931350708, -0.8177362084388733, 0.36577582359313965], [0.6308680772781372, 0.7756629586219788, 0.01456934493035078, 0.01184454932808876]], [[1.2790178060531616, -0.8178032636642456, 0.3745196461677551], [0.6308680176734924, 0.7756629586219788, 0.014569470658898354, 0.011844470165669918]], [[1.2786962985992432, -0.8178703784942627, 0.3832634389400482], [0.6308680176734924, 0.7756630182266235, 0.01456959918141365, 0.011844397522509098]], [[1.2783747911453247, -0.8179374933242798, 0.3920072317123413], [0.6308680176734924, 0.7756630182266235, 0.014569725841283798, 0.011844329535961151]]]}}], [{"element": 2, "tag": "place_approach", "path": [[0.3097641561968934, -0.349859293243751, 0.04420826811938936, 0.8282772924576498, 0.9592702346916929, 0.5250554503070838, -1.2568416392027577], [0.3097641561968934, -0.30777049469703394, 0.09259840634163209, 0.7250015706036872, 0.5635140599354574, 0.6135534789225974, -1.0656600086143158], [0.3097641561968934, -0.2535328147438735, 0.14873806911952092, 0.6298774524965838, 0.2661685033990849, 0.7266021083157127, -0.9712142259171589], [0.3097641561968934, -0.1918316219173302, 0.2083265379615416, 0.5476667488557185, 0.030523807833945944, 0.8449175355102287, -0.9412601369603659]], "attachments": [{"parent_name": "ECL_robot1_with_track", "parent_link_name": "eef_tcp_frame", "grasp_pose": [[-3.933906555175781e-06, 0.09595215320587158, 2.682209014892578e-07], [-0.5000002980232239, 0.5000012516975403, -0.4999997615814209, -0.49999871850013733]], "child_name": "body241"}], "link_path": {"eef_tcp_frame": [[[1.334060788154602, -0.5756864547729492, 0.299392968416214], [-0.04760943725705147, 0.9600123763084412, 0.128724604845047, 0.2440074235200882]], [[1.358864665031433, -0.5785784721374512, 0.3080032169818878], [-0.1541718989610672, 0.9700091481208801, 0.09326598048210144, 0.16314047574996948]], [[1.3836177587509155, -0.5770237445831299, 0.31387951970100403], [-0.25778907537460327, 0.9613231420516968, 0.05606558918952942, 0.07911501079797745]], [[1.4071511030197144, -0.5713071227073669, 0.31658872961997986], [-0.3563361167907715, 0.9341689944267273, 0.017571426928043365, -0.006643849890679121]]]}}, {"element": 2, "tag": "place_retreat", "path": [[0.3097641561968934, -0.19180706600557393, 0.2083296827449445, 0.5476599176556334, 0.030471546813606063, 0.8449246874601686, -0.9411830680888325], [0.3097641561968934, -0.1919197229590042, 0.2028017284024872, 0.544856477293016, 0.030151987659885162, 0.8532045593443578, -0.9408635411714318], [0.3097641561968934, -0.19207332835731644, 0.19737948593131108, 0.5419181075166053, 0.029921558918772916, 0.8615634975468682, -0.9406740539908091], [0.3097641561968934, -0.19222963398039, 0.19203484146366465, 0.5389047617878509, 0.0297022214308124, 0.869920928181131, -0.9404980322523268], [0.3097641561968934, -0.19238607293263127, 0.1867671750577712, 0.5358180247908052, 0.02948851632959022, 0.8782748422140096, -0.9403274268012499], [0.3097641561968934, -0.19254247327303656, 0.18157671406014403, 0.5326581767385264, 0.029279956894078526, 0.8866247069669353, -0.9401615784534078], [0.3097641561968934, -0.19269882317656686, 0.17646368570160714, 0.5294254767904756, 0.029076391019744973, 0.8949700338944302, -0.9400003241073124], [0.3097641561968934, -0.19285512095715104, 0.17142829986714309, 0.5261201830245329, 0.028877691889022675, 0.9033103572706723, -0.9398435911382574]], "attachments": [], "link_path": {"eef_tcp_frame": [[[1.4071576595306396, -0.5712926387786865, 0.3165914714336395], [-0.35632821917533875, 0.9341721534729004, 0.017555804923176765, -0.006656525656580925]], [[1.4073810577392578, -0.5715383887290955, 0.3265560567378998], [-0.3563140630722046, 0.9341784119606018, 0.017512843012809753, -0.006654746364802122]], [[1.4076297283172607, -0.5718158483505249, 0.3365485966205597], [-0.35631296038627625, 0.9341788291931152, 0.017510274425148964, -0.006655655335634947]], [[1.4078789949417114, -0.5720952153205872, 0.34654146432876587], [-0.3563128113746643, 0.93417888879776, 0.017509834840893745, -0.006655762903392315]], [[1.408128261566162, -0.5723746418952942, 0.35653433203697205], [-0.3563127815723419, 0.9341789484024048, 0.01750953495502472, -0.006655786652117968]], [[1.4083774089813232, -0.572654128074646, 0.36652714014053345], [-0.35631266236305237, 0.9341790080070496, 0.017509251832962036, -0.006655792705714703]], [[1.408626675605774, -0.5729336142539978, 0.37651997804641724], [-0.3563125729560852, 0.9341790080070496, 0.01750897616147995, -0.006655787583440542]], [[1.408875823020935, -0.5732131004333496, 0.38651278614997864], [-0.3563125431537628, 0.9341790676116943, 0.01750871352851391, -0.006655773613601923]]]}}], [{"element": 37, "tag": "place_approach", "path": [[2.043249410739473, -0.168417785412916, 0.603859821346469, -0.01036698595550683, -0.052858486733157906, 0.9246811148989439, -1.8906787448765061], [2.043249410739473, -0.12463580563548579, 0.644723396772673, -0.04626477390376495, -0.17350784656761725, 1.0315221070187948, -1.9328420645427105], [2.043249410739473, -0.08221496976495538, 0.679932536774248, -0.0637355187263551, -0.2889335894633439, 1.1250027235968996, -1.9870007914359131], [2.043249410739473, -0.041972702234848634, 0.7079971236966369, -0.061539492284181006, -0.4033994531065512, 1.2040498387115401, -2.0485446295553085], [2.043249410739473, -0.00464593037158479, 0.7280917339068573, -0.03967609125735047, -0.519486237546711, 1.268762079562846, -2.114098869615665], [2.043249410739473, 0.02904464381267701, 0.7400756190649559, 0.0005436669817205996, -0.6387236261702188, 1.320336949371682, -2.181277909089869], [2.043249410739473, 0.05836819004408541, 0.7439328705692791, 0.05745386189684538, -0.76231430428304, 1.36029822857347, -2.24825130468837]], "attachments": [{"parent_name": "ECL_robot1_with_track", "parent_link_name": "eef_tcp_frame", "grasp_pose": [[4.291534423828125e-06, 0.2322060465812683, 7.748603820800781e-07], [-0.49999988079071045, -0.49999886751174927, -0.5000001788139343, 0.5000012516975403]], "child_name": "body276"}], "link_path": {"eef_tcp_frame": [[[1.9436829090118408, -2.3953604698181152, 0.32627129554748535], [0.7680541276931763, -0.6394822597503662, 0.03363781049847603, 0.004877118859440088]], [[1.9310705661773682, -2.360651969909668, 0.29950445890426636], [0.8114364743232727, -0.5791150331497192, 0.012424401007592678, 0.07773193717002869]], [[1.9098858833312988, -2.331019878387451, 0.27199438214302063], [0.8456589579582214, -0.512212336063385, -0.008960064500570297, 0.14973020553588867]], [[1.880881428718567, -2.3076395988464355, 0.24529683589935303], [0.8703352808952332, -0.43952709436416626, -0.030249450355768204, 0.22003959119319916]], [[1.8452153205871582, -2.2914106845855713, 0.22094736993312836], [0.8851866126060486, -0.36188018321990967, -0.0511980764567852, 0.2878648340702057]], [[1.8044531345367432, -2.282907724380493, 0.20039309561252594], [0.8900410532951355, -0.28015026450157166, -0.07161232829093933, 0.35244062542915344]], [[1.7600951194763184, -2.2823705673217773, 0.18486055731773376], [0.8848503232002258, -0.1952592432498932, -0.09116912633180618, 0.4130398631095886]]]}}, {"element": 37, "tag": "place_retreat", "path": [[2.043249410739473, 0.058368723355884736, 0.7439109741651233, 0.05749157193689326, -0.7623262268695725, 1.3602718302379484, -2.248232922756375], [2.043249410739473, 0.06143361510825551, 0.7429552005600358, 0.0535935422992478, -0.7597905599350152, 1.3651984683858798, -2.2500435885729506], [2.043249410739473, 0.06448612294933265, 0.742128036456309, 0.049491395742304926, -0.7572358794685751, 1.3702464437466089, -2.251919077418659], [2.043249410739473, 0.06752846541876396, 0.7413444728801359, 0.04533215209034723, -0.7547090952973567, 1.3753126015570263, -2.253786924231548], [2.043249410739473, 0.07056068353328362, 0.7406028379929922, 0.04111878596265591, -0.7522110986841278, 1.3803946401887826, -2.2556458301303928], [2.043249410739473, 0.07358277329213042, 0.7399032311246089, 0.03685121477907119, -0.7497418279879594, 1.3854923966970067, -2.2574959861324624], [2.043249410739473, 0.07659473049979479, 0.7392457901092905, 0.03252928426089992, -0.747301202064585, 1.3906057590552527, -2.2593376191821744], [2.043249410739473, 0.0795965517027286, 0.738630654538426, 0.02815283167979412, -0.7448891398701554, 1.3957346219309235, -2.2611709615871547], [2.043249410739473, 0.08258823617147037, 0.7380579620199806, 0.023721693299006072, -0.7425055716053873, 1.4008788786631996, -2.2629962715161778]], "attachments": [], "link_path": {"eef_tcp_frame": [[[1.7600735425949097, -2.2823731899261475, 0.18485857546329498], [0.8848518133163452, -0.19525814056396484, -0.09116000682115555, 0.41303926706314087]], [[1.7628079652786255, -2.2762997150421143, 0.1904691904783249], [0.8848578333854675, -0.19525371491909027, -0.09112247079610825, 0.41303667426109314]], [[1.7656280994415283, -2.2702157497406006, 0.1960880309343338], [0.8848580718040466, -0.19525355100631714, -0.09112151712179184, 0.4130364656448364]], [[1.768450140953064, -2.264131546020508, 0.20170703530311584], [0.8848581314086914, -0.19525352120399475, -0.09112133830785751, 0.41303640604019165]], [[1.77127206325531, -2.258047342300415, 0.2073260396718979], [0.884858250617981, -0.19525347650051117, -0.09112115949392319, 0.4130363166332245]], [[1.7740941047668457, -2.2519631385803223, 0.21294504404067993], [0.8848583102226257, -0.1952534168958664, -0.09112097322940826, 0.41303613781929016]], [[1.7769160270690918, -2.2458789348602295, 0.21856403350830078], [0.8848583698272705, -0.19525335729122162, -0.09112076461315155, 0.4130360186100006]], [[1.7797378301620483, -2.2397947311401367, 0.22418302297592163], [0.8848584890365601, -0.19525332748889923, -0.09112057089805603, 0.41303592920303345]], [[1.7825597524642944, -2.233710527420044, 0.2298019975423813], [0.8848586082458496, -0.19525323808193207, -0.09112036228179932, 0.4130358099937439]]]}}], [{"element": 35, "tag": "place_approach", "path": [[0.7202978680751456, -1.1378343369600228, 1.076867542454583, -0.5945159596679842, 1.3240608475729005, 1.3488299026258983, 0.8778229128036067], [0.7202978680751456, -1.131356501758295, 1.0500302693232533, -0.5793628766250759, 1.2689794112417465, 1.311014780376225, 0.8592514130447437], [0.7202978680751456, -1.1237137954164365, 1.0227107175386883, -0.562391616167371, 1.2141780328171698, 1.2714286440514628, 0.8420002336651798], [0.7202978680751456, -1.1149324029042764, 0.9952573648467026, -0.5440589177140989, 1.1594261640440795, 1.2302026642793191, 0.8264145223183696], [0.7202978680751456, -1.1050370562638874, 0.9678271982278865, -0.5244900456959561, 1.1045057788827286, 1.1873743193423862, 0.8127262586874294], [0.7202978680751456, -1.0940572021182506, 0.9405737388782418, -0.5038036423307132, 1.0491568752441005, 1.143001208395229, 0.8011975996538323], [0.7202978680751456, -1.082027644282703, 0.9136523824620537, -0.48212121118345386, 0.9930665104986902, 1.0971665550333054, 0.7921344884843613], [0.7202978680751456, -1.0689892567563166, 0.8872168158488708, -0.4595617439327315, 0.935858541308712, 1.0499803065271314, 0.7858950247794934], [0.7202978680751456, -1.0549898196345822, 0.8614203028499781, -0.4362440750513695, 0.8770800056443443, 1.0015840761002626, 0.782904781598208], [0.7202978680751456, -1.040083988592812, 0.8364309157608995, -0.41231881930320063, 0.8161643694914379, 0.9521766076153032, 0.7836985762742745], [0.7202978680751456, -1.0243356423587806, 0.8123900294318563, -0.387885739626489, 0.7524557110603466, 0.9019749144112554, 0.7888825309660358], [0.7202978680751456, -1.0078254399206645, 0.7894107182563205, -0.3629835461206686, 0.6852205712385491, 0.8512141293699936, 0.7991207142428262], [0.7202978680751456, -0.9906649037368225, 0.7676187202996931, -0.3376602882193536, 0.6136470585456612, 0.8002062020200865, 0.8151400174333411], [0.7202978680751456, -0.9728269845070928, 0.7471545504604177, -0.3121826166950752, 0.5359094224441948, 0.7494118421250265, 0.83880842749166], [0.7202978680751456, -0.9545255026969903, 0.7282501612889116, -0.2867106016498657, 0.45104762938246606, 0.6994993626998757, 0.8709262266281812], [0.7202978680751456, -0.9358664848067989, 0.7109404781630208, -0.2612042780881963, 0.3574047668683892, 0.6510395653462518, 0.9130694682354502]], "attachments": [{"parent_name": "ECL_robot1_with_track", "parent_link_name": "eef_tcp_frame", "grasp_pose": [[-4.172325134277344e-06, -0.24610161781311035, 5.960464477539062e-07], [0.49999871850013733, -0.4999998211860657, 0.5000014305114746, 0.5000000596046448]], "child_name": "body274"}], "link_path": {"eef_tcp_frame": [[[1.4363811016082764, -2.688258171081543, 0.42127013206481934], [0.7745458483695984, 0.23807142674922943, 0.585394561290741, -0.026719827204942703]], [[1.437595009803772, -2.681964635848999, 0.43108975887298584], [0.7871261835098267, 0.2582709789276123, 0.560044527053833, -0.008870543912053108]], [[1.4391367435455322, -2.6749415397644043, 0.4404136836528778], [0.7985151410102844, 0.2780548930168152, 0.5338329672813416, 0.009025491774082184]], [[1.4410265684127808, -2.6673383712768555, 0.44917961955070496], [0.8086836338043213, 0.2974134087562561, 0.5068056583404541, 0.026909107342362404]], [[1.4432367086410522, -2.659193992614746, 0.457336962223053], [0.8176160454750061, 0.31631720066070557, 0.47900381684303284, 0.044752199202775955]], [[1.4457359313964844, -2.6505465507507324, 0.46483874320983887], [0.8252987861633301, 0.3347374498844147, 0.45046985149383545, 0.06252754479646683]], [[1.4484915733337402, -2.6414384841918945, 0.47164180874824524], [0.8317199349403381, 0.3526460528373718, 0.4212475121021271, 0.08020787686109543]], [[1.4514689445495605, -2.6319141387939453, 0.4777073562145233], [0.8368695378303528, 0.3700157105922699, 0.39138150215148926, 0.09776631742715836]], [[1.45463228225708, -2.622021198272705, 0.4830009937286377], [0.8407396674156189, 0.3868199288845062, 0.3609175980091095, 0.11517616361379623]], [[1.457951307296753, -2.6118204593658447, 0.48749715089797974], [0.8433256149291992, 0.4030340015888214, 0.3299005925655365, 0.13240517675876617]], [[1.461385726928711, -2.6013588905334473, 0.49116918444633484], [0.8446222543716431, 0.41863295435905457, 0.29837989807128906, 0.1494293212890625]], [[1.4648762941360474, -2.590670585632324, 0.49398308992385864], [0.8446193337440491, 0.4335953891277313, 0.2664181888103485, 0.16623689234256744]], [[1.4683513641357422, -2.5798091888427734, 0.4958993196487427], [0.8432953953742981, 0.44791221618652344, 0.2341049462556839, 0.18281783163547516]], [[1.4718691110610962, -2.568800210952759, 0.4970007836818695], [0.8407349586486816, 0.46150660514831543, 0.2013343870639801, 0.1990998238325119]], [[1.4753409624099731, -2.5578036308288574, 0.4972188472747803], [0.8368672132492065, 0.474418967962265, 0.168302983045578, 0.21506744623184204]], [[1.4786932468414307, -2.5468192100524902, 0.4965493977069855], [0.831700325012207, 0.48662421107292175, 0.13506059348583221, 0.23071667551994324]]]}}, {"element": 35, "tag": "place_retreat", "path": [[0.7202978680751456, -0.9358097250466759, 0.7110003448610915, -0.2613593089070211, 0.3570502984219757, 0.651147976972544, 0.9134678375187547], [0.7202978680751456, -0.9366578703608177, 0.7049833186786458, -0.2580437630589762, 0.3561987784463164, 0.6540363768095454, 0.9140205991171995], [0.7202978680751456, -0.9375305762673817, 0.698851795159693, -0.2545053735965056, 0.3555666864552676, 0.6567332593288949, 0.9143319602334139], [0.7202978680751456, -0.938416312152042, 0.6927545579689819, -0.2510407601839662, 0.3549709956365193, 0.6594784011007713, 0.9146044736415463], [0.7202978680751456, -0.9393064483665677, 0.686682488030694, -0.247638189640047, 0.3543725652631937, 0.6622597450721692, 0.9148825710920963], [0.7202978680751456, -0.9402001786365355, 0.6806359156490858, -0.2442985905085189, 0.3537671412828469, 0.6650777756978093, 0.9151711050208129], [0.7202978680751456, -0.9410996843237025, 0.6746361063183794, -0.24106118277391597, 0.35315002193671874, 0.6679653981483309, 0.9154749365367858], [0.7202978680751456, -0.9420002633840191, 0.6686416264763612, -0.23784911113690516, 0.3525288772191113, 0.6708580570169074, 0.9157864494263405], [0.7202978680751456, -0.9429045309083223, 0.6626712297622452, -0.23469641988417023, 0.3519032356866635, 0.6737844100699442, 0.9161057301919795]], "attachments": [], "link_path": {"eef_tcp_frame": [[[1.4787654876708984, -2.5468382835388184, 0.4965888261795044], [0.8317341804504395, 0.48660072684288025, 0.1349894255399704, 0.2306855320930481]], [[1.4749261140823364, -2.544708490371704, 0.5041360855102539], [0.8317602276802063, 0.4865935444831848, 0.13494420051574707, 0.23063349723815918]], [[1.4709997177124023, -2.5424883365631104, 0.5116385221481323], [0.8317647576332092, 0.4865880608558655, 0.1349327117204666, 0.23063531517982483]], [[1.4670709371566772, -2.540278196334839, 0.519138753414154], [0.8317649364471436, 0.48658767342567444, 0.13493210077285767, 0.23063594102859497]], [[1.4631412029266357, -2.5380682945251465, 0.5266385078430176], [0.8317645788192749, 0.48658764362335205, 0.13493262231349945, 0.23063679039478302]], [[1.4592113494873047, -2.535858154296875, 0.5341381430625916], [0.8317642211914062, 0.4865877628326416, 0.1349332630634308, 0.23063775897026062]], [[1.4552905559539795, -2.5336642265319824, 0.5416425466537476], [0.8317642211914062, 0.48659011721611023, 0.13493527472019196, 0.2306315004825592]], [[1.4513612985610962, -2.5314548015594482, 0.5491426587104797], [0.8317639827728271, 0.48659011721611023, 0.13493560254573822, 0.2306319773197174]], [[1.4474313259124756, -2.5292444229125977, 0.5566422343254089], [0.8317636251449585, 0.4865901470184326, 0.13493619859218597, 0.23063309490680695]]]}}], [{"element": 38, "tag": "place_approach", "path": [[2.785070109134079, 0.24068561129491273, 0.31541317626829346, 0.47874320590883135, -1.836719278885189, -0.4940724458336657, 1.4866672601211954], [2.785070109134079, 0.20962761679224398, 0.38091704972799223, 0.37513312581755986, -2.078658989347039, -0.7036943061146025, 1.7944938740559326], [2.785070109134079, 0.18438478681539378, 0.46243360052178206, 0.2661886007776467, -2.1862884952086024, -0.927301927866066, 1.9765379446101077], [2.785070109134079, 0.16526061121647267, 0.5547392940161456, 0.1557737177142837, -2.2326873980838804, -1.1492935570216312, 2.1089450905942244], [2.785070109134079, 0.15206065116461623, 0.6530100899783484, 0.04800046383856743, -2.2432708301357795, -1.3643645812178897, 2.2207212305700024], [2.785070109134079, 0.14442563068101696, 0.7528981280960186, -0.05320989662533984, -2.227559741187584, -1.5700523176960905, 2.3259604047789826]], "attachments": [{"parent_name": "ECL_robot1_with_track", "parent_link_name": "eef_tcp_frame", "grasp_pose": [[4.544854164123535e-06, 0.0037214159965515137, 7.152557373046875e-07], [0.5000013113021851, 0.5000001192092896, 0.49999865889549255, -0.4999998211860657]], "child_name": "body277"}], "link_path": {"eef_tcp_frame": [[[1.690372347831726, -2.1320126056671143, 0.3904762864112854], [-0.35379379987716675, 0.8558540344238281, 0.20124389231204987, 0.3191312551498413]], [[1.6993083953857422, -2.1313347816467285, 0.3867197334766388], [-0.3425733149051666, 0.8710049986839294, 0.2681891918182373, 0.22818484902381897]], [[1.7080920934677124, -2.130615472793579, 0.38312575221061707], [-0.32686126232147217, 0.8747652173042297, 0.3315875828266144, 0.1341535896062851]], [[1.7168140411376953, -2.1298534870147705, 0.37969112396240234], [-0.30685341358184814, 0.8670716285705566, 0.3905925750732422, 0.03827778995037079]], [[1.7253856658935547, -2.1290972232818604, 0.3763170838356018], [-0.28282085061073303, 0.8479781746864319, 0.44449323415756226, -0.05806242302060127]], [[1.733834981918335, -2.128350257873535, 0.3730641305446625], [-0.25507569313049316, 0.817750096321106, 0.4925643801689148, -0.15362751483917236]]]}}, {"element": 38, "tag": "place_retreat", "path": [[2.785070109134079, 0.14442604281836688, 0.7529156194221831, -0.05323941612142686, -2.2275654021281133, -1.570069878306059, 2.3259735114536313], [2.785070109134079, 0.14049093950362868, 0.753692486047467, -0.058854115824258174, -2.2300824354077826, -1.5754046647216462, 2.327953018934574], [2.785070109134079, 0.13657164880039252, 0.7545385227622305, -0.06457132655339527, -2.2325695079192287, -1.580774685505428, 2.3299485983000663], [2.785070109134079, 0.13266783428043102, 0.7554379047860255, -0.07036436699588344, -2.2350212836576113, -1.5861637576236343, 2.3319486453805376], [2.785070109134079, 0.12877951656711817, 0.7563906555065666, -0.07623329559529725, -2.237437565096, -1.5915716324046127, 2.333953388431344], [2.785070109134079, 0.12490672017084611, 0.757397055722847, -0.08217861191914659, -2.2398182283278096, -1.5969983199775333, 2.335963253838221], [2.785070109134079, 0.12104946763763647, 0.7584573991076861, -0.08820084408496845, -2.24216314527542, -1.6024438439141064, 2.3379786839861], [2.785070109134079, 0.11720778095099176, 0.7595719816737122, -0.09430053877422462, -2.2444721913830255, -1.6079082218243876, 2.3400001097851173]], "attachments": [], "link_path": {"eef_tcp_frame": [[[1.7338515520095825, -2.1283488273620605, 0.37306568026542664], [-0.25507688522338867, 0.8177487850189209, 0.4925641417503357, -0.15363352000713348]], [[1.7388603687286377, -2.135622024536133, 0.3777395188808441], [-0.25507569313049316, 0.8177502155303955, 0.4925643503665924, -0.15362751483917236]], [[1.743884563446045, -2.1428940296173096, 0.3824148178100586], [-0.255075603723526, 0.8177502751350403, 0.49256432056427, -0.15362705290317535]], [[1.7489089965820312, -2.1501660346984863, 0.3870900869369507], [-0.2550755441188812, 0.8177503943443298, 0.49256426095962524, -0.1536267101764679]], [[1.7539334297180176, -2.157438039779663, 0.39176538586616516], [-0.25507545471191406, 0.8177505731582642, 0.49256423115730286, -0.15362635254859924]], [[1.7589577436447144, -2.16471004486084, 0.39644065499305725], [-0.2550753951072693, 0.8177506923675537, 0.49256423115730286, -0.1536259651184082]], [[1.7639819383621216, -2.1719818115234375, 0.40111589431762695], [-0.25507527589797974, 0.8177507519721985, 0.4925641715526581, -0.15362556278705597]], [[1.7690061330795288, -2.1792538166046143, 0.40579113364219666], [-0.2550751864910126, 0.8177509307861328, 0.4925640821456909, -0.15362513065338135]]]}}], [{"element": 31, "tag": "place_approach", "path": [[0.43394527423892, -1.036384344455747, 0.9903481177960642, -0.5842104985335023, 0.6344058577064933, 1.4414208098133985, -0.7037465498709304], [0.43394527423892, -1.0377491572445188, 0.9633210205299642, -0.5452388323566482, 0.6413950924131296, 1.4058917659534116, -0.6487534350534839], [0.43394527423892, -1.0386871977520933, 0.9366349273450649, -0.5073848883573224, 0.6472487466535571, 1.3703639950021578, -0.593025821046535], [0.43394527423892, -1.039187514618822, 0.910574526338821, -0.4711353818320874, 0.651824549074023, 1.3351911764270878, -0.5363002191558238], [0.43394527423892, -1.0392377934374526, 0.8851244758270295, -0.43644817139622605, 0.6550110878357183, 1.3004150384619213, -0.47844353047177873], [0.43394527423892, -1.0388271862074578, 0.8603002729032693, -0.40333355438507956, 0.6566798040582734, 1.2661141190379606, -0.419299070853613], [0.43394527423892, -1.0379473271557764, 0.8360762238771032, -0.37172406433711397, 0.656711469305915, 1.2323238249199087, -0.3587362071015762], [0.43394527423892, -1.036592451114817, 0.8124407143987972, -0.34157290406636, 0.654981059308147, 1.1990977965707628, -0.296616972801784]], "attachments": [{"parent_name": "ECL_robot1_with_track", "parent_link_name": "eef_tcp_frame", "grasp_pose": [[-6.4373016357421875e-06, 0.021518036723136902, 0.0], [0.49999892711639404, 0.5000007152557373, 0.5000011324882507, -0.49999934434890747]], "child_name": "body270"}], "link_path": {"eef_tcp_frame": [[[1.390387773513794, -2.199814558029175, 0.35746923089027405], [0.23717908561229706, 0.9143834710121155, 0.2941092252731323, 0.14542631804943085]], [[1.38522207736969, -2.1946041584014893, 0.36508679389953613], [0.2708413302898407, 0.9061635732650757, 0.29026010632514954, 0.14581398665905]], [[1.3800146579742432, -2.1891424655914307, 0.3727125823497772], [0.3041958212852478, 0.8968419432640076, 0.2860139310359955, 0.1460666060447693]], [[1.3748646974563599, -2.183610200881958, 0.3803664743900299], [0.3371792435646057, 0.8864282965660095, 0.28142184019088745, 0.1461397260427475]], [[1.369776964187622, -2.178011655807495, 0.3880481719970703], [0.36975157260894775, 0.8749353289604187, 0.2764891982078552, 0.1460331380367279]], [[1.3647639751434326, -2.172363519668579, 0.39576005935668945], [0.4018726348876953, 0.8623776435852051, 0.2712242007255554, 0.1457415223121643]], [[1.359820008277893, -2.1666507720947266, 0.4034978747367859], [0.4335046112537384, 0.8487703204154968, 0.26562920212745667, 0.14527198672294617]], [[1.3549405336380005, -2.160862922668457, 0.41125649213790894], [0.4646092355251312, 0.8341290950775146, 0.2597082257270813, 0.14463220536708832]]]}}, {"element": 31, "tag": "place_retreat", "path": [[0.43394527423892, -1.0365927808306685, 0.8124234094444316, -0.34154127837230996, 0.6549897251589251, 1.1990768804515664, -0.2966306632090058], [0.43394527423892, -1.0388714557823577, 0.8099764399930471, -0.34340777075262013, 0.653610255613435, 1.203661329496387, -0.29557751178130026], [0.43394527423892, -1.0411472777996449, 0.8076930174679149, -0.3455632307129733, 0.6521814070899833, 1.2084176656728438, -0.2944233976200199], [0.43394527423892, -1.043422682972816, 0.805457301948792, -0.3477952874852425, 0.6507625099370213, 1.213205362044189, -0.2932615820807984], [0.43394527423892, -1.0456973282317377, 0.8032853218109897, -0.3501329224891657, 0.6493463097203813, 1.2180433232789296, -0.29207998160738546], [0.43394527423892, -1.04797211822418, 0.8011323862299522, -0.352494357900566, 0.6479545850587707, 1.2228774348256568, -0.2909134981011564], [0.43394527423892, -1.050246602831481, 0.7990191023288528, -0.3549170254226794, 0.6465775101792541, 1.227732204079194, -0.28974613133658794], [0.43394527423892, -1.0525207391236315, 0.7969467057399654, -0.35740297120885495, 0.645214719924998, 1.2326087893699298, -0.28857706352555035], [0.43394527423892, -1.0547945027813137, 0.7949155015933499, -0.35995254820421513, 0.6438662927041783, 1.237507230663691, -0.2874061906207768]], "attachments": [], "link_path": {"eef_tcp_frame": [[[1.354933738708496, -2.160851001739502, 0.4112534523010254], [0.46460968255996704, 0.8341286182403564, 0.25970640778541565, 0.14463743567466736]], [[1.3506579399108887, -2.163374185562134, 0.4184328317642212], [0.4646122455596924, 0.8341245055198669, 0.25969213247299194, 0.1446780413389206]], [[1.3464308977127075, -2.1659817695617676, 0.42563435435295105], [0.46461251378059387, 0.8341242671012878, 0.2596909701824188, 0.14468102157115936]], [[1.3422070741653442, -2.1685948371887207, 0.43283727765083313], [0.4646126329898834, 0.8341241478919983, 0.25969064235687256, 0.1446816772222519]], [[1.3379921913146973, -2.1712236404418945, 0.4400445222854614], [0.46461221575737, 0.834124743938446, 0.25969281792640686, 0.14467531442642212]], [[1.3337689638137817, -2.173837900161743, 0.44724783301353455], [0.46461230516433716, 0.8341248631477356, 0.2596926689147949, 0.14467540383338928]], [[1.3295453786849976, -2.1764516830444336, 0.45445093512535095], [0.46461236476898193, 0.834124743938446, 0.2596924901008606, 0.14467579126358032]], [[1.3253217935562134, -2.179065227508545, 0.46165400743484497], [0.46461251378059387, 0.834124743938446, 0.2596922516822815, 0.14467619359493256]], [[1.3210982084274292, -2.181678533554077, 0.468857079744339], [0.46461251378059387, 0.8341246843338013, 0.25969198346138, 0.14467661082744598]]]}}], [{"element": 30, "tag": "place_approach", "path": [[1.570907018360073, -0.7452582321280804, -0.14482876770094197, 0.9340831921427257, 0.6947059915550902, 1.376977658222197, -1.8878138498044428], [1.570907018360073, -0.6935059749529314, -0.16686780649135782, 0.9186996759191789, 0.6616513713665255, 1.346859209935283, -1.7179007438393337], [1.570907018360073, -0.6398548159006912, -0.1763382878820446, 0.8981317286194485, 0.6218728171396253, 1.3213007578170073, -1.547339631700199], [1.570907018360073, -0.5859730336789328, -0.17350183603479236, 0.8729049508355515, 0.5769359042370845, 1.3017834142638185, -1.377633234236025], [1.570907018360073, -0.5334743100517059, -0.15916027270590702, 0.8435919640446446, 0.5287733329213633, 1.2895342855567937, -1.2104003615415966], [1.570907018360073, -0.48376430103333257, -0.13452307499927543, 0.8107986833803624, 0.4794842245507757, 1.2853418190758052, -1.0472537443066248], [1.570907018360073, -0.4378718691449732, -0.10106491576599183, 0.7751156141171559, 0.43104599033075386, 1.2894975702761682, -0.889485138685387]], "attachments": [{"parent_name": "ECL_robot1_with_track", "parent_link_name": "eef_tcp_frame", "grasp_pose": [[-3.6954879760742188e-06, -0.22162508964538574, -8.344650268554688e-07], [-0.49999868869781494, -0.4999997019767761, -0.5000013113021851, 0.5000002980232239]], "child_name": "body269"}], "link_path": {"eef_tcp_frame": [[[0.8286572098731995, -1.9034956693649292, 0.4620712995529175], [-0.350892037153244, 0.8430561423301697, 0.34242209792137146, 0.22108426690101624]], [[0.8529717922210693, -1.8861420154571533, 0.4738301932811737], [-0.31473928689956665, 0.8704820275306702, 0.33290964365005493, 0.17992062866687775]], [[0.8788818120956421, -1.8693411350250244, 0.4832567274570465], [-0.2773681581020355, 0.8945678472518921, 0.322114497423172, 0.13804921507835388]], [[0.9061107635498047, -1.853294849395752, 0.490208238363266], [-0.23892444372177124, 0.9152166843414307, 0.31007522344589233, 0.09563915431499481]], [[0.9343609809875488, -1.8382089138031006, 0.4945898652076721], [-0.19956086575984955, 0.9323443174362183, 0.296842098236084, 0.05286034941673279]], [[0.9633107781410217, -1.8242708444595337, 0.49635130167007446], [-0.15943507850170135, 0.9458813667297363, 0.28247326612472534, 0.009886292740702629]], [[0.9926401376724243, -1.8116017580032349, 0.4955277442932129], [-0.11868838220834732, 0.9557831287384033, 0.2670086920261383, -0.03313622251152992]]]}}, {"element": 30, "tag": "place_retreat", "path": [[1.570907018360073, -0.43785518574498633, -0.10107037310549247, 0.7751086559294552, 0.4310350098515488, 1.2895029299854242, -0.8894489209044357], [1.570907018360073, -0.44125875380375146, -0.10282498780278043, 0.768958209917143, 0.4286701638199964, 1.2977636145881624, -0.8885333110649343], [1.570907018360073, -0.44466908923640364, -0.10444837262933965, 0.7627096669186999, 0.4263473218046659, 1.3060414372174465, -0.8876854432736393], [1.570907018360073, -0.448060603482555, -0.10597051666479174, 0.7564034016586323, 0.424074750597076, 1.3142824607314092, -0.8868793837075054], [1.570907018360073, -0.4514330840844988, -0.10739323359934724, 0.7500403899547107, 0.4218511290774377, 1.3224866522022354, -0.8861131573309816], [1.570907018360073, -0.45478660807859983, -0.10871777053013439, 0.7436211266120457, 0.4196751747140531, 1.3306543856926898, -0.8853852860599333], [1.570907018360073, -0.45812125797367065, -0.10994535341535094, 0.737146084218559, 0.4175456531844782, 1.3387860568287522, -0.8846943454955167], [1.570907018360073, -0.4614371054652327, -0.11107720343993775, 0.7306157190922341, 0.4154613502827855, 1.3468820643087431, -0.8840389483452631]], "attachments": [], "link_path": {"eef_tcp_frame": [[[0.9926456212997437, -1.8115909099578857, 0.4955381155014038], [-0.11868350207805634, 0.9557851552963257, 0.26700276136398315, -0.03314319625496864]], [[0.9939026236534119, -1.8165806531906128, 0.5040684342384338], [-0.11867615580558777, 0.9557902812957764, 0.2669890522956848, -0.03313298523426056]], [[0.995168924331665, -1.821604609489441, 0.5126217603683472], [-0.11867576092481613, 0.9557904601097107, 0.2669884264469147, -0.03313317522406578]], [[0.9964354634284973, -1.8266289234161377, 0.5211750268936157], [-0.11867551505565643, 0.955790638923645, 0.266988068819046, -0.03313342109322548]], [[0.9977020621299744, -1.831653356552124, 0.5297281742095947], [-0.11867526918649673, 0.9557907581329346, 0.266987681388855, -0.03313362970948219]], [[0.9989686608314514, -1.8366777896881104, 0.538281261920929], [-0.11867502331733704, 0.9557908773422241, 0.26698732376098633, -0.03313381224870682]], [[1.0002353191375732, -1.8417023420333862, 0.5468342304229736], [-0.11867481470108032, 0.9557909965515137, 0.26698702573776245, -0.03313397988677025]], [[1.0015019178390503, -1.8467267751693726, 0.5553871393203735], [-0.1186746135354042, 0.9557910561561584, 0.2669866979122162, -0.03313412517309189]]]}}], [{"element": 7, "tag": "place_approach", "path": [[0.4283734277442839, -0.30149792180907903, 0.3447327479430529, 0.17463448075931798, 0.12278374577467055, 1.4057052282252331, -0.3152300134219567], [0.4283734277442839, -0.25161968013830166, 0.32722626822271683, 0.21772685076946321, -0.03578421204231744, 1.2937572974550917, -0.0897533609729943], [0.4283734277442839, -0.2028436205536212, 0.33021984004870464, 0.2517757455921059, -0.21946535713721047, 1.2204117592508041, 0.16278216677318466], [0.4283734277442839, -0.15928323925195093, 0.3541399721633707, 0.27477331347672823, -0.41637237746512434, 1.1945321568074154, 0.43155527924915665], [0.4283734277442839, -0.1245347529042542, 0.3974875904097761, 0.2853506262633538, -0.60821264284377, 1.2187457376980724, 0.699051340861828]], "attachments": [{"parent_name": "ECL_robot1_with_track", "parent_link_name": "eef_tcp_frame", "grasp_pose": [[-5.7220458984375e-06, -0.15884676575660706, 3.2782554626464844e-07], [0.4999997019767761, 0.5000012516975403, 0.5000002980232239, -0.4999988079071045]], "child_name": "body246"}], "link_path": {"eef_tcp_frame": [[[1.5095027685165405, -0.833841860294342, 0.5758101344108582], [0.013844148255884647, 0.982619047164917, 0.10844343900680542, -0.1500273197889328]], [[1.5171256065368652, -0.8363386988639832, 0.5354859232902527], [0.07298311591148376, 0.9882194399833679, 0.006516351830214262, -0.1343630701303482]], [[1.525059700012207, -0.8475630879402161, 0.49587708711624146], [0.1310870498418808, 0.9798263311386108, -0.09550563991069794, -0.11677028238773346]], [[1.5325785875320435, -0.8671538233757019, 0.4589063823223114], [0.18733549118041992, 0.9575533270835876, -0.19617599248886108, -0.09752892702817917]], [[1.5388981103897095, -0.8942580819129944, 0.42630675435066223], [0.24093368649482727, 0.921714186668396, -0.294075071811676, -0.07690176367759705]]]}}, {"element": 7, "tag": "place_retreat", "path": [[0.4283734277442839, -0.12452977015021895, 0.3974741491057413, 0.2853800183886133, -0.608232549033056, 1.2187235841334387, 0.6990817086089562], [0.4283734277442839, -0.12135866362305599, 0.39524456100982786, 0.28108310370676554, -0.6056858608388122, 1.2254271084947046, 0.6973301899619502], [0.4283734277442839, -0.11820692006893037, 0.39315326583895466, 0.27658113914755084, -0.6031100317661368, 1.2322510116864112, 0.6955062510429804], [0.4283734277442839, -0.11506359326276834, 0.39112793242213684, 0.27200926436040584, -0.6005747616286937, 1.2390875044979965, 0.6937072656653159], [0.4283734277442839, -0.11192850988274772, 0.38916692785929075, 0.2673705346139621, -0.5980810301228909, 1.2459338751064248, 0.6919346409026937], [0.4283734277442839, -0.10880169498440546, 0.3872702623905447, 0.2626650330802651, -0.5956284035533471, 1.2527897781089425, 0.6901878297127727], [0.4283734277442839, -0.1056846707787552, 0.3854599350853204, 0.2578549728057472, -0.5932013828817776, 1.2596855326639194, 0.6884459871437584], [0.4283734277442839, -0.10257445595877572, 0.38369270481556716, 0.2530150742137471, -0.5908296661195184, 1.2665603174655176, 0.6867490666401025]], "attachments": [], "link_path": {"eef_tcp_frame": [[[1.5388826131820679, -0.8942537903785706, 0.42629674077033997], [0.2409355342388153, 0.9217126965522766, -0.2940806448459625, -0.07689173519611359]], [[1.5416370630264282, -0.8891924619674683, 0.43441057205200195], [0.24093730747699738, 0.9217115640640259, -0.2940943241119385, -0.07684730738401413]], [[1.5444691181182861, -0.8841416239738464, 0.4425617456436157], [0.2409372180700302, 0.9217116832733154, -0.2940943241119385, -0.07684633135795593]], [[1.5473028421401978, -0.8790910243988037, 0.45071372389793396], [0.24093714356422424, 0.9217118620872498, -0.294094055891037, -0.07684632390737534]], [[1.5501365661621094, -0.8740403652191162, 0.4588656723499298], [0.2409370094537735, 0.9217119812965393, -0.2940937280654907, -0.07684628665447235]], [[1.552970290184021, -0.8689897656440735, 0.46701759099960327], [0.24093692004680634, 0.9217120409011841, -0.2940934896469116, -0.07684624940156937]], [[1.5558257102966309, -0.863940417766571, 0.4751788377761841], [0.24093717336654663, 0.921711802482605, -0.2940913140773773, -0.07685734331607819]], [[1.5586599111557007, -0.8588897585868835, 0.4833309054374695], [0.24093709886074066, 0.921711802482605, -0.294091135263443, -0.07685744762420654]]]}}], [{"element": 32, "tag": "place_approach", "path": [[0.6844146013532216, -0.8349147386432554, 0.4971123959542068, 0.02008607577832855, 2.207078491800554, -1.3635703754758832, 0.9680574732852277], [0.6844146013532216, -0.8048428339395904, 0.5959273786872314, -0.07893752683108804, 2.13818539018496, -1.5836963400233128, 0.8771959018272291], [0.6844146013532216, -0.7831668753565239, 0.697885635925669, -0.16982816768764253, 2.0495273208943043, -1.7839750880561063, 0.7711719824110836], [0.6844146013532216, -0.7696018835839668, 0.7974816995350357, -0.24697738853376294, 1.9364011975843844, -1.9620251031955536, 0.6457914028930121]], "attachments": [{"parent_name": "ECL_robot1_with_track", "parent_link_name": "eef_tcp_frame", "grasp_pose": [[-5.0067901611328125e-06, -0.17352142930030823, 3.5762786865234375e-07], [0.4999999403953552, 0.5000013113021851, 0.5, -0.49999865889549255]], "child_name": "body271"}], "link_path": {"eef_tcp_frame": [[[0.9358165860176086, -2.310576915740967, 0.6742138862609863], [0.6724649667739868, -0.5927645564079285, -0.10951007157564163, 0.42945143580436707]], [[0.969042956829071, -2.306784152984619, 0.6922528743743896], [0.6535260081291199, -0.5507132411003113, -0.21260660886764526, 0.47372686862945557]], [[1.0070890188217163, -2.305791139602661, 0.7020586133003235], [0.6249614953994751, -0.5005621910095215, -0.31261077523231506, 0.511013925075531]], [[1.0477081537246704, -2.3071963787078857, 0.702591598033905], [0.5871981978416443, -0.44304075837135315, -0.4080052673816681, 0.5407817363739014]]]}}, {"element": 32, "tag": "place_retreat", "path": [[0.6844146013532216, -0.7696029214254594, 0.7975039761913839, -0.24701593863776033, 1.936398473211711, -1.9620399900883014, 0.6457718772544353], [0.6844146013532216, -0.7660685951128222, 0.8011526815091901, -0.2537116578030058, 1.9375072195925978, -1.9659387719311907, 0.6438623072848151], [0.6844146013532216, -0.7625493485942638, 0.8048567421571097, -0.2605051956558179, 1.9385775275267794, -1.9698540965230082, 0.6419069050955505], [0.6844146013532216, -0.7590445654080464, 0.8086030245246694, -0.2673740263570248, 1.9396103573450636, -1.9737770055412156, 0.6399165847063788], [0.6844146013532216, -0.7555552997367613, 0.8124146146262973, -0.27435833718171004, 1.9406017643012632, -1.9777226200010807, 0.6378707077023761], [0.6844146013532216, -0.7520794659543475, 0.8162475147700089, -0.2813819715850772, 1.9415575104083336, -1.9816615828309958, 0.6358074591243312], [0.6844146013532216, -0.7486180562722068, 0.8201236810330502, -0.2884831243114675, 1.942473946979096, -1.985608285303932, 0.6337072227903908], [0.6844146013532216, -0.7451710765722653, 0.8240439657871597, -0.29566341637311644, 1.9433503578712719, -1.9895630925591432, 0.6315688471167493], [0.6844146013532216, -0.7417385139689969, 0.828008939242053, -0.3029239937885985, 1.944186051284278, -1.9935261425131832, 0.629391438824052]], "attachments": [], "link_path": {"eef_tcp_frame": [[[1.047723412513733, -2.307210683822632, 0.7025946974754333], [0.5871963500976562, -0.4430418014526367, -0.4080100953578949, 0.5407793521881104]], [[1.0560975074768066, -2.30480694770813, 0.7033113837242126], [0.5871977210044861, -0.44304102659225464, -0.40800657868385315, 0.5407810807228088]], [[1.0644809007644653, -2.3024117946624756, 0.7040298581123352], [0.5871980786323547, -0.44304102659225464, -0.40800610184669495, 0.5407811999320984]], [[1.0728645324707031, -2.3000166416168213, 0.7047483921051025], [0.5871981978416443, -0.4430408477783203, -0.4080054461956024, 0.5407814979553223]], [[1.0812634229660034, -2.297635793685913, 0.7054700255393982], [0.5871965885162354, -0.44304174184799194, -0.40800970792770386, 0.5407794117927551]], [[1.0896475315093994, -2.295241117477417, 0.7061886191368103], [0.5871967077255249, -0.44304171204566956, -0.40800943970680237, 0.5407795310020447]], [[1.0980312824249268, -2.292846441268921, 0.7069072127342224], [0.5871968269348145, -0.4430415630340576, -0.4080088436603546, 0.5407798290252686]], [[1.1064149141311646, -2.2904515266418457, 0.7076257467269897], [0.5871970653533936, -0.44304153323173523, -0.4080083966255188, 0.5407800078392029]], [[1.1147985458374023, -2.2880563735961914, 0.7083442211151123], [0.5871972441673279, -0.4430413842201233, -0.40800777077674866, 0.540780246257782]]]}}], [{"element": 6, "tag": "place_approach", "path": [[2.653238841172608, 0.9001369014884699, 0.3126546152156288, 0.2951153900210407, 0.5195234016215423, 0.3891022611156947, -0.2007188197799758], [2.653238841172608, 0.9098044549284177, 0.3192401531209885, 0.2726357754573648, 0.3570690195731663, 0.4272789731166175, -0.054518637269413965], [2.653238841172608, 0.9206488420066116, 0.3277128252934785, 0.24841113059711697, 0.21723443708603873, 0.4743179527790701, 0.06935542771915425], [2.653238841172608, 0.930519999331424, 0.3379051157425045, 0.22383810365059514, 0.10861686664186031, 0.5268364473189246, 0.16078678928384485], [2.653238841172608, 0.9417997917181363, 0.3498625599564216, 0.19808170842432313, 0.013341057393945059, 0.5836515961321082, 0.23931204437288278], [2.653238841172608, 0.9528541656765941, 0.3634045634926776, 0.17186190048751618, -0.06501566453008412, 0.6429731857614546, 0.30021628483848456], [2.653238841172608, 0.9636812350118872, 0.3784528611939745, 0.145130170324791, -0.1306700511450907, 0.7039730075765848, 0.3477012721661904], [2.653238841172608, 0.9743196517495533, 0.39491705912297176, 0.11792975680291783, -0.18688839464672133, 0.7660245289050489, 0.3850400799776043], [2.653238841172608, 0.984812777994796, 0.41269219328217793, 0.09037767858838579, -0.23612686692618687, 0.8286370999235939, 0.41469947587429906], [2.653238841172608, 0.9951250109874071, 0.4317216887810667, 0.06249449889582437, -0.27997101635719684, 0.8915345823571218, 0.43821110141812014], [2.653238841172608, 1.0051666311576184, 0.45189284658882106, 0.0343729635995412, -0.3194834974517064, 0.9544373517361077, 0.4565310521481089], [2.653238841172608, 1.014911013019799, 0.4731355967793986, 0.006051986641456576, -0.35562774005378295, 1.017187534654805, 0.4705551314065182], [2.653238841172608, 1.0243278091375556, 0.4953070695397089, -0.022302781413753643, -0.38917170149153263, 1.0795567348607344, 0.48097888627237595], [2.653238841172608, 1.033391091367085, 0.5183322333903942, -0.050643523701287815, -0.4207041804314955, 1.141453397920479, 0.4883105492160448], [2.653238841172608, 1.0420742132897989, 0.5421400065598387, -0.07892969891916399, -0.45069304642421043, 1.2028093906798418, 0.49292416329676014], [2.653238841172608, 1.0503568294666639, 0.5665881185813828, -0.10699453832151562, -0.47955554961087693, 1.2634722932754248, 0.49515162000350815], [2.653238841172608, 1.0582187398626557, 0.5916033947592086, -0.13479065315531394, -0.5076142482165242, 1.3233985572720888, 0.49521118993049135]], "attachments": [{"parent_name": "ECL_robot1_with_track", "parent_link_name": "eef_tcp_frame", "grasp_pose": [[-6.3925981521606445e-06, 0.06035804748535156, -2.086162567138672e-07], [0.4999995231628418, 0.5000013113021851, 0.5000003576278687, -0.49999886751174927]], "child_name": "body245"}], "link_path": {"eef_tcp_frame": [[[1.1336477994918823, -1.0710861682891846, 0.5510568618774414], [-0.3140663504600525, 0.8948169946670532, 0.24471575021743774, 0.201938197016716]], [[1.1352603435516357, -1.0742031335830688, 0.5512458086013794], [-0.31904590129852295, 0.9017693400382996, 0.21564006805419922, 0.19626812636852264]], [[1.136452317237854, -1.0765622854232788, 0.5520276427268982], [-0.3233834207057953, 0.9081493020057678, 0.185422882437706, 0.19054239988327026]], [[1.1381710767745972, -1.0793207883834839, 0.5525890588760376], [-0.32784518599510193, 0.9133673310279846, 0.15597830712795258, 0.1842508614063263]], [[1.1391794681549072, -1.0812098979949951, 0.5534405708312988], [-0.33144521713256836, 0.9179658889770508, 0.12529230117797852, 0.17828215658664703]], [[1.1402592658996582, -1.0830501317977905, 0.5542190074920654], [-0.3348028361797333, 0.921586811542511, 0.09470656514167786, 0.17209115624427795]], [[1.141405701637268, -1.0847861766815186, 0.5549944639205933], [-0.33790525794029236, 0.9242614507675171, 0.06417486071586609, 0.16565746068954468]], [[1.1425724029541016, -1.0863678455352783, 0.555781900882721], [-0.34071382880210876, 0.9260104894638062, 0.033646807074546814, 0.159017413854599]], [[1.1436957120895386, -1.0877641439437866, 0.5565556883811951], [-0.34318041801452637, 0.9268449544906616, 0.0030846099834889174, 0.15223707258701324]], [[1.1447856426239014, -1.0889414548873901, 0.5573147535324097], [-0.345295250415802, 0.9267673492431641, -0.027500616386532784, 0.14531786739826202]], [[1.1458673477172852, -1.0899300575256348, 0.5580533742904663], [-0.34708085656166077, 0.925773024559021, -0.05804269760847092, 0.13824006915092468]], [[1.1469451189041138, -1.0907069444656372, 0.5587670207023621], [-0.3485294580459595, 0.9238651990890503, -0.08852649480104446, 0.1310088336467743]], [[1.147997260093689, -1.0913084745407104, 0.5594253540039062], [-0.34963783621788025, 0.921044647693634, -0.11891411989927292, 0.12365131080150604]], [[1.1490308046340942, -1.0917202234268188, 0.5600224137306213], [-0.35040199756622314, 0.9173151254653931, -0.14918363094329834, 0.11617045104503632]], [[1.1500575542449951, -1.0919281244277954, 0.5605543851852417], [-0.3508204519748688, 0.9126808643341064, -0.17931029200553894, 0.10856566578149796]], [[1.1510579586029053, -1.0919713973999023, 0.5609935522079468], [-0.3508928418159485, 0.9071455597877502, -0.20925600826740265, 0.10086178779602051]], [[1.1520435810089111, -1.0918397903442383, 0.5613361597061157], [-0.3506191372871399, 0.9007151126861572, -0.23899540305137634, 0.09305831789970398]]]}}, {"element": 6, "tag": "place_retreat", "path": [[2.653238841172608, 1.0582181641490664, 0.5916239834897827, -0.134826050648913, -0.507607130030826, 1.323424858163434, 0.4951994225052723], [2.653238841172608, 1.0602755233845662, 0.5905711097929452, -0.13947455257545002, -0.5064234714481911, 1.329291502883728, 0.49401629563484184], [2.653238841172608, 1.062329509975646, 0.589587275308419, -0.14422136668814042, -0.5052521188608969, 1.3352001627145524, 0.492825307810112], [2.653238841172608, 1.0643806908478661, 0.5886520358038462, -0.14903127865368387, -0.5041001986489478, 1.341124430861468, 0.4916380462351078], [2.653238841172608, 1.0664290704694512, 0.587765080854967, -0.1539037131131242, -0.5029678511231381, 1.3470636643013458, 0.490454560404574], [2.653238841172608, 1.0684746379007115, 0.5869266409414235, -0.15883903004434802, -0.5018550362609545, 1.353017911077075, 0.4892745900649861], [2.653238841172608, 1.0705167717264523, 0.5861610090685075, -0.16387879232450867, -0.5007544361492613, 1.3590174534167203, 0.488085064197907], [2.653238841172608, 1.0725566634048516, 0.5854213781891622, -0.1689428124679506, -0.49968042435261906, 1.3650031528641666, 0.4869109054710248], [2.653238841172608, 1.0745937259829579, 0.58473059369966, -0.17407020686803285, -0.49862598962193594, 1.3710035624681474, 0.48573961206190874]], "attachments": [], "link_path": {"eef_tcp_frame": [[[1.1520519256591797, -1.0918244123458862, 0.5613420605659485], [-0.350618451833725, 0.9007150530815125, -0.23899886012077332, 0.09305180609226227]], [[1.1491097211837769, -1.088645339012146, 0.5689340829849243], [-0.35061922669410706, 0.9007150530815125, -0.23899491131305695, 0.09305904805660248]], [[1.1461759805679321, -1.0854504108428955, 0.5765321850776672], [-0.3506193459033966, 0.9007150530815125, -0.2389945238828659, 0.09305956959724426]], [[1.1432424783706665, -1.0822551250457764, 0.5841304063796997], [-0.35061943531036377, 0.9007151126861572, -0.2389942854642868, 0.09305993467569351]], [[1.1403089761734009, -1.0790598392486572, 0.5917286276817322], [-0.35061952471733093, 0.9007151126861572, -0.23899398744106293, 0.09306029230356216]], [[1.1373754739761353, -1.0758646726608276, 0.5993268489837646], [-0.3506195545196533, 0.9007150530815125, -0.23899365961551666, 0.09306065738201141]], [[1.134451150894165, -1.072651743888855, 0.6069321036338806], [-0.3506188988685608, 0.9007151126861572, -0.2389974147081375, 0.09305384755134583]], [[1.131518006324768, -1.0694559812545776, 0.6145305633544922], [-0.3506188988685608, 0.9007151126861572, -0.238997220993042, 0.09305400401353836]], [[1.1285845041275024, -1.0662604570388794, 0.6221289038658142], [-0.3506190776824951, 0.9007150530815125, -0.23899702727794647, 0.09305431693792343]]]}}], [{"element": 25, "tag": "place_approach", "path": [[0.2987811232748086, -0.7365338120489484, 0.7467841175490492, -0.3367368110642298, -0.5388278809820118, 1.2805169536735372, 1.2793245985319486], [0.2987811232748086, -0.7645012892684468, 0.7253982181505804, -0.3431649342210404, -0.40227941526910893, 1.2420151303425562, 1.1982259342378485], [0.2987811232748086, -0.7953560654161451, 0.7084964200740258, -0.3501873722221438, -0.2593723803050326, 1.2147857327004827, 1.1112330507653372], [0.2987811232748086, -0.828526697599756, 0.6964609802259887, -0.35775966298834844, -0.11166330865814734, 1.199833669619524, 1.0203450971665113], [0.2987811232748086, -0.8633515869159755, 0.6895407756493798, -0.36577554177380367, 0.038719728745338175, 1.19769898281565, 0.928082101056291]], "attachments": [{"parent_name": "ECL_robot1_with_track", "parent_link_name": "eef_tcp_frame", "grasp_pose": [[-4.291534423828125e-06, -0.18253958225250244, 2.682209014892578e-07], [0.5000002980232239, 0.5000012516975403, 0.4999999403953552, -0.49999892711639404]], "child_name": "body264"}], "link_path": {"eef_tcp_frame": [[[1.4044331312179565, -1.907748818397522, 0.5134581923484802], [0.7650343775749207, 0.5906690359115601, -0.25632244348526, 0.011461613699793816]], [[1.4099830389022827, -1.9105626344680786, 0.5332706570625305], [0.7755494117736816, 0.6022956371307373, -0.18853552639484406, 0.014745589345693588]], [[1.4137871265411377, -1.9145970344543457, 0.5539788007736206], [0.7823004722595215, 0.6110029816627502, -0.11982942372560501, 0.017948925495147705]], [[1.4157679080963135, -1.9199179410934448, 0.5752763748168945], [0.7852558493614197, 0.6167457103729248, -0.05054161325097084, 0.021059732884168625]], [[1.4158724546432495, -1.9265499114990234, 0.5968383550643921], [0.7844040393829346, 0.6194918751716614, 0.018984274938702583, 0.024075370281934738]]]}}, {"element": 25, "tag": "place_retreat", "path": [[0.2987811232748086, -0.863356106879887, 0.6895617825239806, -0.3658123461026273, 0.0387306102096807, 1.1977274207949813, 0.9280673261198722], [0.2987811232748086, -0.8635304692262065, 0.6871289972416592, -0.3699451367279962, 0.03865439176548915, 1.2042809421696372, 0.9281495849664524], [0.2987811232748086, -0.8636997383765338, 0.6847773781494931, -0.37420422038105966, 0.038566334043846004, 1.2108908848829558, 0.9282504282972148], [0.2987811232748086, -0.8638690822712262, 0.6824884598626086, -0.3785563992756753, 0.0384799490824219, 1.217531601862434, 0.9283512284441553], [0.2987811232748086, -0.8640384560699985, 0.6802858090137952, -0.38304302859056794, 0.038394607072447164, 1.224234121383238, 0.9284530631491036], [0.2987811232748086, -0.8642079559853588, 0.6781239662539581, -0.38758370658101327, 0.0383116083238682, 1.230936922877616, 0.92855381701504], [0.2987811232748086, -0.8643775362658952, 0.6760251264713301, -0.3922174020239717, 0.03823033898359704, 1.237669303363929, 0.9286545290611646], [0.2987811232748086, -0.864547196483991, 0.673990520390332, -0.39694609735141967, 0.0381507888342336, 1.2444323799450303, 0.9287552538860102]], "attachments": [], "link_path": {"eef_tcp_frame": [[[1.4158790111541748, -1.9265644550323486, 0.5968434810638428], [0.7844018340110779, 0.6194947957992554, 0.018989093601703644, 0.02406906709074974]], [[1.4152681827545166, -1.92641282081604, 0.6068182587623596], [0.7843990921974182, 0.6194978356361389, 0.0189952552318573, 0.02407575212419033]], [[1.4146705865859985, -1.9262688159942627, 0.6167982220649719], [0.7843990921974182, 0.6194977760314941, 0.01899530552327633, 0.024076776579022408]], [[1.4140732288360596, -1.926125168800354, 0.6267783045768738], [0.7843990921974182, 0.6194977760314941, 0.018995340913534164, 0.024077607318758965]], [[1.4134868383407593, -1.9259943962097168, 0.636764645576477], [0.7843992114067078, 0.6194978952407837, 0.0189950093626976, 0.02407163567841053]], [[1.412890076637268, -1.9258514642715454, 0.6467450857162476], [0.7843992114067078, 0.6194978952407837, 0.018995029851794243, 0.02407214231789112]], [[1.4122929573059082, -1.9257080554962158, 0.6567253470420837], [0.7843992710113525, 0.6194978356361389, 0.01899505965411663, 0.024072866886854172]], [[1.4116957187652588, -1.9255645275115967, 0.6667055487632751], [0.7843992114067078, 0.6194978356361389, 0.018995095044374466, 0.02407362125813961]]]}}], [{"element": 3, "tag": "place_approach", "path": [[2.4172366946488024, 0.9153942476052963, 1.0575236256358225, -0.9400433185754092, -0.1601786453578072, 1.7942143480955053, -0.2737623288200857], [2.4172366946488024, 0.8640706125766181, 1.0573503471044394, -0.942967699340523, 0.08598042955965701, 1.8038959248805184, -0.3438298458546506], [2.4172366946488024, 0.8145129708761197, 1.0654972674136418, -0.9336731320250224, 0.33072719172594084, 1.8234368792573228, -0.4110752265654808], [2.4172366946488024, 0.7705050960124632, 1.0800335361624587, -0.9105997997299807, 0.5718225989794686, 1.851978069447197, -0.47671050980273727], [2.4172366946488024, 0.7352565630596254, 1.100131106270419, -0.8758900779874933, 0.8078437868433194, 1.8914329245185488, -0.5408974488806039]], "attachments": [{"parent_name": "ECL_robot1_with_track", "parent_link_name": "eef_tcp_frame", "grasp_pose": [[-6.079673767089844e-06, 0.005478084087371826, -2.384185791015625e-07], [-0.49999988079071045, 0.5000012516975403, -0.5000004172325134, -0.4999987483024597]], "child_name": "body242"}], "link_path": {"eef_tcp_frame": [[[1.4296330213546753, -0.6865819096565247, 0.5873496532440186], [-0.5467665791511536, 0.8161380290985107, -0.12912803888320923, -0.1352444887161255]], [[1.4221298694610596, -0.6866458058357239, 0.5881495475769043], [-0.5609314441680908, 0.8085129857063293, -0.002957441145554185, -0.17791536450386047]], [[1.4146894216537476, -0.6860572099685669, 0.5891658067703247], [-0.5649888515472412, 0.7863110303878784, 0.12322729825973511, -0.21752651035785675]], [[1.4070260524749756, -0.6852416396141052, 0.5903515219688416], [-0.5588847994804382, 0.7499470114707947, 0.24718934297561646, -0.25322848558425903]], [[1.3990459442138672, -0.6843574047088623, 0.5917459726333618], [-0.542723536491394, 0.7000903487205505, 0.36671382188796997, -0.284333735704422]]]}}, {"element": 3, "tag": "place_retreat", "path": [[2.4172366946488024, 0.7352516906813328, 1.0998609490855211, -0.875403229750491, 0.8078031860563699, 1.8912225176817499, -0.5410713389537108], [2.4172366946488024, 0.7327634798625402, 1.104862125052801, -0.8880779831671006, 0.8086149875931025, 1.8980069870828886, -0.5370104089677187], [2.4172366946488024, 0.7302992867116647, 1.1109978170465646, -0.9027954886990217, 0.8096709458875752, 1.9056124014803557, -0.5322052251069552], [2.4172366946488024, 0.7278446735247837, 1.1174947153433736, -0.9181639133400767, 0.8108630451003926, 1.913429733056407, -0.5271498179062126], [2.4172366946488024, 0.725397860186994, 1.1242762205204504, -0.934046338703082, 0.812185603124834, 1.9213944595080457, -0.5218901641662131], [2.4172366946488024, 0.722958522326906, 1.131349975513374, -0.9504578366172304, 0.8136465817976284, 1.929506860333258, -0.5164174979824742], [2.4172366946488024, 0.7205264973976689, 1.1387365241843044, -0.9674369174397353, 0.8152569345699499, 1.9377763559952492, -0.5107141653168565], [2.4172366946488024, 0.7181016171225529, 1.1464605110316366, -0.9850296807831794, 0.8170293780216443, 1.946214556063666, -0.5047592016026038], [2.4172366946488024, 0.7156836680445154, 1.154549723047777, -1.003288084855231, 0.8189784942826137, 1.9548343707323765, -0.49852890463985733]], "attachments": [], "link_path": {"eef_tcp_frame": [[[1.398950219154358, -0.6844438910484314, 0.5917235016822815], [-0.542718768119812, 0.7001004815101624, 0.36672425270080566, -0.2843044400215149]], [[1.4055076837539673, -0.6866049766540527, 0.5966090559959412], [-0.542698323726654, 0.7001436352729797, 0.3667683005332947, -0.28418031334877014]], [[1.412379264831543, -0.6884815096855164, 0.601567804813385], [-0.5426934957504272, 0.7001533508300781, 0.36677810549736023, -0.28415295481681824]], [[1.419281005859375, -0.6903303265571594, 0.6065335273742676], [-0.542690098285675, 0.7001597881317139, 0.36678460240364075, -0.28413525223731995]], [[1.4261783361434937, -0.6921826004981995, 0.6114978194236755], [-0.5426863431930542, 0.7001667022705078, 0.36679142713546753, -0.28411659598350525]], [[1.4330651760101318, -0.694043755531311, 0.616459310054779], [-0.5426819920539856, 0.7001745700836182, 0.3667992651462555, -0.2840953767299652]], [[1.4399384260177612, -0.6959162354469299, 0.6214171051979065], [-0.5426768660545349, 0.7001836895942688, 0.3668084144592285, -0.28407078981399536]], [[1.446795105934143, -0.6978024840354919, 0.6263704895973206], [-0.5426706075668335, 0.7001944780349731, 0.3668191134929657, -0.2840421199798584]], [[1.4536316394805908, -0.6997056007385254, 0.6313183307647705], [-0.5426632761955261, 0.7002071142196655, 0.3668319284915924, -0.28400862216949463]]]}}], [{"element": 4, "tag": "place_approach", "path": [[0.7347500591365651, 0.055308702422396314, -0.5164094530649302, 0.9335015856745162, -0.03287835618507766, 0.7505210273232044, 0.46247684115043863], [0.7347500591365651, -0.07927513234184548, -0.5639329030010879, 0.9735154142573939, 0.37252275915623395, 0.6970011169075203, 0.2656438035357481], [0.7347500591365651, -0.2116441385849313, -0.5964135836510462, 1.0311740415380473, 0.8045825181206027, 0.7086539150077834, 0.04763508760417548], [0.7347500591365651, -0.32791721536847906, -0.6109613556093084, 1.1033528240156911, 1.2051205441297004, 0.7771325100403093, -0.12907390948357614]], "attachments": [{"parent_name": "ECL_robot1_with_track", "parent_link_name": "eef_tcp_frame", "grasp_pose": [[-6.079673767089844e-06, -0.07262420654296875, 5.960464477539063e-08], [0.49999886751174927, -0.5000004172325134, 0.5000012516975403, 0.4999997019767761]], "child_name": "body243"}], "link_path": {"eef_tcp_frame": [[[1.0646798610687256, -0.6871540546417236, 0.6275284290313721], [0.18872179090976715, 0.9613099694252014, 0.03831331431865692, 0.1969754695892334]], [[1.066487193107605, -0.7010013461112976, 0.6432446241378784], [0.27331623435020447, 0.9231386780738831, 0.16873988509178162, 0.21128205955028534]], [[1.0650722980499268, -0.7211433053016663, 0.6557877659797668], [0.35073569416999817, 0.8611175417900085, 0.295016884803772, 0.22005964815616608]], [[1.060193657875061, -0.7457659244537354, 0.6632125973701477], [0.41901856660842896, 0.7768003344535828, 0.4137600064277649, 0.22317570447921753]]]}}, {"element": 4, "tag": "place_retreat", "path": [[0.7347500591365651, -0.32801628186563625, -0.6107443890882839, 1.1033798586883572, 1.2055036646075405, 0.7771822759892948, -0.1296046456276318], [0.7347500591365651, -0.3358420119990716, -0.6198375264103729, 1.1038340902342576, 1.196470943079012, 0.7868244655360898, -0.12194517321626523], [0.7347500591365651, -0.3436272978794065, -0.6291327671540982, 1.1041624449875829, 1.1871727456179162, 0.7965605099488045, -0.11382637625549939], [0.7347500591365651, -0.35149754331691513, -0.6383319288440858, 1.1044033661114552, 1.1781323531176806, 0.8064415133055088, -0.10596738350386026], [0.7347500591365651, -0.3594602717843153, -0.6474168825442396, 1.1045586824303548, 1.1693726570899652, 0.8164665614128104, -0.09840237330478915], [0.7347500591365651, -0.36751648894171, -0.6563835258411781, 1.1046285691247437, 1.1608919791439578, 0.8266315080177381, -0.09113139629120973], [0.7347500591365651, -0.375666842407082, -0.6652284872532743, 1.104613160901725, 1.1526871969173105, 0.8369320406815841, -0.0841526222249774], [0.7347500591365651, -0.38391192522248924, -0.6739485003309841, 1.1045126239910963, 1.1447548389729185, 0.8473638447236479, -0.07746387556037983], [0.7347500591365651, -0.3922603130673161, -0.6825209420838481, 1.1043288537590104, 1.1371196395907628, 0.8579246277864278, -0.07110427313741058]], "attachments": [], "link_path": {"eef_tcp_frame": [[[1.060268759727478, -0.7458279132843018, 0.6631069779396057], [0.41898009181022644, 0.7767882347106934, 0.41381141543388367, 0.22319477796554565]], [[1.0543087720870972, -0.7499025464057922, 0.6678383946418762], [0.41892606019973755, 0.7767711281776428, 0.4138832688331604, 0.2232223004102707]], [[1.0482392311096191, -0.7538937926292419, 0.6727219820022583], [0.4189259707927704, 0.7767717242240906, 0.413882851600647, 0.22322122752666473]], [[1.0421648025512695, -0.7578803300857544, 0.6776121854782104], [0.4189285337924957, 0.7767729759216309, 0.41387900710105896, 0.2232191562652588]], [[1.036090612411499, -0.7618664503097534, 0.6825019717216492], [0.41893109679222107, 0.7767741680145264, 0.4138752222061157, 0.2232172191143036]], [[1.0300166606903076, -0.7658525109291077, 0.6873911023139954], [0.418933629989624, 0.7767752408981323, 0.4138716757297516, 0.22321553528308868]], [[1.0239430665969849, -0.7698384523391724, 0.6922795176506042], [0.41893601417541504, 0.776776134967804, 0.4138683080673218, 0.2232140153646469]], [[1.0178699493408203, -0.7738243341445923, 0.6971673369407654], [0.41893821954727173, 0.7767769694328308, 0.4138651490211487, 0.22321270406246185]], [[1.011804461479187, -0.7778158187866211, 0.7020460367202759], [0.4189370274543762, 0.776776909828186, 0.4138663113117218, 0.22321303188800812]]]}}], [{"element": 5, "tag": "place_approach", "path": [[1.4207186185843819, 0.8691669674869004, 0.31535670070569627, 0.17477835798162364, -0.4159136717581354, 1.252921248588686, 1.6301631335653735], [1.4207186185843819, 0.8735182313856593, 0.3337500531780829, 0.16402141979402174, -0.4172979104499217, 1.281156837108412, 1.5887542808334774], [1.4207186185843819, 0.8780298702891768, 0.35176565627002837, 0.1540204862706821, -0.41982558434323425, 1.3090980324792645, 1.5478788250747435], [1.4207186185843819, 0.8827058755900922, 0.3692876186127556, 0.1449570423113552, -0.4235028865277498, 1.3365718092101933, 1.5075413355243585], [1.4207186185843819, 0.8875317979866604, 0.3862856125359204, 0.13686078444105207, -0.4282808423738578, 1.3635299884411465, 1.4676584634212129], [1.4207186185843819, 0.8924941794931177, 0.4027307435262678, 0.12975870738786882, -0.4341164969620489, 1.389928333629519, 1.4281540001008088], [1.4207186185843819, 0.8975796111433936, 0.41859641530245373, 0.12367418575391223, -0.44097185755935336, 1.4157260268411462, 1.3889579602474773], [1.4207186185843819, 0.9027754725769712, 0.4338575573693722, 0.11862771017377427, -0.4488143965870632, 1.4408849606781637, 1.3500067190151859], [1.4207186185843819, 0.9080693437100109, 0.44849066509523017, 0.11463675611497051, -0.45761454059158696, 1.4653698448594343, 1.3112419146447611], [1.4207186185843819, 0.9134493967413803, 0.46247441814409657, 0.11171510848944483, -0.46734703590983784, 1.489148320906497, 1.2726105466253723], [1.4207186185843819, 0.9189050712646171, 0.4757670445953266, 0.10990811552392858, -0.4779950486243427, 1.5121639092621701, 1.2340750127129871], [1.4207186185843819, 0.9244227590592728, 0.4883964264120337, 0.10914965242275688, -0.48952641425928206, 1.5344442346556426, 1.195568875443316], [1.4207186185843819, 0.9299924317530424, 0.50032344495738, 0.10947984311654224, -0.5019294875117788, 1.555935853106952, 1.1570632505586964], [1.4207186185843819, 0.935603282035277, 0.5115331434763525, 0.1108987800656782, -0.5151880313977046, 1.5766149265059823, 1.1185222008575], [1.4207186185843819, 0.9412442465355217, 0.5220138606109808, 0.11340120731152419, -0.5292869536788104, 1.5964612597298113, 1.079912226929153], [1.4207186185843819, 0.9469059175309863, 0.5317328914940549, 0.11701341297088952, -0.5442170380863914, 1.615431015727319, 1.0412155311055684], [1.4207186185843819, 0.9525747860391217, 0.5407271133326099, 0.12165102134778508, -0.5599549703346856, 1.6335598074342625, 1.0023804334838926]], "attachments": [{"parent_name": "ECL_robot1_with_track", "parent_link_name": "eef_tcp_frame", "grasp_pose": [[-3.4570693969726562e-06, -0.1764267086982727, 6.556510925292969e-07], [0.5000002384185791, 0.5000012516975403, 0.4999997615814209, -0.49999871850013733]], "child_name": "body244"}], "link_path": {"eef_tcp_frame": [[[1.2138370275497437, -0.28491875529289246, 0.6301766037940979], [0.28667572140693665, 0.93525230884552, -0.13977110385894775, 0.1535717099905014]], [[1.209672212600708, -0.28234732151031494, 0.6184123754501343], [0.26616308093070984, 0.9392770528793335, -0.15953390300273895, 0.14650854468345642]], [[1.205244541168213, -0.28023865818977356, 0.6068182587623596], [0.24540960788726807, 0.9424795508384705, -0.17918527126312256, 0.1392805576324463]], [[1.2005162239074707, -0.27864959836006165, 0.5953765511512756], [0.22444044053554535, 0.9448531866073608, -0.19867916405200958, 0.13193023204803467]], [[1.1955097913742065, -0.2775835692882538, 0.5841161012649536], [0.20327407121658325, 0.9463958740234375, -0.21799834072589874, 0.12446405738592148]], [[1.190247893333435, -0.27704182267189026, 0.5730654001235962], [0.18192894756793976, 0.9471063017845154, -0.23712579905986786, 0.1168886125087738]], [[1.1847552061080933, -0.2770237922668457, 0.5622520446777344], [0.16042397916316986, 0.946983814239502, -0.25604474544525146, 0.10921037197113037]], [[1.1790566444396973, -0.27752697467803955, 0.5517030358314514], [0.13877791166305542, 0.9460285305976868, -0.2747385501861572, 0.1014363020658493]], [[1.17317795753479, -0.2785472273826599, 0.5414441823959351], [0.11700987815856934, 0.9442415237426758, -0.29319068789482117, 0.09357299655675888]], [[1.1671452522277832, -0.2800784111022949, 0.5315002799034119], [0.09513898193836212, 0.941624104976654, -0.31138503551483154, 0.08562742918729782]], [[1.1609731912612915, -0.28212985396385193, 0.5218884348869324], [0.07318393141031265, 0.9381802082061768, -0.32929983735084534, 0.07761265337467194]], [[1.154714822769165, -0.2846565246582031, 0.5126456618309021], [0.05116509273648262, 0.9339097142219543, -0.34693124890327454, 0.06952323764562607]], [[1.1483848094940186, -0.28766506910324097, 0.5037855505943298], [0.02910127118229866, 0.9288180470466614, -0.36425772309303284, 0.061372581869363785]], [[1.1420104503631592, -0.29114267230033875, 0.4953281283378601], [0.007011895067989826, 0.9229095578193665, -0.3812636137008667, 0.05316814407706261]], [[1.1356202363967896, -0.2950745224952698, 0.48729178309440613], [-0.015083642676472664, 0.9161896109580994, -0.3979342579841614, 0.04491686820983887]], [[1.1292296648025513, -0.299462229013443, 0.47968822717666626], [-0.03716646134853363, 0.9086657762527466, -0.41425013542175293, 0.036632560193538666]], [[1.12289297580719, -0.30425047874450684, 0.47254469990730286], [-0.05921585485339165, 0.9003410935401917, -0.4302070140838623, 0.02830907516181469]]]}}, {"element": 5, "tag": "place_retreat", "path": [[1.4207186185843819, 0.9525735313595667, 0.5407463196253404, 0.12162060511432153, -0.5599510109086528, 1.6335815594490568, 1.0023696024841513], [1.4207186185843819, 0.9550761649085661, 0.5421707633785855, 0.11452841049003921, -0.5585088466162152, 1.639423591247798, 1.0010372285196931], [1.4207186185843819, 0.9575651462502102, 0.5436584495633366, 0.10735753335720853, -0.5570905371088042, 1.645290346427592, 0.9997018505540898], [1.4207186185843819, 0.9600407503604004, 0.5451933736770732, 0.10013181961491481, -0.5556991971030397, 1.651164419575862, 0.9983683355100557], [1.4207186185843819, 0.9625030615141653, 0.5467754420106803, 0.09285112687146874, -0.5543347779490254, 1.6570458176229972, 0.997036328810912], [1.4207186185843819, 0.9649521570767011, 0.5484047511423539, 0.08551501603498443, -0.5529972039508024, 1.662934756709181, 0.9957053944078559], [1.4207186185843819, 0.9673881141438461, 0.5500814096830821, 0.07812302637613776, -0.551686407651962, 1.668831464457089, 0.9943750922249428], [1.4207186185843819, 0.9698110096134741, 0.5518055365082476, 0.07067467823099793, -0.5504023303934656, 1.6747361777516112, 0.993044978796055], [1.4207186185843819, 0.9722209143678565, 0.5535772428848261, 0.06316948204049094, -0.5491448982444972, 1.6806491048308085, 0.9917146018463321]], "attachments": [], "link_path": {"eef_tcp_frame": [[[1.1229041814804077, -0.30423450469970703, 0.4725494682788849], [-0.05921529605984688, 0.9003394246101379, -0.43021100759506226, 0.028303328901529312]], [[1.1220039129257202, -0.2975001335144043, 0.47804322838783264], [-0.05921689793467522, 0.9003409147262573, -0.43020719289779663, 0.028307614848017693]], [[1.1211117506027222, -0.290752112865448, 0.4835398197174072], [-0.05921696871519089, 0.9003410339355469, -0.4302069842815399, 0.028307873755693436]], [[1.1202195882797241, -0.28400397300720215, 0.4890364706516266], [-0.059217020869255066, 0.9003410935401917, -0.4302067458629608, 0.028308087959885597]], [[1.119327425956726, -0.2772558331489563, 0.49453306198120117], [-0.05921708047389984, 0.9003412127494812, -0.4302065372467041, 0.028308313339948654]], [[1.118435263633728, -0.2705077528953552, 0.5000296831130981], [-0.05921715497970581, 0.9003413319587708, -0.4302063286304474, 0.028308546170592308]], [[1.1175429821014404, -0.2637597322463989, 0.5055262446403503], [-0.059217218309640884, 0.9003414511680603, -0.43020614981651306, 0.028308790177106857]], [[1.1166508197784424, -0.257011741399765, 0.5110228061676025], [-0.05921728163957596, 0.9003415703773499, -0.4302058517932892, 0.028309036046266556]], [[1.1157585382461548, -0.2502637803554535, 0.5165193676948547], [-0.05921734496951103, 0.9003416299819946, -0.4302055537700653, 0.028309296816587448]]]}}], [{"element": 33, "tag": "place_approach", "path": [[0.8859949192616117, -0.5889465793558533, 0.8816122027264871, -0.5823657296857213, -0.8571646648407, 1.7361186527638819, 0.017891673907778603], [0.8859949192616117, -0.6216139870115499, 0.8391539066727466, -0.5639216594012548, -0.6987899344706828, 1.6133063246110082, -0.09876693398589984], [0.8859949192616117, -0.6607593058769947, 0.8107118136030883, -0.5550377995568528, -0.5243225536690245, 1.5122262338806631, -0.23756654613787387], [0.8859949192616117, -0.7040685660103794, 0.7985708211727285, -0.5571220892857519, -0.33344767419733634, 1.4406346526780676, -0.3956736699423579], [0.8859949192616117, -0.7487533387185963, 0.8040100520673873, -0.5710921250059675, -0.13028109904248175, 1.4051019849922368, -0.566181217365657], [0.8859949192616117, -0.7918544752325253, 0.8269435589515942, -0.5969486880127817, 0.07717367091957664, 1.408588619226401, -0.7383662547515013]], "attachments": [{"parent_name": "ECL_robot1_with_track", "parent_link_name": "eef_tcp_frame", "grasp_pose": [[-5.245208740234375e-06, 0.13718318939208984, 2.980232238769531e-07], [0.49999868869781494, 0.5000001192092896, 0.5000013113021851, -0.49999988079071045]], "child_name": "body272"}], "link_path": {"eef_tcp_frame": [[[1.5455412864685059, -2.3717801570892334, 0.6964941620826721], [0.2379196137189865, 0.8530100584030151, -0.3388916552066803, -0.3176800012588501]], [[1.5462158918380737, -2.39327335357666, 0.6832703948020935], [0.20138296484947205, 0.9065016508102417, -0.2658105790615082, -0.2589292824268341]], [[1.5509147644042969, -2.4115352630615234, 0.667186439037323], [0.16220723092556, 0.9482288360595703, -0.18932953476905823, -0.1967363804578781]], [[1.5599039793014526, -2.4260003566741943, 0.6494633555412292], [0.12092627584934235, 0.9776353240013123, -0.11040323972702026, -0.1319740265607834]], [[1.5731056928634644, -2.436255931854248, 0.6313950419425964], [0.07807916402816772, 0.9943385720252991, -0.030022749677300453, -0.06552193313837051]], [[1.5900088548660278, -2.441922187805176, 0.614199697971344], [0.034220341593027115, 0.9981241822242737, 0.05073331296443939, 0.0017953654751181602]]]}}, {"element": 33, "tag": "place_retreat", "path": [[0.8859949192616117, -0.791854039286206, 0.8271546455386852, -0.5973226652832199, 0.07716812212721827, 1.4088424534534374, -0.7383508853933838], [0.8859949192616117, -0.7921486875362608, 0.8269344722585269, -0.6037782810886813, 0.07706513821700417, 1.4155288597117521, -0.7381197399260621], [0.8859949192616117, -0.7924432325716433, 0.8267615184942986, -0.6103036601521753, 0.07696594774729455, 1.4222274685424676, -0.7378883518654852], [0.8859949192616117, -0.7927376266897047, 0.8266598323566018, -0.6169414342838299, 0.076869983159643, 1.428966673560533, -0.73765495227127], [0.8859949192616117, -0.7930318685948038, 0.8266314201185698, -0.6236951928562169, 0.07677726340804744, 1.4357483368363548, -0.7374193800204664], [0.8859949192616117, -0.7933259115217782, 0.8267008048926936, -0.630608457199653, 0.07668730892284213, 1.4426009086294829, -0.7371798810298945], [0.8859949192616117, -0.7936198458622609, 0.8268250990230189, -0.6376052464957082, 0.07660117397561789, 1.4494730258465132, -0.736939481006111], [0.8859949192616117, -0.7939136295748339, 0.8270264915701804, -0.6447249551003481, 0.07651842235389937, 1.4563904274599873, -0.7366965806824488], [0.8859949192616117, -0.7942072185203102, 0.8273296096425905, -0.6520113423145422, 0.0764386438606922, 1.4633813434144969, -0.7364494408303465]], "attachments": [], "link_path": {"eef_tcp_frame": [[[1.590099811553955, -2.442014694213867, 0.6142407059669495], [0.03421933948993683, 0.9981227517127991, 0.05076395347714424, 0.0017614067764952779]], [[1.5900472402572632, -2.442909002304077, 0.6229490041732788], [0.034219253808259964, 0.9981226325035095, 0.05076674371957779, 0.0017583065200597048]], [[1.5899842977523804, -2.4437928199768066, 0.6316525936126709], [0.03421927988529205, 0.9981225728988647, 0.050766073167324066, 0.001759039587341249]], [[1.5899208784103394, -2.444676160812378, 0.6403559446334839], [0.03421930968761444, 0.9981226921081543, 0.0507652573287487, 0.0017599405255168676]], [[1.5898573398590088, -2.44555926322937, 0.6490591764450073], [0.03421934321522713, 0.9981226921081543, 0.05076437443494797, 0.0017609036294743419]], [[1.5898030996322632, -2.4464521408081055, 0.6577668786048889], [0.03421926870942116, 0.9981226325035095, 0.05076662823557854, 0.0017584004672244191]], [[1.5897397994995117, -2.4473354816436768, 0.6664702296257019], [0.03421929478645325, 0.9981226325035095, 0.05076584964990616, 0.001759246806614101]], [[1.5896761417388916, -2.448218584060669, 0.6751734018325806], [0.03421933576464653, 0.9981226325035095, 0.050764936953783035, 0.0017602562438696623]], [[1.5896211862564087, -2.449110507965088, 0.6838808655738831], [0.034219272434711456, 0.9981225728988647, 0.050766944885253906, 0.0017580357380211353]]]}}], [{"element": 9, "tag": "place_approach", "path": [[2.548122336565377, 0.7618379300034196, 0.8254624958335401, -0.5940075832703748, -0.16296150201030507, 1.3214202686494152, 0.701158714735209], [2.548122336565377, 0.7882999718379314, 0.8749097533102053, -0.6930557726999681, -0.30684728700691066, 1.4125195133265813, 0.6381044317813299], [2.548122336565377, 0.8159896574446256, 0.930775637002632, -0.7957328022551047, -0.4500171890001761, 1.4940318661204257, 0.556669968877372], [2.548122336565377, 0.8441087194601101, 0.984053780795268, -0.8861143918878599, -0.5946734640607638, 1.5542732573787734, 0.4625422163181284], [2.548122336565377, 0.8718582233133186, 1.0328688783551556, -0.9610967430398866, -0.7404917074649235, 1.5915054241818942, 0.3610046406842496], [2.548122336565377, 0.8985041860856386, 1.0725462898094045, -1.0125852165262643, -0.8858938733576827, 1.6035575702841554, 0.259990194371115], [2.548122336565377, 0.9233714703397872, 1.0986488358621695, -1.0330290690129846, -1.0290109161331584, 1.5913395711290097, 0.16827272480447988], [2.548122336565377, 0.9458575879686647, 1.107659861773877, -1.0167163298427364, -1.1692629847111717, 1.5586881172810005, 0.09370807117828778]], "attachments": [{"parent_name": "ECL_robot1_with_track", "parent_link_name": "eef_tcp_frame", "grasp_pose": [[-6.884336471557617e-06, 0.23622334003448486, -4.76837158203125e-07], [0.49999940395355225, 0.5000011920928955, 0.5000007748603821, -0.49999886751174927]], "child_name": "body248"}], "link_path": {"eef_tcp_frame": [[[1.6955392360687256, -1.0404908657073975, 0.6173200011253357], [-0.04960521683096886, 0.9955955743789673, -0.05284886062145233, 0.05946333706378937]], [[1.7210723161697388, -1.0308881998062134, 0.6567891836166382], [-0.09993530809879303, 0.9834592342376709, -0.12151774019002914, 0.08974585682153702]], [[1.744847297668457, -1.0130976438522339, 0.6963156461715698], [-0.14937467873096466, 0.9631500244140625, -0.18961548805236816, 0.11863953620195389]], [[1.7638401985168457, -0.9901760816574097, 0.7336516380310059], [-0.19761638343334198, 0.9348164200782776, -0.2559013068675995, 0.14690300822257996]], [[1.778457522392273, -0.9620421528816223, 0.7680982351303101], [-0.24423035979270935, 0.8986935019493103, -0.32005244493484497, 0.17397700250148773]], [[1.7886154651641846, -0.929390013217926, 0.7987682819366455], [-0.2888084053993225, 0.8550851941108704, -0.38156604766845703, 0.1995655745267868]], [[1.7944225072860718, -0.8929579257965088, 0.8249126672744751], [-0.3309375047683716, 0.8043832182884216, -0.4399498999118805, 0.2233653962612152]], [[1.7957473993301392, -0.8540899157524109, 0.8457542657852173], [-0.3702815771102905, 0.7470182180404663, -0.4946809709072113, 0.24524705111980438]]]}}, {"element": 9, "tag": "place_retreat", "path": [[2.548122336565377, 0.9458562613468608, 1.108077893106335, -1.0174864471034732, -1.1692363839162339, 1.5589019490942808, 0.09337286036220838], [2.548122336565377, 0.9491629100089168, 1.1084157088987454, -1.0207064818330136, -1.1689568450710066, 1.5629631602771026, 0.0920207540102104], [2.548122336565377, 0.9524679489430058, 1.1091697471106576, -1.0246867847334045, -1.168673559505029, 1.5672189398461196, 0.09034462403792809], [2.548122336565377, 0.9557720049880819, 1.1101138540058515, -1.0290106817097817, -1.1684031298650293, 1.5715525990747345, 0.08852600698512544], [2.548122336565377, 0.9590752227973385, 1.1111825641933655, -1.0335575344587549, -1.1681508602782162, 1.5759299928721588, 0.08661738282022348], [2.548122336565377, 0.9623776004706418, 1.1123579744981906, -1.038294328950621, -1.1679189211029772, 1.5803413304186764, 0.08463305308320018], [2.548122336565377, 0.9656790913218137, 1.1136365477683265, -1.0432145207372203, -1.167708634489955, 1.5847841225520523, 0.08257579078821926], [2.548122336565377, 0.9689796350857471, 1.115019266384229, -1.0483198959450735, -1.1675211178632847, 1.589258133457098, 0.08044473778079977], [2.548122336565377, 0.9722791641318789, 1.1165086942437648, -1.053615171181641, -1.1673574283184198, 1.593763895903449, 0.0782377923069356]], "attachments": [], "link_path": {"eef_tcp_frame": [[[1.7958307266235352, -0.8539729118347168, 0.8457887172698975], [-0.37026768922805786, 0.7470298409461975, -0.4946911036968231, 0.24521203339099884]], [[1.7893160581588745, -0.8492417335510254, 0.8491603136062622], [-0.37028512358665466, 0.7470152974128723, -0.4946783483028412, 0.24525582790374756]], [[1.782866358757019, -0.8444198369979858, 0.8525584936141968], [-0.3702918291091919, 0.7470097541809082, -0.4946735203266144, 0.24527233839035034]], [[1.7764354944229126, -0.8395718932151794, 0.8559643030166626], [-0.3702954053878784, 0.7470068335533142, -0.49467095732688904, 0.24528101086616516]], [[1.7700097560882568, -0.8347170352935791, 0.859372079372406], [-0.3702981770038605, 0.7470046281814575, -0.4946689009666443, 0.24528753757476807]], [[1.763584852218628, -0.8298611640930176, 0.8627801537513733], [-0.370300829410553, 0.7470024824142456, -0.494667112827301, 0.2452937215566635]], [[1.7571595907211304, -0.8250060677528381, 0.8661879301071167], [-0.37030360102653503, 0.7470003366470337, -0.4946652054786682, 0.2453000694513321]], [[1.750733494758606, -0.8201525807380676, 0.8695951700210571], [-0.37030652165412903, 0.7469980120658875, -0.4946631193161011, 0.24530678987503052]], [[1.7443063259124756, -0.8153010010719299, 0.8730018138885498], [-0.3703096807003021, 0.7469955682754517, -0.49466100335121155, 0.24531400203704834]]]}}], [{"element": 26, "tag": "place_approach", "path": [[0.9637118169741018, -0.716384953188955, -0.054465734372446756, 0.5449324281973987, 0.32524938600205533, 1.3495075178407583, 0.97610378757396], [0.9637118169741018, -0.7166303195269282, -0.08246691293488372, 0.57388500049589, 0.3257262023153138, 1.2815650693881087, 0.7818117151426859], [0.9637118169741018, -0.7200674294924372, -0.10772767303321933, 0.6025307656282388, 0.33989522685743323, 1.2136315133527449, 0.5793358931596544], [0.9637118169741018, -0.7264322686200556, -0.129151966686387, 0.6299024896101277, 0.3690042437465531, 1.1485081060438205, 0.3666612326117645], [0.9637118169741018, -0.7353142459663565, -0.14576669887315968, 0.6551230375674046, 0.41386046276803934, 1.08933987242804, 0.14207719400502186], [0.9637118169741018, -0.7461051873246017, -0.15676228875958775, 0.6773672896459849, 0.47424106288238344, 1.0395472790995133, -0.09513529754394855]], "attachments": [{"parent_name": "ECL_robot1_with_track", "parent_link_name": "eef_tcp_frame", "grasp_pose": [[-6.9141387939453125e-06, 0.0790800154209137, 5.960464477539063e-08], [0.499999076128006, 0.5000008940696716, 0.5000010132789612, -0.4999990463256836]], "child_name": "body265"}], "link_path": {"eef_tcp_frame": [[[1.0060516595840454, -1.6307185888290405, 0.6795650720596313], [0.7696272134780884, 0.6058989763259888, 0.1333405077457428, -0.15093249082565308]], [[1.00553297996521, -1.6340405941009521, 0.6680701971054077], [0.7138016223907471, 0.6768229007720947, 0.14662334322929382, -0.10440116375684738]], [[1.0080727338790894, -1.6379525661468506, 0.6572418212890625], [0.6504743695259094, 0.7406561970710754, 0.15839731693267822, -0.056760210543870926]], [[1.0136724710464478, -1.6419012546539307, 0.6474881172180176], [0.5803229212760925, 0.7967172265052795, 0.16850632429122925, -0.008526526391506195]], [[1.0221519470214844, -1.6453367471694946, 0.6391330361366272], [0.504082977771759, 0.8444185256958008, 0.17684555053710938, 0.039793506264686584]], [[1.0332099199295044, -1.6477317810058594, 0.6324412226676941], [0.42255380749702454, 0.8832601308822632, 0.1833297312259674, 0.08769283443689346]]]}}, {"element": 26, "tag": "place_retreat", "path": [[0.9637118169741018, -0.7461314158586808, -0.15675648055123523, 0.6773779621404438, 0.4742801426386325, 1.0395451693397229, -0.09520204165523419], [0.9637118169741018, -0.7490859980719087, -0.160430260012321, 0.6738609985535361, 0.47236505293308695, 1.047078966585092, -0.09416835108800334], [0.9637118169741018, -0.7519791771443967, -0.16402337211192383, 0.670205723361283, 0.4703606154281229, 1.0546831132527867, -0.09297188147617445], [0.9637118169741018, -0.7548699490367347, -0.16754313925039718, 0.6664936928318302, 0.46839608767466373, 1.0622784182612828, -0.09180828420379537], [0.9637118169741018, -0.7577628356675034, -0.1709893408935051, 0.6627280587700792, 0.4664777100552129, 1.0698631770301394, -0.09068859234806394], [0.9637118169741018, -0.7606580695570925, -0.17436210787839954, 0.6589092482861101, 0.4646049058672366, 1.0774370161910158, -0.08961248895057503], [0.9637118169741018, -0.7635556177417137, -0.17766162823826542, 0.6550375626778229, 0.4627767301416242, 1.084999615412892, -0.08857900657255482], [0.9637118169741018, -0.7664554316043186, -0.1808881047445656, 0.6511132942753439, 0.46099224008631096, 1.0925506742486437, -0.08758716044497428], [0.9637118169741018, -0.7693574599585888, -0.18404174522763067, 0.6471367261783878, 0.45925050772132875, 1.1000899222374954, -0.08663597684048828]], "attachments": [], "link_path": 