{"problem": ["SP_arch.json"], "config": [{"bar_only": false, "stiffness": true, "collision": true, "teleops": false, "partial_ordering": false, "chosen_bars": null}], "write_time": ["2020-12-30 12:16:21.265050"], "parameters": [{"trans_tol": 0.005, "rot_tol": Infinity, "joint_resolution": [0.05, 0.05395, 0.036250000000000004, 0.061244999999999994, 0.045865, 0.18770499999999998, 0.06565], "joint_weight": [10.0, 0.38197097020626436, 0.38197097020626436, 0.38197097020626436, 0.15915457091927682, 0.15915457091927682, 0.12732365673542145], "joint_jump_threshold": 1.0471975511965976, "enable_self_collisions": true, "pos_step_size": 0.01, "ori_step_size": 0.17453292519943295, "retreat_distance": 0.07}], "plan": [[{"element": 36, "tag": "transfer", "path": [[0.0, 0.0, 0.0, 0.0, 0.0, 0.0, 0.0], [0.08503561849947544, 0.014835312977393374, 0.015329033169792339, 0.006597461963307243, 0.012140884424978432, 0.02135269068720138, -0.05436066841279083], [0.12755342774921316, 0.02225296946609006, 0.022993549754688508, 0.009896192944960865, 0.018211326637467648, 0.032029036030802066, -0.08154100261918625], [0.17007123699895088, 0.02967062595478675, 0.030658066339584678, 0.013194923926614487, 0.024281768849956864, 0.04270538137440276, -0.10872133682558166], [0.2125890462486886, 0.03708828244348344, 0.03832258292448085, 0.01649365490826811, 0.03035221106244608, 0.053381726718003446, -0.1359016710319771], [0.2551068554984263, 0.04450593893218013, 0.045987099509377016, 0.019792385889921733, 0.036422653274935296, 0.06405807206160413, -0.16308200523837252], [0.297624664748164, 0.051923595420876816, 0.053651616094273186, 0.023091116871575355, 0.04249309548742451, 0.07473441740520483, -0.19026233944476795], [0.3401424739979017, 0.059341251909573504, 0.061316132679169355, 0.026389847853228975, 0.04856353769991373, 0.08541076274880552, -0.21744267365116338], [0.38266028324763945, 0.06675890839827019, 0.06898064926406552, 0.029688578834882597, 0.054633979912402944, 0.09608710809240621, -0.2446230078575588], [0.42517809249737715, 0.07417656488696688, 0.0766451658489617, 0.03298730981653622, 0.06070442212489216, 0.1067634534360069, -0.27180334206395423], [0.46769590174711484, 0.08159422137566356, 0.08430968243385786, 0.03628604079818984, 0.06677486433738138, 0.1174397987796076, -0.29898367627034966], [0.5102137109968525, 0.08901187786436025, 0.09197419901875403, 0.03958477177984346, 0.07284530654987059, 0.1281161441232083, -0.3261640104767451], [0.5527315202465902, 0.09642953435305694, 0.0996387156036502, 0.04288350276149708, 0.07891574876235981, 0.13879248946680897, -0.3533443446831405], [0.5952493294963279, 0.10384719084175363, 0.10730323218854637, 0.0461822337431507, 0.08498619097484902, 0.14946883481040965, -0.38052467888953595], [0.6377671387460656, 0.11126484733045032, 0.11496774877344254, 0.049480964724804316, 0.09105663318733824, 0.16014518015401033, -0.4077050130959314], [0.6802849479958033, 0.11868250381914701, 0.12263226535833871, 0.052779695706457935, 0.09712707539982746, 0.170821525497611, -0.4348853473023268], [0.722802757245541, 0.12610016030784368, 0.13029678194323488, 0.056078426688111555, 0.10319751761231667, 0.1814978708412117, -0.46206568150872224], [0.7653205664952787, 0.13351781679654037, 0.13796129852813105, 0.059377157669765174, 0.10926795982480589, 0.19217421618481237, -0.48924601571511767], [0.8078383757450164, 0.14093547328523706, 0.14562581511302722, 0.06267588865141879, 0.1153384020372951, 0.20285056152841305, -0.516426349921513], [0.8503561849947541, 0.14835312977393375, 0.1532903316979234, 0.06597461963307241, 0.12140884424978432, 0.21352690687201373, -0.5436066841279085], [0.8928739942444918, 0.15577078626263044, 0.16095484828281956, 0.06927335061472603, 0.12747928646227352, 0.2242032522156144, -0.5707870183343039], [0.9353918034942295, 0.16318844275132713, 0.16861936486771573, 0.07257208159637965, 0.13354972867476275, 0.2348795975592151, -0.5979673525406993], [0.9779096127439671, 0.17060609924002382, 0.1762838814526119, 0.07587081257803327, 0.13962017088725198, 0.24555594290281577, -0.6251476867470948], [1.0204274219937048, 0.1780237557287205, 0.18394839803750807, 0.07916954355968689, 0.14569061309974118, 0.2562322882464165, -0.6523280209534902], [1.0629452312434426, 0.1854414122174172, 0.19161291462240423, 0.08246827454134051, 0.15176105531223041, 0.26690863359001715, -0.6795083551598856], [1.1054630404931804, 0.19285906870611388, 0.1992774312073004, 0.08576700552299413, 0.15783149752471964, 0.27758497893361783, -0.706688689366281], [1.1479808497429183, 0.20027672519481057, 0.20694194779219657, 0.08906573650464775, 0.16390193973720885, 0.2882613242772185, -0.7338690235726765], [1.190498658992656, 0.20769438168350726, 0.21460646437709274, 0.09236446748630137, 0.16997238194969808, 0.2989376696208192, -0.7610493577790719], [1.2330164682423939, 0.21511203817220395, 0.2222709809619889, 0.09566319846795499, 0.17604282416218728, 0.30961401496441987, -0.7882296919854673], [1.2755342774921317, 0.22252969466090064, 0.22993549754688508, 0.0989619294496086, 0.1821132663746765, 0.32029036030802055, -0.8154100261918628], [1.3180520867418695, 0.22994735114959733, 0.23760001413178125, 0.10226066043126222, 0.1881837085871657, 0.33096670565162123, -0.8425903603982582], [1.3605698959916073, 0.23736500763829402, 0.24526453071667742, 0.10555939141291584, 0.19425415079965494, 0.3416430509952219, -0.8697706946046536], [1.403087705241345, 0.2447826641269907, 0.2529290473015736, 0.10885812239456946, 0.20032459301214417, 0.3523193963388226, -0.896951028811049], [1.4456055144910829, 0.25220032061568737, 0.2605935638864698, 0.11215685337622308, 0.20639503522463337, 0.36299574168242327, -0.9241313630174445], [1.4881233237408207, 0.25961797710438406, 0.26825808047136596, 0.1154555843578767, 0.21246547743712257, 0.37367208702602395, -0.9513116972238399], [1.5306411329905583, 0.26703563359308075, 0.2759225970562621, 0.11875431533953032, 0.21853591964961178, 0.3843484323696246, -0.9784920314302353], [1.573158942240296, 0.27445329008177743, 0.2835871136411583, 0.12205304632118394, 0.224606361862101, 0.3950247777132253, -1.0056723656366306], [1.6156767514900339, 0.2818709465704741, 0.2912516302260545, 0.12535177730283756, 0.23067680407459024, 0.405701123056826, -1.032852699843026], [1.6581945607397715, 0.2892886030591708, 0.29891614681095063, 0.12865050828449118, 0.23674724628707944, 0.41637746840042666, -1.0600330340494215], [1.7007123699895093, 0.2967062595478675, 0.3065806633958468, 0.1319492392661448, 0.24281768849956864, 0.42705381374402734, -1.087213368255817], [1.743230179239247, 0.3041239160365642, 0.314245179980743, 0.13524797024779842, 0.24888813071205787, 0.437730159087628, -1.1143937024622124], [1.7857479884889846, 0.3115415725252609, 0.32190969656563917, 0.13854670122945204, 0.2549585729245471, 0.4484065044312287, -1.1415740366686078], [1.8282657977387222, 0.31895922901395757, 0.3295742131505353, 0.14184543221110565, 0.2610290151370363, 0.4590828497748294, -1.1687543708750032], [1.87078360698846, 0.32637688550265426, 0.33723872973543145, 0.14514416319275927, 0.2670994573495255, 0.46975919511843006, -1.1959347050813987], [1.9133014162381978, 0.33379454199135095, 0.34490324632032765, 0.1484428941744129, 0.2731698995620147, 0.48043554046203074, -1.223115039287794], [1.9558192254879354, 0.34121219848004763, 0.35256776290522385, 0.1517416251560665, 0.2792403417745039, 0.4911118858056314, -1.2502953734941895], [1.998337034737673, 0.3486298549687443, 0.36023227949012, 0.15504035613772013, 0.2853107839869931, 0.5017882311492321, -1.277475707700585], [2.0408548439874106, 0.356047511457441, 0.36789679607501613, 0.15833908711937375, 0.2913812261994823, 0.5124645764928328, -1.3046560419069804], [2.083372653237148, 0.3634651679461377, 0.3755613126599123, 0.16163781810102737, 0.2974516684119715, 0.5231409218364336, -1.3318363761133758], [2.1258904624868857, 0.3708828244348344, 0.3832258292448085, 0.164936549082681, 0.3035221106244607, 0.5338172671800343, -1.3590167103197712], [2.1684082717366233, 0.3783004809235311, 0.39089034582970467, 0.1682352800643346, 0.3095925528369499, 0.544493612523635, -1.3861970445261667], [2.210926080986361, 0.38571813741222777, 0.3985548624146008, 0.17153401104598823, 0.3156629950494391, 0.5551699578672358, -1.413377378732562], [2.2534438902360985, 0.39313579390092446, 0.406219378999497, 0.17483274202764185, 0.3217334372619283, 0.5658463032108365, -1.4405577129389575], [2.295961699485836, 0.40055345038962115, 0.4138838955843932, 0.17813147300929547, 0.3278038794744175, 0.5765226485544372, -1.467738047145353], [2.3384795087355736, 0.40797110687831784, 0.42154841216928934, 0.18143020399094908, 0.3338743216869067, 0.587198993898038, -1.4949183813517484], [2.3809973179853112, 0.4153887633670145, 0.4292129287541855, 0.1847289349726027, 0.33994476389939593, 0.5978753392416387, -1.5220987155581438], [2.423515127235049, 0.4228064198557112, 0.4368774453390817, 0.18802766595425632, 0.34601520611188513, 0.6085516845852394, -1.5492790497645392], [2.4660329364847864, 0.4302240763444079, 0.4445419619239779, 0.19132639693590994, 0.35208564832437433, 0.6192280299288402, -1.5764593839709347], [2.508550745734524, 0.4376417328331046, 0.452206478508874, 0.19462512791756356, 0.35815609053686354, 0.6299043752724408, -1.60363971817733], [2.5510685549842615, 0.4450593893218013, 0.45987099509377016, 0.19792385889921718, 0.3642265327493528, 0.6405807206160414, -1.6308200523837255], [2.593586364233999, 0.45247704581049797, 0.46753551167866636, 0.2012225898808708, 0.370296974961842, 0.6512570659596422, -1.658000386590121], [2.636104173483737, 0.45989470229919466, 0.47520002826356256, 0.20452132086252442, 0.3763674171743312, 0.6619334113032429, -1.6851807207965164], [2.6786219827334747, 0.46731235878789135, 0.4828645448484587, 0.20782005184417804, 0.38243785938682046, 0.6726097566468435, -1.7123610550029118], [2.7211397919832123, 0.47473001527658804, 0.49052906143335484, 0.21111878282583166, 0.3885083015993097, 0.6832861019904442, -1.7395413892093072], [2.7636576012329503, 0.4821476717652847, 0.49819357801825104, 0.21441751380748528, 0.3945787438117989, 0.6939624473340449, -1.7667217234157027], [2.8061754104826884, 0.4895653282539814, 0.5058580946031472, 0.2177162447891389, 0.4006491860242881, 0.7046387926776456, -1.793902057622098], [2.848693219732426, 0.4969829847426781, 0.5135226111880434, 0.22101497577079252, 0.4067196282367774, 0.7153151380212462, -1.8210823918284935], [2.8912110289821635, 0.5044006412313747, 0.5211871277729396, 0.22431370675244616, 0.41279007044926663, 0.7259914833648469, -1.848262726034889], [2.9337288382319016, 0.5118182977200714, 0.5288516443578358, 0.22761243773409978, 0.41886051266175583, 0.7366678287084476, -1.8754430602412844], [2.9762466474816396, 0.5192359542087681, 0.536516160942732, 0.2309111687157534, 0.42493095487424504, 0.7473441740520483, -1.9026233944476798], [3.018764456731377, 0.5266536106974647, 0.5441806775276282, 0.23420989969740705, 0.4310013970867343, 0.758020519395649, -1.9298037286540752], [3.0612822659811147, 0.5340712671861614, 0.5518451941125244, 0.2375086306790607, 0.43707183929922355, 0.7686968647392496, -1.9569840628604704], [3.1038000752308528, 0.5414889236748581, 0.5595097106974205, 0.24080736166071431, 0.44314228151171275, 0.7793732100828503, -1.9841643970668659], [3.146317884480591, 0.5489065801635549, 0.5671742272823166, 0.24410609264236793, 0.44921272372420196, 0.7900495554264511, -2.0113447312732613], [3.1888356937303284, 0.5563242366522515, 0.5748387438672128, 0.24740482362402158, 0.4552831659366912, 0.8007259007700517, -2.0385250654796567], [3.231353502980066, 0.5637418931409481, 0.582503260452109, 0.2507035546056752, 0.46135360814918047, 0.8114022461136523, -2.0657053996860517], [3.273871312229804, 0.5711595496296449, 0.5901677770370051, 0.25400228558732885, 0.4674240503616697, 0.822078591457253, -2.092885733892447]], "attachments": [{"parent_name": "ECL_robot1_with_track", "parent_link_name": "eef_tcp_frame", "grasp_pose": [[-2.86102294921875e-06, 0.023593902587890625, 2.9802322387695312e-08], [-0.4999987483024597, -0.4999995231628418, -0.5000012516975403, 0.5000004768371582]], "child_name": "body313"}], "link_path": {"eef_tcp_frame": [[[1.9515000581741333, 0.0, 1.7650134563446045], [0.0, 0.7070939540863037, 0.0, 0.7071195840835571]], [[1.971124291419983, -0.05566034093499184, 1.7151063680648804], [-0.02069106139242649, 0.7219319343566895, -0.009377517737448215, 0.6915910243988037]], [[1.98018217086792, -0.08318660408258438, 1.690043330192566], [-0.03141631558537483, 0.7289916276931763, -0.013833879493176937, 0.6836613416671753]], [[1.988732933998108, -0.11052308976650238, 1.6649169921875], [-0.04238556697964668, 0.7358017563819885, -0.018131960183382034, 0.6756259799003601]], [[1.996773600578308, -0.13767948746681213, 1.6397349834442139], [-0.053591690957546234, 0.7423551082611084, -0.022269336506724358, 0.6674885153770447]], [[2.0043015480041504, -0.1646655648946762, 1.6145045757293701], [-0.06502737104892731, 0.7486447095870972, -0.02624368667602539, 0.6592525243759155]], [[2.011314868927002, -0.19149108231067657, 1.5892330408096313], [-0.07668504118919373, 0.7546636462211609, -0.030052736401557922, 0.6509217023849487]], [[2.0178112983703613, -0.21816587448120117, 1.5639280080795288], [-0.08855696022510529, 0.7604053020477295, -0.0336943157017231, 0.6424998044967651]], [[2.023789167404175, -0.24469980597496033, 1.538596510887146], [-0.10063528269529343, 0.7658638954162598, -0.03716633841395378, 0.6339904069900513]], [[2.0292470455169678, -0.2711027264595032, 1.5132460594177246], [-0.11291178315877914, 0.7710325121879578, -0.040466777980327606, 0.6253976225852966]], [[2.034183979034424, -0.2973845303058624, 1.4878839254379272], [-0.12537825107574463, 0.7759057879447937, -0.04359371215105057, 0.6167251467704773]], [[2.0385990142822266, -0.3235551118850708, 1.4625173807144165], [-0.13802635669708252, 0.7804785966873169, -0.04654534161090851, 0.6079766750335693]], [[2.042491912841797, -0.3496243357658386, 1.4371534585952759], [-0.15084728598594666, 0.7847446203231812, -0.04931984469294548, 0.5991565585136414]], [[2.0458621978759766, -0.3756020963191986, 1.411799669265747], [-0.16383248567581177, 0.7886995673179626, -0.05191560834646225, 0.5902684926986694]], [[2.0487101078033447, -0.4014982581138611, 1.386462926864624], [-0.17697295546531677, 0.7923383116722107, -0.05433105677366257, 0.5813166499137878]], [[2.0510358810424805, -0.4273226261138916, 1.3611505031585693], [-0.1902596801519394, 0.7956560254096985, -0.05656466260552406, 0.5723052024841309]], [[2.0528404712677, -0.4530850648880005, 1.335869312286377], [-0.2036835253238678, 0.7986489534378052, -0.0586150661110878, 0.5632380843162537]], [[2.054124355316162, -0.47879526019096375, 1.31062650680542], [-0.21723532676696777, 0.8013132214546204, -0.0604810006916523, 0.5541194081306458]], [[2.05488920211792, -0.5044630169868469, 1.2854290008544922], [-0.23090553283691406, 0.8036444783210754, -0.0621611624956131, 0.5449535250663757]], [[2.05513596534729, -0.5300979614257812, 1.2602837085723877], [-0.24468477070331573, 0.8056396245956421, -0.06365453451871872, 0.5357446074485779]], [[2.0548670291900635, -0.5557096600532532, 1.2351974248886108], [-0.25856348872184753, 0.8072957992553711, -0.0649600401520729, 0.5264967083930969]], [[2.054084300994873, -0.5813077092170715, 1.210176944732666], [-0.27253198623657227, 0.8086096048355103, -0.06607676297426224, 0.5172143578529358]], [[2.0527899265289307, -0.6069016456604004, 1.1852290630340576], [-0.2865806221961975, 0.8095788955688477, -0.06700387597084045, 0.5079016089439392]], [[2.0509865283966064, -0.6325007081031799, 1.160360336303711], [-0.30069950222969055, 0.8102012276649475, -0.06774064898490906, 0.49856293201446533]], [[2.0486772060394287, -0.6581143140792847, 1.1355774402618408], [-0.3148788511753082, 0.8104746341705322, -0.06828642636537552, 0.4892025291919708]], [[2.0458648204803467, -0.68375164270401, 1.110886812210083], [-0.3291088044643402, 0.8103973865509033, -0.06864070147275925, 0.47982487082481384]], [[2.042553186416626, -0.7094218134880066, 1.0862948894500732], [-0.343379408121109, 0.8099682331085205, -0.06880299746990204, 0.47043418884277344]], [[2.038745403289795, -0.7351338267326355, 1.0618081092834473], [-0.35768064856529236, 0.809185802936554, -0.06877297908067703, 0.461034893989563]], [[2.0344455242156982, -0.7608965635299683, 1.0374325513839722], [-0.37200260162353516, 0.8080494999885559, -0.06855040043592453, 0.45163145661354065]], [[2.029658079147339, -0.7867189049720764, 1.0131745338439941], [-0.38633522391319275, 0.8065587878227234, -0.06813511997461319, 0.44222813844680786]], [[2.0243868827819824, -0.8126094341278076, 0.9890400767326355], [-0.40066856145858765, 0.8047133684158325, -0.06752706319093704, 0.4328294098377228]], [[2.01863694190979, -0.8385766744613647, 0.9650352597236633], [-0.4149926006793976, 0.8025133013725281, -0.06672629714012146, 0.423439621925354]], [[2.0124130249023438, -0.8646290302276611, 0.9411658644676208], [-0.42929738759994507, 0.799959123134613, -0.06573295593261719, 0.4140632748603821]], [[2.005720376968384, -0.8907748460769653, 0.9174377918243408], [-0.4435729384422302, 0.7970513105392456, -0.06454732269048691, 0.40470463037490845]], [[1.9985638856887817, -0.917022168636322, 0.8938567042350769], [-0.4578093886375427, 0.7937909960746765, -0.0631696805357933, 0.39536818861961365]], [[1.9909493923187256, -0.9433789849281311, 0.8704282641410828], [-0.47199690341949463, 0.7901793718338013, -0.06160052493214607, 0.38605833053588867]], [[1.9828826189041138, -0.9698531031608582, 0.847157895565033], [-0.4861254096031189, 0.7862178683280945, -0.0598403736948967, 0.37677937746047974]], [[1.9743694067001343, -0.9964522123336792, 0.8240509629249573], [-0.5001853704452515, 0.7819085121154785, -0.05788985639810562, 0.3675357699394226]], [[1.9654159545898438, -1.023183822631836, 0.8011128306388855], [-0.5141669511795044, 0.7772532105445862, -0.055749744176864624, 0.3583318293094635]], [[1.9560285806655884, -1.0500552654266357, 0.7783486843109131], [-0.528060793876648, 0.7722545266151428, -0.053420864045619965, 0.34917202591896057]], [[1.946213722229004, -1.077073574066162, 0.7557635307312012], [-0.5418568849563599, 0.7669150829315186, -0.050904132425785065, 0.34006044268608093]], [[1.9359781742095947, -1.1042460203170776, 0.7333623170852661], [-0.5555463433265686, 0.7612378001213074, -0.048200614750385284, 0.33100175857543945]], [[1.9253288507461548, -1.1315791606903076, 0.7111498713493347], [-0.5691191554069519, 0.7552259564399719, -0.04531140998005867, 0.32199984788894653]], [[1.9142727851867676, -1.1590797901153564, 0.6891309022903442], [-0.5825666785240173, 0.7488831281661987, -0.04223775491118431, 0.3130593001842499]], [[1.9028171300888062, -1.1867542266845703, 0.6673100590705872], [-0.5958794355392456, 0.7422130107879639, -0.03898099064826965, 0.304184228181839]], [[1.8909693956375122, -1.2146087884902954, 0.6456916928291321], [-0.6090485453605652, 0.7352196574211121, -0.03554249182343483, 0.2953788638114929]], [[1.8787368535995483, -1.2426495552062988, 0.6242802739143372], [-0.6220651865005493, 0.7279072999954224, -0.03192382678389549, 0.28664740920066833]], [[1.8661274909973145, -1.2708823680877686, 0.6030799150466919], [-0.6349204778671265, 0.720280647277832, -0.028126589953899384, 0.2779940068721771]], [[1.8531488180160522, -1.299312949180603, 0.5820947289466858], [-0.6476060152053833, 0.7123443484306335, -0.02415245585143566, 0.2694227993488312]], [[1.8398089408874512, -1.3279467821121216, 0.5613287091255188], [-0.6601132750511169, 0.7041035294532776, -0.020003221929073334, 0.2609378695487976]], [[1.8261159658432007, -1.3567891120910645, 0.5407856106758118], [-0.6724339723587036, 0.6955634951591492, -0.01568080298602581, 0.25254327058792114]], [[1.8120778799057007, -1.3858450651168823, 0.5204692482948303], [-0.6845601201057434, 0.6867296695709229, -0.011187170632183552, 0.24424301087856293]], [[1.7977032661437988, -1.4151194095611572, 0.5003830790519714], [0.6964836716651917, -0.6776079535484314, 0.006524379830807447, -0.23604102432727814]], [[1.7830002307891846, -1.4446170330047607, 0.48053061962127686], [0.7081970572471619, -0.6682043075561523, 0.0016945985844358802, -0.22794127464294434]], [[1.7679773569107056, -1.4743421077728271, 0.46091508865356445], [0.7196924686431885, -0.658524751663208, -0.003299947129562497, -0.21994760632514954]], [[1.7526432275772095, -1.5042990446090698, 0.4415397047996521], [0.7309628129005432, -0.6485759019851685, -0.008456890471279621, -0.21206387877464294]], [[1.737006664276123, -1.534492015838623, 0.42240750789642334], [0.7420008778572083, -0.638364315032959, -0.013773822225630283, -0.2042938470840454]], [[1.7210761308670044, -1.5649245977401733, 0.403521329164505], [0.7527996897697449, -0.627896785736084, -0.019248252734541893, -0.1966412514448166]], [[1.7048606872558594, -1.5956004858016968, 0.38488394021987915], [0.7633525133132935, -0.617180347442627, -0.024877572432160378, -0.18910977244377136]], [[1.6883690357208252, -1.6265232563018799, 0.3664979636669159], [0.7736527919769287, -0.6062222123146057, -0.030659109354019165, -0.18170297145843506]], [[1.6716102361679077, -1.657696008682251, 0.3483658730983734], [0.7836944460868835, -0.5950297713279724, -0.03659012168645859, -0.17442446947097778]], [[1.6545931100845337, -1.6891216039657593, 0.33048999309539795], [0.7934712171554565, -0.5836104154586792, -0.042667776346206665, -0.16727770864963531]], [[1.6373268365859985, -1.7208030223846436, 0.3128725588321686], [0.8029773235321045, -0.5719720721244812, -0.04888913780450821, -0.16026617586612701]], [[1.6198203563690186, -1.7527427673339844, 0.2955155670642853], [0.8122072219848633, -0.560122549533844, -0.055251240730285645, -0.1533932089805603]], [[1.6020828485488892, -1.7849432229995728, 0.27842095494270325], [0.8211556077003479, -0.5480698347091675, -0.06175099313259125, -0.1466621309518814]], [[1.5841233730316162, -1.817406415939331, 0.26159051060676575], [0.8298173546791077, -0.5358221530914307, -0.0683852806687355, -0.1400761753320694]], [[1.5659511089324951, -1.8501343727111816, 0.2450258433818817], [0.8381875157356262, -0.5233877897262573, -0.07515086978673935, -0.13363850116729736]], [[1.5475749969482422, -1.8831290006637573, 0.22872845828533173], [0.846261739730835, -0.5107751488685608, -0.08204447478055954, -0.12735222280025482]], [[1.529004454612732, -1.9163914918899536, 0.21269972622394562], [0.8540355563163757, -0.49799272418022156, -0.08906272798776627, -0.12122038006782532]], [[1.5102483034133911, -1.9499235153198242, 0.1969408392906189], [0.8615049123764038, -0.485049307346344, -0.09620222449302673, -0.11524590849876404]], [[1.4913159608840942, -1.983725905418396, 0.1814529001712799], [0.8686660528182983, -0.4719536602497101, -0.10345948487520218, -0.10943170636892319]], [[1.472216248512268, -2.0177998542785645, 0.16623680293560028], [0.8755154013633728, -0.45871448516845703, -0.11083092540502548, -0.10378054529428482]], [[1.4529584646224976, -2.0521457195281982, 0.15129338204860687], [0.8820496797561646, -0.4453408718109131, -0.11831290274858475, -0.0982951819896698]], [[1.433551549911499, -2.0867645740509033, 0.13662327826023102], [0.8882660269737244, -0.43184182047843933, -0.12590178847312927, -0.09297823905944824]], [[1.4140044450759888, -2.1216561794281006, 0.1222270131111145], [0.8941615223884583, -0.4182263910770416, -0.13359378278255463, -0.08783230930566788]], [[1.3943262100219727, -2.1568212509155273, 0.10810497403144836], [0.8997339606285095, -0.40450379252433777, -0.14138515293598175, -0.08285985887050629]], [[1.374525785446167, -2.1922593116760254, 0.0942574143409729], [0.9049810171127319, -0.39068320393562317, -0.14927200973033905, -0.07806330174207687]]]}}, {"element": 36, "tag": "place_approach", "path": [[3.273871312229804, 0.5711595496296449, 0.5901677770370051, 0.25400228558732885, 0.4674240503616697, 0.822078591457253, -2.092885733892447], [3.273871312229804, 0.5783235278301622, 0.5813004434305278, 0.26018518316549377, 0.40663978826337493, 0.7940921702599317, -1.925630075662356], [3.273871312229804, 0.5860995273469781, 0.575087482045306, 0.2630737286360046, 0.3378803536772127, 0.7748853559643193, -1.7509123288823207], [3.273871312229804, 0.5941905978712767, 0.571629381056365, 0.2627346555301263, 0.263779718544497, 0.7653495254310669, -1.5713284782519066], [3.273871312229804, 0.6023203044949609, 0.5709870765668839, 0.2591996556516538, 0.18757289643140776, 0.7660278280805539, -1.3900303794456499], [3.273871312229804, 0.6102455544050857, 0.5731784012014726, 0.25250082793774015, 0.1126698582987883, 0.7769857563718999, -1.2102984294969892], [3.273871312229804, 0.6177166649784467, 0.5781545220090778, 0.2427469839149331, 0.042275718922698914, 0.797732988391841, -1.035211302241122]], "attachments": [{"parent_name": "ECL_robot1_with_track", "parent_link_name": "eef_tcp_frame", "grasp_pose": [[-2.86102294921875e-06, 0.023593902587890625, 2.9802322387695312e-08], [-0.4999987483024597, -0.4999995231628418, -0.5000012516975403, 0.5000004768371582]], "child_name": "body313"}], "link_path": {"eef_tcp_frame": [[[1.374525785446167, -2.1922593116760254, 0.0942574143409729], [0.9049810171127319, -0.39068320393562317, -0.14927200973033905, -0.07806330174207687]], [[1.3815326690673828, -2.201751232147217, 0.0942067950963974], [0.8837559223175049, -0.4455905556678772, -0.1286882609128952, -0.06216044723987579]], [[1.388331413269043, -2.2114107608795166, 0.09435341507196426], [0.8588655591011047, -0.49867457151412964, -0.10754211246967316, -0.04591680318117142]], [[1.3948663473129272, -2.2212471961975098, 0.09465743601322174], [0.8304113745689392, -0.5496922135353088, -0.08594617992639542, -0.029473647475242615]], [[1.4011123180389404, -2.231234073638916, 0.09511653333902359], [0.7985140085220337, -0.59842449426651, -0.06400454789400101, -0.01291586086153984]], [[1.4070580005645752, -2.241314172744751, 0.0957430824637413], [0.763303279876709, -0.6446763873100281, -0.0417935773730278, 0.0037037974689155817]], [[1.4126906394958496, -2.2514426708221436, 0.09653612971305847], [0.7249239683151245, -0.6882559061050415, -0.01940205693244934, 0.020313506945967674]]]}}, {"element": 36, "tag": "place_retreat", "path": [[3.273871312229804, 0.6177415607019248, 0.5781608318884595, 0.24273315849785496, 0.04219784165903121, 0.7977467415569676, -1.0351077857103488], [3.273871312229804, 0.6176380773683304, 0.5733753214836087, 0.2416218642496877, 0.04180960387313777, 0.8036059752555286, -1.0347197760851816], [3.273871312229804, 0.6174924679297381, 0.5686564382000394, 0.24040630193864107, 0.041553022371279606, 0.8095375960384827, -1.0345060821635899], [3.273871312229804, 0.6173441365466479, 0.5639779474620363, 0.23913448759473088, 0.04130859094541218, 0.8154862898672829, -1.0343068411714762], [3.273871312229804, 0.6171956878449584, 0.5593390965734027, 0.23780804070572778, 0.0410683327214404, 0.8214500565786487, -1.03411140374659], [3.273871312229804, 0.6170472920178935, 0.554740124356107, 0.2364270200360576, 0.04083168499904929, 0.827428562505088, -1.0339190327831054], [3.273871312229804, 0.6168989600662637, 0.5501812958320476, 0.23499144608840775, 0.040598569177943904, 0.8334215204515328, -1.033729638779294], [3.273871312229804, 0.6167506927737983, 0.5456628728388397, 0.23350133963143493, 0.04036893802455812, 0.8394286469051478, -1.033543174025219], [3.273871312229804, 0.6166024902795786, 0.5411851134477782, 0.23195672171131881, 0.040142746733867835, 0.8454496618399305, -1.0333595938171587]], "attachments": [], "link_path": {"eef_tcp_frame": [[[1.4126877784729004, -2.2514257431030273, 0.09653916954994202], [0.7249163389205933, -0.6882643699645996, -0.019374942407011986, 0.02032342739403248]], [[1.4131371974945068, -2.251394271850586, 0.10526740550994873], [0.7249029874801636, -0.6882801651954651, -0.019321223720908165, 0.020317846909165382]], [[1.4136247634887695, -2.251368284225464, 0.1140032485127449], [0.7249020934104919, -0.688281238079071, -0.01931753382086754, 0.02031775936484337]], [[1.414113998413086, -2.251343011856079, 0.12273915857076645], [0.7249019742012024, -0.6882812976837158, -0.01931704394519329, 0.02031748555600643]], [[1.414603352546692, -2.2513179779052734, 0.1314750462770462], [0.7249018549919128, -0.6882814764976501, -0.019316770136356354, 0.02031717821955681]], [[1.4150928258895874, -2.2512929439544678, 0.14021092653274536], [0.7249018549919128, -0.6882814764976501, -0.01931650936603546, 0.02031685970723629]], [[1.4155821800231934, -2.251267910003662, 0.14894680678844452], [0.7249017953872681, -0.6882815957069397, -0.019316259771585464, 0.02031654305756092]], [[1.4160715341567993, -2.2512431144714355, 0.15768267214298248], [0.7249017953872681, -0.6882815957069397, -0.019316013902425766, 0.020316220819950104]], [[1.4165608882904053, -2.25121808052063, 0.16641853749752045], [0.7249017357826233, -0.6882816553115845, -0.019315773621201515, 0.020315898582339287]]]}}, {"element": null, "tag": "transit", "path": [[3.273871312229804, 0.6166024902795786, 0.5411851134477782, 0.23195672171131881, 0.040142746733867835, 0.8454496618399305, -1.0333595938171587], [3.2162327327891385, 0.6057468126338115, 0.5316572065208807, 0.2278729766107674, 0.039436008235032134, 0.8305649846948613, -1.015166643221786], [3.2047050169010056, 0.603575677104658, 0.5297516251355012, 0.22705622759065713, 0.039294660535264994, 0.8275880492658475, -1.0115280531027115], [3.193177301012873, 0.6014045415755045, 0.5278460437501218, 0.22623947857054685, 0.039153312835497854, 0.8246111138368337, -1.007889462983637], [3.1816495851247395, 0.5992334060463511, 0.5259404623647422, 0.22542272955043657, 0.039011965135730714, 0.8216341784078198, -1.0042508728645625], [3.170121869236606, 0.5970622705171977, 0.5240348809793627, 0.2246059805303263, 0.038870617435963574, 0.8186572429788059, -1.000612282745488], [3.1585941533484734, 0.5948911349880442, 0.5221292995939832, 0.223789231510216, 0.038729269736196434, 0.8156803075497921, -0.9969736926264134], [3.1470664374603405, 0.5927199994588908, 0.5202237182086038, 0.22297248249010573, 0.038587922036429294, 0.8127033721207784, -0.9933351025073389], [3.1355387215722073, 0.5905488639297374, 0.5183181368232243, 0.22215573346999545, 0.038446574336662154, 0.8097264366917645, -0.9896965123882645], [3.124011005684074, 0.588377728400584, 0.5164125554378447, 0.22133898444988517, 0.038305226636895014, 0.8067495012627506, -0.98605792226919], [3.112483289795941, 0.5862065928714305, 0.5145069740524653, 0.2205222354297749, 0.038163878937127874, 0.8037725658337368, -0.9824193321501155], [3.1009555739078083, 0.584035457342277, 0.5126013926670858, 0.2197054864096646, 0.038022531237360734, 0.800795630404723, -0.978780742031041], [3.089427858019675, 0.5818643218131236, 0.5106958112817063, 0.21888873738955433, 0.03788118353759359, 0.7978186949757091, -0.9751421519119665], [3.0779001421315417, 0.5796931862839703, 0.5087902298963267, 0.21807198836944405, 0.03773983583782645, 0.7948417595466952, -0.971503561792892], [3.066372426243409, 0.5775220507548168, 0.5068846485109473, 0.21725523934933377, 0.03759848813805931, 0.7918648241176814, -0.9678649716738175], [3.054844710355276, 0.5753509152256633, 0.5049790671255678, 0.2164384903292235, 0.03745714043829217, 0.7888878886886677, -0.9642263815547429], [3.0433169944671428, 0.5731797796965099, 0.5030734857401883, 0.2156217413091132, 0.03731579273852503, 0.7859109532596538, -0.9605877914356685], [3.0317892785790095, 0.5710086441673565, 0.5011679043548087, 0.21480499228900293, 0.03717444503875789, 0.7829340178306399, -0.956949201316594], [3.020261562690876, 0.568837508638203, 0.49926232296942924, 0.21398824326889265, 0.03703309733899075, 0.7799570824016261, -0.9533106111975195], [3.008733846802743, 0.5666663731090495, 0.49735674158404974, 0.21317149424878237, 0.03689174963922361, 0.7769801469726123, -0.9496720210784451], [2.99720613091461, 0.5644952375798962, 0.4954511601986703, 0.2123547452286721, 0.03675040193945647, 0.7740032115435984, -0.9460334309593705], [2.9856784150264772, 0.5623241020507428, 0.4935455788132908, 0.2115379962085618, 0.03660905423968933, 0.7710262761145845, -0.942394840840296], [2.974150699138344, 0.5601529665215893, 0.4916399974279113, 0.21072124718845153, 0.03646770653992219, 0.7680493406855707, -0.9387562507212215], [2.9626229832502107, 0.5579818309924358, 0.4897344160425318, 0.20990449816834125, 0.03632635884015505, 0.765072405256557, -0.935117660602147], [2.951095267362078, 0.5558106954632824, 0.4878288346571523, 0.20908774914823097, 0.03618501114038791, 0.7620954698275431, -0.9314790704830725], [2.939567551473945, 0.553639559934129, 0.4859232532717728, 0.2082710001281207, 0.03604366344062077, 0.7591185343985292, -0.927840480363998], [2.9280398355858117, 0.5514684244049756, 0.48401767188639333, 0.2074542511080104, 0.03590231574085363, 0.7561415989695154, -0.9242018902449235], [2.9165121196976784, 0.5492972888758221, 0.48211209050101383, 0.20663750208790013, 0.03576096804108649, 0.7531646635405016, -0.9205633001258491], [2.9049844038095456, 0.5471261533466687, 0.48020650911563434, 0.20582075306778985, 0.03561962034131935, 0.7501877281114877, -0.9169247100067746], [2.8934566879214128, 0.5449550178175153, 0.47830092773025484, 0.20500400404767957, 0.03547827264155221, 0.7472107926824738, -0.9132861198877], [2.8819289720332795, 0.5427838822883618, 0.47639534634487535, 0.2041872550275693, 0.03533692494178507, 0.74423385725346, -0.9096475297686255], [2.870401256145146, 0.5406127467592083, 0.47448976495949585, 0.203370506007459, 0.03519557724201793, 0.7412569218244462, -0.906008939649551], [2.8588735402570133, 0.538441611230055, 0.47258418357411636, 0.20255375698734873, 0.03505422954225079, 0.7382799863954324, -0.9023703495304766], [2.84734582436888, 0.5362704757009016, 0.47067860218873686, 0.20173700796723845, 0.03491288184248365, 0.7353030509664185, -0.898731759411402], [2.835818108480747, 0.5340993401717481, 0.46877302080335737, 0.20092025894712817, 0.03477153414271651, 0.7323261155374047, -0.8950931692923275], [2.824290392592614, 0.5319282046425946, 0.46686743941797787, 0.2001035099270179, 0.03463018644294937, 0.7293491801083909, -0.8914545791732531], [2.8127626767044807, 0.5297570691134412, 0.4649618580325984, 0.1992867609069076, 0.03448883874318223, 0.726372244679377, -0.8878159890541786], [2.8012349608163474, 0.5275859335842878, 0.4630562766472189, 0.19847001188679733, 0.03434749104341509, 0.7233953092503631, -0.884177398935104], [2.789707244928214, 0.5254147980551344, 0.4611506952618394, 0.19765326286668705, 0.03420614334364795, 0.7204183738213493, -0.8805388088160295], [2.778179529040081, 0.5232436625259809, 0.4592451138764599, 0.19683651384657677, 0.03406479564388081, 0.7174414383923355, -0.876900218696955], [2.766651813151948, 0.5210725269968275, 0.4573395324910804, 0.1960197648264665, 0.03392344794411367, 0.7144645029633216, -0.8732616285778806], [2.7205409495994157, 0.5123879848802138, 0.4497172069495624, 0.19275276874602537, 0.03335805714504511, 0.7025567612472663, -0.8587072681015826], [2.674430086046883, 0.5037034427635999, 0.4420948814080444, 0.18948577266558425, 0.03279266634597655, 0.6906490195312109, -0.8441529076252846], [2.6283192224943503, 0.4950189006469861, 0.43447255586652644, 0.18621877658514313, 0.03222727554690799, 0.6787412778151556, -0.8295985471489866], [2.582208358941818, 0.4863343585303723, 0.42685023032500846, 0.182951780504702, 0.03166188474783943, 0.6668335360991002, -0.8150441866726886], [2.536097495389286, 0.47764981641375853, 0.4192279047834905, 0.1796847844242609, 0.03109649394877087, 0.6549257943830449, -0.8004898261963906], [2.4899866318367536, 0.46896527429714474, 0.4116055792419725, 0.17641778834381977, 0.03053110314970231, 0.6430180526669895, -0.7859354657200927], [2.443875768284221, 0.46028073218053095, 0.4039832537004545, 0.17315079226337865, 0.02996571235063375, 0.6311103109509342, -0.7713811052437947], [2.3977649047316882, 0.45159619006391716, 0.39636092815893653, 0.16988379618293753, 0.02940032155156519, 0.6192025692348788, -0.7568267447674967], [2.351654041179156, 0.44291164794730337, 0.38873860261741855, 0.1666168001024964, 0.02883493075249663, 0.6072948275188235, -0.7422723842911987], [2.3055431776266233, 0.4342271058306896, 0.3811162770759005, 0.16334980402205532, 0.02826953995342807, 0.5953870858027681, -0.7277180238149007], [2.2594323140740906, 0.4255425637140758, 0.3734939515343825, 0.16008280794161422, 0.02770414915435951, 0.5834793440867128, -0.7131636633386027], [2.2133214505215584, 0.416858021597462, 0.3658716259928645, 0.1568158118611731, 0.02713875835529095, 0.5715716023706574, -0.6986093028623047], [2.167210586969026, 0.4081734794808482, 0.3582493004513465, 0.15354881578073198, 0.026573367556222388, 0.559663860654602, -0.6840549423860067], [2.1210997234164934, 0.3994889373642344, 0.3506269749098285, 0.1502818197002909, 0.026007976757153828, 0.5477561189385467, -0.6695005819097087], [2.0749888598639608, 0.3908043952476206, 0.3430046493683105, 0.1470148236198498, 0.025442585958085268, 0.5358483772224913, -0.6549462214334107], [2.0288779963114285, 0.3821198531310068, 0.33538232382679245, 0.14374782753940868, 0.024877195159016707, 0.523940635506436, -0.6403918609571128], [1.982767132758896, 0.37343531101439303, 0.32775999828527447, 0.14048083145896756, 0.024311804359948147, 0.5120328937903806, -0.6258375004808148], [1.9366562692063636, 0.36475076889777924, 0.32013767274375643, 0.13721383537852647, 0.023746413560879587, 0.5001251520743253, -0.6112831400045168], [1.8905454056538311, 0.35606622678116545, 0.3125153472022384, 0.13394683929808537, 0.023181022761811027, 0.48821741035826993, -0.5967287795282188], [1.8444345421012986, 0.34738168466455166, 0.3048930216607204, 0.13067984321764425, 0.022615631962742466, 0.4763096686422146, -0.5821744190519208], [1.7983236785487662, 0.33869714254793787, 0.2972706961192024, 0.12741284713720313, 0.022050241163673906, 0.4644019269261592, -0.5676200585756228], [1.7522128149962337, 0.3300126004313241, 0.2896483705776844, 0.12414585105676203, 0.021484850364605346, 0.45249418521010387, -0.5530656980993248], [1.7061019514437012, 0.3213280583147103, 0.28202604503616635, 0.12087885497632092, 0.020919459565536785, 0.4405864434940485, -0.5385113376230268], [1.6599910878911688, 0.3126435161980965, 0.27440371949464837, 0.11761185889587981, 0.020354068766468225, 0.42867870177799317, -0.5239569771467288], [1.6138802243386363, 0.3039589740814827, 0.2667813939531304, 0.11434486281543871, 0.019788677967399665, 0.4167709600619378, -0.5094026166704309], [1.5677693607861038, 0.2952744319648689, 0.25915906841161235, 0.1110778667349976, 0.019223287168331105, 0.40486321834588246, -0.4948482561941328], [1.5216584972335714, 0.2865898898482551, 0.2515367428700943, 0.1078108706545565, 0.018657896369262544, 0.3929554766298271, -0.48029389571783476], [1.475547633681039, 0.27790534773164133, 0.2439144173285763, 0.10454387457411539, 0.018092505570193984, 0.38104773491377175, -0.4657395352415367], [1.4294367701285065, 0.26922080561502754, 0.2362920917870583, 0.10127687849367428, 0.017527114771125424, 0.3691399931977164, -0.4511851747652387], [1.383325906575974, 0.26053626349841374, 0.22866976624554028, 0.09800988241323318, 0.016961723972056864, 0.35723225148166105, -0.4366308142889406], [1.3372150430234415, 0.25185172138179995, 0.22104744070402227, 0.09474288633279207, 0.0163963331729883, 0.3453245097656057, -0.4220764538126426], [1.291104179470909, 0.24316717926518616, 0.21342511516250426, 0.09147589025235096, 0.015830942373919736, 0.33341676804955034, -0.40752209333634454], [1.2449933159183766, 0.23448263714857237, 0.20580278962098625, 0.08820889417190986, 0.015265551574851174, 0.321509026333495, -0.3929677328600465], [1.1988824523658441, 0.22579809503195858, 0.19818046407946824, 0.08494189809146875, 0.014700160775782612, 0.30960128461743963, -0.3784133723837485], [1.1527715888133117, 0.2171135529153448, 0.19055813853795023, 0.08167490201102764, 0.01413476997671405, 0.2976935429013843, -0.36385901190745046], [1.1066607252607792, 0.208429010798731, 0.18293581299643222, 0.07840790593058654, 0.013569379177645488, 0.2857858011853289, -0.3493046514311524], [1.0605498617082467, 0.1997444686821172, 0.1753134874549142, 0.07514090985014543, 0.013003988378576926, 0.27387805946927357, -0.3347502909548544], [1.0144389981557143, 0.1910599265655034, 0.1676911619133962, 0.07187391376970433, 0.012438597579508364, 0.2619703177532182, -0.32019593047855643], [0.9683281346031818, 0.18237538444888962, 0.1600688363718782, 0.06860691768926322, 0.011873206780439802, 0.25006257603716286, -0.3056415700022584], [0.9222172710506493, 0.17369084233227583, 0.15244651083036018, 0.06533992160882211, 0.01130781598137124, 0.23815483432110748, -0.29108720952596034], [0.8761064074981169, 0.16500630021566204, 0.14482418528884217, 0.06207292552838101, 0.010742425182302678, 0.2262470926050521, -0.27653284904966235], [0.8299955439455844, 0.15632175809904825, 0.13720185974732416, 0.0588059294479399, 0.010177034383234116, 0.21433935088899672, -0.26197848857336437], [0.7838846803930519, 0.14763721598243446, 0.12957953420580615, 0.055538933367498794, 0.009611643584165554, 0.20243160917294134, -0.24742412809706635], [0.7377738168405195, 0.13895267386582066, 0.12195720866428814, 0.05227193728705769, 0.009046252785096992, 0.19052386745688596, -0.23286976762076833], [0.691662953287987, 0.13026813174920687, 0.11433488312277013, 0.04900494120661658, 0.00848086198602843, 0.17861612574083058, -0.2183154071444703], [0.6455520897354545, 0.12158358963259308, 0.10671255758125212, 0.045737945126175475, 0.007915471186959868, 0.1667083840247752, -0.2037610466681723], [0.5994412261829221, 0.11289904751597929, 0.0990902320397341, 0.04247094904573437, 0.007350080387891306, 0.15480064230871982, -0.18920668619187428], [0.5533303626303896, 0.1042145053993655, 0.0914679064982161, 0.03920395296529326, 0.006784689588822744, 0.14289290059266443, -0.17465232571557626], [0.5072194990778571, 0.0955299632827517, 0.08384558095669808, 0.035936956884852156, 0.006219298789754182, 0.13098515887660905, -0.16009796523927824], [0.46110863552532466, 0.08684542116613791, 0.07622325541518007, 0.03266996080441105, 0.00565390799068562, 0.11907741716055369, -0.14554360476298023], [0.4149977719727922, 0.07816087904952412, 0.06860092987366206, 0.029402964723969943, 0.005088517191617058, 0.10716967544449832, -0.1309892442866822], [0.36888690842025973, 0.06947633693291033, 0.060978604332144054, 0.026135968643528837, 0.004523126392548496, 0.09526193372844295, -0.1164348838103842], [0.32277604486772726, 0.06079179481629654, 0.053356278790626044, 0.02286897256308773, 0.003957735593479934, 0.08335419201238758, -0.10188052333408618], [0.2766651813151948, 0.05210725269968275, 0.04573395324910804, 0.019601976482646628, 0.003392344794411372, 0.07144645029633222, -0.08732616285778816], [0.23055431776266233, 0.04342271058306896, 0.03811162770759004, 0.016334980402205525, 0.00282695399534281, 0.05953870858027685, -0.07277180238149013], [0.18444345421012986, 0.034738168466455166, 0.03048930216607203, 0.01306798432176442, 0.002261563196274248, 0.04763096686422148, -0.058217441905192104], [0.1383325906575974, 0.026053626349841374, 0.022866976624554024, 0.009800988241323316, 0.001696172397205686, 0.035723225148166116, -0.04366308142889408], [0.09222172710506493, 0.017369084233227583, 0.015244651083036017, 0.006533992160882211, 0.001130781598137124, 0.023815483432110745, -0.029108720952596055], [0.046110863552532466, 0.008684542116613791, 0.0076223255415180085, 0.0032669960804411055, 0.000565390799068562, 0.011907741716055372, -0.014554360476298028], [0.0, 0.0, 0.0, 0.0, 0.0, 0.0, 0.0]], "attachments": [], "link_path": {"eef_tcp_frame": [[[1.4165608882904053, -2.25121808052063, 0.16641853749752045], [0.7249017357826233, -0.6882816553115845, -0.019315773621201515, 0.020315898582339287]], [[1.4407482147216797, -2.2004621028900146, 0.18537607789039612], [0.7151663899421692, -0.6987389922142029, -0.01608407497406006, 0.006495234556496143]], [[1.4455646276474, -2.1903750896453857, 0.1892232745885849], [0.7131835222244263, -0.7007971405982971, -0.015449900180101395, 0.0037279436364769936]], [[1.4503737688064575, -2.180309295654297, 0.19308897852897644], [0.7111889719963074, -0.702843964099884, -0.014819793403148651, 0.0009596621384844184]], [[1.4551751613616943, -2.170264959335327, 0.19697317481040955], [0.7091826796531677, -0.7048795819282532, -0.014193763025105, -0.0018095808336511254]], [[1.4599689245224, -2.1602420806884766, 0.20087583363056183], [0.7071647047996521, -0.7069037556648254, -0.01357181090861559, -0.004579761065542698]], [[1.4647547006607056, -2.150240421295166, 0.2047969251871109], [-0.70513516664505, 0.708916425704956, 0.01295394729822874, 0.007350847125053406]], [[1.4695324897766113, -2.1402602195739746, 0.20873643457889557], [-0.7030941843986511, 0.710917592048645, 0.012340174056589603, 0.010122815147042274]], [[1.4743019342422485, -2.1303017139434814, 0.21269433200359344], [-0.7010416984558105, 0.712907075881958, 0.0117304977029562, 0.01289563812315464]], [[1.4790630340576172, -2.1203644275665283, 0.21667058765888214], [-0.6989778876304626, 0.7148849964141846, 0.011124924756586552, 0.015669288113713264]], [[1.4838155508041382, -2.1104485988616943, 0.22066517174243927], [-0.6969028115272522, 0.7168511152267456, 0.010523460805416107, 0.01844373345375061]], [[1.488559365272522, -2.1005544662475586, 0.22467806935310364], [-0.6948164701461792, 0.7188054919242859, 0.009926111437380314, 0.021218955516815186]], [[1.4932942390441895, -2.090681552886963, 0.22870923578739166], [-0.6927189230918884, 0.7207480072975159, 0.009332876652479172, 0.023994918912649155]], [[1.498020052909851, -2.0808300971984863, 0.23275865614414215], [-0.6906102299690247, 0.722678542137146, 0.008743766695261002, 0.026771599426865578]], [[1.5027365684509277, -2.071000337600708, 0.23682628571987152], [-0.6884905695915222, 0.7245970964431763, 0.008158788084983826, 0.029548969119787216]], [[1.5074437856674194, -2.0611917972564697, 0.24091210961341858], [-0.6863600015640259, 0.7265036106109619, 0.007577941287308931, 0.03232700377702713]], [[1.512141227722168, -2.0514049530029297, 0.24501609802246094], [-0.6842184662818909, 0.7283980250358582, 0.0070012351498007774, 0.03510567173361778]], [[1.516829013824463, -2.041639566421509, 0.24913820624351501], [-0.6820661425590515, 0.7302802205085754, 0.006428671535104513, 0.03788495063781738]], [[1.521506905555725, -2.031895399093628, 0.2532784044742584], [-0.6799030900001526, 0.7321501970291138, 0.005860259290784597, 0.040664806962013245]], [[1.5261746644973755, -2.0221729278564453, 0.2574366629123688], [-0.6777293086051941, 0.7340077757835388, 0.005295997019857168, 0.04344521835446358]], [[1.5308321714401245, -2.012471914291382, 0.26161298155784607], [-0.6755449175834656, 0.7358530759811401, 0.004735893104225397, 0.04622615501284599]], [[1.535479187965393, -2.0027923583984375, 0.26580727100372314], [-0.6733500361442566, 0.7376859188079834, 0.004179954528808594, 0.0490075908601284]], [[1.5401157140731812, -1.9931341409683228, 0.27001953125], [-0.6711446046829224, 0.7395063042640686, 0.0036281803622841835, 0.05178949609398842]], [[1.5447413921356201, -1.9834973812103271, 0.27424970269203186], [-0.668928861618042, 0.741314172744751, 0.0030805799178779125, 0.05457184836268425]], [[1.5493561029434204, -1.9738821983337402, 0.2784977853298187], [-0.6667027473449707, 0.7431092858314514, 0.0025371562223881483, 0.05735461041331291]], [[1.5539597272872925, -1.964288353919983, 0.2827637195587158], [-0.6644665002822876, 0.7448918223381042, 0.0019979109056293964, 0.06013776361942291]], [[1.5585520267486572, -1.9547159671783447, 0.28704747557640076], [-0.6622199416160583, 0.7466616034507751, 0.0014628515345975757, 0.06292128562927246]], [[1.563132882118225, -1.9451649188995361, 0.29134902358055115], [-0.6599633693695068, 0.7484186291694641, 0.0009319813689216971, 0.06570512801408768]], [[1.5677021741867065, -1.9356353282928467, 0.2956683337688446], [-0.6576966047286987, 0.7501627206802368, 0.0004053031443618238, 0.06848928332328796]], [[1.572259545326233, -1.9261270761489868, 0.30000531673431396], [-0.6554201245307922, 0.7518940567970276, -0.00011717490997398272, 0.07127372175455093]], [[1.5768051147460938, -1.916640281677246, 0.3043600022792816], [-0.6531336307525635, 0.7536122798919678, -0.000635454198345542, 0.074058398604393]], [[1.5813384056091309, -1.907174825668335, 0.3087323009967804], [-0.6508374214172363, 0.7553175091743469, -0.0011495309881865978, 0.07684332132339478]], [[1.5858594179153442, -1.8977305889129639, 0.3131222128868103], [-0.6485313177108765, 0.7570098042488098, -0.0016593961045145988, 0.07962842285633087]], [[1.5903679132461548, -1.888307809829712, 0.31752967834472656], [-0.6462156176567078, 0.758688747882843, -0.002165050944313407, 0.0824136808514595]], [[1.5948638916015625, -1.87890625, 0.3219546377658844], [-0.6438903212547302, 0.76035475730896, -0.002666489453986287, 0.08519911766052246]], [[1.5993468761444092, -1.8695260286331177, 0.3263970911502838], [-0.641555666923523, 0.7620073556900024, -0.003163709072396159, 0.08798464387655258]], [[1.6038169860839844, -1.8601670265197754, 0.33085694909095764], [-0.6392114758491516, 0.76364666223526, -0.003656703280285001, 0.09077025949954987]], [[1.608273983001709, -1.8508292436599731, 0.33533424139022827], [-0.6368579268455505, 0.7652725577354431, -0.004145472310483456, 0.09355591982603073]], [[1.6127175092697144, -1.8415127992630005, 0.33982884883880615], [-0.6344950795173645, 0.7668851613998413, -0.004630010109394789, 0.09634161740541458]], [[1.6171475648880005, -1.8322173357009888, 0.3443407416343689], [-0.6321231126785278, 0.7684842348098755, -0.005110311321914196, 0.09912733733654022]], [[1.6215640306472778, -1.8229432106018066, 0.3488699197769165], [-0.6297420263290405, 0.7700697779655457, -0.0055863820016384125, 0.10191302746534348]], [[1.6390894651412964, -1.786057472229004, 0.36715829372406006], [-0.6201280355453491, 0.7762759327888489, -0.007448229473084211, 0.11305498331785202]], [[1.656382441520691, -1.749508023262024, 0.3857191801071167], [-0.6103745102882385, 0.7822617292404175, -0.009242048487067223, 0.12419435381889343]], [[1.6734321117401123, -1.7132925987243652, 0.4045494794845581], [-0.6004865169525146, 0.7880239486694336, -0.010967668145895004, 0.13532938063144684]], [[1.6902276277542114, -1.6774086952209473, 0.4236460328102112], [-0.5904691815376282, 0.7935595512390137, -0.012624945491552353, 0.14645829796791077]], [[1.7067581415176392, -1.6418536901474, 0.4430054724216461], [-0.5803279280662537, 0.7988654971122742, -0.014213726855814457, 0.15757930278778076]], [[1.723012924194336, -1.6066243648529053, 0.46262431144714355], [-0.5700681209564209, 0.8039392828941345, -0.015733914449810982, 0.1686907261610031]], [[1.7389813661575317, -1.571717381477356, 0.48249897360801697], [-0.5596948862075806, 0.8087778687477112, -0.017185406759381294, 0.17979072034358978]], [[1.754652738571167, -1.5371291637420654, 0.5026257038116455], [-0.5492139458656311, 0.8133788704872131, -0.018568119034171104, 0.19087755680084229]], [[1.7700164318084717, -1.5028557777404785, 0.5230005979537964], [-0.5386306643486023, 0.8177396655082703, -0.019881999120116234, 0.20194949209690094]], [[1.7850620746612549, -1.4688929319381714, 0.5436197519302368], [-0.5279505848884583, 0.8218581676483154, -0.021126996725797653, 0.21300464868545532]], [[1.7997792959213257, -1.4352362155914307, 0.564478874206543], [-0.5171794295310974, 0.8257320523262024, -0.022303087636828423, 0.2240414321422577]], [[1.8141577243804932, -1.4018807411193848, 0.5855738520622253], [-0.5063228607177734, 0.8293592929840088, -0.023410284891724586, 0.2350580245256424]], [[1.828187346458435, -1.368821620941162, 0.606900155544281], [-0.4953865706920624, 0.8327380418777466, -0.024448590353131294, 0.24605271220207214]], [[1.841858148574829, -1.3360532522201538, 0.6284534335136414], [-0.48437613248825073, 0.8358662724494934, -0.02541803941130638, 0.2570236027240753]], [[1.8551599979400635, -1.30357027053833, 0.6502289175987244], [-0.47329768538475037, 0.8387426137924194, -0.026318680495023727, 0.26796913146972656]], [[1.8680833578109741, -1.2713665962219238, 0.672221839427948], [-0.46215683221817017, 0.841365396976471, -0.02715059369802475, 0.27888745069503784]], [[1.8806184530258179, -1.2394360303878784, 0.6944274306297302], [-0.4509595036506653, 0.8437331914901733, -0.027913866564631462, 0.28977689146995544]], [[1.8927558660507202, -1.2077723741531372, 0.7168406248092651], [-0.4397115707397461, 0.8458448052406311, -0.02860860526561737, 0.30063560605049133]], [[1.9044864177703857, -1.1763685941696167, 0.739456295967102], [-0.4284190535545349, 0.8476992249488831, -0.029234932735562325, 0.3114619553089142]], [[1.9158008098602295, -1.1452178955078125, 0.7622691988945007], [-0.4170877933502197, 0.8492952585220337, -0.029792997986078262, 0.3222542107105255]], [[1.9266901016235352, -1.114313006401062, 0.785274088382721], [-0.40572378039360046, 0.8506321310997009, -0.03028295375406742, 0.33301064372062683]], [[1.9371455907821655, -1.0836464166641235, 0.8084654808044434], [-0.3943330645561218, 0.851709246635437, -0.030704999342560768, 0.34372952580451965]], [[1.947158694267273, -1.0532104969024658, 0.8318377137184143], [-0.38292163610458374, 0.8525259494781494, -0.031059319153428078, 0.3544091582298279]], [[1.9567210674285889, -1.0229971408843994, 0.8553852438926697], [-0.37149545550346375, 0.8530818223953247, -0.03134613856673241, 0.365047812461853]], [[1.9658246040344238, -0.9929981231689453, 0.8791022896766663], [-0.36006060242652893, 0.853376567363739, -0.031565699726343155, 0.37564387917518616]], [[1.974461317062378, -0.963205099105835, 0.9029829502105713], [-0.3486230671405792, 0.8534101247787476, -0.03171824663877487, 0.3861955404281616]], [[1.9826234579086304, -0.9336092472076416, 0.9270212650299072], [-0.3371890187263489, 0.8531823754310608, -0.03180406987667084, 0.39670127630233765]], [[1.990303635597229, -0.9042016863822937, 0.9512112140655518], [-0.32576432824134827, 0.852693498134613, -0.03182343393564224, 0.40715929865837097]], [[1.9974945783615112, -0.8749733567237854, 0.9755465388298035], [-0.3143550753593445, 0.8519437313079834, -0.031776655465364456, 0.4175679385662079]], [[2.0041894912719727, -0.8459147810935974, 1.0000211000442505], [-0.3029673397541046, 0.8509335517883301, -0.03166406229138374, 0.42792555689811707]], [[2.0103812217712402, -0.8170164823532104, 1.0246285200119019], [-0.2916070222854614, 0.8496634364128113, -0.031486015766859055, 0.4382305443286896]], [[2.016063690185547, -0.7882687449455261, 1.049362301826477], [-0.2802802622318268, 0.8481341004371643, -0.03124285861849785, 0.44848117232322693]], [[2.021230697631836, -0.7596614956855774, 1.0742161273956299], [-0.26899290084838867, 0.8463464379310608, -0.030934970825910568, 0.45867595076560974]], [[2.025876045227051, -0.731184720993042, 1.099183201789856], [-0.257750928401947, 0.8443012833595276, -0.030562749132514, 0.46881306171417236]], [[2.029994487762451, -0.7028279900550842, 1.12425696849823], [-0.24656032025814056, 0.8419998288154602, -0.030126605182886124, 0.4788910448551178]], [[2.0335803031921387, -0.6745809316635132, 1.1494306325912476], [-0.23542705178260803, 0.8394433259963989, -0.029626991599798203, 0.4889083206653595]], [[2.0366287231445312, -0.6464328169822693, 1.1746975183486938], [-0.22435684502124786, 0.836633026599884, -0.029064320027828217, 0.49886319041252136]], [[2.0391347408294678, -0.6183727979660034, 1.2000504732131958], [-0.2133556455373764, 0.8335705995559692, -0.028439069166779518, 0.5087540149688721]], [[2.0410943031311035, -0.5903899669647217, 1.2254828214645386], [-0.20242924988269806, 0.8302575945854187, -0.0277517419308424, 0.5185794234275818]], [[2.0425026416778564, -0.5624731779098511, 1.2509874105453491], [-0.19158342480659485, 0.8266957998275757, -0.02700282819569111, 0.5283376574516296]], [[2.043356418609619, -0.5346112847328186, 1.276557207107544], [-0.1808239221572876, 0.8228873610496521, -0.026192834600806236, 0.538027286529541]], [[2.043652057647705, -0.5067927837371826, 1.30218505859375], [-0.17015637457370758, 0.8188338279724121, -0.02532227709889412, 0.547646701335907]], [[2.043386220932007, -0.47900623083114624, 1.3278636932373047], [-0.15958642959594727, 0.8145376443862915, -0.024391746148467064, 0.5571945309638977]], [[2.042556047439575, -0.45124006271362305, 1.353585958480835], [-0.14911971986293793, 0.8100012540817261, -0.023401761427521706, 0.5666690468788147]], [[2.04115891456604, -0.4234825670719147, 1.3793447017669678], [-0.1387617439031601, 0.805226743221283, -0.022352920845150948, 0.5760689377784729]], [[2.0391929149627686, -0.3957219421863556, 1.4051322937011719], [-0.12851794064044952, 0.8002170324325562, -0.02124582976102829, 0.5853925347328186]], [[2.036656141281128, -0.3679463267326355, 1.4309415817260742], [-0.11839377135038376, 0.794974684715271, -0.02008109912276268, 0.594638466835022]], [[2.0335466861724854, -0.34014376997947693, 1.4567649364471436], [-0.1083945706486702, 0.7895025610923767, -0.018859343603253365, 0.6038052439689636]], [[2.0298635959625244, -0.31230223178863525, 1.4825952053070068], [-0.09852561354637146, 0.7838033437728882, -0.01758122257888317, 0.612891435623169]], [[2.025606155395508, -0.28440967202186584, 1.5084246397018433], [-0.08879212290048599, 0.7778803706169128, -0.016247376799583435, 0.6218955516815186]], [[2.0207738876342773, -0.2564539909362793, 1.5342458486557007], [-0.07919923961162567, 0.7717368006706238, -0.014858491718769073, 0.6308162212371826]], [[2.015366315841675, -0.22842296957969666, 1.5600512027740479], [-0.06975200772285461, 0.7653756737709045, -0.013415247201919556, 0.6396520733833313]], [[2.0093839168548584, -0.20030447840690613, 1.585833191871643], [-0.06045546010136604, 0.7588006258010864, -0.011918352916836739, 0.64840167760849]], [[2.0028269290924072, -0.17208628356456757, 1.611584186553955], [-0.05131449177861214, 0.7520151138305664, -0.010368531569838524, 0.6570636034011841]], [[1.9956966638565063, -0.1437561810016632, 1.6372966766357422], [-0.04233391582965851, 0.7450228333473206, -0.008766504935920238, 0.6656365394592285]], [[1.9879941940307617, -0.1153019517660141, 1.6629629135131836], [-0.033518485724925995, 0.7378274202346802, -0.0071130250580608845, 0.6741191148757935]], [[1.979721188545227, -0.08671139180660248, 1.6885753870010376], [-0.024872858077287674, 0.7304328083992004, -0.0054088556207716465, 0.6825100183486938]], [[1.9708795547485352, -0.05797231197357178, 1.7141263484954834], [-0.01640160381793976, 0.7228429913520813, -0.0036547654308378696, 0.6908079385757446]], [[1.9614715576171875, -0.029072556644678116, 1.7396082878112793], [-0.008109190501272678, 0.7150619626045227, -0.0018515465781092644, 0.6990115642547607]], [[1.9515000581741333, 0.0, 1.7650134563446045], [0.0, 0.7070939540863037, 0.0, 0.7071195840835571]]]}}], [{"element": 1, "tag": "transfer", "path": [[0.0, 0.0, 0.0, 0.0, 0.0, 0.0, 0.0], [0.07090111819836883, 0.030430492960043624, 0.03528580317335513, 0.01957373619107261, -0.005136628275542614, 0.1115539804607541, 0.018106187798511086], [0.10635167729755327, 0.04564573944006543, 0.052928704760032697, 0.029360604286608916, -0.007704942413313921, 0.16733097069113115, 0.02715928169776663], [0.1418022363967377, 0.06086098592008725, 0.07057160634671027, 0.03914747238214522, -0.010273256551085228, 0.2231079609215082, 0.03621237559702217], [0.1772527954959221, 0.07607623240010906, 0.08821450793338784, 0.048934340477681526, -0.012841570688856534, 0.2788849511518853, 0.045265469496277716], [0.21270335459510653, 0.09129147888013088, 0.1058574095200654, 0.05872120857321783, -0.015409884826627841, 0.3346619413822623, 0.05431856339553326], [0.24815391369429096, 0.1065067253601527, 0.12350031110674298, 0.06850807666875414, -0.017978198964399148, 0.3904389316126393, 0.0633716572947888], [0.2836044727934754, 0.12172197184017451, 0.14114321269342053, 0.07829494476429044, -0.020546513102170455, 0.4462159218430164, 0.07242475119404435], [0.3190550318926598, 0.1369372183201963, 0.1587861142800981, 0.08808181285982675, -0.023114827239941762, 0.5019929120733935, 0.08147784509329989], [0.35450559099184425, 0.15215246480021813, 0.17642901586677567, 0.09786868095536305, -0.02568314137771307, 0.5577699023037705, 0.09053093899255543], [0.3899561500910287, 0.16736771128023994, 0.19407191745345323, 0.10765554905089936, -0.028251455515484376, 0.6135468925341476, 0.09958403289181098], [0.4254067091902131, 0.18258295776026176, 0.21171481904013079, 0.11744241714643566, -0.030819769653255683, 0.6693238827645247, 0.10863712679106652], [0.46085726828939755, 0.19779820424028358, 0.22935772062680837, 0.12722928524197197, -0.03338808379102699, 0.7251008729949018, 0.11769022069032206], [0.496307827388582, 0.2130134507203054, 0.24700062221348593, 0.13701615333750827, -0.0359563979287983, 0.7808778632252789, 0.1267433145895776], [0.5317583864877664, 0.2282286972003272, 0.2646435238001635, 0.14680302143304458, -0.038524712066569614, 0.8366548534556559, 0.13579640848883315], [0.5672089455869508, 0.24344394368034902, 0.28228642538684107, 0.15658988952858088, -0.04109302620434092, 0.892431843686033, 0.1448495023880887], [0.6026595046861352, 0.2586591901603708, 0.29992932697351865, 0.1663767576241172, -0.04366134034211222, 0.9482088339164101, 0.15390259628734423], [0.6381100637853195, 0.2738744366403926, 0.31757222856019623, 0.1761636257196535, -0.04622965447988353, 1.0039858241467872, 0.16295569018659978], [0.6735606228845039, 0.28908968312041444, 0.3352151301468738, 0.1859504938151898, -0.04879796861765484, 1.0597628143771642, 0.17200878408585532], [0.7090111819836883, 0.30430492960043626, 0.3528580317335514, 0.1957373619107261, -0.051366282755426144, 1.1155398046075413, 0.18106187798511086], [0.7444617410828727, 0.3195201760804581, 0.370500933320229, 0.2055242300062624, -0.05393459689319745, 1.1713167948379184, 0.1901149718843664], [0.7799123001820571, 0.3347354225604799, 0.38814383490690657, 0.21531109810179871, -0.05650291103096876, 1.2270937850682955, 0.19916806578362195], [0.8153628592812416, 0.3499506690405017, 0.40578673649358415, 0.22509796619733502, -0.05907122516874007, 1.2828707752986725, 0.2082211596828775], [0.850813418380426, 0.3651659155205235, 0.42342963808026174, 0.23488483429287133, -0.06163953930651137, 1.3386477655290496, 0.21727425358213304], [0.8862639774796104, 0.38038116200054534, 0.44107253966693927, 0.24467170238840763, -0.06420785344428268, 1.3944247557594267, 0.22632734748138858], [0.9217145365787949, 0.39559640848056715, 0.45871544125361685, 0.25445857048394394, -0.06677616758205399, 1.4502017459898038, 0.23538044138064412], [0.9571650956779794, 0.41081165496058897, 0.47635834284029444, 0.26424543857948024, -0.0693444817198253, 1.5059787362201809, 0.24443353527989967], [0.9926156547771637, 0.4260269014406108, 0.49400124442697196, 0.27403230667501655, -0.0719127958575966, 1.561755726450558, 0.2534866291791552], [1.0280662138763481, 0.4412421479206326, 0.5116441460136495, 0.28381917477055285, -0.07448110999536792, 1.6175327166809348, 0.2625397230784108], [1.0635167729755326, 0.4564573944006544, 0.5292870476003271, 0.29360604286608916, -0.07704942413313923, 1.6733097069113119, 0.2715928169776663], [1.098967332074717, 0.47167264088067623, 0.5469299491870047, 0.30339291096162546, -0.07961773827091054, 1.729086697141689, 0.2806459108769218], [1.1344178911739016, 0.48688788736069805, 0.5645728507736822, 0.31317977905716177, -0.08218605240868183, 1.7848636873720658, 0.2896990047761774], [1.169868450273086, 0.5021031338407198, 0.5822157523603597, 0.32296664715269807, -0.08475436654645313, 1.8406406776024427, 0.29875209867543295], [1.2053190093722703, 0.5173183803207416, 0.5998586539470373, 0.3327535152482344, -0.08732268068422444, 1.8964176678328197, 0.30780519257468847]], "attachments": [{"parent_name": "ECL_robot1_with_track", "parent_link_name": "eef_tcp_frame", "grasp_pose": [[-4.172325134277344e-06, 0.07220666110515594, -4.172325134277344e-07], [0.5000004172325134, 0.5000012516975403, 0.4999998211860657, -0.49999892711639404]], "child_name": "body278"}], "link_path": {"eef_tcp_frame": [[[1.9515000581741333, 0.0, 1.7650134563446045], [0.0, 0.7070939540863037, 0.0, 0.7071195840835571]], [[1.9899194240570068, -0.010617312043905258, 1.6106432676315308], [-0.006468113977462053, 0.763388991355896, 0.013807245530188084, 0.6457590460777283]], [[2.0017919540405273, -0.015564147382974625, 1.5335414409637451], [-0.009904267266392708, 0.7895567417144775, 0.01949581317603588, 0.6132878065109253]], [[2.0088398456573486, -0.02054210938513279, 1.4569122791290283], [-0.013457530178129673, 0.8143427968025208, 0.02432315982878208, 0.5797182321548462]], [[2.011150360107422, -0.025748157873749733, 1.3810617923736572], [-0.017114024609327316, 0.83770352602005, 0.028254760429263115, 0.5451253652572632]], [[2.0088400840759277, -0.03137112408876419, 1.3062881231307983], [-0.020859410986304283, 0.8595983982086182, 0.03125936910510063, 0.5095866322517395]], [[2.00205397605896, -0.03758988156914711, 1.2328797578811646], [-0.024678898975253105, 0.8799888491630554, 0.03330906480550766, 0.4731820225715637]], [[1.9909627437591553, -0.0445716418325901, 1.1611137390136719], [-0.028557326644659042, 0.8988395929336548, 0.034379422664642334, 0.4359930753707886]], [[1.9757622480392456, -0.052470363676548004, 1.0912535190582275], [-0.032479166984558105, 0.9161178469657898, 0.034449514001607895, 0.39810359477996826]], [[1.9566717147827148, -0.06142531335353851, 1.023547887802124], [-0.03642858937382698, 0.9317935705184937, 0.03350206837058067, 0.35959872603416443]], [[1.9339309930801392, -0.07155975699424744, 0.9582289457321167], [-0.040389496833086014, 0.9458397626876831, 0.031523484736680984, 0.3205653131008148]], [[1.907799243927002, -0.08297987282276154, 0.8955107927322388], [-0.04434557631611824, 0.9582321643829346, 0.028503892943263054, 0.2810909152030945]], [[1.8785518407821655, -0.09577378630638123, 0.8355883359909058], [-0.04828033596277237, 0.9689496159553528, 0.02443721517920494, 0.24126434326171875]], [[1.8464787006378174, -0.11001083999872208, 0.7786359786987305], [-0.05217717960476875, 0.9779738187789917, 0.01932118460536003, 0.20117506384849548]], [[1.811881184577942, -0.12574103474617004, 0.7248066663742065], [-0.05601939558982849, 0.9852896928787231, 0.013157363049685955, 0.1609128713607788]], [[1.7750699520111084, -0.142994686961174, 0.6742308735847473], [-0.05979027599096298, 0.9908850193023682, 0.005951147526502609, 0.1205679401755333]], [[1.7363616228103638, -0.16178235411643982, 0.6270160675048828], [-0.06347309798002243, 0.9947507381439209, -0.0022882239427417517, 0.08023031055927277]], [[1.6960769891738892, -0.18209481239318848, 0.5832458138465881], [-0.0670512244105339, 0.9968809485435486, -0.011547699570655823, 0.03998984396457672]], [[1.654537320137024, -0.2039034515619278, 0.5429797768592834], [-0.07050812244415283, 0.9972727298736572, -0.021810440346598625, -6.411201320588589e-05]], [[1.612062692642212, -0.22716070711612701, 0.506253182888031], [-0.07382738590240479, 0.9959264397621155, -0.03305584937334061, -0.039842911064624786]], [[1.568968415260315, -0.2518008053302765, 0.4730767607688904], [-0.07699286192655563, 0.9928452372550964, -0.045259639620780945, -0.07925885915756226]], [[1.5255630016326904, -0.2777406573295593, 0.44343698024749756], [-0.07998860627412796, 0.9880357384681702, -0.05839388072490692, -0.11822544038295746]], [[1.4821457862854004, -0.30488094687461853, 0.41729623079299927], [-0.0827990248799324, 0.9815075397491455, -0.07242710888385773, -0.15665756165981293]], [[1.439003825187683, -0.3331073522567749, 0.39459314942359924], [-0.0854087844491005, 0.9732731580734253, -0.08732432872056961, -0.19447168707847595]], [[1.3964104652404785, -0.3622921109199524, 0.37524348497390747], [-0.08780299872159958, 0.9633481502532959, -0.1030471920967102, -0.23158617317676544]], [[1.3546228408813477, -0.3922954797744751, 0.3591404855251312], [-0.08996722847223282, 0.9517514705657959, -0.11955413222312927, -0.26792144775390625]], [[1.3138799667358398, -0.4229675233364105, 0.34615612030029297], [-0.0918874442577362, 0.9385045766830444, -0.1368003487586975, -0.3034001290798187]], [[1.274401068687439, -0.45414990186691284, 0.3361419141292572], [-0.0935501754283905, 0.923632025718689, -0.15473800897598267, -0.33794736862182617]], [[1.2363839149475098, -0.4856778681278229, 0.3289302885532379], [-0.09494251757860184, 0.9071614146232605, -0.17331646382808685, -0.37149086594581604]], [[1.200003743171692, -0.5173823237419128, 0.3243357539176941], [-0.0960521399974823, 0.8891230821609497, -0.19248224794864655, -0.4039612412452698]], [[1.1654118299484253, -0.5490916967391968, 0.3221563994884491], [-0.09686736017465591, 0.8695501089096069, -0.21217934787273407, -0.4352920353412628]], [[1.132735013961792, -0.5806344151496887, 0.3221754729747772], [-0.09737714380025864, 0.8484784364700317, -0.23234927654266357, -0.46542003750801086]], [[1.1020745038986206, -0.6118406057357788, 0.3241630494594574], [-0.0975712463259697, 0.8259464502334595, -0.2529313266277313, -0.49428537487983704]], [[1.073506236076355, -0.642544686794281, 0.3278776705265045], [0.09744001924991608, -0.8019952178001404, 0.27386265993118286, 0.5218315720558167]]]}}, {"element": 1, "tag": "place_approach", "path": [[1.2053190093722703, 0.5173183803207416, 0.5998586539470373, 0.3327535152482344, -0.08732268068422444, 1.8964176678328197, 0.30780519257468847], [1.2053190093722703, 0.507393110523809, 0.5022882960680582, 0.3848857744826746, -0.03947282872338299, 1.7415354832550556, 0.3966411361060379], [1.2053190093722703, 0.5021141557406504, 0.3977069574293639, 0.45122418384189666, -0.004876135088232025, 1.5757530020794106, 0.4796082861989458], [1.2053190093722703, 0.5025028876296522, 0.28852341433152395, 0.5293297159141251, 0.017342337179789297, 1.4003833513528583, 0.5620689032192422], [1.2053190093722703, 0.5099039455030072, 0.1775913539803531, 0.6165894141631489, 0.025535534433384185, 1.216381199340463, 0.6506155376501052], [1.2053190093722703, 0.5259743115680849, 0.06849946624696153, 0.7101928385956653, 0.013817271809914503, 1.0246295712722286, 0.7550589098914914], [1.2053190093722703, 0.5527168863666406, -0.03401123281050583, 0.8071087340422898, -0.03265837006314975, 0.8267065201128938, 0.8935648090782725]], "attachments": [{"parent_name": "ECL_robot1_with_track", "parent_link_name": "eef_tcp_frame", "grasp_pose": [[-4.172325134277344e-06, 0.07220666110515594, -4.172325134277344e-07], [0.5000004172325134, 0.5000012516975403, 0.4999998211860657, -0.49999892711639404]], "child_name": "body278"}], "link_path": {"eef_tcp_frame": [[[1.073506236076355, -0.642544686794281, 0.3278776705265045], [0.09744001924991608, -0.8019952178001404, 0.27386265993118286, 0.5218315720558167]], [[1.0587738752365112, -0.6391950845718384, 0.3320753574371338], [-0.05468371883034706, 0.861469030380249, -0.2369903177022934, -0.4457763135433197]], [[1.043648362159729, -0.6351149678230286, 0.33404552936553955], [-0.011241203173995018, 0.9101714491844177, -0.19714970886707306, -0.3641339838504791]], [[1.028681755065918, -0.6301422119140625, 0.3338196873664856], [0.03234170004725456, 0.9474858641624451, -0.15484246611595154, -0.27793586254119873]], [[1.014376163482666, -0.6241780519485474, 0.3315390348434448], [0.07551877200603485, 0.9729456305503845, -0.11059572547674179, -0.18826115131378174]], [[1.0012116432189941, -0.6171926259994507, 0.32744747400283813], [0.11773921549320221, 0.9862334132194519, -0.06494329869747162, -0.09624682366847992]], [[0.9895564913749695, -0.6091790199279785, 0.32186734676361084], [0.15848994255065918, 0.9871832132339478, -0.01846929080784321, -0.003016186412423849]]]}}, {"element": 1, "tag": "place_retreat", "path": [[1.2053190093722703, 0.5527470178945978, -0.03401119386960524, 0.8071107407803285, -0.032705328746983495, 0.8267043692396464, 0.8936419746817955], [1.2053190093722703, 0.5530061789995884, -0.03977705025959977, 0.8042380871748848, -0.032564552745555655, 0.8353209715944955, 0.8936379149757959], [1.2053190093722703, 0.5531917359920987, -0.0454686523139481, 0.8012808756068148, -0.032313455549429514, 0.8439695851342484, 0.8934494404089497], [1.2053190093722703, 0.5533720537875114, -0.051074280991084346, 0.7982611170230709, -0.03206145344235112, 0.8525948898133631, 0.8932547228741062], [1.2053190093722703, 0.5535519713774968, -0.05659381001279551, 0.7951795457098801, -0.03181578695445767, 0.8611959689026991, 0.8930658564636736], [1.2053190093722703, 0.5537318137479328, -0.06202722975176544, 0.7920365842047044, -0.03157673553146118, 0.8697723948919525, 0.892883448997454], [1.2053190093722703, 0.5539116008209408, -0.06737456541824637, 0.7888326464065898, -0.03134412383833375, 0.8783237774494397, 0.8927073475806347], [1.2053190093722703, 0.5540913326295565, -0.07263586903584454, 0.7855681464847509, -0.03111775471549507, 0.8868497523569069, 0.8925373573075347], [1.2053190093722703, 0.5542726470681075, -0.0778048268157823, 0.7822600181459156, -0.030901646663902854, 0.895308264205625, 0.8923793254219674]], "attachments": [], "link_path": {"eef_tcp_frame": [[[0.9895467758178711, -0.6091645956039429, 0.32186564803123474], [0.1584971398115158, 0.9871819019317627, -0.01848216913640499, -0.003003891557455063]], [[0.9896255135536194, -0.60881507396698, 0.33057621121406555], [0.1585160344839096, 0.9871784448623657, -0.01850913092494011, -0.0029634793754667044]], [[0.9897263050079346, -0.608501136302948, 0.3393203914165497], [0.1585172563791275, 0.9871782660484314, -0.018511289730668068, -0.0029615021776407957]], [[0.9898286461830139, -0.6081897616386414, 0.3480648994445801], [0.1585172414779663, 0.9871782660484314, -0.01851126179099083, -0.0029616241808980703]], [[0.9899311661720276, -0.6078785061836243, 0.35680943727493286], [0.15851712226867676, 0.9871782064437866, -0.018511096015572548, -0.0029618656262755394]], [[0.9900336265563965, -0.607567310333252, 0.36555394530296326], [0.1585170328617096, 0.9871782660484314, -0.018510930240154266, -0.0029620989225804806]], [[0.9901360869407654, -0.6072561144828796, 0.37429842352867126], [0.15851694345474243, 0.9871782660484314, -0.018510770052671432, -0.002962316619232297]], [[0.9902385473251343, -0.6069448590278625, 0.3830428719520569], [0.15851686894893646, 0.9871783256530762, -0.018510622903704643, -0.002962520346045494]], [[0.990341305732727, -0.6066327095031738, 0.39176279306411743], [0.1585172563791275, 0.987178385257721, -0.018505249172449112, -0.002954726805910468]]]}}, {"element": null, "tag": "transit", "path": [[1.2053190093722703, 0.5542726470681075, -0.0778048268157823, 0.7822600181459156, -0.030901646663902854, 0.895308264205625, 0.8923793254219674], [1.1596629862899872, 0.5332774710428003, -0.07485767428488145, 0.7526289568525097, -0.029731129744815624, 0.8613950723796544, 0.8585770782468929], [1.1505317816735305, 0.529078435837739, -0.07426824377870128, 0.7467027445938286, -0.02949702636099818, 0.8546124340144603, 0.8518166288118779], [1.141400577057074, 0.5248794006326776, -0.07367881327252111, 0.7407765323351474, -0.029262922977180732, 0.8478297956492662, 0.845056179376863], [1.1322693724406174, 0.5206803654276161, -0.07308938276634094, 0.7348503200764662, -0.029028819593363286, 0.841047157284072, 0.8382957299418481], [1.1231381678241608, 0.5164813302225546, -0.07249995226016077, 0.728924107817785, -0.02879471620954584, 0.8342645189188779, 0.8315352805068332], [1.114006963207704, 0.5122822950174932, -0.0719105217539806, 0.7229978955591039, -0.028560612825728394, 0.8274818805536838, 0.8247748310718183], [1.1048757585912474, 0.5080832598124319, -0.07132109124780044, 0.7170716833004227, -0.02832650944191095, 0.8206992421884896, 0.8180143816368033], [1.095744553974791, 0.5038842246073704, -0.07073166074162027, 0.7111454710417415, -0.028092406058093503, 0.8139166038232954, 0.8112539322017884], [1.0866133493583343, 0.49968518940230894, -0.0701422302354401, 0.7052192587830604, -0.027858302674276057, 0.8071339654581013, 0.8044934827667736], [1.0774821447418776, 0.4954861541972475, -0.06955279972925993, 0.6992930465243792, -0.02762419929045861, 0.8003513270929072, 0.7977330333317586], [1.0683509401254212, 0.49128711899218613, -0.06896336922307976, 0.693366834265698, -0.027390095906641165, 0.7935686887277131, 0.7909725838967436], [1.0592197355089645, 0.4870880837871247, -0.06837393871689959, 0.6874406220070168, -0.02715599252282372, 0.7867860503625189, 0.7842121344617288], [1.0500885308925079, 0.4828890485820633, -0.06778450821071942, 0.6815144097483357, -0.026921889139006273, 0.7800034119973248, 0.7774516850267139], [1.0409573262760512, 0.47869001337700184, -0.06719507770453925, 0.6755881974896545, -0.026687785755188827, 0.7732207736321307, 0.7706912355916989], [1.0318261216595945, 0.4744909781719404, -0.06660564719835908, 0.6696619852309733, -0.02645368237137138, 0.7664381352669365, 0.763930786156684], [1.022694917043138, 0.47029194296687904, -0.06601621669217891, 0.6637357729722921, -0.026219578987553935, 0.7596554969017424, 0.7571703367216691], [1.0135637124266814, 0.4660929077618176, -0.06542678618599874, 0.657809560713611, -0.02598547560373649, 0.7528728585365483, 0.7504098872866543], [1.004432507810225, 0.4618938725567562, -0.06483735567981858, 0.6518833484549298, -0.025751372219919043, 0.7460902201713542, 0.7436494378516393], [0.9953013031937683, 0.4576948373516948, -0.0642479251736384, 0.6459571361962486, -0.025517268836101597, 0.7393075818061601, 0.7368889884166243], [0.9861700985773117, 0.4534958021466334, -0.06365849466745824, 0.6400309239375674, -0.02528316545228415, 0.7325249434409659, 0.7301285389816095], [0.9770388939608552, 0.44929676694157195, -0.06306906416127807, 0.6341047116788863, -0.025049062068466705, 0.7257423050757718, 0.7233680895465946], [0.9679076893443986, 0.4450977317365105, -0.0624796336550979, 0.6281784994202051, -0.02481495868464926, 0.7189596667105776, 0.7166076401115796], [0.9587764847279421, 0.4408986965314491, -0.06189020314891773, 0.6222522871615239, -0.024580855300831813, 0.7121770283453834, 0.7098471906765647], [0.9496452801114854, 0.4366996613263877, -0.06130077264273756, 0.6163260749028427, -0.024346751917014367, 0.7053943899801893, 0.7030867412415498], [0.9405140754950289, 0.4325006261213263, -0.06071134213655739, 0.6103998626441616, -0.02411264853319692, 0.6986117516149952, 0.6963262918065349], [0.9313828708785723, 0.42830159091626485, -0.06012191163037722, 0.6044736503854804, -0.023878545149379475, 0.6918291132498011, 0.68956584237152], [0.9222516662621156, 0.4241025557112035, -0.059532481124197054, 0.5985474381267992, -0.02364444176556203, 0.685046474884607, 0.682805392936505], [0.9131204616456591, 0.41990352050614205, -0.058943050618016885, 0.592621225868118, -0.023410338381744583, 0.6782638365194128, 0.6760449435014901], [0.9039892570292025, 0.4157044853010806, -0.058353620111836715, 0.5866950136094369, -0.023176234997927137, 0.6714811981542187, 0.6692844940664753], [0.894858052412746, 0.4115054500960192, -0.057764189605656546, 0.5807688013507557, -0.02294213161410969, 0.6646985597890246, 0.6625240446314603], [0.8857268477962894, 0.40730641489095776, -0.05717475909947638, 0.5748425890920745, -0.022708028230292245, 0.6579159214238304, 0.6557635951964453], [0.8765956431798327, 0.4031073796858964, -0.05658532859329621, 0.5689163768333934, -0.0224739248464748, 0.6511332830586363, 0.6490031457614305], [0.8400708247140064, 0.3863112388656507, -0.05422760656857553, 0.5452115277986687, -0.021537511311205015, 0.6240027295978597, 0.6219613480213708], [0.8035460062481801, 0.36951509804540505, -0.051869884543854855, 0.521506678763944, -0.02060109777593523, 0.5968721761370832, 0.5949195502813113], [0.7670211877823537, 0.3527189572251594, -0.04951216251913418, 0.4978018297292192, -0.019664684240665448, 0.5697416226763067, 0.5678777525412517], [0.7304963693165274, 0.3359228164049137, -0.0471544404944135, 0.47409698069449446, -0.018728270705395664, 0.5426110692155302, 0.5408359548011921], [0.6939715508507011, 0.31912667558466806, -0.044796718469692826, 0.45039213165976977, -0.01779185717012588, 0.5154805157547536, 0.5137941570611324], [0.6574467323848747, 0.3023305347644224, -0.04243899644497215, 0.4266872826250451, -0.016855443634856096, 0.4883499622939771, 0.4867523593210728], [0.6209219139190484, 0.28553439394417673, -0.04008127442025147, 0.4029824335903203, -0.015919030099586312, 0.46121940883320056, 0.4597105615810132], [0.584397095453222, 0.26873825312393107, -0.037723552395530796, 0.37927758455559557, -0.014982616564316528, 0.43408885537242403, 0.4326687638409536], [0.5478722769873957, 0.25194211230368535, -0.03536583037081012, 0.3555727355208709, -0.014046203029046744, 0.4069583019116475, 0.405626966100894], [0.5113474585215694, 0.23514597148343966, -0.03300810834608944, 0.3318678864861462, -0.013109789493776962, 0.37982774845087103, 0.3785851683608344], [0.474822640055743, 0.21834983066319397, -0.03065038632136877, 0.30816303745142143, -0.01217337595850718, 0.35269719499009455, 0.3515433706207748], [0.4382978215899166, 0.20155368984294827, -0.028292664296648097, 0.2844581884166967, -0.011236962423237396, 0.325566641529318, 0.3245015728807152], [0.4017730031240902, 0.18475754902270258, -0.02593494227192742, 0.260753339381972, -0.010300548887967612, 0.2984360880685415, 0.2974597751406556], [0.3652481846582638, 0.1679614082024569, -0.023577220247206744, 0.23704849034724726, -0.009364135352697828, 0.271305534607765, 0.270417977400596], [0.3287233661924374, 0.1511652673822112, -0.021219498222486068, 0.21334364131252254, -0.008427721817428046, 0.24417498114698852, 0.24337617966053637], [0.292198547726611, 0.1343691265619655, -0.018861776197765395, 0.1896387922777978, -0.007491308282158263, 0.21704442768621202, 0.21633438192047677], [0.25567372926078463, 0.11757298574171982, -0.01650405417304472, 0.1659339432430731, -0.00655489474688848, 0.18991387422543551, 0.18929258418041717], [0.21914891079495827, 0.10077684492147412, -0.014146332148324047, 0.14222909420834837, -0.005618481211618697, 0.162783320764659, 0.16225078644035756], [0.1826240923291319, 0.08398070410122843, -0.011788610123603372, 0.11852424517362364, -0.004682067676348914, 0.1356527673038825, 0.13520898870029796], [0.1460992738633055, 0.06718456328098274, -0.009430888098882697, 0.09481939613889892, -0.003745654141079131, 0.10852221384310601, 0.10816719096023837], [0.10957445539747913, 0.050388422460737055, -0.0070731660741620225, 0.0711145471041742, -0.002809240605809348, 0.0813916603823295, 0.08112539322017878], [0.07304963693165276, 0.03359228164049137, -0.004715444049441349, 0.04740969806944947, -0.0018728270705395656, 0.054261106921553004, 0.05408359548011919], [0.03652481846582638, 0.016796140820245685, -0.0023577220247206743, 0.023704849034724734, -0.0009364135352697828, 0.027130553460776502, 0.027041797740059596], [0.0, 0.0, 0.0, 0.0, 0.0, 0.0, 0.0]], "attachments": [], "link_path": {"eef_tcp_frame": [[[0.990341305732727, -0.6066327095031738, 0.39176279306411743], [0.1585172563791275, 0.987178385257721, -0.018505249172449112, -0.002954726805910468]], [[1.0469402074813843, -0.5548645853996277, 0.42114755511283875], [0.15251745283603668, 0.9881078600883484, 0.001376670552417636, 0.01947745494544506]], [[1.0582600831985474, -0.544815182685852, 0.42730316519737244], [0.15129953622817993, 0.9881806373596191, 0.005202787928283215, 0.024093521758913994]], [[1.069576382637024, -0.534868061542511, 0.43355125188827515], [0.15007594227790833, 0.9882155656814575, 0.00897766463458538, 0.028751423582434654]], [[1.0808873176574707, -0.5250235795974731, 0.4398915767669678], [0.148846834897995, 0.9882127046585083, 0.012700817547738552, 0.03345055878162384]], [[1.092191457748413, -0.5152820944786072, 0.4463239312171936], [0.14761239290237427, 0.9881720542907715, 0.01637178286910057, 0.0381903350353241]], [[1.103487253189087, -0.5056437849998474, 0.45284804701805115], [0.1463727056980133, 0.9880936741828918, 0.019990084692835808, 0.04297013208270073]], [[1.114772915840149, -0.4961090385913849, 0.4594637155532837], [0.14512792229652405, 0.9879773259162903, 0.023555269464850426, 0.0477893240749836]], [[1.126046895980835, -0.4866780638694763, 0.46617063879966736], [0.14387817680835724, 0.9878231883049011, 0.027066880837082863, 0.05264730378985405]], [[1.1373076438903809, -0.4773510992527008, 0.47296857833862305], [0.1426236629486084, 0.9876312613487244, 0.0305244792252779, 0.05754344165325165]], [[1.148553490638733, -0.46812835335731506, 0.47985726594924927], [0.1413644701242447, 0.9874014854431152, 0.03392763063311577, 0.06247710436582565]], [[1.1597827672958374, -0.4590100646018982, 0.48683637380599976], [0.14010076224803925, 0.987133800983429, 0.037275899201631546, 0.06744765490293503]], [[1.1709939241409302, -0.44999635219573975, 0.493905633687973], [0.138832688331604, 0.9868282675743103, 0.04056885838508606, 0.07245445251464844]], [[1.182185411453247, -0.44108742475509644, 0.5010647177696228], [0.1375603973865509, 0.9864848852157593, 0.04380610212683678, 0.07749685645103455]], [[1.1933553218841553, -0.4322833716869354, 0.5083132386207581], [0.1362840086221695, 0.9861035943031311, 0.046987224370241165, 0.08257420361042023]], [[1.2045023441314697, -0.42358431220054626, 0.5156509876251221], [0.1350036859512329, 0.9856845140457153, 0.05011182278394699, 0.08768586069345474]], [[1.2156245708465576, -0.4149903655052185, 0.5230774879455566], [0.1337195783853531, 0.9852275848388672, 0.05317949876189232, 0.09283114224672318]], [[1.2267205715179443, -0.4065015912055969, 0.5305924415588379], [0.13243182003498077, 0.9847327470779419, 0.0561898797750473, 0.098009392619133]], [[1.2377885580062866, -0.3981180191040039, 0.5381955504417419], [0.1311405450105667, 0.9842001795768738, 0.059142570942640305, 0.10321994870901108]], [[1.2488269805908203, -0.38983970880508423, 0.5458862781524658], [0.12984588742256165, 0.9836297035217285, 0.06203722208738327, 0.10846211761236191]], [[1.2598341703414917, -0.3816666305065155, 0.5536643266677856], [0.1285480558872223, 0.9830214381217957, 0.06487346440553665, 0.11373525112867355]], [[1.270808458328247, -0.3735988140106201, 0.561529278755188], [0.1272471398115158, 0.9823753833770752, 0.0676509365439415, 0.1190386638045311]], [[1.2817482948303223, -0.3656361699104309, 0.5694807171821594], [0.12594328820705414, 0.9816914796829224, 0.07036931067705154, 0.12437164038419724]], [[1.2926520109176636, -0.35777872800827026, 0.5775182247161865], [0.12463664263486862, 0.9809698462486267, 0.07302822172641754, 0.12973351776599884]], [[1.3035178184509277, -0.35002630949020386, 0.5856413841247559], [0.12332738935947418, 0.9802104830741882, 0.07562737911939621, 0.135123610496521]], [[1.3143442869186401, -0.3423789143562317, 0.5938497185707092], [0.12201561778783798, 0.9794132709503174, 0.07816644012928009, 0.1405411958694458]], [[1.325129747390747, -0.33483633399009705, 0.6021427512168884], [0.12070149183273315, 0.9785783886909485, 0.08064507693052292, 0.14598557353019714]], [[1.3358724117279053, -0.32739847898483276, 0.6105200052261353], [0.11938518285751343, 0.9777058959007263, 0.08306301385164261, 0.1514560580253601]], [[1.3465708494186401, -0.3200652003288269, 0.6189810633659363], [0.11806682497262955, 0.9767956137657166, 0.08541993051767349, 0.15695196390151978]], [[1.3572232723236084, -0.31283625960350037, 0.6275254487991333], [0.11674654483795166, 0.9758477807044983, 0.08771555125713348, 0.16247251629829407]], [[1.367828130722046, -0.3057115077972412, 0.6361525654792786], [0.11542448401451111, 0.974862277507782, 0.0899495780467987, 0.16801705956459045]], [[1.3783838748931885, -0.29869067668914795, 0.6448619365692139], [0.11410082876682281, 0.9738392233848572, 0.09212177246809006, 0.17358483374118805]], [[1.3888887166976929, -0.29177355766296387, 0.653653085231781], [0.11277567595243454, 0.9727786183357239, 0.09423182904720306, 0.17917513847351074]], [[1.4303675889968872, -0.2651362419128418, 0.6896243095397949], [0.10746321827173233, 0.9681613445281982, 0.1020459532737732, 0.20174714922904968]], [[1.470905065536499, -0.2401326596736908, 0.7268590331077576], [0.10213873535394669, 0.9629461169242859, 0.10884726792573929, 0.2246212512254715]], [[1.5103999376296997, -0.21673683822155, 0.7653189897537231], [0.09681147336959839, 0.9571358561515808, 0.11462295055389404, 0.24775005877017975]], [[1.5487525463104248, -0.1949174553155899, 0.804963231086731], [0.09149070829153061, 0.9507337212562561, 0.11936242133378983, 0.2710857391357422]], [[1.5858656167984009, -0.17463792860507965, 0.8457485437393188], [0.08618555217981339, 0.9437434673309326, 0.12305719405412674, 0.2945798635482788]], [[1.6216442584991455, -0.15585650503635406, 0.8876290917396545], [0.08090522140264511, 0.9361691474914551, 0.1257012039422989, 0.3181837499141693]], [[1.6559962034225464, -0.13852639496326447, 0.9305569529533386], [0.07565878331661224, 0.9280153512954712, 0.1272905021905899, 0.34184861183166504]], [[1.6888325214385986, -0.12259592115879059, 0.9744819402694702], [0.07045524567365646, 0.9192869663238525, 0.12782347202301025, 0.3655253052711487]], [[1.7200672626495361, -0.10800866037607193, 1.0193517208099365], [0.06530357152223587, 0.9099893569946289, 0.12730075418949127, 0.38916489481925964]], [[1.749618411064148, -0.09470361471176147, 1.0651119947433472], [0.0602126270532608, 0.9001283645629883, 0.12572529911994934, 0.41271844506263733]], [[1.7774078845977783, -0.08261541277170181, 1.1117064952850342], [0.05519117787480354, 0.8897100687026978, 0.12310221791267395, 0.43613719940185547]], [[1.8033617734909058, -0.07167453318834305, 1.1590771675109863], [0.05024789646267891, 0.8787412643432617, 0.11943893134593964, 0.45937269926071167]], [[1.8274106979370117, -0.06180751696228981, 1.2071642875671387], [0.04539131745696068, 0.8672288060188293, 0.11474509537220001, 0.48237693309783936]], [[1.8494899272918701, -0.05293722823262215, 1.255906581878662], [0.04062988609075546, 0.8551801443099976, 0.10903256386518478, 0.5051021575927734]], [[1.869539737701416, -0.044983088970184326, 1.3052414655685425], [0.03597189858555794, 0.8426027894020081, 0.10231530666351318, 0.5275018215179443]], [[1.8875055313110352, -0.03786136582493782, 1.355104684829712], [0.03142552077770233, 0.8295051455497742, 0.09460959583520889, 0.5495294332504272]], [[1.9033381938934326, -0.03148546442389488, 1.4054311513900757], [0.026998786255717278, 0.8158959150314331, 0.08593374490737915, 0.5711395144462585]], [[1.9169938564300537, -0.025766197592020035, 1.4561543464660645], [0.022699540480971336, 0.8017836809158325, 0.07630806416273117, 0.5922877192497253]], [[1.9284347295761108, -0.020612115040421486, 1.5072071552276611], [0.01853547804057598, 0.7871778607368469, 0.06575503200292587, 0.612930417060852]], [[1.9376286268234253, -0.01592981070280075, 1.5585216283798218], [0.014514136128127575, 0.7720881700515747, 0.05429903417825699, 0.6330251693725586]], [[1.9445492029190063, -0.01162424311041832, 1.610028862953186], [0.010642851702868938, 0.7565243244171143, 0.04196641594171524, 0.65253084897995]], [[1.94917631149292, -0.007599066011607647, 1.6616597175598145], [0.0069287922233343124, 0.7404968738555908, 0.02878538891673088, 0.6714073419570923]], [[1.951495885848999, -0.0037569664418697357, 1.7133445739746094], [0.003378920955583453, 0.7240164279937744, 0.014785990118980408, 0.6896159648895264]], [[1.9515000581741333, 0.0, 1.7650134563446045], [0.0, 0.7070939540863037, 0.0, 0.7071195840835571]]]}}], [{"element": 0, "tag": "transfer", "path": [[0.0, 0.0, 0.0, 0.0, 0.0, 0.0, 0.0], [0.04990140877344451, 0.020630271415540066, 0.006911098988577798, 0.017032210369489213, -0.02240145128219518, 0.026379781252637492, 0.10124900706661404], [0.07485211316016677, 0.0309454071233101, 0.010366648482866697, 0.02554831555423382, -0.03360217692329277, 0.039569671878956235, 0.15187351059992105], [0.09980281754688902, 0.04126054283108013, 0.013822197977155596, 0.034064420738978425, -0.04480290256439036, 0.05275956250527498, 0.20249801413322807], [0.12475352193361128, 0.051575678538850166, 0.017277747471444494, 0.04258052592372303, -0.056003628205487946, 0.06594945313159373, 0.2531225176665351], [0.14970422632033353, 0.0618908142466202, 0.020733296965733394, 0.051096631108467634, -0.06720435384658553, 0.07913934375791247, 0.3037470211998421], [0.1746549307070558, 0.07220594995439023, 0.02418884646002229, 0.05961273629321224, -0.07840507948768312, 0.09232923438423121, 0.35437152473314915], [0.19960563509377804, 0.08252108566216027, 0.02764439595431119, 0.06812884147795685, -0.0896058051287807, 0.10551912501054996, 0.40499602826645614], [0.2245563394805003, 0.0928362213699303, 0.03109994544860009, 0.07664494666270145, -0.10080653076987829, 0.1187090156368687, 0.45562053179976314], [0.24950704386722256, 0.10315135707770035, 0.03455549494288899, 0.08516105184744606, -0.11200725641097588, 0.13189890626318745, 0.5062450353330702], [0.2744577482539448, 0.11346649278547037, 0.038011044437177885, 0.09367715703219066, -0.12320798205207346, 0.1450887968895062, 0.5568695388663772], [0.29940845264066707, 0.1237816284932404, 0.04146659393146678, 0.10219326221693527, -0.13440870769317106, 0.15827868751582497, 0.6074940423996843], [0.3243591570273893, 0.13409676420101044, 0.04492214342575568, 0.11070936740167987, -0.14560943333426865, 0.17146857814214372, 0.6581185459329914], [0.3493098614141116, 0.14441189990878048, 0.048377692920044575, 0.11922547258642448, -0.15681015897536624, 0.18465846876846248, 0.7087430494662984], [0.37426056580083383, 0.15472703561655052, 0.05183324241433347, 0.1277415777711691, -0.16801088461646382, 0.19784835939478124, 0.7593675529996055], [0.3992112701875561, 0.16504217132432056, 0.05528879190862237, 0.1362576829559137, -0.1792116102575614, 0.2110382500211, 0.8099920565329125], [0.42416197457427834, 0.1753573070320906, 0.058744341402911265, 0.1447737881406583, -0.190412335898659, 0.22422814064741875, 0.8606165600662196], [0.4491126789610006, 0.18567244273986064, 0.06219989089720016, 0.1532898933254029, -0.20161306153975658, 0.2374180312737375, 0.9112410635995266], [0.47406338334772286, 0.19598757844763068, 0.06565544039148906, 0.16180599851014751, -0.21281378718085417, 0.25060792190005626, 0.9618655671328337], [0.4990140877344451, 0.20630271415540072, 0.06911098988577796, 0.17032210369489212, -0.22401451282195176, 0.263797812526375, 1.0124900706661406], [0.5239647921211673, 0.21661784986317076, 0.07256653938006687, 0.17883820887963672, -0.23521523846304934, 0.2769877031526938, 1.0631145741994477], [0.5489154965078895, 0.2269329855709408, 0.07602208887435577, 0.18735431406438133, -0.24641596410414693, 0.29017759377901253, 1.1137390777327547], [0.5738662008946118, 0.23724812127871084, 0.07947763836864467, 0.19587041924912593, -0.25761668974524454, 0.3033674844053313, 1.1643635812660618], [0.5988169052813341, 0.24756325698648088, 0.08293318786293358, 0.20438652443387054, -0.26881741538634213, 0.31655737503165005, 1.2149880847993688], [0.6237676096680563, 0.2578783926942509, 0.08638873735722248, 0.21290262961861514, -0.2800181410274397, 0.3297472656579688, 1.2656125883326759], [0.6487183140547786, 0.26819352840202093, 0.08984428685151138, 0.22141873480335975, -0.2912188666685373, 0.34293715628428756, 1.316237091865983], [0.6736690184415008, 0.27850866410979097, 0.09329983634580029, 0.22993483998810435, -0.3024195923096349, 0.3561270469106063, 1.36686159539929], [0.698619722828223, 0.288823799817561, 0.09675538584008919, 0.23845094517284895, -0.3136203179507325, 0.36931693753692507, 1.417486098932597], [0.7235704272149452, 0.29913893552533105, 0.1002109353343781, 0.24696705035759356, -0.32482104359183006, 0.38250682816324383, 1.468110602465904], [0.7485211316016676, 0.3094540712331011, 0.103666484828667, 0.2554831555423382, -0.33602176923292765, 0.3956967187895626, 1.5187351059992111], [0.7734718359883899, 0.31976920694087113, 0.1071220343229559, 0.2639992607270828, -0.34722249487402523, 0.40888660941588134, 1.5693596095325182], [0.7984225403751121, 0.33008434264864117, 0.1105775838172448, 0.2725153659118274, -0.3584232205151228, 0.4220765000422001, 1.6199841130658252], [0.8233732447618343, 0.3403994783564112, 0.11403313331153371, 0.281031471096572, -0.3696239461562204, 0.43526639066851885, 1.6706086165991323], [0.8296109208585148, 0.3429782622833537, 0.11489702068510593, 0.28316049739275817, -0.3724241275664948, 0.43856386332509856, 1.683264742482459], [0.8358485969551954, 0.3455570462102962, 0.11576090805867816, 0.28528952368894434, -0.37522430897676917, 0.44186133598167826, 1.6959208683657858], [0.842086273051876, 0.3481358301372387, 0.11662479543225038, 0.2874185499851305, -0.37802449038704355, 0.44515880863825796, 1.7085769942491127], [0.8483239491485566, 0.35071461406418125, 0.11748868280582261, 0.2895475762813166, -0.380824671797318, 0.4484562812948376, 1.7212331201324393], [0.8545616252452372, 0.35329339799112375, 0.11835257017939484, 0.2916766025775028, -0.3836248532075924, 0.4517537539514173, 1.733889246015766], [0.8607993013419177, 0.35587218191806624, 0.11921645755296706, 0.29380562887368894, -0.38642503461786676, 0.455051226607997, 1.7465453718990929], [0.8670369774385983, 0.3584509658450088, 0.12008034492653928, 0.29593465516987505, -0.3892252160281412, 0.45834869926457666, 1.7592014977824197], [0.8732746535352789, 0.3610297497719513, 0.1209442323001115, 0.2980636814660612, -0.3920253974384156, 0.46164617192115637, 1.7718576236657464], [0.8795123296319595, 0.3636085336988938, 0.12180811967368373, 0.3001927077622474, -0.39482557884868996, 0.46494364457773607, 1.784513749549073], [0.88575000572864, 0.3661873176258363, 0.12267200704725595, 0.30232173405843354, -0.39762576025896434, 0.4682411172343158, 1.7971698754324], [0.8919876818253205, 0.3687661015527788, 0.12353589442082817, 0.3044507603546197, -0.4004259416692387, 0.4715385898908955, 1.8098260013157268], [0.8982253579220011, 0.37134488547972133, 0.1243997817944004, 0.3065797866508058, -0.40322612307951317, 0.4748360625474751, 1.8224821271990534], [0.9044630340186817, 0.37392366940666383, 0.1252636691679726, 0.308708812946992, -0.40602630448978755, 0.4781335352040548, 1.83513825308238], [0.9107007101153622, 0.3765024533336063, 0.12612755654154484, 0.31083783924317815, -0.40882648590006193, 0.48143100786063453, 1.847794378965707], [0.9169383862120428, 0.3790812372605489, 0.12699144391511707, 0.31296686553936426, -0.41162666731033637, 0.4847284805172142, 1.8604505048490338], [0.9231760623087233, 0.38166002118749137, 0.12785533128868928, 0.3150958918355504, -0.41442684872061075, 0.4880259531737939, 1.8731066307323605], [0.9294137384054039, 0.38423880511443387, 0.1287192186622615, 0.3172249181317366, -0.41722703013088513, 0.4913234258303736, 1.8857627566156872], [0.9356514145020844, 0.38681758904137636, 0.12958310603583373, 0.31935394442792275, -0.4200272115411595, 0.4946208984869533, 1.898418882499014], [0.941889090598765, 0.38939637296831886, 0.13044699340940596, 0.3214829707241089, -0.4228273929514339, 0.497918371143533, 1.911075008382341], [0.9481267666954456, 0.3919751568952614, 0.13131088078297817, 0.32361199702029503, -0.42562757436170834, 0.5012158438001126, 1.9237311342656676], [0.9543644427921262, 0.3945539408222039, 0.13217476815655038, 0.3257410233164812, -0.4284277557719827, 0.5045133164566923, 1.9363872601489942], [0.9606021188888068, 0.3971327247491464, 0.13303865553012262, 0.32787004961266736, -0.4312279371822571, 0.5078107891132719, 1.949043386032321], [0.9668397949854873, 0.39971150867608896, 0.13390254290369485, 0.32999907590885347, -0.43402811859253154, 0.5111082617698517, 1.961699511915648], [0.9730774710821679, 0.40229029260303145, 0.13476643027726706, 0.33212810220503963, -0.4368283000028059, 0.5144057344264313, 1.9743556377989746], [0.9793151471788485, 0.40486907652997395, 0.13563031765083927, 0.3342571285012258, -0.4396284814130803, 0.517703207083011, 1.9870117636823013], [0.9855528232755291, 0.40744786045691644, 0.1364942050244115, 0.33638615479741196, -0.4424286628233547, 0.5210006797395906, 1.9996678895656281],