{"problem": ["SP_arch.json"], "config": [{"bar_only": false, "stiffness": true, "collision": true, "teleops": false, "partial_ordering": false, "chosen_bars": null}], "write_time": ["2020-12-26 20:39:03.599528"], "parameters": [{"trans_tol": 0.01, "rot_tol": Infinity, "joint_resolution": [0.05, 0.05395, 0.036250000000000004, 0.061244999999999994, 0.045865, 0.18770499999999998, 0.06565], "joint_weight": [10.0, 0.38197097020626436, 0.38197097020626436, 0.38197097020626436, 0.15915457091927682, 0.15915457091927682, 0.12732365673542145], "joint_jump_threshold": 1.0471975511965976, "enable_self_collisions": true, "pos_step_size": 0.01, "ori_step_size": 0.17453292519943295, "retreat_distance": 0.07}], "plan": [[{"element": 36, "tag": "place_approach", "path": [[2.015152599848621, -0.23307300473459955, 0.0670445314529754, 0.9884896414324095, 0.3209469623635961, 0.2460545975252363, -2.115057244789438], [2.015152599848621, -0.23312471236550267, 0.07215797691819509, 0.9784589167612207, 0.2833495070080682, 0.26833767894537547, -2.0810543044865946], [2.015152599848621, -0.2312127073065521, 0.07685373479390897, 0.9678348725916386, 0.24018981544065918, 0.29185181124396964, -2.0396881497143973], [2.015152599848621, -0.23058307515084367, 0.0822445663443047, 0.9573177561135522, 0.21036733769037383, 0.3151152847747803, -2.0128874561806205], [2.015152599848621, -0.2285816326078824, 0.0875794438984893, 0.9464215651510558, 0.1781771036182665, 0.3390149209529962, -1.9824682914306921], [2.015152599848621, -0.22624843497890929, 0.09319699838342728, 0.9353743785264196, 0.1489209334223474, 0.3630416613041035, -1.954699665969262], [2.015152599848621, -0.2239703779546874, 0.09916943778611367, 0.9242402440496135, 0.12363180478392173, 0.3870336435673447, -1.9309741732184869], [2.015152599848621, -0.22181348722747418, 0.10547944561154658, 0.9130217460043376, 0.10182040916694371, 0.41096504746153584, -1.9108639697812595], [2.015152599848621, -0.21975091936364266, 0.11209903004360582, 0.90171155486159, 0.08278135929702621, 0.43483523058663537, -1.893638188611974], [2.015152599848621, -0.21775031680489887, 0.1190062630662337, 0.890305399325936, 0.06594690775220431, 0.45864317831501605, -1.8786987063383571], [2.015152599848621, -0.21578894330363585, 0.12618493715835824, 0.8788021101804053, 0.05089973143335032, 0.482385185210704, -1.8656066121228476], [2.015152599848621, -0.21387881005573023, 0.13362312379957858, 0.867203841966882, 0.03740828195902205, 0.5060545368479685, -1.8541421136785994], [2.015152599848621, -0.21200436853219312, 0.1413086122851119, 0.8555115483702592, 0.025206711197940778, 0.5296489863359932, -1.8440255511838957], [2.015152599848621, -0.21013777516047902, 0.14923056904944934, 0.8437274807617474, 0.014041007037154754, 0.5531652898655701, -1.8349750774344262], [2.015152599848621, -0.20824380864502223, 0.15738026339716732, 0.8318531506775119, 0.0036795543783696033, 0.5766031707034958, -1.8267245691709735], [2.015152599848621, -0.20635255736569422, 0.1657500012504792, 0.8198934757320948, -0.005903202997408217, 0.5999575030404691, -1.8192783232656606], [2.015152599848621, -0.20446668169719692, 0.17433101650059515, 0.807853012970095, -0.014797766463869436, 0.6232250236857965, -1.8125477886860453], [2.015152599848621, -0.2025865100928931, 0.1831145230948209, 0.7957366204434517, -0.023084858169152404, 0.6464030200923374, -1.8064532589893123]], "attachments": [{"parent_name": "ECL_robot1_with_track", "parent_link_name": "eef_tcp_frame", "grasp_pose": [[2.6226043701171875e-06, -0.21436333656311035, -7.599592208862305e-07], [-0.49999940395355225, -0.49999886751174927, -0.500000536441803, 0.5000011920928955]], "child_name": "body275"}], "link_path": {"eef_tcp_frame": [[[1.1442890167236328, -2.2468738555908203, 0.08360408246517181], [0.7031658887863159, -0.6960458755493164, 0.09926242381334305, -0.1059473305940628]], [[1.1452003717422485, -2.248563766479492, 0.0843522697687149], [0.7051767706871033, -0.6959322690963745, 0.09205419570207596, -0.09964948147535324]], [[1.1464293003082275, -2.2495059967041016, 0.08593358099460602], [0.7069792151451111, -0.6960216760635376, 0.08512141555547714, -0.09213341027498245]], [[1.147594928741455, -2.2509584426879883, 0.0871310830116272], [0.7088171243667603, -0.6958537697792053, 0.07791947573423386, -0.08540716022253036]], [[1.149006962776184, -2.251878261566162, 0.08877751231193542], [0.710467517375946, -0.6958009004592896, 0.07097401469945908, -0.07784443348646164]], [[1.1505424976348877, -2.252666473388672, 0.09048537909984589], [0.7120079398155212, -0.6957170367240906, 0.06411156803369522, -0.0700872465968132]], [[1.1521576642990112, -2.2534751892089844, 0.09215404093265533], [0.713473379611969, -0.6955492496490479, 0.05724635347723961, -0.06236899271607399]], [[1.153846263885498, -2.2543323040008545, 0.09378624707460403], [0.7148726582527161, -0.6952888369560242, 0.050354015082120895, -0.0547265000641346]], [[1.1556127071380615, -2.2552270889282227, 0.09539970010519028], [0.7162046432495117, -0.6949402093887329, 0.04343554750084877, -0.0471421480178833]], [[1.157461166381836, -2.2561464309692383, 0.09700629860162735], [0.7174670100212097, -0.6945079565048218, 0.036496587097644806, -0.03959560766816139]], [[1.1593947410583496, -2.2570807933807373, 0.09861217439174652], [0.7186576128005981, -0.6939955353736877, 0.02954231947660446, -0.03207308053970337]], [[1.1614125967025757, -2.258035182952881, 0.10021830350160599], [0.7197784185409546, -0.6934013962745667, 0.022568052634596825, -0.02458173781633377]], [[1.1635167598724365, -2.259002447128296, 0.10182695835828781], [0.720828115940094, -0.6927274465560913, 0.015578127466142178, -0.017112622037529945]], [[1.1657098531723022, -2.259970188140869, 0.10343866795301437], [0.7218027710914612, -0.6919782757759094, 0.008582912385463715, -0.009649168699979782]], [[1.1679961681365967, -2.2609221935272217, 0.10505324602127075], [0.7226971387863159, -0.6911596059799194, 0.001596210990101099, -0.0021693091839551926]], [[1.1703721284866333, -2.2618703842163086, 0.10666726529598236], [0.7235154509544373, -0.6902667284011841, -0.005391322076320648, 0.005308028310537338]], [[1.172836422920227, -2.2628157138824463, 0.10827851295471191], [0.7242575287818909, -0.689300000667572, -0.012378930114209652, 0.012780945748090744]], [[1.1753877401351929, -2.26375675201416, 0.10988472402095795], [0.7249235510826111, -0.6882593035697937, -0.019365226849913597, 0.020248493179678917]]]}}, {"element": 36, "tag": "place_retreat", "path": [[2.015152599848621, -0.20255392202939237, 0.1831205863609466, 0.795725108775828, -0.02316195505177282, 0.6464190520725377, -1.806342900195441], [2.015152599848621, -0.20234567732723407, 0.17601714985652564, 0.7943084330672401, -0.023151435345846363, 0.6549244197705324, -1.8062083412766736], [2.015152599848621, -0.20223246764188538, 0.16895856803886156, 0.7928169082445473, -0.022918144157056678, 0.6634738195590465, -1.806393770557702], [2.015152599848621, -0.20213130130999638, 0.1619697740264925, 0.7912579391741306, -0.022664118345230338, 0.6720209695375268, -1.8066123471581506], [2.015152599848621, -0.20203162155397517, 0.15505170082996783, 0.7896321972818513, -0.022414087501282078, 0.6805642028163231, -1.8068285637016297], [2.015152599848621, -0.2019321480277503, 0.14820500693768582, 0.787939965648294, -0.022170772908925645, 0.6891025846752693, -1.8070383881857703], [2.015152599848621, -0.2018327329838525, 0.14143029829617912, 0.7861815006982291, -0.02193426982808524, 0.6976352521177664, -1.80724157064297], [2.015152599848621, -0.20173336172618572, 0.13472814989917709, 0.7843570625221906, -0.021704379910200938, 0.7061613684425301, -1.8074382906224995], [2.015152599848621, -0.20163403449811, 0.12809910829269194, 0.7824669179965488, -0.021480881232589923, 0.7146801185538526, -1.8076287666103943]], "attachments": [], "link_path": {"eef_tcp_frame": [[[1.1753978729248047, -2.2637429237365723, 0.10988876968622208], [0.7249181270599365, -0.6882646083831787, -0.019356176257133484, 0.020271673798561096]], [[1.1759026050567627, -2.2636687755584717, 0.11859303712844849], [0.7249006628990173, -0.6882824301719666, -0.019305182620882988, 0.020335962995886803]], [[1.176393747329712, -2.263637065887451, 0.12732920050621033], [0.7248985767364502, -0.688284695148468, -0.01929999142885208, 0.020344000309705734]], [[1.1768839359283447, -2.263611316680908, 0.13606597483158112], [0.7248983979225159, -0.6882848739624023, -0.019299780949950218, 0.020344579592347145]], [[1.1773738861083984, -2.2635860443115234, 0.14480279386043549], [0.7248985171318054, -0.6882847547531128, -0.01930013671517372, 0.020344285294413567]], [[1.1778639554977417, -2.2635607719421387, 0.15353962779045105], [0.7248985171318054, -0.6882846355438232, -0.019300539046525955, 0.02034391276538372]], [[1.1783539056777954, -2.263535499572754, 0.1622764617204666], [0.724898636341095, -0.6882846355438232, -0.019300928339362144, 0.020343558862805367]], [[1.1788438558578491, -2.2635104656219482, 0.17101328074932098], [0.7248987555503845, -0.6882844567298889, -0.019301297143101692, 0.020343223586678505]], [[1.1793338060379028, -2.2634851932525635, 0.17975009977817535], [0.7248988151550293, -0.6882843375205994, -0.01930163986980915, 0.020342912524938583]]]}}], [{"element": 1, "tag": "place_approach", "path": [[0.05215180086277575, -0.036328169101187746, 0.0456567194399776, 1.1095084917036784, -1.3282404454079642, 0.7847049103890434, 0.6359414290081632], [0.05215180086277575, -0.03688001290104778, 0.03133114530748587, 1.0914724773286941, -1.2358144296775904, 0.7683314562952598, 0.5990826477938301], [0.05215180086277575, -0.03975677013312381, 0.016971166101494177, 1.0729128268306762, -1.141133678965327, 0.7555787429444114, 0.5582435343616989], [0.05215180086277575, -0.044813774557135706, 0.003921546596531541, 1.0541761769994724, -1.0471683276304662, 0.7460212716170825, 0.5171886152212334], [0.05215180086277575, -0.0518979013415843, -0.007832793549266118, 1.0354038789048656, -0.9543687631033753, 0.7393696385811175, 0.4765540853995269], [0.05215180086277575, -0.06086551094255759, -0.018372394139631695, 1.0167196403915937, -0.8630133861179743, 0.7353529584233891, 0.4367542645071531], [0.05215180086277575, -0.0715800119137143, -0.027781839357056044, 0.9982378600002173, -0.7733147222783514, 0.7337158916158806, 0.39811857901518993], [0.05215180086277575, -0.08391267711432845, -0.036146976647348415, 0.9800652199682119, -0.6854274308818165, 0.7342210566423044, 0.36090194986081664], [0.05215180086277575, -0.09774317247367628, -0.043551974541405185, 0.9623003604759924, -0.5994528842946913, 0.7366520823359469, 0.3252923499425291], [0.05215180086277575, -0.11295926352310409, -0.050076920161700386, 0.9450344975776569, -0.5154493689663919, 0.7408124227571298, 0.29142244165203035], [0.05215180086277575, -0.1294564875814492, -0.05579755688659184, 0.928353141490087, -0.4334400145178886, 0.7465232434572912, 0.25937942385820656], [0.05215180086277575, -0.1471362525400322, -0.06078243928802703, 0.9123351639135738, -0.35342072531418456, 0.753623339591398, 0.2292151010584795], [0.05215180086277575, -0.16588133154920792, -0.06508648272438304, 0.8970591687498263, -0.27540965065683903, 0.761958151499124, 0.20102153681273785], [0.05215180086277575, -0.18562680248610564, -0.0687810732843945, 0.8825877904541618, -0.1993165929911629, 0.7714042246665185, 0.17472510946090228], [0.05215180086277575, -0.20632013614915812, -0.07192130316070314, 0.8689821821500469, -0.12503776661424637, 0.7818428474893069, 0.1502264104471793], [0.05215180086277575, -0.22781713171264692, -0.07454335596814378, 0.8563095847780543, -0.052612781604568365, 0.7931500166948524, 0.1276599723173278]], "attachments": [{"parent_name": "ECL_robot1_with_track", "parent_link_name": "eef_tcp_frame", "grasp_pose": [[-7.271766662597656e-06, -0.2293395847082138, -5.960464477539063e-08], [0.4999992847442627, 0.5000010132789612, 0.5000008344650269, -0.4999990463256836]], "child_name": "body240"}], "link_path": {"eef_tcp_frame": [[[0.9509776830673218, -0.4336724877357483, 0.13484393060207367], [-0.2248639464378357, 0.8985469937324524, -0.37524479627609253, -0.03522610291838646]], [[0.9580473899841309, -0.4194815456867218, 0.142037495970726], [-0.20004934072494507, 0.9129763245582581, -0.3540647029876709, -0.03305572271347046]], [[0.9655832052230835, -0.405921071767807, 0.15095384418964386], [-0.17503969371318817, 0.9263337254524231, -0.33211377263069153, -0.031103016808629036]], [[0.9735696315765381, -0.3932235538959503, 0.16059117019176483], [-0.14980976283550262, 0.9385025501251221, -0.3097124993801117, -0.029124490916728973]], [[0.981955885887146, -0.3814518451690674, 0.17085495591163635], [-0.12438874691724777, 0.9494615197181702, -0.2869066894054413, -0.027108194306492805]], [[0.9906869530677795, -0.3706561326980591, 0.18169240653514862], [-0.09880883991718292, 0.9591955542564392, -0.26372915506362915, -0.025053618475794792]], [[0.9997062087059021, -0.3608792722225189, 0.19305284321308136], [-0.0731021910905838, 0.9676914811134338, -0.2402125895023346, -0.022962037473917007]], [[1.0089552402496338, -0.35215774178504944, 0.2048867791891098], [-0.04730142280459404, 0.9749379754066467, -0.21638940274715424, -0.020835377275943756]], [[1.018373966217041, -0.34452205896377563, 0.21714547276496887], [-0.02143917605280876, 0.9809258580207825, -0.1922914981842041, -0.018676774576306343]], [[1.0279014110565186, -0.33799731731414795, 0.22978000342845917], [0.004451503977179527, 0.9856474995613098, -0.1679503321647644, -0.01648980751633644]], [[1.037475347518921, -0.3326036036014557, 0.24274034798145294], [0.030337339267134666, 0.9890971779823303, -0.14339691400527954, -0.014277908019721508]], [[1.047033429145813, -0.32835543155670166, 0.25597459077835083], [0.05618490278720856, 0.9912706613540649, -0.11866249889135361, -0.012045134790241718]], [[1.0565166473388672, -0.3252500295639038, 0.26941967010498047], [0.08196596056222916, 0.9921636581420898, -0.09379253536462784, -0.009793163277208805]], [[1.0658595561981201, -0.3233020007610321, 0.2830348610877991], [0.10764231532812119, 0.9917774796485901, -0.06880389153957367, -0.007528561633080244]], [[1.074997067451477, -0.3225269019603729, 0.29676786065101624], [0.13317368924617767, 0.9901144504547119, -0.04371030256152153, -0.0052554854191839695]], [[1.0838770866394043, -0.3228844404220581, 0.3105466961860657], [0.1585405468940735, 0.9871731996536255, -0.018578888848423958, -0.002974832896143198]]]}}, {"element": 1, "tag": "place_retreat", "path": [[0.05215180086277575, -0.22784701587313463, -0.07454491866617964, 0.8563083233470545, -0.05256613198036293, 0.7931517218789759, 0.12758380372891726], [0.05215180086277575, -0.22761583686534792, -0.08082904799087735, 0.8536061788057192, -0.05201494038809988, 0.8021118676095158, 0.12706709194941357], [0.05215180086277575, -0.22732991431981725, -0.08704614719144825, 0.8508274351760908, -0.05155705491238912, 0.8111063627060209, 0.12669705639527853], [0.05215180086277575, -0.22703938678248936, -0.09317094715763749, 0.8479834955646809, -0.05111932476963656, 0.8200743425421868, 0.12635156062180306], [0.05215180086277575, -0.2267484251570432, -0.09920344432169326, 0.8450747921957422, -0.05069491000298499, 0.8290150192772165, 0.12601965656793399], [0.05215180086277575, -0.22645738780808383, -0.10514359004251471, 0.842101772500256, -0.05028284065195982, 0.8379278726183148, 0.125700027088593], [0.05215180086277575, -0.2261663077674437, -0.11099135320845531, 0.8390648965436944, -0.049882658853842764, 0.8468124029682067, 0.12539218768391527], [0.05215180086277575, -0.22587519081963897, -0.11674673467978089, 0.8359646274831076, -0.049493964554386934, 0.8556681411142533, 0.12509573806440058], [0.05215180086277575, -0.22558403996977966, -0.12240976753216437, 0.8328014302075765, -0.049116378939521935, 0.8644946490111326, 0.12481031132785565]], "attachments": [], "link_path": {"eef_tcp_frame": [[[1.0838731527328491, -0.3229006230831146, 0.3105488419532776], [0.1585339903831482, 0.9871745705604553, -0.01856224052608013, -0.0029744324274361134]], [[1.083977222442627, -0.32262495160102844, 0.31925803422927856], [0.15852080285549164, 0.9871772527694702, -0.01852991431951523, -0.0029624151065945625]], [[1.0840786695480347, -0.3223164975643158, 0.3280031383037567], [0.15851949155330658, 0.9871776103973389, -0.018526418134570122, -0.002962362952530384]], [[1.0841807126998901, -0.3220054805278778, 0.3367481827735901], [0.1585191786289215, 0.9871776700019836, -0.018525483086705208, -0.0029624600429087877]], [[1.0842827558517456, -0.3216942548751831, 0.3454931378364563], [0.1585189402103424, 0.9871777296066284, -0.01852480135858059, -0.002962556667625904]], [[1.084384799003601, -0.32138296961784363, 0.3542380630970001], [0.1585187315940857, 0.9871777892112732, -0.018524182960391045, -0.002962647005915642]], [[1.084486961364746, -0.32107168436050415, 0.36298295855522156], [0.15851852297782898, 0.9871777892112732, -0.018523603677749634, -0.002962729660794139]], [[1.0845890045166016, -0.3207603394985199, 0.3717278242111206], [0.15851832926273346, 0.987177848815918, -0.01852305792272091, -0.0029628057964146137]], [[1.084691047668457, -0.32044899463653564, 0.3804726302623749], [0.15851819515228271, 0.9871779084205627, -0.018522553145885468, -0.00296287564560771]]]}}], [{"element": 0, "tag": "place_approach", "path": [[0.8681864649960439, 0.021746137183693927, 0.6586915058235656, 0.23671790665571327, -0.04024699927184892, 1.5884920757363779, 1.85848526015488], [0.8681864649960439, 0.038109313186807214, 0.5800862261344273, 0.272740990769445, -0.05725708394853179, 1.4421220691804106, 1.784409756829164], [0.8681864649960439, 0.05068966287417542, 0.4922271439271568, 0.3246688286136273, -0.06447458727737658, 1.2874176284436079, 1.7097890340912247], [0.8681864649960439, 0.05879080021859339, 0.39697963978455914, 0.39047453431372725, -0.060235832744996116, 1.1254890818066314, 1.6297517039913867], [0.8681864649960439, 0.0615012041398989, 0.29645576750171654, 0.4679000423161704, -0.03983877449898811, 0.9576882798698559, 1.5369053956454222], [0.8681864649960439, 0.057631359302634605, 0.19309494546890835, 0.55455046683963, 0.007577182236927452, 0.7861124621448177, 1.4180677159041357]], "attachments": [{"parent_name": "ECL_robot1_with_track", "parent_link_name": "eef_tcp_frame", "grasp_pose": [[-3.5762786865234375e-07, -0.23594844341278076, 7.748603820800781e-07], [0.5000008940696716, 0.5000009536743164, 0.49999910593032837, -0.4999990463256836]], "child_name": "body239"}], "link_path": {"eef_tcp_frame": [[[1.3768290281295776, -0.8585820198059082, 0.16959546506404877], [0.7078976035118103, 0.5516229867935181, -0.36670342087745667, -0.2451973557472229]], [[1.4089053869247437, -0.8431772589683533, 0.19063585996627808], [0.7077130079269409, 0.6108602285385132, -0.29527056217193604, -0.19699594378471375]], [[1.433458685874939, -0.826772928237915, 0.21863524615764618], [0.6997934579849243, 0.6634210348129272, -0.22059370577335358, -0.14662912487983704]], [[1.4493522644042969, -0.8103898763656616, 0.25213536620140076], [0.6842197179794312, 0.7087244391441345, -0.1435035765171051, -0.09465653449296951]], [[1.4557735919952393, -0.795038640499115, 0.28943565487861633], [0.6611666679382324, 0.7462701797485352, -0.06485433131456375, -0.04163489490747452]], [[1.452293872833252, -0.78168123960495, 0.3286595046520233], [0.6308923363685608, 0.7756441235542297, 0.014489172026515007, 0.01187883410602808]]]}}, {"element": 0, "tag": "place_retreat", "path": [[0.8681864649960439, 0.0576048986454907, 0.19309168706160643, 0.5545564729918272, 0.007638863748674453, 0.7861058898951215, 1.4179804989958094], [0.8681864649960439, 0.0575088976215917, 0.1878123356752771, 0.5526080311457766, 0.007731072012770624, 0.7932808307533791, 1.4178185111077017], [0.8681864649960439, 0.05746927382265037, 0.1826175509551911, 0.5505354672949881, 0.0076917855706844455, 0.8005468007092773, 1.4178425415921474], [0.8681864649960439, 0.05743513808432635, 0.1774795953081742, 0.5484036161510611, 0.0076409269152466425, 0.8078163629571274, 1.4178835258414522], [0.8681864649960439, 0.05740150438692159, 0.17239784181880227, 0.546214303047565, 0.007590004286429104, 0.8150872093890206, 1.417925146139166], [0.8681864649960439, 0.05736789995353522, 0.16737253959511986, 0.5439677266505177, 0.00754007157492005, 0.8223588668141308, 1.4179658925410898], [0.8681864649960439, 0.05733428130935347, 0.16240394710998796, 0.5416640441462187, 0.007491202394894061, 0.829630918824777, 1.418005649257929], [0.8681864649960439, 0.05730064467206548, 0.15749231136912975, 0.5393034130418993, 0.007443381465451349, 0.8369029606979397, 1.4180444276643527], [0.8681864649960439, 0.05726698931189572, 0.15263786738232374, 0.5368859925797314, 0.0073965853582164, 0.8441745977399988, 1.418082341284192]], "attachments": [], "link_path": {"eef_tcp_frame": [[[1.452291488647461, -0.7816978693008423, 0.32865747809410095], [0.6308854222297668, 0.7756497263908386, 0.014506219886243343, 0.011866134591400623]], [[1.4519388675689697, -0.7818052768707275, 0.3373686373233795], [0.6308685541152954, 0.7756625413894653, 0.014561271294951439, 0.011852281168103218]], [[1.4516165256500244, -0.7818759083747864, 0.34611180424690247], [0.6308670043945312, 0.7756638526916504, 0.01456527505069971, 0.011849605478346348]], [[1.4512948989868164, -0.781943142414093, 0.35485556721687317], [0.6308668255805969, 0.7756639122962952, 0.014565632678568363, 0.011849433183670044]], [[1.4509732723236084, -0.7820099592208862, 0.36359933018684387], [0.6308668255805969, 0.7756639122962952, 0.01456567831337452, 0.01184952724725008]], [[1.4506516456604004, -0.7820768356323242, 0.3723430931568146], [0.6308668255805969, 0.7756639122962952, 0.014565699733793736, 0.011849644593894482]], [[1.450330138206482, -0.7821436524391174, 0.3810868561267853], [0.6308668851852417, 0.7756639122962952, 0.014565723948180676, 0.011849767528474331]], [[1.450008511543274, -0.7822104692459106, 0.389830619096756], [0.6308668851852417, 0.7756638526916504, 0.01456574909389019, 0.011849885806441307]], [[1.449686884880066, -0.7822772860527039, 0.3985743522644043], [0.6308670043945312, 0.7756638526916504, 0.014565781690180302, 0.011850008741021156]]]}}], [{"element": 2, "tag": "place_approach", "path": [[0.4888201352661552, -0.14052284670936047, 0.2630443710532119, 0.5671305806841629, 0.5137018240042921, 1.350439032887868, 1.6105533274866262], [0.4888201352661552, -0.12074869316667768, 0.2173284732469479, 0.5943591898240415, 0.4851502727808515, 1.2651308676112634, 1.694938953915467], [0.4888201352661552, -0.09733426379123392, 0.17539983858267819, 0.6202157933892738, 0.446894183247642, 1.1806123272797984, 1.7873973284752747], [0.4888201352661552, -0.07047059247729816, 0.13809316762516305, 0.6443654803935023, 0.39705433599591633, 1.0980240903501532, 1.8900463520070634], [0.4888201352661552, -0.040511319351427606, 0.10623698624149394, 0.6665159947823875, 0.3335141168138696, 1.018905532042743, 2.0051595502200996], [0.4888201352661552, -0.007899389936929959, 0.0805742552234641, 0.6864054605088427, 0.25397712498565866, 0.9452969981351147, 2.1352545841518866], [0.4888201352661552, 0.026712951498928286, 0.061794157980496464, 0.7037990712855564, 0.15653244964086813, 0.8797926363444049, 2.2823915869675124], [0.4888201352661552, 0.06253979919890394, 0.05045139531599523, 0.7184643425002657, 0.0403364466676305, 0.8255045829027418, 2.4475917550172097]], "attachments": [{"parent_name": "ECL_robot1_with_track", "parent_link_name": "eef_tcp_frame", "grasp_pose": [[3.635883331298828e-06, 0.13988542556762695, -4.172325134277344e-07], [0.5000012516975403, 0.5000002384185791, 0.49999871850013733, -0.4999997615814209]], "child_name": "body241"}], "link_path": {"eef_tcp_frame": [[[1.2260586023330688, -0.41744232177734375, 0.36092090606689453], [0.790047287940979, 0.49317434430122375, -0.031659603118896484, -0.3627699911594391]], [[1.2264893054962158, -0.4111856520175934, 0.3587740361690521], [0.8191105723381042, 0.47805410623550415, -0.028321538120508194, -0.31578466296195984]], [[1.2279020547866821, -0.4057166576385498, 0.3554091453552246], [0.8454822897911072, 0.46135854721069336, -0.024867359548807144, -0.2677491307258606]], [[1.2303459644317627, -0.4012000560760498, 0.3509684205055237], [0.8690732717514038, 0.44313928484916687, -0.02133212797343731, -0.2188245803117752]], [[1.2338343858718872, -0.3978036046028137, 0.345586895942688], [0.8897978067398071, 0.4234631359577179, -0.01772739551961422, -0.16918809711933136]], [[1.2383402585983276, -0.39563822746276855, 0.33943507075309753], [0.9075959920883179, 0.4023858308792114, -0.014080921187996864, -0.11898288130760193]], [[1.2438222169876099, -0.39483851194381714, 0.33265990018844604], [0.922402560710907, 0.3799847364425659, -0.010388864204287529, -0.06839022785425186]], [[1.2502272129058838, -0.3955197036266327, 0.32543298602104187], [0.934166669845581, 0.35634082555770874, -0.00665697967633605, -0.017594346776604652]]]}}, {"element": 2, "tag": "place_retreat", "path": [[0.4888201352661552, 0.06257375243334865, 0.050450581926601394, 0.7184626210701711, 0.04027612699794714, 0.8255063758690548, 2.4476860973978036], [0.4888201352661552, 0.06240497330704685, 0.044241831171537314, 0.715400647317902, 0.039819939016402656, 0.8347241666374831, 2.4481349881855605], [0.4888201352661552, 0.062178242097683474, 0.03813557942843574, 0.7122120444086348, 0.039470944668427904, 0.844017587985045, 2.4484191836998597], [0.4888201352661552, 0.06194664590176574, 0.03212664490031359, 0.7089446083748216, 0.03914016805063614, 0.8532935617339702, 2.448680584809859], [0.4888201352661552, 0.06171467503307729, 0.02621458359966087, 0.7055995825341488, 0.03881948728456325, 0.8625503904505197, 2.4489318067510673], [0.4888201352661552, 0.061482715546695633, 0.020399517204562442, 0.7021774268113934, 0.038507939876568746, 0.8717874658846652, 2.4491741947971604], [0.4888201352661552, 0.06125080168129867, 0.014681552113035953, 0.6986786023661318, 0.03820518328338944, 0.8810042154925177, 2.44940812237201], [0.4888201352661552, 0.061018938146415576, 0.009060762271269309, 0.6951035730101098, 0.03791093649846328, 0.8902000976262334, 2.4496338722187403]], "attachments": [], "link_path": {"eef_tcp_frame": [[[1.2502262592315674, -0.3954995274543762, 0.32543498277664185], [0.9341703057289124, 0.3563321530818939, -0.006664557848125696, -0.017573002725839615]], [[1.250458002090454, -0.3957412838935852, 0.3353836238384247], [0.9341774582862854, 0.35631585121154785, -0.006654317025095224, -0.01752588152885437]], [[1.250706434249878, -0.396017462015152, 0.345377117395401], [0.9341781735420227, 0.3563142716884613, -0.006655356381088495, -0.017521873116493225]], [[1.2509554624557495, -0.39629659056663513, 0.35537081956863403], [0.9341782927513123, 0.3563140034675598, -0.006655678618699312, -0.017521077767014503]], [[1.2512046098709106, -0.3965759873390198, 0.3653644919395447], [0.934178352355957, 0.3563137948513031, -0.006655893754214048, -0.017520569264888763]], [[1.2514536380767822, -0.3968554139137268, 0.37535810470581055], [0.9341784715652466, 0.35631364583969116, -0.006656082812696695, -0.017520112916827202]], [[1.2517026662826538, -0.3971348702907562, 0.38535168766975403], [0.9341784715652466, 0.3563134968280792, -0.006656252313405275, -0.01751967892050743]], [[1.2519516944885254, -0.39741435647010803, 0.3953452408313751], [0.9341785907745361, 0.3563133776187897, -0.006656406447291374, -0.017519276589155197]]]}}], [{"element": 37, "tag": "place_approach", "path": [[0.4395937189662184, -0.7654198531354525, 0.8553540583053719, -0.29227872222705087, 2.5368375805559675, -0.5664744533924937, -0.5816510097378186], [0.4395937189662184, -0.7343208027162447, 0.9011253815115261, -0.3398704557236861, 2.3752838914879724, -0.6448138127216853, -0.3199101171083554], [0.4395937189662184, -0.7071209258336342, 0.9600647264823943, -0.41089852534943044, 2.273137723715075, -0.7482702988511769, -0.12183178670387362], [0.4395937189662184, -0.6843959519362965, 1.0306500421688312, -0.5033971605555736, 2.2123015644930035, -0.865730386091968, 0.029177513823908027], [0.4395937189662184, -0.666683967880348, 1.115391517490486, -0.6238401641779984, 2.1814910441150204, -0.994114397856106, 0.14119766919365287], [0.4395937189662184, -0.6540862110143588, 1.2213646822631858, -0.7864312125097738, 2.170886745279496, -1.1348683424020316, 0.21803988844993463]], "attachments": [{"parent_name": "ECL_robot1_with_track", "parent_link_name": "eef_tcp_frame", "grasp_pose": [[-6.198883056640625e-06, 0.25360625982284546, 0.0], [0.49999940395355225, 0.5000011324882507, 0.5000007748603821, -0.4999989867210388]], "child_name": "body276"}], "link_path": {"eef_tcp_frame": [[[1.6318684816360474, -2.2214343547821045, 0.2664025127887726], [0.9468541741371155, 0.12385151535272598, 0.031705792993307114, 0.2951657474040985]], [[1.661202073097229, -2.2230727672576904, 0.2460097372531891], [0.9446665644645691, 0.0600149966776371, 0.006938562262803316, 0.32242080569267273]], [[1.6901342868804932, -2.2292113304138184, 0.2258978635072708], [0.937390923500061, -0.004159060772508383, -0.017988232895731926, 0.34778931736946106]], [[1.7170078754425049, -2.238696813583374, 0.20591098070144653], [0.9248182773590088, -0.06835544854402542, -0.0425378642976284, 0.37179186940193176]], [[1.7419968843460083, -2.2520718574523926, 0.18667183816432953], [0.9072535634040833, -0.13212648034095764, -0.06681222468614578, 0.39366185665130615]], [[1.7656335830688477, -2.2697789669036865, 0.16844972968101501], [0.8848502039909363, -0.1952366977930069, -0.09107953310012817, 0.41307055950164795]]]}}, {"element": 37, "tag": "place_retreat", "path": [[0.4395937189662184, -0.6540850208104805, 1.221628360154392, -0.7869270203641975, 2.171023836360589, -1.1350799720341445, 0.21779310143315445], [0.4395937189662184, -0.6513887054625901, 1.2173596623080343, -0.7836747462625536, 2.1719636081682703, -1.1377693458535452, 0.21834905541935234], [0.4395937189662184, -0.6486907044549246, 1.2128090376002547, -0.7798963667648523, 2.1727485855548685, -1.1402207789424135, 0.21917581671516845], [0.4395937189662184, -0.6459894214576276, 1.2083362435152503, -0.7762680917990059, 2.1735650235957227, -1.1427232873458704, 0.21993735869479264], [0.4395937189662184, -0.6432850699346053, 1.20389949461601, -0.7727112434094607, 2.174391078757689, -1.1452433505586814, 0.22067288453938383], [0.4395937189662184, -0.640577539366181, 1.199532317312513, -0.7692886548033682, 2.175243621297496, -1.1478083287745764, 0.22135144655314123], [0.4395937189662184, -0.6378670109687692, 1.195198659079571, -0.765932446186397, 2.1761038877655605, -1.150389122630019, 0.22200682100464764], [0.4395937189662184, -0.6351534507938392, 1.1909141566542154, -0.7626718354251922, 2.17697956370455, -1.152998579595168, 0.22262471944681905], [0.4395937189662184, -0.6324368156989729, 1.1866986170873255, -0.7595438383815608, 2.1778803060724115, -1.155653077763709, 0.22318706452820603]], "attachments": [], "link_path": {"eef_tcp_frame": [[[1.7657467126846313, -2.269864082336426, 0.16845345497131348], [0.8848530054092407, -0.19524875283241272, -0.09111893177032471, 0.41305026412010193]], [[1.768707036972046, -2.263883113861084, 0.17407728731632233], [0.8848562836647034, -0.19526341557502747, -0.0911669135093689, 0.4130256474018097]], [[1.7715234756469727, -2.257793664932251, 0.17969638109207153], [0.884856104850769, -0.19526273012161255, -0.0911647230386734, 0.4130267798900604]], [[1.7743505239486694, -2.2517120838165283, 0.18531587719917297], [0.8848562240600586, -0.19526316225528717, -0.09116626530885696, 0.41302594542503357]], [[1.7771704196929932, -2.2456252574920654, 0.19093509018421173], [0.8848561644554138, -0.1952628642320633, -0.09116531908512115, 0.41302651166915894]], [[1.7799981832504272, -2.23954439163208, 0.19655464589595795], [0.8848562836647034, -0.19526340067386627, -0.09116707742214203, 0.4130256474018097]], [[1.7828181982040405, -2.233457565307617, 0.2021738439798355], [0.8848562240600586, -0.19526307284832, -0.09116613864898682, 0.4130261242389679]], [[1.7856374979019165, -2.227370500564575, 0.2077929824590683], [0.884856104850769, -0.19526273012161255, -0.0911649763584137, 0.4130267798900604]], [[1.7884653806686401, -2.2212893962860107, 0.2134125828742981], [0.8848562240600586, -0.19526322185993195, -0.09116677939891815, 0.4130258560180664]]]}}], [{"element": 35, "tag": "place_approach", "path": [[2.757670745387943, 0.34055879237233055, 0.5153734810324122, 0.264075394497862, -0.010672597325007568, 1.5778271587815134, -2.8070880079909215], [2.757670745387943, 0.36310455701800903, 0.47753556657742086, 0.3013301922539413, -0.060210933001042855, 1.5204057066194487, -2.843435448724664], [2.757670745387943, 0.3849092543152443, 0.4383523346973204, 0.3415125505113788, -0.10929328711433432, 1.459874978335306, -2.876521755548932], [2.757670745387943, 0.4058335632142952, 0.3981109975080969, 0.3842292366451897, -0.1583503197913753, 1.3966057751016836, -2.9063178811547328], [2.757670745387943, 0.42571948912922075, 0.357033900140627, 0.4291855516326056, -0.2078663430553291, 1.3308644693881315, -2.932773538900431], [2.757670745387943, 0.4443840184358836, 0.3153494296720344, 0.4760864817285508, -0.2583876433258493, 1.262890351830789, -2.955803788362409], [2.757670745387943, 0.46161681699897195, 0.2732973597408585, 0.5246334567234259, -0.31053430672173765, 1.192896934292605, -2.9752649473672155], [2.757670745387943, 0.4771739103671247, 0.2311304459144291, 0.5745245476646482, -0.3650236668249007, 1.1210689428120462, -2.990928048308654], [2.757670745387943, 0.49078147436065883, 0.1891041571635232, 0.6254839319618053, -0.4227314688797126, 1.0475332335585312, -3.002402582026526], [2.757670745387943, 0.5021046879449389, 0.1475565013660671, 0.6771225685356145, -0.48466207361457997, 0.9724882021223596, -3.009201218574036], [2.757670745387943, 0.5108108581741501, 0.10680459616140651, 0.7291841061818067, -0.5522657929400219, 0.8959791266728467, -3.0103313149548074], [2.757670745387943, 0.5164826781291377, 0.0672757746639957, 0.7812607935712543, -0.627347650845129, 0.8181813483481043, -3.004499707349109], [2.757670745387943, 0.518625059363629, 0.029405370867257793, 0.8329345240939702, -0.7123628054178813, 0.7393078437114928, -2.989804804788228], [2.757670745387943, 0.5166340549487444, -0.006396200951732033, 0.8836771307245014, -0.8105303163884694, 0.6597821113621806, -2.9636777318396286], [2.757670745387943, 0.5105599919591687, -0.03872905916071868, 0.9335047006089285, -0.9309871640626173, 0.5798410820887195, -2.916706667353631]], "attachments": [{"parent_name": "ECL_robot1_with_track", "parent_link_name": "eef_tcp_frame", "grasp_pose": [[6.079673767089844e-06, 0.18658936023712158, 2.384185791015625e-07], [0.5000013113021851, -0.4999995231628418, 0.49999886751174927, 0.5000004172325134]], "child_name": "body274"}], "link_path": {"eef_tcp_frame": [[[1.3062703609466553, -2.300496816635132, 0.32183197140693665], [0.9236559867858887, 0.004806143697351217, -0.35990387201309204, 0.13155141472816467]], [[1.2913662195205688, -2.2995128631591797, 0.3226522207260132], [0.9330925941467285, 0.04244464263319969, -0.3278297781944275, 0.14164875447750092]], [[1.276571273803711, -2.299635648727417, 0.32272031903266907], [0.9400779604911804, 0.07997015863656998, -0.294867604970932, 0.15136481821537018]], [[1.2620879411697388, -2.300814151763916, 0.32204964756965637], [0.9445836544036865, 0.11728493124246597, -0.26112741231918335, 0.16068147122859955]], [[1.2480465173721313, -2.303007125854492, 0.32064998149871826], [0.9465974569320679, 0.15429040789604187, -0.22669871151447296, 0.16957400739192963]], [[1.234572172164917, -2.306164264678955, 0.31853899359703064], [0.9461144208908081, 0.19088926911354065, -0.19167226552963257, 0.17801861464977264]], [[1.2217841148376465, -2.3102240562438965, 0.315742164850235], [0.9431354999542236, 0.2269851565361023, -0.15614113211631775, 0.18599246442317963]], [[1.2097951173782349, -2.3151166439056396, 0.3122933804988861], [0.9376686811447144, 0.26248350739479065, -0.12019989639520645, 0.19347302615642548]], [[1.1986900568008423, -2.3207712173461914, 0.3082219362258911], [0.9297292828559875, 0.29729005694389343, -0.08393149077892303, 0.2004435956478119]], [[1.1886022090911865, -2.3270859718322754, 0.3036021292209625], [0.91933673620224, 0.3313170075416565, -0.04745994508266449, 0.2068733125925064]], [[1.1795716285705566, -2.3339755535125732, 0.29844582080841064], [0.9065190553665161, 0.36446571350097656, -0.010846740566194057, 0.21276836097240448]], [[1.1716976165771484, -2.3413281440734863, 0.292829692363739], [0.8913096189498901, 0.3966515064239502, 0.025791117921471596, 0.21810446679592133]], [[1.1650457382202148, -2.3490548133850098, 0.2868671417236328], [0.8737523555755615, 0.42780402302742004, 0.0623338483273983, 0.22283406555652618]], [[1.1596667766571045, -2.357085704803467, 0.2808035910129547], [0.8539077639579773, 0.45787927508354187, 0.09861065447330475, 0.22685682773590088]], [[1.1555169820785522, -2.365117073059082, 0.2738718092441559], [0.8317677974700928, 0.4866047203540802, 0.13489359617233276, 0.2306118756532669]]]}}, {"element": 35, "tag": "place_retreat", "path": [[2.757670745387943, 0.510572966921255, -0.038708456661912645, 0.9335176607969875, -0.9310794159447975, 0.5798300281657432, -2.9165960966283238], [2.757670745387943, 0.5143422306751196, -0.047416830868480066, 0.9341302449427283, -0.9210974193305795, 0.5866181332369476, -2.9251759527514962], [2.757670745387943, 0.517986324312362, -0.056297871121148445, 0.9345254126919548, -0.910351952475202, 0.5936270619998758, -2.934722807626375], [2.757670745387943, 0.5216353806874164, -0.06514085107598849, 0.9348351830122364, -0.8997808229660754, 0.6007406493562648, -2.94411408888053], [2.757670745387943, 0.5252996730103485, -0.07392802645854259, 0.9350694652229306, -0.8894518986376414, 0.6079471192637209, -2.9532673249995414], [2.757670745387943, 0.5289799897709369, -0.08265653001462396, 0.9352288885099519, -0.8793670743329539, 0.615242719625611, -2.9621793354219474], [2.757670745387943, 0.5326764101664917, -0.0913245873041682, 0.935313438772126, -0.8695234033882671, 0.622624282046099, -2.97085275997886], [2.757670745387943, 0.5363889593341806, -0.0999305201750329, 0.9353230758716272, -0.8599174636118957, 0.630088692328107, -2.9792907827637563], [2.757670745387943, 0.5401176482670139, -0.10847268635691099, 0.9352577785585195, -0.8505456576166606, 0.6376328423384794, -2.987496822484928]], "attachments": [], "link_path": {"eef_tcp_frame": [[[1.155516266822815, -2.365112781524658, 0.2738490402698517], [0.8317660093307495, 0.4866001307964325, 0.13490332663059235, 0.2306225597858429]], [[1.1515796184539795, -2.3628554344177246, 0.2810957729816437], [0.8317458033561707, 0.48654788732528687, 0.13501125574111938, 0.2307422012090683]], [[1.1476515531539917, -2.3606433868408203, 0.2885918617248535], [0.8317458033561707, 0.4865460991859436, 0.1350124627351761, 0.23074547946453094]], [[1.1437240839004517, -2.3584351539611816, 0.29610586166381836], [0.8317471146583557, 0.48654812574386597, 0.1350061595439911, 0.2307400405406952]], [[1.139796495437622, -2.3562276363372803, 0.30362018942832947], [0.8317484855651855, 0.48655033111572266, 0.1349998116493225, 0.23073427379131317]], [[1.135868787765503, -2.354020118713379, 0.31113362312316895], [0.8317497372627258, 0.48655250668525696, 0.13499395549297333, 0.23072877526283264]], [[1.1319409608840942, -2.3518128395080566, 0.318646103143692], [0.8317508101463318, 0.4865546226501465, 0.13498856127262115, 0.2307235598564148]], [[1.1280131340026855, -2.3496055603027344, 0.32615768909454346], [0.8317517638206482, 0.4865565896034241, 0.134983628988266, 0.23071864247322083]], [[1.1240851879119873, -2.347398519515991, 0.33366841077804565], [0.8317527174949646, 0.4865585267543793, 0.13497909903526306, 0.23071402311325073]]]}}], [{"element": 38, "tag": "place_approach", "path": [[2.0577063891398324, -0.01034435207032401, 0.4213199809757781, 0.23919875967329307, 0.0505711562242792, 1.0078058932999139, -0.6082391741468612], [2.0577063891398324, -0.0702342451513893, 0.47423493189917376, 0.1597128302132442, 0.2567445767045665, 1.1948482790343407, -0.7729340300584554], [2.0577063891398324, -0.12344269992394172, 0.5436744683047211, 0.08104368984647124, 0.4169624282538643, 1.3958589785788007, -0.8773958029241276], [2.0577063891398324, -0.1676933294364773, 0.6234848758279536, 0.007930020199621543, 0.5525789612093005, 1.5983835636018173, -0.9399618253269133], [2.0577063891398324, -0.2017494034200221, 0.7078355675484331, -0.055193986735809976, 0.6784141030005602, 1.7957122018509646, -0.9715531388854342]], "attachments": [{"parent_name": "ECL_robot1_with_track", "parent_link_name": "eef_tcp_frame", "grasp_pose": [[-4.51505184173584e-06, -0.0921163558959961, -7.152557373046875e-07], [-0.49999865889549255, -0.4999997913837433, -0.5000013709068298, 0.5000001788139343]], "child_name": "body277"}], "link_path": {"eef_tcp_frame": [[[1.68511962890625, -2.0535285472869873, 0.3499752879142761], [-0.28019413352012634, 0.9584832191467285, 0.03454213961958885, -0.040099792182445526]], [[1.6871321201324463, -2.056703805923462, 0.38094842433929443], [-0.28034862875938416, 0.9447636008262634, 0.15443257987499237, -0.07054827362298965]], [[1.691941499710083, -2.0644915103912354, 0.41005852818489075], [-0.27615997195243835, 0.9164049029350281, 0.2719399034976959, -0.099932000041008]], [[1.6991724967956543, -2.076345920562744, 0.4360228180885315], [-0.2676921486854553, 0.8738483190536499, 0.3852335810661316, -0.1277698576450348]], [[1.708356261253357, -2.091475009918213, 0.4577704071998596], [-0.2550772726535797, 0.8177521824836731, 0.4925595223903656, -0.15362928807735443]]]}}, {"element": 38, "tag": "place_retreat", "path": [[2.0577063891398324, -0.20174846782919856, 0.7078559535078135, -0.05522674103184852, 0.6784123641469154, 1.7957329947545209, -0.9715425677039343], [2.0577063891398324, -0.20479395239143922, 0.7108796075971091, -0.06436206691288247, 0.6770263901031796, 1.8020000923215516, -0.9695505495631503], [2.0577063891398324, -0.20781906106899029, 0.713988535783351, -0.0736222653268518, 0.6756804272949496, 1.8083108326193253, -0.9675326554597224], [2.0577063891398324, -0.21082386459778563, 0.7171842636778996, -0.08301037830288392, 0.6743751621941735, 1.8146665418178414, -0.9654874308343104], [2.0577063891398324, -0.21381065099428057, 0.7204201685173182, -0.09245163451574297, 0.6731141921916549, 1.821019753398339, -0.9634383475188016], [2.0577063891398324, -0.21677850842868415, 0.7237196781793358, -0.10198418682200931, 0.671896172889832, 1.8273941630191919, -0.9613726863496043], [2.0577063891398324, -0.21972755647727174, 0.7270836543305027, -0.11160984144021889, 0.6707214424447149, 1.8337905134293935, -0.9592893689609315], [2.0577063891398324, -0.22265792232454779, 0.730512801768297, -0.12133016742477686, 0.6695903733321986, 1.8402093670475812, -0.9571874109272083]], "attachments": [], "link_path": {"eef_tcp_frame": [[[1.7083758115768433, -2.091479539871216, 0.4577729403972626], [-0.255077987909317, 0.8177500367164612, 0.4925610423088074, -0.15363501012325287]], [[1.713376760482788, -2.098745584487915, 0.46244511008262634], [-0.2550771236419678, 0.8177527785301208, 0.49255913496017456, -0.15362784266471863]], [[1.718400001525879, -2.1060168743133545, 0.46712011098861694], [-0.2550770938396454, 0.8177530765533447, 0.4925589859485626, -0.1536272168159485]], [[1.723446011543274, -2.1132936477661133, 0.47179824113845825], [-0.2550778090953827, 0.8177508115768433, 0.4925605356693268, -0.1536332219839096]], [[1.7284702062606812, -2.120565176010132, 0.4764734208583832], [-0.2550777196884155, 0.817750871181488, 0.49256035685539246, -0.15363280475139618]], [[1.7334940433502197, -2.1278367042541504, 0.48114854097366333], [-0.2550777196884155, 0.8177511096000671, 0.4925602376461029, -0.15363235771656036]], [[1.7385177612304688, -2.13510799407959, 0.4858236610889435], [-0.25507768988609314, 0.8177512884140015, 0.49256008863449097, -0.15363188087940216]], [[1.7435413599014282, -2.1423795223236084, 0.49049872159957886], [-0.25507766008377075, 0.8177515268325806, 0.49255990982055664, -0.15363137423992157]]]}}], [{"element": 31, "tag": "place_approach", "path": [[0.4293963821690933, -0.7918103107812072, 0.648674255504674, -0.10264534770389373, -0.2564600963635378, 0.4689926515247936, 0.6281308184426875], [0.4293963821690933, -0.8463970147616361, 0.6554222081608807, -0.16903464385376293, 0.2373021696719725, 0.6597625379475557, 0.15265275358668912], [0.4293963821690933, -0.9015439495712702, 0.7002704021411922, -0.2677489887174562, 0.4951963637166863, 0.9291093394865945, -0.07405317856683291], [0.4293963821690933, -0.9491625604206563, 0.7804915428669968, -0.397810440891543, 0.6472520808131833, 1.2207239710569124, -0.171942058598291]], "attachments": [{"parent_name": "ECL_robot1_with_track", "parent_link_name": "eef_tcp_frame", "grasp_pose": [[-6.9141387939453125e-06, -0.21367749571800232, -8.940696716308594e-08], [0.49999892711639404, 0.5000008940696716, 0.5000010132789612, -0.4999992251396179]], "child_name": "body270"}], "link_path": {"eef_tcp_frame": [[[1.5635305643081665, -2.0955958366394043, 0.4340907633304596], [0.5504896640777588, 0.7844624519348145, -0.10882531851530075, 0.2640773355960846]], [[1.5523022413253784, -2.073737621307373, 0.4707775115966797], [0.5317968726158142, 0.8155887126922607, 0.014093256555497646, 0.22761517763137817]], [[1.5364716053009033, -2.0615742206573486, 0.5081262588500977], [0.5024665594100952, 0.8324318528175354, 0.13856375217437744, 0.18810828030109406]], [[1.5193657875061035, -2.05863618850708, 0.544670581817627], [0.4646173119544983, 0.8341124057769775, 0.2596706748008728, 0.1447702795267105]]]}}, {"element": 31, "tag": "place_retreat", "path": [[0.4293963821690933, -0.9491568291151719, 0.7808112508549966, -0.3983937669179813, 0.647108855700169, 1.2211010466904662, -0.17170370401053153], [0.4293963821690933, -0.9514197514465366, 0.7786294989601774, -0.40064828684202225, 0.645908401517685, 1.225908343354244, -0.17064503524881242], [0.4293963821690933, -0.9536833883385067, 0.7764863311724152, -0.4029627097823554, 0.6447218875693601, 1.230735036683722, -0.16958492487756013], [0.4293963821690933, -0.955947672790239, 0.7743845550841354, -0.4053419452954139, 0.6435483093087955, 1.2355841035082462, -0.16852143413545292], [0.4293963821690933, -0.958212579280144, 0.7723245863689074, -0.4077865497690114, 0.6423877236507373, 1.2404557118310393, -0.1674543896931155], [0.4293963821690933, -0.960478084726533, 0.7703067068535434, -0.41029683815135326, 0.6412402477917724, 1.245349870765256, -0.1663837142100269], [0.4293963821690933, -0.9627441661549179, 0.7683311953404272, -0.41287312251852837, 0.6401060014956511, 1.2502665845605685, -0.16530932948909569], [0.4293963821690933, -0.9650108005677277, 0.7663983354047391, -0.41551572632698996, 0.6389851039173858, 1.255205861690019, -0.1642311508263804], [0.4293963821690933, -0.9672775951819943, 0.7645315335948795, -0.41826685872228037, 0.6378686729681836, 1.2601945721374277, -0.16313308713222022]], "attachments": [], "link_path": {"eef_tcp_frame": [[[1.5195026397705078, -2.058831214904785, 0.5447378158569336], [0.4646121859550476, 0.8341238498687744, 0.25969430804252625, 0.14467842876911163]], [[1.51528000831604, -2.06144642829895, 0.5519413352012634], [0.4646121859550476, 0.8341238498687744, 0.25969433784484863, 0.14467811584472656]], [[1.5110563039779663, -2.0640599727630615, 0.5591443181037903], [0.4646122455596924, 0.8341239094734192, 0.25969409942626953, 0.14467857778072357]], [[1.5068323612213135, -2.0666732788085938, 0.5663472414016724], [0.46461227536201477, 0.8341237306594849, 0.25969386100769043, 0.14467908442020416]], [[1.5026085376739502, -2.069286584854126, 0.5735501050949097], [0.46461233496665955, 0.8341237306594849, 0.25969362258911133, 0.14467963576316833]], [[1.4983845949172974, -2.071899890899658, 0.580752968788147], [0.4646124243736267, 0.8341236114501953, 0.2596934139728546, 0.1446802020072937]], [[1.494160771369934, -2.0745131969451904, 0.5879558324813843], [0.46461254358291626, 0.8341235518455505, 0.2596931755542755, 0.14468076825141907]], [[1.4899368286132812, -2.0771262645721436, 0.5951586365699768], [0.4646126627922058, 0.8341235518455505, 0.259692907333374, 0.14468134939670563]], [[1.4857221841812134, -2.0797533988952637, 0.60236656665802], [0.4646122455596924, 0.8341242074966431, 0.2596944570541382, 0.1446756273508072]]]}}], [{"element": 30, "tag": "place_approach", "path": [[2.3710413879161343, 0.1946121081141491, 0.2119371868055131, 0.5836720405755315, 0.427591137323767, 1.9028711924034218, -1.3405259453536384], [2.3710413879161343, 0.1796561852273542, 0.1095581925009702, 0.651412139750233, 0.56131752689488, 1.7221981123590466, -1.100230148866951], [2.3710413879161343, 0.1885158683632734, 0.003304434020800937, 0.7199184799449615, 0.6529083002477264, 1.5070491910333665, -0.8707332220448833], [2.3710413879161343, 0.22505949988907464, -0.09518265954328925, 0.7820172479561152, 0.6945982640467805, 1.2627747685251214, -0.631441703616009], [2.3710413879161343, 0.2896474626418122, -0.17089650833722422, 0.8305998260215373, 0.6636641861622382, 0.9985253391092789, -0.3508622212515256]], "attachments": [{"parent_name": "ECL_robot1_with_track", "parent_link_name": "eef_tcp_frame", "grasp_pose": [[-5.364418029785156e-06, -0.23235034942626953, -4.76837158203125e-07], [0.4999988079071045, 0.5000002384185791, 0.5000012516975403, -0.4999998211860657]], "child_name": "body269"}], "link_path": {"eef_tcp_frame": [[[0.9368207454681396, -1.98440420627594, 0.5934751629829407], [-0.5384741425514221, 0.6282155513763428, 0.4566437900066376, -0.3269057273864746]], [[0.9254384636878967, -1.9326155185699463, 0.5798688530921936], [-0.44843658804893494, 0.7415724992752075, 0.42474353313446045, -0.26185449957847595]], [[0.9309720396995544, -1.8814353942871094, 0.5583087205886841], [-0.34663644433021545, 0.8355065584182739, 0.38170599937438965, -0.18992756307125092]], [[0.9532948732376099, -1.8364909887313843, 0.5310644507408142], [-0.23575712740421295, 0.9075332880020142, 0.3286774158477783, -0.11301764845848083]], [[0.99043208360672, -1.8027114868164062, 0.5010594129562378], [-0.11869446188211441, 0.9557746648788452, 0.26703521609306335, -0.033144548535346985]]]}}, {"element": 30, "tag": "place_retreat", "path": [[2.3710413879161343, 0.28966712085746904, -0.17091157273187868, 0.8305925480878272, 0.6636302651063077, 0.9985286454933404, -0.3508024010346335], [2.3710413879161343, 0.2849695080097488, -0.176155068700729, 0.8272862469757926, 0.6593004297206195, 1.0075483858971246, -0.34806525283424317], [2.3710413879161343, 0.280264302017732, -0.18128732526025623, 0.8238839354041478, 0.6550577737952417, 1.0165984899640048, -0.34541705602868616], [2.3710413879161343, 0.2755577234410414, -0.18630560537293672, 0.8204031292064703, 0.6509230729389669, 1.025644995042681, -0.34287673414064224], [2.3710413879161343, 0.27084972488269804, -0.19120984679769445, 0.8168446500690804, 0.646894085851448, 1.034686269765361, -0.34044242605283265], [2.3710413879161343, 0.2661405102587421, -0.19600019572084132, 0.8132091197962145, 0.6429680849975459, 1.0437209207178857, -0.3381114314521968], [2.3710413879161343, 0.2614254981071336, -0.200668229478762, 0.809513711664202, 0.6391732554010033, 1.052720691235706, -0.3359230787118189], [2.3710413879161343, 0.2567147444686703, -0.20523236704895384, 0.8057259850961895, 0.6354439043629106, 1.061738564032081, -0.3337889368427738]], "attachments": [], "link_path": {"eef_tcp_frame": [[[0.9904246926307678, -1.8027021884918213, 0.5010749697685242], [-0.11868916451931, 0.9557787179946899, 0.2670229971408844, -0.03314674645662308]], [[0.991687536239624, -1.8077179193496704, 0.509611189365387], [-0.11868780851364136, 0.9557786583900452, 0.2670249342918396, -0.03313888609409332]], [[0.9929536581039429, -1.812741994857788, 0.5181670188903809], [-0.1186869814991951, 0.9557793736457825, 0.2670225501060486, -0.03313944488763809]], [[0.9942197799682617, -1.8177660703659058, 0.5267228484153748], [-0.11868612468242645, 0.9557801485061646, 0.2670201361179352, -0.03314002603292465]], [[0.9954859018325806, -1.8227901458740234, 0.5352784395217896], [-0.11868530511856079, 0.9557808041572571, 0.2670179307460785, -0.033140555024147034]], [[0.9967520833015442, -1.8278142213821411, 0.5438337922096252], [-0.11868450790643692, 0.9557814598083496, 0.26701581478118896, -0.03314103186130524]], [[0.9980202317237854, -1.8328362703323364, 0.5523661971092224], [-0.11868604272603989, 0.9557796120643616, 0.26702263951301575, -0.03313387185335159]], [[0.9992861747741699, -1.8378604650497437, 0.5609216094017029], [-0.11868525296449661, 0.9557802677154541, 0.26702049374580383, -0.03313431143760681]]]}}], [{"element": 7, "tag": "place_approach", "path": [[0.24278639969828109, -0.5749014768514796, 0.6104934164778246, -0.06194517764043478, 0.1438023148723548, 1.822792208288659, 0.6228813452908237], [0.24278639969828109, -0.5168343518520122, 0.5534215262280973, -0.027663501466990755, -0.05687875637581145, 1.6984797733094612, 0.5311076318026094], [0.24278639969828109, -0.4586124720360129, 0.4828594028787847, 0.040891643681412786, -0.24966460576875582, 1.5456198592080315, 0.4711637646083139], [0.24278639969828109, -0.4029945253084173, 0.40344430369462425, 0.13746508574128308, -0.44584301463257264, 1.3740504454965934, 0.4488881053676351], [0.24278639969828109, -0.35346227113422923, 0.32052092339665067, 0.25445734095697276, -0.6621580274420611, 1.1951940862309913, 0.47146356482052293]], "attachments": [{"parent_name": "ECL_robot1_with_track", "parent_link_name": "eef_tcp_frame", "grasp_pose": [[-6.318092346191406e-06, 0.10275337100028992, -2.384185791015625e-07], [0.49999964237213135, 0.5000011920928955, 0.500000536441803, -0.49999886751174927]], "child_name": "body246"}], "link_path": {"eef_tcp_frame": [[[1.3963295221328735, -1.0638840198516846, 0.5310816764831543], [0.5265969634056091, 0.7527298331260681, 0.061707623302936554, -0.3902379274368286]], [[1.4037278890609741, -1.0734025239944458, 0.5393685102462769], [0.4687979519367218, 0.8225229382514954, -0.030162695795297623, -0.32058486342430115]], [[1.4131959676742554, -1.0797595977783203, 0.550281286239624], [0.40091949701309204, 0.8746340870857239, -0.12138122320175171, -0.24401913583278656]], [[1.4238206148147583, -1.0821915864944458, 0.5633274912834167], [0.32441815733909607, 0.9079360365867615, -0.20998787879943848, -0.1622038036584854]], [[1.4345277547836304, -1.0802392959594727, 0.5778145790100098], [0.2409370094537735, 0.9217133522033691, -0.29407674074172974, -0.07689415663480759]]]}}, {"element": 7, "tag": "place_retreat", "path": [[0.24278639969828109, -0.35346029292088454, 0.3205076987290594, 0.25448229265336375, -0.6621718799552281, 1.1951751342005048, 0.47148237205854227], [0.24278639969828109, -0.3504775171112859, 0.3183434238177501, 0.2511927720980716, -0.6600766061705106, 1.2009631646481886, 0.4700574214643838], [0.24278639969828109, -0.3475057851126949, 0.3162931603946306, 0.2477282022090568, -0.6579459015801535, 1.2068566790657755, 0.4685638865549077], [0.24278639969828109, -0.3445372114893006, 0.31429242722221246, 0.24420889681646565, -0.6558440783299864, 1.2127623245903638, 0.46708763166054784], [0.24278639969828109, -0.3415716028416526, 0.31233966237623, 0.24063794810842368, -0.6537725701613782, 1.2186775335136169, 0.4656306077876987], [0.24278639969828109, -0.3386090007210924, 0.31043489753171694, 0.2370154452000679, -0.6517311731938852, 1.2246020229815802, 0.4641925323973266], [0.24278639969828109, -0.3356494524468614, 0.3085782023571585, 0.23334139709967136, -0.6497196441117271, 1.2305355750212148, 0.46277306493725934], [0.24278639969828109, -0.3326930051715762, 0.30676964462181733, 0.22961580753434135, -0.6477377407723254, 1.236477979718231, 0.46137186228753085], [0.24278639969828109, -0.3297397058692496, 0.30500928311829034, 0.22583868365821036, -0.6457852264305918, 1.2424290194165215, 0.4599885858390514]], "attachments": [], "link_path": {"eef_tcp_frame": [[[1.434515357017517, -1.080234408378601, 0.5778068900108337], [0.24093718826770782, 0.9217125773429871, -0.29408085346221924, -0.07688725739717484]], [[1.436931848526001, -1.0757920742034912, 0.5849013328552246], [0.24093715846538544, 0.9217093586921692, -0.2941001355648041, -0.07685209065675735]], [[1.4394099712371826, -1.0713720321655273, 0.592033326625824], [0.24093711376190186, 0.9217093586921692, -0.29410043358802795, -0.07685116678476334]], [[1.4418895244598389, -1.0669527053833008, 0.5991662740707397], [0.2409370392560959, 0.9217094779014587, -0.29410019516944885, -0.07685109972953796]], [[1.4443690776824951, -1.0625332593917847, 0.6062992215156555], [0.24093690514564514, 0.9217095375061035, -0.29409992694854736, -0.07685104012489319]], [[1.4468486309051514, -1.058113932609558, 0.6134322285652161], [0.24093687534332275, 0.9217097163200378, -0.29409971833229065, -0.0768509954214096]], [[1.4493281841278076, -1.0536946058273315, 0.6205651164054871], [0.240936741232872, 0.9217097759246826, -0.29409950971603394, -0.07685091346502304]], [[1.4518077373504639, -1.0492751598358154, 0.6276980638504028], [0.24093665182590485, 0.9217098951339722, -0.2940993010997772, -0.07685083150863647]], [[1.4542872905731201, -1.0448558330535889, 0.6348309516906738], [0.2409365475177765, 0.9217099547386169, -0.2940990626811981, -0.07685072720050812]]]}}], [{"element": 32, "tag": "place_approach", "path": [[0.4378696411437304, -0.9808521469678592, 0.9667186369566175, -0.7884423192581529, 2.3745110528993583, -1.80595090405077, -0.024828059325399623], [0.4378696411437304, -0.9317506307672457, 0.9360409406038093, -0.7079080424112294, 2.1803583339192834, -1.8196564313354067, 0.1275872708995327], [0.4378696411437304, -0.8869615348316715, 0.9241486888832259, -0.634657578661089, 1.9935252847871299, -1.8682764064305692, 0.28046726473578615], [0.4378696411437304, -0.8501871434965235, 0.934564481189962, -0.5775197305432106, 1.8168689675789889, -1.9511530339943948, 0.42312454639618846]], "attachments": [{"parent_name": "ECL_robot1_with_track", "parent_link_name": "eef_tcp_frame", "grasp_pose": [[-6.198883056640625e-06, -0.2951163351535797, 2.384185791015625e-07], [0.4999995231628418, 0.5000012516975403, 0.5000004172325134, -0.4999988079071045]], "child_name": "body271"}], "link_path": {"eef_tcp_frame": [[[0.9289330244064331, -2.438706874847412, 0.7363855242729187], [0.8009694218635559, -0.4269631803035736, -0.3470516800880432, 0.2360202670097351]], [[0.9596840739250183, -2.4028847217559814, 0.782273530960083], [0.7411197423934937, -0.4394668936729431, -0.37370094656944275, 0.34345006942749023]], [[0.9966809153556824, -2.3583993911743164, 0.8119248747825623], [0.6695135235786438, -0.4448184669017792, -0.39400896430015564, 0.44569629430770874]], [[1.0382992029190063, -2.3101515769958496, 0.8238247036933899], [0.5871742367744446, -0.4430607259273529, -0.40806522965431213, 0.5407460927963257]]]}}, {"element": 32, "tag": "place_retreat", "path": [[0.4378696411437304, -0.8501809094096437, 0.934354384369044, -0.5771428409793892, 1.8169114951866696, -1.9510475482594072, 0.42331465067837976], [0.4378696411437304, -0.8462794042038663, 0.9390169126987402, -0.5857274459801469, 1.8170738525985062, -1.955485468389394, 0.42018877638962754], [0.4378696411437304, -0.8423978316120462, 0.9439524803110572, -0.5948025868019049, 1.8171340574389425, -1.9600257394787142, 0.41681384889569495], [0.4378696411437304, -0.838531496954404, 0.9490041784270502, -0.6040871446053221, 1.8171217543430602, -1.9645883542579223, 0.4133309316390085], [0.4378696411437304, -0.8346790941085176, 0.9541294750965702, -0.6135049652110569, 1.817044680747748, -1.9691512939707867, 0.40977780728910634], [0.4378696411437304, -0.8308412298754365, 0.9593505921202622, -0.6230962335845474, 1.8168963595797731, -1.973724514849311, 0.40613342687289855], [0.4378696411437304, -0.8270185949288251, 0.9646930285091913, -0.6329071458663548, 1.8166688485718379, -1.9783191844774768, 0.4023735894787999], [0.4378696411437304, -0.8232099665863137, 0.9701176746965204, -0.6428675796295714, 1.8163698312970153, -1.9829151875528952, 0.39853306707799024]], "attachments": [], "link_path": {"eef_tcp_frame": [[[1.038199543952942, -2.31003999710083, 0.8237969875335693], [0.5871862173080444, -0.44304943084716797, -0.4080355763435364, 0.5407648682594299]], [[1.0476900339126587, -2.3072009086608887, 0.8245927095413208], [0.5871972441673279, -0.4430387616157532, -0.40800777077674866, 0.5407823920249939]], [[1.0572679042816162, -2.304459571838379, 0.8254128098487854], [0.58719801902771, -0.4430381953716278, -0.40800637006759644, 0.5407832860946655]], [[1.0668572187423706, -2.3017311096191406, 0.8262361288070679], [0.5871973037719727, -0.4430389106273651, -0.40800824761390686, 0.54078209400177]], [[1.0764368772506714, -2.2989919185638428, 0.8270567059516907], [0.5871976613998413, -0.4430384337902069, -0.4080071449279785, 0.5407828092575073]], [[1.0860158205032349, -2.2962520122528076, 0.8278771638870239], [0.5871981382369995, -0.4430379867553711, -0.4080060124397278, 0.5407835245132446]], [[1.0956045389175415, -2.293522834777832, 0.8287003040313721], [0.5871975421905518, -0.4430386424064636, -0.4080077111721039, 0.5407824516296387]], [[1.105183482170105, -2.290782928466797, 0.8295207023620605], [0.58719801902771, -0.44303810596466064, -0.408006489276886, 0.540783166885376]]]}}], [{"element": 6, "tag": "place_approach", "path": [[1.7833242187681955, 0.5710201059704367, -0.13755405664882492, 0.7336300140953934, 0.22203868073375063, 0.7481735641515618, -0.64518976731746], [1.7833242187681955, 0.6745181644387157, -0.10763539570783882, 0.7135202615900342, -0.13617925736434763, 0.7642211606380127, -0.19948423461172565], [1.7833242187681955, 0.7654470661126365, -0.042794592692187765, 0.6807064627676767, -0.4255015267261669, 0.8717170303299376, 0.17772899638667694], [1.7833242187681955, 0.8348869252526828, 0.047663933213870004, 0.6374690316348676, -0.6131873639009072, 1.0308915711977065, 0.45343065324319687]], "attachments": [{"parent_name": "ECL_robot1_with_track", "parent_link_name": "eef_tcp_frame", "grasp_pose": [[-7.167458534240723e-06, -0.10182774066925049, -8.940696716308594e-08], [0.49999916553497314, 0.5000010132789612, 0.5000007748603821, -0.49999916553497314]], "child_name": "body245"}], "link_path": {"eef_tcp_frame": [[[1.0471047163009644, -1.0206457376480103, 0.5253444910049438], [-0.5049282908439636, 0.8516789674758911, 0.07984218746423721, 0.11539299786090851]], [[1.0484139919281006, -1.00577712059021, 0.5110018849372864], [-0.4601243734359741, 0.8806893229484558, -0.02678924798965454, 0.10933555662631989]], [[1.0515685081481934, -0.9943915605545044, 0.49583929777145386], [-0.40824946761131287, 0.8972079157829285, -0.1340249925851822, 0.1019197627902031]], [[1.0568718910217285, -0.9880239963531494, 0.48099270462989807], [-0.35063669085502625, 0.9007177352905273, -0.23898150026798248, 0.09300189465284348]]]}}, {"element": 6, "tag": "place_retreat", "path": [[1.7833242187681955, 0.8349036597213404, 0.04767018704319655, 0.6374831641969816, -0.6132239741858116, 1.0308830592996825, 0.45349009909359894], [1.7833242187681955, 0.8382206651308762, 0.04393589686885907, 0.6345451229817682, -0.6102349699467515, 1.0378020997417046, 0.4516054488043449], [1.7833242187681955, 0.8414856301274203, 0.04026603733413871, 0.6314709517613848, -0.6071622968087711, 1.0447918092489794, 0.4495613028349668], [1.7833242187681955, 0.8447466945477295, 0.03666193462393269, 0.628339767338357, -0.6041420393341038, 1.0517861209403108, 0.44756208404213677], [1.7833242187681955, 0.8480055654913163, 0.033123786286876795, 0.6251540938103629, -0.6011775518992301, 1.058782828519688, 0.4456135737017727], [1.7833242187681955, 0.8512622316380644, 0.029651603941357633, 0.6219142395212951, -0.5982679941457736, 1.0657813128558185, 0.4437149946863657], [1.7833242187681955, 0.8545166265271035, 0.026245379027038614, 0.6186204454568605, -0.5954124106655398, 1.0727810194179288, 0.44186537564363276], [1.7833242187681955, 0.8577686823018525, 0.022905090029814026, 0.6152729501174469, -0.5926098576845973, 1.0797814134474508, 0.4400637511919608], [1.7833242187681955, 0.8610183383477281, 0.019630701847754714, 0.6118719969337029, -0.5898594314169298, 1.0867819770696627, 0.4383091202915079]], "attachments": [], "link_path": {"eef_tcp_frame": [[[1.0568633079528809, -0.9880185723304749, 0.4809766709804535], [-0.3506297171115875, 0.9007168412208557, -0.23899056017398834, 0.09301389008760452]], [[1.0538952350616455, -0.9848231077194214, 0.4885062873363495], [-0.3506084680557251, 0.9007130265235901, -0.23901566863059998, 0.09306637942790985]], [[1.0509614944458008, -0.9816268682479858, 0.49610453844070435], [-0.3506082594394684, 0.9007130265235901, -0.23901578783988953, 0.09306692332029343]], [[1.048028826713562, -0.9784308075904846, 0.5037047863006592], [-0.3506087064743042, 0.9007130861282349, -0.23901499807834625, 0.09306591749191284]], [[1.0450962781906128, -0.9752347469329834, 0.5113049745559692], [-0.3506091833114624, 0.9007132053375244, -0.23901423811912537, 0.09306494891643524]], [[1.042163610458374, -0.972038745880127, 0.5189051032066345], [-0.350609689950943, 0.900713324546814, -0.23901352286338806, 0.09306402504444122]], [[1.0392310619354248, -0.9688426852226257, 0.5265051126480103], [-0.35061022639274597, 0.9007134437561035, -0.23901283740997314, 0.09306316822767258]], [[1.036298394203186, -0.9656466245651245, 0.5341050624847412], [-0.350610613822937, 0.9007135033607483, -0.23901216685771942, 0.09306232631206512]], [[1.0333657264709473, -0.9624506235122681, 0.5417050123214722], [-0.3506110608577728, 0.9007135629653931, -0.23901157081127167, 0.09306155890226364]]]}}], [{"element": 25, "tag": "place_approach", "path": [[2.6782624028890063, 0.41252171559917394, 0.3291928282055188, 0.254156148256486, 0.41803637691105505, 1.1970624859004202, -1.2902722835144997], [2.6782624028890063, 0.4321617645569448, 0.28527104724838354, 0.27637602886937485, 0.31903947753685685, 1.1341464625396442, -1.185520787590705], [2.6782624028890063, 0.4556192865134245, 0.24468764874816257, 0.29792364194184806, 0.20782999385024886, 1.0806698021886212, -1.068378487536838], [2.6782624028890063, 0.48260306108219314, 0.20819976616394673, 0.31856097954898205, 0.08462400786585109, 1.0390793771955524, -0.9390916937751046], [2.6782624028890063, 0.5127277158790281, 0.1764449439023441, 0.33817908377463085, -0.0490027855465924, 1.0117373651059887, -0.7991936117138506]], "attachments": [{"parent_name": "ECL_robot1_with_track", "parent_link_name": "eef_tcp_frame", "grasp_pose": [[-4.5299530029296875e-06, 0.1550614833831787, 2.682209014892578e-07], [-0.5000002980232239, 0.5000012516975403, -0.5, -0.4999989867210388]], "child_name": "body264"}], "link_path": {"eef_tcp_frame": [[[1.3922438621520996, -1.860428810119629, 0.5165510773658752], [-0.6688302159309387, 0.7129312753677368, 0.2102118283510208, -0.014358370564877987]], [[1.3939992189407349, -1.8770735263824463, 0.5349584817886353], [-0.6604167222976685, 0.7352548837661743, 0.15236060321331024, -0.0060259876772761345]], [[1.3940638303756714, -1.892688274383545, 0.5543495416641235], [-0.64935702085495, 0.7546646595001221, 0.09386814385652542, 0.0023406920954585075]], [[1.3924843072891235, -1.907131314277649, 0.5745068788528442], [-0.6357059478759766, 0.7710633873939514, 0.03500082716345787, 0.010690854862332344]], [[1.3892515897750854, -1.9202780723571777, 0.5951840281486511], [-0.6195163726806641, 0.7843865156173706, -0.02400960586965084, 0.018994413316249847]]]}}, {"element": 25, "tag": "place_retreat", "path": [[2.6782624028890063, 0.5127465322626557, 0.17644188254972987, 0.3381855225675017, -0.049039083827772334, 1.0117318111758127, -0.7991395385264415], [2.6782624028890063, 0.5130465920097779, 0.1726058466699646, 0.3343016009634742, -0.04888447558545086, 1.0194061489094568, -0.7992139777615871], [2.6782624028890063, 0.5133143300042047, 0.16888638656117147, 0.33026753741641535, -0.04866915514009735, 1.0271604773197125, -0.7993809608257306], [2.6782624028890063, 0.5135814003493394, 0.16523708710777238, 0.3261626417194182, -0.04845715781371631, 1.0349164272305473, -0.7995463049866101], [2.6782624028890063, 0.5138486094793641, 0.16165712267830515, 0.3219885635223681, -0.04824999023049548, 1.0426723156956568, -0.799707746184187], [2.6782624028890063, 0.5141159769240004, 0.15814656308249997, 0.31774542572606423, -0.048047604613709285, 1.0504279311976408, -0.7998653223011919], [2.6782624028890063, 0.5143835030330116, 0.15470548795048938, 0.3134333161106083, -0.04784991809214034, 1.0581831038196705, -0.8000191249385541], [2.6782624028890063, 0.5146511875327279, 0.15133396805685992, 0.30905231841946174, -0.04765684852117655, 1.0659376732292927, -0.8001692456387558]], "attachments": [], "link_path": {"eef_tcp_frame": [[[1.3892419338226318, -1.920267105102539, 0.5951813459396362], [-0.6195096969604492, 0.7843913435935974, -0.024024441838264465, 0.01899413950741291]], [[1.3885958194732666, -1.920124888420105, 0.6051331162452698], [-0.6194977164268494, 0.7843993902206421, -0.02405443787574768, 0.019015291705727577]], [[1.3879984617233276, -1.9199830293655396, 0.6151133179664612], [-0.6194974780082703, 0.7843996286392212, -0.0240551196038723, 0.019015925005078316]], [[1.387402057647705, -1.9198414087295532, 0.6250939965248108], [-0.6194974780082703, 0.7843995690345764, -0.024055086076259613, 0.019016185775399208]], [[1.3868056535720825, -1.919699788093567, 0.6350746750831604], [-0.619497537612915, 0.7843995690345764, -0.02405504323542118, 0.019016442820429802]], [[1.3862093687057495, -1.9195581674575806, 0.6450554132461548], [-0.6194974780082703, 0.7843994498252869, -0.024055002257227898, 0.019016701728105545]], [[1.385612964630127, -1.9194165468215942, 0.6550360918045044], [-0.6194975972175598, 0.7843994498252869, -0.02405497431755066, 0.019016971811652184]], [[1.3850165605545044, -1.919274926185608, 0.6650167107582092], [-0.619497537612915, 0.7843994498252869, -0.024054940789937973, 0.01901724375784397]]]}}], [{"element": 3, "tag": "place_approach", "path": [[1.6976654648467024, 0.5098355895258821, 0.4370709142213729, 0.05216708947289714, 0.3182061542011125, 1.5119087909396933, 1.4605603890293304], [1.6976654648467024, 0.5095706005485475, 0.46967440895528684, 0.013537896698780574, 0.3576495957544194, 1.5990969295134845, 1.611423930997151], [1.6976654648467024, 0.5068441085379598, 0.5011134938484826, -0.0205436904220573, 0.40782892093238327, 1.6770410508053926, 1.7633276685858508], [1.6976654648467024, 0.501958962869408, 0.5301975143072742, -0.04869260149372379, 0.4677478836682355, 1.7439175891418544, 1.917406232086728], [1.6976654648467024, 0.49523204146992444, 0.5559294148350018, -0.06981607892213187, 0.5361892039820454, 1.7982163271453953, 2.0740536551961197], [1.6976654648467024, 0.48698427907200065, 0.5774270699739519, -0.08300727938105794, 0.6115674452084564, 1.8387100582095448, 2.2328837036807783]], "attachments": [{"parent_name": "ECL_robot1_with_track", "parent_link_name": "eef_tcp_frame", "grasp_pose": [[3.2782554626464844e-06, 0.09655213356018066, -3.5762786865234375e-07], [0.5000011920928955, 0.5000004172325134, 0.49999871850013733, -0.4999997019767761]], "child_name": "body242"}], "link_path": {"eef_tcp_frame": [[[1.3575866222381592, -0.7576988935470581, 0.607172429561615], [0.4795886278152466, 0.8380300402641296, -0.0913834199309349, -0.24361774325370789]], [[1.349554181098938, -0.74090576171875, 0.6233608722686768], [0.5325539708137512, 0.7901850342750549, -0.13257040083408356, -0.27279844880104065]], [[1.3441674709320068, -0.7233256101608276, 0.6385963559150696], [0.5814415216445923, 0.7362961769104004, -0.1727716028690338, -0.2999062240123749]], [[1.3413090705871582, -0.7053843140602112, 0.6525453925132751], [0.6258838176727295, 0.6767784357070923, -0.21165214478969574, -0.3247210383415222]], [[1.3408522605895996, -0.6874861717224121, 0.664943277835846], [0.6655412316322327, 0.612086832523346, -0.2489149123430252, -0.3470532298088074]], [[1.3425794839859009, -0.6700434684753418, 0.6755672693252563], [0.7001123428344727, 0.5427163243293762, -0.28426891565322876, -0.36673271656036377]]]}}, {"element": 3, "tag": "place_retreat", "path": [[1.6976654648467024, 0.48698534518580583, 0.5774486216339159, -0.08304193748417348, 0.6115665043847539, 1.8387321772237595, 2.2328944052598225], [1.6976654648467024, 0.4845375176822128, 0.5804799730758581, -0.09172140956901356, 0.61082429537326, 1.8445833670854042, 2.2344222933420848], [1.6976654648467024, 0.48210372637439886, 0.5835833060588606, -0.10050623813822683, 0.6101121098767692, 1.8504711154698075, 2.235974683756169], [1.6976654648467024, 0.47968409630598147, 0.5867623124664443, -0.10940295412454196, 0.6094305840133816, 1.8563990637377439, 2.2375541830866768], [1.6976654648467024, 0.47727639427936974, 0.5899707760278722, -0.11833749704891645, 0.6087817118841392, 1.8623199678328675, 2.2391391082598995], [1.6976654648467024, 0.4748815834133428, 0.5932317930412462, -0.12734737864996556, 0.6081649454583418, 1.868257389572512, 2.2407410047952525], [1.6976654648467024, 0.47249959636765015, 0.5965461307766514, -0.13643419567512025, 0.6075806286377526, 1.8742120537642348, 2.242360735201816], [1.6976654648467024, 0.47013035686466276, 0.5999143898778142, -0.14559928210594503, 0.607029133814401, 1.880184504229926, 2.243999090732093], [1.6976654648467024, 0.4677737809932883, 0.6033372269220578, -0.15484403642230798, 0.6065109036797366, 1.8861753613486947, 2.2456568067734572]], "attachments": [], "link_path": {"eef_tcp_frame": [[[1.3425978422164917, -0.6700340509414673, 0.6755731105804443], [0.7001104354858398, 0.5427160859107971, -0.28427496552467346, -0.36673200130462646]], [[1.3495440483093262, -0.6718369722366333, 0.6805489659309387], [0.7001126408576965, 0.5427162051200867, -0.2842685580253601, -0.3667326867580414]], [[1.3565077781677246, -0.6736311316490173, 0.6855302453041077], [0.7001128196716309, 0.5427162051200867, -0.28426796197891235, -0.36673274636268616]], [[1.3634920120239258, -0.6754152178764343, 0.6905179619789124], [0.7001108527183533, 0.5427160859107971, -0.2842738926410675, -0.36673209071159363]], [[1.3704566955566406, -0.6772089600563049, 0.6954994797706604], [0.7001109719276428, 0.5427160859107971, -0.28427350521087646, -0.36673206090927124]], [[1.3774210214614868, -0.6790028214454651, 0.7004809975624084], [0.7001111507415771, 0.5427161455154419, -0.28427305817604065, -0.36673209071159363]], [[1.384385347366333, -0.68079674243927, 0.7054623961448669], [0.7001113295555115, 0.5427161455154419, -0.28427261114120483, -0.3667321503162384]], [[1.3913496732711792, -0.6825907230377197, 0.7104437947273254], [0.700111448764801, 0.5427162051200867, -0.28427207469940186, -0.3667321503162384]], [[1.3983137607574463, -0.6843847036361694, 0.7154251337051392], [0.7001115679740906, 0.5427162647247314, -0.28427159786224365, -0.36673223972320557]]]}}], [{"element": 4, "tag": "place_approach", "path": [[0.21982651696989758, -0.754433579461614, -0.4840023280777917, 1.025563899009483, 0.9668982006133794, 0.658407200710773, 0.7306759905629352], [0.21982651696989758, -0.7829645518436249, -0.4520587418622232, 1.021380064353281, 1.07490139364093, 0.7260218012346771, 0.4513930155614747], [0.21982651696989758, -0.8079225727291517, -0.4117248441462899, 1.0103200935251992, 1.1458431531698419, 0.8042224904312958, 0.20429866248371248], [0.21982651696989758, -0.8275305209628099, -0.3662900908398691, 0.9923675208628446, 1.1826502700092705, 0.8860616892018096, -0.012436674715431625], [0.21982651696989758, -0.8417265076321299, -0.3165260568932979, 0.9685286803035583, 1.1947485774172366, 0.9667307745679384, -0.20894734558814734], [0.21982651696989758, -0.8496929614261014, -0.2661281619901594, 0.9393095333715695, 1.1854258569395193, 1.0428205116026876, -0.3865726728426714], [0.21982651696989758, -0.8516014164912336, -0.21698370757937038, 0.9057463438406599, 1.1597588687620286, 1.1124499320013934, -0.5495162387080006]], "attachments": [{"parent_name": "ECL_robot1_with_track", "parent_link_name": "eef_tcp_frame", "grasp_pose": [[-6.794929504394531e-06, -0.00817042589187622, -1.4901161193847656e-07], [-0.4999992251396179, 0.500001072883606, -0.5000007748603821, -0.4999989867210388]], "child_name": "body243"}], "link_path": {"eef_tcp_frame": [[[0.9736206531524658, -0.7855632901191711, 0.6024124026298523], [0.8160285949707031, 0.432229608297348, 0.34535056352615356, 0.16735565662384033]], [[0.9835674166679382, -0.7822011709213257, 0.6039813756942749], [0.7636466026306152, 0.5014378428459167, 0.36441728472709656, 0.18056580424308777]], [[0.9933289885520935, -0.7788941264152527, 0.6052781343460083], [0.7050223350524902, 0.5666093230247498, 0.38065364956855774, 0.19235433638095856]], [[1.0027732849121094, -0.775297999382019, 0.6069691181182861], [0.6408579349517822, 0.6272066235542297, 0.39360955357551575, 0.20244625210762024]], [[1.0121650695800781, -0.7720866799354553, 0.6078165173530579], [0.5712677836418152, 0.6827224493026733, 0.40369555354118347, 0.21112345159053802]], [[1.0213160514831543, -0.7688215374946594, 0.6087194085121155], [0.49711543321609497, 0.7327146530151367, 0.41043776273727417, 0.21805155277252197]], [[1.0302554368972778, -0.7655905485153198, 0.6096009612083435], [0.4189753830432892, 0.776786208152771, 0.4138239920139313, 0.22318747639656067]]]}}, {"element": 4, "tag": "place_retreat", "path": [[0.21982651696989758, -0.8516079991610175, -0.2169637515313316, 0.9057496140586457, 1.1597807940627822, 1.112452425229055, -0.5495574201917561], [0.21982651696989758, -0.8586028430780993, -0.2211575162996179, 0.9046785952811143, 1.1541437634456486, 1.1195465097719224, -0.5466994678904807], [0.21982651696989758, -0.8655945140371138, -0.22536273916794913, 0.903507682995807, 1.1484464732716362, 1.126698137377725, -0.5437067272886368], [0.21982651696989758, -0.8725974684497251, -0.2294858434035533, 0.9022706008446523, 1.1428251151042799, 1.1338868731099696, -0.5407975245021739], [0.21982651696989758, -0.8796119100082669, -0.23352338343357568, 0.9009682864568649, 1.1372825035587204, 1.1411110692689626, -0.5379776777639875], [0.21982651696989758, -0.8866372039746169, -0.2374747520617098, 0.8996010155385, 1.1318180025609015, 1.1483689966531985, -0.5352468359116279], [0.21982651696989758, -0.8936668543733691, -0.24132483941373353, 0.8981804725376666, 1.1264627686035478, 1.1556408248690508, -0.532644427734979], [0.21982651696989758, -0.9007118116022023, -0.24510298715444312, 0.8966839329712418, 1.1211510468108274, 1.1629610728293067, -0.5300883982388807], [0.21982651696989758, -0.9077654198924363, -0.24879423098552692, 0.8951230767733969, 1.11591427386521, 1.1703099539151935, -0.5276182068250506]], "attachments": [], "link_path": {"eef_tcp_frame": [[[1.0302578210830688, -0.7655973434448242, 0.6095865368843079], [0.41897052526474, 0.7767847776412964, 0.41382864117622375, 0.2231927067041397]], [[1.0242118835449219, -0.7696064114570618, 0.6143825054168701], [0.41894814372062683, 0.7767758965492249, 0.4138493239879608, 0.22322753071784973]], [[1.0181431770324707, -0.7735959887504578, 0.6192644238471985], [0.41894814372062683, 0.7767760753631592, 0.4138491153717041, 0.22322705388069153]], [[1.0120742321014404, -0.7775846123695374, 0.6241484880447388], [0.4189489483833313, 0.7767764329910278, 0.41384831070899963, 0.22322575747966766]], [[1.0060051679611206, -0.7815731167793274, 0.6290324926376343], [0.41894975304603577, 0.7767768502235413, 0.41384756565093994, 0.22322453558444977]], [[0.9999362826347351, -0.7855616807937622, 0.6339163780212402], [0.41895046830177307, 0.7767771482467651, 0.4138467609882355, 0.22322335839271545]], [[0.993877649307251, -0.7895482182502747, 0.6387805938720703], [0.41894853115081787, 0.7767753601074219, 0.4138478934764862, 0.22323119640350342]], [[0.9878086447715759, -0.7935367822647095, 0.6436646580696106], [0.41894927620887756, 0.7767757177352905, 0.41384708881378174, 0.22322994470596313]], [[0.9817396402359009, -0.7975251078605652, 0.6485490798950195], [0.4189501702785492, 0.776776134967804, 0.41384613513946533, 0.2232285588979721]]]}}], [{"element": 5, "tag": "place_approach", "path": [[0.6244253487806886, 0.23985157236682828, 0.07762876744718182, 0.48050789343444705, -0.043791039138567474, 1.5192795980154208, 1.0957071854449767], [0.6244253487806886, 0.25940994499539255, 0.07754432855634381, 0.4835455294495841, -0.09536874387501407, 1.5210187402796984, 1.0698343961683916], [0.6244253487806886, 0.27893428444235735, 0.07644917354252086, 0.4884802560696134, -0.14696755528807914, 1.5211744264834617, 1.044003857974533], [0.6244253487806886, 0.2983745831273091, 0.0742944426914997, 0.49535946045355067, -0.19858950884336488, 1.5197132239940232, 1.0183126829016946], [0.6244253487806886, 0.31769920622080217, 0.0711368582168938, 0.5040938234094557, -0.25023048114321034, 1.516717167685663, 0.9928864211569081], [0.6244253487806886, 0.3368398894335439, 0.06693283143100151, 0.514705095364459, -0.3019092070905672, 1.5121832283935797, 0.9677760993274248], [0.6244253487806886, 0.35575219429164656, 0.0617387999082804, 0.5270907468637063, -0.3536313182509716, 1.506206920261072, 0.9430672844225972], [0.6244253487806886, 0.3743757024726912, 0.055539776047672094, 0.5412265343566759, -0.4054187198935919, 1.498822342425054, 0.9188133269782035], [0.6244253487806886, 0.392652982403981, 0.04834257822687267, 0.5570559487228736, -0.4572953096651691, 1.4900888619109292, 0.8950661725693991], [0.6244253487806886, 0.410524132572163, 0.04015451484314248, 0.5745156084247619, -0.5092912969233144, 1.4800681119622767, 0.871866066051854], [0.6244253487806886, 0.42792331441570636, 0.030952318148448288, 0.5935707122778296, -0.5614518219861014, 1.468797651194182, 0.8492425227935405], [0.6244253487806886, 0.44479019121958613, 0.020796826791777617, 0.6140832911374842, -0.6138042811461525, 1.4563864547221, 0.8272125704342446], [0.6244253487806886, 0.4610515128647535, 0.00966488236755087, 0.6360054878150181, -0.6664044580276437, 1.442869627097359, 0.8057815792374713], [0.6244253487806886, 0.4766321857728662, -0.002443048423117921, 0.6592552024713387, -0.7193078142957879, 1.4282989106099475, 0.78494268579587], [0.6244253487806886, 0.49145131734973, -0.015528561875941645, 0.6837458046276581, -0.7725752799676225, 1.412718687178888, 0.7646781252905491], [0.6244253487806886, 0.5054213541127169, -0.029597000785209895, 0.7093868939707472, -0.8262732179662335, 1.3961627368047096, 0.7449586740385296]], "attachments": [{"parent_name": "ECL_robot1_with_track", "parent_link_name": "eef_tcp_frame", "grasp_pose": [[-4.887580871582031e-06, -0.0009783506393432617, 2.9802322387695312e-08], [0.5, 0.5000013113021851, 0.4999999403953552, -0.49999862909317017]], "child_name": "body244"}], "link_path": {"eef_tcp_frame": [[[1.1570109128952026, -0.36421865224838257, 0.6204150319099426], [0.39567023515701294, 0.8833134174346924, -0.17153877019882202, -0.18378491699695587]], [[1.1557023525238037, -0.3674541115760803, 0.6196545958518982], [0.3677956163883209, 0.8937928080558777, -0.19156253337860107, -0.17077669501304626]], [[1.1544137001037598, -0.3707064986228943, 0.618907630443573], [0.3393770456314087, 0.902970552444458, -0.21131156384944916, -0.15752756595611572]], [[1.153100848197937, -0.3739843964576721, 0.6181503534317017], [0.31045857071876526, 0.9108371138572693, -0.23074476420879364, -0.14404195547103882]], [[1.1518001556396484, -0.37724679708480835, 0.6173980236053467], [0.2810932695865631, 0.9173722267150879, -0.24984705448150635, -0.1303505301475525]], [[1.150477647781372, -0.3805280923843384, 0.6166364550590515], [0.25131556391716003, 0.9225736260414124, -0.26857954263687134, -0.11646203696727753]], [[1.1491705179214478, -0.38380029797554016, 0.6158812642097473], [0.22117437422275543, 0.9264276027679443, -0.2869253158569336, -0.10240928083658218]], [[1.1478630304336548, -0.3870762884616852, 0.6151255369186401], [0.1907108724117279, 0.9289314150810242, -0.3048528730869293, -0.08820731937885284]], [[1.1465548276901245, -0.390356183052063, 0.6143695116043091], [0.15996965765953064, 0.9300814270973206, -0.3223360478878021, -0.07387688755989075]], [[1.1452467441558838, -0.3936399221420288, 0.6136132478713989], [0.12899541854858398, 0.9298759698867798, -0.3393493890762329, -0.05943882465362549]], [[1.143918752670288, -0.3969438374042511, 0.6128494143486023], [0.09783012419939041, 0.9283176064491272, -0.35586410760879517, -0.044905245304107666]], [[1.14260995388031, -0.40023723244667053, 0.6120927929878235], [0.06652497500181198, 0.9254040718078613, -0.37186408042907715, -0.030314108356833458]], [[1.141302227973938, -0.40353426337242126, 0.6113364696502686], [0.03512315824627876, 0.9211418032646179, -0.3873221278190613, -0.015678908675909042]], [[1.1399955749511719, -0.40683484077453613, 0.610580563545227], [0.0036701676435768604, 0.9155371189117432, -0.4022156298160553, -0.0010208492167294025]], [[1.1386903524398804, -0.41013866662979126, 0.6098249554634094], [-0.02778797410428524, 0.908598005771637, -0.41652315855026245, 0.013638559728860855]], [[1.1373869180679321, -0.41344544291496277, 0.6090700030326843], [-0.05920527130365372, 0.9003347754478455, -0.4302237629890442, 0.028277887031435966]]]}}, {"element": 5, "tag": "place_retreat", "path": [[0.6244253487806886, 0.5054163744289001, -0.029622562561112058, 0.7094135868260713, -0.8262841916571151, 1.3961426286045446, 0.7449582168594143], [0.6244253487806886, 0.5104956395194131, -0.030426505456440815, 0.7052191850776697, -0.8229643037567453, 1.4023897920804673, 0.743973990502034], [0.6244253487806886, 0.5155709882610563, -0.031103437678743334, 0.7008930705998937, -0.8196436150438693, 1.4087042122843616, 0.7430031695793118], [0.6244253487806886, 0.520625729391916, -0.03171528659464526, 0.6965179992871471, -0.8163665236265915, 1.4150110716451687, 0.7420659027117209], [0.6244253487806886, 0.5256596076834658, -0.03226344762454831, 0.6920954135782221, -0.8131329503442901, 1.4213091561491928, 0.7411616406643968], [0.6244253487806886, 0.5306724967559642, -0.03274838564069667, 0.6876256050388516, -0.8099422909182198, 1.4275981269949698, 0.7402895522533561], [0.6244253487806886, 0.535664276922346, -0.03317055587309157, 0.6831088448685633, -0.8067939453145684, 1.4338776751517741, 0.7394488103593271], [0.6244253487806886, 0.5406348337402194, -0.03353041638041179, 0.6785453991615148, -0.8036873246649802, 1.4401475099170966, 0.7386385956719742], [0.6244253487806886, 0.545584046180586, -0.03382844397704013, 0.6739355268370246, -0.8006218175368744, 1.446407330040136, 0.7378580727378286]], "attachments": [], "link_path": {"eef_tcp_frame": [[[1.1373733282089233, -0.41346192359924316, 0.6090658903121948], [-0.059209149330854416, 0.9003356099128723, -0.4302208721637726, 0.028285633772611618]], [[1.1364485025405884, -0.406764417886734, 0.6145339012145996], [-0.059218812733888626, 0.9003373980522156, -0.4302140176296234, 0.02831444703042507]], [[1.1355559825897217, -0.400016188621521, 0.6200312376022339], [-0.0592191182076931, 0.9003375172615051, -0.43021360039711, 0.02831455133855343]], [[1.1346640586853027, -0.39326730370521545, 0.6255288124084473], [-0.05921931564807892, 0.9003376364707947, -0.4302133619785309, 0.028314298018813133]], [[1.1337722539901733, -0.3865184187889099, 0.6310263872146606], [-0.059219494462013245, 0.9003376960754395, -0.43021321296691895, 0.02831405960023403]], [[1.1328803300857544, -0.37976953387260437, 0.6365239024162292], [-0.05921966955065727, 0.900337815284729, -0.43021294474601746, 0.028313830494880676]], [[1.1319884061813354, -0.37302064895629883, 0.6420213580131531], [-0.0592198371887207, 0.9003378748893738, -0.4302127957344055, 0.028313621878623962]], [[1.1310964822769165, -0.3662717640399933, 0.6475187540054321], [-0.05921998620033264, 0.9003379940986633, -0.4302125573158264, 0.028313426300883293]], [[1.130204677581787, -0.35952284932136536, 0.6530161499977112], [-0.05922013893723488, 0.9003380537033081, -0.43021243810653687, 0.028313245624303818]]]}}], [{"element": 33, "tag": "place_approach", "path": [[2.021561750778659, 0.017176843514096266, 0.03940037619126792, 0.5535234268341067, -4.094489841657942, -0.9859541848078063, -1.3623070730947302], [2.021561750778659, -0.08342239929265813, 0.00877663930508149, 0.5310203340957923, -3.8354972668009895, -0.8225627455428511, -1.8951901974396395], [2.021561750778659, -0.18088928098304757, 0.04433738819305263, 0.4611478358964734, -3.47860231958458, -0.7974384208442634, -2.504241166367247], [2.021561750778659, -0.2559516412942673, 0.13394831168748, 0.35558825019864093, -3.187821524550328, -0.9149911936155076, -3.033535140861058], [2.021561750778659, -0.2990221090864414, 0.25702030764169626, 0.2287347310233081, -3.031126003883161, -1.1106972033059956, -3.422415054400624]], "attachments": [{"parent_name": "ECL_robot1_with_track", "parent_link_name": "eef_tcp_frame", "grasp_pose": [[6.556510925292969e-06, 0.15439939498901367, 1.7881393432617188e-07], [-0.5000006556510925, -0.49999886751174927, -0.49999940395355225, 0.500001072883606]], "child_name": "body272"}], "link_path": {"eef_tcp_frame": [[[1.470639705657959, -2.339906692504883, 0.6656230092048645], [0.5233983397483826, 0.7619646191596985, -0.24041946232318878, 0.29607880115509033]], [[1.4884504079818726, -2.383789539337158, 0.6657595634460449], [0.41641485691070557, 0.8620253801345825, -0.17350690066814423, 0.23109816014766693]], [[1.5169225931167603, -2.4205851554870605, 0.656907320022583], [0.29684141278266907, 0.9361881017684937, -0.10130688548088074, 0.15866276621818542]], [[1.5519882440567017, -2.4468419551849365, 0.6388388276100159], [0.16801147162914276, 0.9820926785469055, -0.025503981858491898, 0.08133633434772491]], [[1.5889432430267334, -2.4591259956359863, 0.6124960780143738], [0.03422882780432701, 0.99812251329422, 0.050761960446834564, 0.0017589436611160636]]]}}, {"element": 33, "tag": "place_retreat", "path": [[2.021561750778659, -0.29903025659214255, 0.2570407037045852, 0.22870330895092464, -3.031113402282373, -1.1107272638376253, -3.4224355984790438], [2.021561750778659, -0.29956409459526273, 0.25449060313100275, 0.22463870593966712, -3.031462164127688, -1.1173341658217177, -3.422173140230134], [2.021561750778659, -0.30008513293052197, 0.2520121913288803, 0.220485537064598, -3.0318297397165956, -1.1239755058575636, -3.4218765308605628], [2.021561750778659, -0.3006058645764952, 0.24958589151196314, 0.21627837495939667, -3.032190623727439, -1.1306193976304342, -3.4215843857238357], [2.021561750778659, -0.30112646871281706, 0.24721125566572089, 0.21201803871041086, -3.032544521406344, -1.1372650406935358, -3.421297171067481], [2.021561750778659, -0.3016469476901306, 0.24488832131489463, 0.20770452430768258, -3.0328915177302225, -1.1439123852886923, -3.4210147833058273], [2.021561750778659, -0.3021673012015157, 0.24261713579048488, 0.20333780334538668, -3.0332317018130346, -1.150561406288533, -3.4207371110285463], [2.021561750778659, -0.3026875289025316, 0.2403977450341684, 0.1989178416095801, -3.0335651608454137, -1.1572120860340225, -3.420464043928367], [2.021561750778659, -0.30320763301835896, 0.23823019455601382, 0.19444459844979017, -3.0338919709295493, -1.1638644165683314, -3.4201954756810444]], "attachments": [], "link_path": {"eef_tcp_frame": [[[1.5889579057693481, -2.4591379165649414, 0.6125045418739319], [0.0342244952917099, 0.9981222152709961, 0.05077051371335983, 0.0017523197457194328]], [[1.5888758897781372, -2.4600276947021484, 0.6211965680122375], [0.03421824052929878, 0.9981220364570618, 0.050778429955244064, 0.001765577937476337]], [[1.5888140201568604, -2.4609134197235107, 0.6299006342887878], [0.0342181995511055, 0.9981220364570618, 0.050778377801179886, 0.0017660993617027998]], [[1.5887526273727417, -2.461799144744873, 0.6386048793792725], [0.03421824052929878, 0.9981220364570618, 0.050778232514858246, 0.0017663533799350262]], [[1.588691234588623, -2.4626848697662354, 0.6473091244697571], [0.034218285232782364, 0.9981220364570618, 0.050778087228536606, 0.0017666082130745053]], [[1.5886297225952148, -2.4635705947875977, 0.6560133695602417], [0.034218333661556244, 0.9981220364570618, 0.05077795311808586, 0.0017668695654720068]], [[1.5885683298110962, -2.46445631980896, 0.6647176146507263], [0.03421837463974953, 0.9981220364570618, 0.05077780783176422, 0.0017671375535428524]], [[1.588506817817688, -2.4653420448303223, 0.6734218597412109], [0.03421841561794281, 0.9981220364570618, 0.05077766999602318, 0.0017674125265330076]], [[1.5884454250335693, -2.4662277698516846, 0.6821260452270508], [0.03421845659613609, 0.9981220960617065, 0.050777535885572433, 0.0017676944844424725]]]}}], [{"element": 9, "tag": "place_approach", "path": [[2.1302606714075734, 0.6013994962925231, 0.8294985888837764, -0.6619634440460546, -0.2691790858241693, 1.934521613854941, 0.4472125280944869], [2.1302606714075734, 0.6167375984753906, 0.8323454627686386, -0.6738750733500337, -0.3382173164230228, 1.9155796247370853, 0.409315943991363], [2.1302606714075734, 0.6321798759445565, 0.8329504012998317, -0.6807163001396367, -0.40568360111363144, 1.8922768527375993, 0.37367241295959636], [2.1302606714075734, 0.6476556796058611, 0.8312733847462576, -0.6823919568389165, -0.47149315937582265, 1.8648376853808537, 0.340764795061313], [2.1302606714075734, 0.6631083357652429, 0.8269531950570925, -0.6782475977826721, -0.5356078237037339, 1.8332124990047252, 0.3112206793475137], [2.1302606714075734, 0.678464891657372, 0.8202695052335159, -0.6687649673488122, -0.5981656299686803, 1.798006498548316, 0.28529346104480785], [2.1302606714075734, 0.6936574129832418, 0.8113104222192924, -0.6541000905128596, -0.6593859257971371, 1.7596358463108546, 0.2632403853559318], [2.1302606714075734, 0.7086157357641474, 0.8002620982859527, -0.6345896155502686, -0.7195766803225101, 1.7186025508525302, 0.24520534399568816], [2.1302606714075734, 0.7232681881227278, 0.7873544886840136, -0.6106541857155069, -0.779110658240401, 1.675431951750905, 0.23125315111110215], [2.1302606714075734, 0.7375413496814113, 0.7728426005515423, -0.5827640582967493, -0.8384021059774406, 1.6306514817732463, 0.22139166127620838], [2.1302606714075734, 0.7513603064505462, 0.7569898459070706, -0.5514082859529306, -0.8978883364750845, 1.5847750582232247, 0.2155936557136978], [2.1302606714075734, 0.7646483996217488, 0.7400556889113151, -0.5170716217573343, -0.9580136491181281, 1.5382948278340731, 0.21381563658564365], [2.1302606714075734, 0.7773271831753651, 0.7222860259481252, -0.4802166738054078, -1.0192185085980103, 1.4916760978007513, 0.21601213152598464], [2.1302606714075734, 0.7893168646939254, 0.7039080418607208, -0.44127471712737365, -1.081933129478056, 1.4453590334484108, 0.2221438969637956], [2.1302606714075734, 0.8005356915571987, 0.6851295088636775, -0.4006436915616076, -1.1465709352664772, 1.399761706496644, 0.23218070871541394], [2.1302606714075734, 0.8109003897333122, 0.6661383034538289, -0.35868774335760856, -1.2135240913110616, 1.3552847841423277, 0.2461006654481024]], "attachments": [{"parent_name": "ECL_robot1_with_track", "parent_link_name": "eef_tcp_frame", "grasp_pose": [[-6.9141387939453125e-06, 0.3393014669418335, -3.5762786865234375e-07], [0.49999934434890747, 0.5000011324882507, 0.5000008940696716, -0.49999886751174927]], "child_name": "body248"}], "link_path": {"eef_tcp_frame": [[[1.7299069166183472, -1.0955841541290283, 0.7759423851966858], [-0.060544028878211975, 0.9543774724006653, -0.2458229809999466, -0.15833254158496857]], [[1.745625376701355, -1.086129069328308, 0.7881063222885132], [-0.08326631039381027, 0.9511882662773132, -0.2664530277252197, -0.13156916201114655]], [[1.7603060007095337, -1.075526237487793, 0.8004724383354187], [-0.10584550350904465, 0.9464065432548523, -0.2866491377353668, -0.10461181402206421]], [[1.7738908529281616, -1.0638445615768433, 0.8129708766937256], [-0.1282530128955841, 0.9400395750999451, -0.3063804507255554, -0.0775097906589508]], [[1.7861278057098389, -1.0512785911560059, 0.8254368901252747], [-0.15044526755809784, 0.9321116209030151, -0.3255898058414459, -0.05025381222367287]], [[1.7970635890960693, -1.0378423929214478, 0.8378349542617798], [-0.17238494753837585, 0.9226293563842773, -0.3442574441432953, -0.02292034775018692]], [[1.8066271543502808, -1.0236433744430542, 0.8500737547874451], [-0.19403742253780365, 0.9116096496582031, -0.3623500168323517, 0.004453456494957209]], [[1.8147776126861572, -1.0087785720825195, 0.8620725274085999], [-0.21536722779273987, 0.8990706205368042, -0.3798372149467468, 0.03182331845164299]], [[1.8214871883392334, -0.9933472275733948, 0.8737533688545227], [-0.23633897304534912, 0.8850326538085938, -0.39669010043144226, 0.05914417654275894]], [[1.8267390727996826, -0.9774504899978638, 0.8850412964820862], [-0.25691771507263184, 0.8695188164710999, -0.4128807485103607, 0.08637011796236038]], [[1.8305269479751587, -0.9611915946006775, 0.8958647847175598], [-0.2770690321922302, 0.8525545597076416, -0.42838239669799805, 0.11345503479242325]], [[1.8328545093536377, -0.9446757435798645, 0.906155526638031], [-0.29675889015197754, 0.8341678977012634, -0.4431695342063904, 0.1403525024652481]], [[1.8337348699569702, -0.928010106086731, 0.9158479571342468], [-0.3159542679786682, 0.8143895268440247, -0.45721757411956787, 0.1670166403055191]], [[1.8331892490386963, -0.9113032817840576, 0.924880862236023], [-0.3346228301525116, 0.7932525873184204, -0.47050341963768005, 0.19340229034423828]], [[1.83124840259552, -0.8946648240089417, 0.9331967234611511], [-0.35273313522338867, 0.7707924842834473, -0.48300468921661377, 0.21946483850479126]], [[1.827951192855835, -0.878204345703125, 0.9407424926757812], [-0.3702549338340759, 0.747046709060669, -0.49470075964927673, 0.24516043066978455]]]}}, {"element": 9, "tag": "place_retreat", "path": [[2.1302606714075734, 0.8109001688630713, 0.6661131191595496, -0.35864110448563197, -1.213537940668012, 1.355265302233753, 0.24612757288114936], [2.1302606714075734, 0.8146824278674006, 0.6644594996893766, -0.3587524413618395, -1.2123728048717837, 1.359175715996411, 0.24576815008180167], [2.1302606714075734, 0.8184738067032933, 0.6630333420013367, -0.3592707446886831, -1.2111120977599117, 1.36325935078675, 0.2452034333088932], [2.1302606714075734, 0.8222659238948447, 0.6616236948033584, -0.35980984023764295, -1.2098672123567393, 1.3673333608261427, 0.24464420893381733], [2.1302606714075734, 0.8260608545811684, 0.660249249579493, -0.3604028729842518, -1.2086294781125062, 1.3714182569619253, 0.2440750086252705], [2.1302606714075734, 0.8298585101604569, 0.6589120040767972, -0.36105337906241614, -1.2073981214443563, 1.3755154326124346, 0.2434938872573833], [2.1302606714075734, 0.8336587854874482, 0.6576122633340353, -0.36176177304518564, -1.2061732726264849, 1.3796249669450988, 0.24290067518244157], [2.1302606714075734, 0.8374615735705451, 0.6563501592651679, -0.362528151624456, -1.2049551537409782, 1.3837468033166656, 0.24229538133571424], [2.1302606714075734, 0.8412667635831091, 0.6551258189854029, -0.3633526155432491, -1.2037439451234044, 1.3878808934616815, 0.24167804305616938]], "attachments": [], "link_path": {"eef_tcp_frame": [[[1.827938437461853, -0.8782190084457397, 0.9407352209091187], [-0.3702559471130371, 0.7470443248748779, -0.49469998478889465, 0.24516773223876953]], [[1.8214471340179443, -0.8734403848648071, 0.9441020488739014], [-0.3702653646469116, 0.7470282316207886, -0.49469250440597534, 0.24521756172180176]], [[1.8150423765182495, -0.8685494661331177, 0.9475226402282715], [-0.3702625036239624, 0.7470304369926453, -0.49469465017318726, 0.24521102011203766]], [[1.8086315393447876, -0.8636713624000549, 0.9509377479553223], [-0.3702625334262848, 0.7470304369926453, -0.4946945905685425, 0.24521104991436005]], [[1.8022196292877197, -0.8587944507598877, 0.9543522000312805], [-0.3702627420425415, 0.7470301985740662, -0.4946945011615753, 0.24521178007125854]], [[1.7958076000213623, -0.8539177179336548, 0.9577665328979492], 